34 128
1 -0.004201 -0.005411 0.003924 -0.002613 0.001724 -0.004548 0.000187 0.003301 0.003636 0.000353 -0.002871 0.000258 0.002610 -0.003075 -0.001770 -0.003710 0.001728 -0.002344 0.003666 -0.002113 0.002859 -0.000265 0.001757 0.001774 0.000803 0.000892 0.002228 0.003572 0.001540 -0.001283 -0.004028 0.002972 -0.001052 0.001235 -0.002513 -0.004013 -0.002618 -0.001578 0.003195 -0.004765 -0.004068 -0.002515 0.003441 0.003286 -0.002354 -0.001857 -0.002187 0.000009 0.003658 0.003438 -0.004273 0.004676 -0.000947 0.004520 -0.004521 0.000147 -0.000911 0.003638 -0.003276 0.001743 0.002836 -0.004833 -0.003180 0.000674 -0.003148 0.000464 0.000726 0.001919 -0.003957 -0.001004 -0.000306 -0.003565 0.003683 -0.000273 -0.001836 -0.002237 0.003405 -0.002533 0.002044 -0.004086 -0.001904 -0.004308 -0.000161 -0.003931 -0.002643 -0.002415 -0.001415 -0.000713 0.002926 0.000751 0.001812 0.000807 0.001360 -0.000561 -0.001593 -0.000046 -0.000844 -0.003737 0.003586 0.001884 -0.003600 0.002709 0.001152 -0.001402 0.002049 0.003525 0.004213 0.002966 -0.002046 0.000356 -0.001611 -0.001917 0.001100 0.003331 -0.002625 -0.001967 0.002471 0.002992 -0.004072 -0.002084 -0.000916 0.001756 -0.002633 -0.001077 -0.001703 -0.000645 -0.000935 0.001691
34 -0.002381 -0.003183 0.002605 0.003162 0.003456 -0.002464 0.004356 -0.000608 -0.002327 0.000236 -0.004350 0.000877 0.001389 -0.001762 -0.002334 -0.002796 0.003336 0.000214 0.002837 0.002893 0.001176 -0.000671 0.004738 -0.002291 0.000474 -0.003804 0.002305 -0.001554 -0.001274 0.003276 0.003573 0.001622 -0.003251 0.001409 0.000740 0.002075 0.004983 0.001914 0.000308 0.001008 -0.003225 0.003877 0.003704 0.002567 -0.002123 -0.002400 0.002620 -0.002937 0.002286 0.003337 0.000918 0.002061 0.002358 0.003558 -0.003262 -0.004214 -0.000371 0.000553 -0.000513 -0.001317 -0.000939 0.001276 -0.004070 0.001428 0.000059 -0.002698 -0.002136 -0.003548 0.003247 -0.000687 -0.001913 -0.000306 -0.003449 0.002575 0.000768 -0.000530 -0.002816 0.003840 0.000949 0.001740 -0.003538 -0.002738 0.001158 -0.002928 0.001661 0.003789 -0.000346 0.001041 -0.002605 0.001779 -0.002313 0.000766 -0.000003 -0.000698 -0.002143 0.002995 -0.001893 0.002130 -0.001230 -0.001032 -0.002365 0.003742 -0.001352 -0.003363 -0.003886 0.000282 0.003777 -0.000277 -0.001261 0.001088 0.001788 0.000508 0.000222 0.003408 -0.001198 -0.001379 0.000774 0.004389 -0.001780 0.003411 -0.000964 -0.001595 0.002149 -0.000902 -0.003354 0.002989 0.002183 0.001570
33 -0.000361 -0.002779 0.000870 0.003366 0.003028 -0.003569 -0.000598 0.003828 0.002190 -0.000243 0.001853 0.000128 0.000446 -0.003209 0.003147 0.001597 -0.001163 0.002479 -0.003096 -0.000398 0.003361 -0.000127 0.002978 -0.002784 -0.002445 -0.000228 -0.002297 0.000194 0.001987 0.001938 -0.000707 0.003429 -0.000491 0.003628 -0.003699 -0.003040 -0.000170 -0.000090 -0.003614 0.003088 -0.001785 0.001780 0.002173 -0.002040 -0.001768 0.002043 -0.000983 -0.002893 -0.002941 -0.000328 -0.001357 0.003654 0.002355 -0.001661 -0.004142 0.001254 -0.002331 0.001192 0.002829 0.002381 0.003989 -0.004162 -0.002473 0.001977 0.002884 -0.003034 0.003734 -0.002086 0.001453 0.002339 0.003309 -0.000551 0.001308 0.001771 -0.002134 0.002508 0.001359 -0.000468 0.001181 -0.000535 0.003706 -0.002225 -0.001585 -0.002648 0.000245 0.002906 -0.001255 -0.000456 0.000138 0.001101 0.003489 0.002932 -0.000169 -0.001772 0.002712 0.003625 -0.002686 -0.003353 0.003464 -0.001125 -0.003165 -0.002652 -0.001816 0.003742 0.001406 -0.003012 0.001604 0.001181 0.002112 -0.002026 -0.001047 0.000606 0.000996 -0.002913 0.001522 0.000745 -0.000105 -0.002979 -0.003285 -0.003296 0.001669 -0.000435 0.002694 0.000647 0.001268 -0.001299 -0.002540 -0.002247
3 -0.003596 0.000052 0.003685 0.000628 0.001091 -0.000617 0.002491 0.000202 -0.003510 -0.001339 0.001394 -0.002471 -0.003585 -0.004417 -0.001635 -0.003316 0.003439 -0.003103 -0.000660 -0.002279 -0.002555 0.001548 -0.000440 0.003868 0.003661 -0.001645 -0.000079 0.002771 0.003950 0.003843 -0.002196 -0.002023 -0.003782 0.003720 -0.001359 -0.003447 0.001642 0.002394 0.001105 0.001643 0.000057 -0.003652 0.001375 0.003769 -0.002266 -0.000379 0.002710 -0.002774 -0.003786 0.002873 0.002891 -0.000846 -0.003533 0.001407 -0.002991 -0.002665 -0.002162 0.001131 -0.002058 0.003630 -0.003115 0.001360 -0.001281 0.003831 0.000039 -0.002790 0.003415 0.002606 0.000793 -0.003411 0.002347 0.000782 -0.002218 0.002485 0.001934 -0.001562 0.003801 -0.001058 0.003552 -0.001080 -0.000534 0.002138 -0.001458 -0.002454 0.001033 0.001944 -0.000340 0.001067 -0.002342 -0.000957 -0.001088 0.002104 -0.000778 0.000434 -0.003728 0.002997 -0.003617 0.002635 0.003566 0.000474 -0.003946 0.000955 -0.003835 -0.001275 0.001691 0.003915 0.000215 -0.000038 0.002660 -0.002242 0.002471 0.000018 0.000836 0.000704 0.000453 0.001831 -0.001091 0.002718 0.002653 0.000295 -0.002107 -0.003594 -0.001149 -0.001405 -0.002797 0.000855 0.001258 0.002057
2 0.002658 -0.001979 -0.000436 -0.001005 -0.001075 -0.000479 0.002316 0.002634 -0.002977 -0.000255 -0.001769 0.002965 0.002420 -0.003720 -0.000488 -0.004182 -0.002442 0.001434 -0.000589 -0.000356 0.002010 0.000991 0.003767 -0.000098 -0.002919 -0.000901 -0.001779 0.000521 0.002429 0.002123 0.002540 -0.000800 -0.003857 0.003494 -0.003916 0.001500 0.001588 -0.002638 0.001335 -0.001866 0.000409 0.003043 0.002571 0.000249 -0.003312 -0.000084 -0.001944 -0.001476 0.001598 -0.001574 -0.000160 -0.001992 0.002142 0.004403 -0.004861 -0.000741 0.001812 0.003393 -0.002777 0.003458 -0.001374 0.000997 -0.000857 -0.002342 -0.001395 0.002602 -0.001019 -0.001566 -0.003868 -0.002546 -0.001262 -0.000840 0.003292 -0.000664 -0.000757 0.002507 0.001819 -0.001712 0.000804 -0.001503 -0.002365 -0.003012 -0.003644 -0.000408 0.001633 0.003816 -0.000835 -0.000548 0.003398 -0.002560 0.002863 0.003238 0.000794 -0.004054 -0.004536 0.001741 -0.001908 -0.002737 -0.002010 0.003205 0.001672 -0.002115 0.000705 -0.004151 -0.000587 -0.003268 0.005179 0.004289 -0.003180 0.000079 -0.002953 0.001662 0.001665 -0.001591 -0.003536 -0.000800 0.000671 0.002633 -0.003773 -0.001297 -0.001629 -0.002354 0.001746 -0.004799 0.001165 0.002030 0.003851 0.001055
4 -0.000269 0.003187 0.000232 0.001655 0.002381 -0.002810 -0.003203 0.004010 0.000692 -0.002104 0.003259 0.001266 0.002822 -0.001493 -0.000968 -0.001320 0.000674 -0.002632 0.001144 0.002284 0.001770 -0.000759 -0.002034 -0.001374 0.001883 0.000858 -0.002530 0.002108 0.003302 -0.001341 -0.002037 -0.002309 -0.000749 -0.000291 -0.001895 -0.001414 0.002804 0.002357 0.001355 0.001655 0.000755 -0.003081 0.003591 0.003784 0.001266 -0.002961 -0.000891 -0.003277 -0.002535 -0.002306 0.002492 -0.002631 0.000966 0.001688 -0.002360 0.001210 0.001673 0.000552 0.001428 -0.001613 0.004102 -0.002427 0.001400 0.000535 0.002442 0.003415 -0.003859 0.001764 -0.000279 -0.001811 0.000436 0.001269 0.002687 -0.003556 0.002335 -0.001123 0.003731 0.002163 -0.001702 0.002947 0.001135 -0.004187 -0.000892 0.000816 0.001824 -0.000457 0.003774 -0.002181 0.002825 0.001292 -0.002476 -0.000630 -0.003298 -0.001515 -0.001484 0.001739 -0.003363 -0.002258 0.000513 -0.000165 -0.002924 0.001083 0.003488 0.003156 -0.003225 0.001958 -0.001930 0.001793 -0.001684 -0.001350 0.003158 -0.001126 0.000301 0.001157 -0.000258 0.002639 -0.000333 0.001716 -0.000947 -0.000189 0.001817 0.000752 -0.003427 -0.004335 -0.003758 0.001031 0.003531 0.002675
32 -0.002066 -0.003762 -0.003647 0.000229 0.000311 0.000034 0.002862 -0.000507 -0.001579 0.000880 -0.001341 0.002437 -0.001270 0.000406 0.000480 0.001592 0.000929 -0.001582 -0.003601 0.000225 0.000531 0.002870 -0.002584 -0.001791 -0.003093 -0.001237 -0.001776 0.003664 0.001427 -0.001760 -0.001215 -0.000084 0.003361 0.002564 -0.002637 -0.000162 0.003464 0.003556 -0.000966 -0.002895 -0.003463 0.001691 -0.000039 -0.000189 -0.003747 -0.000846 0.003010 0.001477 -0.000454 -0.003130 -0.000944 0.001986 -0.001079 0.002241 -0.003603 -0.002888 -0.001784 -0.000222 -0.000384 -0.000927 0.001418 -0.000097 -0.003207 0.003761 -0.003566 -0.001281 -0.002542 0.002706 0.000340 -0.004103 -0.003329 0.002942 0.001155 -0.001536 -0.001904 0.002564 0.001191 0.000549 -0.000371 -0.000412 -0.001181 -0.002148 0.002812 -0.000115 -0.000505 0.003844 0.001635 0.000711 0.001293 -0.002694 0.001736 0.002776 0.002394 -0.002717 0.001029 0.000274 0.000149 -0.001546 -0.003356 -0.003440 0.001189 -0.002639 -0.003726 -0.002461 0.002390 0.003855 0.003832 -0.001943 -0.003636 0.001403 0.000540 -0.002127 0.002251 0.002903 0.002378 0.002216 -0.000737 0.003680 0.002772 -0.001605 -0.001645 -0.003948 0.000067 0.001101 0.002797 -0.003384 -0.003623 0.003164
14 -0.001912 -0.003154 0.003907 -0.003109 0.002052 0.000909 -0.001747 -0.001081 -0.001765 0.002132 -0.004156 0.002202 -0.001198 -0.001078 0.000169 0.000551 0.001954 -0.000460 0.000899 -0.002335 0.003310 0.003905 0.000424 0.002421 -0.001239 0.001796 0.002838 0.003872 -0.003580 0.003378 0.001804 0.001575 -0.001744 0.003056 0.002060 -0.001898 -0.000810 0.000106 -0.001415 -0.000693 -0.004187 0.000461 0.002273 0.002946 -0.000853 0.001417 0.001222 0.002135 0.000127 0.003910 -0.002022 0.000669 -0.000878 0.002652 -0.000485 -0.001831 -0.003456 0.003702 -0.003007 -0.001999 0.000167 -0.003545 0.002168 -0.002941 -0.003019 0.002042 0.002141 -0.002505 -0.000836 -0.002632 -0.002922 0.002638 -0.002845 0.003622 0.003497 0.001743 0.001620 -0.000676 -0.000673 -0.003558 -0.002090 -0.000097 0.002252 0.003077 -0.003440 0.003702 -0.001545 -0.001445 0.002199 -0.000912 -0.000372 -0.000753 0.000544 -0.001140 -0.002488 0.004284 -0.002802 0.002767 0.003257 0.000955 -0.003716 0.000214 -0.001051 0.001872 -0.003323 0.002418 0.004302 0.004032 -0.003894 -0.001252 -0.003517 -0.002863 -0.002194 0.001676 0.002903 -0.001277 -0.002835 -0.000258 -0.001746 0.001311 -0.000221 -0.002311 -0.000376 -0.003881 0.001595 -0.001232 -0.002077 0.000658
20 -0.000627 -0.002065 0.000120 0.000889 -0.002822 -0.003880 0.003749 0.002015 -0.002658 -0.001472 -0.002505 -0.002326 0.004071 -0.001051 -0.001376 -0.001279 -0.003091 0.001110 -0.001334 -0.003098 0.002627 -0.001731 0.003061 0.000428 0.001492 0.002804 0.003771 -0.000949 0.001231 -0.002845 -0.003041 -0.000959 0.000789 -0.000791 0.002299 0.001425 0.004018 -0.002806 -0.002763 -0.004256 -0.004048 -0.001975 -0.002146 0.000513 0.001465 0.000206 0.003291 0.000167 0.001181 -0.002592 -0.004059 0.000736 0.002602 -0.003217 -0.001176 0.000397 0.000106 -0.003667 -0.003360 0.002236 0.004269 0.001216 0.001180 0.001455 -0.000761 -0.000931 0.000131 0.002461 -0.002975 0.002590 -0.002199 0.001538 -0.001709 -0.000452 -0.000027 0.002208 0.001910 -0.000854 0.001302 0.002440 0.000798 -0.003731 -0.000483 -0.003873 0.002178 0.003968 -0.002921 0.001319 -0.002344 0.001813 0.002845 0.000582 0.000823 -0.001160 0.000950 0.000084 0.001945 -0.001031 -0.002616 0.003498 -0.002619 -0.002962 -0.003764 0.003183 -0.000591 0.002495 -0.000180 0.000865 0.002973 0.002721 -0.002030 0.002362 0.000583 0.001738 -0.002591 -0.001917 0.002893 0.002422 0.000002 0.000743 -0.000706 0.003554 0.000056 -0.003479 0.001202 0.002187 -0.002716 0.001410
30 0.002945 -0.004128 -0.003013 0.003850 -0.003672 0.000990 0.003161 -0.001440 -0.000274 0.001945 -0.004166 0.000394 -0.001114 -0.002374 -0.001708 -0.003186 0.000996 -0.000841 -0.003739 0.003524 0.001513 -0.001941 0.004293 -0.003708 0.001495 -0.002175 0.002706 -0.000114 -0.003288 0.002353 -0.000696 -0.002162 0.000689 -0.001608 -0.002616 0.002512 0.000894 0.002935 0.000822 -0.003763 -0.000589 0.001589 0.001684 0.003899 -0.000267 0.000964 0.000235 -0.003178 -0.000697 0.001791 -0.000903 0.003020 0.002128 -0.003445 0.001787 0.000851 -0.004213 0.001340 0.001930 0.000404 0.001375 -0.003710 0.003045 0.001229 0.003582 -0.002377 -0.002085 -0.001237 0.001614 -0.003101 0.001371 0.000540 0.000042 -0.000182 0.000796 -0.002050 0.000536 0.003349 0.000046 0.003059 -0.004061 -0.002493 -0.003647 -0.001140 0.000244 0.003407 -0.002918 0.001490 -0.002118 0.001100 0.003444 -0.003282 0.000784 0.001906 0.003006 0.001672 -0.002681 0.002722 0.001002 -0.002251 0.003204 0.000995 -0.002357 -0.004025 -0.001249 -0.000804 0.002525 0.001555 -0.003911 -0.000955 -0.002340 -0.003838 -0.002498 -0.002398 0.003127 -0.001763 -0.003399 -0.000574 -0.001830 0.003645 -0.003242 0.000976 0.000523 0.001197 0.002498 0.002103 0.003853 0.001148
6 0.000799 -0.002240 0.001109 0.003701 0.000424 0.000662 0.002603 0.002830 -0.000208 0.000558 0.000861 -0.000024 -0.000890 -0.002948 0.002266 -0.000981 -0.001420 -0.003230 0.001787 -0.002677 -0.000349 -0.002361 -0.000232 -0.003056 0.002877 -0.002264 0.001113 -0.003576 0.000441 0.003969 0.000333 -0.002447 0.001529 -0.000420 0.000601 -0.000542 0.001657 0.003425 -0.003802 -0.004604 -0.002868 0.002381 0.004338 -0.001618 -0.004437 0.001809 0.002518 -0.003863 0.003651 0.003364 -0.000984 0.003130 -0.003234 0.000774 0.002046 -0.002593 -0.000704 -0.001676 0.002140 -0.003484 0.004575 0.001502 -0.000060 0.000712 0.000164 -0.003609 -0.003017 0.000482 -0.002823 -0.003494 0.001939 -0.000630 -0.002184 0.003472 0.002841 -0.000437 0.002333 0.003560 -0.000933 0.000932 -0.003648 0.002148 0.001803 0.000520 0.003018 -0.003118 0.002880 -0.001511 -0.001017 0.000155 0.003424 0.001624 0.002448 0.002158 -0.000650 0.001709 0.000982 -0.004601 0.002932 -0.001631 0.001994 -0.001586 -0.000535 -0.000021 -0.002554 0.002818 0.000221 0.004273 0.001931 -0.001671 0.002611 0.001813 -0.000679 0.002040 0.000267 0.003413 0.001227 -0.001374 -0.000563 -0.000855 0.000439 -0.002409 0.003005 -0.004977 -0.003714 0.001292 0.003909 -0.003024
24 0.002073 0.000958 0.002995 0.003640 0.001138 -0.001113 -0.000009 0.000986 0.001404 0.001513 0.003159 0.000132 0.002967 -0.003713 -0.000246 -0.002366 -0.001542 -0.001006 0.000972 -0.000980 0.001336 0.001164 0.000615 0.003504 0.001262 0.002931 -0.001076 -0.002419 -0.000630 0.002750 -0.003431 0.000842 -0.003924 -0.001155 0.000910 -0.001382 0.004391 -0.002001 -0.000433 -0.002696 0.000496 0.003729 0.000220 0.002222 -0.001081 0.001920 -0.002555 0.003019 0.001118 -0.002314 0.003290 0.001559 -0.003125 0.003829 0.002676 0.002972 0.002801 0.000533 -0.001214 -0.001593 0.000154 -0.000992 0.001118 0.000622 -0.003196 -0.002348 -0.001176 0.001954 -0.001480 0.001880 0.001111 0.002236 -0.003160 0.000364 0.000583 -0.000336 -0.003006 -0.002744 -0.000636 0.003325 0.003152 0.002153 0.000562 0.002278 -0.001898 -0.002550 -0.002453 0.003733 0.002095 0.001340 -0.000941 0.001133 0.001575 -0.001740 0.001452 0.004019 0.002321 0.000776 -0.000909 -0.001117 -0.002952 0.003584 0.002447 0.002015 -0.002048 0.002803 0.001184 0.001225 0.000198 0.001750 0.003420 -0.002166 0.000219 0.000547 -0.003985 -0.001165 -0.001253 -0.001160 0.002049 0.002804 0.000773 -0.003426 0.000851 -0.002633 0.003208 0.001819 0.000290 0.003066
7 0.003360 -0.000750 -0.003270 -0.000832 -0.003031 0.002089 0.001337 0.001331 0.003963 -0.000723 -0.002071 0.001278 0.001087 -0.004861 0.002874 -0.000238 0.000584 -0.000802 -0.002744 -0.000815 0.001818 -0.001766 0.001109 0.003137 0.003220 -0.002913 -0.003706 -0.002015 -0.002379 -0.000922 0.002435 0.003658 -0.002995 -0.003136 -0.002982 -0.001004 -0.001533 -0.003441 -0.001510 -0.002818 -0.004629 0.001413 0.002018 0.003041 -0.000695 0.002552 0.001453 -0.000379 0.003114 0.000977 -0.003074 0.003844 0.000159 0.003827 -0.003356 0.001729 0.000120 -0.002352 0.002514 0.003630 0.002007 -0.000436 0.000630 0.002492 -0.001342 0.001095 0.001265 0.003791 0.000165 -0.003573 -0.001541 0.002670 -0.002970 0.001418 0.001644 0.001029 -0.000555 0.001868 0.000072 -0.002903 0.000209 0.002605 -0.001274 0.003016 -0.001927 -0.002487 -0.003088 0.000745 -0.001904 0.002345 0.004423 0.000015 0.003588 -0.000939 -0.001350 0.003220 0.002564 -0.004230 -0.002399 0.000831 -0.002436 0.001307 -0.004199 -0.001289 -0.001191 -0.003132 -0.002197 0.000944 0.003060 0.000258 0.001466 0.003689 -0.001541 -0.003059 -0.002863 -0.000573 -0.001054 -0.001519 -0.003954 0.003585 -0.002183 0.002893 0.003418 0.000136 -0.002808 -0.001898 0.003513 0.003830
9 -0.001438 -0.000313 -0.003108 -0.000884 0.000067 -0.000404 -0.000064 0.002145 0.004033 -0.000512 0.000504 0.003559 0.000611 -0.004340 -0.001000 -0.001668 -0.002023 0.002283 -0.001845 0.001200 -0.002895 0.003329 0.004241 -0.003453 -0.001456 0.002318 -0.001577 -0.003694 -0.000946 0.002263 0.001096 0.003742 -0.002452 -0.002010 0.003231 -0.002622 0.003657 0.000047 -0.003666 0.002410 -0.004110 -0.003272 0.001939 0.003623 -0.003349 -0.001724 0.000296 -0.002360 -0.001780 -0.003469 -0.003031 0.001620 -0.002138 0.001156 0.002720 -0.001577 -0.001972 -0.000212 -0.001137 -0.002237 0.000686 -0.000913 -0.002997 0.001998 0.001934 -0.001959 0.001784 -0.000071 -0.001505 -0.000305 0.001510 0.003031 0.003489 -0.001512 0.003445 -0.001886 -0.002394 0.003543 -0.003001 0.002065 0.002589 -0.001565 -0.003665 -0.004310 -0.001918 -0.000073 0.000192 0.000144 -0.002062 0.001407 0.002614 -0.001153 0.004112 0.003475 -0.001115 -0.003391 0.001868 -0.000455 0.000116 0.002018 -0.003967 -0.003197 -0.003536 0.000705 0.000685 0.000063 -0.001063 0.003658 -0.004060 -0.003363 0.002785 0.000480 0.003444 -0.001385 -0.000593 -0.002194 -0.003486 0.003798 -0.002100 0.002755 -0.001809 -0.002262 -0.001270 0.000146 -0.002439 0.003397 0.000325 0.002002
8 0.000413 -0.004083 0.002184 0.000894 -0.002542 0.001106 0.002290 0.000988 -0.000035 0.002941 -0.001918 0.000382 -0.002313 -0.000491 0.003105 -0.002976 0.001962 -0.000097 0.003684 0.002325 -0.000715 -0.000128 -0.000260 -0.003468 0.001145 0.003802 -0.000276 0.002726 -0.001684 0.002608 -0.001069 0.000703 0.000655 0.002485 -0.001509 -0.001551 0.003764 -0.000836 0.003172 0.003265 -0.001639 0.000310 -0.002352 0.003169 0.000595 0.003042 -0.002454 -0.000722 -0.001490 0.002220 -0.002433 -0.001791 0.003998 0.002625 -0.003355 -0.000215 -0.003780 -0.001211 -0.002122 -0.002293 -0.001872 -0.003570 0.000646 0.001473 0.001781 -0.002973 0.003021 -0.001440 -0.000423 -0.003232 -0.002900 -0.001586 -0.002016 -0.000123 -0.000404 0.001295 -0.002227 -0.000860 -0.000622 -0.000500 0.002129 -0.003705 -0.002510 0.001427 -0.003611 0.003975 0.002671 0.000768 0.001150 -0.002706 0.002285 -0.002239 -0.000301 -0.000372 -0.001534 -0.002440 -0.001305 -0.003907 -0.002340 -0.002957 0.002538 -0.003285 -0.004205 -0.001471 0.002949 -0.003035 0.002486 -0.003574 -0.001853 -0.002487 -0.003806 0.001936 0.002002 -0.000281 -0.004055 0.003165 -0.001764 -0.000681 -0.002511 -0.000170 -0.002228 -0.003445 0.003402 0.000209 0.001776 -0.003534 0.002678 -0.002119
28 -0.003461 -0.003424 0.004057 0.000331 -0.000013 0.002734 0.000866 -0.000761 -0.002472 -0.000208 0.001245 0.003212 -0.000251 0.001955 -0.002192 -0.001119 -0.000938 -0.002447 0.002303 0.001738 -0.002945 -0.000136 0.000119 -0.000859 -0.001835 0.002608 -0.003422 0.001377 0.003390 0.000008 -0.000848 0.003460 0.001633 0.003487 0.000098 -0.003813 0.002907 0.001558 0.001345 0.000515 -0.002097 -0.002797 0.002686 0.003278 -0.003754 -0.002116 -0.003595 -0.000984 -0.003403 -0.002143 -0.004214 0.001190 0.002275 -0.002245 0.002882 -0.000686 -0.003185 -0.002854 -0.003956 0.000242 0.000240 -0.002727 0.002499 0.002575 0.000831 -0.001360 -0.001050 0.003427 -0.003356 -0.004386 -0.001647 0.003141 -0.003009 -0.003361 -0.000525 0.001168 -0.000375 0.002952 -0.003591 0.002767 -0.000061 -0.004188 0.001603 0.000459 -0.001052 0.004090 0.000820 0.002802 0.000386 0.001369 0.001642 0.000333 -0.001905 -0.003331 0.002397 -0.000986 -0.000426 0.001673 -0.000034 -0.002780 -0.003028 0.003571 -0.003944 -0.001791 0.002013 0.003616 0.004105 0.003923 0.000833 -0.003785 0.001432 0.001222 -0.002652 -0.000676 0.000709 -0.002366 -0.003034 -0.000612 -0.001637 -0.002091 0.000116 -0.001711 0.000528 0.001967 -0.003145 -0.003414 0.001040 0.002373
25 -0.003008 -0.002321 -0.002215 -0.001395 -0.003493 -0.001373 -0.001578 -0.002671 0.003891 -0.000416 -0.001816 -0.001702 0.000240 0.002269 -0.000747 -0.004122 0.001886 -0.002395 0.002294 0.003446 0.003670 -0.000949 0.003302 0.002754 0.001032 -0.003507 0.001043 -0.001103 -0.003780 0.002504 0.001876 0.000724 0.000338 -0.003124 -0.003933 0.001049 -0.002525 0.003247 -0.002409 -0.002366 -0.003958 0.002402 -0.001631 -0.002566 0.001608 0.003984 0.001690 0.003118 0.002806 0.000354 -0.004329 0.003457 0.002334 0.001909 -0.003979 -0.001919 0.002316 -0.003760 -0.001259 0.003172 -0.001313 0.001835 0.001902 -0.001164 -0.003480 -0.002136 -0.000884 0.001875 -0.003847 -0.000232 -0.000824 -0.002269 0.001986 0.002501 -0.000837 -0.003584 -0.003479 0.002082 0.002042 -0.001795 -0.000068 -0.002797 -0.000310 -0.003629 -0.001223 -0.000331 -0.000311 -0.003724 -0.003374 -0.003715 -0.001854 -0.000842 0.003721 -0.002809 -0.001909 0.001663 -0.000088 -0.000775 0.001038 0.001724 -0.003890 0.001525 -0.003807 0.000730 0.001715 -0.001217 0.002071 0.002155 0.002063 -0.001863 -0.002018 0.000182 0.001676 -0.001978 -0.004386 -0.001125 0.002220 0.000068 -0.001128 -0.001245 0.000715 0.003099 -0.000844 -0.003250 -0.002033 0.004068 -0.003256 0.000336
26 0.002905 0.001224 0.000936 -0.001211 0.001682 -0.002627 0.002304 -0.001298 -0.003631 -0.001511 -0.001810 -0.002664 0.003643 -0.003651 -0.001122 0.001684 0.001334 -0.000571 -0.001328 0.001499 0.004322 0.000904 0.003970 0.002061 -0.001900 -0.001896 -0.003817 -0.002299 -0.001991 0.003642 0.002051 0.001169 0.000870 -0.003305 -0.004084 -0.003584 0.002547 -0.001070 -0.001644 -0.001683 -0.001278 -0.002848 -0.002443 -0.000549 -0.002489 0.004407 -0.003270 -0.000182 -0.001536 0.003218 0.002740 0.002925 -0.001333 -0.002556 -0.000571 -0.001159 0.001182 0.001087 -0.003631 0.000529 0.002347 -0.002360 0.000468 0.003900 0.000485 -0.000057 0.001557 -0.003174 0.000671 0.000024 0.000209 0.000618 -0.002238 -0.000865 0.002555 -0.002773 -0.003547 0.000073 -0.001169 -0.001563 -0.003142 0.001395 0.000900 0.000746 0.001595 0.002975 -0.003432 0.000503 -0.000276 -0.000338 0.001822 0.000518 0.003333 0.003507 0.002153 -0.001244 -0.001196 0.000646 0.003107 -0.001985 0.000669 -0.000098 -0.000008 0.002314 0.001432 0.001854 0.003673 0.001325 0.003481 0.003064 -0.003204 -0.001651 0.000816 0.002866 0.000733 -0.000165 0.000811 -0.001548 0.003306 -0.003974 -0.000501 -0.002957 -0.001908 -0.004442 0.000873 0.003157 -0.001737 -0.003116
5 0.000411 -0.004075 -0.003797 -0.000045 0.002905 -0.001526 0.003767 -0.003139 0.003891 -0.002558 0.002749 0.003297 -0.002676 0.000358 0.002191 -0.003928 -0.002158 -0.003381 -0.001182 0.001902 0.002634 0.003191 -0.003142 0.003989 0.001428 -0.002838 -0.000633 -0.003244 -0.001162 -0.000556 -0.002317 -0.000983 -0.002494 0.001644 0.002043 -0.003297 0.001357 0.001670 -0.001048 -0.000126 0.002831 -0.000469 -0.001704 0.000122 -0.002915 0.000653 0.000606 -0.001013 -0.000036 -0.001669 -0.001197 0.003738 0.003401 -0.003265 0.001866 -0.002566 0.001959 -0.001192 0.002401 -0.003735 -0.001097 -0.002940 0.002248 0.003065 -0.003020 0.000186 0.003096 -0.000779 0.001339 -0.003271 -0.001914 0.000518 -0.002508 -0.003232 0.001219 -0.002947 -0.002061 -0.003189 -0.003225 -0.003571 -0.002824 -0.000006 -0.001668 -0.000418 -0.002665 -0.003493 0.002268 0.003531 0.001922 0.000025 0.003400 -0.001229 0.001871 0.001128 -0.003093 0.001335 -0.003326 -0.002943 0.003657 0.003803 -0.004282 0.000127 -0.002327 -0.003929 -0.003681 -0.001219 0.001866 0.000208 -0.003273 -0.001434 -0.002492 0.000283 0.001228 -0.002748 -0.002659 0.003356 0.003300 0.001025 0.002888 0.001422 -0.000581 0.001433 0.001102 -0.004292 -0.003432 0.002079 -0.001633 0.004112
29 -0.001040 -0.000540 -0.002149 -0.001521 0.001701 -0.002342 0.000086 -0.003065 0.000050 0.001356 0.001491 0.003738 -0.001864 -0.001740 0.000044 -0.002581 -0.003577 -0.003729 0.002223 -0.000478 0.002323 -0.001675 -0.003196 -0.000863 -0.002857 -0.001846 -0.000338 -0.001839 0.002924 0.002559 0.002735 -0.000949 0.002197 -0.000335 -0.003020 0.000696 0.003831 0.001529 0.001829 -0.003910 0.003147 0.002373 -0.003520 -0.003389 0.001946 0.004034 -0.001636 -0.000779 -0.002380 0.000460 -0.001392 -0.000460 -0.002156 0.000244 -0.004205 0.003670 0.003730 0.002609 0.001385 0.001594 0.001478 -0.003522 -0.002520 0.000320 -0.003257 -0.002388 -0.003728 -0.001217 0.002377 0.003217 -0.003061 -0.000046 -0.003344 0.002392 0.000962 0.003486 0.003306 0.000547 0.001269 -0.000195 -0.003623 0.002253 0.002239 -0.003095 0.000808 0.001201 0.002513 -0.003384 0.000278 -0.003676 0.001307 -0.002819 -0.000498 0.001236 0.003356 0.003376 -0.002924 0.002932 -0.000246 -0.003195 -0.002802 0.002716 -0.001274 0.000683 0.001333 0.000310 -0.002539 -0.002679 0.001045 0.001518 0.002166 0.000668 -0.003082 -0.001942 -0.003338 -0.003358 -0.001861 -0.002891 0.002926 -0.000462 -0.001377 -0.000956 -0.002585 -0.002742 0.002734 0.002287 -0.001509 -0.003072
11 -0.003377 -0.003406 0.001612 0.001362 0.002061 -0.001911 -0.002333 0.003545 0.002867 -0.003062 -0.000970 0.001436 -0.001917 0.001548 0.003723 -0.004007 -0.001653 -0.001134 0.000531 -0.003118 0.003219 -0.001026 0.002902 0.000713 -0.001089 -0.002329 -0.001914 0.000324 -0.002637 -0.002327 0.001978 -0.000143 0.001888 -0.003423 0.001506 0.002962 0.004228 0.002605 -0.000059 0.003047 0.001665 0.003037 0.004223 0.000255 -0.001965 0.002626 0.003041 0.002499 -0.001365 0.002004 0.001107 0.001610 0.000245 0.000326 -0.000760 -0.003125 0.000535 0.002607 -0.004074 0.001041 0.000283 -0.002953 0.003578 0.003101 -0.003110 0.000848 -0.003930 -0.000722 0.002333 -0.004084 0.000290 -0.000408 -0.002787 -0.001252 0.004069 0.001258 0.001343 -0.002683 -0.002705 -0.001435 0.001183 0.002993 -0.000916 -0.001560 -0.003897 0.000091 0.003733 0.000241 0.001834 0.000640 -0.000820 -0.002677 0.001647 0.002757 0.001210 -0.001820 0.001799 -0.001178 -0.000907 0.003378 0.002820 0.003639 -0.001828 0.000602 -0.001470 -0.000500 0.002729 -0.002453 0.001509 -0.002795 -0.000392 0.003329 -0.003889 -0.002064 -0.000802 -0.001863 -0.002989 0.002527 -0.001460 -0.002188 0.000895 -0.002896 0.003963 -0.004483 -0.001525 -0.003432 -0.002181 0.000747
31 0.001485 0.000120 0.003213 0.002553 -0.000862 -0.003707 -0.000156 -0.003291 -0.003254 0.001058 0.002705 0.004438 0.003661 -0.004247 0.000072 -0.004295 -0.003954 0.001150 0.001614 -0.000266 0.001582 -0.001516 -0.002047 0.003137 0.001333 0.000972 0.002272 0.003710 0.000048 0.000703 -0.002637 0.004084 -0.004132 0.003124 0.001719 0.002346 -0.000078 -0.000498 0.003285 -0.004365 -0.000343 0.002647 0.000814 -0.001061 -0.002175 0.000329 -0.002558 -0.003264 -0.001127 0.002241 -0.003910 0.003731 0.000496 -0.001235 0.000237 -0.002407 0.000997 -0.001864 -0.004155 -0.003461 0.003701 -0.001826 -0.003477 -0.002761 -0.002930 -0.001870 -0.003924 -0.001886 -0.002449 -0.000957 -0.000096 -0.002117 0.000223 0.000052 0.002701 0.000028 0.004066 -0.000951 0.003471 0.001886 0.001184 -0.002185 -0.002381 -0.002524 0.000768 0.000666 -0.003207 -0.002382 0.000457 -0.002876 -0.003136 0.003446 0.003896 -0.001202 -0.004370 0.000962 -0.003014 -0.000762 -0.000330 0.003154 -0.004581 0.000065 -0.000570 -0.003619 -0.001893 0.000982 0.002407 0.002991 0.001584 0.000061 -0.002959 -0.003736 -0.002169 -0.002650 0.000799 0.002692 -0.003601 0.004221 -0.004296 0.002318 -0.002659 -0.002535 -0.001849 -0.004470 -0.000991 0.002458 -0.003471 0.000537
27 0.001988 -0.004363 -0.002448 -0.003123 0.000675 0.001225 0.001916 0.003586 -0.002694 0.000959 -0.002212 -0.001414 -0.001034 0.002824 -0.000464 -0.002846 0.003441 -0.002553 0.000103 -0.003748 0.003411 0.001727 0.001850 0.003610 0.000322 -0.003301 -0.003664 0.003261 -0.001949 0.001776 0.000545 -0.002853 -0.001779 -0.002485 0.001875 -0.002675 -0.001413 -0.000286 -0.001480 -0.003126 -0.003441 0.000157 -0.000495 0.001158 0.000833 0.003066 0.003806 -0.000624 0.000251 0.002489 0.002303 0.002707 -0.002385 0.003668 -0.001117 -0.003300 -0.000917 0.001282 0.003011 0.001663 -0.002207 0.003382 -0.002101 -0.000051 0.000591 -0.000021 -0.002820 0.002833 -0.000927 -0.001261 -0.003664 0.003011 0.000505 -0.003847 -0.002004 -0.003443 0.002563 -0.002551 -0.001869 0.000938 -0.003047 -0.000971 -0.000192 0.003135 -0.003815 0.001008 0.003695 -0.001374 -0.003817 0.000673 -0.002707 -0.003474 0.001192 0.000713 -0.003033 0.000555 0.000692 -0.003059 0.003073 -0.002904 -0.004212 0.000510 0.002546 -0.003792 0.002111 0.002121 0.003835 -0.002717 -0.003126 0.002253 0.001890 -0.000292 -0.000984 -0.001570 0.001595 -0.001867 -0.000537 0.001480 -0.002834 -0.000673 -0.002652 0.002645 0.001920 -0.003661 -0.002808 0.002348 0.001117 0.000517
13 0.002561 -0.000549 0.001446 -0.002658 -0.001195 -0.001120 0.001659 -0.002252 0.001128 0.002785 -0.002487 -0.002026 0.001981 -0.004149 0.001225 -0.001099 -0.003309 -0.001697 -0.001309 -0.003002 0.004452 -0.000142 -0.003035 0.001187 -0.003661 -0.000164 0.003543 0.002581 0.000993 0.000547 -0.002560 0.002434 -0.001482 -0.001969 -0.000229 -0.002866 0.004237 0.003882 0.000353 -0.001361 0.001239 0.000483 0.000597 0.002348 -0.000568 0.003768 0.001293 0.000576 -0.001801 0.002676 -0.003220 0.003444 0.002326 0.002935 -0.003366 -0.002937 -0.003505 -0.002582 0.002118 -0.002612 0.003049 0.000029 -0.002446 -0.002448 0.002436 -0.003103 -0.002555 -0.002331 0.002842 -0.004162 -0.002672 -0.001648 0.000009 -0.002360 0.001816 -0.003316 -0.000834 -0.001585 -0.002991 -0.002987 0.000044 -0.003280 -0.001118 -0.002396 -0.004133 0.000232 0.002394 -0.000752 -0.002836 0.003871 0.004596 -0.001423 -0.002152 -0.003518 0.000106 -0.001587 -0.000266 -0.004413 -0.002439 0.000376 0.002244 0.000231 -0.001686 -0.000163 -0.001332 -0.003756 0.003722 -0.001767 -0.000430 -0.004093 0.003576 -0.000615 -0.000848 0.002915 -0.003601 -0.002821 -0.003245 0.003885 0.000687 -0.002221 0.000572 0.002443 0.004086 0.000680 -0.001649 0.002722 0.001876 0.003382
17 -0.000566 -0.001579 0.000902 0.002616 -0.003765 -0.002910 0.002549 0.002261 0.003865 0.003293 0.001267 0.004282 0.001954 0.001686 -0.001945 0.002382 -0.000050 -0.004051 -0.001948 0.002241 0.000287 -0.003492 0.003123 -0.002468 0.003096 0.002288 -0.001240 -0.000119 0.001848 0.003361 0.000848 0.000500 0.001830 -0.000665 -0.002078 -0.003546 0.002900 0.001832 -0.000960 0.001757 -0.001542 -0.003360 -0.001803 0.003041 -0.002242 -0.001537 0.001511 0.002242 -0.000562 0.001856 -0.002407 -0.001516 0.000647 -0.003525 0.001830 -0.001701 -0.003862 0.003788 0.002519 -0.003562 0.001371 -0.001689 0.001855 -0.001367 0.000580 0.002528 -0.000534 -0.000673 0.000658 0.001327 -0.002768 -0.000662 0.000460 -0.002228 0.003038 0.003853 -0.002383 -0.002368 0.000997 -0.003491 0.001121 -0.000161 0.003075 0.002855 -0.003815 0.000179 0.003284 -0.001963 0.003958 -0.000960 -0.002535 -0.000320 -0.000413 0.003245 -0.001545 -0.000218 0.003288 0.001235 0.002719 0.002567 0.001420 -0.000652 -0.002448 0.001810 0.000242 -0.001333 0.001106 -0.002260 -0.002308 0.002841 -0.000220 0.000819 0.003761 0.001592 0.000054 -0.000213 -0.001265 0.003771 -0.001059 -0.003528 0.002882 0.002726 0.002369 0.001729 -0.003931 -0.001795 -0.000013 0.003041
18 0.001171 -0.000595 -0.003190 -0.001043 0.001685 -0.001412 -0.003003 0.002168 0.002872 0.003982 -0.001096 0.003291 0.003279 -0.001109 0.001099 -0.004061 -0.001632 0.001240 -0.002992 0.003684 0.004484 -0.000435 0.004453 0.000674 0.003254 0.003290 0.000531 -0.000090 0.001814 0.001676 -0.000158 0.002777 0.001021 0.002612 0.001425 -0.002489 -0.000678 -0.000188 0.000912 0.002708 -0.001989 0.003948 -0.002709 -0.000856 -0.001546 0.003215 -0.003388 0.000153 0.001716 -0.001764 -0.000959 -0.002412 0.003312 0.003828 -0.001174 0.003114 0.000340 -0.003546 -0.002132 -0.001238 0.002339 -0.004148 -0.000050 -0.000175 0.003031 0.000454 0.000621 -0.001913 0.003015 0.002812 -0.002600 -0.000345 0.002753 -0.003765 0.003354 0.002318 0.003764 0.002295 0.001424 -0.000759 -0.003895 0.001716 0.002035 -0.003371 -0.003597 0.001858 0.002902 -0.000371 -0.002660 0.002871 0.001210 -0.002703 0.003619 -0.003342 -0.004335 0.001868 -0.002327 0.002323 0.001930 -0.001810 -0.001242 0.002781 -0.000673 0.000761 0.000471 0.000499 -0.002065 -0.002781 -0.001139 -0.003377 -0.002366 -0.002561 -0.002822 -0.002179 0.000073 -0.002459 -0.000318 -0.002543 0.002399 -0.001211 -0.000841 -0.003746 -0.000367 -0.001833 0.001985 -0.003614 -0.002976 -0.001937
22 0.002335 -0.002499 -0.000660 0.000105 -0.000599 -0.002929 -0.000741 -0.000922 -0.002288 -0.001077 -0.001577 0.001465 0.002288 -0.002570 0.002313 -0.001807 -0.002804 -0.001367 0.003710 0.003150 0.003038 -0.000265 0.003726 0.000539 -0.003020 0.003361 -0.001023 -0.003786 0.001994 0.002900 -0.000178 -0.002393 -0.003188 0.000287 -0.001465 -0.003088 -0.000534 -0.001356 -0.002370 -0.003316 0.002977 -0.003549 -0.002674 0.003282 0.001747 0.004085 -0.003282 0.002209 0.002884 -0.001628 -0.002809 -0.001613 -0.003212 -0.001177 0.002981 0.000338 0.002453 0.003163 0.001839 -0.002975 0.001979 0.001291 0.001709 0.003503 -0.000851 0.000922 -0.003869 0.001956 0.003431 0.002612 -0.001744 0.001956 -0.000384 -0.001506 0.004059 0.001809 -0.002647 0.001658 0.002908 -0.000784 -0.003037 -0.001548 0.002447 -0.004063 -0.000585 -0.002147 0.002858 -0.003372 0.002540 -0.000077 0.002495 -0.001478 0.000478 -0.003617 -0.000883 0.000917 -0.000988 0.000053 0.003047 -0.002385 -0.001116 0.000799 0.001417 0.002791 0.001104 0.002768 0.000088 0.002661 -0.000074 0.000275 0.002707 0.000409 0.002520 0.002997 -0.001845 -0.000368 -0.002863 0.000579 -0.002984 -0.001223 0.001462 -0.002137 0.001658 -0.002707 0.001073 0.000587 0.002242 0.000821
23 0.000611 0.002501 -0.003570 0.001282 -0.000603 0.002500 -0.000756 0.003329 0.001817 -0.001504 -0.001728 0.000655 0.000834 -0.003283 -0.002814 0.001839 -0.000615 0.002689 0.001753 0.003671 -0.000921 -0.001500 -0.003004 0.002688 0.000962 -0.000720 -0.003348 -0.003016 -0.003497 0.002549 -0.000661 0.001258 -0.000915 -0.000119 -0.003535 -0.002607 0.001945 -0.002357 -0.002896 0.000304 -0.001037 0.000480 0.001784 0.001960 0.001999 -0.001307 -0.001477 0.003005 -0.002298 -0.000598 0.000891 -0.000742 0.002838 -0.003005 -0.000462 -0.003595 -0.002279 -0.000441 -0.000414 -0.003579 0.000704 -0.001967 0.002855 0.001069 0.002848 -0.000826 0.002024 0.003218 0.001146 0.002813 0.000251 0.000703 0.003762 0.000531 -0.003242 0.000452 0.002364 0.000852 0.003556 0.001638 0.003673 -0.002553 0.002981 -0.000799 -0.001645 0.003286 -0.002038 0.001193 -0.002634 -0.001638 0.001366 0.001307 -0.003044 -0.000314 -0.004089 -0.001900 0.000987 -0.001721 -0.001266 0.003585 -0.001490 -0.001140 0.002822 -0.003433 -0.000858 -0.003239 -0.002772 -0.001712 0.001898 0.001046 -0.003592 -0.002523 -0.001546 -0.003124 -0.001412 -0.001061 -0.002721 0.001731 0.000389 0.000303 0.001346 0.002482 -0.002295 -0.002716 0.002008 -0.002920 -0.000354 -0.000207
21 -0.003239 0.003199 0.000283 -0.003613 -0.003611 -0.000894 -0.000813 -0.002542 0.000628 0.003782 0.000232 0.000515 0.000761 -0.003684 -0.000323 0.000152 0.000072 -0.000188 0.002102 0.000718 0.002688 -0.000434 -0.000963 0.001963 0.000500 -0.001298 0.001527 0.000467 0.000286 0.000070 0.002828 -0.000909 0.000067 0.001742 -0.003312 -0.002596 -0.000583 0.003773 0.002621 0.001056 -0.003313 0.003741 -0.002588 -0.002156 -0.003396 0.001468 0.000787 0.000889 0.002984 -0.000624 0.002944 0.002349 0.002868 -0.002342 -0.001410 0.001503 0.000190 -0.003409 -0.003822 0.003105 -0.001974 -0.000099 0.000692 0.003041 0.003649 -0.001312 -0.000546 -0.003475 -0.002191 -0.004030 0.003121 -0.003867 0.000759 0.001747 0.002611 0.000151 -0.002520 -0.002801 0.001541 0.002684 -0.001984 0.000625 -0.001555 -0.003988 -0.002900 -0.001895 -0.002336 -0.002123 0.003469 -0.002788 0.003569 0.001592 -0.001933 0.003502 -0.000309 -0.001329 -0.002641 0.001755 0.001118 -0.000344 -0.001595 -0.001848 -0.001308 0.003357 0.003812 0.002330 -0.000187 -0.002731 -0.001499 -0.002372 0.003856 0.003049 -0.000857 0.001583 -0.002156 0.003506 -0.003690 -0.000207 0.000689 0.003546 -0.000544 -0.001621 0.000341 -0.004162 0.002538 0.001013 0.003098 -0.003180
10 0.000770 -0.000737 -0.001956 0.000862 0.001715 0.003586 0.002424 -0.000119 0.003327 -0.002781 0.002029 0.002644 -0.002337 0.002613 -0.001493 0.002772 0.001162 0.002480 -0.002066 0.000899 0.002262 -0.000504 0.000857 0.003820 -0.001672 -0.000914 0.001416 -0.002664 -0.001056 -0.002233 -0.003135 -0.003082 0.001330 0.003051 -0.003287 -0.000878 0.002975 -0.003420 -0.002949 -0.003495 -0.002515 -0.001261 0.003502 0.003524 0.002968 0.004043 0.003805 -0.000988 0.003896 -0.003029 0.000126 0.001424 0.003207 -0.001452 -0.001530 0.002186 0.001563 -0.003521 -0.003595 0.001699 0.001613 -0.000372 -0.003814 0.001117 0.000249 0.001009 -0.001986 -0.002267 -0.003523 -0.003192 0.002672 -0.003054 0.003668 -0.000360 0.003723 0.001514 -0.000041 -0.001756 -0.003151 -0.000232 -0.003759 -0.002741 0.000135 0.002324 -0.003303 0.001108 -0.002880 -0.002673 -0.000094 -0.001832 0.003548 0.000910 0.003596 0.002789 0.000114 0.002625 -0.000681 -0.003650 0.000887 0.002540 -0.001792 -0.001513 -0.000380 0.000944 -0.001994 -0.001015 0.003884 0.003846 -0.002917 0.001867 0.003435 -0.003842 0.001944 -0.001403 0.001487 0.000238 0.000939 0.003200 -0.001317 -0.002961 -0.000391 -0.001739 0.000142 -0.000012 0.003808 -0.000979 -0.002128 0.001262
16 -0.000542 0.001064 0.000947 0.000119 -0.001062 -0.000410 0.002650 -0.000855 0.000198 0.000733 -0.002479 0.001750 -0.001647 0.002778 0.003032 -0.002499 -0.003648 -0.004053 -0.003760 -0.003467 -0.000335 0.001278 0.002691 -0.001259 0.001500 0.000388 0.001227 -0.000447 -0.001326 -0.003331 -0.002774 0.002067 -0.001292 -0.003583 0.001461 0.001512 0.003866 -0.002934 -0.002338 -0.003929 -0.002631 0.003346 0.002544 0.000483 0.001729 -0.001216 0.002203 0.002709 -0.002795 0.003933 0.002739 0.001103 0.000847 0.001880 0.001331 0.000101 -0.000391 0.000607 0.000414 -0.003369 0.002364 -0.003997 -0.001339 -0.003570 0.001765 -0.001143 -0.000104 0.003382 -0.001597 -0.003279 0.002892 -0.003812 0.001121 -0.002248 0.003412 -0.001503 0.003459 -0.002436 -0.001912 0.001291 0.003574 -0.002180 0.000591 -0.001828 0.000787 0.003797 0.000327 0.003118 0.001904 0.000774 -0.003021 0.001426 -0.003665 0.001305 0.000170 0.002560 0.003014 -0.001806 -0.001665 -0.003802 0.003273 0.001870 0.003619 -0.002359 -0.002284 -0.002723 -0.001688 -0.000446 0.002669 0.001360 -0.001225 0.003678 -0.003755 0.002064 0.001564 0.002183 -0.001365 0.002919 0.000556 -0.002406 -0.000858 0.001575 -0.001801 -0.002374 0.003021 0.002289 0.000566 0.003839
15 -0.003671 -0.002750 0.002806 -0.003062 0.000937 0.003497 0.002172 -0.003468 0.000193 -0.001341 0.001325 -0.000046 0.000372 0.001074 0.001637 -0.001853 -0.003009 -0.002201 -0.002869 -0.003415 0.003648 0.001917 0.000653 0.001197 -0.003022 0.000060 -0.002426 -0.000156 0.000358 -0.002509 -0.002241 0.002276 0.002879 -0.000537 0.000202 -0.000195 -0.001394 0.000012 0.003633 0.001174 -0.003132 0.000174 -0.000527 0.000561 0.002355 0.003773 -0.003755 -0.000782 -0.000814 -0.001477 -0.000688 0.000609 -0.000397 0.001982 -0.003039 -0.003958 -0.004075 -0.003616 0.000782 0.002837 0.003543 0.002891 0.000567 -0.003107 0.001130 0.003317 0.000973 -0.000687 0.003040 0.002618 0.001940 -0.002014 0.001809 -0.003457 -0.002177 -0.001096 0.001831 0.000155 -0.003915 -0.003253 0.000002 0.002166 0.000153 -0.003241 -0.003232 -0.002403 -0.001445 -0.003636 0.000132 0.002356 0.001953 0.002281 0.003388 -0.002405 -0.003717 0.002557 0.001396 0.003503 0.001614 0.003425 0.002534 -0.000291 -0.003198 0.000986 0.002252 -0.003053 0.002747 0.001515 -0.000427 -0.003864 0.000269 -0.000877 -0.001587 -0.003013 -0.002698 0.003113 0.001752 0.004258 -0.003479 0.002835 0.002507 -0.003338 0.003714 0.002208 -0.003976 0.000523 0.001914 0.002451
19 0.003269 -0.002360 0.003501 -0.001979 -0.000996 0.000809 -0.000743 -0.002244 0.002147 0.000409 -0.003399 0.002635 -0.001015 0.000535 -0.001297 0.000680 -0.003154 -0.003446 0.002542 0.003478 0.001457 -0.003204 0.000559 0.001888 0.000062 0.003186 -0.001062 0.000483 -0.001288 -0.001161 0.000051 0.001469 0.000952 -0.003751 -0.001223 -0.000349 -0.003541 0.002562 0.002555 0.000882 -0.000103 -0.000568 0.000158 -0.001104 0.002869 0.001788 0.002610 -0.002753 -0.000847 0.001608 -0.001743 -0.000362 -0.003265 -0.001553 0.003200 0.002179 -0.003142 0.001943 0.003575 -0.001240 -0.000379 -0.002567 0.002960 0.002599 -0.000511 -0.003469 0.002812 -0.000831 -0.002373 -0.002722 0.000755 -0.000022 0.000646 0.000777 -0.001938 -0.003782 0.003027 0.002155 -0.003204 -0.003058 -0.000912 0.000134 0.000179 -0.003345 -0.002329 0.000319 0.002737 0.001675 -0.002876 -0.001546 -0.000298 0.002842 0.003987 0.002072 -0.002190 0.003184 -0.000678 0.000183 0.000808 -0.002781 0.001805 0.002189 -0.003323 -0.002582 -0.000910 0.000474 -0.000127 0.000464 -0.000956 -0.001386 -0.002111 -0.000173 0.000723 -0.002258 0.002916 0.002445 0.003502 0.003441 -0.003121 0.002871 -0.001395 -0.001428 -0.001736 -0.003026 -0.003399 0.000949 -0.003468 -0.002455
12 -0.003842 -0.003516 0.000471 -0.002675 -0.002052 -0.001600 -0.002321 -0.003507 -0.002319 0.002635 0.003610 0.004106 -0.000865 0.001596 0.000236 0.002364 -0.003597 0.001031 0.002448 -0.003682 0.001689 0.003108 0.001688 -0.001959 -0.003577 -0.001613 0.002154 0.001155 0.000493 -0.000345 0.001644 0.001643 -0.004032 0.001239 0.001078 0.002568 -0.000866 0.002503 0.000011 0.001783 -0.000243 -0.000147 0.002199 -0.000841 -0.001272 0.003788 0.001785 -0.000984 -0.003176 -0.001285 -0.001841 0.002071 -0.000661 -0.003624 -0.003398 -0.003444 0.000352 0.000549 -0.000235 0.001567 0.002767 0.001342 -0.002673 0.002324 -0.003222 0.000289 0.002311 -0.000384 0.003185 0.003429 0.003855 0.002074 0.001327 0.001188 0.001026 -0.000382 0.003691 0.003194 0.000658 0.003618 -0.000884 0.000755 -0.003266 -0.002351 -0.003056 0.003460 -0.000822 -0.000854 -0.002470 -0.003117 -0.000109 0.002925 -0.001283 -0.001306 0.001584 -0.002209 0.002548 -0.003899 0.001494 0.000061 -0.004158 -0.003300 0.000136 0.000720 0.000234 -0.003784 0.000747 -0.000299 0.003553 -0.003506 -0.003352 -0.000247 -0.000002 0.002419 0.000807 0.003009 -0.001468 0.003559 -0.003953 -0.003312 -0.001792 -0.002016 0.001876 0.002257 -0.001549 0.000546 -0.003809 0.000157
