77 16
10 0.025350858 -0.070315205 0.12160286 0.28423825 -0.06497361 0.088861346 -0.0474956 0.2533825 -0.6488784 0.4188482 -0.3373296 0.09739314 0.08991601 0.5322411 0.11904377 -0.17922212
48 0.24824923 -0.054961618 -0.037166703 0.09035327 0.2860448 0.31086206 -0.10351021 0.067745104 -0.72514033 0.19974408 -0.3252937 0.14003298 0.4384682 0.44136193 0.19631717 -0.52355593
55 0.28645113 -0.24172188 -0.060332324 -0.11623642 0.40656936 0.30906335 -0.07788592 0.02995025 -0.6701988 0.3474997 -0.327833 0.034422215 0.16397609 0.5877858 -0.3651426 -0.23489816
27 0.15492071 -0.23849465 0.41433802 0.35599962 0.047606833 0.12904881 -0.24620464 0.2073785 -0.71590686 0.30226526 -0.19744234 0.026711462 -0.01692099 0.41472274 0.05052593 -0.2340709
25 0.14302139 0.14539123 0.26537368 0.26043838 -0.26649916 0.36837423 0.012352103 0.10852307 -0.6300087 0.4455889 -0.5398774 0.16606674 -0.023022538 0.49316517 -0.06940996 -0.20285925
23 0.30579817 -0.43583575 0.7449975 0.30112538 0.2607959 0.21685308 -0.8018618 0.07571538 -0.8515764 0.08073651 -0.36061737 -0.24401781 -0.17527531 0.4589654 -0.0139589235 0.033850264
58 0.3462532 0.13377768 -0.17021394 0.16329367 0.48822054 0.33738178 0.12711395 0.20471741 -0.7736224 0.39995176 0.039865486 0.20693117 0.24012807 0.5640681 -0.035306346 -0.61375403
62 0.5458313 0.032264568 -0.14521864 -0.03380342 0.8132587 0.38592386 0.02714555 0.10244101 -0.87534857 0.27843797 -0.048018035 0.24736339 0.47894555 0.60282093 -0.16115874 -0.8481638
64 0.3538746 0.11589544 -0.18437363 0.028187592 0.5613341 0.36921614 0.14810826 0.25945458 -0.78644705 0.46619207 0.019109562 0.24879323 0.33175936 0.57297134 -0.077024415 -0.5745319
1 -0.6230054 -0.2879027 -0.17628348 0.29584593 -0.2197388 0.7707707 0.351753 0.6365155 -1.0244141 1.2612474 -0.11340091 0.25507614 -0.14420348 0.52552503 0.44504222 0.56657714
65 0.51037145 -0.015833508 -0.13443731 -0.010329385 0.7779392 0.396055 0.12548544 0.19039294 -0.85907817 0.38447943 0.035024744 0.22622322 0.43841064 0.55766934 -0.20463015 -0.7316943
63 0.50773126 0.06131164 -0.06538997 0.032193515 0.75126874 0.3852337 0.0348937 0.18267737 -0.8145573 0.31569204 0.009061398 0.21715939 0.28367007 0.6009046 -0.26736227 -0.6545427
61 0.551014 0.06276416 -0.25379214 0.041293763 0.7986031 0.30192995 0.07731478 0.160615 -0.83793366 0.36122227 -0.005228794 0.21819898 0.44446963 0.6500252 -0.1665166 -0.8663793
59 0.38771388 -0.13027968 -0.09349109 -0.0071304026 0.77671576 0.34617925 -0.12034335 0.18490177 -0.79157615 0.2150197 0.0025675818 0.13546577 0.38143873 0.49308687 0.021861436 -0.6077415
26 0.25792658 -0.12414215 0.20370236 0.0616415 -0.097037956 0.21804115 -0.13298546 -0.06877216 -0.6168233 0.3423491 -0.6720961 0.063383795 -0.07462488 0.6697855 -0.40268084 -0.15926023
68 0.094043195 0.21254206 0.28100568 0.33771816 -0.33373064 0.3594161 -0.100013055 0.056617014 -0.6423279 0.35576397 -0.5893043 0.20225221 0.14014542 0.366531 0.2591164 -0.2994134
69 0.3481385 0.2610975 0.37526032 0.35231578 -0.31082878 0.39291266 -0.082447976 0.0054827994 -0.64749926 0.3124474 -0.62135875 0.22871469 0.052181754 0.4011656 0.11606333 -0.41201434
24 0.23939769 0.17932984 0.37076637 0.3927437 -0.28704768 0.3119216 -0.25355285 -0.0074521727 -0.6260967 0.30167294 -0.6930553 0.19704358 -0.0061418833 0.40742743 0.068915054 -0.20424089
70 0.34542313 0.4339414 0.3466052 0.4258668 -0.33270472 0.3193984 -0.028383011 0.0030248568 -0.6414823 0.33998576 -0.6531071 0.28133586 0.14785306 0.5233772 0.05373749 -0.54853815
66 0.4771992 0.079709806 -0.09875773 0.0117933545 0.652732 0.46911997 0.08361793 0.13470419 -0.8108812 0.35919034 -0.08796754 0.22516485 0.3668492 0.52051216 -0.10921421 -0.6880923
57 0.5381824 0.009542293 -0.0826275 -0.07054219 0.64649016 0.4562924 0.03995437 0.08364638 -0.7804755 0.28999233 -0.1752924 0.17939699 0.4063918 0.52843076 -0.17285009 -0.697482
41 0.32469603 0.2627904 0.2759592 0.21516867 -0.22950657 0.52210486 0.08423002 -0.018508656 -0.6567975 0.38830867 -0.58989954 0.26523855 0.10410902 0.37927467 0.008108664 -0.38465995
71 0.28526193 0.3211877 0.34228867 0.30399418 -0.26468125 0.4515145 -0.0556935 -0.008617168 -0.6457462 0.30576682 -0.5954345 0.20438461 0.12125379 0.41683692 0.08546048 -0.46239024
17 0.3248906 -0.68561804 0.6824947 0.16343236 0.5622377 0.31283674 -0.85357577 0.2299323 -0.9586787 0.12808 -0.22707205 -0.24931309 -0.17548072 0.43526185 -0.08304071 0.1843705
60 0.47241178 0.078285925 -0.10090413 0.047303118 0.6608679 0.42129835 0.03462226 0.118280575 -0.8263554 0.2885562 -0.09772769 0.26271513 0.4397399 0.5160384 -0.017047687 -0.75794965
29 -0.10881537 -0.24631017 0.19136652 0.7064249 -0.05112592 -0.59431666 -0.51334536 0.5315488 -0.80866843 0.24192977 -0.2600767 -0.114659004 0.13336204 0.8890917 0.21673903 -0.20785521
22 0.362341 -0.80938935 0.7862348 0.0976875 0.5530256 0.40680802 -0.99124664 0.08124304 -0.94882727 0.19687372 -0.37204373 -0.3656452 -0.2814623 0.50542873 -0.23327212 0.33131096
21 0.34532532 -0.7768912 0.97605705 0.20755136 0.4798236 0.44997835 -1.0854831 0.15254983 -0.995132 0.16031463 -0.42085752 -0.32603744 -0.34585795 0.4196866 -0.17245802 0.3881245
20 0.38979366 -0.63116735 0.81170565 0.17744623 0.45179486 0.47205597 -0.92313373 0.10241455 -0.97801906 0.16789375 -0.3360493 -0.27820086 -0.3078349 0.44015983 -0.2066239 0.24348882
18 0.31458208 -0.84011924 0.9076991 0.19160411 0.54624015 0.44202784 -1.0511929 0.23704183 -1.1102113 0.20739125 -0.32117018 -0.34794673 -0.2907063 0.47105175 -0.11176628 0.3641644
19 0.49166682 -0.7329816 0.9083264 0.10415399 0.5387193 0.60213614 -1.0761683 0.006828334 -1.008405 0.1301257 -0.5422623 -0.30882058 -0.27228492 0.4533991 -0.22773995 0.27997088
16 0.38673744 -0.70633525 0.887519 0.16619153 0.48708725 0.47172126 -0.98888385 0.14173608 -1.0139152 0.13139339 -0.35032973 -0.2781773 -0.25378487 0.40328908 -0.12885118 0.2296032
75 0.4233746 0.26354164 0.41779327 0.28246444 -0.16689748 0.48653147 -0.0154851815 -0.09684602 -0.64875746 0.28174183 -0.6899478 0.2404529 0.12671472 0.35083356 0.015012985 -0.46718872
35 -0.2229208 -0.20407678 -0.053582396 0.6704363 -0.028301474 -0.5586032 -0.37426722 0.6360022 -0.7598521 0.30693755 -0.08595544 -0.06941545 0.30248368 0.882449 0.38519695 -0.22138199
38 -0.15101174 -0.17162742 0.15238842 0.7227962 -0.010320128 -0.58912534 -0.5696432 0.5819923 -0.767335 0.22235239 -0.20681868 -0.076200195 0.22895853 0.9150494 0.31179205 -0.29214108
51 0.13816702 -0.23654778 0.10433891 -0.02751011 -0.17356727 0.124668345 -0.019438328 -0.11812303 -0.64624774 0.46131805 -0.8508196 0.051474437 -0.012036156 0.90440047 -0.64795834 -0.15575051
49 0.23304342 -0.2533588 -0.06093753 -0.056595936 0.09227546 0.15626487 0.0069493162 -0.10615016 -0.6223006 0.54169023 -0.72125334 0.09333272 -0.05171646 0.77968985 -0.6431446 -0.052796345
34 -0.21251652 -0.09483737 0.046974175 0.7034369 -0.17367369 -0.50968057 -0.39574653 0.6007912 -0.7435892 0.3150046 -0.23044261 -0.050080575 0.25802395 0.9114798 0.34960285 -0.31598875
36 -0.12861066 -0.19190006 0.14379549 0.64475805 -0.07792242 -0.4974413 -0.41889417 0.57842565 -0.80095315 0.26155138 -0.18057853 -0.05674674 0.24128103 0.8279802 0.35660782 -0.32466888
76 0.5172635 0.12782933 -0.16759215 0.028747346 0.74582875 0.43844515 0.11087368 0.15443993 -0.89346725 0.31866595 0.014961101 0.28364307 0.44733095 0.5318956 -0.09299552 -0.8249501
37 -0.27816582 -0.21482447 0.0039063133 0.72860795 -0.05380638 -0.59053135 -0.47610343 0.69214404 -0.79715455 0.34746575 -0.17809448 -0.09743709 0.26460138 0.9287719 0.4218359 -0.21764429
31 0.0725471 -0.3333467 0.47483945 0.37187678 0.0813703 0.081020035 -0.44242907 0.17841944 -0.70169336 0.31931138 -0.29739335 -0.151999 -0.13084298 0.5675484 -0.01717741 0.0052830908
28 -0.02332884 -0.13217603 0.18839626 0.540819 -0.28843075 -0.2409446 0.021068841 0.36843917 -0.7816487 0.47563738 -0.23704809 0.20064834 0.18776946 0.59617704 0.21751975 -0.41027558
2 -0.35267946 -0.24825679 -0.049245644 0.22754423 -0.0606622 0.4903174 0.19986942 0.35137528 -0.77904594 0.8786064 -0.15385778 0.14742011 -0.1401895 0.43760678 0.2383515 0.33333084
3 -0.38992062 -0.26128167 -0.13139053 0.18660544 -0.10124367 0.55381167 0.2140432 0.3573484 -0.74592936 0.7977382 -0.18132423 0.13109206 -0.10876178 0.4295752 0.2986996 0.35728878
54 0.28938678 -0.29765183 0.011430045 -0.17969917 0.14665307 0.2297377 0.005595118 -0.12034619 -0.61367863 0.52060163 -0.70174575 0.021159858 -0.024246395 0.72374696 -0.643732 -0.08875066
43 0.2244817 -0.08623182 0.37899163 0.23887174 -0.09363664 0.2711248 -0.2755635 -0.023480017 -0.6662607 0.24571854 -0.6096046 0.060603593 -0.031684186 0.50523573 -0.09078438 -0.18986024
72 -0.007155797 -0.028180052 0.17780481 0.3257387 -0.30964878 0.10988484 -0.12084094 0.11222964 -0.6320719 0.40762237 -0.58452594 0.14147241 0.010313451 0.5930137 0.034943942 -0.18899868
42 0.25682935 0.11044903 0.37795943 0.18717307 -0.2552602 0.47533134 -0.15447217 -0.084937684 -0.66409636 0.3438774 -0.7703204 0.18548898 -0.0033550372 0.4277337 -0.0545254 -0.27316737
44 -0.05146699 -0.16810864 0.27160645 0.41944382 -0.2335559 -0.10851731 -0.04579288 0.21138771 -0.72170043 0.4405231 -0.35987872 0.1443382 0.06199327 0.53563875 0.103141084 -0.22873889
46 0.2013164 -0.10373416 -0.21011165 -0.31532794 0.44913962 1.0713692 -0.394394 -0.20718946 -0.794814 -0.027693847 -1.0959022 0.25344747 0.9623575 0.2447521 1.0929602 -0.43840015
39 0.24298906 -0.12758547 0.23050705 -0.022906793 -0.05055792 0.31859794 0.037420798 -0.10213919 -0.61146563 0.46048957 -0.71207356 0.12946804 -0.10611438 0.71849394 -0.6078483 -0.17533925
12 0.055598542 -0.44980794 0.54786587 0.41487852 0.08251017 0.057219297 -0.63475585 0.30208158 -0.7564021 0.31421766 -0.24226318 -0.15097882 -0.20139408 0.5356474 0.086986236 0.14374414
33 0.066753924 0.031272694 0.17322986 0.3137856 -0.15458637 0.22783683 -0.059183773 0.13066581 -0.68063486 0.42614937 -0.4324661 0.122437775 -0.013498768 0.5247172 0.017519439 -0.19793132
30 0.23967898 -0.43973738 0.6285118 0.24461474 0.20806086 0.22180627 -0.5545277 0.11788652 -0.7844849 0.29488298 -0.2653316 -0.21915646 -0.2503128 0.53990525 -0.21808006 0.10752011
74 0.23706156 -0.10370919 0.007475252 -0.037106685 0.033911813 0.55647016 -0.014908392 -0.06191167 -0.9629023 0.11144865 -0.56194794 0.25988355 0.77634656 0.3157006 0.63745904 -0.80010664
6 -0.6078917 -0.3017423 -0.20470433 0.21701723 -0.29978374 0.6928328 0.35607123 0.57594293 -0.89828503 1.1450294 -0.13897651 0.20662643 -0.048173014 0.5422614 0.5055965 0.4710122
73 0.29237363 -0.017331993 0.0040761456 -0.0071488596 0.12358502 0.57034814 -0.022104168 0.013105845 -0.85943425 0.028348409 -0.4330029 0.3231499 0.7747849 0.22533517 0.6818854 -0.86546654
56 0.33237055 -0.22369093 0.017922578 -0.1460626 0.19791931 0.3669649 0.07346487 -0.10982795 -0.647468 0.49576896 -0.60154885 0.09943669 -0.020403491 0.608257 -0.5674658 -0.057276525
50 0.30615526 0.012311044 0.3103896 0.14289181 -0.1875028 0.14030088 -0.12879 -0.12113564 -0.619823 0.4597474 -0.80670017 0.07345491 -0.14411783 0.69530183 -0.5054514 -0.076308735
9 -0.6372972 -0.42382973 -0.15686221 0.20384179 -0.29999945 0.75013596 0.27176583 0.65080786 -0.98969877 1.2476139 -0.10538007 0.13677321 -0.08318282 0.53753376 0.6235267 0.61778414
52 0.23076437 -0.10758027 0.042304616 -0.09119446 -0.03833035 0.3210569 0.16353855 -0.11342597 -0.5926432 0.5517564 -0.7884618 0.09549587 0.01733012 0.831606 -0.76547027 -0.20785807
0 -0.66655064 -0.32202932 -0.26477522 0.118264444 -0.29153454 0.8744982 0.47696024 0.6616457 -0.97748566 1.4076871 -0.111384414 0.22460021 -0.13502002 0.60101306 0.47604233 0.6583282
7 -0.6902032 -0.24891178 -0.22004834 0.21588044 -0.39822167 0.7636782 0.45548585 0.6156554 -0.92778903 1.2489442 -0.15959413 0.26977214 -0.04973075 0.5579164 0.6051415 0.48556864
8 -0.69331694 -0.13838038 -0.18709832 0.2811075 -0.58171695 0.69746095 0.4174751 0.61638874 -0.91838783 1.2536232 -0.23679584 0.26506832 -0.04471568 0.6502856 0.59739184 0.4203695
47 0.15543295 -0.09729497 -0.25421226 -0.3263471 0.3456449 1.2137046 -0.41807452 -0.23576872 -0.8673523 0.092060395 -1.3012792 0.3563063 1.136484 0.3557253 1.205102 -0.60441375
4 -0.6203583 -0.31415296 -0.18449555 0.24700025 -0.34483653 0.7210119 0.32782632 0.6114646 -0.9378676 1.2443008 -0.123779126 0.22080512 -0.082264714 0.5800314 0.60535157 0.5322333
5 -0.6683261 -0.3580895 -0.2848567 0.20375451 -0.24783912 0.7439258 0.43784985 0.6601779 -1.0081018 1.3247571 -0.014948576 0.23494646 -0.082686454 0.59525234 0.52356863 0.5467032
13 -0.14458309 0.009082319 -0.040243816 0.34282863 -0.20289709 0.1089893 -0.0018822331 0.2424144 -0.70400137 0.4940022 -0.3553768 0.14928143 0.19116592 0.62137413 0.30004925 -0.21112022
32 -0.06690964 -0.1518502 0.25260824 0.4988843 -0.22252089 -0.18593378 -0.40786418 0.2930856 -0.7290109 0.3407915 -0.38441673 -0.017750673 0.040361002 0.727731 0.1474629 -0.13231228
15 -0.112531565 0.0019932275 0.055329032 0.3635687 -0.26547667 0.047002565 -0.039825298 0.2998891 -0.6501934 0.468189 -0.33927414 0.09842184 0.10948669 0.63370156 0.1754664 -0.16127625
11 -0.09974265 -0.060559735 0.20923866 0.39069206 -0.25456893 0.05872793 -0.16238974 0.27944848 -0.72669154 0.3961122 -0.4109522 0.068237476 0.10391575 0.54970276 0.3167991 -0.16288385
53 0.31009614 -0.1717683 -0.01656203 -0.14480202 0.023360986 0.3311481 0.07808827 -0.17589782 -0.6502009 0.4802087 -0.7382243 0.103230156 0.22171071 0.751492 -0.56548244 -0.35293886
14 -0.056828793 -0.111599654 0.03896549 0.321535 0.005515232 0.058731884 -0.08447116 0.295754 -0.6874141 0.44894576 -0.16536747 0.089805625 0.09952011 0.56646746 0.15831722 -0.1543817
40 0.31278446 0.13668102 0.28182548 0.17958371 -0.04501803 0.38752097 -0.07864346 -0.049840227 -0.6542098 0.30792308 -0.57341194 0.16597086 0.093734935 0.5161364 -0.09833394 -0.3968587
45 -0.11125451 -0.01302797 0.067038156 0.45557064 -0.4169988 0.0141296275 0.2019302 0.282341 -0.748992 0.6024438 -0.3645341 0.255728 0.20410247 0.52846926 0.22381136 -0.36270395
67 0.53259724 0.070350304 -0.13365267 -0.16255887 0.6430619 0.62538564 0.17950934 0.009755439 -0.80359864 0.38492504 -0.24633102 0.24721503 0.49050522 0.531521 -0.17448142 -0.7416172
