77 16
10 0.09856268 0.2642121 -0.29142293 -0.20996524 0.3695866 0.46847758 0.0048202723 -0.24692702 -0.01922225 -0.083539285 -0.1592334 0.45520326 -0.49665764 -0.38687542 -0.14996272 -0.29274663
48 -0.032388404 0.22129445 -0.083025225 0.27463102 0.22399645 0.83614343 -0.20467517 0.02096218 -0.2633174 -0.10184641 0.30224797 0.10570902 -0.41101658 -0.7489719 -0.2890432 0.33636293
55 0.29786712 0.03772655 -0.27792516 0.08266684 0.30383083 0.5568353 -0.11554934 0.15257852 -0.17817698 -0.4296972 0.20434925 0.18550326 -0.42030552 -0.67193836 -0.44491825 0.49153742
27 0.040813375 0.23328564 -0.324593 0.041466955 0.22221111 0.61679834 -0.1495546 -0.21839724 -0.02762573 -0.09156372 0.061537646 0.2653492 -0.45508763 -0.5500714 -0.36262235 0.09827379
25 0.16271695 0.21959658 -0.2258187 -0.088511735 0.21951984 0.5019818 -0.13014583 -0.22656064 -0.18217534 -0.093699396 0.116354115 0.28369603 -0.46047467 -0.45791152 -0.3970711 0.2572087
23 0.5301802 -0.14414765 -0.5926876 -0.3648088 0.2133948 0.39081603 0.008732129 -0.16081847 0.15230797 -0.09771094 -0.18760209 -0.04019846 -0.7374754 -0.36436814 -0.5564671 -0.064561814
58 0.18676414 0.11471076 -0.27277264 0.15518783 0.46159387 0.5891446 -0.003218723 0.098914355 -0.14631931 -0.2720658 0.12105667 0.14183098 -0.31594992 -0.7740146 -0.09525239 0.37312183
1 0.48980972 0.5789901 -0.21407305 -0.7324474 0.542903 0.42385188 0.29611027 -0.72495884 -0.109697096 0.25010777 -0.24128368 1.1129774 -0.46062958 -1.0985858 0.66014767 -0.5726016
41 0.14667729 0.18151975 -0.23522024 0.032162447 0.21403104 0.6314659 -0.18715797 -0.09485847 -0.16816388 -0.1357923 0.2074579 0.2634232 -0.40875536 -0.5834642 -0.3470037 0.36348587
26 0.33795315 0.07955869 -0.24712679 -0.21950774 0.1427368 0.480536 -0.05890435 -0.028949125 -0.21482177 -0.26761875 0.09102025 0.22592343 -0.5495525 -0.45980456 -0.50430423 0.1778244
24 0.24125628 0.110698774 -0.3068254 -0.120312855 0.08794447 0.5541236 -0.24837826 -0.18705593 -0.10084704 -0.16158435 0.10640739 0.19253358 -0.506806 -0.44556087 -0.60354704 0.22066945
62 0.26620376 0.06908141 -0.24005552 0.07984512 0.3517038 0.5635448 0.020582778 0.13646097 -0.18087476 -0.24995723 0.21304606 0.19972366 -0.29405442 -0.8614387 -0.08224963 0.4724425
64 0.3138023 0.10745971 -0.27808428 0.13427623 0.41683555 0.5405021 0.06950988 0.14928 -0.19055225 -0.30771002 0.16607258 0.18065092 -0.27643046 -0.88191605 0.030216925 0.46687895
57 0.2516229 0.123817466 -0.19291827 0.19222932 0.382432 0.66440517 -0.010902527 0.13476273 -0.2522433 -0.28136137 0.25020906 0.14857358 -0.25659758 -0.93357164 -0.035846047 0.60653335
61 0.21827048 0.08106064 -0.25649378 0.20435399 0.46565896 0.6250289 0.037542347 0.23594882 -0.1824315 -0.35512275 0.19025448 0.16070537 -0.25233263 -0.88321126 0.016916858 0.49433407
63 0.21629371 0.12771928 -0.22858012 0.20765056 0.41681513 0.6856309 0.0032437146 0.20955777 -0.18805166 -0.2933723 0.1854438 0.09231916 -0.3024432 -0.8867913 -0.048926476 0.46329433
65 0.2552022 0.03680545 -0.30679113 0.17795597 0.437868 0.56601995 0.0060654134 0.23784992 -0.16097805 -0.3905699 0.18413499 0.17913292 -0.32535952 -0.8097103 -0.19055565 0.52988994
59 0.26487136 0.10207041 -0.27012 0.17477418 0.38334912 0.5607145 -0.00091926276 0.12003255 -0.16080634 -0.34711242 0.22781138 0.18364322 -0.3226994 -0.8328457 -0.1158814 0.49355283
70 0.033974066 0.19596136 -0.23880638 0.024602454 0.28908652 0.6432173 -0.1936261 -0.2453626 -0.13121386 -0.059068352 0.08955425 0.21370502 -0.45143327 -0.42909193 -0.505015 0.29249462
69 -0.00025456928 0.29039618 -0.16022007 -0.04339431 0.26312762 0.6114696 -0.16516702 -0.33407113 -0.1738667 -0.014999328 0.084631175 0.3549704 -0.43073678 -0.4897097 -0.3563497 0.10947153
68 -0.08876129 0.3182571 -0.17056343 0.0620151 0.24140866 0.7131777 -0.21574877 -0.2696628 -0.13685103 0.01567066 0.11021713 0.2751488 -0.40707347 -0.51254666 -0.32931125 0.21752572
17 0.6967862 -0.18356454 -0.556062 -0.41163382 0.11395139 0.3039002 0.016486652 -0.0013263405 0.06844157 -0.23806612 -0.14198267 -0.014004125 -0.6053103 -0.52111655 -0.43374863 0.016451703
66 0.18865156 0.06383268 -0.2952684 0.2562781 0.38483408 0.72049236 -0.013390349 0.24506113 -0.2321559 -0.33898678 0.30961028 0.0843279 -0.33453524 -0.8432923 -0.15064704 0.4920207
71 -0.033177193 0.22967382 -0.17091593 -0.0029231904 0.24374309 0.72987247 -0.17592303 -0.119745 -0.19526847 -0.056265518 0.074588925 0.13014959 -0.50134486 -0.4644368 -0.40754756 0.13588925
49 0.27221805 0.13779369 -0.030592307 -0.11895955 0.076989606 0.52010775 -0.2108567 -0.2016807 -0.16477202 -0.25285906 0.16039802 0.53631413 -0.47027272 -0.45831424 -0.5844389 0.04653887
60 0.31160372 0.09219978 -0.31178766 0.18012016 0.4595337 0.5712169 0.052252248 0.20635837 -0.1186041 -0.39599577 0.14450358 0.16992092 -0.32494813 -0.8139567 -0.08043055 0.505002
51 0.23007026 0.20839494 -0.08146802 -0.11459742 0.03423696 0.55415934 -0.23140872 -0.09318436 -0.18221045 -0.38357925 0.27284205 0.592052 -0.4198198 -0.4156086 -0.69238347 0.10119271
29 0.03761033 0.2131494 -0.60338783 -0.0663084 0.8929591 0.56403446 0.093492374 0.041286726 0.17017591 -0.24189591 -0.43247262 0.068979986 -0.5581226 -0.27117553 -0.2472251 -0.36533424
75 -0.0052605136 0.2620155 -0.20081274 -0.0071808225 0.14814201 0.55921143 -0.20818336 -0.3373268 -0.14336926 -0.013326206 0.06928368 0.3334217 -0.4362067 -0.56348854 -0.29964653 0.19110802
76 0.26017466 0.06439386 -0.30176097 0.22277862 0.39360166 0.62386954 0.004693145 0.18485938 -0.1937975 -0.3323864 0.26338187 0.04836356 -0.31122157 -0.8828005 -0.13035384 0.54080266
20 0.78880346 -0.26091072 -0.65671635 -0.51890326 0.020328956 0.33312932 -0.01167722 -0.14646658 0.19667639 -0.18285555 -0.20396139 -0.1386191 -0.8011393 -0.4393113 -0.7162224 -0.10829822
21 0.77818245 -0.23823906 -0.7426941 -0.52165735 0.12996882 0.36616343 0.0038278666 -0.10303755 0.21427971 -0.2392206 -0.28074673 -0.07429364 -0.8671356 -0.44282037 -0.68416923 -0.16667889
18 0.8544232 -0.29387203 -0.7136714 -0.6479109 -0.028670534 0.32860458 -0.039934743 -0.1870842 0.17417824 -0.108322814 -0.19229673 -0.1681889 -0.8812941 -0.50471205 -0.7608906 -0.08830665
16 0.8575254 -0.27991304 -0.7027769 -0.6365107 -0.03350104 0.33136263 -0.014805939 -0.1421837 0.16099805 -0.12221802 -0.21854474 -0.15181634 -0.80717367 -0.48479405 -0.6426649 -0.124373406
34 -0.030536208 0.25614986 -0.66338205 -0.070195004 1.0482405 0.6538128 0.15054165 0.14000759 0.14449206 -0.29854703 -0.48663712 0.07391888 -0.5702481 -0.25986347 -0.16579467 -0.42010745
37 0.013674903 0.30909482 -0.6117143 -0.1665605 1.0447754 0.5662624 0.20757622 -0.045167126 0.17022821 -0.20282324 -0.55000484 0.20633729 -0.5798872 -0.2098665 -0.10163769 -0.6064419
35 -0.06856686 0.2591816 -0.53099096 -0.048019182 1.0483854 0.67281467 0.170188 0.15523213 0.062236767 -0.29096565 -0.3665638 0.09507759 -0.51514524 -0.23858035 -0.101796895 -0.3825134
22 0.8217286 -0.30936295 -0.6437656 -0.6127769 -0.0950536 0.3014046 -0.023474457 -0.23997846 0.15539068 -0.113355696 -0.17753823 -0.035794046 -0.75903744 -0.531981 -0.65262914 -0.10061241
36 -0.031051679 0.3432235 -0.52517724 -0.13208884 1.027176 0.6537664 0.15888202 0.034480616 0.018121552 -0.2152139 -0.46877202 0.27238607 -0.5372442 -0.23309007 -0.051363777 -0.5169858
19 0.89004886 -0.3490337 -0.74455136 -0.6531946 -0.04258724 0.32156882 0.007071495 -0.18934013 0.20665899 -0.20155337 -0.26464927 -0.089905046 -0.91167855 -0.49037382 -0.75703114 -0.118542336
38 -0.07577038 0.31776112 -0.546652 -0.09297984 1.0722533 0.635668 0.18221378 0.06910106 0.013905552 -0.20092195 -0.41221306 0.28316867 -0.5020309 -0.30102414 0.057890814 -0.44047236
28 -0.15358023 0.2765671 -0.53605837 0.10480078 0.08661678 0.6053857 -0.25991234 -0.43984157 0.37239355 0.015390901 -0.06683196 0.35261872 -0.582361 -0.53050923 -0.4538492 -0.6694074
31 0.1545176 0.10065288 -0.42644534 -0.12244411 0.17067574 0.46202895 -0.06158602 -0.28091708 0.036235336 -0.11326982 -0.09059274 0.22020635 -0.6544879 -0.47106403 -0.4064949 -0.07649586
54 0.3868157 0.050036043 -0.16663535 -0.1482718 0.061605893 0.49088076 -0.12436413 0.0051269326 -0.11000179 -0.34812045 0.18528464 0.34356606 -0.41255918 -0.5306144 -0.48519686 0.13822512
42 0.101718396 0.20756212 -0.1582571 0.01924239 0.087885916 0.60265845 -0.25037363 -0.26464286 -0.23149581 -0.080577835 0.13819005 0.2862415 -0.43515992 -0.5674597 -0.4146308 0.3273356
39 0.17779931 0.21227887 -0.1482525 -0.0021491318 0.20817076 0.58485115 -0.1815298 -0.09418134 -0.21654129 -0.34084713 0.20280367 0.3901055 -0.37006658 -0.5582463 -0.43408835 0.18322349
2 0.31182173 0.46869627 -0.24117516 -0.51150614 0.48345795 0.35695326 0.21493031 -0.49241623 -0.06236034 0.08612964 -0.22826463 0.8569927 -0.41373548 -0.7985049 0.37929678 -0.42861813
72 0.21870452 0.20138147 -0.16592279 -0.17745528 0.1795656 0.5234484 -0.09648787 -0.121630535 -0.12409593 -0.14280002 0.0048298365 0.3386582 -0.4488145 -0.5689957 -0.27088985 -0.032098893
3 0.31591803 0.4920999 -0.16105884 -0.55542094 0.4327607 0.34478617 0.124596484 -0.64371693 -0.1010554 0.1719656 -0.21558876 0.9508809 -0.35640085 -0.8036459 0.3209704 -0.42932373
43 0.1847653 0.16902278 -0.17300116 -0.14628145 0.15896085 0.5286368 -0.17440721 -0.1957325 -0.1193775 -0.13922134 0.08388929 0.29634854 -0.49531424 -0.51466155 -0.37746656 0.10263629
50 0.35437462 0.086854026 -0.2454078 -0.23639306 0.038129624 0.420666 -0.15344213 -0.18753143 -0.16010372 -0.20507376 0.06973584 0.3343251 -0.5388392 -0.39448333 -0.61782974 0.11255687
52 0.1846524 0.2086955 -0.14881627 -0.0065166187 0.18901327 0.49120823 -0.14946024 0.014919678 -0.18241665 -0.4256566 0.19787759 0.45011187 -0.45504084 -0.49270323 -0.4891182 0.18282788
46 0.07176991 0.13390066 0.043623827 0.09956536 0.2567484 1.3198984 -0.12730546 0.4433162 -0.712793 -0.068203226 0.65178424 0.00054389494 -0.34283596 -0.90629196 -0.057203244 0.47927496
56 0.3537077 0.06708661 -0.14097725 -0.06568438 0.05920163 0.56809783 -0.22191925 -0.03727196 -0.17066711 -0.277785 0.19487193 0.42329884 -0.41546708 -0.60600424 -0.50061506 0.2306842
44 -0.017954288 0.23403835 -0.43324858 -0.046312854 0.08370011 0.5194083 -0.10178799 -0.45067197 0.2582035 0.04711977 -0.10711873 0.3251059 -0.49936202 -0.59353095 -0.34231985 -0.5608066
30 0.36103106 -0.015330499 -0.51501465 -0.2788976 0.24790469 0.39032263 -0.0449959 -0.21243384 0.077799484 -0.12405297 -0.18045892 0.13369668 -0.64786917 -0.4559865 -0.4448349 -0.06869467
33 0.1223607 0.22773524 -0.23953755 -0.0735126 0.28545043 0.51644886 -0.10032825 -0.18359816 -0.047864925 -0.13180858 0.0047538523 0.30283034 -0.42849502 -0.49855298 -0.27917367 -0.028039915
12 0.20105685 0.1158664 -0.47728738 -0.17723566 0.3631777 0.45720026 -0.020880623 -0.14690241 0.028450307 -0.1378488 -0.18622676 0.19270685 -0.5940931 -0.40496743 -0.3211733 -0.10942383
73 -0.0698597 0.31942266 -0.0005110597 0.43655184 0.18075898 1.0410082 -0.25531605 0.09368504 -0.37050867 -0.1602684 0.4447479 0.026801085 -0.39681688 -1.0309631 -0.26123983 0.49391842
74 -0.11487948 0.33066064 -0.010145094 0.5280222 0.13838068 1.0847011 -0.2431695 0.12646131 -0.33202016 -0.22344594 0.47409552 -0.009383662 -0.47166654 -1.0527831 -0.2424854 0.555532
45 -0.158381 0.26330328 -0.4974411 0.055705085 0.14469343 0.69304436 -0.24332109 -0.37936273 0.35240594 -0.0084223 -0.048439134 0.27838472 -0.49645567 -0.53766674 -0.5356784 -0.62540925
67 0.14365444 0.16802545 -0.15972151 0.20333195 0.3346503 0.70721984 -0.00062809116 0.100231834 -0.22584951 -0.2561426 0.2686648 0.23905884 -0.24699923 -0.84715456 -0.045735415 0.49403697
53 0.30691198 0.17250724 -0.047903646 -0.06552395 -0.124613956 0.49511206 -0.23728022 -0.10762658 -0.2570373 -0.41451377 0.2993375 0.5208055 -0.52734953 -0.5246793 -0.65727544 0.17990951
0 0.4919548 0.5431441 -0.21144342 -0.77123183 0.4957002 0.3781077 0.22810027 -0.74649674 -0.179066 0.20117912 -0.28780505 1.1103745 -0.47568455 -1.0284146 0.43849203 -0.5982016
8 0.41001135 0.53164244 -0.26010764 -0.73312604 0.5008178 0.33363864 0.25467467 -0.73061955 -0.08336315 0.18780948 -0.38301829 1.0612676 -0.4985384 -0.94231826 0.4550363 -0.66070235
40 0.14395265 0.12000915 -0.32597062 -0.087372504 0.17693317 0.5641277 -0.16583702 -0.17531589 -0.06019265 -0.11020409 0.0918437 0.14356454 -0.4944341 -0.5385697 -0.40161157 0.17877616
7 0.39821717 0.60928154 -0.12535018 -0.64945906 0.5910216 0.44989637 0.24135694 -0.7005123 -0.21155982 0.17627499 -0.2538393 1.1190996 -0.44589463 -1.11437 0.61553895 -0.46628904
47 0.10948434 0.11715687 0.061050985 0.07343668 0.17225753 1.3472159 -0.044158705 0.40823388 -0.7882888 -0.06329398 0.6639493 -0.020455625 -0.32951203 -0.8861951 0.010001013 0.5293774
4 0.41955158 0.54405564 -0.1706498 -0.6995 0.45822808 0.36635637 0.20886856 -0.789187 -0.15057562 0.20923844 -0.28427604 1.1157434 -0.462136 -0.9842485 0.4910995 -0.5378126
9 0.3433358 0.5488787 -0.16618052 -0.65699977 0.4388727 0.4156766 0.21187358 -0.68264383 -0.19615361 0.20476468 -0.22578117 0.98764634 -0.40143707 -0.97149444 0.5004821 -0.5029168
5 0.3441725 0.6792031 -0.15926109 -0.7047869 0.6778398 0.42713374 0.32276303 -0.7140821 -0.20842494 0.21134953 -0.25634444 1.1873996 -0.3759888 -1.0768809 0.69461036 -0.62699026
14 0.11396099 0.25829932 -0.26389423 -0.1983648 0.39977488 0.4596789 0.028795246 -0.24349052 -0.029177302 -0.03949561 -0.09995646 0.42182842 -0.42309 -0.55006856 -0.037082173 -0.16656086
11 0.13012381 0.30947202 -0.25892383 -0.23653825 0.44371843 0.4377341 0.052923538 -0.32925457 -0.054624744 -0.004990631 -0.19562401 0.47928515 -0.4438655 -0.5091461 -0.017277565 -0.35644287
32 0.11678112 0.17606026 -0.30976495 -0.22054638 0.37211314 0.5442834 -0.002207568 -0.21833006 -0.010623076 -0.019411223 -0.0994948 0.28278407 -0.51266855 -0.4842331 -0.18176326 -0.23301418
15 0.20394878 0.24587767 -0.2224 -0.23873632 0.26285854 0.44055936 -0.0075530843 -0.28079617 -0.02421123 -0.030624852 -0.056170195 0.40842327 -0.37915695 -0.57930547 -0.08945713 -0.1832694
13 0.09840587 0.30435988 -0.25968817 -0.17051196 0.4501336 0.43644977 0.05800772 -0.21178238 -0.050989687 -0.05639367 -0.12626754 0.40954694 -0.39248988 -0.5685857 -0.020746253 -0.18080091
6 0.34543908 0.59962773 -0.11006401 -0.67898226 0.5433881 0.3992395 0.20457684 -0.74632305 -0.18307352 0.21224695 -0.25592086 1.1895989 -0.4362913 -1.0067801 0.5823831 -0.5692181
