77 16
Valjean 0.53566873 -0.34774894 0.12691884 0.6527229 0.05461572 -0.15119106 0.11245913 -0.1917429 -0.17868002 -0.28144047 -0.3057244 -0.21785624 0.28572354 0.07680506 0.035089135 -0.038198125
Marius 0.34223512 -0.14584441 0.2385585 0.70056665 0.36231995 -0.14671691 0.10044233 0.05543034 -0.44292632 -0.008810194 -0.22946902 -0.79461473 0.25436357 0.06993338 0.30846563 -0.0803958
Enjolras 0.26924646 -0.36401415 0.41560802 0.6247756 0.10136194 0.22874185 -0.2753911 0.10348154 -0.8161408 0.2248405 -0.20393315 -0.7848306 0.28150892 -0.15063351 0.0001263856 0.08208081
Courfeyrac 0.33259264 -0.39285094 0.47109383 0.55672693 0.04543609 0.34010586 -0.27430454 0.17155758 -0.9837171 0.27105007 -0.2886374 -0.6216789 0.23753673 -0.24211927 0.0636414 0.0014610826
Cosette 0.40811053 -0.23817356 0.1356043 0.6683213 0.18567525 -0.39617094 -0.0020216634 0.2005941 -0.41604725 -0.14626566 -0.22556658 -0.45337445 0.20309943 0.10814188 0.44244534 -0.08101266
Combeferre 0.382101 -0.28436813 0.5032162 0.61802244 0.0010079757 0.4057302 -0.33885434 0.101080336 -0.9271185 0.28447416 -0.28526253 -0.6314725 0.17078301 -0.2450672 0.0028781411 -0.02392217
Bossuet 0.45849445 -0.35922107 0.4371199 0.56889796 -0.032566555 0.41565654 -0.27644324 0.00238157 -0.8166827 0.24738885 -0.29792792 -0.60165054 0.25216347 -0.26253545 -0.023573212 -0.03601973
Thenardier 0.5357396 -0.5026524 -0.001955705 0.39726073 0.12351082 -0.42712596 0.27176586 0.27766892 -0.44032064 -0.24105582 -0.6659742 0.024185661 0.26685268 -0.021667678 0.61520636 -0.308663
Gavroche 0.33283344 -0.420085 0.37019628 0.5241088 -0.07933761 0.3998208 -0.3869414 0.087467216 -0.9183794 0.2613887 -0.38534155 -0.39736965 0.24928738 -0.32674426 0.039312735 0.053174727
Javert 0.3745187 -0.4623951 0.030354869 0.6244004 -0.20448966 -0.24506551 -0.14647977 -0.05078106 -0.16510957 -0.35904565 -0.38718945 -0.003140496 0.31908095 -0.03710226 0.16503161 0.022518096
Fantine 0.8295528 -0.1966191 0.18080492 0.78107363 -0.21777444 -0.35644615 -0.3012302 -0.34468928 -0.30885744 -0.23457031 -0.17834896 0.27992225 0.30387416 -0.14923537 -0.02567377 -0.14059368
Joly 0.242013 -0.34667513 0.44060096 0.7280849 0.06551257 0.38425553 -0.29005653 0.03148706 -0.8584829 0.26444298 -0.21966583 -0.8134653 0.26959747 -0.19325633 -0.05407288 0.089856625
Bahorel 0.24230559 -0.37971076 0.41060472 0.63312006 -0.027970562 0.362164 -0.26589134 -0.14358246 -0.7127562 0.27136344 -0.27282968 -0.60033405 0.3082861 -0.2652565 -0.08304378 -0.029069044
Feuilly 0.4538239 -0.41143015 0.46085945 0.56812817 -0.014497448 0.38046852 -0.32757065 0.026720112 -0.9521039 0.25446758 -0.30782184 -0.48777264 0.24917902 -0.34158957 -0.03447396 -0.023584759
MmeThenardier 0.46253848 -0.52913755 0.15379494 0.42801043 0.091902 -0.20232151 0.23317447 0.1001991 -0.43764767 -0.09829678 -0.4663453 -0.10479501 0.29759854 -0.02157218 0.42870808 -0.31777894
Gillenormand 0.20379183 -0.13050361 0.19031422 0.8292577 0.40518698 -0.34629387 0.09588398 0.22386768 -0.54606426 0.011906894 -0.26037368 -0.84236526 0.22024605 0.13601594 0.4393931 -0.0021033098
Myriel 0.33226207 -0.52678466 0.25183642 0.9751481 -0.14218839 -0.19943899 0.508583 -1.034662 0.4795607 -0.20446679 -0.23762843 -0.53490955 0.50715077 0.17399518 -0.102209665 -0.59723496
Babet 0.60073435 -0.55679923 0.11574387 0.2903185 0.15268385 -0.32682717 0.42022133 0.26522824 -0.53475356 -0.07969499 -0.5940349 0.051482473 0.24692996 -0.101050295 0.6181995 -0.48928466
Tholomyes 1.2967883 -0.08597064 0.28491405 1.0587331 -0.41389865 -0.5248909 -0.5898764 -0.34959328 -0.5063968 -0.33678558 -0.14767216 0.63041407 0.34104806 -0.3471804 -0.042008452 -0.073651224
Gueulemer 0.58146197 -0.6300713 0.07874868 0.19664137 0.1341848 -0.29715008 0.3864592 0.48182297 -0.7034382 -0.09660697 -0.71447414 0.10573931 0.2581211 -0.1872091 0.70204824 -0.4294539
Favourite 1.4122635 -0.10681395 0.26254535 1.0112746 -0.36749023 -0.5803086 -0.4015314 -0.41261345 -0.44838613 -0.4057868 -0.17935894 0.77122426 0.3342488 -0.32137382 0.050639085 -0.20380871
Blacheville 1.3317 -0.06504981 0.274907 0.9854894 -0.4005679 -0.5339706 -0.4046146 -0.39753726 -0.45050386 -0.34257075 -0.15526298 0.71673864 0.29944944 -0.2777909 -0.010038055 -0.1604206
MlleGillenormand 0.17838354 -0.13689497 0.206487 0.83508444 0.4456948 -0.32600525 0.072281025 0.26257032 -0.5892377 0.017327623 -0.17950785 -0.92318845 0.14041503 0.13547389 0.5123196 0.036191527
Fameuil 1.239362 -0.13964783 0.17078061 1.0697874 -0.38309103 -0.58540237 -0.5009848 -0.39926046 -0.46270418 -0.42063752 -0.15029141 0.65583426 0.33017418 -0.3121626 -0.009488322 -0.0053930823
Dahlia 1.3809056 -0.1654832 0.18198639 1.0105364 -0.41830686 -0.65691453 -0.35025513 -0.5010624 -0.32782847 -0.46250892 -0.1673119 0.8453698 0.39173406 -0.28849816 0.0063797436 -0.22322737
Listolier 1.4494168 -0.08906157 0.32332864 1.1060851 -0.38483915 -0.569367 -0.538902 -0.49957383 -0.45921057 -0.35292485 -0.12306132 0.723419 0.3435589 -0.3105861 -0.10128391 -0.16715582
Zephine 1.3690994 -0.06657446 0.2251194 1.0211241 -0.33928618 -0.5443727 -0.47582817 -0.32307497 -0.53694683 -0.41800326 -0.16352282 0.7516778 0.3324126 -0.33564878 0.059976637 -0.118815936
Claquesous 0.4611632 -0.62885505 0.027756086 0.32132068 0.13016419 -0.34772605 0.42458677 0.33475667 -0.52382106 -0.13664532 -0.62955946 0.049058 0.26635593 -0.11956224 0.6415489 -0.42518845
MmeMagloire 0.23076817 -0.6480776 0.23962063 1.0244359 -0.109214954 -0.19994433 0.52603596 -1.0277017 0.4312901 -0.25259292 -0.2723738 -0.6176502 0.5320455 0.2226661 -0.041032244 -0.5608081
Prouvaire 0.38250667 -0.29001698 0.5193539 0.61362636 0.082850225 0.38404575 -0.29803506 -0.035890266 -0.86203676 0.3922155 -0.21537586 -0.63157594 0.2503617 -0.26452917 -0.054730285 -0.059165668
Eponine 0.44070107 -0.51164424 0.10772234 0.41265398 0.09201615 -0.23205574 0.2361645 0.2706285 -0.4817722 -0.17048958 -0.5159216 -0.088382185 0.20762716 -0.12539817 0.5602877 -0.33240545
MlleBaptistine 0.26477182 -0.59125626 0.23839773 0.9560595 -0.06212992 -0.18739264 0.5843556 -0.974004 0.40596533 -0.19257015 -0.29819065 -0.59834576 0.5141674 0.22515297 -0.039857972 -0.65390295
Grantaire 0.44232735 -0.2718873 0.47068986 0.6177289 0.061806228 0.30176982 -0.295521 0.05041188 -0.9428168 0.2765662 -0.29214197 -0.59591997 0.24826846 -0.28456494 0.03514045 -0.058401257
Mabeuf 0.27100846 -0.41486868 0.41775694 0.55393136 0.15406491 0.31970283 -0.13421322 0.07758337 -0.890745 0.32887802 -0.31279925 -0.764885 0.24878089 -0.19788566 0.12929684 -0.08005266
Judge -0.18993993 -0.79776806 -0.24101262 1.021245 -0.40126324 -0.29726556 -0.2171519 -0.15996127 -0.037715856 -0.70659995 -0.48347434 -0.31754246 0.25862628 -0.1547812 0.14212404 0.5790149
Fauchelevent 0.35749224 -0.600737 0.18293333 0.59319293 -0.041877765 -0.28001803 0.15690675 -0.19230303 0.045938365 -0.36316684 -0.366063 -0.32377484 0.42025447 0.19832648 0.105828516 -0.29805008
Montparnasse 0.49178582 -0.5778987 0.063646406 0.32401645 0.10209139 -0.26266545 0.34016305 0.34403154 -0.5346545 -0.123012364 -0.59994996 -0.043804407 0.22939588 -0.13103996 0.60670984 -0.33700168
Champmathieu -0.17830046 -0.8430744 -0.27344328 1.0401368 -0.4083421 -0.34226698 -0.25608063 -0.115367025 -0.10773397 -0.6827679 -0.47423425 -0.22905493 0.25171632 -0.16278772 0.108698666 0.5858739
Brujon 0.41573822 -0.6737144 0.12876908 0.31050947 0.10789684 -0.19899425 0.41571167 0.3124773 -0.5282535 -0.10689861 -0.67176235 -0.1143034 0.27192 -0.11113943 0.5840665 -0.43742403
Brevet -0.17654508 -0.77938974 -0.22242673 1.0270971 -0.3245302 -0.2846756 -0.18970501 -0.1522931 -0.06872029 -0.6367326 -0.4931258 -0.34056658 0.24656054 -0.09521286 0.12436898 0.56372035
Bamatabois 0.116255306 -0.66072446 -0.20024352 0.95363307 -0.3935712 -0.4360204 -0.2401674 -0.15195662 -0.045947704 -0.6738534 -0.42226857 0.03341186 0.25393948 -0.12537175 0.102883324 0.4207892
Chenildieu -0.139472 -0.7699298 -0.21816987 1.03255 -0.45539957 -0.2006658 -0.30490598 -0.15129498 -0.15025873 -0.63008076 -0.4735344 -0.24540453 0.21066312 -0.19314244 0.050288957 0.6142701
Cochepaille -0.13612086 -0.8540948 -0.27352792 1.1520342 -0.4108678 -0.43116665 -0.121567726 -0.23022564 0.08284581 -0.8017661 -0.45188248 -0.27514392 0.284745 -0.070331804 0.09587669 0.48697138
Simplice 0.5822185 -0.33531815 0.050967496 0.7696363 -0.1790866 -0.30213445 -0.12014718 -0.17286886 -0.24516363 -0.29337808 -0.32020807 0.12116155 0.34409264 -0.10386335 0.16449952 -0.07015082
MmeHucheloup 0.31317127 -0.34178334 0.5147455 0.6927008 0.0639515 0.39942837 -0.25741926 -0.03547124 -0.84532326 0.3136083 -0.30138353 -0.71656984 0.28776377 -0.2478716 -0.027619673 -0.09587834
LtGillenormand 0.3016284 -0.13690738 0.12457203 0.79930776 0.4218169 -0.43248105 0.15364279 0.14398855 -0.40810975 -0.0380439 -0.2005996 -0.6315992 0.2169462 0.122671835 0.45076156 -0.1056241
Woman2 0.29858932 -0.40159518 0.14478554 0.6118568 0.044966638 -0.18489973 0.14528173 -0.0849868 -0.22602563 -0.1183455 -0.34201297 -0.3885313 0.2519704 0.065911666 0.22328424 -0.20487137
Anzelma 0.5062875 -0.57715195 0.0011955558 0.42593056 0.13133292 -0.39756745 0.38396254 0.29261154 -0.44362417 -0.28866714 -0.59097695 0.05058105 0.27448565 -0.014280172 0.6767275 -0.3372951
Toussaint 0.39129567 -0.35418963 0.1151412 0.60518336 -0.029047677 -0.22483313 0.018884601 -0.04220655 -0.29729006 -0.1527185 -0.3254173 -0.16454557 0.28432685 -0.039679594 0.19661325 -0.09099986
Child1 0.3468881 -0.31497183 0.56942546 0.62638175 0.29199386 0.45502362 -0.073388286 -0.10742128 -1.0345361 0.6555538 -0.72579336 -0.43718338 0.29752764 -0.31260875 0.22494237 -0.3955671
Child2 0.36652678 -0.38147625 0.6321519 0.5806111 0.30197477 0.5188189 -0.08976283 -0.034944866 -1.1415403 0.71700776 -0.7392349 -0.527049 0.2878351 -0.3427559 0.26447636 -0.3933071
MotherInnocent 0.41346893 -0.49387822 0.1867957 0.56331915 -0.025007624 -0.31247312 0.16182265 -0.15944925 -0.082964726 -0.23154308 -0.3249706 -0.2753636 0.33114815 0.15197058 0.15381318 -0.2891494
Woman1 0.17726913 -0.5732082 0.038770713 0.61898595 -0.0037279713 -0.24104126 0.20826866 -0.0338149 -0.14301798 -0.2347324 -0.41624653 -0.3247427 0.32787544 0.047222506 0.2739637 -0.13312986
Marguerite 0.73707235 -0.2284174 0.08435916 0.69128436 -0.17930199 -0.3946548 -0.2114931 -0.14292808 -0.3091246 -0.31639168 -0.19618154 0.24758554 0.27071646 -0.16163848 0.09410436 -0.09151343
Perpetue 0.8031292 -0.26593223 0.11317021 0.79779714 -0.27113187 -0.40355325 -0.16679835 -0.20905998 -0.22569817 -0.3193292 -0.19672096 0.38050836 0.28784168 -0.1030903 0.066555046 -0.17035827
MmeBurgon 0.41137487 -0.29093114 0.5206552 0.72232413 -0.036483027 0.37140134 -0.39457455 0.09022858 -1.035315 0.47964215 -0.32425144 -0.49773544 0.26547617 -0.3479093 0.012771575 -0.12033327
Pontmercy 0.3630078 -0.3402407 0.17355914 0.5780859 0.0837371 -0.20210122 0.12711015 0.044875875 -0.380148 -0.11822118 -0.35799092 -0.21849206 0.25384155 -0.04890621 0.32366386 -0.17846698
BaronessT 0.1720432 -0.35365775 0.21550904 0.6386509 0.15964426 -0.056817524 -0.0021700934 0.14708176 -0.57814133 0.047473967 -0.3545366 -0.64758 0.18339376 -0.049826287 0.27162698 -0.018653588
MotherPlutarch 0.2908639 -0.3706662 0.41417038 0.6170737 0.060399927 0.264638 -0.242295 0.073876284 -0.8502988 0.27188623 -0.29638255 -0.54719365 0.20722912 -0.2058699 0.1154308 -0.056748383
Gribier 0.3032118 -0.62609756 0.11745204 0.5840684 -0.038287714 -0.29279312 0.17246461 -0.1316464 -0.15605193 -0.31181508 -0.4424062 -0.29443458 0.33501717 0.11182886 0.24484776 -0.25192815
MmePontmercy 0.23755535 -0.49291754 0.18407986 0.6758693 0.104078054 -0.20419815 0.12521738 0.11374162 -0.42142352 -0.07960075 -0.41402352 -0.4810388 0.2656457 -0.06677317 0.30839917 -0.075486705
Count 0.21874729 -0.7164161 0.088211246 0.9526868 -0.13457894 -0.3391666 0.43808854 -0.68275106 0.33978412 -0.3928717 -0.36272836 -0.41468903 0.45001343 0.15398689 0.09608954 -0.32402447
Magnon 0.27655953 -0.47322202 0.079255104 0.59720135 0.07148299 -0.2728215 0.22633836 0.038365137 -0.21230584 -0.18374851 -0.3585178 -0.26497033 0.2550577 0.058472186 0.39760765 -0.21951413
Jondrette 0.45574713 -0.39782557 0.48534492 0.78315973 -0.008085323 0.3797191 -0.35166472 0.011064976 -0.98474777 0.44355276 -0.38247025 -0.60398334 0.24912606 -0.34866762 0.09358444 -0.16142352
Isabeau 0.2542434 -0.51031935 -0.017301945 0.69122446 -0.089027606 -0.35773137 0.13975821 -0.18960753 -0.064212166 -0.37443084 -0.41086593 -0.15779956 0.2834634 0.025381716 0.20059691 -0.054044195
Cravatte 0.28747776 -0.56657165 0.114999406 0.7626049 -0.046847686 -0.35438937 0.4130492 -0.53024787 0.21583797 -0.31881627 -0.30946404 -0.33003414 0.41535154 0.12574928 0.115726195 -0.37271222
Napoleon 0.14075 -0.6247004 0.14032535 0.84908694 -0.03582454 -0.2158758 0.38934723 -0.6296963 0.2725547 -0.3058928 -0.36543626 -0.57921326 0.46046597 0.19271737 0.06303719 -0.3149662
Labarre 0.28046572 -0.41544577 0.07615893 0.64613634 -0.055871375 -0.18811972 0.0028865691 -0.17123267 -0.20243172 -0.22929859 -0.346401 -0.28617078 0.278042 -0.05904632 0.12307656 -0.03410183
MmeDeR 0.3379255 -0.38084468 0.13464765 0.62447643 0.015016639 -0.2174035 0.1094686 -0.09331383 -0.25937447 -0.1762244 -0.35146043 -0.22854708 0.2648974 -0.038588695 0.22377609 -0.1861896
Scaufflaire 0.2517499 -0.43518192 0.10559269 0.68900853 -0.0950376 -0.17675646 0.030028656 -0.19255558 -0.19247171 -0.19710611 -0.32478455 -0.27906424 0.2769367 -0.01582551 0.107876256 -0.061955314
Gervais 0.31956136 -0.40895477 0.12629777 0.6417339 -0.017419994 -0.21264163 0.07560025 -0.108875796 -0.29773185 -0.122211315 -0.3195961 -0.21950004 0.28247657 -0.010887364 0.23378925 -0.12348981
Champtercier 0.23755111 -0.4716039 0.13675039 0.75052536 -0.0031920022 -0.24904099 0.28573182 -0.37201223 0.03271833 -0.20488878 -0.34982175 -0.42684206 0.32753956 0.09088881 0.13796934 -0.2928897
MlleVaubois 0.23391901 -0.47436818 0.13485153 0.60146606 0.13695204 -0.18905519 0.12789384 0.046928562 -0.3313766 -0.10490759 -0.36079806 -0.4758221 0.26286224 -0.03009495 0.3339439 -0.16305463
CountessDeLo 0.27854046 -0.48418504 0.12084467 0.80066735 -0.047034584 -0.1947543 0.31978044 -0.48470375 0.06943154 -0.21976799 -0.32693943 -0.4207687 0.36056897 0.11688904 0.123010166 -0.3298529
Geborand 0.11337974 -0.6448947 0.07868566 0.83297306 -0.037870996 -0.27364668 0.38926625 -0.53184265 0.17680463 -0.32000336 -0.36030453 -0.48777467 0.37776497 0.101812415 0.10592579 -0.26705506
Boulatruelle 0.3431241 -0.41389164 0.18527037 0.58227813 -0.026454754 -0.126888 0.09191113 -0.1959866 -0.26366547 -0.074008286 -0.33016875 -0.27813 0.28473634 -0.007250388 0.17500922 -0.17246051
OldMan 0.21175042 -0.56432253 0.12377428 0.78664595 -0.025604552 -0.2123148 0.30455732 -0.4030108 0.034823008 -0.21507892 -0.373327 -0.4941692 0.39279637 0.117880605 0.11959469 -0.2782889
