881 128
126 0.70393944 0.2198281 0.35409367 0.09851932 0.28005952 0.33980352 0.17140682 0.11579333 -0.09161225 -0.31480408 0.22601694 0.041760776 0.20070592 -0.23360959 -0.027782157 0.17178228 -0.001323937 -0.18711111 0.022882236 0.13518597 -0.2554954 0.2044084 -0.3117013 -0.3437566 0.26236582 0.44572434 -0.3108581 0.033302 -0.30721942 -0.01455075 0.34726077 -0.06109232 0.4708623 0.059731834 -0.36735758 0.25022867 0.17024063 0.15841508 0.017689258 0.34715196 0.032526515 0.4559854 -0.001386474 -0.30818102 -0.7586092 -0.009407232 0.22253662 0.16114394 -0.23422673 -0.2522897 0.21588631 -0.21764778 -0.024341715 -0.24363482 0.37068528 -0.47378835 -0.3048854 -0.14220184 0.2218446 0.19970943 0.29649222 0.27418047 0.3527956 -0.35215092 0.12682922 -0.067913674 0.05803226 -0.2488924 -0.18898602 -0.5336676 -0.22808668 0.36936685 0.038177777 -0.14990723 0.025483444 0.2451495 -0.018436087 -0.07851541 -0.17957999 0.30173618 0.12720744 0.4137311 0.4398924 -0.18746655 -0.6353878 0.1734249 -0.44968516 0.029842988 0.5150995 0.31373855 -0.6229622 -0.30263895 -0.24242534 -0.12748624 0.33993855 0.007442186 -0.23386532 -0.019556422 0.08182467 0.20571512 0.12241066 -0.6254618 -0.47230518 -0.13813603 -0.27215 -0.016839283 0.1607591 0.0046685077 -0.14299066 0.13399874 0.1986422 0.048723098 -0.34525904 -0.06584595 -0.25694323 0.34097204 -0.5143549 -0.15975758 -0.14132103 -0.26972935 -0.04705579 0.20623936 0.098696485 -0.06566133 -0.087820485 -0.029165234 0.21405475 -0.053825103
125 0.7098058 0.12853274 0.22248238 0.1571482 0.36598116 0.33825463 0.18170741 0.0327816 -0.19594784 -0.3376522 0.3519759 0.014589306 0.17324312 -0.4667798 0.017404133 0.30657846 -0.09102931 -0.1543067 -0.077207215 0.040038425 -0.22582838 0.15646052 -0.12321512 -0.22169462 0.46619254 0.6331484 -0.2474586 0.09702891 -0.3832187 -0.041376222 0.27098697 -0.2938213 0.3432196 0.15347041 -0.4124407 0.07639378 0.14606233 0.14445983 0.005811812 0.5050377 0.12761444 0.38538346 -0.07727874 -0.25349566 -0.7627697 -0.087184235 0.27096003 0.21012862 -0.10338935 -0.22469638 0.16542453 -0.22386144 0.062177338 -0.13965037 0.35399178 -0.3793836 -0.13057446 -0.31308937 0.28819793 0.14842173 0.2705841 0.38351405 0.417228 -0.20210218 -0.06275926 -0.03950215 0.011739453 -0.19277605 -0.017525429 -0.6664712 -0.33364064 0.5063391 -0.07372466 0.008232876 0.23104641 0.18759447 0.060281347 -0.091514036 -0.1285126 0.25981873 0.07937399 0.36776242 0.53070563 -0.20000792 -0.39011008 0.09673322 -0.35689956 -0.028281327 0.4610018 0.14095421 -0.59457725 -0.21556835 -0.07151007 -0.09342846 0.039122514 -0.009450522 -0.2181895 -0.11255395 0.098089695 0.12752156 0.23022294 -0.54251003 -0.62468934 -0.020965815 -0.39872098 0.0064523057 0.11961307 0.055178378 -0.25577396 0.069324166 0.31195945 0.12184072 -0.22006305 -0.026562728 -0.22130612 0.30012602 -0.3857563 -0.060132667 -0.18134776 -0.3372956 0.08364251 0.11649801 0.10932571 -0.023719354 0.027534593 -0.26639488 0.28292122 0.15449299
123 0.62616587 0.06717433 0.26512343 0.22441623 0.2828031 0.3147005 0.24628744 0.1255575 -0.17893049 -0.33510807 0.2256034 -0.012245157 0.39179084 -0.30986997 0.037402533 0.24083187 -0.10280192 -0.2253292 0.059698213 0.055452645 -0.21434498 0.27513996 -0.29634556 -0.3885402 0.30987963 0.58421516 -0.22057143 0.0015347382 -0.3472909 -0.05602076 0.39058515 -0.1505375 0.4863994 0.21868935 -0.44386366 0.24247417 0.123199835 0.23888262 -0.098401636 0.4850038 0.07618754 0.33200645 0.014649282 -0.33471632 -0.6801471 -0.0930024 0.27116826 0.14927132 -0.16684139 -0.28915083 0.20008075 -0.20665854 -0.07384973 -0.29991844 0.467077 -0.5009271 -0.2537709 -0.24292032 0.2728915 0.17105606 0.2697885 0.18726614 0.34198526 -0.29516608 -0.040553775 -0.030035013 -0.019551497 -0.17755587 -0.11666998 -0.68751264 -0.21622154 0.43033978 -0.06971531 -0.12048013 0.14954337 0.04127314 -0.046987552 -0.12450399 -0.081687704 0.37108147 0.090500124 0.35797343 0.45919994 -0.18828817 -0.46998867 0.21938372 -0.2983831 0.030436022 0.38896862 0.23503813 -0.64758384 -0.15817188 -0.047240432 -0.16644195 0.034526806 0.037485182 -0.25283924 -0.10817438 0.04880138 0.049891308 0.23331496 -0.4792768 -0.644601 0.054531053 -0.3828614 -0.05509173 0.088408835 0.12869783 -0.06607199 0.08533262 0.4142934 0.03620178 -0.23640771 -0.072118945 -0.1523254 0.32194448 -0.49872586 -0.14402007 -0.16767403 -0.29659334 -0.043148752 0.16313685 0.055639178 0.11050918 -0.03673507 -0.1308519 0.20521338 0.12037939
128 0.59416693 0.18840927 0.22849089 0.17130022 0.17786682 0.27944112 0.20420109 0.064151414 -0.15687467 -0.32886684 0.19870934 0.09730894 0.2457981 -0.35015872 -0.0133972205 0.23047371 -0.12460828 -0.14942771 0.012897921 0.2206356 -0.3213762 0.18116926 -0.2705939 -0.27648363 0.4197613 0.62428033 -0.23477507 0.022953954 -0.330441 0.04285702 0.34185797 -0.20595418 0.39077595 0.07135003 -0.53259104 0.26312825 0.19417167 0.21147232 0.03498478 0.37106976 0.011890985 0.507445 -0.13179174 -0.37849844 -0.67831063 -0.0087929005 0.2661406 0.17448115 -0.04636747 -0.281938 0.13807422 -0.19841957 -0.09646116 -0.23393449 0.39932 -0.4516672 -0.18298607 -0.17027636 0.25087535 0.2307584 0.14705023 0.2315646 0.41288254 -0.24851851 0.048462085 -0.010613939 -0.10797579 -0.10988442 -0.068665564 -0.7274559 -0.27079254 0.30607358 0.038226027 0.0043743346 0.17913413 0.11256876 0.06330594 -0.11028827 -0.21155614 0.3519103 0.1504869 0.27479547 0.37128094 -0.23485373 -0.43089747 0.17164226 -0.38215178 0.07592068 0.44379693 0.3051502 -0.6734181 -0.31350523 -0.035159387 -0.06976861 0.02958291 -0.0077101593 -0.06825222 -0.096180364 0.029640889 0.20681341 0.17250937 -0.6336535 -0.62517405 -0.11903514 -0.33906353 0.1384363 0.11289609 0.058027633 -0.07979102 0.102215365 0.33908382 0.15472099 -0.2669071 -0.13418238 -0.38404694 0.41196606 -0.4478634 -0.02677974 -0.13324715 -0.31236985 0.09414692 0.19898644 0.064421825 -3.96923e-05 0.09696857 -0.017951366 0.29439807 0.044896852
129 0.64702004 0.2504949 0.20325987 0.1421018 0.1426974 0.19575879 0.12090468 0.027681649 -0.0634211 -0.29798436 0.20538202 0.08087608 0.19313824 -0.33275226 0.026596313 0.18123981 -0.008730245 -0.16276713 -0.01804579 0.079247855 -0.3450175 0.20733187 -0.21501125 -0.42526466 0.34245792 0.5464021 -0.17341147 0.05288131 -0.31104237 -0.0005011799 0.3816901 -0.30633742 0.3851938 0.12742893 -0.36782688 0.23216073 0.15615045 0.24477357 0.078025065 0.4416267 0.115041316 0.43425235 -0.016141934 -0.2968002 -0.5919714 0.054401115 0.26597697 0.11643961 -0.07185902 -0.30282313 0.14130947 -0.12341333 -0.097442806 -0.29922011 0.5100026 -0.4426255 -0.10623057 -0.2612756 0.33485952 0.32802266 0.24108215 0.31557068 0.42268494 -0.372187 0.027156614 0.015922507 -0.023348479 -0.08783658 -0.08894111 -0.56849605 -0.26317605 0.3094033 0.009233632 -0.061599087 0.19276895 0.16428055 0.07876285 -0.062631056 -0.15187539 0.376588 0.15892309 0.2979214 0.44132677 -0.2124145 -0.5054223 0.13769366 -0.49473065 0.035324767 0.4178793 0.20777038 -0.5743405 -0.31127745 0.0027542955 -0.1151934 0.14380522 0.035984177 -0.21246882 -0.07277583 -0.06986024 0.07560838 0.15094826 -0.593859 -0.58665156 -0.21699041 -0.3049756 0.12300224 0.11736853 0.023438523 -0.052889854 0.10535626 0.21257627 0.13858432 -0.32965964 -0.07142592 -0.38094032 0.39541563 -0.5060111 -0.16034578 -0.25894636 -0.3175273 0.060399547 0.20863515 0.15635689 -0.021084886 0.022632025 -0.128404 0.35097837 0.20251411
773 0.6214422 0.20848162 0.322231 0.124168746 0.2344462 0.37288892 0.15550943 0.12437128 -0.17283416 -0.35883147 0.074208915 0.15380375 0.3504334 -0.2574098 -0.02039682 0.13949928 -0.0016265758 -0.07229799 -0.019498743 0.270983 -0.26355776 0.05900242 -0.2519866 -0.38660446 0.45444265 0.3979617 -0.2531559 0.007604403 -0.31234598 0.12700884 0.44431832 -0.091613054 0.31026155 0.087529875 -0.34599167 0.25357386 0.26052126 0.16543362 -0.00064885925 0.3587507 -0.030055396 0.47504902 -0.05961493 -0.24426316 -0.55042714 0.18802974 0.2880645 0.13153741 -0.18356137 -0.1562647 0.15135743 -0.22370632 -0.02130706 -0.21645069 0.30620587 -0.538719 -0.21687597 -0.30180874 -0.017720427 0.22966857 0.26833034 0.095701165 0.23305538 -0.22411633 0.23187639 -0.031586114 -0.018686373 -0.15979038 0.057974733 -0.58119655 -0.12905976 0.2802984 0.17943025 0.042371787 0.11281503 0.073867545 -0.06894689 0.052090492 -0.17406757 0.27919242 0.35123947 0.5437329 0.3645216 -0.24520147 -0.59665763 0.16320823 -0.29312542 0.15653819 0.57694334 0.36861527 -0.70437574 -0.38494802 -0.18923888 -0.10473126 0.28910318 -0.042588994 -0.14448208 -0.019663444 0.08716068 0.22120184 0.01959935 -0.71401185 -0.47387797 -0.13197422 -0.1992568 0.114843056 0.108408324 -0.057650626 -0.11107152 0.16812041 0.05916769 0.060151286 -0.42004964 -0.072729155 -0.4068991 0.31485716 -0.60504884 -0.24184375 -0.04975577 -0.27657646 0.07229132 0.2720318 0.06032193 -0.14005429 -0.103209555 0.12098082 0.30695176 -0.20558527
55 0.025077716 0.09609802 -0.06176235 0.13374244 -0.4932051 -0.046602625 0.11185449 -0.45136723 0.12100375 -0.07922125 -0.2609746 -0.08852765 0.38525024 0.012734188 -0.21587412 0.1155878 -0.15507154 -0.4260731 -0.1257551 -0.18697725 0.028061105 0.49846596 -0.15790755 -0.37451613 0.113716245 -0.1732456 -0.19235103 -0.10244067 -0.3431149 0.23152204 0.48925444 -0.30353582 0.13311774 0.38136938 0.024630127 0.07362235 0.21479534 0.01641548 0.3080709 -0.3129455 -0.3541559 -0.1016609 0.076507956 0.21686746 -0.116597675 -0.044348914 0.041113418 -0.12903675 0.07336415 -0.21542676 0.5512681 -0.029102478 0.081484735 -0.32611188 0.32728034 -0.17205933 0.22169177 0.024674289 0.5397624 -0.12027371 -0.27198732 -0.011480911 0.27112788 -0.3116664 0.59884185 -0.06908945 -0.22608541 0.04029279 -0.26488853 -0.28104943 -0.14278813 0.4727885 -0.37759203 -0.024943955 0.1601926 -0.04830482 0.41960824 0.057691164 0.060423195 0.5128466 -0.25435027 0.014884908 -0.13551934 0.34108603 0.22483297 0.16584246 -0.089896984 0.06416961 0.007811047 0.6415825 -0.26436797 0.22178821 -0.14497297 0.03430987 -0.034128487 -0.10981777 -0.106082514 -0.023655256 0.30295175 0.5085502 0.07859805 -0.1255811 -0.090966046 0.06440105 -0.36424944 0.10085669 0.13377039 -0.17030455 0.14491957 0.06528002 -0.31296754 0.36747482 -0.12242499 -0.1287769 -0.17488621 0.19049822 0.07980545 -0.2985214 0.08408068 -0.075732246 0.15779376 -0.39037094 0.0691577 0.07866757 0.1362989 0.081403576 0.8982822 -0.16071653
122 0.61104673 0.15616243 0.26405606 0.24544293 0.33633932 0.22370002 0.18575498 -0.05261444 -0.1782723 -0.29497907 0.338323 -0.042834803 0.24997473 -0.38908353 -0.02016788 0.18843341 -0.07691234 -0.08548671 0.012422407 0.12550642 -0.33116016 0.23297974 -0.28824273 -0.2801208 0.4009379 0.60697 -0.19408497 -0.010027697 -0.394242 -0.043799035 0.40956172 -0.25130874 0.47839007 0.13313231 -0.49545163 0.29463783 0.10360279 0.18611379 -0.02989311 0.26311845 0.052625317 0.39688644 -0.14997174 -0.3509604 -0.6865215 0.031138778 0.18853848 0.24749456 -0.119091965 -0.34254345 0.16260369 -0.11955599 -0.099764444 -0.25281456 0.39926428 -0.4947788 -0.26631677 -0.17780735 0.3063512 0.24316853 0.2374411 0.28343648 0.38991016 -0.15136537 0.02500523 -0.015880251 0.030240072 -0.19127089 -0.049252175 -0.5190276 -0.19165432 0.39133877 0.044447314 -0.043557934 0.16296794 -0.019620277 -0.0074737347 -0.1784347 -0.2523454 0.28320777 0.09392783 0.351287 0.4560276 -0.28315356 -0.53685 0.19174565 -0.31737202 0.024879802 0.4482336 0.348836 -0.6323872 -0.30485025 -0.0914581 -0.25598705 0.2824736 -0.015854413 -0.028525526 -0.08971889 0.06589385 0.24700516 0.19681028 -0.60720605 -0.56937945 -0.0972277 -0.35385558 -0.019111687 0.08220297 -0.014228471 -0.061590746 0.10465979 0.24704868 0.074731834 -0.19013537 -0.2183846 -0.22700502 0.43224263 -0.28640452 -0.109079994 -0.16047461 -0.29653287 0.064700305 0.26760346 0.0627429 0.027234042 0.06187416 0.014964879 0.20364366 0.081656426
132 0.52708817 0.17290719 0.14741877 0.05249396 0.18366621 0.06679344 0.23982367 0.06315536 -0.13268584 -0.31266 0.15682673 -0.019726023 0.16392046 -0.31107974 -0.001350311 0.12465329 -0.073296994 -0.18592788 0.04291276 0.026325434 -0.2123506 0.19549124 -0.21879321 -0.26020575 0.319152 0.49398923 -0.0966331 -0.06699269 -0.21131362 0.014878161 0.38599432 -0.18649648 0.53701633 0.17740089 -0.4108519 0.08835369 0.23249905 0.23025864 -0.0077322987 0.42006472 -0.0076291673 0.44939494 0.06651146 -0.3548676 -0.6680937 0.010495377 0.25900093 0.17313412 -0.1563953 -0.3464863 0.20835203 -0.12453263 -0.044966433 -0.3483346 0.46234033 -0.50217247 -0.24779539 -0.1437059 0.33205092 0.23941013 0.26374534 0.25239962 0.3972231 -0.30874822 -0.008341782 0.051968016 0.056201614 -0.14325805 -0.07931499 -0.7170593 -0.25720972 0.48034644 -0.12607683 -0.14772238 0.20182815 0.08615608 -0.0039376123 -0.11559029 -0.15371044 0.40037507 0.16750482 0.4558128 0.42082363 -0.14312324 -0.46208477 0.31531662 -0.35318545 0.06440401 0.42459872 0.2723022 -0.59075177 -0.28680673 -0.07189387 -0.12004263 0.032550503 -0.005272735 -0.25828072 -0.17384773 0.016250443 -0.02082555 0.23998117 -0.50346094 -0.6172198 -0.12813954 -0.40717417 -0.030016769 0.13411084 0.06947127 0.018592143 0.17679073 0.24648033 0.14966126 -0.3183985 -0.122510575 -0.26289803 0.46818694 -0.40700403 -0.12740229 -0.27863076 -0.33594632 0.00041466497 0.2153787 0.08596156 0.044053838 -0.029855695 -0.098200545 0.30193752 0.13185784
120 0.72039574 0.17349482 0.076480284 0.1144013 0.26243946 0.2433472 0.18277812 0.011754356 -0.24561204 -0.30508322 0.27992713 -0.047561355 0.10398096 -0.389981 0.003897096 0.25572303 0.0025708838 -0.32932353 -0.03610211 0.062441904 -0.40135777 0.13974804 -0.18935588 -0.30931312 0.48035678 0.6461311 -0.19975808 -0.07986654 -0.43163952 0.110026605 0.30375755 -0.22675651 0.52061397 0.14678234 -0.3805497 0.1090523 0.25949243 0.2824609 0.03191053 0.47937155 0.05353416 0.493731 -0.028026078 -0.2455882 -0.8074919 0.03824556 0.2674259 0.1577482 -0.119679354 -0.18854007 0.17925438 -0.17656021 -0.019042507 -0.28912553 0.57778 -0.46709707 -0.19778061 -0.24477372 0.29341054 0.29147667 0.26807368 0.32181016 0.38819623 -0.24842997 0.13143824 0.06482986 -0.046259362 -0.26633942 -0.043511577 -0.5747514 -0.3260329 0.38824156 -0.13798591 0.031606253 0.25992447 0.13927868 0.059483293 -0.000962641 -0.03630901 0.3508713 0.12898877 0.27772608 0.26529753 -0.24008882 -0.41143295 0.16325347 -0.3569796 0.08164081 0.44985336 0.28931168 -0.6294649 -0.23404792 -0.1567456 -0.18788472 0.038690403 0.066296026 -0.24405728 -0.10749059 0.03620193 0.042966243 0.26747563 -0.6167087 -0.6007832 -0.15199035 -0.24096167 0.08701355 0.11535771 -0.009884967 -0.1166267 0.116739646 0.39590415 0.060039748 -0.31860113 0.010268873 -0.297029 0.4177398 -0.3741383 -0.047583092 -0.17221345 -0.29747906 -0.07292183 0.32421738 0.0125390105 0.11711153 -0.0467671 -0.15793793 0.30437818 0.16056778
130 0.50381315 0.15329817 0.23263521 0.20621203 0.2714667 0.20598197 0.21771695 0.015371809 -0.19817407 -0.17374447 0.15552546 -0.10693593 0.14842063 -0.3076748 0.04370793 0.121877745 -0.031508394 -0.11793029 0.07793118 0.09902339 -0.23223105 0.16553842 -0.28693464 -0.27312562 0.39629987 0.54701453 -0.06968539 -0.056417234 -0.35402298 -0.07991252 0.34137124 -0.20390998 0.48912013 0.18920939 -0.35392532 0.2960296 0.10629808 0.27725485 -0.039423 0.46194565 -0.007843911 0.47492078 -0.09015842 -0.3320231 -0.66198987 0.14902322 0.17490742 0.1945177 -0.21801895 -0.33611107 0.22545154 -0.17570841 -0.042949885 -0.33122352 0.47873527 -0.40767506 -0.27435714 -0.20001033 0.31008393 0.2672313 0.27731007 0.3173382 0.3814431 -0.25849184 -0.047146875 0.065683834 0.04133966 -0.19291934 -0.022349617 -0.663961 -0.2563623 0.55375504 -0.012497139 -0.18578812 0.20622215 -0.022365207 -0.0051169596 -0.08831716 -0.12577665 0.41639832 0.11086556 0.5255555 0.53418714 -0.23973589 -0.5015577 0.17386183 -0.34065187 0.19078864 0.43797436 0.26299086 -0.71823496 -0.19295852 -0.10135598 -0.20086378 0.22783193 -0.059132133 -0.16120479 -0.12707922 0.010914968 0.13842435 0.24983732 -0.53977346 -0.5992384 -0.10296591 -0.36561105 -0.021687865 0.087528594 0.04658145 -0.06021555 0.15931946 0.2760801 0.10499278 -0.1946561 -0.15066066 -0.26428142 0.37244126 -0.42205325 -0.13045618 -0.23238741 -0.36986265 0.08300975 0.19546849 0.09544473 0.06021252 -0.06344389 -0.021050356 0.29514253 0.13787942
131 0.56435615 0.09133975 0.21424061 0.22357063 0.2597187 0.25825074 0.22756043 0.032590736 -0.09667743 -0.33004108 0.30539218 0.045195736 0.21321419 -0.31429508 0.08680083 0.23803972 -0.030133834 -0.20145756 0.0057127425 0.09411051 -0.3278873 0.19409195 -0.29291224 -0.27593213 0.40175736 0.63126755 -0.19381349 0.026936041 -0.3453083 -0.029043991 0.28721878 -0.18776853 0.38370213 0.1325081 -0.49114725 0.17232923 0.20748214 0.23524392 0.033905026 0.40550426 0.07525383 0.4376401 -0.042014245 -0.3413187 -0.6986484 -0.05556899 0.13698822 0.20445256 -0.037123792 -0.34339136 0.17169847 -0.24367 -0.17039075 -0.29727593 0.3987085 -0.47278526 -0.11510216 -0.23537643 0.24172227 0.18920934 0.27125886 0.1445728 0.33784515 -0.30895886 0.084037066 0.0974464 0.0064509455 -0.13588893 -0.14868686 -0.7805392 -0.34353197 0.35626855 0.01642989 -0.12366783 0.16605242 0.021573137 0.04314621 -0.021437982 -0.22378723 0.37799606 0.07632172 0.22680855 0.4394821 -0.3290899 -0.4966885 0.2489071 -0.41456547 0.030029291 0.508709 0.2905047 -0.6446328 -0.25943124 -0.07026465 -0.13174489 0.007677437 0.12885076 -0.19147843 -0.07399538 0.03873647 0.16037096 0.27455956 -0.63468707 -0.5243988 -0.00018887605 -0.29769996 0.076437145 0.0999256 0.00992213 -0.024046632 0.18421683 0.38617888 0.15186633 -0.24813186 -0.057238773 -0.26189706 0.34437206 -0.4090764 0.005755442 -0.12483913 -0.30377838 -0.09235547 0.21586135 0.1360961 0.010918878 -0.037563846 -0.065344386 0.23934136 0.06561678
9 -0.28476822 -0.04387296 0.23539048 0.17506242 -0.08389898 0.15181862 0.2180361 -0.11223075 0.2156926 -0.20833436 -0.18976393 0.15305938 0.78249276 0.08205232 -0.10041789 0.21006908 -0.38764593 -0.3447012 -0.06922312 -0.18717845 -0.16824126 0.4591101 -0.33092666 0.024412496 0.02800426 -0.23158044 -0.1757268 0.1359514 -0.4284155 -0.22122426 0.32219616 -0.16349906 0.25670087 0.4583373 -0.19728035 -0.0209915 0.17604199 0.2985671 0.038502596 -0.46290717 0.093882196 0.28297403 -0.2065069 0.059422653 -0.40700033 0.068807915 -0.26278225 -0.3820878 0.3314874 -0.096393034 0.4420728 -0.023187311 0.041251898 -0.06377009 0.21811464 -0.56814665 0.15342826 -0.111299865 0.20128234 -0.18011929 -0.118234895 0.12971203 0.5361077 -0.22925465 0.3439228 -0.07774832 -0.31933448 0.16738538 -0.25388318 -0.3558776 -0.11135079 0.25992468 -0.5776703 0.1476147 -0.04705193 0.18585764 0.099350885 0.09782327 -0.26224244 0.0106890695 -0.7003613 -0.10986237 -0.08336494 0.19245864 -0.058819044 0.10287289 -0.47343862 -0.2110314 0.35090965 0.6316107 -0.48932993 -0.012524651 0.021503422 -0.05119286 -0.107512124 -0.026309725 -0.06658088 0.07890717 0.37147716 0.60976344 0.03668029 -0.1802146 0.13413963 -0.29244137 -0.22674535 0.25190783 -0.018147847 -0.19110513 0.55538815 -0.049794134 -0.32965505 0.36042356 -0.037314836 -0.25869074 -0.12416549 -0.19804363 0.19680093 -0.0031820964 0.07094679 -0.3489995 0.25940508 -0.559406 0.19674183 -0.056543335 -0.08403359 -0.119417 0.74771035 -0.42941502
204 -0.22208853 0.056147285 0.34825626 0.33256733 -0.091772966 0.14021207 0.3730364 -0.26651138 -0.030011691 -0.22358204 -0.17243874 0.18577859 0.6382012 0.010515988 0.043724295 0.3038171 -0.108657315 -0.36264354 -0.17186442 0.05422763 -0.016161487 0.368081 -0.42003596 0.048797157 0.37128758 -0.36179918 0.04030607 0.03555529 -0.18365338 -0.109720275 0.26058346 -0.26487637 0.4029384 0.49163976 -0.1441341 -0.13534546 0.21194072 0.3687562 0.19283253 -0.418718 -0.08633196 0.53060555 0.11354173 0.2817872 -0.43835405 0.09993834 -0.19953157 -0.26229778 0.4660175 -0.13030879 0.48019227 -0.07143145 0.018792056 0.038428556 0.25259507 -0.3568935 0.24622907 -0.3248682 0.08321853 -0.14339736 0.040742736 -0.2123919 0.31497657 -0.13118346 0.4704195 0.16067109 -0.18452793 0.1177596 -0.06040889 -0.08058498 -0.067943394 0.12555034 -0.40449202 0.20273153 0.0384356 -0.0323387 0.00084314845 0.09257437 -0.25716373 0.17213993 -0.44208345 -0.03896346 -0.055670604 5.454272e-05 0.046701767 0.21991798 -0.23501152 0.008836984 0.39229846 0.6698463 -0.37137645 0.12637931 -0.1942805 -0.22911227 0.17556337 0.14219329 -0.12147004 0.21002242 0.30780607 0.640962 0.08361786 -0.25020275 0.06692786 -0.1211653 -0.24092178 0.36309165 -0.12082466 -0.33460063 0.4449874 0.07588037 -0.23552218 0.3667246 0.052250672 0.019455897 -0.17981435 -0.03992397 0.24827278 0.0273194 0.2003692 -0.2867617 0.44209358 -0.53940856 0.14035045 -0.0654687 0.07112108 0.093865976 0.76531196 -0.4021564
57 0.39511138 0.20123531 -0.13459085 0.17071468 -0.5706932 -0.04924103 0.017488834 -0.32863444 0.15269609 -0.03279054 -0.093615316 -0.06403584 0.17127271 -0.08475792 -0.22123195 0.16305594 -0.10527165 -0.3923539 -0.101276845 -0.18321861 -0.06294349 0.47061127 -0.2766866 -0.55145276 0.08432932 0.06737722 -0.27932787 -0.022433614 -0.37237874 0.1734913 0.35554758 -0.17345993 0.30418766 0.26691288 -0.09835948 0.17093451 0.24149343 -0.02315241 0.34438774 -0.05038612 -0.33712873 -0.1613641 0.050580215 -0.036627594 -0.25313738 -0.14431481 0.16279554 0.041551217 -0.07620638 -0.2762932 0.39762023 0.032405578 0.06506595 -0.4568958 0.40747237 -0.2909747 0.09571637 0.07931837 0.64027196 -0.085970156 -0.25602293 0.22413313 0.43278766 -0.4283468 0.31835487 -0.08077443 -0.13652784 -0.089958385 -0.30256978 -0.5308719 -0.2215497 0.5350419 -0.32183957 -0.18455619 0.20491228 -0.04913955 0.5790332 -0.03606567 0.07553069 0.7046372 -0.044496868 0.032439698 -0.06062655 0.34452227 0.09992452 0.15684223 -0.07145258 0.0029196898 -0.0191127 0.416054 -0.31021762 0.06874581 -0.15309796 0.029643405 -0.04221769 -0.1123371 -0.3194223 0.029766783 0.08453391 0.3409373 0.06664191 -0.20362663 -0.3726216 0.083253406 -0.3843103 0.02155616 0.23645635 0.019789048 -0.02960037 0.036195036 0.029158358 0.27592143 -0.22778359 -0.045391936 -0.19771668 0.3876624 -0.2481361 -0.32826895 -0.012479502 -0.18094394 -0.05150968 -0.1632763 0.15400887 0.22447704 0.14549029 -0.044489406 0.78087723 0.13322486
758 0.64445317 0.12660663 0.35295036 0.17076169 0.27404854 0.38376924 0.16255029 0.19491933 -0.15717256 -0.44594336 0.070144475 0.11246553 0.52063817 -0.2207712 -0.007565453 0.18995483 0.014281669 -0.14814854 -0.013302728 0.16339622 -0.22833005 0.14147244 -0.25054446 -0.5704892 0.2931096 0.3719701 -0.27101767 0.014493459 -0.3304011 0.07184001 0.49512142 -0.08104929 0.3534483 0.20473638 -0.26746985 0.24246322 0.22406319 0.17283328 -0.045449857 0.40311947 0.012648432 0.31764394 0.07199113 -0.20012778 -0.5284469 0.08219117 0.3444137 0.07189729 -0.2813923 -0.109042205 0.18390575 -0.22206351 -0.01821446 -0.23832704 0.39772236 -0.6691111 -0.26086414 -0.37111437 0.019042624 0.2276059 0.3507517 0.024135655 0.21547835 -0.2955688 0.21891908 -0.0908509 0.047828432 -0.2095299 0.011034579 -0.53378665 0.006951198 0.3501891 0.0695285 -0.0048488113 0.061998196 0.04785797 -0.15708686 0.059142366 -0.07591004 0.25741333 0.37246075 0.61321837 0.36749852 -0.16931337 -0.6502844 0.19114259 -0.2125315 0.07015303 0.52448446 0.35537958 -0.67625356 -0.3138448 -0.2041874 -0.1862349 0.32029334 -0.03422271 -0.25875285 -0.0005289755 0.13192475 0.06412539 0.0007235408 -0.58245045 -0.4881048 -0.025621055 -0.20201835 -0.058776263 0.08086703 0.014144301 -0.06925424 0.16695212 0.053496577 -0.08817634 -0.4051701 0.012167902 -0.26015353 0.22473852 -0.6924043 -0.38758594 -0.06185676 -0.2695978 -0.0660296 0.23705313 0.0404872 -0.06567031 -0.18963143 0.034844674 0.27148676 -0.16547552
14 -0.19591525 0.120537594 0.41138703 0.17128986 -0.13761176 0.15143132 0.26221156 -0.07221976 0.14752802 -0.15595287 -0.18501979 0.21586421 0.75432223 0.16984169 -0.13621785 0.098977126 -0.40134436 -0.24702649 0.037039492 -0.10525102 -0.06592798 0.55805814 -0.266282 -0.1286341 0.013853934 -0.2894312 -0.07112666 -0.012287763 -0.47216398 -0.3511483 0.18492502 -0.26168218 0.02880925 0.5370777 -0.14616564 0.13907447 0.2106856 0.28007492 0.13263954 -0.3461424 0.03392996 0.27432308 -0.10752443 -0.13308544 -0.3894078 -0.0005111118 -0.028921152 -0.36954337 0.27175358 0.050909348 0.31246474 0.024365988 -0.10531987 -0.13834393 0.1890316 -0.37256694 0.047865625 -0.2637323 0.36089197 -0.3069227 0.024635082 -0.059680756 0.3226091 -0.24345298 0.4029516 0.13691373 -0.21063472 0.2111801 -0.2184658 -0.33926216 0.25080186 0.24825929 -0.4235415 0.15256572 -0.22113356 -0.06470069 0.042362195 0.09843236 -0.22631204 0.17099498 -0.5694029 0.11771645 0.001744787 0.32348666 -0.18326357 0.22923075 -0.1680732 -0.10606453 0.3170926 0.74926984 -0.50079787 -0.016577244 -0.016579159 -0.121907994 0.043615762 -0.05620249 0.02912509 0.039808463 0.40333033 0.7089029 -0.13918668 -0.12235539 0.043556757 -0.15811811 -0.086772904 0.25938612 -0.07749723 -0.18723409 0.5593027 -0.03179754 -0.4217942 0.3964938 -0.0836629 -0.41936958 -0.30699983 -0.23134127 0.08517441 0.016652714 0.093806565 -0.28703967 0.2583102 -0.3982827 0.3715607 0.0074388953 -0.13947742 0.17366678 0.8432413 -0.4714086
124 0.6346274 0.118271105 0.18100871 0.1879754 0.24737033 0.2930975 0.22939399 0.1024329 -0.15370922 -0.18127295 0.13231203 0.013456606 0.21906391 -0.24592462 0.049654875 0.2861233 -0.09759659 -0.2171577 -0.002606138 -0.0027275337 -0.15727974 0.21601398 -0.2031935 -0.30522206 0.38789782 0.5817847 -0.20502526 -0.020959852 -0.31658664 0.06598007 0.37179187 -0.08125029 0.5174704 0.1408849 -0.47763306 0.12642385 0.11732226 0.18776268 -0.059510235 0.47212505 -0.11087354 0.3144199 -0.007582415 -0.3791903 -0.6143251 -0.03026701 0.186544 0.25905424 -0.13416754 -0.32662606 0.21499716 -0.19793694 -0.010753362 -0.3155663 0.550023 -0.44930267 -0.16130313 -0.2161516 0.21129891 0.1674725 0.11675898 0.22042981 0.37895134 -0.21958369 0.0814705 -0.010098486 0.010751988 -0.22207567 -0.1778264 -0.7538525 -0.41466418 0.36450642 0.08949911 -0.092462495 0.17029828 -0.034521647 0.04476367 -0.05633573 -0.13359708 0.29038236 0.15131673 0.38906857 0.40956149 -0.14279859 -0.50731605 0.22342882 -0.301697 0.10628612 0.38632303 0.30940104 -0.65350103 -0.23129202 -0.109032676 -0.15204266 0.047078792 0.030987255 -0.24536854 -0.1158665 0.06928675 0.117436476 0.29556888 -0.5781201 -0.6571596 0.07288886 -0.27945387 -0.08049122 0.15026796 0.07550151 -0.13908273 0.10138233 0.3765549 0.056725215 -0.3242855 -0.0671731 -0.21129636 0.40835178 -0.47811535 -0.14733477 -0.06867601 -0.3352998 0.027381651 0.23648278 0.09080557 0.09057277 0.0065603536 -0.12193418 0.18050124 0.17380299
115 0.6059155 0.077733666 0.14530244 -0.012471287 0.011327775 0.102052554 0.15584268 -0.02664521 -0.08824278 -0.1479676 0.31820956 -0.16017962 0.020981712 -0.34221357 0.17489912 0.099247865 -0.016471779 -0.28503856 0.012057558 0.027264914 -0.26973465 0.26645923 -0.26274472 -0.3143263 0.20764601 0.5355166 -0.28029117 0.040737323 -0.37074813 -0.1129915 0.26759258 -0.1487748 0.5250898 0.12944204 -0.4113801 0.2932952 0.018434707 0.26102585 0.060018267 0.352287 -0.101188086 0.30431598 -0.01139315 -0.2665641 -0.7474379 -0.08018208 0.13935252 0.14317383 -0.13449503 -0.31150484 0.20183949 -0.16885963 -0.020746855 -0.45425794 0.38732177 -0.39061782 -0.24973531 -0.06683074 0.34005576 0.10166913 0.119658016 0.3638013 0.47803983 -0.3577279 -0.017980764 0.0029916342 -0.007215481 -0.20500682 -0.25753602 -0.59012055 -0.3774795 0.56327105 -0.21299487 -0.088152945 0.13323164 0.14966936 0.17255628 -0.1903659 -0.2265131 0.4654939 -0.08086412 0.1579469 0.47074437 -0.18974945 -0.31801865 0.18701884 -0.52831453 0.05521011 0.37856853 0.28630936 -0.64023 -0.24083374 -0.0358976 -0.18426993 -0.020790244 0.12537934 -0.19559342 -0.065497674 -0.02956479 0.15193214 0.3262418 -0.5360162 -0.6235975 -0.023618914 -0.47766867 0.04168373 0.094201125 0.14290807 -0.18071829 0.020563148 0.45168504 0.0822781 -0.27745417 -0.040747233 -0.3122215 0.47834137 -0.42196363 -0.0010112281 -0.2401047 -0.1652437 0.017381823 0.13277821 0.047926407 0.013727757 0.12632145 -0.19092286 0.3643397 0.11675284
16 -0.23494448 0.032578878 0.20627481 0.11937764 -0.25827086 0.060511068 0.10483418 -0.1272737 0.16412346 -0.18303822 -0.11378794 0.27187148 0.5402291 0.14963192 -0.1219429 0.35578138 -0.2336058 -0.49039984 -0.00792334 -0.20256917 -0.12509763 0.4599527 -0.3209327 -0.2687727 0.013191768 -0.11114439 -0.0309813 -0.0035767388 -0.4958418 -0.19888702 0.15371428 -0.3387506 0.11417248 0.5569655 -0.20294163 0.054904442 0.18172364 0.4153595 0.08386453 -0.3993398 0.20232886 0.26662576 -0.19649144 -0.076311626 -0.34641352 -0.019231115 -0.050241906 -0.3948376 0.38167202 -0.061942097 0.48021317 -0.06729893 -0.27595636 -0.15148279 0.15604925 -0.6936085 0.085213006 -0.099217474 0.32307562 -0.18246336 0.037831366 -0.029459115 0.44332469 -0.22847289 0.31304756 0.114321336 -0.42188826 0.21043777 -0.11558206 -0.347734 0.12831426 0.05766073 -0.3639756 0.25378436 -0.13779056 0.071144655 0.20211326 0.16761874 -0.2311483 0.021591881 -0.46171987 -0.20968649 -0.04901331 0.13616608 -0.10278386 0.15598622 -0.343946 -0.027263505 0.34966612 0.69944215 -0.34430942 0.046317186 -0.047551557 -0.020403095 -0.01555428 -0.039241403 0.14338736 0.16581984 0.4555667 0.55632675 -0.065759495 -0.097666904 0.11516266 -0.20505919 -0.23174125 0.35235676 -0.027841698 -0.24889746 0.5555817 0.14700422 -0.35732913 0.3775279 -0.1355764 -0.23511888 -0.28092328 -0.24228247 0.07107824 -0.009818336 0.13362905 -0.21754189 0.102395445 -0.47292054 0.29205823 -0.1115951 -0.17801277 0.04468076 0.9733546 -0.50253004
784 0.55427533 0.10129329 0.3326979 0.17746486 0.26249158 0.29905328 0.17251873 0.10752805 -0.060596008 -0.39665145 0.18849969 0.12253753 0.29347685 -0.22457783 0.1261497 0.11930849 0.1028575 -0.07391208 -0.031947188 0.17489171 -0.29139465 0.07074875 -0.21302791 -0.4225643 0.37634033 0.40928265 -0.22046511 0.075330675 -0.3351225 0.01964335 0.39414418 -0.128307 0.25962356 0.17241952 -0.28188574 0.19243939 0.23209186 0.22118525 0.06410358 0.34114215 0.019745441 0.37225127 0.045795172 -0.20250247 -0.5102246 0.13595912 0.1516418 0.1242005 -0.16738449 -0.21856146 0.16139749 -0.27991045 -0.10751278 -0.2956949 0.3039236 -0.6040573 -0.16541155 -0.3715483 -0.032989435 0.23116688 0.3796866 -0.011952915 0.21067353 -0.33278558 0.2937303 0.06827338 0.103767306 -0.16951348 -0.024810107 -0.61307704 -0.1363951 0.3539315 0.1220026 -0.07058206 0.09715283 -0.023671057 -0.101402335 0.13132215 -0.24176304 0.25779027 0.31555828 0.5251791 0.4856453 -0.32367107 -0.6812634 0.21285102 -0.40205482 0.06969245 0.6616532 0.38496786 -0.73404205 -0.40257072 -0.18566377 -0.21742955 0.29629627 0.08364978 -0.20642534 0.020770608 0.10103641 0.17743005 0.07987556 -0.7545047 -0.3733944 -0.032662638 -0.17255364 0.023938794 0.07426176 -0.1203207 -0.009832033 0.24376103 -0.010585979 0.035175543 -0.4012113 -0.014513373 -0.38866213 0.2556725 -0.5929406 -0.21410179 -0.07812505 -0.25576916 -0.07204094 0.24698208 0.13725282 -0.21097398 -0.17555697 0.073706895 0.29511532 -0.1871399
158 0.642118 0.23854871 0.312429 0.073228225 0.052531525 0.24690689 0.019305183 0.0671545 -0.01784356 -0.31150797 0.12213772 0.13794163 0.24874811 -0.27321088 0.08147811 0.066423 0.12138677 -0.044262785 -0.07229209 0.18365261 -0.3081128 0.06330346 -0.14739795 -0.55956894 0.30627134 0.34195256 -0.2622977 0.14380962 -0.34316987 0.03734279 0.43258104 -0.24231976 0.22371832 0.1344151 -0.14851955 0.29224268 0.108693875 0.24715872 0.1314962 0.3717882 0.018371582 0.35701108 0.028165959 -0.12358815 -0.45121515 0.20802851 0.27856964 0.055917878 -0.21039653 -0.17845236 0.13302872 -0.17711438 -0.02575796 -0.2906332 0.39649382 -0.557577 -0.13102213 -0.40396965 0.048453677 0.3332111 0.30787528 0.19223286 0.34919292 -0.39552847 0.1921482 -0.040342484 0.047536135 -0.09945255 0.023996864 -0.43610436 -0.06498168 0.3988767 0.07353353 0.043453883 0.12717815 0.11601417 0.013755828 0.053003024 -0.17162107 0.2801947 0.35008657 0.5572061 0.479103 -0.19483997 -0.62433726 0.06820068 -0.50705487 0.10637686 0.55063224 0.29956672 -0.6628404 -0.47330764 -0.06865832 -0.16842848 0.3689313 -0.03266794 -0.189368 0.020459771 -0.042705465 0.11685654 -0.037427682 -0.70676315 -0.49248028 -0.22951815 -0.22563162 0.07845347 0.08881541 -0.044061143 -0.1265505 0.14686576 -0.12225226 0.0139730135 -0.49072072 -0.005384419 -0.5363167 0.31910542 -0.7126428 -0.37132058 -0.22287123 -0.2258981 0.12190566 0.21839751 0.13276431 -0.2673071 -0.08458874 -0.039055046 0.4721632 -0.057771515
5 -0.33440292 -0.0053219427 0.3144345 0.14769796 -0.11622172 0.10113154 0.16172493 -0.1254375 0.15464807 -0.2495018 -0.28558517 0.30682027 0.7548301 0.29188803 -0.12528092 0.20069821 -0.35884112 -0.2714152 0.062716275 -0.20492212 0.024069145 0.4499461 -0.43491465 -0.111212574 0.024621483 -0.26840556 0.050693545 0.17947099 -0.3841086 -0.3008104 0.13104656 -0.2042168 0.0894391 0.5614341 -0.22699535 -0.1115574 0.30573866 0.31114256 0.17876285 -0.34378624 -0.008889666 0.20595908 -0.14829881 0.04683591 -0.22440365 0.05985707 -0.1843614 -0.4446356 0.25827718 -0.12615472 0.4585997 0.1437149 0.12835833 -0.021220338 0.10870339 -0.66182417 0.22295314 -0.2472538 0.10564095 -0.24238698 0.011334996 -0.0724655 0.5333159 -0.28347704 0.32807887 -0.038835328 -0.21752886 0.18829049 -0.16557066 -0.5247903 0.101726316 0.23185357 -0.3897137 0.07603017 -0.24470156 0.10851914 0.069479056 0.20777822 -0.2476277 0.03632782 -0.3582706 0.12315957 -0.11773028 0.22367692 -0.29658127 0.1770029 -0.216063 -0.19683455 0.36792824 0.6539275 -0.41924194 -0.04930395 0.037147943 0.060738843 0.04770268 -0.19819663 -0.06046147 0.17334144 0.4076955 0.61803186 -0.13611752 -0.11692402 0.15486689 -0.25815296 -0.11605332 0.19190942 0.010567044 -0.1347686 0.5600746 0.039411392 -0.43808925 0.36324856 -0.080415614 -0.23088756 -0.19743995 -0.2852663 -0.10014673 -0.25576496 0.20148718 -0.43179432 0.3228091 -0.52875817 0.37325808 -0.18485914 -0.08781398 -0.006198286 0.8422174 -0.59297496
690 -0.17820092 0.028723694 0.13775198 0.04411975 -0.43431228 -0.109491 0.19295244 -0.3612651 0.08582701 -0.055791438 -0.14822495 0.10683371 0.49883205 0.053704467 -0.096481085 0.23441441 -0.15107049 -0.5499678 -0.12977634 -0.15913941 0.05143932 0.49318242 -0.26383728 -0.32074285 0.08563187 -0.09905061 -0.044053897 -0.07502216 -0.33305332 0.0364233 0.40750098 -0.5008973 0.075895324 0.4297919 -0.063975245 0.052654736 0.19940984 0.29906273 0.2038569 -0.35371402 -0.048805065 0.08538557 0.071150415 0.081138775 -0.28019118 0.025199689 -0.08636577 -0.2795778 0.3467169 -0.19671734 0.64284956 -0.10647316 -0.21164614 -0.19966964 0.24750985 -0.39683706 0.14946795 -0.02719477 0.5536103 -0.15584081 0.024671609 -0.14621453 0.39577913 -0.2787458 0.50828236 0.073942356 -0.38709804 0.11129674 -0.15387101 -0.19906177 0.10272127 0.24158223 -0.2999631 0.19406022 -0.06851825 -0.07927486 0.2849957 0.003407399 -0.09785773 0.13530983 -0.44619435 -0.30797976 -0.022656567 0.16682711 -0.034291744 0.23442902 -0.36590233 0.095103666 0.23173821 0.77913934 -0.10365723 0.2617088 -0.05742074 0.0060728174 -0.004589713 -0.13137877 0.15711035 0.035216287 0.4228096 0.5417393 0.08974986 -0.012787278 0.066374704 0.049356725 -0.38413978 0.2922403 0.020926606 -0.24647701 0.33915108 0.19888362 -0.3001863 0.38395762 -0.08255932 -0.17150871 -0.15473822 -0.023912733 0.18009011 -0.18979953 0.10660908 -0.044452194 0.12281597 -0.4010037 0.21395756 -0.04150337 0.051703 0.12304635 0.9624657 -0.5167758
203 -0.45731816 0.08331371 0.308131 0.085713014 -0.12578638 0.14996317 0.35831827 -0.24792866 -0.06600729 -0.22110726 -0.21607073 0.031828765 0.5587648 -0.039903216 0.11449152 0.38659927 -0.1672782 -0.43475732 -0.0061955173 -0.097890966 -0.032511476 0.42277193 -0.20925055 -0.10465589 0.22095218 -0.31433022 0.068642914 0.025207926 -0.30122134 -0.190988 0.2918171 -0.22044931 0.17904072 0.50126964 -0.01648784 0.1063812 0.13786034 0.34639895 0.1535724 -0.26698118 -0.037157737 0.29609826 0.120965436 0.35336632 -0.41705522 0.07207154 -0.091578186 -0.32953352 0.20107228 -0.062430643 0.5357635 -0.18187246 -0.13739425 -0.07392123 0.3773483 -0.33938554 0.25558499 -0.15902174 0.061783854 -0.27367398 -0.11761666 -0.2445657 0.23020013 -0.2653597 0.38072148 0.12562124 -0.30979043 0.2704159 -0.08075065 -0.16367158 -0.04107801 0.19965255 -0.51844 0.2618934 0.027772496 -0.0811499 0.016150715 0.1917936 -0.3063333 0.1201049 -0.4885256 0.03633062 0.06844356 0.18479554 0.16713125 0.2158267 -0.35965094 0.19297054 0.32877076 0.76126206 -0.5497063 0.08056223 -0.13796982 -0.26510814 -0.0037479447 0.049176656 0.0855887 0.11832181 0.45500627 0.5856732 0.033603083 -0.17311847 0.056076773 -0.05040244 -0.2110121 0.27300465 -0.09071406 -0.24942696 0.4067375 0.1817306 -0.48501712 0.25037235 -0.01081556 -0.06611528 -0.4351795 -0.050764803 0.23863879 0.095279254 0.1036239 -0.20712315 0.35502404 -0.62925524 0.14884958 -0.17555755 -0.07846771 0.11224063 0.8279129 -0.42105535
127 0.44948417 0.1226189 0.21440847 0.14942987 0.2590321 0.1907792 0.26749638 -8.603821e-05 -0.23891975 -0.35813215 0.13560048 -0.00731133 0.27223018 -0.34372634 -0.039823595 0.35144 -0.13530464 -0.19880569 0.008136066 0.13932185 -0.33508572 0.08096593 -0.28031054 -0.26532027 0.29276028 0.7510558 -0.1788533 -0.114001 -0.39270744 -0.0038435506 0.27050942 -0.28256384 0.41378248 0.07240412 -0.5338696 0.12900102 0.13733855 0.22627765 0.07505757 0.4012397 -0.1303381 0.4543437 -0.059632607 -0.32993653 -0.6592603 -0.030159727 0.19511509 0.19140609 -0.11687926 -0.27615583 0.24186473 -0.13969815 -0.02466968 -0.19877638 0.59557533 -0.5541371 -0.11755849 -0.25578418 0.34216896 0.27386913 0.12951353 0.16794859 0.45782223 -0.24820922 0.02537563 0.04503912 0.06319463 -0.12496293 -0.20061213 -0.72853273 -0.2554218 0.35693398 -0.042267676 -0.030786414 0.14966582 0.03929213 0.049697086 -0.070529826 -0.24754705 0.12710813 0.16189027 0.29641515 0.32461545 -0.2390732 -0.5493402 0.17159486 -0.35247213 0.0855046 0.4242184 0.29179528 -0.671232 -0.2877305 -0.06841941 -0.20278908 0.1644435 -0.0015758441 -0.04959425 -0.15967523 0.1111611 0.023257177 0.27784705 -0.55268115 -0.6425617 -0.17100443 -0.3077068 -0.10819917 0.08788722 0.050983258 -0.027258676 0.10849673 0.27581036 -0.034369413 -0.24776882 0.0022090478 -0.2784942 0.33264297 -0.34332556 -0.017437657 -0.16632432 -0.38475707 0.02816698 0.24085943 0.07506588 0.056020822 0.11368269 -0.14524479 0.17876439 0.17039658
86 0.41889054 0.12944546 -0.03792467 -0.026321113 -0.28796896 -0.021583067 -0.04803948 -0.3162999 0.19268957 -0.10882798 -0.20522808 -0.25901267 0.02325467 -0.114894524 -0.11001788 0.43514067 -0.14624321 -0.45869225 -0.12910606 -0.26003844 0.011500944 0.413141 -0.3349708 -0.5530572 -0.04059513 0.07058 -0.14588203 0.1680661 -0.41206846 0.1686847 0.21008967 -0.15622458 0.26615122 0.20119877 -0.09360915 0.11426835 0.3299276 -0.2607669 0.35472107 0.073596776 -0.44138977 -0.26000217 0.032393273 0.12956189 -0.22990252 -0.21493003 0.2293989 0.20371433 -0.12213775 -0.38791695 0.41687465 0.25407925 0.25859 -0.36065796 0.37674603 -0.20277546 0.24910174 -0.012041576 0.59957045 -0.015181979 -0.24611512 0.41067997 0.49638623 -0.5425459 0.07226162 -0.23974784 -0.0709039 -0.1674063 -0.38281912 -0.7281936 -0.29820868 0.37817085 -0.19285424 -0.35557508 0.10805043 0.14259887 0.5999763 -0.09235342 -0.002436868 0.69002724 0.0050963284 0.08962191 0.13469177 0.44042903 -0.16225077 0.21492241 -0.10401353 -0.09580216 -0.2066307 0.38661963 -0.23241615 0.04837534 -0.22553906 0.22072321 0.054474097 -0.20686649 -0.48976445 0.15411374 0.056304052 0.2559888 0.28830928 -0.22832806 -0.31094527 0.27599126 -0.5830781 -0.19861637 0.48855984 -0.03146101 -0.07236895 0.06857049 0.076027006 0.25842798 -0.28066683 0.084484324 -0.10732264 0.54660296 -0.46853375 -0.42864817 -0.13215566 -0.37027046 0.06621664 -0.12716682 0.38842043 0.09100581 0.13004623 -0.13401288 0.57290787 0.2494591
7 -0.12078594 0.027419847 0.106645525 0.10678697 -0.26357085 0.07877653 0.11329355 -0.28438902 0.23643748 -0.12401181 -0.10768688 0.09034267 0.6475072 0.177754 -0.23788054 0.10110242 -0.22095267 -0.28364208 -0.099185586 -0.18855874 0.07894519 0.4289487 -0.17412964 -0.21820216 -0.054515664 -0.17053258 -0.19688086 -0.108775765 -0.46328115 -0.043833986 0.3980932 -0.30779433 0.054415174 0.50392985 -0.11598622 -0.10206774 0.12189506 0.21746743 0.0954277 -0.35887077 0.07694304 0.058002446 -0.16766287 0.068892665 -0.14858545 0.0341103 -0.076083615 -0.32386073 0.3311802 -0.13083608 0.4798059 -0.022229567 -0.045146775 -0.24337263 0.19175994 -0.4574586 0.1624074 -0.14579816 0.40027598 -0.24233872 -0.046295814 -0.007066554 0.3627707 -0.19028296 0.53953934 -0.045495916 -0.3371796 0.12447775 -0.23414227 -0.29142705 -0.0069789574 0.34010565 -0.4498234 0.20141332 -0.102737226 -0.0010981091 0.24512568 0.21367505 -0.048157085 0.15837899 -0.4849744 -0.17130627 -0.08893309 0.22941363 -0.0754924 0.14432977 -0.2541808 -0.04677264 0.19315024 0.70662606 -0.3434253 0.13063836 0.021646788 0.033326082 -0.0402297 -0.146481 0.08358428 -0.042561553 0.43154034 0.55383945 0.007732645 -0.082010426 0.079966776 -0.10631025 -0.3386176 0.17335218 0.02518976 -0.11994001 0.43183234 -0.013742477 -0.37800372 0.41782522 -0.09239965 -0.31288123 -0.13798222 -0.11732535 0.08557757 -0.17300409 0.111504376 -0.20105489 0.1998447 -0.4600289 0.14945173 -0.05675283 -0.09158567 0.058294784 0.9561846 -0.49257973
17 -0.29158437 -0.06833136 0.26870975 0.27617255 -0.12163238 0.20945051 0.010639193 -0.16823398 0.17124939 -0.10950531 -0.083740324 0.19783501 0.5276415 0.14833887 -0.0118125025 0.25478935 -0.27430123 -0.23132595 -0.05925872 -0.1239973 0.08725272 0.30869004 -0.2370376 -0.11219599 0.021053173 -0.2023769 -0.2274555 0.0728122 -0.5819962 -0.17598774 0.16306794 -0.2818186 0.10821487 0.6475334 -0.05333053 -0.17884633 0.14139497 0.33142665 0.111660495 -0.4905365 0.097567506 0.17941241 -0.27271542 0.18498972 -0.07303373 0.2000517 -0.21426329 -0.3374143 0.3668376 -0.07159468 0.42092118 0.035641864 -0.04668262 -0.16802898 0.09291692 -0.5842959 0.109509714 -0.29297107 0.19657527 -0.23911172 0.089533515 0.07271447 0.39870095 -0.19127883 0.45818716 0.1278331 -0.34309915 0.156079 -0.053249877 -0.31478438 -0.046279844 0.21389842 -0.394693 0.3107422 -0.06482081 0.029971672 0.106222495 0.3251084 -0.12275444 -0.07334475 -0.44203115 -0.031183397 0.012546187 0.19917603 -0.106650256 0.04792071 -0.37282124 -0.0619605 0.32528085 0.630252 -0.50781715 -0.04911449 -0.03293367 -0.050801396 0.13053617 -0.09691263 -0.002622691 0.114088245 0.39249784 0.61124295 -0.030634627 -0.20369335 0.19945192 -0.19176567 -0.24759643 0.21748532 0.010796124 -0.31305453 0.5939446 -0.039728668 -0.51340955 0.37665156 -0.1262561 -0.28393415 -0.26884332 -0.2177736 0.07764723 0.011342785 0.0679488 -0.34182018 0.28407636 -0.49084684 0.27313328 -0.19043462 -0.15889196 0.033875268 0.8874999 -0.48675716
779 0.49777588 0.13344657 0.3390162 -0.03233642 0.28592512 0.21260412 0.22066341 0.10094993 -0.21658054 -0.38672525 0.11175971 0.03056229 0.3156958 -0.2503561 0.05850262 0.031705473 0.06690739 -0.09090722 0.058907945 0.17214698 -0.3057201 0.0637121 -0.24799103 -0.39396998 0.3276087 0.40365323 -0.14066382 -0.07488702 -0.3053422 -0.050154272 0.50249076 -0.13549846 0.44794863 0.17446984 -0.28537062 0.20071702 0.26922175 0.2593094 -0.008106103 0.35625842 -0.016219541 0.5218165 0.13586691 -0.17106895 -0.61126006 0.240378 0.2899751 0.06273779 -0.21314505 -0.18991815 0.21611984 -0.17674161 -0.040495627 -0.35077468 0.34548083 -0.6525021 -0.2817975 -0.38599068 0.022168178 0.30712658 0.39901057 0.07369143 0.1877315 -0.31699017 0.20844418 0.029067047 0.13425793 -0.15479055 0.03713111 -0.47814465 -0.08560409 0.33014438 0.010411686 -0.02988873 0.08356401 0.17401657 -0.20754875 0.05178754 -0.2685968 0.20959298 0.31187898 0.60553956 0.458342 -0.32675016 -0.67469066 0.20442532 -0.4375941 0.121194474 0.68355906 0.34187055 -0.67854166 -0.37420914 -0.13567099 -0.3072595 0.3734487 0.1007553 -0.25915447 -0.027673833 0.10655473 0.017617956 0.042762347 -0.72924304 -0.40507793 -0.26798025 -0.25141215 0.06510284 0.010612236 -0.07663712 0.05122829 0.14925885 -0.058069598 -0.01929971 -0.45503572 -0.0025732475 -0.37654108 0.2622063 -0.4939618 -0.2674643 -0.2205712 -0.25083962 0.019723834 0.29569975 0.09588344 -0.17001073 -0.1750259 -0.011018374 0.29053628 -0.16565299
741 0.69625473 0.18295729 0.21058 0.047935903 0.24146916 0.31172913 0.11280379 0.047124464 -0.22219452 -0.35809866 0.1726157 0.0053727813 0.19932634 -0.31182715 0.022454664 0.117355466 0.11705025 -0.2048073 -0.07562109 0.16841662 -0.37565646 0.023971457 -0.18145706 -0.43804893 0.44947815 0.39287263 -0.25893804 -0.02976481 -0.4341324 0.12125928 0.3653435 -0.15362124 0.37250242 0.14848684 -0.13613097 0.17242615 0.26857302 0.2459548 0.052949734 0.3978444 0.017802825 0.46073562 0.020059846 -0.06861697 -0.67480356 0.21664697 0.2787088 0.06864346 -0.23629016 -0.03456421 0.18140045 -0.20208919 0.040993787 -0.28946176 0.390472 -0.56275976 -0.23575689 -0.34382433 0.029431067 0.27098212 0.3835828 0.19935009 0.23906894 -0.25000322 0.2854866 0.015093774 0.049137432 -0.28015113 0.08885419 -0.3913748 -0.10673154 0.4058475 -0.0755801 0.084823616 0.16160329 0.13874133 -0.04472215 0.13123801 -0.051067036 0.26633647 0.30426893 0.49997318 0.27115175 -0.24909247 -0.5129686 0.11615619 -0.3257993 0.1501663 0.5962301 0.34856573 -0.65786326 -0.34595436 -0.28192106 -0.23899122 0.31159195 0.025306564 -0.24091874 0.023548156 0.07923449 0.101883106 0.06819941 -0.675851 -0.4304504 -0.18291236 -0.14051849 0.107446566 0.07538256 -0.11033942 -0.14752027 0.16654143 0.06602417 -0.041410282 -0.42871016 0.08045509 -0.38931787 0.28888607 -0.53045976 -0.24746755 -0.108886145 -0.22091685 -0.06973608 0.3377986 0.006837942 -0.07761551 -0.18427335 -0.018374266 0.39992732 -0.14924711
668 -0.36723685 0.096235804 0.14908299 -0.0057890285 -0.24984649 0.043752663 0.26060373 -0.33084622 -0.024292031 -0.09441076 -0.24187972 -0.03938463 0.60599786 0.018343654 -0.116768904 0.19954845 -0.29690325 -0.34617016 -0.046680674 -0.1846478 0.036691606 0.4493266 -0.11152718 -0.22030345 0.091175385 -0.15466431 -0.11025711 -0.091086626 -0.29032895 -0.017512249 0.52120835 -0.26697034 0.06743717 0.3847898 -0.012777331 0.074199304 0.23083736 0.20367377 0.13813066 -0.2164612 -0.03883291 0.034631256 0.18516038 0.2200741 -0.33491063 0.13237526 -0.09313427 -0.2967284 0.13094418 -0.11577775 0.58324546 -0.2153481 -0.123557776 -0.21483596 0.3755676 -0.28417 0.2137684 -0.016524218 0.39027575 -0.30911538 -0.1531548 -0.2211046 0.30938807 -0.35606253 0.49728084 0.008744463 -0.2636838 0.22156067 -0.16361031 -0.28634816 0.030308703 0.4250386 -0.51091266 0.2221761 -0.01545471 -0.13768087 0.10560601 0.09522956 -0.18328679 0.07229718 -0.49660748 -0.049199 -0.025789175 0.32409248 0.10345145 0.27061924 -0.36586976 0.108167864 0.2887851 0.76217574 -0.3474307 0.12090104 0.0056190644 -0.109091796 -0.11837997 -0.15919074 0.16811924 -0.06214311 0.482233 0.4705085 0.0008545268 0.019477354 -0.010979584 -0.0044209347 -0.2181375 0.14755523 -0.005400058 -0.17227301 0.32391384 0.13033704 -0.48504126 0.21684416 -0.023551745 -0.20892714 -0.29378164 0.02115006 0.24579008 -0.09019707 0.091249384 -0.16300814 0.16639231 -0.47012842 0.18346348 0.01645375 -0.04385566 0.06926699 0.79511577 -0.47032994
121 0.5023354 0.12669152 0.16874683 0.034695577 0.22903816 0.14123031 0.27174547 -0.016137056 -0.20269683 -0.31192777 0.21216916 -0.05079049 0.20833255 -0.32400683 0.012656367 0.16115029 -0.064111985 -0.17950742 0.09048245 0.0058767484 -0.29189822 0.23243874 -0.29796624 -0.29369584 0.35032716 0.5887684 -0.05864768 -0.07015388 -0.3076586 -0.11224059 0.4432337 -0.21201389 0.5336959 0.1866476 -0.4826935 0.14237417 0.2604154 0.20189753 0.0027290108 0.41268268 -0.005199295 0.44520733 0.086386256 -0.28620735 -0.6733036 0.007212939 0.29693162 0.15722735 -0.081045 -0.36238214 0.2325426 -0.108175896 -0.083354875 -0.37562773 0.43438184 -0.5020106 -0.14438005 -0.2716374 0.301923 0.22902848 0.24169509 0.20633474 0.28860602 -0.3073463 0.01793178 0.047808666 0.06900683 -0.10324935 -0.099373415 -0.6863827 -0.33153138 0.34826317 -0.06378544 -0.12292839 0.19377849 0.18122838 -0.008714355 -0.094832815 -0.258017 0.3866999 0.13538672 0.32348248 0.42361838 -0.2838917 -0.44755945 0.24512096 -0.40774933 0.03015514 0.483566 0.22869153 -0.56752837 -0.20057808 0.02216749 -0.21261822 0.034651186 0.1540834 -0.30079913 -0.10795619 0.07458024 -0.019364117 0.22594823 -0.5965406 -0.5513535 -0.17208631 -0.39342338 0.07936326 0.04483557 0.03272492 0.064553425 0.07826174 0.28314123 0.12001637 -0.31905785 -0.053419378 -0.21928608 0.35883245 -0.3011179 -0.12793215 -0.25672194 -0.32360095 0.0075568454 0.22135083 0.1485585 0.04940635 0.0021251098 -0.18309346 0.24870142 0.16089083
13 -0.24047548 0.084273666 0.28925556 0.26969692 -0.06056303 0.27390864 0.24674702 -0.13819039 0.21273826 -0.27556154 -0.086246766 0.22808616 0.6676935 0.056652866 0.051419213 0.27015796 -0.15384065 -0.34505615 -0.0066200276 -0.07572971 0.0071774307 0.4436537 -0.37547052 -0.048842765 0.109917074 -0.37789798 -0.008146786 0.107034 -0.384725 -0.32146868 0.13399842 -0.16135772 0.19930682 0.5631434 -0.19716157 -0.062516175 0.050186206 0.38682395 0.09374279 -0.32101753 0.11151157 0.3406161 -0.22612672 0.19861361 -0.32662302 0.009691996 -0.13451953 -0.370544 0.34518117 -0.062360987 0.35853782 0.057747163 0.0075962325 -0.034053706 0.23750237 -0.4884207 0.21781927 -0.29212624 0.013054152 -0.3462396 -0.029581456 0.023861438 0.32361382 -0.10526988 0.3370494 0.06541861 -0.35325077 0.212079 -0.14203483 -0.23488268 -0.10776186 0.17244273 -0.5006635 0.2456214 -0.056295197 0.023261225 0.1684347 0.2887064 -0.17400016 0.24094877 -0.5503917 -0.0037518668 -0.024805833 0.14436358 0.0010381143 0.17700684 -0.3079861 -0.02371644 0.25396875 0.62899464 -0.6674278 0.022172343 -0.1156196 -0.123449795 0.027559163 0.0043058298 -0.05340827 0.09506127 0.3444602 0.71016777 0.011208561 -0.17902805 0.06431492 -0.2615904 -0.23324293 0.29544365 -0.07862276 -0.13325457 0.4994528 -0.00067201396 -0.3085316 0.39878002 -0.027752468 -0.22008757 -0.25636688 -0.21430019 0.044677112 0.05128886 0.11816622 -0.35615057 0.381715 -0.6623745 0.12470688 -0.22475551 -0.100350745 0.05714012 0.89199364 -0.41541964
715 -0.34759146 -0.11027488 0.2859798 0.31093872 -0.26057324 0.07023273 0.068624124 -0.21429619 0.07038336 -0.10004653 -0.14408602 0.23990133 0.37285358 0.07266506 0.09345048 0.46621558 -0.14504977 -0.54756874 -0.079403326 -0.16469263 0.048352093 0.3355053 -0.34888095 -0.2699081 0.2031727 -0.062009566 -0.05660008 0.1629319 -0.48974344 -0.037556466 0.17378663 -0.4876706 0.19255157 0.5708621 -0.023869053 -0.03243554 0.20853609 0.3766211 0.23012443 -0.5785292 -0.013221516 0.22213723 -0.08821197 0.1620331 -0.17731878 0.102035746 -0.20579185 -0.25548717 0.40376842 -0.2225594 0.60833585 -0.08189074 -0.23938596 -0.11485233 0.112113886 -0.59224665 0.09779162 -0.12712836 0.29078165 0.0007648478 0.14454466 -0.06556954 0.45621562 -0.26058862 0.46081626 0.18706825 -0.44635758 0.106615484 0.025354197 -0.25276384 -0.002699852 0.009244689 -0.15171622 0.19986759 -0.014620483 0.00872744 0.19082052 0.1685938 -0.18167113 -0.10757555 -0.33212873 -0.19778925 0.08738017 0.07755557 -0.07692387 0.072147414 -0.48530844 0.020924762 0.37747 0.66960156 -0.2334427 0.10003825 -0.17158681 -0.064538494 0.21831761 -0.061198402 0.033497903 0.25425282 0.40579164 0.59548426 0.024695328 -0.25797465 0.24507774 -0.036093853 -0.30177772 0.30503386 0.04816995 -0.5299137 0.4933135 0.23327792 -0.47070086 0.39530677 -0.10909365 -0.1011584 -0.27667207 -0.12683453 0.15937415 -0.06932547 0.11497093 -0.23284133 0.18102354 -0.47909632 0.3242043 -0.22774287 -0.046706896 0.12224478 0.929958 -0.4779478
629 -0.3909771 -0.051720604 0.25726932 0.17637536 -0.14634526 0.010430994 0.35760546 -0.1797929 -0.022775851 -0.25804123 -0.35922593 0.14845747 0.82928485 0.064866036 0.01693948 0.1626438 -0.14852737 -0.49646285 0.0071486267 -0.32259676 -0.15511984 0.39617288 -0.28383324 -0.23373924 0.2634814 -0.16963977 0.22574699 0.399998 -0.38430023 -0.1443002 0.23860787 -0.413938 0.11395767 0.44662192 0.09387959 0.13879435 0.40396312 0.22876279 0.31017056 -0.35896546 -0.19246687 0.16647916 0.0669459 0.03569569 -0.40360743 0.05862854 -0.20071392 -0.43607888 0.11108058 -0.097532235 0.5415622 0.12766747 0.0531176 0.08959741 0.32143614 -0.3941915 0.23196436 -0.22061203 0.1179046 0.14201933 0.040962625 -0.17553005 0.5073094 -0.2850904 0.57000494 -0.07264579 -0.33238524 0.06852276 -0.06267844 -0.22392291 0.2303189 0.063042626 -0.3653262 -0.0006200309 -0.17888615 0.005235074 -0.014001019 0.09708153 -0.13777281 0.06261974 -0.2898948 0.05107815 -0.19002713 0.1606638 -0.23993343 0.056334376 -0.24140038 -0.07471804 0.42930025 0.83465385 -0.22167645 0.15134268 -0.028300183 -0.113027565 -0.092505544 -0.19524848 -0.1251963 0.21415034 0.35930035 0.57636905 -0.03575329 -0.29153055 0.24227414 -0.03437613 0.06317228 0.25830975 -0.071617365 -0.28042942 0.44562602 0.20074108 -0.38612488 0.4303886 -0.035746083 -0.12593175 -0.18312618 -0.12957871 0.02280799 -0.44628307 0.21927357 -0.36727312 0.32475597 -0.34481123 0.35855722 -0.10317873 0.005737827 0.15981752 0.82027096 -0.5098843
626 -0.24948396 0.014278277 0.25761947 0.06709539 -0.27992004 -0.08491179 0.27779624 -0.3261161 0.06962577 -0.10487107 -0.29975268 0.18010986 0.67323977 0.14468773 -0.0666458 0.055778448 -0.35811335 -0.421471 0.028200777 -0.16536057 0.12736638 0.5005999 -0.3973769 -0.17824379 0.17621523 -0.20527603 0.09368106 0.12358431 -0.19104569 -0.05417568 0.34375876 -0.4319722 0.010963134 0.34166124 -0.1609313 -0.012868734 0.2879974 0.26124567 0.2768586 -0.2547792 -0.2918123 0.05490187 0.10039639 0.1862071 -0.25596324 0.08111885 -0.23911895 -0.34674528 0.20388784 -0.19960386 0.5795541 0.081315584 0.1349729 -0.08399377 0.21655595 -0.31608382 0.20689714 -0.05907543 0.39299154 -0.27573964 0.030102896 -0.095250554 0.5243904 -0.30668613 0.4615338 -0.044183157 -0.24847168 0.09459659 -0.20263314 -0.36520258 0.017675206 0.40401638 -0.29947776 0.009152628 -0.109988555 -0.02912066 0.1575375 -0.029995766 -0.057915088 0.13919397 -0.3537473 0.042283073 -0.044618335 0.26193708 -0.19951344 0.27940187 -0.3539577 -0.057190582 0.28510392 0.669501 -0.23163772 0.10173841 0.055329762 0.10680991 0.00043096952 -0.3127365 0.014824093 -0.03515281 0.35721505 0.6230349 -0.008825589 -0.063216165 0.081785046 -0.090181336 -0.24336275 0.16552477 0.039849572 -0.14194073 0.26354334 0.1261894 -0.38294476 0.37296876 0.0048661125 -0.2599069 -0.1346055 -0.07260207 0.11273784 -0.37998277 0.155587 -0.212116 0.26766065 -0.41874343 0.25388297 -0.119997494 0.1725503 0.10987649 0.7796574 -0.6101423
669 -0.5943714 -0.085197814 0.22388032 0.07032453 -0.15539816 0.09514011 0.26623034 -0.20456769 -0.058349892 -0.09942955 -0.3437158 -0.043652754 0.6397358 -0.07561999 0.048950348 0.38478068 -0.41294986 -0.42947173 -0.092632234 -0.21083105 -0.18727343 0.38724324 -0.17014486 -0.033264376 0.1176536 -0.19643989 -0.12346283 0.1471144 -0.41120216 -0.12311728 0.44500586 -0.15691799 0.2601317 0.40396455 0.044227943 0.13849768 0.28066915 0.26571032 0.14378135 -0.479871 -0.054145668 0.16627733 0.13472138 0.29313537 -0.43829602 0.23823941 -0.26516566 -0.33017462 0.14706747 -0.07139067 0.5632113 -0.24344553 -0.10790143 -0.11788098 0.36753058 -0.4217956 0.20323983 -0.008851226 0.20126587 -0.15411174 -0.24330525 -0.096625544 0.46065038 -0.401045 0.39013246 0.013189715 -0.28731716 0.23750974 -0.12841882 -0.3145542 -0.08742497 0.31196812 -0.6317217 0.22902814 0.08290696 0.026720406 -0.016904375 0.04376526 -0.3572244 -0.14977902 -0.6572758 -0.046031874 -0.0030800614 0.33637974 0.15023704 0.14334925 -0.56818646 0.028727587 0.39585057 0.727334 -0.45326963 0.0077508944 -0.07131187 -0.23516057 -0.12203177 -0.015786726 0.016890276 0.09799146 0.4392252 0.4827176 0.05587094 -0.13556077 0.14236818 -0.08478229 -0.14783421 0.19718017 -0.004310255 -0.36239615 0.49622518 0.12505046 -0.57442504 0.1311311 -0.026980646 -0.10009597 -0.33204046 -0.025891393 0.42221436 0.07446224 0.0033589902 -0.2700451 0.1949417 -0.53030306 0.23427881 0.0032093113 -0.08352622 -0.07951454 0.6516383 -0.39017713
71 0.20511806 0.07789402 -0.06931109 -0.0647674 -0.21616842 -0.01054922 -0.10815091 -0.3629643 0.05049861 -0.052415054 -0.5030499 -0.33308923 0.12305573 0.048548173 -0.21097545 0.39551416 -0.23400259 -0.3432489 -0.19360685 -0.2779439 0.06835165 0.3777456 -0.18383487 -0.37545502 -0.023170434 -0.15748836 -0.09885099 0.08488576 -0.537992 0.22040524 0.21176612 -0.12728104 0.13311088 0.3307521 0.12275096 -0.044680107 0.40125948 -0.31523174 0.34378892 -0.029568495 -0.47853705 -0.3268291 0.025797192 0.3316223 0.031067172 -0.03038413 0.20836441 0.2288843 -0.13855858 -0.25227898 0.53065246 0.24997398 0.45534673 -0.32756272 0.2121444 -0.24990903 0.350101 -0.13609137 0.31072977 -0.03255774 -0.2828926 0.2092196 0.297662 -0.46200112 0.21979557 -0.30431297 -0.03265531 -0.10988559 -0.29364195 -0.6399303 -0.13613728 0.4126932 -0.26321667 -0.3673752 0.12371469 0.11294907 0.39634734 0.09195912 -0.043874905 0.5126894 0.102919355 0.31234702 0.06437793 0.46204045 -0.11279869 0.03695327 0.06954441 -0.021331152 -0.239572 0.48150337 -0.16948423 0.07919867 -0.23576711 0.22440806 0.10803689 -0.19298762 -0.4093103 0.24136439 0.23856366 0.27893445 0.25001574 -0.31076226 -0.13906084 0.39962247 -0.5771473 -0.24449502 0.46950796 -0.18515301 0.121227674 0.023321245 -0.25571117 0.24210276 -0.27035847 0.1037054 -0.09945219 0.49544436 -0.39515206 -0.5461274 -0.023689723 -0.29153967 0.32089856 -0.17229578 0.44050288 0.13875993 0.030925151 -0.11363213 0.6668174 0.13459286
117 0.67326397 0.23908408 0.14644359 0.24899673 0.17995542 0.22519942 0.22226152 -0.013472827 -0.026323058 -0.25081357 0.14595579 0.022975612 0.14176148 -0.221858 -0.19192502 0.29121312 -0.1245237 -0.26823708 0.02787007 -0.0192896 -0.12674186 0.3366134 -0.3526681 -0.317978 0.29505497 0.49482456 -0.23717067 -0.059679233 -0.252734 0.08412357 0.38568455 -0.07806345 0.5640505 0.06384152 -0.5106684 0.11815335 0.2973918 -0.010300808 0.06705817 0.2520167 -0.08397795 0.3072398 -0.011294606 -0.42333484 -0.67353076 -0.1731742 0.21661405 0.27014577 -0.15963858 -0.43610284 0.29589286 -0.07876081 0.011328622 -0.27777007 0.46432504 -0.3312151 -0.15478614 -0.0064177904 0.5307567 0.13952751 0.08081364 0.34583235 0.37795702 -0.3016797 0.13428527 -0.059715703 0.04754425 -0.22513667 -0.30356872 -0.74801284 -0.39743972 0.31767458 0.04722608 -0.3086084 0.1552962 0.17964338 0.20727454 -0.13274579 -0.062433563 0.47763863 0.09179913 0.26819625 0.28102207 -0.008880195 -0.40977752 0.2730648 -0.21756916 -0.042567927 0.28051186 0.29706663 -0.45446768 -0.11144357 -0.3019472 0.01076611 0.18714617 -0.05577936 -0.30887738 -0.12750128 0.13276441 0.23678695 0.2097618 -0.44490245 -0.5097105 -0.04871501 -0.31914592 -0.07972326 0.27378204 0.021252196 -0.08846674 0.1386143 0.31889254 0.21664712 -0.21994705 -0.14643627 -0.06518777 0.4311689 -0.30601814 -0.14842266 -0.08667472 -0.3907229 -0.12621473 0.11570535 0.1219162 0.14002068 0.051552273 -0.012383716 0.22907123 0.17570063
4 -0.4170636 0.060556542 0.23037714 0.048899487 -0.14790747 0.17004447 0.16981006 -0.15025257 0.030403296 -0.11380115 -0.18424916 0.10215297 0.65805995 0.091047466 -0.03318713 0.29328763 -0.34663516 -0.22678283 -0.014708103 -0.18174395 -0.05461223 0.4158278 -0.16723767 -0.114449844 -0.046299744 -0.22361043 -0.13348357 0.020327473 -0.51118684 -0.3133432 0.26403445 -0.14984262 0.1109444 0.6121207 -0.057777595 0.0153313065 0.21904351 0.37573507 0.07082444 -0.2666697 0.21142954 0.17385016 -0.07454223 0.108344555 -0.31030384 0.23783356 -0.1367094 -0.41568705 0.22941917 0.026398059 0.43830773 -0.09990457 -0.12130349 -0.17073308 0.3061823 -0.5853113 0.17355654 -0.25298762 0.13903774 -0.32893968 -0.048658974 -0.11581202 0.36774534 -0.30250895 0.33097488 0.09479781 -0.29746938 0.29697585 -0.10670451 -0.3565479 0.14134377 0.27056995 -0.60362107 0.3832028 -0.1063258 -0.049813155 0.0039970153 0.25805557 -0.2851732 -0.078696154 -0.5307262 -0.007574226 -0.07075549 0.31429762 -0.045293692 0.12546529 -0.36435792 0.054065596 0.39068547 0.76051146 -0.5228484 -0.06285586 0.02891076 -0.14803983 -0.071389645 -0.10681044 0.12249071 0.06701078 0.48241377 0.49282813 -0.08699505 -0.053865608 0.07295962 -0.15584365 -0.08549214 0.24705477 -0.050935034 -0.14118798 0.60121727 0.041440934 -0.48665383 0.20394231 -0.12444074 -0.2485309 -0.36563092 -0.17374575 0.0979149 0.041892808 0.071990244 -0.3004389 0.24659012 -0.5000565 0.3383951 -0.061700605 -0.24336205 0.012588336 0.8654394 -0.48266432
633 -0.43248558 -0.05503967 0.34269127 0.11153626 0.039545786 0.089824446 0.28166518 -0.19307439 0.0014849191 -0.32969034 -0.44160277 0.13239945 0.673936 0.2947083 -0.18363866 0.14648531 -0.2840066 -0.45821178 0.15779296 -0.23363182 -0.0905452 0.36241454 -0.26484573 -0.124955595 0.30446002 -0.18140694 0.29407093 0.07424282 -0.31515592 0.0012929271 0.31282488 -0.4001406 0.055646617 0.46442324 -0.13498917 0.026968611 0.37104288 0.21718308 0.21911603 -0.3753853 -0.2820325 0.29244494 0.0072595584 0.25181648 -0.36789325 -0.04122738 -0.10679907 -0.4152306 0.2123588 -0.110330366 0.6393682 -0.091978595 0.06705319 -0.04116316 0.13839388 -0.47538415 0.1836094 -0.109893404 0.12960003 0.0002616032 -0.03542767 -0.31544444 0.42378333 -0.3085757 0.49597862 -0.084693275 -0.24055232 0.13329935 -0.060617197 -0.39912665 0.06519801 0.1829919 -0.2703298 -0.12753505 -0.13271202 0.11803215 -0.038004816 0.18660587 -0.26217103 0.037661918 -0.27420458 0.21285088 0.045904856 0.04592053 -0.20990284 0.16250363 -0.20141317 -0.15467924 0.39126864 0.7009928 -0.35953236 0.082834765 -0.003812801 -0.0047680307 0.07364537 -0.07625911 -0.004942063 0.22315463 0.5112299 0.6068415 -0.12137341 -0.3724671 0.18524706 -0.16569297 -0.16050513 0.12509765 -0.016287409 -0.39770684 0.40345988 0.16447644 -0.680197 0.36121252 0.03370946 -0.13069601 -0.28216603 -0.19280033 0.09369432 -0.24859719 0.2559169 -0.2732416 0.36692834 -0.48603687 0.26146132 -0.2390586 -0.051497772 0.06750593 0.7549153 -0.6117128
780 0.60003275 0.16858369 0.35509327 0.16438869 0.3801318 0.29361936 0.14752299 -0.013197571 -0.1920423 -0.35920578 0.21919082 -0.0018518107 0.31413823 -0.289186 -0.030875485 0.11879529 0.022660801 -0.0438067 0.010788131 0.16451764 -0.31487286 0.12687464 -0.258103 -0.3603707 0.38052785 0.43259066 -0.22236797 -0.0061057196 -0.3978852 0.022848383 0.45023608 -0.18574192 0.4083061 0.16122648 -0.3128292 0.25580624 0.18246207 0.16246408 -0.01595707 0.24381112 0.019074945 0.41432914 -0.069734104 -0.20167261 -0.5911645 0.17859627 0.22352871 0.17810488 -0.22862178 -0.23097059 0.19941479 -0.13665798 -0.025814777 -0.24231355 0.3333383 -0.5848572 -0.28786945 -0.29438084 0.10218534 0.28681126 0.35461193 0.17324038 0.28339556 -0.2079581 0.17104049 -0.03685851 0.09099646 -0.21830375 0.03277551 -0.40674144 -0.065475754 0.3691475 0.09145629 -0.015574216 0.099447265 0.030412763 -0.13949904 -0.042384263 -0.22773865 0.20141454 0.26319125 0.5744155 0.44552422 -0.2569619 -0.69143933 0.1632162 -0.30487487 0.07322474 0.5553217 0.39083293 -0.667228 -0.40506727 -0.19292496 -0.27332625 0.47561237 -0.043231186 -0.10279054 -0.01705388 0.112926796 0.20927651 0.066084854 -0.69866854 -0.44149628 -0.1503339 -0.25398916 -0.045180757 0.07924637 -0.12062578 -0.044451285 0.16268152 -0.03215675 -0.010578662 -0.33865252 -0.14725883 -0.29547694 0.3448398 -0.42228726 -0.26926613 -0.154715 -0.26220903 0.07356753 0.29469475 0.074502625 -0.11598176 -0.12108891 0.081746 0.24608907 -0.101335205
685 -0.12177748 0.019509487 0.16799618 0.2044063 -0.34221214 -0.07148605 0.21945775 -0.40467212 0.021648284 -0.10500442 -0.19722642 0.09315032 0.6397986 0.09450486 -0.14716837 0.1725446 -0.20627604 -0.26421687 -0.2877477 -0.050780162 0.11951363 0.40348962 -0.33496273 -0.12314002 0.18508413 -0.2515734 -0.204943 -0.08015239 -0.2134353 0.093625695 0.4796866 -0.3283108 0.2789575 0.473063 -0.081359036 -0.18725133 0.23533449 0.22782633 0.19131096 -0.46790737 -0.1618586 0.23261748 0.16489556 0.18840456 -0.20963201 0.10616668 -0.2032178 -0.23041913 0.43607995 -0.24087031 0.58753467 -0.068714045 0.056566022 -0.12267173 0.18857163 -0.4017923 0.24431372 -0.17584217 0.41404724 -0.1618173 -0.011186697 -0.14978401 0.360983 -0.22927058 0.6320664 0.05516455 -0.14062338 0.048967943 -0.19947833 -0.201767 -0.033788208 0.38113067 -0.4174575 0.1818017 0.008262131 -0.09416218 0.12722085 0.0014504412 -0.15009914 0.16729863 -0.4019765 -0.12635425 -0.15894417 0.14272918 0.03491093 0.25092956 -0.21808138 -0.017771494 0.32490727 0.70122963 -0.17406839 0.18885306 -0.054611497 -0.062608086 0.08763282 -0.022953035 -0.06243926 0.080652386 0.34318 0.53920394 0.1125586 -0.064797536 0.048270635 -0.005642954 -0.37761912 0.256436 0.00084978645 -0.25012752 0.39507264 0.043664385 -0.26371166 0.3614244 -0.014088449 -0.0629844 -0.068937205 -0.00012796375 0.20981166 -0.22491552 0.20193437 -0.2118547 0.2744626 -0.44661802 0.15350644 0.064511344 0.114273936 0.059976015 0.87092227 -0.4988724
627 -0.32157582 -0.028214343 0.30430064 0.16502357 -0.20283566 -0.08406946 0.30868265 -0.28258684 -0.120113924 -0.21182196 -0.37684146 0.24727069 0.7147656 0.15606935 -0.060628287 0.2707597 -0.28170994 -0.3617963 -0.14507091 -0.06713304 -0.022608222 0.39494562 -0.49955118 -0.033666883 0.2906308 -0.30949336 0.14359267 0.16260768 -0.1503167 -0.06683903 0.25795835 -0.29534873 0.3134283 0.5235731 -0.1608808 -0.19331591 0.45995224 0.33624005 0.2581012 -0.40993896 -0.2517484 0.37385377 0.19149984 0.20166272 -0.35720226 0.18531655 -0.221242 -0.36147875 0.35176098 -0.14123257 0.5954975 0.039570294 0.20416906 0.08135757 0.21986389 -0.56991637 0.28766483 -0.27929458 0.14964077 -0.09000904 0.067711055 -0.27309728 0.4814656 -0.27962786 0.44569373 0.047091674 -0.104377955 0.056699615 -0.07342439 -0.3259022 0.15237758 0.24166466 -0.3853521 0.1050863 -0.10391853 0.01011539 -0.06969787 0.034356784 -0.27388132 0.024057189 -0.28333205 0.060894333 -0.26008952 0.10255005 -0.18597601 0.24545075 -0.14579281 -0.10478833 0.45681474 0.7498687 -0.18001893 0.06921124 -0.039601654 -0.07365532 0.0971022 -0.062835045 -0.12515607 0.27933678 0.38204414 0.5748684 0.012442509 -0.11454723 0.14914559 -0.12861829 -0.13083024 0.2935374 -0.051912963 -0.29918307 0.5159128 0.14636603 -0.30527657 0.28289363 -0.018913593 0.031811025 -0.11336313 -0.111827835 0.10847438 -0.34479743 0.2861068 -0.34749696 0.3614537 -0.4162179 0.3439484 -0.010845605 0.107080415 0.034348562 0.76334697 -0.58803964
625 -0.5108772 -0.071841896 0.27098337 0.19338161 -0.12776735 0.052732393 0.17745845 -0.04979891 0.027165804 -0.2939148 -0.3855938 0.32062098 0.80132 0.21116203 -0.15217376 0.21736312 -0.19607791 -0.54467475 -0.0946349 -0.16815689 -0.09997359 0.34269634 -0.38971496 -0.31618276 0.1756342 -0.24945347 0.25814003 0.2681059 -0.29779395 -0.1383089 0.20949918 -0.28970057 0.12340792 0.42647862 -0.097915545 -0.08274245 0.3886744 0.19418392 0.239866 -0.50152844 -0.06273593 0.20847365 0.04890222 0.24309184 -0.44952685 -0.039506145 0.02531788 -0.3019231 0.17524458 -0.11929667 0.4651796 -0.08906299 -0.041923385 -0.024304213 0.16928184 -0.53974766 0.23778392 -0.15092725 0.16805704 -0.09244947 0.072974086 -0.22684371 0.5297583 -0.23802976 0.4713148 -0.119406216 -0.29276982 0.020133276 0.039942637 -0.3321027 0.18023239 0.33662236 -0.30322373 -0.07906314 -0.24532026 -0.129763 0.19057672 0.2586468 -0.21619205 0.053236548 -0.41936073 0.006331807 -0.03927003 0.18954666 -0.19427949 0.3150243 -0.2240735 -0.2854502 0.2262058 0.6953317 -0.24173464 0.058743823 -0.02710785 -0.15144007 0.013405432 -0.1401513 -0.035012085 0.24411897 0.35382164 0.6668423 -0.08949251 -0.08027679 0.23246264 -0.073566325 -0.1992454 0.11004487 -0.018572746 -0.49223465 0.49838737 0.18507674 -0.50043803 0.25225776 -0.045395184 -0.10255647 -0.21191414 -0.1331258 0.049400076 -0.4262596 0.26123518 -0.43111864 0.18280686 -0.35027266 0.2962262 -0.032635894 -0.017327746 0.06613793 0.8172556 -0.49688327
785 0.5012957 0.16103314 0.28784344 -0.016880173 0.21388143 0.15927939 0.2023357 0.108017325 -0.16494381 -0.4201086 0.0528122 0.052918583 0.30582964 -0.27179444 0.006453932 0.062197264 0.022693833 -0.092799895 0.000910813 0.17735566 -0.24669978 0.028879384 -0.17637478 -0.37292582 0.31438148 0.3636286 -0.16798082 -0.05770481 -0.26362854 0.07145362 0.46043894 -0.18163684 0.39547837 0.1723218 -0.23892319 0.11634498 0.25801206 0.2348447 0.008711113 0.36622941 -0.05803004 0.47353244 0.12628098 -0.1812649 -0.56484956 0.19283701 0.31004044 0.0858437 -0.24240474 -0.1842815 0.20664194 -0.15491489 0.023571879 -0.2777176 0.3886086 -0.66152716 -0.26621258 -0.34360418 0.07207252 0.30354112 0.37407994 0.09812822 0.29152563 -0.31584522 0.17197314 0.018516632 0.116649136 -0.13858962 0.05364288 -0.54984015 -0.043485384 0.4469081 -0.050776917 -0.011787394 0.13277619 0.10971501 -0.14770634 0.02925966 -0.1812063 0.21594287 0.3564048 0.6802304 0.41916135 -0.19286728 -0.6498551 0.24492359 -0.36102843 0.11424988 0.5877374 0.33909377 -0.65950036 -0.424566 -0.14404391 -0.19652224 0.30675486 -0.038160507 -0.230857 -0.090895995 0.07307648 -0.019087818 0.061392725 -0.64909226 -0.494298 -0.22808401 -0.3147757 -0.030417241 0.081415236 -0.04772306 0.013029155 0.1956724 -0.090964265 0.007702102 -0.46123374 -0.03731583 -0.38298488 0.3497155 -0.5405524 -0.29508105 -0.24666448 -0.28356948 0.055982683 0.2776027 0.06178604 -0.16437526 -0.14710139 -0.007872933 0.34346846 -0.13786268
624 -0.57410514 -0.0018431888 0.30529395 -0.007592583 -0.16347699 0.031779844 0.26805872 -0.17425059 -0.10770196 -0.21436243 -0.44215688 0.11235055 0.68733555 0.15480079 -0.030056879 0.32236814 -0.34814748 -0.40336037 0.03238171 -0.2340767 -0.060258027 0.39564213 -0.27385536 -0.1797586 0.14733908 -0.24452834 0.18129218 0.1750468 -0.33215263 -0.2105979 0.25646248 -0.21210098 0.06833588 0.46604344 -0.000612249 0.07583992 0.380809 0.2576821 0.25049266 -0.2942549 -0.1273385 0.13443045 0.18524347 0.23505309 -0.36845863 0.10556054 -0.12886782 -0.39708933 0.085031286 -0.06087091 0.58728236 -0.11173509 -0.0072920024 -0.03746723 0.26836798 -0.50113654 0.28466913 -0.13903663 0.087314345 -0.17890377 -0.0895267 -0.32954657 0.4382528 -0.40853146 0.3632837 -0.026439833 -0.19900534 0.2327679 -0.05451702 -0.42656475 0.1819077 0.27834818 -0.45790464 0.09036322 -0.15144944 -0.05261997 -0.038958993 0.15928993 -0.34944674 -0.057759613 -0.31773537 0.17595063 -0.042873535 0.2876111 -0.10200093 0.20467444 -0.27642268 0.008444019 0.42096716 0.7745707 -0.35181555 0.013867397 0.0134570105 -0.11599564 -0.039469358 -0.15576811 0.045878004 0.20946336 0.48863938 0.50415415 -0.11108977 -0.10899911 0.13389172 -0.04199809 -0.072137244 0.15126082 -0.012176292 -0.26953238 0.45886588 0.21403861 -0.61068237 0.18789844 -0.053831067 -0.061159607 -0.3765149 -0.1263747 0.088652104 -0.24759383 0.1867036 -0.33431903 0.2884347 -0.4819043 0.37607643 -0.11926187 -0.08128805 0.029810904 0.77780974 -0.5616384
628 -0.45495167 -0.12940308 0.31899202 0.1328456 -0.14448674 0.049818665 0.31102315 -0.13634802 0.020067055 -0.23799446 -0.4570105 0.19494535 0.7244826 0.058639206 0.034261055 0.33648008 -0.43660152 -0.5511436 -0.00714379 -0.19547288 -0.20096225 0.46195418 -0.46555415 -0.0059943083 0.20462921 -0.24705881 0.12447111 0.33820355 -0.21638882 -0.12451957 0.28787532 -0.24945982 0.27354866 0.31535125 -0.171387 0.044467974 0.4091766 0.23724702 0.23545612 -0.48329058 -0.28890684 0.24489991 0.07219427 0.19564734 -0.492605 0.052080058 -0.29997423 -0.35473797 0.18587013 -0.18796474 0.56087786 0.011461552 0.13369836 0.09643665 0.25901437 -0.46689087 0.23309918 -0.005018381 0.20958696 -0.018759144 -0.13215698 -0.046661213 0.6391854 -0.36891767 0.3159383 -0.103480704 -0.23379086 0.13210274 -0.19125399 -0.43256822 -0.06436175 0.19050093 -0.40020007 -0.08219014 -0.04587636 0.22479908 0.06124913 -0.0620895 -0.30184725 -0.030618941 -0.521676 0.03266334 -0.09042555 0.25022414 -0.1606539 0.17540567 -0.41580206 -0.2282301 0.39614627 0.65126336 -0.30922425 0.039731678 -0.06387101 -0.016369002 -0.054712683 -0.11418808 -0.1675399 0.21982631 0.32707086 0.6412926 0.023542771 -0.21217936 0.17463015 -0.1947122 -0.13729042 0.1842806 0.043285977 -0.3163194 0.43508413 0.12635264 -0.40678078 0.27867258 0.019732572 -0.0843907 -0.15984434 -0.1252337 0.21475412 -0.21009344 0.13535668 -0.39711684 0.26078352 -0.5311016 0.3103793 -0.08884057 0.0843439 -0.072722286 0.5745622 -0.43908748
783 0.4964848 0.183831 0.34784526 0.18443641 0.2834196 0.28618068 0.19105226 0.12057849 -0.17860729 -0.2695221 0.012050738 0.01361073 0.29727283 -0.24876554 0.04899532 0.069402024 0.020232674 -0.04098126 0.005569688 0.21973096 -0.23780599 0.03345984 -0.2525411 -0.3636461 0.36537454 0.3743244 -0.13368665 -0.027331462 -0.34457836 -0.011670371 0.40469968 -0.13570878 0.36865833 0.1615274 -0.22300574 0.30018267 0.1370482 0.26083586 -0.060053017 0.4257314 -0.027040053 0.48199543 -0.039551366 -0.24708788 -0.5601352 0.2702955 0.1885197 0.14283814 -0.2718948 -0.17690861 0.19490062 -0.2080879 0.006940939 -0.2596727 0.4068352 -0.54829276 -0.2832633 -0.31211486 0.057517722 0.27074918 0.35710815 0.1570095 0.27993923 -0.24724406 0.11751333 0.039881285 0.092546545 -0.19033244 0.041173287 -0.53647023 -0.06423972 0.48150808 0.0619844 -0.1128835 0.12961157 -0.03078793 -0.12744528 0.03381391 -0.1548323 0.25515926 0.27872097 0.6926564 0.5258596 -0.24633129 -0.64791155 0.14753868 -0.34078932 0.21057606 0.5474679 0.34166992 -0.751142 -0.33341184 -0.21609443 -0.20588423 0.4341349 -0.09086782 -0.13092953 -0.04951139 0.0797203 0.16233203 0.10240755 -0.6233493 -0.49912387 -0.14067088 -0.26057565 -0.030109484 0.06492088 -0.042835798 -0.040023107 0.19835143 0.021517647 1.9636815e-05 -0.324787 -0.10974399 -0.3581168 0.3098979 -0.58666956 -0.25328207 -0.13401803 -0.3419508 0.11550397 0.22532074 0.08213676 -0.096075095 -0.16052978 0.101544335 0.30519906 -0.10265422
709 -0.30153462 -0.028564451 0.20956178 0.046312843 -0.16864939 0.012202466 0.17441085 -0.25923988 0.07461856 -0.21159342 -0.1515174 0.09259863 0.4244968 0.08002358 -0.003915095 0.33854717 -0.11069367 -0.67413104 -0.043609384 -0.17126666 -0.19566707 0.3654423 -0.29484147 -0.3060749 0.090549424 0.10939865 0.09185261 0.09114902 -0.380284 -0.09945502 0.17051943 -0.4159802 0.14205977 0.4010749 -0.152585 0.16502684 0.24038471 0.3946914 0.24593164 -0.51631653 -0.0016895356 0.25647125 -0.007057172 0.025760695 -0.37627044 -0.027392589 -0.048235595 -0.3373334 0.4198273 -0.18398537 0.58095664 -0.11777971 -0.1614982 -0.109933555 0.23605806 -0.4720764 0.23848096 -0.21147047 0.39216015 0.028724412 -0.11252651 -0.15874603 0.50961125 -0.25320676 0.42802173 0.09584145 -0.40909863 0.098515004 -0.17526819 -0.28366292 0.23013902 -0.07109581 -0.2638825 0.21909012 -0.2045357 0.04690274 0.2598744 0.016663741 -0.32243657 -0.012346866 -0.5001749 -0.3718252 -0.0839694 0.10263105 -0.16710037 0.2889209 -0.46043992 -0.026917547 0.28740087 0.82130444 -0.2194235 0.11794031 -0.18309955 -0.02760265 0.0060609607 -0.0075208526 0.24681744 0.2212779 0.44102132 0.52733636 0.124211036 -0.10834836 0.10023328 -0.09163736 -0.18282002 0.39848766 -0.010654572 -0.5422576 0.42050385 0.18785782 -0.32943746 0.36149883 -0.15196651 -0.108550146 -0.36684075 -0.12085997 0.22090003 -0.08524156 0.01915919 -0.0973084 0.1608319 -0.33410725 0.3067501 -0.16342154 0.029560937 0.07066582 0.8518346 -0.42641512
630 -0.40766925 -0.022742372 0.2959211 0.065302216 -0.024597356 0.09356348 0.22988328 -0.297264 0.06532319 -0.26029852 -0.33009169 0.08671059 0.56660235 0.22195522 -0.047360446 0.17159374 -0.22096293 -0.47124696 0.06635893 -0.15902454 -0.0807006 0.37269008 -0.35304666 -0.15834066 0.12072945 -0.048852097 0.22759917 0.17687339 -0.26891166 -0.17344241 0.14878458 -0.28408405 0.093091935 0.3852512 -0.18374738 0.044047054 0.37241474 0.2799879 0.37334162 -0.45325756 -0.23056652 0.21940254 0.09078587 0.16946593 -0.29222062 0.021081505 -0.12356821 -0.3835333 0.31001115 -0.21272579 0.5543837 0.016450567 0.17639428 -0.058643535 0.17778794 -0.33647028 0.37038645 -0.33604044 0.21452175 -0.05232014 -0.18978624 -0.28373525 0.55760175 -0.30888727 0.46761265 -0.036297977 -0.18471959 0.11529195 -0.22178452 -0.45232308 0.23536703 0.09486606 -0.2889672 0.047528047 -0.30009466 0.04755391 0.1670974 0.05948854 -0.36246958 0.07645993 -0.3893049 -0.009663955 -0.11923111 0.21808189 -0.28285995 0.34807897 -0.28719756 -0.1653634 0.28457156 0.7948159 -0.3267572 0.057421785 -0.12955746 0.0333301 0.07713028 -0.12687196 0.092053205 0.2214071 0.4037683 0.5908954 0.013228296 -0.13304132 0.08899932 -0.13579597 -0.059881836 0.2281941 -0.0028887007 -0.4677341 0.36486167 0.10460878 -0.45776302 0.3410231 -0.0721643 -0.11610459 -0.37340552 -0.11152226 0.09237061 -0.2587296 0.094271876 -0.25121453 0.39184323 -0.3934302 0.39494526 -0.20247799 0.090614684 0.049390227 0.7342766 -0.47750923
194 -0.36584982 -0.0010182265 0.3740385 0.22100879 -0.11607917 0.10300898 0.3419516 -0.22383314 0.11233517 -0.3261884 -0.29120147 0.2565841 0.67225736 0.13593282 0.10078611 0.30625784 -0.13140163 -0.5636709 0.0974815 -0.16687481 -0.027087089 0.4715865 -0.51797587 -0.16149618 0.28444973 -0.2788003 0.27518305 0.29960382 -0.2650745 -0.26918975 0.09867855 -0.31987387 0.1962806 0.4702997 -0.19521263 0.05338269 0.24632576 0.3391914 0.3510922 -0.40549627 -0.2395002 0.32173923 -0.00921995 0.22516137 -0.37244463 -0.06999224 -0.16535956 -0.38774252 0.23974568 -0.21202724 0.5176915 0.12603006 0.090882435 0.036110297 0.23091638 -0.40425283 0.30799368 -0.21659966 0.05616379 -0.1097567 -0.050754987 -0.1168503 0.5112129 -0.24844858 0.40635526 0.012409598 -0.30314326 0.14595443 -0.13024269 -0.335437 -0.05886279 0.08402364 -0.3186536 0.004267534 -0.12897484 0.07253994 0.16984265 0.13806245 -0.24164642 0.26452637 -0.34971187 0.09295141 -0.015766436 0.14556642 -0.13638982 0.23702903 -0.29335746 -0.07556637 0.32900155 0.7330493 -0.48121917 0.069836594 -0.14808913 -0.07803431 0.07816129 -0.068201154 -0.14132209 0.22960009 0.33182368 0.7480036 0.0020951594 -0.30383527 0.14497302 -0.1785881 -0.16878854 0.27393976 -0.035168998 -0.30378625 0.38753247 0.18595962 -0.39997756 0.47765136 -0.01846369 -0.08362682 -0.32472023 -0.15768005 0.02928103 -0.23129903 0.15108308 -0.3654 0.43851835 -0.61539376 0.24464592 -0.3026789 0.075205065 0.119435646 0.8828724 -0.46413755
782 0.46745464 0.15535535 0.3484035 0.07832927 0.27331734 0.2910526 0.19046408 0.10551688 -0.20812249 -0.4098045 -0.0065090633 0.07671526 0.36794654 -0.23989478 -0.0230134 0.26812905 -0.012547884 -0.119655736 -0.050477758 0.2281558 -0.32334295 -0.061415207 -0.21441826 -0.41176367 0.25655288 0.50025433 -0.22622342 -0.048746474 -0.39009228 0.057336155 0.31554347 -0.19512446 0.27238873 0.08219068 -0.29812303 0.15658574 0.1597976 0.22107628 0.06920098 0.38002336 -0.14045341 0.4480385 -0.0008381091 -0.17053661 -0.54620016 0.1368111 0.22362137 0.10205237 -0.2409394 -0.08848867 0.23808455 -0.2012271 0.040205576 -0.15375356 0.50699914 -0.67007667 -0.14030035 -0.39487585 0.07142819 0.29502615 0.24844238 0.059527684 0.36030823 -0.288392 0.19350143 -0.014223701 0.11376964 -0.16293268 -0.08492816 -0.5714948 -0.056041285 0.35053846 0.036622867 0.03936857 0.055976406 0.057610795 -0.06668668 0.08643316 -0.22034164 0.017671136 0.3591636 0.5523031 0.34003463 -0.22975501 -0.7183312 0.10097958 -0.35380372 0.15027045 0.5591271 0.35896552 -0.73472416 -0.40737584 -0.19760016 -0.22732171 0.4126142 -0.054985166 -0.07292365 -0.039202705 0.15305898 0.038991097 0.085070714 -0.6452504 -0.5030023 -0.20437422 -0.18263876 -0.1143975 0.07739368 -0.035701964 -0.07200235 0.17319764 -0.033728078 -0.15884452 -0.39522314 0.08696096 -0.39132804 0.21236703 -0.58145845 -0.23672558 -0.094867535 -0.33643198 0.04896539 0.25838605 0.082562484 -0.13339287 -0.07256562 -0.043182522 0.2474241 -0.09277834
696 -0.24036904 -0.034211382 0.2602395 0.24245246 -0.04307807 0.028944422 0.2777893 -0.28828865 -0.015537578 -0.20736891 -0.2931222 0.07504948 0.6365789 0.17681746 -0.24515449 0.16698135 -0.23397608 -0.26121065 -0.12071436 -0.08542401 -0.061877925 0.36074376 -0.2525687 0.043440424 0.33085907 -0.23712146 -0.039279595 -0.14156398 -0.29319045 0.12362549 0.5104856 -0.3362323 0.32191116 0.55449826 -0.1474243 -0.13137022 0.30001655 0.23120809 0.078205466 -0.4781476 -0.13671452 0.4655949 0.069577985 0.21456802 -0.3850699 0.11153897 -0.15948537 -0.31577307 0.44215068 -0.12572514 0.6208928 -0.20889 0.0017695862 -0.10032971 0.13153909 -0.50376695 0.113064736 -0.14436282 0.2086429 -0.022303581 0.00966816 -0.2606218 0.30000025 -0.23678593 0.573757 0.039733242 -0.14436132 0.09314114 -0.08695968 -0.22125822 -0.065147646 0.25380933 -0.39537448 0.07820263 0.052264478 0.09257035 -0.11614566 0.10655998 -0.2615632 0.050468113 -0.4109903 0.034878634 -0.017397132 -0.043187387 0.021679359 0.1265844 -0.18053679 -0.08104659 0.43716466 0.68564713 -0.29313013 0.13257395 -0.038220838 -0.10951894 0.14600419 0.1312707 -0.066750735 0.17365539 0.4684492 0.52490485 -0.0032578649 -0.31283155 0.12575121 -0.13171317 -0.3014707 0.22186838 -0.055479113 -0.36934897 0.49708784 0.08161761 -0.46455353 0.3438729 0.05235692 -0.05186656 -0.08995531 -0.0844779 0.2586788 -0.03138924 0.25377056 -0.20328997 0.364505 -0.4870252 0.14683557 -0.016242072 -0.054715086 0.017233286 0.7626973 -0.53648895
768 0.6808606 0.19957028 0.33399078 0.13584909 0.38355574 0.41577968 0.13540457 0.12345086 -0.21858943 -0.37569258 0.18967862 0.10485191 0.26024333 -0.38452563 0.00500635 0.19537248 0.0062674936 -0.031246006 -0.07671196 0.1816476 -0.23327462 0.009021689 -0.09355066 -0.31317937 0.4991398 0.41592637 -0.2361535 0.09098011 -0.36428624 0.038836364 0.35561517 -0.21232449 0.26286498 0.1298541 -0.25279686 0.11965827 0.20775434 0.16742514 -0.013584283 0.46814707 0.09518452 0.46030584 -0.053912986 -0.16432801 -0.6586903 0.15166356 0.2935942 0.14424847 -0.22790614 -0.07805075 0.15841815 -0.25651705 0.12825705 -0.07808454 0.2949402 -0.49775764 -0.20721214 -0.42093965 0.017031781 0.21269648 0.3855097 0.24875951 0.31036165 -0.20234522 0.11310171 -0.058962468 0.06746575 -0.22506025 0.14235693 -0.5145242 -0.12710556 0.49175537 0.036910478 0.06580671 0.17456047 0.15469395 -0.0933497 0.03842552 -0.10660917 0.15013556 0.32688162 0.67612123 0.523936 -0.23224832 -0.5618553 0.05241601 -0.32908705 0.072431095 0.5921393 0.21730828 -0.7087578 -0.3643658 -0.21232644 -0.13918349 0.3230175 -0.10113108 -0.16738304 -0.05088641 0.14515081 0.17156662 0.04158638 -0.65114194 -0.5286823 -0.14159317 -0.254659 0.0128219975 0.09089445 -0.06344078 -0.2404392 0.13852164 -0.02256899 0.018351033 -0.32981843 -0.038010173 -0.35734907 0.23173094 -0.5514966 -0.24079236 -0.11541001 -0.3283166 0.13320893 0.17586872 0.07100833 -0.19253382 -0.11646879 -0.082638755 0.33394015 -0.09521279
664 -0.35665452 -0.08856698 0.3021981 0.35929695 -0.090119444 0.20487152 0.25947556 -0.21411219 0.049673457 -0.106906444 -0.17078732 0.08382777 0.57336205 -0.07692073 0.17315489 0.19420399 -0.12808423 -0.43034986 -0.05466506 -0.1841161 -0.05458283 0.3043297 -0.12716644 -0.1276292 0.27680358 -0.12969145 -0.028865257 0.32156062 -0.5480335 -0.10021037 0.22664347 -0.48197296 0.11449936 0.4887125 0.19910367 0.071809895 0.20561016 0.26787513 0.24990137 -0.4666884 -0.08485161 0.17899856 -0.06761 0.17165492 -0.2872623 0.19917695 -0.285088 -0.3407433 0.2348484 -0.06867629 0.49482206 0.04986701 -0.08431262 -0.021928452 0.3140379 -0.26493445 0.11836147 -0.2877971 0.19628468 0.06584723 0.13182047 -0.025541501 0.3976858 -0.21511364 0.64308536 0.11245159 -0.4544584 0.10653824 -0.0025531151 -0.08271834 0.047295965 0.015381593 -0.3396819 0.19453879 -0.015570342 0.001182181 0.0062827785 0.18265784 -0.041489925 -0.058671243 -0.44400275 -0.0673407 0.034331065 0.14924842 -0.1144353 -0.059191156 -0.48034802 0.032053333 0.37877712 0.7648596 -0.37539402 0.13853993 -0.14232759 -0.16759937 0.06780899 -0.12312282 -0.055358104 0.12846385 0.34914532 0.6445656 0.05278949 -0.39682388 0.25014782 -0.01467792 -0.05658069 0.27580732 -0.062487714 -0.44652918 0.45868552 0.07963226 -0.46342096 0.4763174 -0.044865057 -0.23428346 -0.25801 -0.060950734 0.19708201 -0.087518476 0.06752902 -0.30982625 0.36602148 -0.36373046 0.3016885 -0.1801746 -0.015027691 0.18728125 0.79475963 -0.3940795
632 -0.34470713 -0.0136831505 0.44337705 0.14031227 -0.23978336 -0.020843199 0.29095867 -0.120205775 0.015593088 -0.18235393 -0.39081648 0.24708103 0.7045475 0.19279209 -0.00077049126 0.15871778 -0.36823454 -0.4704186 0.035191163 -0.14530826 -0.06200191 0.47749412 -0.4048916 -0.21403342 0.19241235 -0.27371004 0.19921981 0.21320587 -0.34037185 -0.28180915 0.08643377 -0.3990703 0.014883291 0.4284941 -0.043711692 0.14532292 0.35656115 0.24667181 0.38860983 -0.4257472 -0.33004957 0.22513485 0.10942561 0.053564444 -0.35916856 -0.04171296 -0.09329408 -0.3329889 0.1744809 -0.053051673 0.42278937 0.114557244 0.00026717022 -0.03811755 0.13927512 -0.2942863 0.14621696 -0.22694452 0.2993027 -0.112036616 0.071352415 -0.17772573 0.44680583 -0.31487712 0.43128487 0.11069019 -0.14043805 0.13627188 -0.10502119 -0.34303758 0.25275952 0.1936699 -0.23186249 -0.04400484 -0.24803591 -0.058205288 0.049751393 0.010363164 -0.23121639 0.13728401 -0.32957163 0.20922762 0.0036558586 0.30356738 -0.26341835 0.26390937 -0.14682989 -0.13467062 0.3432293 0.73315454 -0.27956778 0.01985039 -0.055466473 -0.10736287 0.1151994 -0.108222984 -0.099311605 0.20020024 0.31796393 0.7147124 -0.10257835 -0.20842181 0.14585051 -0.043541025 -0.07539863 0.23413292 -0.03154715 -0.3693556 0.44799787 0.11160042 -0.48257756 0.3890561 -0.08852294 -0.19301325 -0.33706445 -0.16633986 0.07890435 -0.26092753 0.12567082 -0.33001876 0.2821004 -0.2992185 0.42217907 -0.06548152 0.07658537 0.19537672 0.7692613 -0.4968044
670 -0.4776511 0.03793218 0.218978 0.00014549162 -0.036509253 0.1317486 0.27042273 -0.3128358 -0.09283785 -0.16661899 -0.30153522 -0.0948261 0.54969186 0.0501763 -0.05347591 0.26595023 -0.25434434 -0.40605015 -0.066402346 -0.11546 -0.16226424 0.2911597 -0.10644386 -0.117672175 0.10539953 -0.031976413 0.024152009 0.016266532 -0.32412577 -0.092170686 0.35649493 -0.20157735 0.15626186 0.36512753 -0.032542557 0.10385687 0.32703754 0.28777698 0.24061179 -0.40844372 -0.072593085 0.20396854 0.20968935 0.22423893 -0.41951296 0.17379247 -0.10427549 -0.33503485 0.26715037 -0.06762527 0.55965763 -0.2308779 -0.0060689403 -0.13314542 0.37032974 -0.313146 0.33998713 -0.2946432 0.23995586 -0.1304472 -0.28021064 -0.34081787 0.41281533 -0.33136263 0.49864525 0.039993633 -0.22336522 0.1817206 -0.17952284 -0.33328012 0.21207264 0.1789605 -0.5264831 0.27351016 -0.13635091 -0.08062963 0.036846817 0.06810091 -0.38886148 -0.083444916 -0.5413929 -0.11924798 -0.121465534 0.28686255 -0.03979148 0.30834037 -0.40606195 0.024338998 0.34207663 0.8700463 -0.3802439 0.052580517 -0.14143264 -0.15669237 -0.059640754 -0.032319263 0.2578802 0.11154286 0.5041656 0.45462692 0.06422712 -0.06991899 0.03103645 -0.049514487 -0.043042436 0.24880545 -0.05358333 -0.49139985 0.4250013 0.08498641 -0.5493302 0.175394 -0.084871985 -0.08738839 -0.46176833 -0.007741774 0.3381389 -0.030502178 0.039319433 -0.18070297 0.29163623 -0.37272477 0.32861736 -0.040981792 -0.021075549 0.021983003 0.7240723 -0.42269644
672 -0.55128175 -0.06861231 0.30614015 0.2363923 -0.16118823 0.16761121 0.169035 -0.22659695 -0.08733823 -0.03358213 -0.24638544 0.053125598 0.49791455 -0.008520998 0.11999053 0.40152386 -0.27625057 -0.35144135 -0.088467 -0.15856323 0.052242577 0.29107907 -0.121292576 -0.14511451 0.19926155 -0.21405976 -0.10229298 0.16031432 -0.5341891 -0.087162755 0.27765223 -0.32616025 0.14278127 0.60019135 0.19180633 0.0031634811 0.25396156 0.32092956 0.21324325 -0.4909966 -0.03443333 0.13879204 0.056262255 0.3669453 -0.21130513 0.31624725 -0.24470943 -0.28908032 0.2267738 -0.039007127 0.58784425 -0.15719801 -0.16453022 -0.11675112 0.2698727 -0.43232718 0.16314246 -0.22894737 0.16451576 -0.1685718 0.030972442 -0.17433226 0.33943072 -0.34032217 0.5321946 0.1863557 -0.39135462 0.2062722 0.06971663 -0.22486912 0.047819123 0.20121434 -0.4377834 0.3204428 0.034451142 -0.13755378 -0.030196829 0.2626268 -0.21856484 -0.19630073 -0.43790725 0.015613607 0.08382924 0.27493694 0.029975226 0.058293425 -0.4659448 0.14252815 0.40748414 0.7827521 -0.4273343 0.044419892 -0.12609921 -0.22998236 0.102615364 -0.09150895 0.045671932 0.18161404 0.4798443 0.57691485 -0.011916638 -0.23772979 0.23729129 0.04618525 -0.15493573 0.21626481 -0.017253421 -0.4964529 0.54741246 0.14015923 -0.6937638 0.2543213 -0.06543382 -0.14525452 -0.4028605 -0.064713195 0.2803447 0.019847127 0.07800228 -0.28386644 0.30753642 -0.4951942 0.36247584 -0.12324117 -0.123914205 0.12935059 0.84734386 -0.4995685
635 -0.34958702 -0.051473808 0.3174099 0.1295272 -0.3086554 -0.105961435 0.18429922 -0.14608131 0.03135985 -0.19924507 -0.31061015 0.36066318 0.5484229 0.19165671 -0.016549433 0.39773884 -0.28167847 -0.6225673 0.04011313 -0.2413179 -0.052544486 0.484802 -0.5279782 -0.29201075 0.18917117 -0.10795471 0.2023519 0.24272129 -0.31006086 -0.15420485 0.10613374 -0.42638403 0.11583101 0.4652883 -0.17832723 0.080533266 0.34928522 0.39172918 0.27371794 -0.42313978 -0.12746668 0.23971227 0.014004744 -0.0007798104 -0.32720092 -0.037596304 -0.1653207 -0.35827714 0.26848385 -0.2015459 0.62694466 0.01874079 -0.10736347 0.010163884 0.096875906 -0.67713743 0.14433037 -0.031680435 0.28795066 -0.04353035 0.09788771 -0.13019036 0.56646186 -0.33686242 0.3044974 0.057152737 -0.33850664 0.13108422 -0.07504948 -0.4314806 0.15534747 0.050210465 -0.14567184 0.002584974 -0.16926883 0.08360103 0.14264178 0.019717794 -0.27018833 -0.013355861 -0.23205139 -0.0349575 -0.047523443 0.10070765 -0.2419261 0.1828164 -0.32177413 -0.0760891 0.43606636 0.678015 -0.14324686 0.07173897 -0.052074157 0.05557967 0.08001355 -0.13625583 0.006308322 0.30151823 0.41006118 0.60029244 -0.072000355 -0.14374352 0.19605206 -0.11595486 -0.1960417 0.30933058 0.025153233 -0.3226319 0.44082576 0.3033405 -0.37700492 0.3704702 -0.090634644 -0.08401379 -0.2308368 -0.22740817 0.02750827 -0.30955932 0.21571346 -0.24040282 0.14835106 -0.4481182 0.38646474 -0.19407456 0.028721867 0.077381745 0.8579177 -0.5894884
692 -0.30859697 -0.11547846 0.27246973 0.22001702 -0.16778399 0.0042956495 0.3166012 -0.19548461 -0.019877683 -0.1922393 -0.3067983 0.16752549 0.7561431 0.008473049 -0.056541502 0.29017335 -0.35521555 -0.40492728 -0.24231909 -0.028990373 -0.20991473 0.40263537 -0.41877162 0.123663686 0.25376692 -0.28459516 -0.10177537 0.08268127 -0.22468571 -0.030230492 0.42795223 -0.23325273 0.46009517 0.41543144 -0.17907724 -0.12255344 0.32968011 0.3002347 0.11103487 -0.5748947 -0.14019945 0.46845195 0.08315738 0.20078471 -0.5345217 0.14971669 -0.28074148 -0.2870007 0.42687967 -0.14518814 0.53524756 -0.14093031 0.058376476 0.023932116 0.24314494 -0.5228488 0.17213507 -0.1188009 0.2379547 -0.032388218 -0.049430557 -0.07780659 0.50657654 -0.24306825 0.42880905 0.020761352 -0.1602212 0.07714314 -0.15812987 -0.23314685 -0.10537021 0.28262323 -0.5226299 0.114048794 0.06880355 0.14312316 -0.02204448 -0.05726309 -0.3123287 -0.031123219 -0.63517034 -0.11356848 -0.13304533 0.076134846 0.01870697 0.17903808 -0.38170284 -0.18997559 0.4383597 0.6575491 -0.2769602 0.067455314 -0.05825936 -0.17711492 0.014547564 0.115312785 -0.16366494 0.19421442 0.31027582 0.5982952 0.13098964 -0.21001513 0.1321075 -0.20367204 -0.28156093 0.3033995 -0.053786874 -0.36142933 0.54819155 0.027824083 -0.2709176 0.2722485 0.030285906 -0.009150541 -0.05634788 -0.07083092 0.36995235 -0.02489625 0.15146813 -0.31448036 0.28277555 -0.48583463 0.16322294 0.0898491 0.064363 -0.11114525 0.6240683 -0.42596757
689 -0.2499976 -0.053262517 0.2329402 0.3122437 -0.22844799 0.13343629 0.110853635 -0.3294283 0.1301675 -0.039983936 -0.12353695 0.11948458 0.43914095 0.046677653 -0.01652058 0.13201877 -0.25666162 -0.3711228 -0.050076578 -0.09949518 0.14974268 0.36863267 -0.20025939 -0.19082183 0.19158 -0.10625758 -0.1547392 0.06081858 -0.41692442 0.027945682 0.33880857 -0.47279355 0.049054895 0.44226375 0.015148323 -0.094999924 0.19577582 0.22334702 0.27470502 -0.4475354 -0.18896644 0.06977443 -0.056555394 0.27634698 -0.12142699 0.13097326 -0.20167015 -0.23238282 0.25936654 -0.19884996 0.5225981 -0.029121522 -0.036857434 -0.22469757 0.17744136 -0.23657209 0.11459046 -0.1368516 0.4410804 -0.15730146 0.08831942 -0.02307679 0.4079839 -0.23968413 0.64436305 0.09064499 -0.34695947 0.08807993 -0.08334489 -0.2414163 -0.1075544 0.3215458 -0.23517129 0.115479514 0.0227773 -0.04723399 0.22163042 0.18621923 0.0027873688 0.041366395 -0.39314577 -0.067542635 0.08761273 0.21468487 -0.03464961 0.11802825 -0.43591523 -0.026097048 0.23987521 0.6456027 -0.3414291 0.10543746 -0.10296509 -0.009718519 0.17143346 -0.19571958 0.021719458 -0.016458746 0.35530826 0.69169617 0.026563598 -0.22363287 0.14448433 -0.036902968 -0.30489296 0.16658428 0.04211016 -0.40165687 0.33440292 0.03762827 -0.50283337 0.43316886 -0.043898992 -0.28719383 -0.2547108 -0.010537682 0.21348973 -0.111147806 0.08006145 -0.20828591 0.25747463 -0.40845874 0.21359266 -0.13757056 0.10037961 0.1524461 0.8321003 -0.43509558
202 -0.3208583 -0.07084617 0.40805078 0.38704583 -0.07083021 0.21748218 0.25672317 -0.22954388 0.07334596 -0.18182172 -0.14760558 0.17944743 0.4871607 -0.0073579606 0.20398115 0.30803177 -0.1204048 -0.48768458 -0.02789211 -0.016065894 0.08899634 0.3280957 -0.3445264 -0.07392903 0.3558342 -0.30822775 0.04400352 0.17439911 -0.3764603 -0.09188378 0.17117141 -0.442283 0.17820342 0.49706972 -0.01402401 -0.066306286 0.10944032 0.33674794 0.24242148 -0.49442086 -0.20467001 0.334926 -0.08914242 0.41074285 -0.23204428 0.08949936 -0.21899495 -0.24175826 0.35484317 -0.14787488 0.46717808 0.024130508 -0.042458892 -0.026017934 0.18353347 -0.27795377 0.13652413 -0.2453357 0.12764524 -0.123920344 0.13241519 -0.03388747 0.2988347 -0.12866037 0.5294448 0.18750095 -0.36980334 0.10210127 0.014459987 -0.09316472 -0.18663497 0.10006269 -0.22622482 0.1521415 0.06508455 -0.011651242 0.099539675 0.21825576 -0.09601244 0.09895466 -0.42820242 0.021037554 0.16786115 0.07158581 -0.0054475255 0.12897077 -0.41840872 0.033969454 0.28565773 0.6276888 -0.500487 0.09865174 -0.22995631 -0.1753079 0.25636232 0.0154247945 -0.10415371 0.14694759 0.32355824 0.79466265 0.09152031 -0.39411825 0.22198345 -0.09551902 -0.2977587 0.27397293 -0.030100232 -0.4812154 0.40782845 0.10662506 -0.48930836 0.44263378 0.011093768 -0.14136243 -0.2896799 -0.10539582 0.23673692 0.027721696 0.08562364 -0.27486446 0.40303585 -0.5427655 0.13404927 -0.29192278 0.055552196 0.20512795 0.80592555 -0.43178082
716 -0.3129733 -0.059684835 0.23789068 -0.003942001 -0.3544814 -0.21989556 0.15960345 -0.12117565 -0.06101341 -0.21620241 -0.18227236 0.20057286 0.5717823 0.109870024 -0.00665375 0.41765627 -0.15753673 -0.6341941 -0.14136101 -0.24357027 -0.17204575 0.37823695 -0.34044623 -0.38891888 0.14754559 -0.040606655 -0.011651774 0.13682501 -0.44068205 -0.16193844 0.10219807 -0.36117712 0.17508823 0.51155216 -0.0007393971 0.1918681 0.09990003 0.4023599 0.14973578 -0.54641926 -0.027730396 0.26729336 -0.04359984 -0.005029309 -0.26508504 -0.1416083 -0.03553092 -0.20723659 0.30326906 -0.14397353 0.5866296 -0.12341998 -0.20384957 -0.08718729 0.07147776 -0.690792 0.14351864 -0.051402964 0.25590062 -0.014850342 -0.034370303 -0.008137059 0.38265854 -0.2209634 0.40725794 0.098243505 -0.38884684 0.048880514 -0.108942084 -0.19901326 0.09907795 0.10419921 -0.34580767 0.11833056 -0.11608897 -0.048503634 0.08073531 0.018359672 -0.3672836 -0.014037325 -0.33348495 -0.16568097 -0.029209264 -0.013673025 -0.0014941712 0.17509884 -0.39281163 0.053580005 0.39590046 0.73085773 -0.18632361 0.025469963 -0.05408236 -0.20116119 -0.024224462 0.15612562 0.11387455 0.32946312 0.45332304 0.5408221 0.119465396 -0.2071593 0.23357071 -0.017110454 -0.37542143 0.41791338 -0.04435971 -0.45207497 0.48732737 0.24229223 -0.36956167 0.34349325 -0.20092422 -0.021679409 -0.38888374 -0.20489806 0.19150649 -0.22579864 0.114933215 -0.05153084 0.09316136 -0.40673733 0.16749994 -0.10692406 0.019340053 0.08293147 1.0040214 -0.53767246
114 0.5831867 0.07196829 0.19923571 0.071425274 0.05901057 0.17650017 0.14882228 -0.04657749 -0.05486827 -0.109056175 0.22623952 -0.166756 -0.006009342 -0.29528278 0.15970936 0.18063512 -0.07249318 -0.2478157 0.019340636 0.027256383 -0.16578142 0.20713237 -0.27674276 -0.22946161 0.20449708 0.6211505 -0.29124862 0.083159015 -0.3867275 -0.10668348 0.17830217 -0.17260657 0.45767447 0.113880835 -0.3463339 0.27054483 -0.039297905 0.19739594 0.11931362 0.3670088 -0.20205285 0.2464425 -2.3502966e-05 -0.25437132 -0.6414221 -0.13588578 0.13344921 0.24840088 -0.1503018 -0.3732576 0.22040257 -0.15516333 0.03970483 -0.38720986 0.3806166 -0.35451937 -0.17054535 -0.117860295 0.36006764 0.13478766 0.09174936 0.38941523 0.51669574 -0.3403068 -0.078591555 -0.0051022507 0.022200594 -0.19607444 -0.27862704 -0.710931 -0.43235004 0.54726976 -0.116400994 -0.14215828 0.14739406 0.12865373 0.1965753 -0.18812312 -0.21917774 0.35065332 -0.05218538 0.22326536 0.52437824 -0.115672424 -0.3759864 0.12868318 -0.54420364 0.05723293 0.3489001 0.23472624 -0.63114005 -0.20969455 -0.00526662 -0.12065528 0.06553958 0.030826919 -0.23644873 -0.03874053 0.007628103 0.1282755 0.3363817 -0.5901856 -0.6477409 0.031506695 -0.51821977 -0.07839584 0.17670685 0.083850995 -0.2105999 -0.00035040744 0.40221056 0.10011185 -0.28963992 -0.006692616 -0.28972176 0.45940712 -0.41851357 -0.03584949 -0.26074958 -0.25936416 0.102648444 0.12596412 0.10988616 -0.034753725 0.15811719 -0.24289256 0.29769802 0.20166601
707 -0.35878867 -0.08835653 0.34405547 0.2388463 -0.06490145 0.18796994 0.1322154 -0.2945689 0.09804481 -0.12864096 -0.121581696 0.056535944 0.4580745 0.10061358 0.068138495 0.21579242 -0.19996275 -0.42851096 -0.06087129 -0.092811055 -0.019887846 0.23390985 -0.21278673 -0.1714193 0.15293615 0.03463106 -0.07930604 0.13466075 -0.49924728 -0.13813347 0.14948358 -0.40995738 0.11054825 0.4702496 -0.0015460437 0.01194084 0.21563426 0.34884843 0.32943368 -0.6376748 -0.11596378 0.23992784 -0.02703845 0.19086738 -0.1811642 0.13585608 -0.2105715 -0.30419213 0.43842873 -0.14347793 0.48137143 -0.027080046 -0.036609724 -0.14944178 0.16642055 -0.30140564 0.23152824 -0.41353548 0.32498786 -0.0426712 -0.046406824 -0.10587128 0.48002192 -0.24821468 0.62196064 0.18971397 -0.31878585 0.11150733 -0.1257671 -0.2801572 0.12254156 0.04406198 -0.2844434 0.2788195 -0.18580936 -0.038668748 0.15817173 0.13956542 -0.2640528 -0.089249335 -0.50066733 -0.15590511 0.014633921 0.20418328 -0.19878227 0.23969007 -0.48223802 -0.06452206 0.33516732 0.79345167 -0.40269604 0.013135014 -0.19812678 -0.09649032 0.18170504 -0.039155032 0.13622081 0.16570954 0.3926864 0.6276782 0.08352665 -0.26876545 0.1765958 -0.09211364 -0.13070479 0.31621984 -0.024448674 -0.6577179 0.46074757 -0.0040899385 -0.54422784 0.40823033 -0.14891133 -0.20482215 -0.45742244 -0.10555312 0.27658355 -0.011181821 -0.038683694 -0.2367994 0.3304284 -0.31519172 0.35137424 -0.2075063 0.046956524 0.124578655 0.8097702 -0.44597366
