881 128
126 0.5016698 -0.22082 0.044240005 -0.24852844 -0.10405112 0.22558357 0.2019766 0.3079881 0.18290672 0.65747744 -0.2529021 0.37639272 -0.017569408 -0.03211534 0.12653916 -0.21593466 0.05998642 -0.14081486 -0.35316697 -0.122471854 -0.04658838 0.11839814 0.029690055 0.086790144 -0.17162545 0.121824846 -0.002678483 0.07912643 0.3285656 0.04409607 0.5388102 -0.42303446 0.0647207 -0.28208452 -0.01855825 0.4445636 0.09672259 0.06673505 -0.19756351 0.32746628 0.20041415 -0.14278172 0.30081773 0.88902384 0.17122586 0.11262331 -0.19575551 -0.2198817 0.2533338 -0.48312756 0.265078 0.1430153 0.3161367 0.35750523 -0.024168923 0.33043522 0.055829123 0.1500673 0.12904891 0.029877882 -0.053086028 0.6025244 0.32629323 -0.37359917 0.05895393 -0.20881702 0.36284646 0.088934176 0.013513819 -0.1967257 0.000103470105 0.21000199 -0.40894914 -0.5564724 0.015467598 0.526232 -0.146845 -0.20380124 0.27369836 -0.14329381 0.13622953 -0.4624905 -0.08703371 -0.016385542 -0.3318977 0.24053401 -0.08054433 0.5342553 -0.10964788 0.32651433 -0.24206756 -0.01879836 0.08126204 0.26312014 -0.338056 0.2068955 0.25195175 0.06650817 0.29508084 0.2621494 0.1860231 0.37661135 0.09337195 0.053239945 0.16622409 -0.14233392 0.03244005 0.59748334 0.0746288 -0.082387604 -0.6105731 -0.19737332 -0.28132716 -0.07056284 0.21553306 0.12762555 -0.3296528 -0.22353691 0.19302426 0.20186345 0.096305326 0.37133378 0.35468364 0.08952239 0.45942906 0.19900604 0.03654751 -0.26711932
120 0.4719654 -0.31552428 0.08399879 -0.26993936 -0.06711633 0.1543936 0.21108721 0.5312563 0.10459781 0.46575996 -0.3135337 0.36746514 -0.14805184 -0.09838169 -0.00039368367 -0.26808453 0.13928202 -0.19560388 -0.15596089 0.018922755 0.052869845 0.067738704 -0.049111065 -0.13939942 -0.29100704 0.07157992 -0.109580666 -0.1289073 0.36668843 0.021310521 0.5475231 -0.421392 0.040905662 -0.22494379 0.13579127 0.6078971 0.39783 0.048779137 -0.16844463 0.39215308 0.18334354 -0.15407728 0.26119533 0.7518028 0.18478578 0.19010434 -0.0035777637 -0.081740856 0.24225459 -0.36258253 0.30097413 0.09939554 0.18839116 0.42652252 -0.1266577 0.5921332 0.048542853 0.20336616 0.3407809 0.101711184 0.008487206 0.71055233 0.19319451 -0.44457102 0.20639023 -0.10494034 0.32578337 0.2720896 0.1472744 0.025927793 0.047560804 0.21530361 -0.29926035 -0.39320004 -0.08341778 0.6108816 -0.1263727 -0.24782613 0.39458454 -0.2595746 0.17278716 -0.53443027 -0.029824337 0.1379491 -0.30155367 0.3297314 -0.090897776 0.41995475 -0.26183012 0.17660426 -0.38853338 -0.1275323 0.06395361 0.24616672 -0.41205952 0.21917255 0.27223462 0.1458099 0.20483348 0.3043917 0.16923158 0.5650665 0.2370199 0.03559043 0.11930506 -0.06561007 -0.20550464 0.38019824 0.051932473 -0.08238333 -0.5105184 -0.23318182 -0.38875422 -0.14159942 0.26529637 0.019013692 -0.29372278 -0.14198232 0.013832429 0.08605824 -0.07054469 0.27334094 0.26685056 0.2158596 0.39269543 0.29823542 -0.012335002 -0.34764728
129 0.29052815 -0.41861638 0.019758573 -0.4525022 -0.13084465 0.21508619 0.34479403 0.51177484 0.038419586 0.38712502 -0.3146671 0.3518916 -0.10898956 -0.19271454 0.12591745 -0.14511015 0.07920073 -0.23353569 -0.33420664 -0.08091688 0.03006407 0.04899863 -0.12090122 -0.22294617 -0.28983203 0.016807448 0.057833366 0.093233734 0.34587756 0.041089065 0.41327223 -0.36596853 0.02509368 -0.16452233 0.050021555 0.40430656 0.25630513 0.013943955 -0.22445384 0.38839743 0.09538633 -0.06275879 0.22473688 0.8890378 0.007932241 -0.004097872 0.046952046 -0.1460003 0.04064416 -0.41755015 0.38757238 0.14881302 0.31989485 0.35595876 -0.17134848 0.45519468 0.076497436 0.22981222 0.08995958 -0.20316753 -0.050685983 0.8061229 0.08573764 -0.44447818 0.4219665 0.0689755 0.3063397 0.38911262 0.14300862 0.12268071 0.0013040182 0.32798493 -0.302271 -0.43919957 -0.047988385 0.64355624 -0.16159233 -0.40741837 0.37355995 -0.27610484 0.1408499 -0.4462269 -0.06741213 0.2499177 -0.2525096 0.09884017 -0.1667753 0.55883646 -0.28118634 0.164603 -0.34560114 0.013041315 0.10110196 0.27387944 -0.32220736 0.213354 0.13540873 0.16753843 0.22821105 0.24193765 0.28061727 0.51808083 0.2829479 0.01856265 0.14394723 0.015915638 -0.10095573 0.27348223 0.07238964 -0.053377982 -0.6382731 -0.0400029 -0.5684254 0.007551672 0.2808294 0.18412673 -0.36960974 -0.19611147 0.06343559 0.14926802 0.011181183 0.4428944 0.19673716 0.112684935 0.44383115 0.13470201 -0.072692156 -0.34521016
127 0.42977065 -0.49262005 0.17291647 -0.32921827 -0.18153372 0.2619947 0.4574843 0.53563285 0.1681622 0.5250488 -0.33622092 0.2986472 0.0060631554 0.12620375 0.13146402 0.028582083 0.049739927 -0.2370381 -0.102341376 -0.15000182 0.13094333 0.109837554 0.09625671 0.016101357 -0.28839865 0.0072647133 -0.036712177 -0.018097037 0.19596641 -0.00505939 0.484703 -0.3913657 0.14189528 -0.2465849 0.13003466 0.45562142 0.100314364 0.1443997 -0.13576967 0.28991568 0.13308474 -0.10394093 0.17823114 0.8228588 0.14935641 0.1023235 0.05673022 -0.18098424 0.07865413 -0.42645663 0.29458058 0.23947613 0.18646394 0.23697664 -0.0825121 0.4744023 0.05070299 0.25999895 0.17413238 -0.0563967 0.1457541 0.7772134 0.16013981 -0.3774547 0.33077577 -0.1975663 0.1721325 0.36470678 0.09916454 -0.06531757 0.07998854 0.31714508 -0.40220836 -0.27793956 -0.11708179 0.71192706 -0.09079676 -0.17015429 0.28821045 -0.25495303 0.093237355 -0.5427261 -0.017258095 0.10262328 -0.31092203 0.06766876 -0.19861215 0.45213673 -0.40599117 0.30904657 -0.2838766 -0.15257968 0.06514856 0.22209136 -0.40104502 0.31103843 0.13820374 0.005239253 0.3914653 0.24419302 0.12459141 0.45670214 0.2673695 0.018690417 -0.008196392 -0.060723968 -0.09701887 0.44601303 0.04046631 -0.27069455 -0.64422506 -0.14550243 -0.58911526 -0.13523372 0.08248269 -0.083655134 -0.35444844 -0.24128516 0.1526196 -0.043076918 -0.024602877 0.47953108 0.23444486 0.17925985 0.40074173 0.22863407 0.0814211 -0.32292566
130 0.42494607 -0.50226796 -0.017094182 -0.40351883 -0.009067374 -0.00040276628 0.3130315 0.62658954 0.094038196 0.49421316 -0.42161968 0.3198126 -0.15060095 0.10218564 -0.01182457 -0.22991125 0.08852081 -0.15251714 -0.26038995 -0.124046996 -0.012408344 0.04275494 -0.062504336 -0.035395995 -0.25788817 0.064665884 0.10609541 0.03461907 0.26441354 0.16071706 0.4789716 -0.4238653 0.1126679 -0.24478374 0.030091997 0.6042039 0.28384373 0.027302697 -0.17659731 0.2068055 0.22627853 -0.21891423 0.31032807 0.86348015 0.24212393 0.094781615 0.096397296 -0.22934522 0.24172752 -0.43608865 0.41472095 0.19929749 0.13684252 0.4554044 -0.05743666 0.57463163 0.09271242 0.20213534 0.244246 0.026529633 -0.10394597 0.76125085 0.18603103 -0.4159834 0.18586387 -0.0028945862 0.37747875 0.29189682 0.18872496 0.08511477 0.0682887 0.15239897 -0.36117855 -0.40242064 -0.19398218 0.5641906 -0.089023665 -0.18441851 0.2429698 -0.38648137 0.1379212 -0.48172665 -0.02234155 0.14871189 -0.12816453 0.16457038 -0.052606292 0.30136916 -0.36824593 0.15496747 -0.466959 0.03218767 0.0871538 0.20113318 -0.5497205 0.2820522 0.05779065 0.03230343 0.20974925 0.16443034 0.21217981 0.3318593 0.049947433 0.041882772 -0.02001107 0.05573472 -0.19388796 0.33226213 -0.0060795117 -0.17602146 -0.55325586 -0.11686713 -0.5619061 0.04434652 0.17614622 -0.04531283 -0.2939271 -0.18353954 0.23856613 0.085493825 -0.1762776 0.49817306 0.20647031 0.23080373 0.31660476 0.27097172 0.1467753 -0.38300526
131 0.40863568 -0.48877522 0.0209469 -0.21588363 -0.13816251 0.27315566 0.22943945 0.54216576 0.14872457 0.43831864 -0.49547336 0.41274345 -0.06711621 -0.0050896546 0.033959027 -0.19429395 0.006896528 -0.08687631 -0.19348727 0.0135086 0.07385652 0.03707329 0.2210801 0.057260104 -0.34590366 -0.040559854 0.035779063 -0.10451752 0.3415212 0.1370435 0.45447797 -0.44089758 0.13993591 -0.18967429 0.07256071 0.4532848 0.29666704 -0.034518585 -0.09690833 0.2810199 -0.02053792 0.03679735 0.24073477 0.84407514 0.22595166 0.16052905 -0.05083272 -0.253207 0.24156664 -0.51239395 0.30490378 0.23477384 0.265361 0.27993664 -0.09463279 0.3793764 -0.1372831 0.26547694 0.38064796 0.023470223 -0.16098778 0.6705523 0.10816407 -0.3038168 0.19700655 -0.047232278 0.3965755 0.21288507 0.26343277 -0.014184383 0.13124186 0.31797177 -0.39053428 -0.42612246 -0.23528028 0.625216 -0.04410468 -0.13614227 0.16547377 -0.19696453 0.12628494 -0.63907886 -0.10904718 0.19670933 -0.21452202 0.018036405 -0.16122839 0.3648823 -0.18882672 0.26043987 -0.36811212 -0.12952442 0.21949826 0.29657438 -0.49684608 0.21196353 0.18531886 0.20789543 0.26432943 0.2056463 0.2633104 0.38606548 0.2078922 0.06858547 0.100203134 -0.053598676 -0.18761732 0.3526517 -0.023140589 -0.19087483 -0.6433428 -0.08122659 -0.5577948 -0.1065037 0.15492329 0.10937064 -0.35442272 -0.34894466 0.109985396 -0.03214345 0.082109176 0.40455636 0.26782772 0.15342966 0.3336513 0.27743053 0.07427563 -0.34004056
122 0.4897627 -0.4538942 0.12417851 -0.3662442 -0.103751704 0.1473366 0.30954358 0.46541843 0.016347963 0.4859209 -0.22712903 0.18100852 -0.0937831 -0.105877854 0.08731331 -0.06855779 0.10284245 -0.22790453 -0.21763504 -0.06732265 -0.07379081 0.16114289 0.0012176597 -0.067124724 -0.3296226 -0.06705252 0.080669835 -0.18104635 0.32199392 0.06288762 0.46450406 -0.43420607 0.05652074 -0.1648812 0.03338868 0.36909324 0.17929378 0.06641687 -0.15617286 0.2729139 0.11967841 0.06821492 0.22714303 0.793549 0.15593962 -0.037470028 0.034808706 -0.14577872 0.28866273 -0.24622163 0.27457005 0.20862775 0.2527237 0.44196644 -0.09420824 0.29327545 0.010764977 0.17968756 0.17113875 -0.07412148 -0.039825823 0.6039794 0.13349614 -0.34531787 0.26167488 -0.06497549 0.30293766 0.20806322 0.16401373 -0.01632961 -0.015579682 0.31646407 -0.41029105 -0.53319204 -0.040746506 0.7347864 -0.15073967 -0.3958775 0.23809096 -0.1232193 0.20670159 -0.5771799 -0.09634299 0.051944148 -0.17424564 0.013907009 -0.019716447 0.5424274 -0.17377159 0.23956688 -0.2785503 -0.05902017 0.1126488 0.33062437 -0.48462492 0.24138792 0.20274545 0.03750194 0.2668616 0.35957706 0.3539558 0.5888148 0.13804965 -0.043752145 -0.03846853 -0.13870595 -0.12370185 0.34904513 -0.022291426 -0.0583328 -0.82965887 0.001348031 -0.47522867 -0.099335 0.23365626 0.0032847004 -0.17051299 -0.24699406 0.09240975 0.09476631 -0.0041407077 0.29193836 0.3528486 0.11348929 0.34504384 0.2646069 0.18546705 -0.46543202
128 0.5191849 -0.5274485 0.06626575 -0.35214812 -0.17410882 0.08301484 0.38532498 0.46965477 0.06693876 0.38179794 -0.2459682 0.27941862 -0.11717157 0.026956955 0.0653609 -0.08231286 0.10102821 -0.15498024 -0.26149935 -0.13164778 -0.041407324 0.14303249 -0.12969227 0.04306404 -0.21234103 0.022710659 0.16733636 0.0275101 0.3885191 0.02730849 0.34854123 -0.36045367 0.055145517 -0.233928 -0.036757886 0.56271726 0.3423543 0.14566581 -0.09343518 0.32610664 0.29513672 -0.015342597 0.2332656 0.75796014 0.21887726 0.037405714 -0.02518464 -0.29611194 0.10157826 -0.4674725 0.328963 0.04606338 0.12869754 0.33412907 -0.18812536 0.3834689 0.07209219 0.116141014 0.15252408 -0.036578905 -0.108394496 0.6803044 0.35525066 -0.3530789 0.16225858 -0.047924887 0.28141907 0.30107784 0.0704384 0.08174257 0.08895352 0.3832826 -0.3066126 -0.4696273 -0.067480154 0.58360267 -0.09680597 -0.28785682 0.124509335 -0.25985962 0.028032724 -0.49914077 0.006385591 0.074800044 -0.2070412 0.08867391 -0.20213844 0.5467672 -0.28816944 0.24927272 -0.27591255 -0.02882157 0.2132517 0.17674951 -0.54506314 0.10546927 0.26243725 -0.051040567 0.29646266 0.4323759 0.2680122 0.5612744 0.21773513 0.024635205 -0.02622684 -0.018131288 -0.037794665 0.28211904 -0.10585903 -0.17811218 -0.5065317 -0.17408018 -0.47709352 0.00036375577 0.178012 0.07126062 -0.32616717 -0.19230612 0.13314714 0.1277181 -0.04707743 0.4322345 0.2996131 0.14931373 0.48055297 0.237363 -0.036398146 -0.30026165
125 0.3969665 -0.47408098 0.095807 -0.3914628 -0.13171524 0.24548365 0.28558037 0.55854446 0.1748935 0.36176878 -0.373021 0.30569294 -0.058194503 -0.064193614 0.067055576 -0.15876552 0.093394145 -0.26514417 -0.36811033 0.06856676 0.07294366 0.18413176 -0.10480799 -0.17397407 -0.2617504 0.120799 0.02499949 -0.003214411 0.29691643 -0.024016378 0.6002877 -0.3045206 0.13988778 -0.038580623 0.0034846072 0.41987163 0.081608094 0.22148879 -0.1980926 0.3627831 0.19171992 -0.1735246 0.22375184 0.981686 -0.0310423 -0.106076576 0.011671375 -0.052429285 0.023075834 -0.35869798 0.22781491 0.32923374 0.04355703 0.3898649 -0.20427932 0.4063956 -0.10753857 0.12864235 0.2350836 0.06671668 -0.06734695 0.723449 0.24450736 -0.30147874 0.30578154 -0.03536377 0.17519046 0.19269888 0.11908338 0.048571397 0.15044878 0.3606836 -0.39725146 -0.5958227 -0.22028331 0.416021 -0.20446078 -0.323373 0.19721895 -0.23096712 0.120646976 -0.5607889 0.032553855 0.3488259 -0.45772928 0.1188031 -0.29833418 0.5272554 -0.22368349 0.2652549 -0.24716944 0.16319166 0.09557422 0.18226361 -0.62919104 0.115119845 0.16387223 -0.039095417 0.3041872 0.21922286 0.2462701 0.3832208 0.19733253 -0.03648071 -0.12434435 0.010564851 -0.07885006 0.31781462 0.007869788 -0.15275492 -0.56162137 -0.01233125 -0.51681864 -0.09879849 0.21827252 0.053389486 -0.1461837 -0.24312712 -0.025213277 0.008132716 -0.049164575 0.3185292 0.15683034 0.03302037 0.58233744 0.094768636 -0.028730227 -0.36839274
132 0.43372136 -0.4739607 0.015544909 -0.48059627 0.006542626 0.24084994 0.24326251 0.6258293 0.018439557 0.44360778 -0.3489441 0.22430776 -0.10907475 0.044864442 0.21797283 -0.145424 0.11897397 -0.25445762 -0.2811089 0.033967346 0.053331792 0.06303769 -0.028347734 0.026484866 -0.27684307 0.053960614 -0.060349632 -0.0145074725 0.31743845 -0.00127615 0.49248397 -0.41103777 0.23244162 -0.13788508 0.04818397 0.54474723 0.18832257 0.070767835 -0.1500091 0.33685634 0.2726476 -0.21219657 0.14717016 0.80460525 0.14536276 0.083857186 0.042432833 -0.13553204 0.29165876 -0.41083306 0.32690588 0.10038536 0.17784745 0.34200191 -0.16526303 0.42080173 -0.013635076 0.203911 0.15028396 0.09511452 -0.015614353 0.7973668 0.18943658 -0.38261008 0.3507095 -0.10060254 0.32485095 0.24864082 0.10735338 0.016960902 -0.037286352 0.32387322 -0.38200855 -0.4869846 -0.22507001 0.6426779 -0.16174667 -0.42225468 0.070048705 -0.21979912 0.12531798 -0.46638694 -0.057773914 0.09220449 -0.16479065 0.15087692 -0.16445822 0.4491392 -0.40762475 0.31465107 -0.3126667 -0.016916709 0.094205596 0.22210601 -0.4137708 0.27555108 0.1946611 0.18855818 0.32552788 0.2404648 0.24768853 0.38109052 0.21803647 0.13682012 -0.019636836 -0.12507538 -0.16247222 0.4439473 -0.01670388 -0.1386654 -0.5966635 -0.1473479 -0.43785074 -0.09995828 0.17936367 0.06922541 -0.20399238 -0.16657381 -0.017273813 0.10991581 0.062115353 0.36473796 0.27012032 0.15326297 0.3601066 0.24964692 0.0002454767 -0.30542552
115 0.20190075 -0.25770435 -0.008809097 -0.30234522 -0.17990385 0.31915563 0.31387377 0.57142454 0.2752534 0.6010137 -0.2275741 0.2524746 -0.124458976 0.026592253 0.10112062 -0.19697031 0.11353538 -0.06381419 -0.2967907 0.036629252 0.05495946 -0.090732984 0.013720131 -0.18860556 -0.3138349 0.09910276 -0.10539894 -0.021726113 0.4885817 -0.005763159 0.35886595 -0.49785605 -0.05550144 -0.2531676 -0.015007528 0.52853066 0.1992611 0.22182417 -0.27092773 0.3365596 0.074759826 -0.04895598 0.42300192 0.8841479 0.111459054 0.21894565 -0.057143692 -0.11439317 0.09406439 -0.2839882 0.45429632 0.089014545 0.29977223 0.20836128 -0.04006877 0.27365705 0.062197864 0.22341697 0.24706964 -0.104587816 -0.020851523 0.83222085 0.12641256 -0.37657714 0.113646954 -0.08114149 0.26727286 0.25446415 0.10557905 -0.15510933 0.17954043 0.3180771 -0.31136543 -0.39848098 -0.34338734 0.574446 -0.193283 -0.19183989 0.29511186 -0.1667351 0.13992839 -0.46974674 -0.14368412 0.1802763 -0.20760511 0.20222369 -0.08145043 0.34787947 -0.18301283 0.017927093 -0.3925334 -0.09701714 0.16501272 0.24972759 -0.5201118 0.19472814 0.038445916 0.2057893 0.20236492 0.19859056 0.25478235 0.5110626 0.16431881 0.009074294 -0.04713452 -0.118958294 -0.033372585 0.36383528 -0.004230014 -0.28728592 -0.54928464 -0.16988844 -0.37178737 -0.09415917 0.2124785 -0.0148702655 -0.21717666 -0.36913636 0.2647187 0.11790614 0.056943804 0.45940092 0.19214281 0.18579778 0.32684657 0.17045277 -0.111738056 -0.3939523
124 0.5012976 -0.4485406 -0.054933693 -0.2868536 -0.025093054 0.37925065 0.37175572 0.30869168 0.14649685 0.47569427 -0.4558652 0.37219825 -0.14189002 0.08283951 0.17246869 -0.049639087 0.14020367 -0.18823692 -0.2929226 -0.028783303 0.12937573 -0.023093702 -0.026416652 -0.1101163 -0.1919533 0.046892792 -0.008477748 -0.02542445 0.31829554 0.024630873 0.46703947 -0.37846807 0.13834563 -0.23256333 -0.08664703 0.4319508 0.15781389 0.07927039 -0.10748314 0.24882026 0.173592 -0.12001077 0.28135806 0.85641307 0.038766187 0.15989591 0.16294762 0.005623838 0.07519653 -0.45260325 0.38896284 0.09035202 0.1520387 0.37996724 -0.11416042 0.35959303 0.16744348 0.2158338 0.17136648 -0.051677153 -0.083918385 0.5543013 0.14370348 -0.37104213 0.18262619 0.14383747 0.45310444 0.39489183 0.1418923 -0.013027767 0.13392459 0.29403913 -0.47169366 -0.50032204 -0.23908208 0.47202304 -0.038403034 -0.35247877 0.26860374 -0.21046315 0.0024532457 -0.42398313 -0.076199576 0.28133893 -0.2472135 0.0863249 -0.2122746 0.65210336 -0.26059392 0.3026383 -0.34093332 -0.10905203 0.103179485 0.09681552 -0.41671133 0.2692409 0.1307169 0.064086825 0.27324548 0.19311677 0.2573285 0.57000446 0.37405986 0.15679856 0.08436117 -0.086696915 -0.102405906 0.51980174 0.08067977 -0.13774851 -0.5649104 -0.13712268 -0.53505564 -0.06150257 0.129501 0.029798454 -0.33198503 -0.20517758 0.006785605 0.019038364 0.048015416 0.47992474 0.3250977 0.076155216 0.4511138 0.25373212 0.016560627 -0.3757566
121 0.38051027 -0.4567393 -0.04676474 -0.37323332 -0.062059805 0.18489738 0.2512844 0.5068474 0.046127267 0.6107314 -0.32063976 0.41692695 -0.25514078 -0.050738327 0.24412975 -0.27627867 0.24098754 -0.19658564 -0.24078064 0.0644033 0.03857385 0.034401905 -0.07968532 -0.06416872 -0.26960558 0.06434207 0.1091297 -0.09488972 0.30647895 -0.05840149 0.4307329 -0.5141618 0.2201154 -0.1664571 0.101102166 0.43526244 0.3563638 0.13469048 -0.09538736 0.42089868 0.1666254 -0.075972654 0.4248618 0.8247544 0.062070318 0.06666022 0.056160867 -0.16289501 0.18308806 -0.48910737 0.2722908 0.26603678 0.28777114 0.52465796 -0.07179965 0.39269668 0.09238058 0.13458934 -0.0014884396 -0.14855522 -0.063600846 0.857956 0.08436803 -0.45449483 0.3415682 0.100715496 0.33768836 0.31736833 0.078400105 -0.032399885 -0.08120058 0.40561846 -0.27740645 -0.48716468 -0.1171744 0.63903934 0.0021571156 -0.346464 0.21335165 -0.2532045 0.08124701 -0.54497916 -0.2019285 0.19192573 -0.24379091 0.05620662 -0.124346435 0.35763404 -0.2534991 0.17314133 -0.31308532 -0.04235761 0.019347569 0.30309322 -0.33333 0.24390115 0.12610355 0.17543824 0.25388348 0.15557288 0.26302767 0.50592244 0.32394972 0.08166016 0.078355186 -0.14211342 -0.120882265 0.43122476 0.1028226 -0.2522603 -0.5559196 -0.06896528 -0.39968807 0.065808125 0.16834074 0.11595164 -0.1930543 -0.07807809 0.18228455 0.16948791 -0.00309038 0.42059383 0.23215216 0.11404584 0.3758485 0.2351628 0.02773421 -0.36157635
123 0.43860635 -0.44097322 0.050986733 -0.24525425 -0.062114872 0.0893831 0.14836861 0.39799556 0.21965225 0.545152 -0.24755292 0.3707611 -0.20109196 0.032192625 0.12344525 -0.20565347 0.18651691 -0.103545934 -0.1904662 -0.078323856 0.021106167 0.044159018 0.0018263016 -0.11549925 -0.3142552 0.049755372 -0.116692826 0.037874196 0.21073124 -0.09283936 0.40171832 -0.3382893 0.0143851945 -0.26456058 -0.0213003 0.5798951 0.34845287 0.059709813 -0.109917976 0.2245023 0.095144525 -0.122103296 0.31065887 0.7679975 0.21029143 0.15863141 0.03486651 -0.061276432 0.04339737 -0.609148 0.26989546 0.23033454 0.21638481 0.31418815 -0.22400342 0.31228566 0.050440826 0.12066928 0.30050126 -0.00085904327 0.09900875 0.8151669 0.23800789 -0.3907354 0.34821242 -0.09714252 0.41810635 0.16895147 0.07330746 0.042450983 -0.017708648 0.32678747 -0.29865175 -0.36711195 -0.16046531 0.63706565 -0.09616845 -0.2929017 0.21049516 -0.3006722 0.06718726 -0.46245775 0.0072746538 0.209687 -0.31002235 0.124694474 -0.095858455 0.3796082 -0.26709035 0.36450797 -0.27003312 0.0458668 0.14915194 0.27081513 -0.3959607 0.29566106 0.058500025 0.024470301 0.24082679 0.1425503 0.23913808 0.55377406 0.25838566 0.15160678 0.027251443 -0.17601398 -0.18151137 0.40737396 0.04908911 -0.22938736 -0.53794533 -0.18428485 -0.47286177 -0.08755549 0.096610494 -0.15505417 -0.36287466 -0.11234059 0.10065714 0.18397641 0.0056121047 0.41143778 0.3469775 0.049346525 0.36209443 0.10008541 0.02491123 -0.34349024
9 -0.04474689 -0.45593613 -0.25670266 -0.21260001 -0.12091735 0.31460077 0.0051178746 0.26711646 0.11634708 0.13096747 -0.17816035 -0.2669465 0.035218153 0.25371957 0.14186513 -0.12490097 0.34040043 0.17667274 -0.019940762 -0.026191255 0.29827985 -0.1012176 0.6829147 -0.3833077 0.2904876 -0.1159735 0.48073894 0.49109685 0.24116485 -0.15229225 -0.08887118 -0.18618873 0.35289204 -0.32804352 -0.050564863 0.04292275 0.08194415 -0.47361842 0.008109686 -0.3216568 -0.055127643 -0.3735754 -0.100047395 -0.10395166 0.029104747 -0.20101318 -0.5672333 -0.58872426 -0.021172987 -0.5006113 0.31758234 0.47281507 -0.30127397 0.4014194 0.124038376 0.33980757 0.2866223 -0.2721499 0.22147153 -0.10479759 0.24747753 0.50798416 0.17155223 0.0033596568 -0.084349714 -0.2877793 0.25668263 -0.14538902 0.34622872 -0.19127297 0.050202984 0.31848148 -0.5082344 -0.5894168 0.27961 0.007770014 0.14615108 0.048105378 -0.6349164 0.2995108 -0.15585184 -0.41473606 -0.46548855 0.24938373 0.22759631 -0.6041394 -0.1771967 0.039785974 -0.49461064 -0.19425122 -0.14489041 -0.014383363 0.018877743 0.1970667 -0.3462249 -0.095937 -0.5370982 -0.38447654 -0.35622665 0.23423637 0.20243666 0.71375704 0.22045186 -0.23819046 0.021634724 0.3290425 -0.096322216 0.5353381 -0.016636482 0.2147739 0.097572796 -0.33043608 -0.25366345 0.005645392 0.5160436 -0.42441604 0.15426533 -0.3399883 -0.18735638 -0.04059321 -0.13339344 0.55712837 0.025011025 0.04802965 0.19130674 0.03048124 0.3007039 0.045206487
768 0.41712007 -0.55416775 0.06632477 -0.21884124 -0.11485366 0.17211801 0.24621426 0.3156467 -0.02301477 0.33301196 -0.39219353 0.42134652 0.058193464 -0.22885859 0.08657061 -0.20786744 0.056422185 -0.21458769 -0.4764409 -0.16558655 -0.15561785 0.32736942 -0.054114398 0.027441332 -0.14961404 0.0812311 0.09869043 0.22661862 0.24893871 0.101794966 0.61013085 -0.29977527 0.1994714 -0.037664 0.16377696 0.32653204 0.06771418 -0.014817626 -0.08823176 0.21879296 0.13419235 -0.28403366 0.18826039 0.9644647 0.0074105747 -0.09859792 -0.31961212 -0.20867251 0.073115826 -0.51171315 -0.015029767 0.5498993 0.20751417 0.44221872 -0.08517958 0.41198003 0.027180947 -0.033019952 0.031362083 0.07863927 -0.09754713 0.62180364 0.3227031 -0.2865796 0.32387495 0.024280855 0.18276276 0.09074174 0.03720314 -0.061573956 -0.12605809 0.30475593 -0.57605726 -0.7023024 0.18015218 0.3230757 0.046270944 -0.25172663 0.31234172 -0.05727059 -0.06771573 -0.39383218 -0.008663984 0.33119604 -0.59513706 0.12610796 -0.2368754 0.63112026 -0.16382013 0.29261488 -0.13202935 0.15874851 -0.042842183 0.09310265 -0.39094827 0.046461403 0.19512841 -0.13748817 0.3220838 0.24085228 0.20390575 0.39114872 0.08277944 0.0715918 0.18610269 -0.013048553 0.0020883342 0.5148723 0.17658688 0.066897586 -0.65239733 -0.003197544 -0.25477377 -0.2157006 0.15626442 0.12997383 -0.20755841 -0.22289611 -0.13522062 0.17271109 0.021056889 0.31905803 0.1982677 -0.09448258 0.6297004 0.018174414 0.1527106 -0.27935326
5 0.054256584 -0.29277492 -0.015582277 -0.29035467 -0.06654956 0.18235417 -0.10909683 0.25367206 0.018724648 0.16184689 -0.07953887 -0.3145115 -0.14206246 0.09830886 0.00995181 -0.11290516 0.29265162 -0.044419378 -0.0594497 -0.032140918 0.1984948 0.09029482 0.6243347 -0.53533566 0.31595355 -0.06854834 0.33257186 0.44691724 0.30199355 -0.06585049 -0.12920864 -0.09240065 0.46414277 -0.37457803 -0.01955375 0.00404189 0.20204777 -0.3896856 0.2527729 -0.44377896 -0.04701133 -0.5117798 -0.22226216 -0.24400689 0.09959054 -0.25023067 -0.5266249 -0.52383435 -0.1236457 -0.61989844 0.13103859 0.42382553 -0.116478264 0.46443763 0.18616413 0.44777212 0.22205232 -0.07413965 0.13878232 -0.16405159 0.06790123 0.44277513 0.025828866 0.059889905 -0.21728659 -0.19863567 0.17311302 -0.13384132 0.27288425 -0.17463297 -0.24660265 0.33616146 -0.42992246 -0.6249409 0.33887953 -0.1066472 0.09834019 -0.19745897 -0.7390646 0.4554737 -0.030427663 -0.23284279 -0.25218552 0.27879283 0.15146397 -0.48167038 -0.2850831 0.1815154 -0.38852695 -0.13879782 0.047085885 -0.06901135 -0.19465797 0.03335343 -0.16139266 -0.122695774 -0.5825327 -0.41372442 -0.16492581 0.2982369 0.19916229 0.706399 0.17472093 -0.22651233 -0.059507404 0.36359483 -0.04285565 0.5673062 0.02990907 0.35459974 0.14784522 -0.091511376 -0.21886568 0.036534667 0.44198933 -0.19443324 0.006295508 -0.2733037 -0.43849114 0.09737914 -0.095744915 0.34956783 -0.013394495 -0.06561641 0.11695008 -0.000761053 0.34020764 0.2625659
4 -0.18835399 -0.41831636 -0.07938673 -0.3501609 -0.111231044 0.021778317 -0.16104291 0.59080315 -0.011025242 0.19258669 -0.09031368 -0.2424073 -0.12914316 0.17903407 -0.030563142 -0.25772655 0.36621037 0.23226577 -0.021251906 0.05842643 0.15114373 -0.032783605 0.6289164 -0.462707 0.26839438 0.07818689 0.21733451 0.47874984 0.24356844 0.030798424 0.035043284 -0.29613507 0.36665386 -0.117872536 0.0068737026 -0.05719579 0.23075773 -0.2001084 -0.0069688736 -0.4023282 -0.24846902 -0.36072102 -0.11691327 -0.30371323 0.22439125 -0.0756749 -0.57796884 -0.552864 -0.081484355 -0.5083663 0.2943687 0.39310622 -0.2988982 0.33998734 0.17504776 0.45706257 0.2571813 -0.07651137 0.3920506 0.20320761 0.2123816 0.45477453 0.068036154 -0.027175292 -0.30119747 -0.15789232 0.0970078 -0.021783784 0.33704954 -0.25693643 -0.028376184 0.35528082 -0.53010803 -0.5577341 0.27529755 0.07778187 -0.030354872 -0.06333899 -0.6208128 0.28647083 -0.20326847 -0.33645675 -0.36967644 0.24874426 0.24075025 -0.40732926 -0.2715539 0.019273978 -0.52677697 -0.30708456 -0.19016641 -0.025844194 0.021026233 0.083422944 -0.17670546 0.05065845 -0.46915132 -0.39883935 -0.42803314 0.28252825 0.24653278 0.712105 0.042426445 -0.14036815 -0.09755534 0.30100846 -0.13906331 0.47767892 -0.005157951 0.20905313 0.15406974 -0.24581073 -0.1861527 0.057210192 0.47186536 -0.19328983 -0.20971009 -0.56446975 -0.41137674 0.08372212 -0.10782142 0.56339544 0.105409324 0.097133145 0.1406031 0.0026114874 0.32503992 0.1896655
626 0.07474042 -0.08760761 -0.13901189 -0.28457752 -0.14582106 0.2741842 -0.12083378 0.06431462 0.09316886 0.10700724 -0.05299498 -0.23685431 -0.1220908 -0.07898415 -0.08675616 -0.26072493 0.25025904 -0.12874065 -0.05125127 0.03959447 0.14353004 0.01568944 0.48993057 -0.72507906 0.35027012 0.0025461542 0.2738439 0.27017674 0.1872936 -0.028961256 0.11465521 -0.00656426 0.28060153 -0.43705246 0.09775713 -0.11643238 0.1939871 -0.30571154 0.07316334 -0.23028935 -0.006214378 -0.36348864 -0.27354306 -0.27859002 0.08528122 -0.2785756 -0.49753502 -0.54252845 -0.09176294 -0.5690089 0.37393868 0.22506641 -0.05906602 0.46228823 0.31395608 0.60558575 0.055344272 -0.026635105 0.16841634 -0.2131884 0.10328115 0.3723824 0.009594858 -0.019249676 -0.23478849 -0.3485023 0.32373273 -0.07798354 0.21941476 -0.047603212 -0.17212504 0.37578905 -0.11535386 -0.32093936 0.4756787 -0.09426348 -0.17499296 -0.22478169 -0.56394875 0.40185624 -0.0635246 -0.4270167 -0.33808354 0.3482951 0.1825402 -0.31372875 -0.33968094 0.13218682 -0.5580698 -0.08320465 0.13978183 -0.18842241 -0.21223089 0.24725755 -0.0019951486 -0.011899925 -0.64513546 -0.444123 -0.0589955 0.22762018 0.111827694 0.7486199 0.18961836 -0.44682527 0.026863044 0.3240194 -0.11046937 0.41759887 0.25063333 0.5405209 0.31083223 -0.07208321 -0.27047122 0.342767 0.63376725 -0.19232732 0.035576727 -0.017770689 -0.44913006 0.048789915 -0.08474062 0.24046408 0.0013291686 -0.09645253 0.058547065 0.007897663 0.06751157 0.20682961
628 0.17984876 -0.207513 -0.12708144 -0.13548811 -0.0349036 0.3121499 0.13677472 0.010848877 0.124276474 0.15567105 -0.257309 -0.20391068 -0.14090255 0.099967524 0.18636379 -0.10322184 0.34833857 0.014636838 0.050759114 -0.07040164 0.2767999 -0.0013868546 0.46992034 -0.59810865 0.33677858 -0.017863557 0.40434536 0.34582734 0.18314435 -0.08180425 0.030164162 -0.038146164 0.28413567 -0.51601595 0.03374489 -0.08299027 -0.03556093 -0.32456586 0.037948865 -0.23823176 -0.05930665 -0.34270847 -0.208048 -0.11548462 -0.029446991 -0.3287634 -0.48792312 -0.55634826 -0.031772707 -0.5829476 0.39330634 0.42265177 -0.20489879 0.4701785 0.16133735 0.4209828 0.0993976 -0.29784185 0.094156586 -0.2446309 0.10329114 0.30950898 0.18229908 0.03037132 -0.047604978 -0.34478924 0.37895098 -0.23699985 0.20740421 -0.033159245 -0.1445084 0.29812628 -0.26921073 -0.3257298 0.44816142 -0.080564775 0.0024178068 -0.099258915 -0.65280306 0.32261753 -0.12262452 -0.41779658 -0.45927334 0.28736016 0.33294183 -0.58573896 -0.28328153 -0.011242423 -0.47538316 -0.11489654 0.041937284 -0.1663759 -0.16091777 0.31516236 -0.13250555 -0.1811412 -0.7226386 -0.5393316 -0.062183287 0.2540321 0.18387729 0.6836004 0.078642465 -0.25478145 -0.031214984 0.2942553 -0.13137926 0.52211356 0.15458421 0.50477654 0.21199594 -0.1139061 -0.29832113 0.28560778 0.40804037 -0.34297898 0.15900096 0.07081305 -0.22121014 0.04312021 -0.065372996 0.42606896 -0.06227426 -0.22152202 0.1536984 0.048387572 0.18464245 0.008640369
7 -0.18209589 -0.222891 -0.1526654 -0.35362202 -0.25020385 0.29002032 -0.22662593 0.34906486 0.060577348 0.084633164 -0.021507774 -0.23369026 0.0839886 0.03001329 -0.16364935 -0.18965866 0.27437595 0.12329567 -0.04976779 0.15119293 0.17549698 0.006040744 0.6199033 -0.5982667 0.2281997 -0.042290118 0.2943249 0.45727488 0.34358 -0.09076764 -0.04543962 -0.1421352 0.31392893 -0.15799084 -0.036174495 -0.0898865 0.26309118 -0.4538676 0.030642487 -0.2002217 -0.08563762 -0.40834972 -0.088239044 -0.33877677 0.07773279 -0.1459359 -0.54426235 -0.44221625 -0.14133377 -0.30126297 0.26590863 0.23146148 -0.11417323 0.335153 0.30770376 0.45147362 0.32254142 0.03662295 0.28751776 0.0015912072 0.15269119 0.5125421 -0.095830545 -0.066982985 -0.257781 -0.2417038 0.2078704 0.101136304 0.27170435 -0.20397137 0.03553253 0.37190098 -0.28490362 -0.5001934 0.39513665 -0.09609547 -0.08793086 -0.099977516 -0.47429025 0.41247216 -0.08075791 -0.4010339 -0.3242941 0.2945869 0.08398799 -0.2281608 -0.30505192 0.14553821 -0.5170488 -0.2368615 -0.07712361 -0.15748882 -0.07257285 0.11729112 -0.09805442 0.07101414 -0.38877368 -0.286236 -0.39620233 0.17568444 0.08777287 0.71769917 0.4449294 -0.44783232 0.063308224 0.32334015 -0.06047795 0.39573944 0.16060375 0.3617356 0.20052399 -0.21449983 -0.18662795 0.101099476 0.70763403 -0.15781744 -0.04412004 -0.41432938 -0.5068264 -0.0025939515 -0.12833062 0.36626914 0.063635446 0.13421515 0.08245491 -0.16532186 0.13725065 0.25938758
627 0.17797728 -0.23910782 -0.11552543 -0.45394906 -0.18159285 0.075109 -0.08819567 0.048925757 -0.00032579803 0.23053505 -0.021390064 -0.22693342 -0.13054922 0.1985737 -0.00327291 -0.2674517 0.22595891 -0.08827215 -0.063575216 0.023777626 0.124591656 0.048195984 0.33453852 -0.6181711 0.10480865 0.0071727945 0.04893487 0.22179244 0.24455553 0.0041723074 0.058416888 -0.046084385 0.32810488 -0.5620318 -0.17454767 0.002472657 0.15736815 -0.19513245 0.18271317 -0.29275346 0.03979364 -0.21915293 -0.15548185 -0.12644799 0.13766494 -0.4346417 -0.37459147 -0.4347482 -0.13132332 -0.73334336 0.31431127 0.22210063 -0.070060305 0.50097597 0.29845643 0.5101179 0.13640185 -0.007898602 0.0930468 -0.30067953 0.18435778 0.4947599 0.04931761 0.06639085 -0.3022365 -0.23694028 0.43829942 -0.12282974 0.09019301 -0.022707129 -0.21726656 0.3430489 -0.35701746 -0.4629513 0.3589904 -0.043162465 0.0025185156 -0.29143474 -0.79140556 0.3423872 -0.22006501 -0.4009073 -0.30715114 0.4626281 0.3131475 -0.37311208 -0.30613834 0.14761347 -0.34091452 -0.15345627 0.25009176 0.059044793 -0.23969632 -0.017446829 -0.08802385 -0.21131591 -0.72570884 -0.26509464 0.095750965 0.19846927 0.06396511 0.5637134 0.14570454 -0.25645354 -0.20444955 0.35989383 0.0027764782 0.3777859 0.082731105 0.43726242 0.1273911 -0.004200932 -0.34198767 0.18306664 0.3508788 -0.1733352 0.11345562 -0.087144375 -0.2637378 0.07977825 -0.17128949 0.3320851 -0.16229416 -0.21583728 0.21597067 -0.061214007 0.35033354 0.2721795
158 0.329002 -0.39082012 0.064019926 -0.26832458 -0.15566814 0.18777452 0.32328403 0.33526963 -0.018124994 0.4072477 -0.32461652 0.40106592 0.07790599 -0.3046273 0.03961393 -0.16969034 -0.04611062 -0.13325448 -0.44466028 -0.33196402 -0.17534776 0.24911925 0.0014738258 -0.05074744 -0.18355209 -0.006628043 0.053444706 0.3585392 0.3176647 0.20960061 0.51378936 -0.32694525 0.015426948 -0.15693755 0.23415229 0.335732 0.12919301 -0.17826244 -0.18122783 0.25293145 0.046348695 -0.23153464 0.17359248 0.89989907 0.054478142 0.0017757105 -0.33099616 -0.2982095 0.09847927 -0.5112851 0.17879781 0.35200655 0.5477016 0.33844277 -0.014623944 0.5249225 0.15052654 0.11310964 -0.034112424 -0.15074292 -0.09997635 0.67893434 0.1913795 -0.4339268 0.36790213 -0.014631297 0.29893452 0.21654035 0.058362987 -0.059129424 -0.1681761 0.17538536 -0.47925118 -0.47044063 0.34555882 0.52698755 0.041160576 -0.25066888 0.528691 -0.09710183 0.0072001913 -0.30271947 -0.07652659 0.18629465 -0.4233742 0.14454006 -0.12313231 0.64972234 -0.20101462 0.2119617 -0.22221401 -0.035347942 -0.03357233 0.17127022 -0.14162798 0.17095238 0.18740422 0.04528685 0.30793938 0.3235825 0.20304377 0.45547274 0.0736241 0.06044219 0.41764298 0.05183292 0.041179072 0.4989848 0.24794684 0.20438328 -0.7488263 -0.059763324 -0.3182666 -0.13975671 0.25441325 0.22384952 -0.4730899 -0.28939903 -0.022957152 0.28182966 0.062850475 0.42622122 0.25717172 0.034990966 0.48359528 0.05245184 0.1020868 -0.27090096
194 0.12754862 -0.13188875 0.075772375 -0.23692043 -0.16362323 0.2563689 -0.004937376 0.123713136 0.029543709 0.25994506 -0.048325468 -0.010322829 -0.22030137 0.12798992 0.16106237 -0.13973607 0.22124153 -0.087837756 -0.07421019 -0.05212234 0.31662607 -7.031434e-05 0.3920727 -0.65209335 0.18683518 -0.073235795 0.1694954 0.3197853 0.36569062 -0.14479913 -0.0029833345 -0.056887876 0.24589726 -0.5683184 -0.09634498 -0.115766056 0.118864775 -0.31131524 0.12103299 -0.27153683 -0.11276386 -0.42074808 -0.29425156 -0.21135318 -0.0023604836 -0.2773744 -0.50285167 -0.34406587 -0.14699069 -0.6341529 0.36968157 0.43748924 -0.22434825 0.44614178 0.24872015 0.36609393 0.05018261 -0.19438256 0.05456534 -0.164727 0.11086759 0.44735458 0.12926239 -0.02690203 -0.20832258 -0.3464565 0.33447206 -0.21575281 0.12903745 -0.0122697875 -0.16358355 0.39056262 -0.26637623 -0.31679866 0.42887318 0.0058054295 -0.03698138 -0.31626067 -0.7136369 0.25286046 -0.09427398 -0.30101746 -0.28282973 0.15869759 0.27498454 -0.29649422 -0.3442638 0.16270165 -0.2772633 -0.13263194 -0.08589437 -0.20084386 -0.20653291 0.12398689 -0.06868671 -0.19059955 -0.58309364 -0.48885804 -0.0542261 0.2889364 0.23309697 0.7742627 0.19947138 -0.17927022 -0.17005603 0.30600622 -0.17493467 0.5454791 0.13373211 0.48759505 0.2619058 -0.2103944 -0.31784984 0.10374578 0.3241637 -0.2062575 -0.06801843 0.010441318 -0.36849138 0.22544038 -0.11819548 0.2615676 -0.07651375 -0.19999547 0.17925936 -0.09735853 0.12471774 0.047656476
758 0.5112528 -0.517979 0.102752 -0.09143022 -0.03312341 0.038093317 0.16315928 0.33995664 0.0668133 0.44420582 -0.33255577 0.40901268 -0.018683793 -0.12595838 0.07226058 -0.21588518 0.10036749 -0.079825796 -0.3496495 -0.29156908 -0.16632994 0.27014166 0.031606566 0.0920259 -0.15627033 0.020444952 0.006880297 0.3340195 0.19892818 0.016253531 0.44176918 -0.24501783 0.10914476 -0.16278972 0.17157486 0.5179728 0.28407228 -0.14509009 -0.036639426 0.17345893 0.05637252 -0.34313965 0.1881042 0.7699868 0.20006369 0.13974951 -0.36343676 -0.22964485 0.08153902 -0.73204845 0.02030229 0.47115302 0.36445928 0.3648045 -0.16505739 0.36340043 0.10334686 -0.03290639 0.12622398 0.063483305 -0.029338565 0.7105819 0.34387606 -0.39341334 0.41653284 -0.10567295 0.32608145 0.055958863 0.010752257 -0.03529382 -0.23374338 0.27649766 -0.50784546 -0.534054 0.20723557 0.544283 0.11370345 -0.19041291 0.25953493 -0.10706389 -0.08090442 -0.2959583 0.0010261422 0.22729799 -0.47331974 0.11594074 -0.17019336 0.52368176 -0.22571217 0.41292816 -0.16159979 0.07170886 0.0046623996 0.12635739 -0.20594619 0.20078269 0.13138464 -0.053919155 0.32569852 0.2468117 0.1795294 0.52852577 0.114274055 0.27684042 0.2730247 -0.09295912 -0.058015484 0.5771209 0.18580367 0.029650766 -0.6166706 -0.13420244 -0.25462303 -0.24205694 0.08579619 0.0011791701 -0.41830978 -0.18368419 -0.092454836 0.27441418 0.053574868 0.390615 0.36908832 -0.07780781 0.45455116 -0.001586769 0.17920569 -0.24804829
741 0.49434868 -0.33181453 0.09504399 -0.09337411 -0.016645461 0.10029833 0.22490443 0.43545988 -0.021507578 0.41603336 -0.34668416 0.39110488 -0.00869969 -0.20587201 -0.03829156 -0.24355038 0.08957951 -0.12933655 -0.2806863 -0.14677022 -0.13015409 0.22526231 0.0002721202 0.09795575 -0.103960425 0.04343801 0.0043762224 0.10620087 0.3647213 0.10825565 0.5656245 -0.37170073 0.14121905 -0.17330271 0.2957337 0.5725702 0.3381735 -0.10565502 -0.06914893 0.28074652 0.18556471 -0.33431536 0.20733805 0.72184116 0.17877665 0.20577657 -0.3515829 -0.23414733 0.2694075 -0.465392 0.03403237 0.28916872 0.3527743 0.45857114 -0.037574608 0.5638789 0.16292647 0.044480216 0.1171279 0.13411488 -0.08520502 0.57952857 0.24871989 -0.4004675 0.21582244 -0.059809368 0.26196563 0.17071941 0.06826452 -0.10167152 -0.16348986 0.13447504 -0.48122683 -0.52921784 0.23069833 0.47956708 0.10839695 -0.13972555 0.4094703 -0.06651433 0.003385526 -0.33820468 -0.04936289 0.12100998 -0.4212688 0.28685725 -0.11035671 0.50149244 -0.20291531 0.1986901 -0.29993904 -0.1383266 -0.053832024 0.12274836 -0.22477746 0.16310391 0.33629858 0.047621053 0.27402425 0.36973894 0.13789856 0.5402606 0.107077934 0.15799625 0.34172896 -0.068477996 -0.055134784 0.564283 0.15397476 0.10716032 -0.57237583 -0.20328575 -0.10692743 -0.2788097 0.22484902 0.11976213 -0.31578043 -0.17918865 -0.101133 0.23481688 -0.026813885 0.28558177 0.31937125 0.10653862 0.40722734 0.2196871 0.14981554 -0.24129583
117 0.3678172 -0.419343 -0.046236247 -0.5275517 -0.17953709 0.32814676 0.2854416 0.2720969 0.10460822 0.52768105 -0.24804142 0.32827583 -0.14864852 0.02389891 0.16624996 -0.14848126 -0.011759213 -0.22199443 -0.11168588 -0.02272131 0.06469356 0.021909373 0.1002389 -0.022755636 -0.23945293 0.088271454 -0.06305837 -0.18088137 0.23222385 0.062704414 0.50065136 -0.4194845 0.08867234 -0.35832304 -0.12485469 0.3196386 0.12636136 0.0419158 -0.18401517 0.262567 0.3117465 0.119498946 0.15271023 0.79927516 0.24150132 -0.11104654 0.15073204 -0.22013003 0.17893083 -0.42571658 0.5434031 -0.03799408 0.11736215 0.20848005 -0.107319936 0.4553611 -0.07851494 0.2647618 0.3005753 0.034768265 0.069032945 0.65237695 0.21640515 -0.29212803 0.04345487 -0.23648459 0.53663296 0.22828168 0.06473801 0.039345276 0.18900259 0.2937072 -0.1807317 -0.35844734 -0.15858063 0.59001994 -0.31515992 -0.39315802 0.12504433 -0.3039057 0.20491196 -0.6462454 -0.054639995 0.024915764 -0.1835853 0.20314507 -0.04405481 0.48029375 -0.3717692 0.44371682 -0.13727961 -0.02240887 0.18941654 0.38121048 -0.48613626 0.22627488 0.17625067 -0.017754605 0.20089935 0.2205867 0.2900401 0.33761215 0.26031852 -0.21298447 -0.023230735 -0.10771668 -0.08500783 0.34459624 -0.03950176 -0.11251581 -0.5236564 -0.19185974 -0.5985102 0.124717 0.25689524 0.040972967 -0.2905902 -0.10066664 0.13670363 0.13605373 0.08821079 0.35037452 0.27688068 0.17873563 0.4048512 0.31533983 -0.055058796 -0.21808366
783 0.42954144 -0.55371594 0.006166212 -0.19574632 -0.02027311 -0.029662173 0.32340243 0.44940147 -0.0018681706 0.4226401 -0.48746786 0.41681167 0.024808817 -0.07220899 -0.11176274 -0.19630407 -0.047915343 -0.052030567 -0.382022 -0.38917205 -0.22300878 0.24393669 0.06811173 0.18123616 -0.13551112 0.012464281 0.20742945 0.32028958 0.19343749 0.3282646 0.5056831 -0.3345079 0.15171143 -0.1964232 0.21459346 0.45994288 0.19195908 -0.2167235 -0.08296338 0.055384755 0.10477587 -0.33497465 0.1636251 0.85882014 0.2326758 0.054458328 -0.28998652 -0.39803615 0.22642714 -0.59707224 0.15522514 0.44670865 0.3618801 0.43318012 0.008161314 0.57440776 0.1305774 0.025753036 0.07801339 0.027266666 -0.21006687 0.5864436 0.2579183 -0.36751592 0.20224692 -0.012915949 0.33625078 0.1370078 0.12229969 -0.028501278 -0.13760404 0.039430458 -0.5514049 -0.50331926 0.21466923 0.4283833 0.13685596 -0.0538183 0.34300202 -0.18351457 0.011858 -0.3214276 -0.012380089 0.15154946 -0.2984069 0.112962596 -0.059396703 0.44186077 -0.26827574 0.22939873 -0.34149852 0.035945527 -0.035228677 0.11757392 -0.32164997 0.22859609 0.0819918 -0.07642182 0.27697194 0.22205894 0.15593994 0.29823694 -0.10387024 0.12898135 0.29095402 0.09488253 -0.063798234 0.50741017 0.13744178 0.121179804 -0.675308 -0.039898273 -0.34121278 -0.10222806 0.11167843 0.104170926 -0.4425486 -0.2737727 0.07699367 0.20632067 -0.06689099 0.5027774 0.2600322 0.098339505 0.36105406 0.12948668 0.3221957 -0.25874406
624 0.116632976 -0.25515231 -0.027722841 -0.3585403 0.023494715 0.021826746 -0.020375406 0.30944318 -0.004483081 0.24451898 -0.07752191 -0.18475868 -0.35150427 0.15352745 0.08054587 -0.28308102 0.3733918 -0.011185437 -0.00010177454 -0.013802546 0.110943004 0.06359072 0.43607754 -0.62358946 0.35532218 0.14362961 0.08518022 0.28660634 0.19524413 0.07470052 0.14698587 -0.15373515 0.3372529 -0.44833127 0.071154684 -0.067687094 0.17435637 -0.07186023 0.059367333 -0.34659332 -0.16378585 -0.35494423 -0.32654318 -0.2670433 0.17608558 -0.23667209 -0.47716892 -0.52359796 -0.05188223 -0.67831945 0.34458017 0.3524082 -0.23136282 0.4669616 0.13655436 0.53023416 -0.018741278 -0.09569378 0.23079373 0.019701688 0.16960183 0.28418782 0.15111502 0.041496895 -0.2699154 -0.2450965 0.29506332 -0.21644934 0.18109556 -0.08194212 -0.3249437 0.3790139 -0.37149075 -0.36859018 0.39011455 0.090122044 -0.15617347 -0.3007611 -0.78163975 0.34198222 -0.19866447 -0.34465793 -0.2729343 0.27220273 0.3482287 -0.39786893 -0.32858545 0.033476125 -0.5014395 -0.118443474 0.07313969 -0.051805176 -0.17292105 0.13175231 -0.035502434 -0.07619197 -0.69084007 -0.5121252 -0.05269256 0.33499056 0.26989618 0.73532456 -0.08879531 -0.05606225 -0.24596009 0.27316687 -0.12686457 0.5140874 0.025102995 0.4802363 0.27487922 -0.08793742 -0.22085465 0.30706054 0.34772205 -0.22441591 -0.14077136 -0.13533075 -0.35467216 0.19034776 -0.083528 0.37813362 -0.012687589 -0.19014564 0.09859448 0.08020806 0.275607 0.17970923
773 0.5400648 -0.4999945 0.1181403 -0.13245335 -0.12284352 0.068628326 0.41863653 0.43278536 0.03810442 0.38221857 -0.35251254 0.36824462 0.03271321 -0.08513887 -0.0093346825 -0.06327654 0.0794637 -0.07509959 -0.42708844 -0.3113784 -0.17614272 0.29118875 -0.04423073 0.19731776 -0.026315918 0.011832993 0.23906668 0.3068901 0.4436145 0.1193306 0.38978887 -0.28081548 0.1448655 -0.16674612 0.15822938 0.5579336 0.28900987 0.032147974 -0.00075225986 0.25735888 0.19940017 -0.25775024 0.20295079 0.8020884 0.1743359 0.10586085 -0.41397634 -0.42146513 0.095700085 -0.6312451 0.07196053 0.32520416 0.36029112 0.3699476 -0.099782616 0.39176705 0.17010798 -0.017209787 -0.030254083 -0.0332928 -0.2531378 0.5785597 0.41790426 -0.35418242 0.18904439 0.03020522 0.19068977 0.18422458 0.022787068 -0.05322165 -0.14672342 0.30777103 -0.56218517 -0.61691135 0.211084 0.44569787 0.14604309 -0.12405783 0.18486236 -0.050587438 -0.13113971 -0.29700857 -0.03254228 0.1436198 -0.37061435 0.06459653 -0.30058667 0.6344701 -0.18280376 0.2450055 -0.21243912 -0.024860471 0.0625161 0.012953105 -0.36218506 0.055305596 0.28531817 -0.11724498 0.40747178 0.50354475 0.20734577 0.5680298 0.06876452 0.20497704 0.20507416 0.057587713 0.13418265 0.50589925 -0.0074913506 0.010318508 -0.5797346 -0.12487824 -0.23269807 -0.17224108 0.118699506 0.20342392 -0.3870571 -0.32269776 0.045037232 0.22801892 0.0018665297 0.49665812 0.2852576 -0.0023190968 0.5239835 0.11184891 0.106741466 -0.20991023
785 0.44408485 -0.44524124 0.07101124 -0.2670555 0.034762923 0.19304836 0.2821029 0.53298575 -0.023997026 0.43315947 -0.42398462 0.29403406 0.0055711553 -0.11087327 0.1295825 -0.1341825 0.08867596 -0.14708616 -0.44940758 -0.19297941 -0.15900348 0.21608847 0.009187337 0.17540832 -0.101493955 0.017153598 0.060596287 0.28423107 0.3587093 0.12727691 0.47382066 -0.32776982 0.2544208 -0.09174734 0.21176417 0.49890625 0.17105803 -0.10943273 -0.06442978 0.25790086 0.16704567 -0.40208817 0.11655084 0.80270165 0.11791135 0.12656872 -0.32791513 -0.2923582 0.29208225 -0.54500693 0.1066892 0.32112113 0.44302115 0.37080935 -0.08864864 0.42517024 0.0772104 0.06176471 -0.047031313 0.064419806 -0.19572504 0.6645832 0.22618227 -0.3885926 0.37513772 -0.02889859 0.25455707 0.14465578 0.023050573 -0.101746015 -0.26348862 0.23521163 -0.5624619 -0.5885774 0.1286804 0.54142267 0.059403118 -0.27594107 0.15736793 -0.007713065 -0.01388616 -0.26269397 -0.108942986 0.12482142 -0.2769438 0.10306924 -0.21093167 0.5709991 -0.27580222 0.29383713 -0.228635 -0.031321395 -0.035696503 0.086251765 -0.18232301 0.20225425 0.21177517 0.10651358 0.40258926 0.32785368 0.21412134 0.39322227 0.06171638 0.28804556 0.25556216 -0.044260398 0.005997625 0.6268072 0.120622076 0.092115104 -0.67876214 -0.107011475 -0.18879014 -0.23707765 0.1456097 0.23029627 -0.30006418 -0.26681295 -0.1262878 0.26137906 0.102720015 0.39695132 0.2935465 0.01595283 0.38199127 0.12896857 0.1334202 -0.22632508
780 0.49971572 -0.41795546 0.19548959 -0.18152788 -0.021699047 0.07343754 0.311095 0.41698974 -0.028068425 0.4462573 -0.27736706 0.19681509 0.0066769226 -0.17143823 0.030145068 -0.08946962 0.11568833 -0.18214245 -0.38004345 -0.19483201 -0.25432506 0.27721375 0.0492203 0.06296302 -0.12839557 -0.0647524 0.109972574 0.07232959 0.3472442 0.1426419 0.4956979 -0.3780437 0.11487285 -0.14408493 0.19241682 0.37208664 0.15642655 -0.08768314 -0.07465775 0.17760867 0.078215174 -0.24844734 0.19588806 0.77314645 0.100624 0.041930355 -0.28294858 -0.24373555 0.30747148 -0.38576224 0.025235834 0.47543195 0.4410398 0.50168175 -0.040285137 0.3428088 0.11858863 0.07971299 0.0030808062 -0.037103754 -0.10736304 0.50892085 0.17460129 -0.3514243 0.30306196 -0.021939587 0.22417054 0.07316838 0.11191515 -0.14867489 -0.24560532 0.21953459 -0.6299615 -0.62565243 0.22882365 0.6380293 0.06309939 -0.27587262 0.31442806 0.0705103 0.052813612 -0.3352764 -0.104482904 0.13858153 -0.32938126 0.03322127 -0.019504292 0.5860225 -0.13831249 0.2627669 -0.21851224 -0.017765004 -0.066616476 0.19107375 -0.30668545 0.20021266 0.15267421 -0.06703618 0.32619232 0.41393685 0.31622666 0.62028015 -0.016530003 0.12720144 0.16729338 -0.058719672 0.012973497 0.5936192 0.105342135 0.1355815 -0.83003986 -0.03958066 -0.23177662 -0.2367206 0.20912081 0.026989004 -0.1663209 -0.31638148 -0.005921018 0.23749253 0.007645083 0.2833172 0.33887556 -0.026758708 0.3294796 0.14618991 0.36215395 -0.37132612
782 0.42577285 -0.5289099 0.16656548 -0.20267825 -0.13480718 0.2705914 0.45326096 0.40102097 0.016231256 0.4866361 -0.39207318 0.39405826 0.18099493 -0.034792133 0.0966387 -0.00016451866 0.0025834118 -0.20651485 -0.24244255 -0.34020144 -0.053824876 0.28850335 0.1595959 0.25211018 -0.11427552 -0.021199133 0.08849393 0.22488096 0.16509019 0.11722536 0.5397724 -0.34247193 0.25976312 -0.18969302 0.32805532 0.3432278 0.036743484 -0.063194335 -0.03987523 0.21678631 0.0997485 -0.27883583 0.10012351 0.8205931 0.10777321 0.06891421 -0.29918215 -0.3393484 0.15085922 -0.5436359 0.034623485 0.45049518 0.3450434 0.30014062 0.066076204 0.53620565 0.12974688 0.09748477 -0.09076885 -0.034417514 0.06755466 0.66892534 0.21537854 -0.36854273 0.3639794 -0.13981204 0.086509235 0.28069785 0.03014126 -0.20419139 -0.18327102 0.26022547 -0.59619904 -0.3853829 0.2577647 0.5825766 0.13837738 -0.07023737 0.37343946 -0.074791424 -0.07589468 -0.37756577 -0.07326505 0.0853912 -0.43072993 0.05732467 -0.22404489 0.54740906 -0.3483683 0.32797155 -0.19185543 -0.14027189 -0.1177591 0.12726328 -0.15083094 0.24183275 0.21228223 -0.067825474 0.4680882 0.29995844 0.050971508 0.4045844 0.15206063 0.104993075 0.29670012 -0.016672196 0.0023708215 0.6423433 0.18259132 -0.034873392 -0.7082347 -0.115275696 -0.3014249 -0.28709266 0.045025855 0.07307225 -0.38453197 -0.26934713 0.024068933 0.06038931 0.02673459 0.47273672 0.24395059 0.08588913 0.46311894 0.16496073 0.23534547 -0.18742698
784 0.38616884 -0.5284699 0.037417505 -0.019342814 -0.13840047 0.23697598 0.26490796 0.3662455 0.014464774 0.33029652 -0.5451453 0.5092455 0.04966466 -0.19604923 -0.025029508 -0.20064695 -0.068345666 -0.039169673 -0.33706713 -0.16842353 -0.12300423 0.21388534 0.26235172 0.21327464 -0.1372781 -0.06455255 0.14442651 0.15766852 0.3363868 0.23956783 0.526449 -0.36765555 0.22483668 -0.12646347 0.2324676 0.334664 0.25991133 -0.22662954 0.027994763 0.16092536 -0.06333309 -0.115958706 0.17019115 0.884901 0.17074035 0.09350112 -0.43203247 -0.4111437 0.1908921 -0.6557585 0.027766401 0.50703585 0.40205225 0.3219826 -0.050183415 0.41131434 -0.047574215 0.10253167 0.1942818 0.046306692 -0.27014694 0.5116208 0.19380924 -0.23371711 0.19647768 0.04542913 0.3646622 0.078534976 0.19555698 -0.12728575 -0.0559512 0.2580304 -0.5903022 -0.6047904 0.15277766 0.4326848 0.16579357 -0.031402994 0.2183765 0.016350089 -0.07347122 -0.4463222 -0.1504724 0.32147467 -0.45702666 -0.012102131 -0.19877629 0.53566086 -0.055406127 0.2961316 -0.21740766 -0.06827563 0.09747017 0.14851126 -0.33218715 0.06365858 0.20857935 0.058683388 0.29215562 0.30060232 0.28094906 0.36839354 0.08014651 0.12481313 0.36478293 -0.0014913048 0.007881233 0.52000713 0.10496377 0.07919041 -0.67821705 -0.047848407 -0.3233022 -0.22525744 0.14293848 0.261324 -0.37269902 -0.41576076 -0.063554354 0.13750736 0.13152078 0.38681337 0.24453038 -0.013251241 0.43020156 0.18122624 0.25584748 -0.22790527
630 0.17914495 -0.22787157 0.02665673 -0.3147931 0.0066523696 0.2439077 0.060020074 0.2018051 -0.01538697 0.08748821 -0.22266424 -0.122344784 -0.16405833 0.1041161 0.0090029705 -0.21777076 0.33719525 -0.13568239 -0.058469493 0.0866766 0.054561235 0.13643974 0.45992556 -0.55967176 0.35006547 -0.012784639 0.267807 0.46461868 0.29659143 0.022634137 -0.022908768 0.044771273 0.21918848 -0.3417984 0.012246155 -0.009154197 0.23667663 -0.3852743 0.13194865 -0.19610451 -0.24736696 -0.4557376 -0.18402056 -0.32596177 0.057061546 -0.24324968 -0.5345797 -0.4532729 -0.13061534 -0.5541356 0.2796651 0.5018646 -0.029349716 0.5537869 0.14410582 0.4867131 -0.0021459144 -0.042321015 0.04673782 -0.24587318 0.029628089 0.3631866 0.07038014 0.023768462 0.05787453 -0.26701137 0.39389357 -0.15423459 0.043939754 -0.14598876 -0.4121247 0.3756499 -0.29927996 -0.39655936 0.6026748 0.0639073 -0.019494707 -0.3449532 -0.75883335 0.40196946 -0.2730101 -0.28029278 -0.3368537 0.3827025 0.23861976 -0.40919736 -0.2778426 0.07414882 -0.4036602 -0.013632398 0.12904967 -0.12573928 -0.32499462 0.13271296 0.14310609 -0.09464103 -0.6148431 -0.44723713 -0.044307966 0.2594094 0.2625074 0.78333384 0.26031578 -0.09848666 -0.1307829 0.39297664 -0.11579353 0.57993096 0.18188864 0.6259113 0.20395592 -0.07330496 -0.31296495 0.44788688 0.39409435 -0.2217655 0.052313384 -0.18301126 -0.4270254 0.047897454 -0.103843264 0.36197218 0.055544265 -0.1680249 0.010508364 -0.091506794 0.33231947 0.14084198
781 0.56827843 -0.4156362 -0.012712278 -0.10897041 0.008925588 0.28853813 0.35572225 0.19787273 0.0634666 0.5061796 -0.51551956 0.46425122 0.044456277 -0.024698546 0.13562694 -0.09908374 0.15012519 -0.15697898 -0.39859578 -0.1956533 -0.010633592 0.1441783 0.01779857 0.09691918 -0.033782754 0.03999714 0.14267196 0.18281364 0.27446297 0.12346563 0.519758 -0.33405817 0.24671386 -0.18352337 0.10280297 0.34949407 0.10808028 -0.084138684 -0.037311707 0.21231179 0.10946477 -0.27019936 0.29194114 0.8321895 0.01731555 0.18201302 -0.17967108 -0.15294339 0.19009475 -0.5808673 0.13212252 0.31745893 0.31280464 0.49786785 0.045796767 0.37437424 0.26439872 0.111423634 -0.034776613 -0.061717965 -0.19532251 0.4362778 0.17068262 -0.41670895 0.17398334 0.1818927 0.38646367 0.29428625 0.11672232 -0.13103415 -0.11598683 0.20783369 -0.656229 -0.61424494 0.13623053 0.36837393 0.18832856 -0.17507967 0.325213 -0.059268903 -0.13566437 -0.30091238 -0.1421278 0.24635291 -0.3587069 0.06444498 -0.22627835 0.6609482 -0.17279835 0.28113386 -0.2957219 -0.12797244 -0.060235076 0.009004441 -0.17759538 0.22221205 0.21483076 0.024596976 0.33881238 0.23049891 0.1711049 0.5145997 0.26461098 0.26035824 0.32188115 -0.017293442 0.004509596 0.7270195 0.23888847 0.062427063 -0.6361888 -0.11756281 -0.2824091 -0.15000078 0.10423967 0.14665282 -0.36909395 -0.21756643 -0.016441962 0.09252402 0.04841573 0.48306793 0.33687642 -0.04777145 0.4986565 0.20474279 0.18733992 -0.28619182
692 0.1270159 -0.37237427 -0.36325422 -0.30848154 -0.18849026 0.14078979 0.077578925 0.16107452 0.09491605 0.24236616 -0.17175727 -0.2274933 -0.0060944483 0.350206 0.12061061 -0.22413206 0.36669853 0.19587354 -0.026686868 0.01569779 0.19773118 -0.04701975 0.3649415 -0.4482267 0.16369331 0.04322963 0.2512125 0.25835988 0.22367771 -0.118398294 0.07417553 -0.20971864 0.32999918 -0.5210112 -0.17477381 0.07505573 -0.024358518 -0.20390154 -0.058364477 -0.16287257 0.011555275 -0.16441442 -0.042245567 0.0047333166 0.11033356 -0.34067535 -0.39511138 -0.48570332 -0.013673759 -0.58909065 0.41042978 0.19276325 -0.26485217 0.44967306 0.19068657 0.33295956 0.24570405 -0.2355205 0.12122614 -0.19187957 0.350539 0.467932 0.22899216 0.054315183 -0.22499949 -0.28025362 0.4512852 -0.17516924 0.1724754 -0.08402522 0.016362445 0.33534378 -0.5080022 -0.45932254 0.30489036 0.009847168 0.011164686 -0.046711437 -0.7556812 0.3114234 -0.36724755 -0.5687451 -0.5562359 0.4256646 0.52025425 -0.5225658 -0.21806023 -0.010720727 -0.4609759 -0.2562263 0.092008606 0.10233078 -0.041853577 0.17752899 -0.26191518 -0.19971243 -0.7472114 -0.3095081 -0.10555668 0.19764218 0.04295462 0.6486471 0.04084363 -0.18161681 -0.1954789 0.28472063 -0.038913593 0.4043992 0.047300696 0.35238078 0.12039752 -0.20605814 -0.2983513 0.14549364 0.40520728 -0.41214678 0.34110892 -0.17930707 0.018553656 -0.04504749 -0.18371506 0.5741555 -0.15055652 -0.20471805 0.28827637 -0.010951474 0.33878148 0.0741928
685 -0.0066082105 -0.17626043 -0.3101795 -0.48356852 -0.3062187 0.16395347 -0.16568895 0.15415545 0.03928736 0.14611581 -0.012542226 -0.22272436 0.04424439 0.123579256 -0.17766279 -0.38825557 0.2324948 0.097454876 -0.06611065 0.21121524 0.06195678 -0.03573288 0.30813777 -0.59184796 0.07056468 0.08312238 0.06402615 0.16432586 0.24223863 -0.018946791 0.17129843 -0.14132312 0.20317061 -0.35462755 -0.14612113 -0.011396569 0.1794542 -0.19506723 -0.05222343 -0.043683518 0.030098576 -0.12233954 0.02307075 -0.17528166 0.17150632 -0.3254982 -0.348175 -0.4157225 -0.11498081 -0.4593409 0.42933184 -0.036928084 -0.041278735 0.38640025 0.3709565 0.51433444 0.18943526 0.098341204 0.21738695 -0.13342501 0.28862503 0.4959981 -0.009279781 -0.039142996 -0.343581 -0.2560917 0.45776087 0.06980981 0.10687513 -0.058549203 0.06225063 0.35318735 -0.23608972 -0.33404118 0.36320433 -0.013592507 -0.19416893 -0.18827042 -0.52935964 0.34486088 -0.30687663 -0.5827728 -0.4707112 0.5284789 0.3456094 -0.18179564 -0.25051495 0.081450544 -0.5247046 -0.2292592 0.22894047 0.03197598 -0.109100446 0.1450116 -0.03607238 -0.041538436 -0.61069167 -0.16470706 -0.124323644 0.121970296 -0.103892684 0.590543 0.24557035 -0.43926197 -0.098898806 0.33764583 -0.017866347 0.21996638 0.22798823 0.43035313 0.17573427 -0.07047974 -0.30497792 0.27961084 0.57060325 -0.18602005 0.19305964 -0.21346349 -0.26615813 -0.08546991 -0.18132237 0.3812015 -0.11692546 -0.016433965 0.1764134 -0.09818998 0.17411372 0.26765814
114 0.22977526 -0.16100237 0.09267435 -0.25433883 -0.16956416 0.3001888 0.3534834 0.5909687 0.3607204 0.64457893 -0.26309443 0.27460006 -0.21168062 0.0193405 -0.03964044 -0.13324584 0.07265332 -0.04969065 -0.2544771 0.054215536 0.001806834 -0.039569836 0.031184508 -0.20632608 -0.28036392 0.075953655 -0.1504958 -0.03834776 0.51803124 0.02683471 0.45443505 -0.4469782 -0.036801748 -0.25376952 0.020788752 0.57343936 0.20314904 0.24490315 -0.2112083 0.3822148 0.105224796 -0.103893496 0.42524493 0.9494424 0.10985761 0.15919285 0.0006020769 -0.21104527 0.12463556 -0.36558476 0.44747192 0.19365333 0.44675687 0.18844195 -0.11375651 0.3702989 -0.018985769 0.30742073 0.297517 -0.085937075 -0.14954185 0.75397587 0.16488281 -0.34496054 0.07222462 -0.07673408 0.34602216 0.19294049 0.07225593 -0.16618547 0.17604923 0.23398232 -0.28144935 -0.33277535 -0.3195464 0.56490535 -0.23359774 -0.15318467 0.20588374 -0.15813912 0.207617 -0.5224276 -0.13145803 0.20355846 -0.25261348 0.17148916 -0.1397417 0.3652046 -0.13132861 0.13352801 -0.28174713 -0.10775229 0.11738845 0.2951935 -0.5317496 0.2088867 0.047798816 0.09644163 0.3083864 0.28358164 0.27298778 0.40537322 0.08735294 -0.045226097 -0.055008724 -0.06460686 0.055324998 0.3907851 -0.03185728 -0.20633976 -0.54838455 -0.12659568 -0.4250224 0.015757408 0.19379598 0.054019526 -0.23942181 -0.37541327 0.25353587 0.21422312 0.072470225 0.45039636 0.13761558 0.14048643 0.26651034 0.1340244 -0.10578253 -0.37120682
625 0.31363332 -0.1812712 0.0031496054 -0.28939494 -0.068407595 0.21285181 0.0015063416 0.0124682505 0.1631551 0.303256 0.093710296 -0.22516121 -0.31130508 0.0035198464 0.14994049 -0.18186823 0.3601972 0.06974771 -0.14867269 -0.0042684213 0.1935628 0.054131944 0.58805555 -0.46650472 0.21512114 0.057071827 0.17202455 0.48223534 0.30472386 0.0019601763 -0.15813543 -0.0036427476 0.3756136 -0.5587014 0.0071043535 -0.08043048 0.26792794 -0.18232028 0.054735113 -0.19479424 -0.14634706 -0.22697836 -0.17311786 -0.15806945 0.05688266 -0.2385657 -0.58518827 -0.61333 -0.21866444 -0.5278299 0.36117417 0.2663234 0.07766204 0.638002 0.33123514 0.46692115 0.10766995 -0.004318435 0.054159924 -0.22746599 0.11396619 0.41302517 0.10774492 -0.0069644316 -0.23093261 -0.14795695 0.30089632 -0.14406319 0.18838131 -0.08588118 -0.32402048 0.36000928 -0.35428932 -0.45766893 0.36080763 0.026421921 -0.052527793 -0.29660663 -0.63406545 0.3554215 -0.096851446 -0.35429686 -0.14668827 0.24317656 0.115970954 -0.5016265 -0.28884318 0.19594377 -0.30268824 -0.0037903225 0.21983583 -0.06435156 -0.25687358 0.11403242 -0.110021345 -0.17946309 -0.7433936 -0.50001925 -0.0935354 0.19775262 0.20031035 0.71342975 0.18366668 -0.04243244 -0.074661225 0.19161707 -0.058619335 0.6111265 0.068279706 0.57539463 0.26614633 0.11663655 -0.015194969 0.2930682 0.5132864 -0.20470414 -0.061452545 -0.07299123 -0.277486 0.14750135 -0.16608837 0.3496596 -0.091882244 -0.28956354 0.048209555 -0.033385597 0.19118586 0.19131237
57 -0.24553755 -0.071105406 -0.15398218 -0.60184616 -0.38120288 0.4626847 0.121683344 0.18505289 0.220195 0.1509019 0.09548609 -0.042806912 -0.1519761 -0.15851873 -0.09851574 -0.13504149 -0.036767334 0.011482782 0.0683226 0.17681971 0.06517084 -0.007868666 0.37530178 -0.602399 0.049795207 0.22965865 -0.24140969 0.047077026 0.47383407 0.11985241 0.3825667 -0.34251386 0.05268274 -0.4519906 0.037379347 0.10109655 0.15730686 -0.060343094 -0.23255652 0.1037313 0.27511248 0.03874146 0.08522389 0.36448854 0.121642806 -0.26340407 -0.015565396 -0.41153765 -0.093707465 -0.3120111 0.6833491 -0.06645467 0.45730293 -0.05050033 0.09249194 0.7398656 -0.053376317 0.36657068 0.28480917 -0.08242345 0.074270666 0.62708646 -0.05693968 -0.17560901 -0.21617414 -0.11178827 0.6282637 0.1662695 0.05324742 0.060581088 0.22397617 0.29431412 0.12772693 0.09164774 0.09036193 0.12752748 -0.33752754 -0.47854942 -0.0071527045 -0.026108049 0.0715629 -0.54668295 -0.15608686 0.30958825 -0.15136535 0.15390366 -0.06381317 0.19392744 -0.70131916 0.21714897 0.111637786 -0.34485668 0.010525759 0.31766912 -0.35082936 0.16860558 -0.2532709 -0.27336422 -0.12086533 0.2635612 0.30078906 0.3622285 0.23353258 -0.5797657 -0.008063905 0.17855652 0.22107117 0.32236513 0.14172538 0.43095568 0.010341969 -0.26132965 -0.38060826 0.4189799 0.56099087 -0.107208595 -0.13478819 -0.18232447 -0.09694261 0.43730816 0.03250571 0.27543253 -0.041237637 0.13984698 -0.058113288 0.1713767 -0.22873332 0.031886853
686 0.028212724 -0.18502922 -0.30936676 -0.16537249 -0.22886077 0.33175638 0.0068925205 0.12571931 0.19796267 0.10843308 -0.14586952 -0.24224384 0.020315044 0.08148805 -0.0021858413 -0.17455561 0.3178348 0.24017636 0.014707971 0.06744368 0.27049264 -0.114645325 0.5181456 -0.51060444 0.26764497 0.01577371 0.3932267 0.26728415 0.16935182 -0.13801275 0.13603508 -0.17077294 0.19063719 -0.38858017 0.022086894 -0.09769744 0.010034836 -0.28817704 -0.16464722 -0.032254033 0.0049947514 -0.20359874 -0.0771216 -0.1477651 0.025056731 -0.23022375 -0.49189928 -0.61377466 -0.046407867 -0.3653332 0.5335368 0.16199881 -0.16280791 0.4061366 0.28056192 0.45975772 0.15958351 -0.22931162 0.26343623 -0.09900351 0.25919214 0.337242 0.1425326 -0.047824837 -0.21038827 -0.38349223 0.39527285 -0.04240345 0.2897547 -0.07124752 0.20746197 0.2990243 -0.23295005 -0.2446888 0.41722673 -0.024730561 -0.17358252 0.023569765 -0.44734174 0.28056827 -0.17180812 -0.63696104 -0.574119 0.31828797 0.35476503 -0.45598117 -0.24407275 -0.028936945 -0.64315474 -0.17727345 0.023732716 -0.14744669 0.020310923 0.4316514 -0.20930438 -0.008460009 -0.61561096 -0.45581216 -0.278228 0.18122914 0.0012879111 0.69508123 0.17334679 -0.4499409 0.06809325 0.24687178 -0.11648677 0.35695922 0.21472736 0.45558125 0.24590589 -0.151812 -0.2327608 0.2714284 0.65775913 -0.38163057 0.18010806 -0.10152765 -0.20732555 -0.064454 -0.09289348 0.45956135 -0.02600262 -0.0024073026 0.091316245 0.013628833 0.02871609 0.004920847
779 0.40365362 -0.41688916 -0.012797655 -0.20075664 -0.037909046 0.1646038 0.24233662 0.35242745 5.8782207e-06 0.62384427 -0.34886584 0.507682 -0.12111651 -0.14319113 0.21631154 -0.2654335 0.17795578 -0.12403752 -0.37080503 -0.14722663 -0.11831108 0.17377742 -0.0044287145 0.14384693 -0.0955357 0.06752828 0.17286947 0.16275759 0.27513906 0.038338866 0.48049033 -0.44093663 0.27846345 -0.15333864 0.2436483 0.3716963 0.2748374 -0.003383473 -0.0074509494 0.32877317 0.14656492 -0.24224557 0.38060406 0.8442952 0.05662797 0.060700767 -0.24370493 -0.30650237 0.19060926 -0.65051067 0.053001165 0.4772852 0.47519422 0.52679974 0.013820073 0.39602643 0.16139929 -0.019334704 -0.20010157 -0.118889414 -0.13447596 0.7069561 0.17242618 -0.4292292 0.3066771 0.10308975 0.27821052 0.16969153 -0.039720263 -0.17803076 -0.28505474 0.28648517 -0.42778108 -0.56837726 0.19741268 0.48840493 0.19131564 -0.22017096 0.2636754 -0.08813829 -0.046849735 -0.35549498 -0.20538947 0.15009783 -0.39122665 0.06838228 -0.142246 0.4381964 -0.15749566 0.24122399 -0.17818509 -0.027200818 -0.1174119 0.1800012 -0.12086733 0.18118885 0.18238665 0.0774671 0.32856968 0.18959334 0.18576726 0.41086063 0.19114594 0.18712279 0.3197838 -0.1139905 0.052801806 0.62172997 0.211275 -0.05116288 -0.60378563 -0.04951366 -0.13812329 -0.04414009 0.11763302 0.23916586 -0.28075668 -0.122981206 0.10196821 0.3114385 0.07315449 0.44111276 0.26612377 0.0013852613 0.42755967 0.14127496 0.15195493 -0.22515701
668 -0.15148404 -0.20645365 -0.19013056 -0.38992405 -0.19680177 0.108286224 -0.13178337 0.38019457 0.029433772 0.16689079 -0.017128516 -0.16465217 -0.16541949 0.0116230175 -0.11256672 -0.37066045 0.32302693 0.176801 0.009258868 0.16128647 0.07269801 -0.05076148 0.49248317 -0.6000188 0.28465188 0.1836778 0.09702166 0.31298134 0.16806628 0.06618037 0.22425945 -0.26572606 0.19290754 -0.24560536 0.10676987 -0.17160892 0.21449418 -0.11092722 -0.18065657 -0.16840892 -0.19288537 -0.22091077 -0.12954766 -0.3472255 0.23027085 -0.14894123 -0.5155205 -0.51866555 -0.09691231 -0.419295 0.51927054 0.14600757 -0.19309978 0.3325086 0.25054434 0.6034311 0.05390419 0.051615167 0.40091348 0.1613476 0.23519935 0.39098355 0.049389828 -0.05601511 -0.37790737 -0.2674637 0.25388616 0.03152712 0.238946 -0.13492742 -0.0116446735 0.3612968 -0.20495696 -0.2371159 0.40827462 0.1138695 -0.3499927 -0.15170975 -0.49398863 0.23734611 -0.24010725 -0.5054181 -0.40193164 0.29229376 0.30669594 -0.18984629 -0.25634626 -0.0030791026 -0.6451145 -0.1925275 -0.013522973 -0.15479404 -0.022295741 0.28058398 0.018231647 0.12582813 -0.53330845 -0.4481147 -0.3662218 0.1988347 0.13887516 0.7007614 0.06824277 -0.29574916 -0.058050297 0.24080887 -0.17011833 0.37189338 0.16936946 0.46141037 0.3297412 -0.19449042 -0.21304066 0.37612525 0.6125445 -0.16432594 -0.14607964 -0.31127456 -0.38667408 0.09377221 -0.12484135 0.38841358 0.09109457 0.042924263 0.073615916 0.0001136747 0.08348317 0.17900199
15 -0.046768207 -0.33159223 -0.11486297 -0.30008084 -0.22776817 0.26217386 -0.16456577 0.48061776 0.06015683 0.16518928 -0.094058916 -0.2874603 0.07452377 0.067298934 0.05186625 -0.1375654 0.31530792 0.119070075 -0.18487279 0.075056 0.24047652 0.09053259 0.63640255 -0.37390256 0.110993914 0.03703954 0.36148185 0.44372165 0.5148041 -0.17534186 -0.1302702 -0.19158103 0.57465243 -0.17009108 -0.06280317 -0.049742118 0.10164211 -0.3041999 0.04367458 -0.29785338 -0.107784085 -0.45021203 -0.19775431 -0.17190896 0.16571766 -0.115015164 -0.49259785 -0.33923212 -0.13812059 -0.39148822 0.11529308 0.19138269 -0.12517928 0.43802413 0.33416662 0.24460706 0.41092947 -0.037532967 0.06712953 0.0030589765 0.20877175 0.5073834 0.025160624 -0.015358861 -0.1578654 -0.19864558 0.09193397 -0.09264337 0.28426468 -0.2642266 -0.04850979 0.47755575 -0.5336906 -0.73839515 0.19223511 -0.17576572 0.03333942 -0.29963475 -0.5874715 0.5976656 -0.14119045 -0.265889 -0.355396 0.19148272 0.22845852 -0.3031588 -0.22294587 0.22263391 -0.38717207 -0.23085539 -0.012718044 -0.112656385 -0.10768248 0.11352736 -0.22994953 -0.03271561 -0.44733763 -0.31649953 -0.37161914 0.29943347 0.10711321 0.92763066 0.11721111 -0.20385082 -0.20941018 0.20899248 -0.10498379 0.49747658 0.14335547 0.3066737 0.063303545 -0.18907203 -0.11757562 -0.09752325 0.51999414 -0.25145277 0.13652167 -0.3837293 -0.4343507 0.0062550465 -0.097718 0.42644572 0.14886662 -0.043321732 0.25947422 -0.053637765 0.2933798 0.20262218
16 -0.15222192 -0.392775 -0.17378026 -0.21335648 -0.20808592 0.23720123 -0.23668353 0.41186014 0.056157663 0.042185478 -0.015605824 -0.24206215 0.1494238 0.24230096 0.032054998 -0.047837697 0.244613 0.24107948 -0.07029679 0.13177314 0.2611966 0.11134078 0.56123644 -0.3853932 0.22985394 0.012175521 0.3191319 0.5233841 0.21198754 -0.10295532 -0.079476126 -0.23586464 0.38178778 -0.13617706 -0.020789089 0.030164147 0.26771855 -0.29606745 0.02456263 -0.29501975 -0.13419043 -0.49865612 -0.14973599 -0.2903362 0.1145162 -0.17121565 -0.56120485 -0.33767352 0.02399695 -0.5292682 0.26361597 0.5020188 -0.13433248 0.25106063 0.20840849 0.34000942 0.39015764 0.087795556 0.17125215 -0.002752423 0.17324464 0.4738963 0.09974519 -0.033491034 -0.3250589 -0.11073231 0.15456332 -0.07161523 0.28936654 -0.2890183 -0.044203643 0.3180797 -0.6534243 -0.70225483 0.30558974 0.11546245 0.1629571 -0.13531823 -0.7118824 0.3105592 -0.2575826 -0.36885077 -0.39064896 0.26671234 0.2949472 -0.35612038 -0.4781923 0.21052822 -0.4204235 -0.17680748 -0.05194675 -0.16263127 -0.06489616 0.050209753 -0.03242432 0.066100515 -0.47331324 -0.27880552 -0.22302365 0.20308127 0.18752073 0.80482876 0.41871917 -0.19456798 -0.07291385 0.2663662 -0.0029374133 0.41767946 -0.030432897 0.2503954 0.21778078 -0.30847207 -0.18966635 -0.1275427 0.555962 -0.1497271 0.0134933535 -0.53655165 -0.27637786 0.018218828 -0.105082765 0.317658 0.0995817 -0.13688323 0.08710802 -0.23235665 0.14588016 0.2200344
674 0.027053153 -0.33018574 -0.16779892 -0.45577106 -0.15507556 -0.14509554 -0.051062513 0.40230203 -0.07934209 0.30466625 -0.10250412 -0.2408373 -0.21163127 0.26549143 -0.032437615 -0.37918854 0.3710334 0.17309017 0.005096139 0.063010946 0.023358611 -0.025740372 0.30340722 -0.53850186 0.077518895 0.15851927 -0.05625883 0.21907789 0.23783807 0.07503348 0.15801021 -0.29867998 0.28345317 -0.35885844 -0.13212837 0.012351686 0.12828161 -0.016583629 -0.037394438 -0.2752656 -0.11881013 -0.14300412 -0.041569997 -0.1772939 0.28904688 -0.24120988 -0.39987135 -0.41707924 -0.12751697 -0.5931236 0.39574516 0.10149763 -0.29685977 0.44366628 0.18502654 0.4714481 0.15397966 -0.05248973 0.32689565 0.045306664 0.3459768 0.46748862 0.12488175 0.05525788 -0.3814897 -0.23502587 0.3280704 -0.06315348 0.1117462 -0.16061154 -0.09706601 0.3264127 -0.47319788 -0.4409885 0.30472803 0.092989996 -0.18417808 -0.17563869 -0.7377552 0.2831277 -0.38786417 -0.46106246 -0.43380216 0.42102543 0.49591026 -0.33574733 -0.19477297 0.009758141 -0.44409895 -0.3684758 0.09813706 0.12426513 -0.03369772 0.056229457 -0.10128005 -0.10914617 -0.68531716 -0.27458635 -0.16389273 0.26227337 0.08739455 0.60495 -0.15944156 -0.10381469 -0.29430875 0.2550092 -0.06965421 0.3044482 0.046562348 0.3051367 0.13899267 -0.09768085 -0.29103002 0.22061601 0.30997306 -0.21486467 0.003877502 -0.345239 -0.22819878 0.07038874 -0.15714537 0.5637822 -0.08316385 -0.062119182 0.25833347 0.016143607 0.42564395 0.20441051
634 0.18156306 -0.17170453 0.094178766 -0.2776301 -0.07532544 0.21843906 -0.04925042 0.060450595 0.14918332 0.08745896 -0.08934208 -0.15177386 -0.15448202 0.07723296 0.031027809 -0.22896503 0.42533508 -0.05680126 -0.040054608 -0.13684577 0.18724458 0.092600696 0.45037356 -0.68609744 0.25413704 -0.024774663 0.16061096 0.3679586 0.2799068 0.05853196 0.03291822 0.087516144 0.34251934 -0.5566137 0.072561294 -0.07160378 0.14623412 -0.38664255 0.23388518 -0.32547832 -0.22030842 -0.41702744 -0.320106 -0.24334863 0.081216216 -0.22516702 -0.42722765 -0.5311337 -0.0358442 -0.67716706 0.26059982 0.3753287 -0.10162655 0.36894003 0.30310306 0.5148271 0.05738568 -0.1677135 0.04775621 -0.06616435 0.0678692 0.4403166 0.13589792 -0.06329259 -0.08605409 -0.26629004 0.3487691 -0.2569019 0.15501557 0.15103972 -0.34271353 0.35152707 -0.30957788 -0.2761224 0.42326015 -0.09371097 0.08368818 -0.2303819 -0.6615839 0.40251 -0.26651204 -0.31458953 -0.29694614 0.25972795 0.2495586 -0.3717959 -0.35266268 0.046413977 -0.4229856 -0.11767822 0.018726364 -0.0905049 -0.3307894 0.06219021 -0.055165883 -0.19384947 -0.63767755 -0.571395 -0.05433742 0.3256864 0.1959773 0.73175895 0.048831876 -0.16358608 -0.13108951 0.43958223 -0.20154788 0.555505 0.15343843 0.671957 0.13678522 -0.15225841 -0.092772596 0.11331068 0.37247562 -0.2966546 0.020099303 -0.027320726 -0.38982132 0.14048913 -0.24194206 0.31008548 -0.15618496 -0.36000994 0.120382234 -0.012557131 0.22682981 0.19225058
635 0.09682015 -0.20988305 -0.04902995 -0.17789184 -0.09700769 0.2755991 -0.08723745 0.12033081 0.036911536 0.11952721 -0.05006577 -0.19021986 -0.097239085 0.18502058 0.19528925 -0.025333421 0.2572509 0.06892041 -0.044103738 0.072569795 0.2361181 0.1459982 0.35442054 -0.6020981 0.27018768 0.05499281 0.21860097 0.44236025 0.11420942 -0.019306533 -0.016192859 -0.08025156 0.27537143 -0.37682548 -0.0036803118 -0.08284425 0.1823282 -0.18072066 0.06084128 -0.2708868 -0.18634951 -0.42582223 -0.2889708 -0.27627093 0.010677707 -0.30441326 -0.5098413 -0.3671809 0.00093081064 -0.6712637 0.41299877 0.54827994 -0.044681396 0.33986747 0.21895343 0.40267244 0.16310227 0.04715917 0.030719673 -0.22242469 0.08352788 0.3265912 0.14931256 0.021031516 -0.25455344 -0.21660848 0.32457662 -0.25083888 0.115820706 -0.14918257 -0.26750386 0.30600187 -0.45944974 -0.48440605 0.47582102 0.1394399 0.047548126 -0.34043404 -0.8158292 0.29492205 -0.26267475 -0.3810944 -0.38075727 0.29759032 0.3883123 -0.43739143 -0.560664 0.1872194 -0.37853068 -0.044713482 0.16301893 -0.23668222 -0.23844478 0.14088985 0.17549658 -0.06947519 -0.7196954 -0.4418024 0.102720454 0.2192939 0.26258716 0.7748181 0.3183689 -0.15821588 -0.14875552 0.2370892 -0.0347147 0.45672888 0.07758279 0.4767443 0.32473212 -0.13082018 -0.2914326 0.20089674 0.43306306 -0.11126897 -0.026789987 -0.14461543 -0.26995492 0.11412857 -0.042499814 0.22939828 0.008143882 -0.41927367 0.035244003 -0.21754329 0.062251262 0.16478102
703 0.093747206 -0.26548243 -0.24183573 -0.13645113 -0.12945582 0.27633598 0.055302966 0.3071409 0.16243961 0.18939559 -0.2392076 -0.21127912 0.009569519 0.118250325 0.23238353 -0.101896115 0.33479956 0.1301765 -0.04297883 0.0020324737 0.3113264 0.006955601 0.49509794 -0.37668017 0.24419092 0.074875906 0.4214253 0.22528274 0.36627454 -0.22716917 0.06641082 -0.19995037 0.45498183 -0.37365285 -0.010455021 -0.08160429 -0.12808098 -0.12808132 -0.14633723 -0.094310105 -0.01765266 -0.2860356 -0.280682 -0.0062936894 0.06689609 -0.19272172 -0.39555362 -0.43416858 0.026124543 -0.409762 0.34116614 0.16032521 -0.20469241 0.42511374 0.26840314 0.19290732 0.26203883 -0.32940915 0.0053143837 -0.089988515 0.27629516 0.26407036 0.19425492 -0.01803477 -0.038675364 -0.33646792 0.3415953 -0.23242089 0.2803756 -0.09710024 0.08273662 0.44377607 -0.40548107 -0.4659472 0.27358285 -0.13233525 -0.08091408 -0.2546195 -0.5569887 0.45003104 -0.1767667 -0.42971978 -0.53424585 0.17543627 0.44754812 -0.45071802 -0.20366907 0.0024915629 -0.5155741 -0.18091364 0.052322306 -0.14304437 -0.009009817 0.40670618 -0.30205262 -0.06292734 -0.59277916 -0.4513052 -0.19929507 0.30553383 0.11530125 0.87997353 -0.09617261 -0.23341417 -0.22053836 0.10856436 -0.14160176 0.46095973 0.20308131 0.39697552 0.13652869 -0.17298914 -0.18437187 0.13715044 0.48415187 -0.43468592 0.2881195 -0.014193241 -0.1436596 0.018775983 -0.013176086 0.5006825 0.06056357 -0.17691782 0.26244226 0.10054973 0.1396573 -0.037650082
633 0.15565242 -0.1770896 -0.048151996 -0.29116443 -0.09224427 0.15570226 -0.10017687 0.24697529 0.0379089 0.1881266 -0.10316844 -0.23653416 -0.14280654 0.004924126 0.09572834 -0.19808054 0.27636093 -0.12534684 -0.09952934 0.0065207426 0.17494181 0.14031313 0.4193093 -0.5663645 0.22782166 0.092515975 0.2296912 0.22942087 0.35438025 -0.08609765 0.038999654 -0.04699601 0.5135981 -0.398824 0.027206054 -0.11898514 0.07026462 -0.112107515 0.09816797 -0.2853223 -0.04586186 -0.39542487 -0.41977197 -0.17632447 0.15625241 -0.27674374 -0.37668958 -0.37007663 -0.07898842 -0.5982886 0.20477979 0.18047988 -0.08594662 0.49409363 0.34133244 0.37555304 0.16694337 -0.06896815 -0.029233502 -0.15811837 0.13769948 0.30251586 0.04870629 0.02232689 -0.14849061 -0.26444814 0.26447532 -0.22229058 0.18770853 -0.07619042 -0.25813124 0.46633157 -0.33030757 -0.5095875 0.34079856 -0.18988346 -0.08800823 -0.46206155 -0.6898049 0.5600219 -0.12016369 -0.27436474 -0.33140993 0.25249264 0.33053553 -0.32410708 -0.31885248 0.16568968 -0.42181632 -0.122715674 0.2341913 -0.14546144 -0.23878486 0.18172805 -0.057848282 -0.07127886 -0.6704479 -0.4351804 0.0059876335 0.32921493 0.14216593 0.87168247 -0.07501533 -0.22359158 -0.30222446 0.18624525 -0.11122992 0.4626184 0.22818264 0.49857086 0.19517684 0.0004192898 -0.22194928 0.20034409 0.42900905 -0.21291363 0.1262631 0.016282802 -0.40257907 0.107875936 -0.052788388 0.293903 0.04540231 -0.274078 0.20462221 0.048334904 0.22559258 0.21193181
205 -0.017290896 -0.19578405 -0.0584818 -0.2145845 -0.24608307 0.29780224 -0.038143143 0.2604776 -0.023961512 0.29971376 -0.04885853 0.07785057 -0.044689357 0.33405873 0.23827241 -0.08100277 0.23550104 0.2487832 -0.08514846 0.13137376 0.36705166 0.01561303 0.21610144 -0.4951947 0.033035934 0.057646252 0.09338265 0.4405693 0.29985616 -0.15136869 0.05797611 -0.270653 0.21428034 -0.35773766 -0.16171384 -0.1423569 0.122306325 -0.15619738 -0.09624818 -0.15209553 -0.25585115 -0.41337922 -0.09742466 -0.22900319 -0.019384861 -0.23506533 -0.56569034 -0.09968566 -0.1168994 -0.56372976 0.481376 0.4740139 -0.29653862 0.3521049 0.23660007 0.24826708 0.19704677 -0.018738355 0.059326716 -0.021889227 0.19858988 0.49358088 0.22732219 -0.03087902 -0.3901164 -0.19357991 0.29419336 -0.17120758 0.03953837 -0.17011514 0.0013688011 0.33757535 -0.52296954 -0.42157194 0.3912591 0.22483617 0.031787783 -0.28032815 -0.75252396 0.11715821 -0.42424366 -0.41686714 -0.458436 0.17457326 0.4880634 -0.22417212 -0.494702 0.19630103 -0.20223732 -0.23385659 -0.14623407 -0.26767632 -0.12447975 0.09886578 0.13939507 -0.15460342 -0.5425887 -0.38091183 -0.106792964 0.20264637 0.21535249 0.82315624 0.37799472 -0.04675273 -0.24715498 0.1986388 -0.12801619 0.45341465 0.07911177 0.37876543 0.36805442 -0.34999356 -0.31493166 -0.016642192 0.27974054 -0.10992946 -0.083814144 -0.22539152 -0.19447789 0.14937416 -0.14622843 0.32472807 -0.03168694 -0.33804142 0.2477363 -0.33605337 0.039307695 0.025611546
689 -0.14691061 -0.17901056 -0.15554482 -0.41013375 -0.323495 0.34729886 -0.17803322 0.22597812 0.23661534 0.060046855 -0.02328984 -0.07449102 0.06849395 0.07098815 -0.11024651 -0.3609342 0.4400385 0.14006525 -0.08454981 0.012971771 0.18037207 0.010938885 0.4891688 -0.752933 0.1303791 0.052729934 0.13848126 0.43086594 0.31107777 0.031946316 0.18037269 -0.075007536 0.20343831 -0.2956637 0.11101588 -0.17071632 0.19724645 -0.33347487 -0.087986924 -0.11863774 -0.2993064 -0.24203166 -0.18993273 -0.26733983 0.09720811 -0.14414725 -0.41264448 -0.4713898 -0.032214504 -0.42754176 0.4622728 0.13490632 -0.072352685 0.23400266 0.4190367 0.51874065 0.13774087 -0.028825529 0.1674921 0.10210709 0.17847554 0.54808027 0.025975646 -0.23989177 -0.15505879 -0.2879701 0.39619046 0.0011058613 0.21097773 0.1157423 -0.054288317 0.418858 -0.17653303 -0.13856338 0.35390446 -0.05053646 -0.11339702 -0.16146208 -0.38363153 0.30952328 -0.3573219 -0.51876926 -0.46079168 0.26932803 0.24466585 -0.1216831 -0.32294312 -0.011995994 -0.5628283 -0.23271742 -0.06513379 -0.1580563 -0.12957804 0.16255248 0.025758646 0.11139985 -0.48071757 -0.38759902 -0.31914684 0.22429821 0.096183494 0.7831184 0.21301596 -0.33209008 -0.094838776 0.3881191 -0.22389312 0.38746983 0.30699795 0.60018986 0.14699419 -0.306999 -0.08990092 0.19233729 0.6129913 -0.2661637 -0.02494917 -0.23584305 -0.3721869 0.029995825 -0.252745 0.36914545 -0.046286784 -0.15298462 0.1294019 -0.1296714 -0.026447594 0.14071162
312 -0.12900789 0.099274196 0.1070984 0.082995586 0.4373799 0.085070364 0.5543555 0.13880631 -0.022188982 0.38430056 -0.4118971 0.44367775 -0.49635395 -0.21714476 -0.22941966 0.035145383 0.30839753 -0.26015294 0.24334493 0.041649565 -0.1590021 -0.28204915 -0.14616032 -0.08992568 0.5626155 0.07640166 0.11587713 -0.27562428 -0.23349614 -0.31207958 -0.15033802 -0.044386987 0.27513194 -0.50889754 -0.18000136 0.48364967 0.655656 -0.3677698 0.05919692 -0.044944122 -0.4452261 -0.3036376 -0.2561311 0.04947866 0.40070316 0.12064007 0.0070003844 -0.32135105 -0.02857326 -0.020914884 0.1294259 0.41418266 -0.08774713 -0.09774505 -0.1613051 0.22462966 0.42402 0.021087132 0.014766061 -0.1334517 0.20496522 0.4566331 0.34701312 -0.020268181 0.3002581 -0.33724016 -0.022723425 0.2875483 -0.028183712 -0.21437642 -0.31933236 0.16687016 -0.2475058 -0.53173983 -0.1088712 0.5496988 -0.40403816 0.4976311 0.13214208 0.19683613 0.20595028 -0.3006839 -0.17639682 0.4260378 0.19870932 0.34377196 -0.28798667 0.105200306 -0.0050521167 -0.10168377 -0.25264898 0.5334134 -0.37322128 0.46767125 0.04139232 0.27614027 -0.2172443 -0.42132518 0.1437577 -0.108031936 0.2038165 0.6532097 0.32541487 -0.13709733 0.0069295117 -0.34825188 -0.36167145 0.115384854 -0.15036634 -0.14849159 -0.15762967 -0.062298063 -0.016900877 -0.35536638 0.458717 0.27991256 0.36335695 0.115276165 0.05794561 0.06279396 0.11728215 0.16394675 -0.28394207 -0.14623888 -0.039050873 -0.12881374 0.25267592 0.106123075
199 0.09446252 -0.17181666 -0.12204747 -0.14827652 -0.21562763 0.40658984 0.12388425 0.13102427 0.12045005 0.30997467 -0.16771828 -0.020659188 -0.06833304 0.24051788 0.25727832 -0.098832436 0.29238448 0.15748638 -0.06461286 -0.04137607 0.43556207 -0.13125838 0.40698788 -0.49848896 0.111447446 -0.07993022 0.3444343 0.34722188 0.38782868 -0.27137914 0.024795005 -0.22204232 0.23977593 -0.52648836 -0.13751507 -0.122031935 -0.09119394 -0.3410489 -0.07940988 -0.10744594 -0.08984681 -0.3477714 -0.09963475 -0.061653744 -0.09273553 -0.21600893 -0.5286431 -0.34300345 -0.12073144 -0.4415107 0.44935158 0.30623534 -0.3698935 0.46486142 0.2060422 0.21858935 0.13912603 -0.3807378 0.08353015 -0.095499374 0.2497697 0.4660939 0.25829378 -0.01358141 -0.20668283 -0.3982533 0.33669364 -0.20416734 0.15944949 -0.05759824 0.15556294 0.35854015 -0.33499816 -0.29689544 0.36036515 0.01881608 -0.026827376 -0.12390213 -0.5956196 0.23388118 -0.19548137 -0.455749 -0.486103 0.10995573 0.38843057 -0.3927724 -0.23917563 0.09109617 -0.32075298 -0.2329684 -0.20831077 -0.19501965 -0.03229538 0.29964146 -0.23085459 -0.25059107 -0.526513 -0.47115907 -0.25011408 0.24878798 0.11801633 0.77716666 0.2020084 -0.20818351 -0.10151158 0.24858436 -0.20859165 0.51667583 0.12985109 0.39261153 0.23192555 -0.31181076 -0.2847012 0.040487364 0.35459694 -0.37319443 0.12141919 -0.015797403 -0.17908014 0.068810396 -0.13673422 0.45489976 -0.07588972 -0.12236927 0.29807824 -0.07849341 0.07963928 -0.12404827
17 -0.1436179 -0.29511628 -0.045835212 -0.35447562 -0.16389921 0.2916096 -0.15352032 0.3531456 0.22873731 0.04849967 -0.028719684 -0.108278036 0.11554604 0.2095366 -0.10829702 -0.2070998 0.44524333 0.20243202 -0.054230426 -0.031878144 0.23676375 0.05620292 0.63443047 -0.50754327 0.19265883 -0.013211566 0.18996625 0.55473185 0.38494244 0.009513987 -0.016385637 -0.026111444 0.37992305 -0.27773416 0.03358834 -0.022218304 0.21998328 -0.4542051 0.1112092 -0.2605499 -0.30242005 -0.4197724 -0.11739701 -0.24693274 0.069012135 -0.10553867 -0.4854698 -0.44289875 -0.043492977 -0.49574387 0.21661122 0.3919486 -0.11206168 0.2037612 0.3501638 0.40193045 0.26664045 -0.09328279 0.16435313 0.12473675 0.10549767 0.5565489 0.0734001 -0.15678932 -0.09943822 -0.08433705 0.25808674 -0.0667618 0.23876855 0.019207124 -0.09757851 0.37023655 -0.4814464 -0.38342303 0.24239416 -0.09688413 0.20479031 -0.004905361 -0.52225834 0.33127022 -0.35218757 -0.32314384 -0.35278556 0.23537259 0.16335495 -0.28804687 -0.3403015 0.007403993 -0.41385826 -0.25370058 -0.17108066 -0.024800116 -0.1741404 -0.05839114 -0.16037378 -0.021963947 -0.40597147 -0.403554 -0.33818245 0.27079403 0.14489672 0.7222496 0.22355394 -0.14346324 -0.11913811 0.47916108 -0.1290563 0.5171684 0.064751945 0.47905448 0.07615494 -0.34039438 0.042070307 -0.15727945 0.46301097 -0.28151718 0.020832334 -0.4526952 -0.31580493 0.04301946 -0.3084836 0.43318313 -0.11889083 -0.1551796 0.13469154 -0.1508389 0.22548233 0.21768455
698 0.009754612 -0.3621002 -0.27359137 -0.35903826 -0.3218465 0.15722412 -0.13744442 0.19647583 -0.010203556 0.1343594 -0.024263237 -0.20066987 0.1154261 0.4300884 0.06262979 -0.17473744 0.2542704 0.26727453 -0.10999493 0.208389 0.14580345 0.030317517 0.2034688 -0.42843485 0.033384465 0.11846382 0.060821023 0.27202564 0.12496255 -0.04546276 0.11581986 -0.22337681 0.24102992 -0.33419186 -0.23909003 0.10048853 0.20969293 -0.124501094 -0.0047376505 -0.16436358 -0.051548384 -0.22490773 0.012822981 -0.14155234 0.11981292 -0.35727862 -0.4181781 -0.3156363 -0.01836354 -0.64201134 0.44763714 0.2937594 -0.13842501 0.29984662 0.25569668 0.37857333 0.33494082 0.10260626 0.1089347 -0.14703162 0.31733885 0.53749067 0.19481364 0.03126639 -0.3874533 -0.16767348 0.4243803 -0.08395752 0.06615374 -0.17845698 0.004254636 0.3073526 -0.6211181 -0.5698771 0.29925466 0.19966991 0.068549246 -0.21281481 -0.7735318 0.19104144 -0.524289 -0.5559749 -0.5364956 0.45614314 0.5106852 -0.3478555 -0.43364352 0.16846466 -0.3771985 -0.20172554 0.18524848 0.03513655 -0.10735356 0.065008596 0.023829913 -0.088436946 -0.6803391 -0.1816993 -0.0028366998 0.15332365 0.08125487 0.6507141 0.33315736 -0.21150696 -0.19427069 0.27254814 0.07255406 0.2829447 0.01333461 0.2959482 0.21705389 -0.24591613 -0.30594608 0.010497583 0.43023667 -0.19998229 0.19625552 -0.37239203 -0.046327237 -0.0044389023 -0.15404071 0.39269873 -0.09854488 -0.31431407 0.20813042 -0.28832015 0.22859704 0.21852069
690 -0.12560494 -0.18660328 -0.3010532 -0.2833414 -0.25995916 0.36946255 -0.17222977 0.21712074 0.11941022 0.07151196 0.02239882 -0.1237236 0.090123214 0.15902567 0.004183728 -0.16055128 0.21824887 0.2214521 -0.03788314 0.24304785 0.19778419 0.060612813 0.38642272 -0.5706432 0.2332063 0.1164042 0.17705955 0.38312918 0.11169989 -0.04277734 0.13204145 -0.19299886 0.18276942 -0.236348 0.037816014 -0.11538103 0.22564965 -0.16275632 -0.18798825 -0.031688754 -0.14030519 -0.30881587 -0.13918567 -0.2701684 0.04449805 -0.2731422 -0.4774995 -0.31545165 0.03157447 -0.4729097 0.553039 0.31679457 -0.016979245 0.21635672 0.28470013 0.453783 0.18748017 0.1928412 0.1666659 -0.07771516 0.19118172 0.38413 0.07871747 -0.07074106 -0.3710163 -0.19426881 0.3767602 -0.04406985 0.14691734 -0.18468995 0.01632284 0.32350278 -0.3351975 -0.3518643 0.42679268 0.19412889 -0.12710734 -0.22803558 -0.61213213 0.23764826 -0.33478513 -0.56719315 -0.470664 0.36339936 0.3743205 -0.21546091 -0.534859 0.14735816 -0.5443421 -0.06480272 0.1374137 -0.25555778 -0.10195004 0.23119831 0.17998785 0.11616328 -0.58822316 -0.31571326 -0.08721794 0.11597515 0.1286854 0.7609995 0.46790045 -0.3463468 -0.0578345 0.2235119 -0.0043431516 0.305102 0.15303044 0.46147266 0.39731917 -0.2547318 -0.2758104 0.28464985 0.660424 -0.09826342 0.03277634 -0.28547302 -0.2178322 0.017032238 -0.10024492 0.25117937 0.04777249 -0.22207205 0.026072418 -0.26863965 -0.11501748 0.18025254
705 0.054608062 -0.30346483 -0.32117778 -0.043022122 -0.13822278 0.42427617 0.07477457 0.13035873 0.17229201 0.08718557 -0.16369127 -0.13416 0.10858468 0.3118096 0.28282744 0.061096717 0.29023117 0.33536866 0.03434259 0.082794905 0.36988148 0.051675346 0.41703448 -0.34258035 0.30991817 0.081514776 0.40687773 0.39881858 0.08487324 -0.15695235 0.07395581 -0.24009988 0.2653288 -0.33969918 0.012879984 -0.031849585 0.018793236 -0.19598553 -0.18954182 -0.05397147 -0.08302763 -0.33068138 -0.13401794 -0.0977246 -0.08060368 -0.26930648 -0.53659964 -0.41493455 0.13378137 -0.50907505 0.53597856 0.508202 -0.19668339 0.27787763 0.14179526 0.2899787 0.2503198 -0.15243185 0.09190289 -0.12800542 0.22927208 0.28234467 0.3176978 -0.0029961206 -0.2085056 -0.22123587 0.3942589 -0.25670895 0.19569446 -0.17763126 0.09129442 0.26681778 -0.5509635 -0.43407676 0.38707516 0.16553342 0.08671722 -0.09211902 -0.6851792 0.17142807 -0.3659799 -0.5845732 -0.57694757 0.23429817 0.46495852 -0.5412068 -0.49668226 0.053706232 -0.50869626 -0.05884868 0.02586476 -0.24541737 -0.019258041 0.34134254 -0.054777764 -0.032713532 -0.6282338 -0.45252636 -0.06484419 0.18443602 0.20879747 0.7484677 0.33841482 -0.17317146 -0.041837245 0.14628518 0.005134877 0.42766643 0.020976257 0.38092023 0.35183522 -0.3280086 -0.23398405 0.12353618 0.4958406 -0.33814445 0.18219167 -0.17414962 0.044829648 -0.010734082 -0.0555443 0.38306817 0.01459439 -0.36218536 0.09535231 -0.163455 -0.035501137 -0.033759456
14 -0.060764 -0.35642815 -0.08269482 -0.3183276 -0.34168896 0.26235703 -0.17440607 0.41854116 0.1057122 0.16319868 -0.001686935 -0.26663595 0.044429585 0.18907842 -0.07059547 -0.06840523 0.2970388 0.09578749 -0.22779593 -0.034869544 0.16372168 0.06657247 0.7253135 -0.30463833 0.14377394 -0.09165332 0.39509904 0.5093499 0.24052912 -0.16359338 -0.024775455 -0.17953709 0.2673319 -0.22558875 -0.12836641 -0.011225858 0.020274227 -0.38064596 0.17435737 -0.29421908 -0.20911509 -0.42956606 -0.12837921 -0.28965026 0.25170088 -0.12505321 -0.47861654 -0.48580667 -0.16552904 -0.44422832 0.16165127 0.29589066 -0.16981153 0.30497977 0.27201295 0.28094718 0.16370022 -0.08444221 0.106565796 -0.0515871 0.153059 0.50951785 0.14560257 0.009546047 -0.29354757 -0.3308618 0.05498905 0.010435744 0.26510128 -0.21908924 -0.04427067 0.36811754 -0.5517842 -0.548411 0.31226307 0.08327995 -0.05763523 -0.09518266 -0.7190306 0.4167561 -0.13577262 -0.3271934 -0.29341266 0.22016867 0.35412073 -0.29093227 -0.20168516 0.26028162 -0.35442758 -0.10989193 -0.101305306 -0.024868112 -0.0846141 0.101063356 -0.18513523 0.044704903 -0.3987561 -0.4828088 -0.36014295 0.18927492 0.024136886 0.7536642 0.20955323 -0.25075692 -0.16059685 0.47522518 -0.18043889 0.5401146 0.021356286 0.3987966 -0.06476049 -0.12202057 -0.21558842 -0.019604495 0.50327003 -0.18065616 0.06361575 -0.6343312 -0.3972817 -0.049670454 -0.10290324 0.39982107 0.061431054 0.07847299 0.08223288 -0.13103947 0.266164 0.18090662
55 -0.24393785 -0.03587789 -0.22372381 -0.3890644 -0.35530275 0.39195693 -0.0410008 0.15163781 0.14104053 -0.0029855776 0.032596167 -0.09873486 0.009496824 -0.095774814 -0.19936521 -0.20119083 0.10883011 0.084218234 0.053418104 0.26783398 0.117873944 -0.026995027 0.40447542 -0.60406375 0.24863377 0.11334793 0.0033627634 0.13338019 0.3080354 -0.030813435 0.30431864 -0.17764084 0.10421329 -0.31129473 0.07330224 -0.09921156 0.21101744 -0.22920503 -0.19812551 0.07369512 0.13932739 -0.17267978 -0.105388366 -0.13811861 0.054595012 -0.33900097 -0.2806362 -0.40497574 -0.118742995 -0.2803222 0.56627595 0.032661524 0.19181858 0.13671458 0.25813994 0.6462111 0.043376163 0.17253634 0.23056303 -0.08050357 0.18107614 0.39773476 -0.08754976 -0.094769105 -0.25037485 -0.23075394 0.53203267 0.11356729 0.1319032 -0.015143421 0.16312228 0.28066492 0.07737616 0.008693013 0.38526002 -0.018112669 -0.32659867 -0.3186223 -0.23833604 0.18677698 -0.11214718 -0.5290932 -0.37832403 0.38179708 0.14526904 -0.03046504 -0.19951044 0.092735566 -0.6658878 0.023549326 0.2143935 -0.28870016 -0.064191535 0.36833924 -0.059627205 0.16831538 -0.4477373 -0.33415568 -0.20887809 0.19703053 0.11371401 0.5587613 0.3006125 -0.66142684 0.04827968 0.23155494 0.10411372 0.25574088 0.2553522 0.5946806 0.33699828 -0.22897173 -0.2854527 0.41519904 0.69536704 -0.15013932 0.04816606 -0.12792829 -0.29625392 0.21781805 -0.07986462 0.22195467 -0.014488636 0.052606333 -0.06920733 -0.0575337 -0.14635189 0.120891795
631 0.079137415 -0.2992931 -0.047527015 -0.2931028 -0.013997096 0.15014656 -0.16368549 0.11034224 0.09212344 0.16069087 0.10354991 -0.27274886 -0.20580815 0.02870141 0.24451062 -0.21395697 0.21737732 -0.103767335 0.024162484 -0.038552545 0.19270757 -0.013637003 0.5379767 -0.7450198 0.22770298 -0.018453665 0.14830129 0.38438103 0.21187599 0.018674899 -0.20079349 -0.027242066 0.14880227 -0.5991981 0.049981672 -0.042904284 0.14432701 -0.21677588 0.018125884 -0.28477502 -0.24505037 -0.33563715 -0.37043703 -0.24269943 0.14230418 -0.30679172 -0.4194725 -0.42877474 0.027983801 -0.6905706 0.48468265 0.45814663 0.051622245 0.33961904 0.20017564 0.3563245 0.04394297 -0.11613038 0.10598749 -0.21711878 0.088522494 0.35081482 0.009710061 -0.094844855 -0.10736225 -0.29169607 0.25750107 -0.24709761 0.27690315 0.045279015 -0.36547852 0.36350372 -0.25727952 -0.42380694 0.39764196 0.18723305 -0.042244297 -0.33276784 -0.77652234 0.33126205 0.04076426 -0.28696975 -0.24667048 0.21941392 0.4928199 -0.4850492 -0.35332632 0.052585904 -0.43048382 -0.101979986 0.088577226 -0.11872027 -0.17701353 0.1511917 -0.011360104 -0.10147497 -0.786278 -0.30830118 -0.02899665 0.17479429 0.21805601 0.7871295 0.21458475 -0.1149133 -0.079150766 0.2854386 -0.23965068 0.5178139 0.031263303 0.50953585 0.07667242 -0.09621841 -0.28208926 0.20107399 0.46390098 -0.16085304 -0.0043075494 -0.04274836 -0.33203375 0.09446403 -0.091899015 0.26431912 0.015934668 -0.14490037 0.12590007 -0.004336626 0.12555064 0.10797117
675 -0.044694237 -0.29290754 -0.09519491 -0.21379203 -0.1182946 0.06810146 -0.07609292 0.49327195 -0.01101421 0.16768628 -0.077378556 -0.07896984 -0.11613425 0.2717785 0.11064961 -0.11300259 0.35565802 0.3377494 0.03140582 0.15644689 0.1571717 0.11237166 0.3659368 -0.39882246 0.27156442 0.26500303 0.09155967 0.42244482 0.06576044 0.056364603 0.18992378 -0.32521 0.18800703 -0.12594508 0.045267105 -0.11228715 0.14320531 0.100823596 -0.1830773 -0.15767404 -0.3678349 -0.29047287 -0.16538692 -0.34422055 0.18486303 -0.12115586 -0.5483056 -0.3561223 0.051632527 -0.50895816 0.49644643 0.4421546 -0.22307727 0.2532003 0.1543468 0.38055512 0.11485032 0.030072397 0.2738006 0.17731526 0.19973059 0.20726714 0.25343135 -0.017654736 -0.3634926 -0.1457417 0.23310146 -0.10724686 0.14901924 -0.2494196 -0.12305594 0.3083042 -0.5775684 -0.38937992 0.42074618 0.31502405 -0.1504724 -0.21569553 -0.75731534 0.13819905 -0.4435831 -0.47809333 -0.4517465 0.21368876 0.5345583 -0.32610977 -0.50387245 0.011097855 -0.4840551 -0.17940035 -0.04124176 -0.21413633 -0.03398535 0.20009229 0.17483197 0.12788334 -0.5388389 -0.48928377 -0.15520376 0.21841246 0.26078066 0.7569419 0.11540094 0.040321816 -0.26325822 0.14630888 -0.12072225 0.40656525 0.0038534994 0.40583655 0.33547002 -0.19851883 -0.19091892 0.25024813 0.38866144 -0.11592778 -0.20796312 -0.46258458 -0.18860936 0.11283335 -0.019803118 0.38577777 0.119352415 -0.27107865 0.023293454 -0.18946068 0.071531765 0.09003099
744 0.45310688 -0.53219354 0.06284737 -0.22617686 0.115552396 -0.0728255 0.3646984 0.6673439 -0.102068014 0.29999435 -0.5472367 0.37443173 -0.14050518 -0.11898195 -0.20791568 -0.21132842 0.09314286 -0.17545417 -0.15464646 -0.16702597 -0.09721364 0.20298615 -0.09190017 0.027181398 -0.117219046 0.054036956 0.10043807 0.032855473 0.24697126 0.21956165 0.5723866 -0.3838244 0.22052939 -0.17431802 0.3396384 0.6871662 0.47073716 -0.16045511 -0.051010452 0.15716831 0.2565851 -0.43627772 0.15742283 0.70815563 0.213208 0.13250728 -0.044585865 -0.22968286 0.22939496 -0.39873648 0.1449731 0.3570015 0.18628871 0.5439837 -0.11940341 0.8111339 0.15088317 0.079542994 0.19935802 0.16578723 -0.12189759 0.6770245 0.13392909 -0.38970298 0.29386482 0.10228631 0.24574646 0.3529621 0.19238614 0.11449889 -0.119743094 0.04254213 -0.38817123 -0.39693812 0.056602605 0.46128225 0.08289827 -0.14179958 0.41725582 -0.28375393 0.09978122 -0.37602636 0.05561182 0.25241637 -0.2605326 0.24690537 -0.09715719 0.34455636 -0.42414042 0.119633764 -0.49521592 -0.0876283 -0.07768517 0.12144817 -0.4034556 0.26329598 0.1724551 -0.026453855 0.22265416 0.26062664 0.13710812 0.4145646 0.07660383 0.08867548 0.20988613 0.059616305 -0.21455032 0.3522863 0.08228774 0.065850556 -0.50192225 -0.08443348 -0.34697914 -0.18681642 0.1639156 0.0342403 -0.32181707 -0.09704531 -0.07402746 0.17396978 -0.22418226 0.39111272 0.2005774 0.21582833 0.26173887 0.29633373 0.23540573 -0.30260086
669 0.030503951 -0.31641108 -0.22800271 -0.17173168 -0.03011993 0.0730208 0.09924597 0.36829636 0.053165436 0.26679197 -0.22534055 -0.25251615 -0.21711722 0.16488571 0.142645 -0.19730693 0.4360403 0.2762637 0.104779996 -0.01556455 0.20331033 -0.078397185 0.47280088 -0.4904026 0.3046322 0.12050962 0.28186053 0.3335744 0.1496651 -0.015751004 0.117958225 -0.3441836 0.27221423 -0.33443448 0.089703724 -0.061208338 -0.04031321 -0.084586486 -0.19173154 -0.24021941 -0.15967609 -0.23641253 -0.10918881 -0.1364826 0.13402775 -0.14850922 -0.5158765 -0.5637948 -0.005542676 -0.45819196 0.47055382 0.2916006 -0.3827942 0.42667624 0.061800957 0.40453324 0.11701196 -0.30747 0.36434138 0.08073807 0.26749563 0.2953885 0.23811638 0.018311922 -0.24336977 -0.2983525 0.24285066 -0.15389691 0.27601898 -0.1668748 -0.01617604 0.2614619 -0.4134625 -0.37306234 0.35477224 0.09903338 -0.17232983 0.010424113 -0.6356024 0.2255847 -0.23061949 -0.48263374 -0.51259243 0.21410185 0.49393925 -0.553052 -0.20663543 -0.11072064 -0.57094014 -0.30347496 -0.09591738 -0.104299456 0.08921249 0.34492156 -0.19497709 -0.0654535 -0.6336299 -0.503608 -0.2916943 0.26993868 0.17821579 0.68679607 -0.1623805 -0.09732193 -0.09918262 0.14813235 -0.19306155 0.43625605 0.052992094 0.3118224 0.20025778 -0.17819396 -0.23078315 0.25660062 0.37680802 -0.33255866 -0.0045990264 -0.20596233 -0.15952483 0.03175521 -0.056486946 0.5954984 0.02190121 -0.049133845 0.18436418 0.13729042 0.2046445 -0.027085818
11 -0.069716215 -0.37643582 -0.16652444 -0.3806099 -0.09907825 0.32035875 0.007140584 0.42971048 0.008808368 0.111226566 -0.21932204 -0.1076174 0.10329837 0.21110766 -0.0885806 -0.22582348 0.3487528 0.043922666 -0.12212028 0.1763036 0.10548682 0.08177961 0.6556542 -0.31822956 0.27547616 -0.06889812 0.4104848 0.62204444 0.41945463 -0.107553855 -0.122368835 -0.06445099 0.33151224 -0.12892544 -0.10556181 0.03753698 0.25266632 -0.5149108 0.030270565 -0.18821889 -0.24737057 -0.46039245 -0.010471255 -0.2608601 0.09164752 -0.13296947 -0.5807478 -0.4073445 -0.17173496 -0.36108127 0.15142088 0.43719786 -0.12236064 0.49860883 0.18349488 0.32680258 0.23126763 0.0052010054 0.0910387 -0.115749 0.13101947 0.55126965 0.01979254 -0.0040272605 0.0462906 -0.17497708 0.2901027 -0.0009384016 0.12561932 -0.31027123 -0.15219824 0.4090095 -0.4451466 -0.61551005 0.41669735 -0.0052739833 0.092640124 -0.12991144 -0.66943806 0.43457982 -0.31093374 -0.29238316 -0.3674089 0.39258638 0.12690794 -0.32702807 -0.16560733 0.07594552 -0.37568057 -0.096887246 -0.07189487 -0.02761581 -0.17350285 0.053914085 -0.06548381 -0.018832467 -0.4170446 -0.314301 -0.3563798 0.17039607 0.19893166 0.782059 0.40610817 -0.13812879 -0.13481241 0.4299551 -0.07273608 0.5865515 0.12391519 0.4010795 0.11682635 -0.2621213 -0.256639 0.21163192 0.51380676 -0.27518824 0.15654004 -0.54353577 -0.35288262 -0.08719847 -0.19614153 0.52186203 0.11367941 0.076375544 0.08539278 -0.13808098 0.42831606 0.17997871
8 -0.07487278 -0.42005888 -0.24778956 -0.4863662 -0.2430287 0.10596029 -0.165299 0.34500054 -0.027196467 0.18287449 -0.06321404 -0.25071418 0.09398525 0.31429127 -0.069559544 -0.24786256 0.28861696 0.13758919 -0.087722816 0.11052838 0.14512041 0.022581747 0.4547485 -0.4617469 0.09497214 -0.014205231 0.1383073 0.37731224 0.3548631 -0.069979444 -0.013517275 -0.20496483 0.4196193 -0.30439007 -0.2451081 0.12160147 0.25360996 -0.33718213 0.11193486 -0.31560856 0.0036462236 -0.2956172 0.011795339 -0.119734615 0.16817644 -0.29617086 -0.45373815 -0.4090047 -0.11311519 -0.5911203 0.23434862 0.26553875 -0.17212239 0.3999952 0.2564631 0.41930884 0.3901155 0.031111736 0.19770087 -0.12541133 0.30287176 0.6483748 0.025850885 0.0255897 -0.2964178 -0.14121939 0.34765258 -0.020711027 0.17052017 -0.19117357 -0.0051669204 0.37887603 -0.57598263 -0.6917161 0.23550022 -0.04640717 0.12641539 -0.13283998 -0.72372377 0.36921808 -0.32094827 -0.42312407 -0.41565472 0.47254124 0.24502194 -0.33738148 -0.2549207 0.15000187 -0.39443922 -0.29576495 0.060427707 0.1286706 -0.087757565 -0.07596413 -0.21249217 -0.119652316 -0.56109136 -0.14642978 -0.19874945 0.21773408 0.075201504 0.63446033 0.26633802 -0.27234375 -0.16803917 0.37213898 0.052018203 0.38742378 0.023228839 0.20995316 0.07210579 -0.25144285 -0.2950677 -0.06509087 0.456546 -0.24110168 0.14978208 -0.46876842 -0.23491132 -0.004078541 -0.21924406 0.4915189 -0.09197419 -0.026329601 0.26791495 -0.123421006 0.42755002 0.3053315
198 -0.07299594 -0.041296907 -0.0516587 -0.32355425 -0.31762052 0.35616025 -0.061420504 0.28315955 0.05503758 0.29287627 -0.029836686 0.07191637 -0.048409708 0.101492584 -0.020754306 -0.22719257 0.20081437 0.10727374 -0.09108749 0.14104141 0.30959484 -0.05618216 0.3733765 -0.61267996 0.0298217 -0.057558633 0.097753845 0.333493 0.47305092 -0.20706724 0.083898515 -0.18239829 0.14592873 -0.39194137 -0.14536116 -0.19906208 0.1456688 -0.30474916 -0.1287079 0.018887285 -0.13170193 -0.34984776 -0.0946609 -0.24383965 -0.0102467695 -0.22028527 -0.5233806 -0.20421238 -0.24754906 -0.35192236 0.4965308 0.1793071 -0.16660348 0.44511268 0.36792973 0.36166146 0.1178101 -0.03685254 0.19345291 -0.06889799 0.2381782 0.5399068 0.035560723 -0.10587193 -0.32717618 -0.33796486 0.405188 0.035886403 0.0912713 -0.13590036 0.12019158 0.40504834 -0.19011873 -0.25444564 0.4416709 0.037816014 -0.22991058 -0.28358203 -0.52635527 0.24845223 -0.20889173 -0.45373735 -0.4285783 0.20870534 0.30282477 -0.06888359 -0.2998259 0.20007642 -0.3165878 -0.25590965 -0.0847104 -0.26195207 -0.076388754 0.20918812 -0.003139196 -0.05314994 -0.4511255 -0.34989095 -0.25743908 0.19598825 0.07548256 0.8508933 0.40009138 -0.36841974 -0.14240292 0.2542457 -0.15535021 0.41575843 0.2621763 0.5027659 0.30887643 -0.23322922 -0.31983793 0.17213272 0.5136319 -0.1312783 -0.061825916 -0.17475305 -0.41736022 0.14602119 -0.14462294 0.3523067 -0.018839395 -0.0031362535 0.20295736 -0.24652591 -0.0017168564 0.049110174
