881 128
126 0.1318917 0.12583862 0.5415259 -0.024766263 -0.31181678 -0.0027810205 0.502947 -0.2948556 -0.69245356 -0.3550056 -0.14546254 0.046623334 0.19124295 0.14486235 -0.20352387 0.2872837 0.20946072 0.24199407 -0.06321859 -0.17989372 0.16673006 0.42296225 -0.25288215 -0.46226674 0.08034 0.21450444 -0.07703895 0.19799574 -0.51997155 -0.35875493 0.36045608 -0.12101979 0.11029025 0.025579402 0.38808978 -0.10459884 0.11509508 -0.007388447 -0.023791404 0.3617053 0.048164282 -0.103943355 -1.0515091 -0.12871465 0.67699546 -0.30504876 0.37707365 0.106241725 0.035874464 -0.292066 0.016736943 -0.08726668 -0.018233502 -0.34445608 -0.09017553 -0.049349546 0.48909792 0.43904692 0.16887344 -0.6664735 -0.14797994 0.5070743 0.41513827 -0.1774409 -0.07226895 -0.45731995 -0.36071223 -0.29052392 0.35572785 -0.5193828 -0.21506071 0.18843505 0.13569227 0.17487937 0.40437046 -0.49005622 0.11644534 -0.29889944 0.27063158 -0.30308804 0.107973576 -0.009043111 0.1478077 0.04777605 -0.19365002 -0.48900047 -0.08194037 -0.15004927 0.04033907 -0.38373625 0.3519553 -0.15044749 -0.4630705 0.43235052 0.04814478 0.06342004 0.1458514 -0.4982524 -0.077783115 -0.16268149 0.45943022 -0.16953337 -0.61309195 -0.5362465 -0.33186626 -0.50266767 -0.2370842 0.34283915 0.14565843 -0.18918759 -0.3366441 0.3883754 0.10522287 0.1327958 -0.3593568 -0.26247984 -0.07429821 -0.09335635 0.25446463 0.30116975 0.24927719 -0.42156464 -0.07845509 -0.31545952 0.34456086 0.47853357 -0.12163906 0.45395926
71 -0.03495205 -0.045791186 0.69057727 0.40017855 0.14364125 -0.71556145 0.5052647 -0.28266755 -0.25803208 -0.14725237 -0.6645504 -0.36363083 0.46704677 -0.5347224 -0.14926288 -0.677262 0.15291479 0.1015121 0.26984024 -0.19477494 -0.44590935 -0.19907883 0.34682405 0.12482469 -0.10345187 0.09914521 0.00915054 0.13796256 -0.15155913 -0.03683692 -0.07135223 -0.32995573 0.28486797 0.3190882 0.3287111 -0.11194533 -0.0690198 -0.0657335 0.06634224 0.19724885 -0.39656192 -0.043627013 0.057699528 -0.3806809 0.3885984 -0.36283204 -0.3004186 0.15343483 0.3203346 -0.1640417 -0.06838451 -0.49027303 0.07667645 0.1875668 0.15242779 0.21920983 0.42615017 0.49966604 0.44714332 -0.08737959 0.31867048 0.77910507 0.4777824 -0.048860963 0.845712 -0.06405706 0.29940403 -0.5357904 -0.31902325 0.10788816 0.44982255 -0.27618644 -0.2129327 0.2375256 0.07663691 -0.5134517 -0.24965137 -0.7662236 0.13951392 -0.19397181 0.009060898 -0.11243686 0.0543951 0.41757542 -0.42170358 -0.059633527 0.93811655 0.36507484 -0.23153712 -0.70850176 0.15301213 0.14077052 0.4281485 -0.16437712 0.12138153 0.14232685 -0.096875064 -0.102906935 -0.5289557 -0.27789554 0.54788715 -0.28394666 -0.25415295 -0.3111328 0.5087439 -0.5036202 -0.6040522 0.19185409 -0.22946738 -0.16838211 -0.4078902 0.51730794 0.048541773 0.16786093 -0.68386143 -0.31207398 -0.1338935 0.01728097 -0.263149 -0.35878807 0.24684553 0.17420423 0.31365356 0.00700721 0.064859584 -0.26966697 0.35238412 0.26151264
57 0.09102287 0.28411824 0.510063 2.3794651e-05 -0.12732235 -0.26744556 0.30475876 -0.630499 -0.39271274 -0.21379974 -0.8919116 -0.12890203 0.20022497 -0.2666246 -0.30048117 -0.5660535 -0.073691405 0.08107152 0.030578386 -0.071549214 -0.15591988 -0.17182519 0.20256153 -0.1679695 0.050601542 0.43872 0.13863751 0.0114644505 -0.23276256 -0.24907759 0.07613773 -0.2439447 0.13786186 -0.22476988 0.29334286 0.08231499 -0.17040381 0.08559194 0.00047596768 0.07072823 -0.29435202 -0.21068381 -0.24201003 -0.0645556 0.31636354 -0.23328245 -0.13929524 -0.024855549 0.30949378 -0.0128461495 -0.41658026 -0.34991786 -0.015424447 -0.146937 -0.039947767 -0.0830701 0.47537777 0.12834683 -0.3115133 -0.044404764 0.27099726 0.45865855 0.2929449 0.15957227 0.745627 -0.22049427 0.16664585 -0.41058528 -0.04818533 0.0839201 0.2642383 -0.25522703 -0.07564311 0.27296212 0.2204016 -0.04026314 -0.27882394 -0.406953 0.40047428 -0.026060354 0.13612516 -0.15571195 0.0566606 0.2996631 -0.39699197 -0.5179371 0.42292377 0.023921888 -0.35257688 -0.9472295 0.1601711 -0.067267075 0.34326327 -0.10228796 -0.09383911 -0.13511221 0.10478796 -0.6301643 -0.2044641 -0.050861567 0.5442486 0.10536977 -0.030460477 -0.38216728 0.30472153 -1.0176378 -0.63944274 0.1350757 -0.24266948 -0.25518915 -0.22995318 -0.093675844 -0.15246789 0.26447597 -0.48242086 -0.56828374 -0.1809464 0.471376 0.073529735 -0.03369111 0.45235795 -0.4302549 0.18963069 -0.14402813 0.24868958 -0.70100456 0.2403276 0.27358833
129 0.13242532 0.20524567 0.27633214 -0.09434665 0.030805113 -0.13639446 0.4783574 -0.24221188 -0.7794065 -0.47321346 -0.24160317 -0.045223214 0.15033816 0.17766541 -0.25180128 0.18881816 0.3479607 0.1864082 -0.29048645 -0.38751385 -0.19272545 0.31692243 -0.46378303 -0.37471178 0.018154673 0.097228736 0.1628379 0.13702466 -0.6385308 -0.3829591 0.69229674 -0.28800377 0.10650732 -0.20954144 0.3543726 -0.1482255 0.28967816 -0.089441374 0.18736362 0.102309376 0.1062971 -0.2793853 -0.82902896 -0.041315913 0.69799846 -0.015570731 0.32574987 -0.22854549 0.480573 -0.2891856 -0.031283952 -0.0786477 -0.22586668 -0.1771529 0.13662755 -0.049416322 0.72006685 0.5314495 0.016382834 -0.28976586 0.021805305 0.27219328 0.3828048 -0.21898462 0.11411907 -0.33589107 -0.14435403 0.026717354 0.3846285 -0.5438158 -0.4937436 0.12756038 -0.17770605 -0.052677646 0.5791625 -0.33836454 0.068813644 -0.49595916 0.15065868 -0.48708254 0.2922114 -0.36387303 -0.10201842 0.22570652 -0.27817437 -0.50047207 -0.11665592 0.11891564 0.11078912 -0.44637868 0.23167865 0.18808757 -0.24155785 0.24743782 0.040403318 0.15570429 0.48647863 -0.38743806 0.049940888 -0.28089124 0.51389736 -0.11158964 -0.5934527 -0.86653405 -0.21210621 -0.43894646 -0.40654054 0.70038915 -0.013919462 -0.49622294 -0.35967994 0.17201695 0.07705093 -0.05534679 -0.29213408 0.2775151 -0.030505927 -0.21340947 -0.033763304 0.13498858 0.51006204 -0.33027893 -0.20631072 0.06396432 0.27568918 0.2380731 -0.10219283 0.3653853
128 0.07668272 0.082364306 0.1346143 -0.053876597 -0.22309327 -0.0932896 0.42005914 -0.2785595 -0.67435604 -0.11817302 -0.26191798 0.02960257 0.20788145 0.15291904 -0.31229436 0.0052380674 0.09763868 0.3910308 -0.17425905 -0.47302887 -0.14138682 0.5867295 -0.24741948 -0.29920334 -0.12118508 0.31377003 -0.2054612 0.33441675 -0.55745834 -0.41645634 0.6447166 0.060129613 0.3637076 -0.17426679 0.34386933 0.10183321 0.20100681 0.06399479 -0.1413568 0.19053708 -0.04921124 -0.12963203 -0.7054487 -0.028334511 0.6504403 -0.22325464 0.16691278 0.20250371 0.30998033 -0.35493383 0.012890728 0.2478873 0.0037283336 -0.030965824 0.2506668 -0.0013908987 0.611717 0.47896558 0.0040748985 -0.6656427 -0.12631059 0.50886446 0.35682872 -0.2402005 0.05730273 -0.19237968 -0.43825993 -0.20653373 0.40865827 -0.5463643 -0.42519504 0.08253988 -0.049840473 0.11564542 0.65295154 -0.39149562 -0.14144513 -0.27851495 0.26177987 -0.3184015 0.21448168 0.10716219 0.16962063 0.15620434 -0.32195088 -0.41905284 -0.02880097 0.031183226 -0.19091567 -0.49744895 0.12080202 0.041254707 -0.2119003 0.14922296 -0.0461917 0.006060062 0.45035863 -0.47769108 0.32337227 -0.20283201 0.64316577 -0.2747624 -0.60246146 -0.94588923 -0.51553404 -0.31720623 -0.1555907 0.6085854 -0.13435626 -0.21655963 -0.39032283 0.20984383 0.16837765 0.2835044 -0.2537025 0.10323859 0.13702646 -0.18094914 0.03445518 0.16930328 0.50112647 -0.3400845 -0.12635066 -0.1966878 0.5136567 0.24609187 -0.102778204 0.4599985
125 0.009993214 0.20221609 -0.027811477 -0.29825443 -0.28104052 -0.14923003 0.32377216 -0.3748844 -0.7147651 -0.41565272 -0.07795186 -0.097556815 0.21289419 0.19582173 -0.013713237 0.2746419 0.09408868 0.22868475 -0.23924516 -0.21774775 -0.09618043 0.54512906 -0.042635467 -0.35735032 -0.1713948 -0.040666483 -0.03472393 0.27396062 -0.5145427 -0.4346281 0.35679454 -0.12425474 0.19334434 -0.091250375 0.37061656 -0.1857711 0.39123583 -0.09523122 0.19551401 0.34692967 0.05074016 -0.37342286 -0.8883517 -0.16661026 0.3770125 -0.33742106 0.48715097 0.13113746 0.3906232 -0.2803943 0.12072287 0.31856 -0.0939711 -0.13688149 0.094027385 0.15155031 0.5749879 0.19352436 0.024691243 -0.5685166 -0.16403653 0.48229772 0.33374742 -0.37163433 -0.11700743 0.01751433 0.006301539 -0.10097903 0.49908087 -0.46900645 -0.41072094 -0.16607006 0.075369455 -0.116038404 0.67235833 -0.48151234 -0.04351047 -0.2841558 0.21360004 -0.3572856 0.2595295 -0.014743603 -0.20930083 0.20361258 0.02926363 -0.58467984 -0.20168598 0.05587065 -0.14435534 -0.5039069 0.42967707 0.10595803 -0.11308102 0.3359487 0.026436882 0.1861596 0.34232923 -0.4818822 0.19708359 -0.22907735 0.54649085 -0.31944397 -0.3124455 -0.7012843 -0.51410824 -0.22827998 -0.2547615 0.48047844 0.09320875 -0.22399557 -0.5981318 0.09283002 0.14146423 -0.0065047424 -0.3834448 -0.12429082 -0.22632264 -0.23006041 0.013306011 0.22562915 0.46575204 -0.30830893 -0.08556546 -0.2729077 0.18136133 0.37974554 -0.080072455 0.46003282
120 -0.03755329 0.17074895 0.30013072 -0.15643646 -0.047613747 -0.18000884 0.38240686 -0.08213587 -0.5779152 -0.35063335 -0.4918512 0.010361093 0.14586617 -0.043979883 -0.26028943 0.2529901 0.22610833 0.24094692 -0.16120219 -0.14995451 -0.07002927 0.5424995 -0.30052173 -0.31515753 -0.2214028 0.114569865 -0.06072409 0.5438166 -0.7427339 -0.3895308 0.50895804 -0.274766 -0.03240664 -0.14600812 0.2397687 -0.08486933 0.10622374 -0.0165923 0.13946454 0.14717922 0.032834202 -0.17779213 -0.77531004 -0.018593227 0.38371223 -0.39473936 0.33032957 -0.01247402 0.4137068 -0.23846763 0.024637667 -0.0804901 -0.14728026 0.075841665 0.19508854 -0.02154147 0.607658 0.27981052 0.30273262 -0.51162696 -0.25227118 0.58681244 0.4403339 -0.28837597 0.046243474 -0.14247794 -0.20568433 -0.015635068 0.34848183 -0.58313847 -0.5884421 -0.21769263 -0.025648108 -0.162831 0.50406736 -0.3034486 -0.01928311 -0.42399743 0.5299112 -0.38628355 0.23963396 0.15647878 0.054636374 0.5676044 -0.16279444 -0.33836383 -0.13931051 -0.016520867 -0.035245255 -0.2669413 0.36109483 0.29255834 -0.44922116 0.45131698 -0.09185584 -0.06849466 0.18682498 -0.33290473 0.040311348 0.029164111 0.62131196 -0.1827457 -0.57243836 -0.80003417 -0.2011268 -0.40335125 -0.02745122 0.5497624 0.1805839 -0.08945641 -0.31400543 0.1136319 -0.039008673 0.054132693 -0.4049099 0.045654684 0.12285459 -0.34209064 0.048209608 0.27499396 0.21112035 -0.53528273 -0.102923565 -0.29885548 0.44075355 0.31759915 -0.13537034 0.51443845
132 0.15666269 0.18190286 0.22132926 -0.22372496 -0.15412323 -0.12211343 0.145992 -0.36295572 -0.88983464 -0.30836684 -0.44905382 0.19871573 0.01504727 0.08675862 -0.1925096 0.18208995 0.17374724 0.18820138 -0.24720208 -0.31040645 -0.10086805 0.7007157 -0.118340544 -0.25567606 -0.5292586 0.3082825 -0.16144805 0.13057278 -0.7305187 -0.29308882 0.2902512 0.0024770317 0.09132362 -0.33351305 0.5278775 -0.044450775 0.37460947 -0.14481233 -0.08009535 0.4983571 -0.119367614 -0.35240462 -0.5743062 -0.017695034 0.4478276 -0.07098964 0.46103224 -0.2615309 0.10054784 -0.35393247 0.16066033 0.10522717 -0.088315085 -0.25095057 0.1129897 0.029526014 0.3398578 0.46635816 0.05987187 -0.5464487 -0.28834948 0.4042808 0.36775133 -0.13200174 0.16220061 -0.4460821 0.041498322 0.29300758 0.40759632 -0.5198988 -0.5211788 -0.088229395 0.114056595 0.07176834 0.46811673 -0.45933983 0.09286107 -0.4127407 0.3127376 -0.7171451 0.21960151 -0.016965766 0.24053134 0.2423274 -0.20688556 -0.58431864 -0.0013032836 0.022685966 -0.22522998 -0.41039807 0.24042499 0.09565745 0.04188481 0.49641323 0.08186047 0.002050393 0.042266708 -0.32871687 0.08194146 -0.13638447 0.57409704 -0.16086586 -0.534477 -0.5537263 -0.3001045 -0.58339584 -0.23246098 0.51601744 0.18464741 -0.1279519 -0.41876665 0.12910168 0.1323377 0.21613167 -0.2133965 -0.04395467 0.03697533 -0.27614105 0.06560039 0.21679746 0.26172736 -0.33302844 -0.03628007 -0.1984111 0.49865425 0.372671 0.056117527 0.35040733
117 0.04211618 0.2949052 0.25038916 -0.21956867 -0.17421095 -0.033787515 0.5325303 -0.29251668 -0.6003659 -0.3903672 -0.45192143 -0.0266689 0.023958445 0.007418207 -0.26340628 -0.20871718 0.03301631 0.25406072 -0.07614288 -0.32414973 -0.017219646 0.5333472 -0.07609476 -0.22080645 -0.011894164 0.20965688 -0.1340807 0.21792363 -0.41845444 -0.3016584 0.44614 -0.19832698 0.20149295 -0.25210646 0.19997346 -0.10757772 0.054637868 -0.06795675 -0.052558687 -0.045783963 -0.20251787 -0.015009028 -0.6263973 -0.22881415 0.19849324 -0.30020458 0.27231473 -0.0068110125 0.23539832 -0.23777269 0.104898736 -0.010040125 -0.1996583 -0.20071591 0.12350338 0.09954062 0.69316 0.33225504 -0.025491774 -0.6917897 0.15329462 0.31582993 0.11529673 -0.26896667 0.210332 -0.1643544 -0.09964836 -0.30320522 0.4325883 -0.23770009 -0.33048052 0.038696658 -0.044699557 0.3503294 0.6761712 -0.41298327 -0.038721655 -0.4734802 0.27332303 -0.47065228 0.13921128 -0.18392779 0.018548494 0.12534662 -0.37942615 -0.49945265 -0.0006934387 -0.07589758 -0.2878123 -0.5017776 0.29102868 0.2632204 -0.16441235 0.28171512 -0.016710563 -0.00967789 0.2698759 -0.4412693 0.28160235 -0.17104517 0.57973313 -0.062011782 -0.48893812 -0.6846206 -0.26730347 -0.51174086 -0.30648094 0.47580114 0.18813066 -0.12503415 -0.5554368 0.2137418 0.056245863 0.30263454 -0.25476485 -0.20648375 -0.11520784 -0.00083089876 0.21344538 0.4384246 0.33434293 -0.53754884 0.032055974 -0.12279347 0.32775104 0.09174655 -0.22320145 0.4303536
130 0.1058414 0.18098873 0.29022923 -0.23859967 -0.045384265 0.16416124 0.32369918 -0.08111828 -0.80887496 -0.26447976 -0.09735763 -0.02792958 0.24947165 0.018158598 -0.3831923 0.12308912 0.048136305 0.17611426 -0.13298993 -0.25527617 -0.03054609 0.49773616 -0.31505325 -0.31692752 -0.020270979 -0.019924313 -0.08185558 0.28958163 -0.6150134 -0.55357134 0.5054307 -0.2287152 -0.06289174 -0.090227745 0.25588116 -0.11289262 0.2627642 0.049520757 -0.096250124 0.29210773 -0.15946987 -0.20944878 -0.6261189 -0.23278193 0.5451023 -0.05886862 0.46342695 0.001054923 0.22095454 -0.25942734 -0.076711625 0.08463898 0.10795399 -0.14719631 0.1739716 0.09200017 0.6569421 0.51868343 -0.06037619 -0.6781451 -0.28671998 0.25676528 0.3470971 -0.2914021 0.039618783 -0.3521838 -0.23606275 -0.041641414 0.5153421 -0.42760673 -0.3970684 -0.13724013 0.08062058 0.19582516 0.62592036 -0.4276433 0.0012403134 -0.42171216 0.42882693 -0.51237965 0.27512592 -0.080346346 -0.04996193 0.23582973 -0.27037707 -0.35736343 -0.124128714 -0.19650297 0.0129206255 -0.28211486 0.42785475 0.3126689 -0.25005034 0.35351697 0.19176361 -0.13081673 0.42523688 -0.33557972 0.11598202 -0.16991428 0.50147504 -0.0391155 -0.39019704 -0.50919294 -0.4079982 -0.28784046 -0.11430062 0.5314543 0.1908527 -0.24097957 -0.442983 0.06456329 0.19058724 0.42371574 -0.5239874 -0.0943363 0.08883835 -0.175316 -0.10781675 0.16295063 0.6427104 -0.41364715 -0.24099055 -0.22037262 0.04096671 0.19367138 -0.08808134 0.3483747
122 0.092476964 0.17635131 0.13478744 -0.278045 -0.32932684 -0.13949054 0.22870089 -0.18390706 -0.6012341 -0.2938568 -0.29841176 -0.024602616 0.20763882 0.20052849 -0.40632597 0.084686145 0.2222898 0.17053309 -0.11700346 -0.22609395 -0.008393811 0.4497998 -0.04279852 -0.30682698 0.119728886 0.34144858 0.21721916 0.2989274 -0.40982547 -0.18022482 0.32233614 -0.12381417 0.20097224 -0.4656018 0.30306208 0.006460343 0.51794523 -0.007964921 -0.0768798 0.31549567 -0.10539854 -0.0250758 -0.6250761 -0.07150097 0.53148896 0.05673188 0.027695667 0.012426089 0.13314475 -0.39094576 0.18237942 -0.052653905 -0.23761655 -0.23581912 0.22216573 -0.014628713 0.54532987 0.35334158 -0.114879996 -0.5947216 -0.25863808 0.24925192 0.2364515 -0.14757288 -0.027787782 -0.33641103 -0.19997057 0.027022094 0.35853416 -0.38839903 -0.55597806 0.030072866 -0.027382517 0.013394165 0.62395114 -0.26561648 0.0074521885 -0.38871324 0.3426367 -0.39150992 0.45710373 -0.009425174 0.4156256 0.1875303 -0.28949717 -0.4569158 -0.15366362 0.06303192 -0.25065547 -0.3083907 0.19464077 0.30629593 -0.30581364 0.23414713 -0.12866406 0.113476776 0.18742704 -0.377257 0.17270759 -0.25626543 0.61301875 0.029582003 -0.5867293 -0.6650734 -0.40874842 -0.20742138 -0.25090775 0.46690238 0.123101376 -0.20945528 -0.5135803 0.31092614 0.24497709 0.1000152 -0.41979417 -0.1672025 -0.24352325 -0.38550475 -0.13396434 0.26074445 0.15916134 -0.5862074 -0.13436724 -0.13433917 0.25965413 0.33412045 -0.20813224 0.5051048
131 -0.18324961 0.30016363 0.3229311 -0.056721233 -0.31765944 -0.020147832 0.53441155 0.043665364 -0.55464065 -0.46953914 -0.32320416 -0.080590054 -0.04703367 0.18243618 -0.27165708 -0.005384919 0.2000512 0.3564017 -0.23512359 -0.3366997 -0.20198117 0.48903948 -0.16042669 -0.11911063 -0.129404 -0.15267035 -0.054905772 0.42691126 -0.49455667 -0.282396 0.5943278 -0.17760117 0.3036296 -0.2753521 0.64464843 -0.12088518 0.088551566 -0.24921525 -0.3002315 0.38578236 0.07135583 -0.121403866 -0.78386575 0.11549914 0.21275443 -0.14818528 0.43189976 -0.13287854 0.123263076 -0.5117712 0.044886045 0.20695439 -0.2913939 -0.106846124 0.06217776 0.007081022 0.8118591 0.30466515 -0.0013734647 -0.5484311 -0.08053634 0.27908385 0.10281828 -0.29891652 0.056125734 -0.20099843 -0.034370426 0.2446605 0.36837173 -0.4038648 -0.32118988 0.22769012 0.1243395 0.07709314 0.26206142 -0.4165624 0.031298373 -0.33089638 0.21132888 -0.41048443 -0.0043651564 -0.123541765 0.088831194 -0.020785207 -0.24615957 -0.56446314 0.013236241 0.1315961 0.0029018773 -0.17406242 0.2373158 0.24830098 -0.36967996 0.44824633 0.1400768 0.06435537 0.35625246 -0.34843823 0.122730255 -0.32026613 0.35840175 -0.17819929 -0.52544373 -0.900746 -0.42623672 -0.41890723 -0.30005372 0.6735864 0.20989981 -0.13701332 -0.68861 0.09060649 0.22551411 0.08846949 -0.27979842 -0.10416134 0.040958714 -0.12604612 0.080727674 0.17734861 0.4786257 -0.35229337 0.028824909 -0.028396517 0.2975888 0.27765998 -0.13780342 0.2507137
741 -0.02032547 0.11915412 0.87904763 0.16089204 -0.23351541 -0.26635802 0.41372365 -0.062788114 -0.57706714 -0.4360637 -0.2279481 -0.003800537 0.23005377 -0.0342501 -0.2912153 0.5153203 0.40794206 0.25217822 -0.09000416 -0.06627189 0.009806596 0.5542629 -0.32200807 -0.28792414 -0.090612754 0.21169677 -0.016276576 0.30471784 -0.47141975 -0.30534667 0.33226845 -0.17761333 0.035882507 0.26700902 0.34712029 0.029642055 -0.06733763 0.03935728 -0.038493633 0.45346898 0.27219427 -0.18952835 -1.0292506 -0.2975439 0.4244548 -0.22186081 0.44075352 0.28258038 0.14923744 -0.33538523 0.0085794795 -0.27727377 0.13838424 -0.16677943 -0.1508097 -0.15736459 0.36209825 0.40752319 0.4407686 -0.621106 -0.3698273 0.7296651 0.48535997 -0.23941045 -0.18690021 -0.41851294 -0.35833657 0.07756045 -0.12170421 -0.5449591 -0.36149547 0.0029681958 -0.08169527 -0.25623253 0.12100699 -0.42602777 -0.118698195 -0.13794862 0.62432414 -0.1596109 0.24586758 0.20357867 0.1249611 0.18466341 0.12888597 -0.27222008 -0.16684231 -0.0362909 -0.02032287 -0.22048335 0.46745467 -0.14655763 -0.77778995 0.35976645 -0.08567596 0.08708589 -0.20755847 -0.2873223 -0.18467017 0.07030693 0.45713267 -0.2209978 -0.62592155 -0.5757584 -0.2667742 -0.54374224 0.11753423 0.06950694 0.24897511 0.1128525 -0.0147653995 0.31342956 0.06581399 0.056121703 -0.5315128 -0.1802039 0.15805988 -0.39347145 0.16209817 0.2067798 0.24492753 -0.5441735 -0.02223036 -0.32182956 0.43817177 0.40098667 0.1289048 0.44906005
158 0.15612479 0.16010371 0.7810087 0.17851941 -0.1303294 -0.17822237 0.4458237 -0.2748488 -0.70680267 -0.4631872 0.06138543 0.011569266 0.30135798 0.13190475 -0.25729692 0.43597808 0.44115132 0.22418952 -0.17602903 -0.20852014 -0.07033742 0.30348337 -0.47259483 -0.30667564 0.18855818 0.1773086 0.18954058 -0.085058674 -0.36583677 -0.23723316 0.44864035 -0.16734175 0.19664624 0.16045436 0.5091113 0.022958983 0.08682745 -0.025013074 0.08455961 0.42780295 0.34763747 -0.351488 -1.0098219 -0.38373727 0.706632 0.1334842 0.3862292 0.14056484 0.26119146 -0.31079215 -0.09370435 -0.27939972 0.11938738 -0.3712512 -0.21091503 -0.21359193 0.43826744 0.58043563 0.18660077 -0.40378726 -0.16013408 0.38879445 0.4129685 -0.18623073 -0.10886718 -0.5864668 -0.36727384 0.11751933 -0.034674656 -0.4181048 -0.2598304 0.25216419 -0.26674214 -0.14428918 0.2781039 -0.5053321 -0.047603626 -0.19224177 0.26404765 -0.28319097 0.29613355 -0.24472873 0.028514849 -0.09617697 0.030935505 -0.4314818 -0.20343913 0.13846436 0.09321502 -0.47991994 0.40530878 -0.26903036 -0.51971054 0.08679791 0.039678447 0.22974567 0.11872625 -0.3346956 -0.21438779 -0.20525649 0.35000783 -0.16318487 -0.6208767 -0.6067176 -0.2940088 -0.5118161 -0.24658847 0.10650847 0.024412313 -0.18649974 0.0059968513 0.32560423 0.14787088 0.005168478 -0.5083364 0.024975555 -0.0183667 -0.2941357 0.07685315 0.053852525 0.5119678 -0.3410932 -0.1872154 0.038330525 0.16198039 0.29294017 0.18282504 0.29719022
86 0.18070383 0.15007421 0.53407496 0.15539767 0.18526807 -0.45075354 0.5467365 -0.46747676 -0.24579637 -0.23456013 -0.7494383 -0.23199736 0.3510426 -0.42599422 -0.11781326 -0.57605255 0.042760376 0.07352083 0.15346935 -0.12161329 -0.22563364 -0.100813955 0.30367863 -0.08256439 0.111730486 0.30061167 0.14818446 -0.054917715 -0.18841885 -0.1709298 0.053514015 -0.43454516 0.10759807 -0.018381285 0.23124947 -0.022662986 -0.12149745 0.037845798 0.13338459 -0.044452738 -0.33833486 -0.049866907 -0.12953073 -0.36540157 0.3992153 -0.2628491 -0.35063553 -0.02806415 0.29643148 -0.038882118 -0.08454464 -0.60894644 -0.092029184 -0.2180474 0.21691455 0.047516502 0.7460897 0.14095369 0.031310495 -0.162329 0.54313207 0.53233355 0.402441 -0.0765786 0.92938596 0.16070239 0.097399995 -0.5211771 -0.16049296 0.07700429 0.26995194 -0.23842633 -0.20845497 0.3086071 0.2401138 -0.46486235 -0.16765653 -0.6967468 0.2805588 -0.3727742 -0.021969344 -0.32576376 0.08938475 0.3322275 -0.550072 -0.20072326 0.6154897 0.2750485 -0.2611652 -0.9543717 0.20020656 -0.014071493 0.38880154 -0.14352018 -0.007330762 -0.16547388 -0.057138167 -0.44080836 -0.3733515 -0.3571596 0.59974384 -0.25710323 -0.35902777 -0.43203187 0.42224848 -0.858365 -0.9167551 0.19333628 -0.21868499 -0.29742464 -0.40141347 0.34233037 -0.06767681 0.18261804 -0.48934522 -0.3817454 -0.14266957 0.32642353 0.054970022 -0.10838102 0.35227847 -0.19070719 0.3559987 0.14047074 -0.016594715 -0.37505192 0.12175435 0.42701697
70 -0.29813388 -0.07985716 0.78341043 0.4437786 -0.23590039 -0.87432337 0.5712943 0.008221864 -0.41644192 -0.040091414 -0.83686775 -0.5711524 0.45619178 -0.12319889 -0.44110876 -0.5967415 0.2203271 0.17446686 0.2976641 -0.21336363 -0.3276702 -0.12534635 0.31227922 0.18158393 -0.03785434 0.20580514 0.02101165 0.13303795 -0.08218092 0.099643305 -0.021559205 -0.2797434 0.25749037 0.2553866 0.14758635 -0.09251489 -0.16091427 0.05125649 -0.014497668 0.33454496 -0.52108926 -0.092561714 0.08788949 -0.07063257 0.073741145 -0.58341515 -0.06109182 0.06692656 0.48698822 -0.30728886 -0.093940616 -0.33671877 -0.07768639 0.2537256 -0.16641319 0.2444616 0.607606 0.6826237 0.27805465 0.17398949 0.03262585 0.5550366 0.44609088 0.26509464 0.6851237 -0.2706785 0.5491309 -0.14276235 -0.4916727 -0.06943326 0.53927255 -0.30022967 0.024471 0.27663684 -0.13137443 -0.12794527 -0.6381799 -0.75111675 0.4265171 0.11506333 0.0980196 0.08443321 0.028879702 0.3548148 -0.3504377 -0.22659595 0.80052257 0.32372677 -0.42926088 -0.4734097 0.071821354 0.14301617 0.59166014 -0.027088003 0.086123705 0.24592483 -0.1455709 0.11281779 -0.54963255 -0.45798883 0.39374536 -0.2229362 -0.088481605 -0.27685535 0.5802433 -0.38814119 -0.36983633 0.19478662 -0.3062004 -0.39539754 -0.2976752 0.31528032 0.11663562 0.2525879 -0.86046934 -0.5742626 -0.17279978 0.094261535 -0.36641833 -0.4390744 0.37215275 -0.030048506 0.2532913 -0.16306473 0.33277515 -0.30805358 0.34684867 0.046698637
121 -0.21100014 -0.1402046 0.24850933 -0.31400955 -0.1904254 -0.04318761 0.4918399 -0.49347842 -0.728212 -0.43076524 -0.31387115 0.24730335 0.34221515 0.13295233 -0.13184969 0.26541102 0.11139285 0.11124311 -0.21590793 -0.21915095 0.06697101 0.30900747 -0.2549791 -0.1160991 -0.31991962 0.25503692 -0.08936556 0.4248123 -0.6266997 -0.4335463 0.48136735 -0.08981534 0.28092295 -0.3105667 0.38520995 0.07382858 0.35104108 -0.25763738 -0.079769894 0.14608032 -0.22752208 -0.27063325 -0.756949 -0.014166703 0.4249171 -0.31621194 0.23018935 -0.1988043 0.16697298 -0.21435915 0.08827259 -0.033204593 -0.2966445 -0.08948715 -0.017294498 0.29661757 0.37751085 0.526288 -0.004315384 -0.46470073 -0.12874366 0.3421437 0.224649 -0.22398147 0.21968155 -0.3766859 -0.108725674 -0.12173038 0.32688883 -0.43219906 -0.41634956 -0.09166318 -0.15855917 0.05876706 0.57438046 -0.28964767 -0.042693634 -0.16190584 0.31314036 -0.59045595 0.29360107 -0.07622233 -0.008515359 0.026376702 -0.34729767 -0.44689208 0.011488907 -0.0035811565 -0.08038352 -0.43819094 0.31107685 0.11414057 -0.522478 0.31738624 -0.0627826 0.21329114 0.28585958 -0.38999808 0.055366255 -0.38003996 0.38326088 -0.07196304 -0.5978439 -0.65811944 -0.35711297 -0.47311586 -0.32652912 0.57824814 -0.0597653 -0.15056817 -0.27549708 0.35664222 0.14074405 0.12671956 -0.45997122 -0.16063601 -0.18847798 -0.12443908 -0.22397527 0.4401513 0.31819943 -0.22219406 -0.22692008 -0.28421918 0.40724757 0.38087243 -0.049035627 0.3584337
123 -0.042187147 -0.15907516 0.40426883 -0.16947754 -0.18978767 0.004504721 0.31456184 -0.25843772 -0.7054696 -0.3915114 -0.3468477 0.038806066 0.28306958 0.075845025 -0.40991947 0.054103885 0.21843927 0.11663998 -0.21904242 -0.49666572 -0.24401362 0.510299 -0.11372396 -0.19224396 -0.31975952 0.042564232 -0.13481452 0.24951744 -0.48512465 -0.37192893 0.4794852 -0.15907626 -0.015979035 -0.11976957 0.38104105 -0.03981283 0.089482576 -0.09110128 0.09081182 0.09248895 0.06798082 -0.0731674 -0.7081425 -0.08147805 0.2912662 -0.15117739 0.33831474 -0.16639625 0.07883942 -0.36402875 0.029540876 -0.053819094 -0.0525781 0.06958835 0.075490296 0.11516351 0.50858516 0.4761256 -0.002123299 -0.52518326 -0.24131933 0.44114468 0.3809708 -0.30272517 -0.047761433 -0.1978351 -0.14519572 -0.20758578 0.23801066 -0.54539055 -0.5506752 -0.18692386 0.12264134 0.12118769 0.54841805 -0.18899885 -0.04772441 -0.2737595 0.3235482 -0.2755473 0.5571703 -0.04812225 -0.07421318 0.19479218 -0.35908207 -0.6212416 0.022708124 0.024868838 -0.10596705 -0.2711468 0.009378895 0.28835613 -0.29317483 0.50649315 0.06916116 0.03956176 0.2627745 -0.43017077 0.22053953 -0.38440388 0.4798889 -0.08697493 -0.5473176 -0.545391 -0.51979405 -0.49021208 -0.31242085 0.595683 0.13111626 -0.41559947 -0.47104746 0.17527775 0.009826475 0.28279486 -0.2658242 -0.041794218 -0.22803259 -0.41307968 0.034983985 0.1206977 0.17673217 -0.19458172 -0.027649453 -0.38240337 0.22986953 0.30354118 -0.08811102 0.3968547
127 0.0004242862 -0.15488042 0.3236404 -0.11332381 -0.2420759 -0.16462834 0.2198859 -0.2181279 -0.7043375 -0.34584615 -0.21956855 0.12867314 0.13231787 0.09489362 -0.2906504 0.1056019 0.24391402 0.30815288 0.079570055 -0.25125194 -0.19950216 0.32448727 0.045141622 -0.3315188 -0.19196191 0.30213237 -0.060577676 0.25301298 -0.697729 -0.1403224 0.49584705 0.04139881 0.16944537 -0.31227317 0.34875464 -0.08054825 -0.05463811 -0.042823598 0.1292505 0.56660616 -0.1613354 -0.14408909 -0.6837379 0.18203795 0.8644711 -0.20857269 0.48958707 -0.07921868 0.28587827 -0.3097956 0.042932037 0.06449492 -0.076933496 -0.10184581 -0.110105194 0.024468193 0.47691178 0.56757015 0.31037918 -0.49636137 -0.09175579 0.27772632 0.3027829 -0.17206097 0.093645364 -0.45757383 -0.28761178 -0.17124948 0.34149384 -0.584729 -0.39673087 -0.11969283 0.09872287 0.17956886 0.65878063 -0.30015147 0.07750496 -0.5280552 0.053816903 -0.44386572 0.2617728 0.026811656 0.19077346 0.25515476 -0.27601573 -0.411048 0.059232555 -0.0024869402 -0.021929981 -0.339295 0.08284363 0.15856376 -0.009580185 0.71747404 0.12404012 0.07498859 0.41451162 -0.41472065 0.40233457 -0.20064054 0.53895986 -0.21350731 -0.7618627 -0.67943674 -0.28970587 -0.4533538 -0.4786669 0.39633703 0.059004202 -0.17920855 -0.34025 0.018535318 0.07432693 0.12426129 -0.53461105 -0.091338046 -0.20124097 -0.1845505 0.14827795 0.24952969 0.24389203 -0.47342697 -0.12132038 -0.13655552 0.08340582 0.227371 0.06424615 0.28017864
69 -0.20898114 -0.18201552 0.71824926 0.3717421 0.084041014 -0.7907612 0.4920384 -0.18069206 -0.33465436 0.15335897 -0.7986443 -0.32111284 0.49205378 -0.41947672 -0.36696243 -0.67837816 0.10078869 0.2637306 0.21509075 -0.45205697 -0.63704336 -0.04245263 0.39055383 0.2355505 -0.13377503 0.060449876 -0.17362095 0.17219378 -0.2933941 -0.10262367 -0.08425668 -0.1236068 0.4476006 0.32877856 0.19209522 -0.03809149 -0.19353494 -0.15615208 0.066117465 0.41935992 -0.5713386 -0.1372533 -0.09728466 -0.32068 0.19956794 -0.51917124 0.03640903 0.29202095 0.5925776 -0.24734686 -0.2668436 -0.38414994 0.050980203 0.28448457 0.105219394 0.12510452 0.46559036 0.5861426 0.38578397 -0.038157146 0.08160292 0.80537915 0.51042104 0.09958078 0.62497056 -0.0951058 0.38207492 -0.24625374 -0.1873466 -0.22363317 0.5823529 -0.19841601 0.06460263 0.21279956 0.098855846 -0.41985717 -0.60233563 -0.68818134 0.36071518 -0.026932225 0.08816916 0.12952194 0.013303786 0.25233153 -0.32936934 -0.26388022 0.89402497 0.39674404 -0.32268894 -0.64317137 0.11720912 0.2237776 0.5249051 -0.16307062 0.22185558 0.14822066 0.12578511 0.18199813 -0.61138165 -0.3477563 0.3435937 -0.28834048 0.001768656 -0.1838524 0.411388 -0.3577632 -0.420079 0.30194008 -0.42491087 -0.33325198 -0.3133239 0.39007196 0.003360305 0.29219568 -0.73798484 -0.30555063 -0.022719476 0.062217522 -0.47259864 -0.67692673 0.44814172 0.10250502 0.26290601 -0.25899994 0.19232155 -0.23395893 0.55168074 0.121927485
779 -0.19737434 -0.09236179 0.75273466 -0.06421439 -0.36937383 -0.18741597 0.52026707 -0.4619617 -0.7029354 -0.47175825 0.013630607 0.15783705 0.3683082 0.115383066 -0.10402331 0.5223589 0.252908 0.17016408 -0.122347586 -0.03236708 0.10273344 0.30631018 -0.3060631 -0.09449013 -0.13057348 0.26852077 0.012880701 0.2262237 -0.44801474 -0.39694688 0.3468657 0.0013234237 0.3969162 0.15402988 0.371697 0.14463511 0.17083915 -0.1742957 -0.15228955 0.49443996 -0.012941304 -0.3758183 -1.0244331 -0.3639403 0.4580906 -0.2034697 0.41595384 0.21336472 0.0515885 -0.2844971 0.012917264 -0.09755662 0.030927414 -0.33680475 -0.3046907 0.1488735 0.13297123 0.5394236 0.20639814 -0.62202626 -0.1964949 0.51597375 0.218144 -0.19222774 0.017397815 -0.5617959 -0.2500485 0.04595033 -0.079257995 -0.41226608 -0.17669186 0.0860153 -0.23848334 -0.06858091 0.26755023 -0.49100178 -0.14022137 0.07984218 0.37760872 -0.41408855 0.1881762 0.025627235 -0.05180788 -0.29041508 0.12446616 -0.33080328 -0.07717542 -0.0137173375 -0.0581526 -0.4123847 0.5581936 -0.22756061 -0.81254256 0.1233339 -0.079691574 0.4061505 0.0022824774 -0.29341933 -0.15439734 -0.23298587 0.25307217 -0.18308477 -0.6164744 -0.49589983 -0.37285942 -0.47548273 -0.07031146 0.09636076 0.03161887 0.1440041 0.030825553 0.45865163 0.24968287 0.07556384 -0.69520056 -0.30567196 -0.06791218 -0.17016575 -0.12998521 0.40586016 0.4783747 -0.30081978 -0.17556809 -0.26978433 0.388484 0.45603055 0.27285138 0.29284808
114 0.105939314 0.2190433 0.28693593 -0.22681376 -0.005782657 -0.05477785 0.4017879 -0.35541213 -0.68684685 -0.2645572 -0.36194125 0.032706328 0.25949794 -0.019880628 -0.021982651 0.21185945 0.2000505 0.044559624 -0.13760811 -0.2833647 -0.056778133 0.07424597 -0.13783193 -0.4243414 -0.29656607 0.1744891 0.0056163534 0.2710275 -0.56462127 -0.55236775 0.48402283 -0.078061014 0.0008953138 -0.26095787 0.4495398 -0.02793749 0.1330025 -0.022878658 0.03239127 0.40382737 -0.09701117 -0.25668645 -0.6345241 0.13115956 0.7416581 -0.08338679 0.18624938 -0.13748346 0.14453578 -0.21290198 -0.046671905 -0.047997024 -0.24142963 -0.2511425 0.22901888 -0.10859576 0.789215 0.17914113 -0.08855455 -0.3573746 0.046453685 0.50112647 0.17781037 -0.16117217 0.35484332 -0.060090087 -0.28673053 -0.23776487 0.34636065 -0.50318915 -0.20520315 -0.11290181 0.17824042 -0.04757384 0.44148847 -0.21422432 0.19052373 -0.3588679 0.3377187 -0.54565287 0.14684767 -0.15715988 0.15342705 0.31300348 -0.4002312 -0.4632807 0.14177045 -0.21016562 0.12051888 -0.45307577 0.14933617 0.0021068521 -0.27561325 0.47868335 0.08695777 -0.1822395 0.19851324 -0.60213727 0.34481555 -0.08003063 0.30243817 -0.2520479 -0.39819127 -0.6484974 -0.3531679 -0.656228 -0.46098465 0.64258856 0.024648856 -0.3806219 -0.6796838 -0.0060336646 0.03935572 0.10169372 -0.23523022 -0.030865032 -0.062437523 -0.040327966 0.030004239 0.18773639 0.5245638 -0.31109038 -0.052339073 -0.24438189 0.14725693 0.26202944 -0.1881748 0.40354934
115 0.043165904 0.17177637 0.053025104 -0.0864013 -0.26334894 0.039310813 0.34631658 -0.3360019 -0.5434886 -0.16919093 -0.30244133 0.19017448 0.30828607 0.14250678 -0.33903503 0.082004644 0.1425153 0.19177555 -0.1123571 -0.20893888 -0.046531763 0.42270175 -0.2723449 -0.20521657 -0.2321284 0.12283928 -0.19980471 0.36568108 -0.5452476 -0.17469643 0.4882938 -0.08125381 0.12910402 -0.4724819 0.61542565 -0.04771023 0.34036016 -0.10478276 0.16362937 0.24809127 -0.21559252 -0.20432559 -0.60031575 0.17645638 0.48570743 -0.33265957 0.1312847 -0.06116255 0.31247583 -0.11920752 0.0334064 -0.09334233 -0.21142168 0.018384377 0.060337234 0.038887244 0.63646054 0.42104378 0.05112324 -0.41048875 -0.22968449 0.31579435 0.5388519 -0.13637696 0.15551569 -0.3629144 -0.10454084 -0.1603451 0.65352947 -0.38739747 -0.3183858 -0.18110564 0.12277434 0.1664863 0.6559906 -0.28226724 -0.018568851 -0.40129742 0.2567636 -0.37194392 0.220299 0.13654791 0.35540286 0.6195669 -0.49139488 -0.33203176 -0.06111774 -0.027641762 -0.14552829 -0.41009623 0.14734656 0.1897129 -0.030722896 0.4524615 0.1784237 -0.16334876 0.31089842 -0.3565546 -0.04189836 -0.30018014 0.4461922 -0.1556035 -0.45908764 -0.545048 -0.28783885 -0.368178 -0.3285976 0.5921869 -0.052822884 -0.53412694 -0.5169638 0.14693125 0.14587887 0.21187553 -0.10381651 -0.20283018 0.113998964 -0.3627854 0.042238913 0.069841824 0.2812915 -0.0172097 -0.20660765 -0.16422552 0.36764446 0.32317898 -0.25784546 0.44572142
785 0.17903534 0.1385952 0.78007215 0.07053721 -0.2797083 -0.19498506 0.16431096 -0.3310116 -0.8338804 -0.41555277 -0.11965772 0.10215928 0.16733451 0.053531483 -0.20475504 0.42692217 0.33469132 0.1980787 -0.18730223 -0.23196988 -0.02030966 0.69089246 -0.1845692 -0.26854417 -0.3164663 0.3129658 -0.113596864 -0.084882535 -0.49238664 -0.26170847 0.17939666 0.056784052 0.14218302 0.19423805 0.4989215 0.04475804 0.18402043 -0.039989445 -0.17473234 0.7343333 0.13650158 -0.39958927 -0.8255971 -0.38478935 0.47410455 0.088702306 0.57801414 0.107034564 -0.0648068 -0.45501822 0.092760004 -0.04792814 0.26754507 -0.4520803 -0.21596374 -0.068343855 0.15955634 0.5684661 0.17699496 -0.71185064 -0.3940747 0.5548035 0.39972317 -0.15158464 -0.12426112 -0.6158469 -0.17703591 0.3536855 -0.0621768 -0.51484084 -0.33166295 0.11066404 -0.023568967 -0.037849706 0.14957054 -0.6035622 -0.034417946 -0.16149838 0.38242766 -0.48734128 0.249193 0.02307566 0.17258985 -0.12690891 0.14311679 -0.5188469 -0.10662206 0.0044205664 -0.17296794 -0.37731358 0.3978273 -0.25634655 -0.31781265 0.3188648 0.045051854 0.17282996 -0.22715594 -0.2635615 -0.16754077 -0.103274554 0.44316095 -0.19780917 -0.57532763 -0.37316424 -0.38337535 -0.62482935 -0.017451992 0.10144236 0.26943848 0.06751569 -0.10443179 0.2981261 0.2323041 0.24987623 -0.38869292 -0.1818457 0.037324984 -0.37730137 0.1750636 0.13864481 0.38146707 -0.36423975 -0.021817422 -0.2257605 0.42504555 0.4485067 0.296321 0.270884
783 0.106626526 0.051689506 0.8725775 0.06505145 -0.25682065 0.054191764 0.34669557 -0.05278592 -0.76148975 -0.29963207 0.17342065 -0.020096572 0.387789 -0.008161452 -0.40619195 0.42771798 0.25987202 0.1982637 -0.044071827 -0.15543465 0.02632747 0.5056499 -0.41437355 -0.25987208 0.118373945 0.03675366 -0.042489704 0.0889093 -0.48657504 -0.47958964 0.38634232 -0.120091066 0.07113674 0.33368564 0.23893318 0.010885207 0.12437256 0.090822294 -0.23024982 0.63559103 0.0023923898 -0.2737658 -0.90957963 -0.53016907 0.61280036 0.08096523 0.62937564 0.2817517 0.037206154 -0.3490621 -0.14611095 -0.04663619 0.4433874 -0.33205536 -0.23595111 -0.009456327 0.34745315 0.69280744 0.18517382 -0.8359111 -0.42075458 0.4024775 0.42087293 -0.23411697 -0.21629071 -0.6732625 -0.38269037 0.114021935 0.09879112 -0.48227614 -0.20111057 0.032363188 0.001716825 0.12892003 0.29531246 -0.56002396 -0.078837894 -0.14773645 0.44991907 -0.34682792 0.25564682 0.058459416 -0.017267497 -0.09573216 0.099386156 -0.2423836 -0.18834688 -0.21792081 0.03673723 -0.18551654 0.5740444 -0.002437405 -0.5770118 0.25031725 0.16691938 0.08733296 0.17193489 -0.18431877 -0.21866493 -0.14709145 0.34690657 -0.10817659 -0.5057902 -0.26653197 -0.4277057 -0.32085896 0.13366248 0.08249602 0.28531513 -0.033924375 -0.0749262 0.26648003 0.29326648 0.45929986 -0.73559487 -0.23692532 0.12610362 -0.31618112 -0.024228618 0.13571858 0.6830182 -0.41304922 -0.23170313 -0.2466965 0.064506836 0.3705271 0.23317273 0.24335486
780 0.07369408 0.09295605 0.76202244 0.014235318 -0.43191788 -0.19123577 0.26187083 -0.15016817 -0.6608868 -0.44487906 0.04139463 -0.024787365 0.37996694 0.19232309 -0.3691574 0.5022062 0.44888654 0.13469227 -0.035055425 -0.0769808 0.0089319125 0.38139576 -0.18341799 -0.30133662 0.19600388 0.34877336 0.2762134 0.17993857 -0.27370888 -0.20737468 0.26105657 -0.031919915 0.19584599 -0.024307113 0.42766076 0.10419198 0.2901675 0.05772987 -0.16867481 0.67941135 0.15343821 -0.1849208 -0.9378955 -0.27489147 0.6510282 0.2381624 0.22162205 0.2922024 -0.09895975 -0.47234726 0.0788927 -0.23666844 0.08022667 -0.4568412 -0.15922436 -0.16091877 0.3477082 0.46363586 0.091935754 -0.67432123 -0.38726193 0.43155092 0.32146502 -0.13636951 -0.22560593 -0.61899865 -0.40936312 0.14081056 -0.07214695 -0.43079597 -0.3652613 0.1820177 -0.107427195 -0.18539341 0.26344886 -0.38299483 -0.04787933 -0.09259853 0.45982087 -0.2097467 0.4679138 0.06008015 0.35634232 -0.130832 0.023707243 -0.3918155 -0.1994189 0.021324983 -0.12570618 -0.28542957 0.39161822 -0.13877797 -0.6735628 0.21076082 -0.14008433 0.24227051 -0.09663684 -0.380517 -0.049104903 -0.22749785 0.41340142 -0.08242837 -0.6575158 -0.50164026 -0.5001078 -0.37411955 -0.10943782 0.026964277 0.16694678 -0.06864979 -0.14844073 0.4089821 0.31252587 0.068518534 -0.60583115 -0.29646307 -0.21411361 -0.44469428 -0.042876545 0.19974428 0.33796972 -0.5381929 -0.13099378 -0.1922172 0.16617683 0.43911913 0.080975555 0.42419395
124 0.11871989 0.15521261 0.33064175 -0.15588407 -0.24010591 -0.18774824 0.51203316 -0.23904033 -0.6437668 -0.37765047 -0.29943213 -0.13425718 0.07425557 0.109977975 -0.2497585 0.20521484 0.43141744 0.09337795 -0.08106958 -0.40931323 -0.23887213 0.40858695 -0.24286363 -0.30368286 -0.14365661 0.25967175 0.022805367 0.34414122 -0.47818586 -0.41977435 0.583272 0.1156829 0.12211068 -0.21764196 -0.0032220194 -0.14624721 0.3077853 -0.06624923 0.19112924 0.29938218 -0.40787157 -0.15310085 -0.8308543 0.00459914 0.31823224 -0.08283756 0.37988237 0.05611444 0.26596245 -0.25122422 0.09519254 -0.0051879426 -0.17997538 -0.25997642 0.010186041 -0.013098227 0.49696833 0.369348 0.10509043 -0.496771 0.113966286 0.35116982 0.16688494 -0.117128015 0.068646684 -0.3165537 0.042427678 -0.07995326 0.45732594 -0.49062112 -0.36474985 0.094057575 0.07973131 0.070898674 0.69929636 -0.13891591 -0.05859753 -0.27994633 0.30092138 -0.40782344 0.36520746 0.06728662 -0.008064851 0.31622213 -0.15130427 -0.42837527 -0.08438439 -0.20207277 -0.23645823 -0.22283044 0.24675144 0.30692568 -0.37671143 0.4317667 -0.0063802092 0.27632403 0.28305683 -0.29333222 0.3354631 -0.10099596 0.2842264 -0.1765678 -0.5021663 -0.5831345 -0.32753947 -0.45419925 -0.0561018 0.53091866 0.24717799 -0.56952 -0.5390511 0.075213715 0.10604507 0.1334276 -0.14785857 0.03760139 0.017912826 -0.4043214 0.057112876 0.40317264 0.49903896 -0.40802935 -0.0038616746 -0.22637513 0.4499482 0.32910228 -0.1025421 0.39040732
768 -0.0022345784 0.22026555 0.5302544 0.0036120913 -0.38852316 -0.20329943 0.28321525 -0.415076 -0.69530594 -0.36609566 0.20952567 0.07480444 0.40416092 0.21762924 -0.03266007 0.53723574 0.20920616 0.18289049 -0.17169161 -0.11165311 -0.06558844 0.46015766 -0.1486716 -0.23418452 -0.07033474 0.01154791 -0.020657558 0.14918618 -0.3223936 -0.2875173 0.24410842 -0.04111881 0.21675044 0.21575925 0.63398665 -0.05528692 0.2096817 -0.05354024 0.1780751 0.740429 0.309199 -0.48080677 -1.1338128 -0.37977663 0.6054737 -0.12809816 0.5664192 0.45196784 0.18080194 -0.19224879 0.032955997 0.012720234 0.15850177 -0.32966283 -0.15974635 -0.16048473 0.3644191 0.31775802 0.1906165 -0.5650785 -0.35450613 0.6473675 0.42032823 -0.35736293 -0.31778643 -0.3366134 -0.25914097 -0.0145212915 0.17338721 -0.4794951 -0.19312556 -0.03051791 0.0647384 -0.2223137 0.39645147 -0.5947879 -0.11228928 0.013736046 0.37426114 -0.1919744 0.28622544 0.06657634 -0.069203146 0.014658447 0.19232877 -0.42672175 -0.2951216 0.06322664 -0.13406113 -0.5264617 0.56436366 -0.32249808 -0.4916383 0.26370463 0.04546228 0.16858946 -0.03024542 -0.43821988 -0.0045053465 -0.15207186 0.35314986 -0.3558348 -0.3893567 -0.61027336 -0.62483156 -0.36943617 -0.16682482 0.091204174 0.08968084 -0.08814679 -0.36179832 0.20205714 0.22228731 -0.036723632 -0.50108624 -0.3454281 -0.041673824 -0.32832974 0.07408035 0.1250139 0.58679223 -0.20330013 -0.06507295 -0.3409698 0.1659073 0.5142515 0.17631657 0.40655693
60 0.0466352 -0.08364037 0.7592356 0.21161778 -0.1443326 -0.537959 0.3220074 -0.47374701 -0.3270439 -0.16008803 -0.77897537 -0.40991485 0.37027353 -0.42762575 -0.19844498 -0.66236764 -0.044030573 0.032433942 0.115436144 -0.12959498 -0.47496694 -0.38047704 0.40095797 0.04597331 -0.03449469 0.26231432 0.19095959 0.05494973 -0.21909846 -0.2364528 0.029874647 -0.2466883 0.23046726 0.19117619 0.26036492 -0.03880618 -0.05277153 0.06277175 -0.015427766 0.14975888 -0.25226763 0.08508809 -0.108074985 -0.2155359 0.5269246 -0.06686425 -0.19575517 0.11451692 0.03130995 -0.1225372 -0.3109283 -0.33359876 0.20281944 -0.0337412 0.040299803 0.26938477 0.21997347 0.20234871 -0.09874388 -0.016048962 0.34136823 0.72130036 0.5601747 0.08063459 0.7955491 -0.06535512 0.24016835 -0.60199666 -0.31008357 0.07316413 0.34932384 -0.39058614 -0.0899399 0.25005755 -0.0010493707 -0.1757341 -0.24766435 -0.2612084 0.1358057 0.050099414 0.06725179 0.047224205 -0.18139048 0.06219155 -0.19243155 -0.15526418 0.92956096 0.16075714 -0.33613962 -0.74841094 0.13330403 -0.009038477 0.1058402 -0.14462918 -0.047226515 0.10453748 -0.0725826 -0.6445917 -0.3882308 -0.055855907 0.71073514 -0.06655884 -0.16962798 -0.1948344 0.39117485 -1.0409082 -0.72942245 0.004569363 -0.20077917 -0.090782054 -0.32446626 0.20681034 -0.048766438 0.2774144 -0.74827164 -0.68321466 -0.054842733 0.4104146 -0.21540108 -0.25894305 0.44642806 -0.095122315 0.37384346 -0.1456046 0.10281216 -0.6401665 0.6477176 0.39417347
317 -0.49540338 -0.31480753 0.53290933 0.8310359 -0.30698547 -0.23644412 0.107940935 -0.42166778 -0.41713277 0.07241404 -0.25562558 -0.3998878 0.07896403 -0.074385196 0.073719144 0.4459122 0.46135065 -0.5386049 -0.4755523 0.69760203 -0.37908086 0.08897333 0.16716625 0.12125671 0.5390435 0.18553738 0.31228504 -0.18256132 -0.023994105 -0.5447075 0.08651861 -0.2984623 0.050325043 0.042369682 -0.39972216 0.012569493 0.060993645 0.1400252 -0.27176318 0.66873544 -0.28267443 -0.33186647 -0.3858515 -0.18236287 0.20679073 -0.12865044 -0.25824776 -0.12549087 -0.22206104 0.028205596 0.27740636 0.2758529 0.041347384 -0.33786917 0.5396275 0.030541807 -0.11637232 0.20374696 0.13826567 -0.36523345 0.25289237 0.07464145 -0.0048964005 -0.23448922 0.07816616 -0.20171127 -0.004256466 0.3810502 -0.25624254 -0.5775514 -0.2671031 0.22052798 0.035566024 0.24222085 -0.36535993 -0.3837698 -0.10658634 0.0998794 -0.14006406 -0.50434846 0.33955988 0.16547124 -0.2028256 -0.018228918 0.11103311 -0.0067717345 0.1982998 0.3422415 -0.42912024 -0.15045436 0.4744942 -0.13491055 0.1231874 0.27783206 -0.12713736 -0.2500141 0.31201294 -0.52304924 -0.23641105 -0.74436843 0.36458594 -0.1334037 -0.2888894 -0.5471322 0.104661524 0.18840592 -0.25087342 0.24904367 0.049384616 -0.18463795 -0.09060935 -0.13579935 -0.15280956 0.18213125 -0.28210458 -0.40599796 0.5024718 0.006191314 0.0934423 0.13016555 0.52480054 0.120319374 0.43522486 -0.26121682 0.13211142 -0.061418023 -0.0011492317 0.6040473
773 0.07973022 0.01049981 0.66488826 0.22962843 -0.34996715 -0.1817622 0.47066358 -0.28581682 -0.67618 -0.16198933 0.007771901 -0.022121076 0.34610072 0.11566692 -0.26439834 0.29466045 0.23103298 0.36797673 -0.1284644 -0.36704853 -0.047867175 0.566855 -0.31441683 -0.25350726 -0.002052221 0.35597593 -0.15474373 0.10666581 -0.3508543 -0.3648673 0.4595894 0.1045657 0.43868023 0.3121512 0.37331453 0.19606534 0.05513289 0.10978438 -0.23992951 0.46804887 0.2121291 -0.20624427 -0.95436984 -0.3552067 0.66392004 -0.10102086 0.28501782 0.52601635 0.115227714 -0.4318839 -0.03446691 0.08719913 0.3094936 -0.19029173 -0.06922096 -0.103440136 0.30802283 0.5438604 0.16132775 -0.76729935 -0.27191594 0.6889136 0.41558006 -0.17805742 -0.17794791 -0.3981742 -0.5958846 -0.08645565 -0.06242568 -0.5796384 -0.21506108 0.24573803 -0.15313171 -0.030847376 0.28651875 -0.55733967 -0.22966471 -0.0009465924 0.35276094 -0.12573126 0.15271217 0.17298414 0.16139863 -0.21011251 0.01902478 -0.36589405 -0.08128854 0.030260155 -0.13375926 -0.480672 0.2862125 -0.35108736 -0.5597157 -0.026570903 -0.08830616 0.18864797 0.0926236 -0.39402285 -0.0155623555 -0.13626777 0.5294233 -0.31448895 -0.61382526 -0.71253616 -0.5168547 -0.38385007 0.06272442 0.18724829 -0.092027225 0.03063592 -0.0447713 0.45197386 0.22486484 0.28497872 -0.4136003 -0.048297662 0.15442044 -0.23225546 0.09574149 0.07033375 0.5348985 -0.31533477 -0.087076016 -0.24477436 0.5594677 0.38687655 0.2074757 0.397198
137 0.14554088 0.21743679 0.38894856 -0.13738483 0.04190725 -0.2375129 0.5314977 -0.66454494 -0.57626736 -0.43107334 -0.7465094 -0.07132719 0.08265299 -0.21192615 -0.23821692 -0.50720125 0.016587695 0.06878085 0.060244713 -0.08925523 -0.11632454 0.18831284 0.25632623 -0.18792158 0.07109894 0.4295147 0.11271045 0.054433633 -0.29910085 -0.33048305 0.17379455 -0.24518515 0.068278894 -0.3819044 0.19428587 -0.017602408 -0.05906594 0.027136682 0.060875077 -0.08164291 -0.43018052 -0.046940878 -0.37114432 -0.19621196 0.25461477 -0.21046232 -0.09890122 -0.08870789 0.2146977 -0.15220058 0.01834099 -0.28912556 -0.14574799 -0.4054246 0.29431418 0.08199968 0.6888753 0.1565133 -0.15133442 -0.47902375 0.4629096 0.36143133 0.24884398 -0.15495619 0.745791 -0.03263456 0.085631795 -0.3867798 0.1542162 0.016315581 -0.08844179 -0.08137187 -0.19470489 0.4321618 0.58783203 -0.44233075 -0.10256198 -0.682545 0.35997492 -0.5302333 0.1403447 -0.3754032 0.08782274 0.14995411 -0.5995095 -0.5030227 0.35018748 0.12977904 -0.38972396 -0.94353986 0.27382296 0.110404305 0.2621656 0.10065341 0.019389963 -0.13573551 0.17564568 -0.68301094 0.12875688 -0.36617786 0.70666075 -0.027054455 -0.46816394 -0.675084 0.15212803 -0.8940236 -0.7710306 0.34193948 -0.044447534 -0.17821367 -0.39569074 0.124483995 -0.079940125 0.29812983 -0.3335261 -0.35344163 -0.18451975 0.3367267 0.18816166 0.30640176 0.40706384 -0.5257585 0.28933167 0.010405988 0.117113315 -0.41818416 -0.1123227 0.46758136
316 -0.4595279 -0.41166568 0.61925316 0.7537651 -0.29486242 -0.23484392 -0.21868087 -0.1916943 0.0012787355 -0.23197009 -0.05803532 -0.14291571 0.20351277 0.071438245 0.05712962 0.3578857 0.16878635 -0.5976708 -0.5921366 0.44394872 -0.24292248 0.072040394 0.3406 0.30192894 0.69144696 -0.039176263 0.4411068 -0.1722193 -0.09642746 -0.37790948 0.13792835 -0.23124787 0.06712601 0.108020686 -0.49410427 0.30843052 0.5270803 -0.16412818 -0.2969678 0.80225474 -0.19086143 -0.31841296 -0.38404042 -0.28114277 0.18225417 0.19146757 -0.35984838 0.04392263 -0.12573212 0.0024193525 0.056743268 0.033417907 0.123521015 -0.47446296 0.17758435 0.13478039 0.018631095 0.13175243 -0.10463027 -0.30322653 0.42157555 0.15996781 -0.0021559533 -0.1911565 0.057527598 -0.026252499 0.10565288 0.76174426 -0.20475166 -0.6316823 -0.3175134 0.41081846 0.29224133 0.23935974 -0.069938004 -0.35643017 0.045953784 0.11662832 -0.38232422 -0.5293902 0.33227745 0.24181618 -0.5744429 -0.021516073 -0.15291509 0.038948838 -0.03508706 0.10166623 -0.32073832 -0.20748493 0.5698038 0.22646792 0.047637742 0.044235803 -0.09778085 0.054900657 0.11532524 -0.20823294 -0.4986284 -0.5719769 0.26176748 -0.34690738 -0.5286856 -0.5060925 0.060250975 0.15293698 -0.2141876 0.19452815 0.22716469 -0.25564843 -0.16228624 -0.05154367 0.033564758 0.09589063 0.054968044 -0.16710894 0.50508934 0.026847407 0.10997174 0.10831581 0.67529017 0.30983916 0.08527404 -0.22279361 0.025151093 0.10341342 0.19563428 0.42491513
55 0.13805494 0.18543844 0.5891891 0.21250063 -0.3368457 -0.27665728 0.144562 -0.3540174 -0.2948235 -0.31497362 -0.71640706 -0.32655516 0.14639935 -0.19327249 -0.19850431 -0.37808394 0.00052808993 -0.12161603 0.06654022 -0.2226205 -0.16016519 -0.23388362 0.3174028 0.11844683 -0.16096856 0.3824625 0.27906102 -0.038404714 -0.23456684 -0.41680974 0.029030751 -0.17069647 0.23903355 -0.004465618 0.2446307 0.00934818 0.16870524 0.15133384 -0.013045002 0.11296516 0.021172762 -0.0020652697 -0.22481737 -0.018263986 0.46119565 -0.006361287 0.060983803 -0.06273947 0.11253611 0.010704992 -0.43532926 -0.24428964 0.22102496 0.084596924 -0.26534945 0.21691543 -0.10943823 0.1394394 -0.21850356 0.069577195 0.27048817 0.5162843 0.44846043 0.28512076 0.34813643 -0.26375464 0.32916823 -0.5680674 -0.10508167 0.005151404 0.23935857 -0.49580914 -0.051262718 0.22970958 -0.16326426 0.17460881 -0.18378794 0.08352962 0.18077125 0.27141178 0.24305846 0.1346346 -0.27014703 0.068320036 -0.07397494 -0.1702843 0.5351372 -0.18208864 -0.26819637 -0.56919944 0.028689241 0.13481483 0.06560832 0.17159551 -0.032292794 0.14709844 0.014726192 -0.49446598 -0.3111342 0.2125009 0.7872421 0.16855586 0.20568757 0.121923216 0.3062547 -0.79536957 -0.46691793 0.08840079 -0.15500112 -0.12335822 -0.32226697 -0.20429839 -0.14438953 0.3821247 -0.5748037 -0.64824086 -0.03561588 0.39829004 -0.25410154 -0.24629685 0.3886916 -0.32887354 0.23574139 -0.26292092 0.2761176 -0.7195972 0.7904359 0.3705817
758 -0.04689266 -0.24108832 1.0000719 0.14907014 -0.3410972 -0.09808544 0.43733108 -0.28777045 -0.7419753 -0.50144535 -0.07643443 -0.010247793 0.3840968 0.09500194 -0.4210967 0.38672855 0.39547268 0.14908862 -0.14888595 -0.31279323 -0.094450064 0.4648813 -0.19792086 -0.21223855 -0.12002482 0.10305015 -0.050165303 0.060863853 -0.3379616 -0.3216186 0.31208694 -0.122451626 0.021331051 0.33574408 0.4972949 0.036174603 -0.054665513 -0.015091738 0.020889247 0.42406413 0.36628568 -0.14352883 -1.0924553 -0.3468479 0.43230605 -0.08653681 0.48048067 0.17913303 -0.12435878 -0.46379206 -0.027418133 -0.25929594 0.21659091 -0.17349488 -0.23628117 -0.008643525 0.26399413 0.57679015 0.17953837 -0.62770694 -0.39844695 0.64319146 0.516787 -0.23460397 -0.28198567 -0.48636222 -0.3335732 -0.1022281 -0.19092804 -0.61877024 -0.3173578 0.043116406 0.061918538 0.005347075 0.13708952 -0.36116713 -0.11832569 -0.069488525 0.4326759 -0.07245787 0.4805175 0.010995849 -0.07184299 -0.14538763 -0.045220125 -0.5782752 -0.04715499 0.03580153 0.002252736 -0.24600159 0.18850054 -0.15892322 -0.70757145 0.3919995 0.07460685 0.21579304 -0.06949147 -0.42368454 -0.17228726 -0.33702362 0.38594913 -0.113458805 -0.63824165 -0.3579114 -0.4902127 -0.5945426 -0.12748109 0.19805436 0.16037427 -0.18253876 -0.1388173 0.43188414 0.09498567 0.21240112 -0.4484697 -0.2501615 -0.15538578 -0.4039278 0.1279448 0.033657163 0.21441595 -0.20791826 0.016306598 -0.43520167 0.27624902 0.44733062 0.17435452 0.38202643
321 -0.43293688 -0.41656175 0.6711714 0.8269985 -0.27205673 -0.44018784 0.15266542 -0.5505779 -0.26963294 -0.3169358 -0.32828072 -0.40890315 0.059037928 0.16472161 0.15046643 0.3411055 0.32355812 -0.4907814 -0.28117388 0.5281621 -0.07598881 0.069700934 0.4725809 0.01449569 0.5518585 -0.069403164 0.46219835 -0.1477512 -0.14625354 -0.5880463 -0.0291349 -0.26029453 0.19073303 0.023105273 -0.3389627 0.10498213 0.09674181 0.2927232 -0.22904912 0.7637514 -0.35215023 -0.2858475 -0.10148974 -0.29278117 0.16417861 0.038883273 0.01591814 0.12704544 -0.030105148 0.027484197 0.42420557 0.31420946 0.17736095 -0.36651504 0.4031393 -0.067082986 0.048052795 0.13970916 0.009117553 -0.44494355 0.21780367 0.14590588 -0.13940601 -0.24019209 0.10890589 -0.19251634 0.19636916 0.5116583 -0.61525196 -0.36456037 -0.48061728 0.27902523 0.33526683 0.41126403 -0.42303383 -0.44845435 -0.04178678 0.039446723 -0.282177 -0.35595146 0.48040256 0.39951882 -0.52754605 -0.21251385 -0.06619044 0.21286297 0.20658252 -0.021265404 -0.08774938 -0.24888873 0.5975074 0.07257532 0.09920172 0.14656407 -0.19039042 -0.03460159 -0.028483687 -0.21891692 -0.07145232 -0.6687729 0.34828168 -0.38572747 -0.47366935 -0.269586 0.17978264 -0.1884352 -0.3109617 0.27465263 0.2824251 -0.22225209 -0.04250824 -0.09607991 -0.1412956 0.4125368 -0.13999023 -0.18213908 0.27112642 0.1890935 0.17485511 -0.02295565 0.6004247 0.03199184 0.38498506 -0.20333613 0.29032716 -0.01836299 -0.06724334 0.31273115
581 0.45318118 -0.103233874 0.46618098 0.6472159 -0.26646465 -0.2666947 0.27445298 0.009918539 0.17384839 -0.2764109 -0.6214368 -0.111007735 0.38090456 -0.15968198 0.12198524 0.43102834 0.5714464 -0.51748854 0.06286695 -0.08973543 -0.33937413 0.7677605 0.35159305 -0.1254749 -0.2003943 0.51026607 0.45273602 -0.005110844 -0.3925163 -0.30334324 -0.078779906 -0.053931113 -0.0284408 0.07429459 -0.21067722 -0.03289698 0.6640035 0.32237723 0.077911586 0.33951426 -0.15394194 -0.47798547 -0.0047089644 -0.35247695 0.38717476 0.4217151 0.14967771 -0.23068465 0.033488832 -0.45580956 -0.0008557622 0.0027483434 0.41530678 -0.10750299 -0.3824294 0.03538362 0.25512347 0.11038001 0.3053408 -0.27808875 0.49344638 0.75803524 0.64448714 0.14422351 0.01798519 -0.014578748 0.49139905 -0.027730497 -0.073043205 -0.6376842 -0.3815558 0.09750161 0.28718472 -0.44973102 -0.6226748 -0.16718076 0.10006623 0.0698136 0.47673678 0.51924527 0.34969944 -0.101472296 0.13704741 0.72588134 -0.60818684 -0.26296762 -0.045878273 0.24359979 -0.43483025 -0.37728986 0.36278844 0.32701966 0.32127297 0.6075818 -0.36535555 0.34533498 -0.33639634 -0.2599598 -0.7994198 -0.30066073 0.6327461 -0.2754474 -0.0886255 -0.2714072 0.025751637 -0.45886803 -0.2080612 0.11994524 0.15245123 -0.9327538 0.020345228 0.39167738 0.3404371 0.41412547 0.057970833 -0.17706446 -0.63506424 -0.28476605 0.008247353 -0.46650648 0.2779065 0.06688412 0.4449706 -0.26306257 0.14873147 0.438176 0.30508587 0.45931333
143 0.060859077 0.4043853 0.36959043 0.09244548 0.06315872 -0.16488045 0.47736824 -0.7470482 -0.32253894 -0.40056387 -0.732166 0.14969112 0.37695858 -0.41333228 -0.14231433 -0.30881295 0.054759048 -0.120550506 0.037783165 0.17395158 0.17243986 -0.05146253 0.113905266 -0.037726417 0.04193964 0.4389394 0.054129668 0.050119676 -0.38585675 -0.3714201 0.149909 -0.30588368 0.17681915 -0.3468113 0.39115515 0.045198195 -0.05074908 -0.07789583 0.16899091 -0.00501952 -0.27211878 -0.2933507 -0.25899187 -0.06528041 0.63513935 -0.29060376 -0.42632285 -0.09543572 0.38269666 0.13887678 -0.11934762 -0.51373947 -0.25396582 -0.21457754 0.20986283 -0.12050876 0.70183766 0.059346285 -0.11068952 -0.14104134 0.36138394 0.4868413 0.17621015 -0.047966536 0.7962068 -0.013088296 -0.029954592 -0.36922914 0.09038559 -0.0021562516 0.1325277 -0.15040332 -0.19650216 0.298524 0.17379017 -0.30690324 -0.095664576 -0.66067564 0.30473745 -0.38827303 0.07235273 -0.28084347 0.29635587 0.7364437 -0.75480413 -0.27668798 0.29371595 -0.05846813 -0.13546565 -1.026337 0.31980708 -0.21500342 0.31239426 -0.05754507 0.050524168 -0.33027178 0.055024996 -0.73134214 -0.31454474 -0.11853032 0.52451485 -0.060249634 -0.20434038 -0.61085665 0.2320729 -0.8827437 -0.9159842 0.3567048 -0.22386739 -0.28440502 -0.4747534 -0.023771627 -0.14546455 0.26496705 -0.26837748 -0.55049634 -0.09607632 0.33506012 0.109649315 -0.01952056 0.5220873 -0.09731417 0.15260427 -0.016390972 0.0976743 -0.3838783 -0.14577746 0.4500836
319 -0.49168634 -0.2192222 0.39404842 0.70151526 -0.09744773 -0.35268563 0.062694214 -0.28748706 -0.11720293 -0.20807566 -0.5573875 -0.119608864 0.039637007 -0.08524114 0.055872057 0.2796865 0.23948333 -0.6759204 -0.41798753 0.57199293 0.086124726 0.14883119 0.23967719 0.1978802 0.8670028 0.0803539 0.23843278 -0.322711 -0.2730415 -0.5657422 -0.032415226 -0.29589698 -0.109978504 0.058446106 -0.445145 0.1536348 0.13112605 0.15667093 -0.70823425 0.5889838 -0.18693043 -0.5644899 -0.4140338 -0.5100798 0.3213994 -0.047514237 -0.07795124 -0.06557836 -0.045734663 0.009471293 0.108612664 0.24639861 -0.10876228 -0.3715227 0.45135593 -0.12167095 0.001637279 0.0772359 0.037583746 -0.38982058 0.31114402 0.50667727 -0.15279114 -0.39594272 0.18956922 0.11696359 0.14131209 0.5981822 -0.15864626 -0.589969 -0.2778706 0.38441065 0.19183534 0.19636808 -0.18838921 -0.43847704 0.19985317 -0.025337297 -0.23979652 -0.43670833 0.22806999 0.17311117 -0.40041122 0.014080112 -0.02753727 0.44375417 -0.07280052 0.198612 -0.211515 -0.28718862 0.3890387 0.012434373 -0.15928315 -0.15620404 -0.055647664 -0.19884214 0.1811125 -0.3111821 -0.2595595 -0.6908446 0.47178796 -0.31767333 -0.5168381 -0.77127415 0.14527933 -0.09941967 -0.034303874 0.32349476 0.18148217 -0.08101612 -0.11468318 -0.022934534 -0.20658627 0.31064963 -0.30589437 -0.14851494 0.3878921 0.18629065 0.0921542 -0.013978282 0.68940926 0.078927115 0.337862 -0.40485537 0.17837392 -0.05205713 -0.07280881 0.05662516
59 -0.13141523 0.02876196 0.76089585 0.14688788 -0.42310354 -0.55235565 0.40302464 -0.2941857 -0.43937933 -0.093745455 -0.93268675 -0.4981215 0.34280512 -0.030881187 -0.3718526 -0.5659139 -0.03534927 0.05641374 0.17183442 -0.1431254 -0.34572995 -0.28564805 0.323949 0.046815168 0.037376072 0.3659977 0.24676181 0.09294085 -0.1282397 -0.08208489 0.07909215 -0.27674448 0.17684355 0.046088155 0.12856025 0.022746341 -0.1308201 0.2275527 -0.024462355 0.24260418 -0.37085694 -0.099743575 -0.106370434 0.06176267 0.2544087 -0.33329365 -0.019141432 -0.009501471 0.16151291 -0.17718478 -0.41962752 -0.2817418 0.010074897 -0.03465975 -0.22208522 0.19628231 0.43004277 0.29411474 -0.27962255 0.2249838 0.08548058 0.4300394 0.4207699 0.41435537 0.7316965 -0.31785884 0.43578845 -0.27126503 -0.32697013 -0.102085955 0.42060298 -0.36917028 0.12962122 0.29933065 -0.09702828 0.16869782 -0.48716673 -0.3696346 0.5027799 0.28132045 0.11061769 0.14555053 -0.12218615 0.10304197 -0.28727174 -0.38363558 0.6051907 0.20328887 -0.5232005 -0.6769206 0.07687813 0.059533272 0.38055992 -0.11989256 -0.05582146 0.0841614 -0.0818037 -0.346415 -0.42773372 -0.20475046 0.5752232 0.00658956 -0.027007317 -0.17326318 0.48297355 -0.9182526 -0.5558981 0.0708439 -0.34421393 -0.42253873 -0.22442351 0.020008337 -0.0750792 0.3004537 -0.82763857 -0.86941814 -0.15140875 0.4924116 -0.20204087 -0.2035392 0.5181878 -0.37520573 0.30445087 -0.23568821 0.38907635 -0.6099235 0.5813541 0.2294063
784 -0.18878964 0.13220282 0.8386448 0.27427176 -0.4720232 -0.09789638 0.5209161 -0.0033122078 -0.5639883 -0.48702985 0.028206395 -0.020741846 0.2278233 0.20194036 -0.22835146 0.4295899 0.3811032 0.34326148 -0.17427719 -0.20530388 -0.111249134 0.3948657 -0.28734237 -0.1102158 -0.06732815 -0.08331416 -0.06379654 0.24798144 -0.3723464 -0.23384371 0.51745 -0.06470055 0.3760399 0.18164705 0.74245256 0.032579534 -0.06535435 -0.1407108 -0.35422543 0.7640807 0.29231054 -0.27054587 -1.0521324 -0.11319454 0.4857458 -0.07992852 0.51133794 0.18653952 -0.0010653341 -0.53356355 -0.04270461 0.021005835 0.015003459 -0.2397349 -0.31125084 -0.096811436 0.5347792 0.45441526 0.20943742 -0.62077814 -0.25462392 0.493265 0.2782596 -0.2252452 -0.1805524 -0.53139216 -0.31860164 0.25084653 -0.047716755 -0.5471232 -0.1081897 0.30613935 0.06096849 -0.08942183 -0.051237997 -0.5317291 -0.041456707 -0.025970679 0.26743114 -0.2082746 0.026312875 0.047925532 0.16026868 -0.24213256 0.024350177 -0.43406686 -0.05445996 0.09433812 0.09222318 -0.164796 0.34363726 -0.19868977 -0.7104875 0.4043842 0.10424587 0.1725023 0.07551837 -0.33635706 -0.19982015 -0.2969888 0.20589046 -0.31199765 -0.65033674 -0.7132526 -0.52417815 -0.48659137 -0.12740888 0.27743828 0.14775336 -0.014522547 -0.32420093 0.28303742 0.3104786 0.10577296 -0.49922863 -0.2586676 0.11802868 -0.24252102 0.14192492 0.028587092 0.56438386 -0.23245277 -0.0586734 -0.1096872 0.29868183 0.50227386 0.15548979 0.21598768
311 -0.52737176 -0.42363974 0.66182727 0.6690882 -0.37584785 -0.35663003 0.07675957 -0.27783087 -0.18215859 -0.27684915 -0.49140847 -0.3031064 0.15982099 -0.020061396 0.057757914 -0.043958552 0.1161837 -0.6493105 -0.24887691 0.4857135 -0.26728407 0.006189446 0.36150974 0.30772316 0.506884 0.033597935 0.6295621 -0.28132308 0.091176555 -0.2906956 0.20539714 -0.43909737 -0.03697975 0.20203862 -0.35094118 0.018012213 0.33294144 -0.14083683 -0.53095144 0.53245914 -0.3537114 -0.56659377 -0.16198018 -0.09203071 0.19728833 -0.20226878 -0.07062643 0.13249506 -0.119766 -0.03596827 0.20364399 0.2543202 0.24911675 -0.20038897 0.33081603 -0.092079125 -0.20066853 0.26315615 -0.056881398 -0.12120565 0.1733755 0.20986757 -0.16823997 -0.23930575 0.10644714 -0.30626047 0.26231742 0.6544329 -0.25679106 -0.5571023 -0.25590646 0.4957961 0.13905731 0.406708 -0.2755327 -0.21410005 -0.15646021 -0.026886899 -0.3002769 -0.4461764 0.58786684 0.16815011 -0.3708497 0.021624653 0.006263929 0.027786916 -0.121873856 0.14897867 -0.57518005 -0.16200401 0.4227201 0.01533022 0.2054839 0.0229866 -0.06753605 0.0031267349 0.23683739 -0.1497041 -0.4348992 -0.6114342 0.5966367 -0.30907217 -0.3999189 -0.5874488 0.03538366 -0.23657405 -0.054982554 0.38503486 -0.11262878 -0.121283144 -0.070959024 -0.06865169 -0.016402865 0.5134276 -0.30470106 -0.13390113 0.32845095 0.13106184 0.0053913426 0.072782174 0.5776522 0.24041298 0.47077113 -0.30257225 0.10678228 -0.02208274 -0.02852346 0.4197046
72 -0.2620575 -0.17266504 0.82949394 0.33566293 -0.03684902 -0.7621151 0.4395754 -0.2791155 -0.45122227 -0.0974135 -0.85439897 -0.39996004 0.40701696 -0.34944698 -0.31410316 -0.74854636 0.16127126 0.25087306 0.31836447 -0.22956173 -0.54692936 -0.0645153 0.44654638 0.09143453 -0.08701397 0.10400963 -0.07986478 0.3236446 -0.2153972 -0.029726714 -0.13737948 -0.1469521 0.41111347 0.2356186 0.18440396 -0.11422851 -0.17636408 -0.047482774 -0.071426675 0.48748532 -0.5880524 -0.10533869 -0.10790351 -0.22205137 0.17714304 -0.5254844 0.010900679 0.3374871 0.39661393 -0.35169354 -0.17723681 -0.2947906 0.008694525 0.19736038 -0.051444508 0.24852867 0.3396831 0.6980545 0.47786477 -0.14752989 0.08222276 0.7729981 0.49768004 0.15671834 0.604935 -0.3937094 0.4637002 -0.24191341 -0.32035333 -0.1035739 0.45859727 -0.07696756 -0.06734649 0.24335074 0.12914643 -0.4508855 -0.5248406 -0.7616352 0.37847564 0.09546827 0.091674745 0.043339487 0.0774552 0.19002359 -0.2942346 -0.33650076 0.8019535 0.37699553 -0.3827612 -0.6638898 0.16865869 0.1547641 0.4666854 -0.08550124 0.10323048 0.32598728 0.039142225 -0.04567593 -0.54725474 -0.31884435 0.55371845 -0.15016271 -0.15884827 -0.37997165 0.49335647 -0.42440212 -0.31960917 0.1544743 -0.28019646 -0.23481621 -0.23299213 0.50270045 0.02088915 0.20973437 -0.76107264 -0.45117357 -0.28301385 0.11169827 -0.3089085 -0.35167217 0.24702474 -0.0055308943 0.29931012 -0.2515961 0.21380053 -0.24236815 0.3805578 0.030976122
138 0.24886839 0.42060414 0.52641666 -0.0145291025 0.16820124 -0.2751694 0.3639381 -0.64030004 -0.44600636 -0.43913135 -0.6472851 -0.053096887 0.41823974 -0.27592984 -0.16259047 -0.18244393 0.16929443 0.103108786 -0.05729698 -0.13194717 -0.26820356 -0.13277276 -0.058202844 -0.23582926 0.05249218 0.34206036 0.3170669 -0.12282731 -0.20071028 -0.2512562 0.26423275 -0.34849846 0.05250371 -0.24279371 0.51451707 0.14278738 -0.05957494 0.02831502 0.20819634 -0.011362366 -0.03373761 -0.3214252 -0.34810764 -0.28817746 0.40892094 0.096112855 -0.16978565 -0.12101655 0.41179106 -0.0064811334 -0.27213806 -0.5686357 -0.11707428 -0.37657306 0.08724507 -0.18312652 0.7992972 0.1211277 -0.28160176 -0.023103477 0.43014947 0.36953253 0.2909485 -0.07646029 0.7344774 -0.06795812 -0.035069175 -0.16739026 -0.08579711 0.06671251 0.052039802 -0.21084307 -0.3606704 -0.04383268 0.3427345 -0.26560813 -0.17354985 -0.43405843 0.41817442 -0.33490244 0.24806821 -0.48518544 0.046210162 0.24241504 -0.32789385 -0.52220124 0.23724335 0.23248476 -0.23643938 -1.0662639 0.22638983 -0.1938117 0.15576373 -0.17132828 -0.10101603 -0.20598099 0.018518552 -0.6922595 -0.13755755 -0.24048455 0.44268563 -0.14758466 -0.25858253 -0.5532306 0.09792751 -1.076519 -0.79275316 0.096709415 -0.19033462 -0.39498326 -0.21790373 -0.024060529 -0.13849983 0.02742168 -0.35314298 -0.19884002 -0.19255553 0.15900294 0.11941513 -0.0023424504 0.59640175 -0.34576252 0.09207719 0.20107993 -0.082926 -0.48502588 0.098171875 0.34057605
782 -0.026055938 -0.16430324 0.8389666 0.11160922 -0.39179787 -0.28972286 0.26405197 -0.18498845 -0.6830148 -0.4392732 0.02163151 0.030689698 0.21283858 0.043956134 -0.2915728 0.33651167 0.3517013 0.38145724 0.15290345 -0.1158547 -0.16663504 0.35911182 -0.006908958 -0.29289728 -0.0030340652 0.34502608 -0.0010980928 0.09563861 -0.48612845 -0.11551403 0.37121633 0.0932954 0.2738395 0.14133394 0.34563744 0.04089916 -0.25219437 0.025647555 -0.03152251 0.7863751 0.062889986 -0.18628842 -0.9247727 -0.19561434 0.7909719 -0.11168746 0.61832726 0.28934237 0.13733631 -0.42942145 -0.0144866835 -0.014597147 0.24049252 -0.2907493 -0.39768016 -0.043024007 0.26921862 0.6414296 0.4701065 -0.69389313 -0.19069433 0.41123492 0.29673266 -0.16906364 -0.13270965 -0.6126297 -0.45761687 -0.018639315 -0.13289052 -0.5251932 -0.21299453 0.031824652 -0.07307635 0.05154956 0.37340876 -0.47366005 -0.07319182 -0.27253017 0.16263738 -0.25711766 0.262472 0.10223966 0.1351466 -0.14041898 0.1555431 -0.37767056 -0.005668564 0.022317778 -0.029346162 -0.32737133 0.30141166 -0.16518794 -0.35214216 0.5033689 0.058017608 0.27343154 0.13787477 -0.33545026 0.20232548 -0.13443184 0.46735305 -0.29007012 -0.7823323 -0.5429069 -0.35409176 -0.50688493 -0.21351223 -0.07904535 0.15268928 0.16992725 0.023976116 0.16136533 0.15298964 0.13007635 -0.7872696 -0.224062 -0.18409884 -0.23955958 0.23675464 0.23443681 0.34303162 -0.60964894 -0.08003981 -0.14439353 0.053657345 0.24430276 0.371345 0.22646846
206 -0.038097844 -0.08749045 0.21910751 0.4680772 -0.24778867 -0.38217044 0.19770968 -0.03784206 0.032762524 -0.6814999 -0.38422906 -0.07935866 0.56872874 -0.097494334 0.054795347 0.6051427 0.24066773 -0.24660999 0.15609744 -0.08090395 0.13171628 0.23890653 0.36206442 0.1897152 -0.122215785 0.6355326 0.20005223 0.13379462 -0.40085283 -0.17770353 -0.0115240645 0.15459208 0.18143496 -0.12819332 -0.26347637 0.058375593 0.581824 0.16420408 0.049016863 0.59528065 -0.3011894 -0.09311688 -0.006485714 -0.10783256 0.27934483 0.40591908 0.088277616 -0.3712157 0.34404206 -0.020250449 0.14432193 -0.6142463 -0.007394449 0.0726013 -0.26564607 0.3941638 0.08375346 0.06905957 0.069336474 0.13339727 0.6379461 0.05912977 0.13951229 -0.07140829 -0.12315856 -0.3546381 0.7893521 0.021766806 0.17989911 -0.5070032 -0.35407987 -0.2213506 0.007512064 -0.5071306 -0.576304 0.28032127 -0.21271388 0.09579187 0.5504002 0.3364979 0.5514837 -0.010912354 0.02139286 0.4205399 -0.2242777 -0.085321315 -0.075135775 0.13083503 -0.38220602 -0.2581676 0.30118296 0.053529795 0.032009896 0.823567 -0.22974375 0.1707612 -0.31042224 -0.4868391 -0.55143833 0.08208438 0.58917207 -0.08900687 -0.040661756 0.32934994 0.027937463 -0.20071267 -0.25663155 -0.057363056 0.1463543 -0.9086697 -0.16250364 -0.016048059 0.11058638 0.34863782 -0.18667471 -0.74022377 -0.2758351 0.12516122 -0.23943217 -0.3098697 0.17821576 -0.29566854 0.17812641 0.040046155 -0.13520938 -0.2137118 0.43217498 0.28167087
310 -0.44826767 -0.10972629 0.76624393 0.54976237 -0.42772993 -0.3222958 0.1739941 -0.19938126 -0.37853274 0.0130560575 -0.59293336 -0.12189152 0.097428985 -0.027725972 -0.04735065 0.16974953 0.18736601 -0.35474956 -0.18383963 0.56312084 -0.1998981 -0.058858946 0.13316931 0.021739833 0.6643679 0.15521087 0.5094702 -0.37263167 -0.22555578 -0.55983365 0.13785134 -0.016711587 -0.12386436 0.25585288 -0.6031156 0.06220396 0.18977033 -0.033332076 -0.13638845 0.6866456 -0.34269622 -0.5390467 -0.14766078 -0.31997168 0.17428213 -0.057993993 -0.21593466 -0.17070091 -0.013783615 0.061938014 -0.041844796 0.22687079 0.06312547 -0.44350314 0.4715607 0.02061463 0.19206811 -0.06574638 0.03072196 -0.4207065 0.26025876 0.1801409 -0.17816272 -0.26450232 0.08093442 -0.18471986 0.19928183 0.47880048 -0.2789011 -0.4937867 -0.3737492 0.20092899 0.21429886 0.37643567 -0.28726825 -0.46936178 -0.07591086 -0.0130089605 -0.4518205 -0.56110877 0.44051617 0.34821266 -0.49835247 0.08782484 -0.0809194 -0.017201656 0.07592227 -0.05663852 -0.33057314 -0.12460604 0.3511033 0.08026363 0.23439313 -0.052388623 -0.16922471 0.0494244 0.1865122 -0.24146883 -0.5110623 -0.6090477 0.4742204 -0.22781922 -0.5091597 -0.39659408 0.15182231 0.26176155 -0.16808638 0.25348136 0.083532624 -0.19507203 -0.13321868 -0.16170122 -0.112869084 0.4149174 -0.38046384 -0.13605511 0.4055184 0.07612043 -0.19680211 0.15362789 0.680908 0.004879897 0.34852636 -0.51071346 0.17565699 -0.052222718 0.11959268 0.46315455
274 0.28920197 -0.006007626 0.50127065 0.24061085 -0.08829614 -0.7708244 0.4632815 -0.45767274 -0.21842599 0.6635905 -0.87239635 -0.1602774 0.2727211 -0.45387444 -0.36448523 -0.46469387 -0.13804962 0.17601582 -0.35899314 -1.0253574 -0.42028233 0.23889114 0.29978108 0.109476045 -0.07205694 0.31430596 -0.12675802 -0.19259642 -0.30445454 -0.61007285 0.15952888 -0.13948302 0.38363653 0.38966396 -0.15913112 0.20523685 0.37411454 -0.12663257 0.11463847 0.27362695 -0.3687818 -0.1588128 -0.38513574 -0.93620205 0.45570558 -0.18735476 -0.019388095 -0.28443986 0.8823508 0.17368758 -0.5144193 0.011788192 0.46889904 0.37532195 0.32335976 -0.14814177 0.524156 0.360118 0.23591565 -0.04524402 0.25027332 0.66507244 0.31269327 -0.15391994 0.3320263 0.4602679 0.5210484 -0.09843603 -0.087396145 -0.10428267 0.48085734 -0.34580913 0.39618468 0.5180045 0.16545287 -0.1522742 -0.32053742 -0.03412234 0.43417603 -0.2469254 0.30748388 -0.11840883 -0.45342207 0.6897829 -0.14537534 -0.40939 0.6280142 0.3291457 -0.160348 -0.4703655 0.31788144 0.21357773 0.4712066 -0.43732652 0.5656593 0.06868285 0.3967256 0.16740893 -0.5075765 -0.016644869 0.3223262 -0.5286948 0.12375392 -0.30781856 0.014868433 -0.09718953 -0.10577205 0.5645016 -0.16386263 -0.48169574 -0.59940654 -0.23640703 -0.027336543 0.62150353 -0.61585253 -0.03028555 0.359995 -0.13196896 -0.53084457 -0.7987462 0.4034904 -0.08890911 0.3087927 -0.08301697 0.035582747 -0.24041718 0.6965664 0.2889721
318 -0.38723314 -0.2614951 0.7436947 0.79083925 -0.33960816 -0.22768405 -0.021365514 -0.40019056 -0.13337542 -0.44700563 -0.4857511 -0.2061383 0.08840239 0.13919036 -0.028367234 0.129971 0.38149256 -0.71796966 -0.29302242 0.7698302 -0.14113191 0.2022419 0.44292206 0.26926106 0.49908215 -0.1296795 0.1793581 -0.30723533 -0.0072135674 -0.5037224 -0.05462957 -0.26865143 -0.02987707 0.10791672 -0.4024085 0.24803376 0.19984823 -0.018883483 -0.3537055 0.7770985 -0.61052 -0.54524374 -0.20893994 -0.20004319 0.19022967 -0.056558605 -0.33996347 -0.35617983 0.0011557519 -0.1423082 0.13812508 0.17012659 0.16063826 -0.43448964 0.47950497 -0.11837321 -0.0022475389 0.036050297 0.052878056 -0.24709561 0.33532706 0.1528437 -0.2624479 -0.2167345 -0.05640911 -0.051950026 0.26875934 0.53973305 -0.25302055 -0.17610994 -0.18054615 0.35744533 0.024103042 0.34107122 -0.34017837 -0.53666395 -0.072461486 -0.07030798 -0.3316816 -0.5387569 0.33177993 0.14457019 -0.21612996 0.23930603 0.094374225 0.14164269 0.115288116 0.17828307 -0.3279688 -0.13042389 0.24579723 0.19462451 0.016905406 0.11698913 -0.24102214 -0.10233234 0.14558636 -0.22165929 -0.2940882 -0.758348 0.5432994 -0.1899528 -0.3487405 -0.34351835 0.18884614 -0.065041125 0.06740298 0.39303303 0.10227907 -0.22814701 -0.114349134 -0.08315226 -0.16880143 -0.093137816 -0.24594906 -0.24585083 0.36393562 0.07195144 0.048837904 0.20945512 0.6190121 0.14154601 0.2128045 -0.29129612 0.12328295 -0.14161868 0.15021609 0.31832927
624 -0.24278371 0.5265304 0.61197084 0.7171579 -0.7553564 -0.579994 0.52605164 -0.058822926 -0.19413489 -0.46486253 -0.25463834 -0.7068597 -0.07621764 0.2360501 -0.10725242 -0.053745918 0.2939281 -0.061766744 -0.39034194 0.15041508 0.27604908 0.47040462 0.3010938 0.26029614 0.09780687 0.322315 0.31319267 -0.38663468 -0.12778872 -0.2729817 0.14797243 -0.46334547 0.5383867 -0.05181304 0.25859588 -0.086188205 0.39497513 0.08159774 0.045477904 0.19850275 0.22445154 -0.06474217 -0.12115604 -0.014325767 0.47764605 -0.27830234 0.0741714 -0.27688468 0.48700163 0.28045204 -0.0023349328 -0.24713083 -0.12793566 0.027304381 -0.27304196 0.04458525 0.16232918 0.3456156 -0.122711584 0.18291602 -0.18484887 0.040730454 0.12364175 0.25003016 0.2456636 -0.10128147 0.35853186 -0.20003873 -0.15564267 -0.48164076 0.17187211 -0.4121114 -0.32424855 0.31453136 -0.19736773 0.25327888 -0.14684208 0.4436266 0.19917014 0.3905214 0.5149601 -0.37784576 -0.030046713 0.27753043 -0.07287291 0.50462747 0.11199325 -0.10787112 -0.35764733 -0.09383042 0.24513237 0.060248822 -0.071577325 0.32230625 0.50946724 0.25367394 -0.022178013 0.023746714 -0.035074633 0.0020995447 0.51806766 -0.14594209 -0.20574696 -0.01346962 0.30623052 -0.25925392 -0.40953353 0.2944129 -0.1101104 -0.18225679 -0.66358083 -0.22408214 0.2180872 0.06055247 -0.552261 -0.9671861 0.2598512 0.087654665 -0.61173695 -0.31060004 0.3438558 -0.28513828 0.17378727 0.14804474 0.48098636 -0.30143797 0.6404013 0.2354738
626 0.009944153 0.49481764 0.5283715 0.42251337 -0.6430327 -0.4092882 0.45714822 -0.05458654 -0.32667518 -0.40842065 -0.5964711 -0.530444 0.1693246 0.25186896 -0.1658854 -0.17986092 0.16423514 -0.28580275 -0.28893209 0.0076610358 0.2994659 0.34945384 0.30499145 0.42009053 -0.024807038 0.5483888 0.31813568 -0.27785447 -0.2144986 -0.29716384 0.15890859 -0.21439025 0.32655627 0.069905706 0.08525355 -0.098619804 0.47015384 0.21624565 0.0396048 -0.061557468 0.18974958 -0.024941918 -0.049626343 0.04308759 0.44208494 -0.10212722 0.0687999 -0.46774703 0.45396227 0.17961755 -0.28051138 -0.21803153 -0.15270196 0.013928648 -0.31001776 -0.024533466 0.0026038177 0.25027394 -0.2582835 0.25916296 0.1290519 0.13545969 0.3557725 0.37875623 0.123517744 -0.23845437 0.33984205 -0.46527314 -0.21696965 -0.30840915 0.20328015 -0.55941135 -0.1733339 0.20445162 -0.4154444 0.21027908 -0.16678873 0.42047817 0.1912386 0.5475532 0.3549344 -0.017132716 -0.08982317 0.23797251 -0.11487274 0.13612904 0.35493705 -0.26724932 -0.38814226 -0.23320673 0.22896759 0.17377138 0.014523445 0.42768925 0.27624127 0.19685723 0.020532807 -0.33870992 -0.3288152 -0.02452213 0.7249696 0.08252651 0.040263686 -0.014237997 0.15786709 -0.6229522 -0.38887048 0.16815929 -0.216826 -0.22531025 -0.35061443 -0.2774972 0.2805498 0.47509938 -0.4452987 -0.95845264 0.112188146 0.2651341 -0.5432517 -0.53503364 0.48274237 -0.119869165 0.2069805 -0.23660032 0.3143942 -0.34529656 0.7707419 0.27601707
140 0.3075522 0.39326698 0.3377016 0.1463587 -0.117799014 -0.19595107 0.33958593 -0.60069776 -0.009292904 -0.3593151 -0.7507415 -0.046727598 0.38003516 -0.31791535 -0.10219165 -0.5330439 -0.0146323005 0.10761809 -0.098555416 -0.12876786 0.047897507 0.19329706 0.30952683 -0.43512797 0.25470185 0.40269184 0.118749164 -0.097740956 -0.15861012 -0.3014142 0.04928529 -0.34613022 0.0946078 -0.17352998 0.11296781 0.040160086 0.0013536186 0.05904977 -0.048709985 -0.062914446 -0.39074668 -0.15361121 -0.22901489 -0.27821702 0.22722001 -0.19936737 -0.36118832 -0.25689682 0.3741225 -0.04858147 -0.14593679 -0.40557277 0.097515196 -0.27201054 0.05104642 -0.062129043 0.84457105 0.15603925 -0.30759028 -0.39369488 0.5916959 0.3786668 0.2734774 -0.20069507 0.66553074 0.19171593 0.0966991 -0.51977247 0.051351734 0.12614301 0.21121429 -0.020287566 -0.28468245 0.30102584 0.43229148 -0.3815378 -0.11207085 -0.3366215 0.28765306 -0.22475807 0.19990835 -0.32441437 0.10925163 0.35066018 -0.3809453 -0.47351038 0.257345 0.13611221 -0.33216336 -1.1516098 0.46238512 -0.10252843 0.33244854 -0.11372373 -0.06641416 -0.1941946 0.17999344 -0.64693576 -0.23158383 -0.23560753 0.4921059 -0.121858805 -0.28007498 -0.46181434 0.107303776 -0.96972275 -0.7745644 0.05005726 -0.040071122 -0.4898834 -0.15468366 -0.018878527 -0.09967496 0.22546045 -0.18662004 -0.44549984 -0.1462988 0.34011263 0.43102875 0.12496649 0.42084077 -0.38138765 0.16563445 0.09120491 -0.0778914 -0.5708482 -0.032698892 0.32657972
62 -0.38017195 -0.18258789 0.8326966 0.35257834 -0.10627695 -0.8614125 0.40934616 -0.25319326 -0.35199097 -0.03942423 -0.7538677 -0.45288038 0.41443613 -0.32032242 -0.30190328 -0.69522613 0.10340915 0.08457072 0.37769824 -0.20062992 -0.50625277 -0.2369396 0.41041723 0.20244674 -0.099983044 0.08382414 -0.0064964537 0.32096073 -0.10799917 -0.09205489 -0.058721587 -0.26818255 0.38807544 0.29207695 0.26757795 -0.112055205 -0.07143536 -0.06114754 -0.18011457 0.478809 -0.51619065 -0.087760344 0.068703756 -0.079829395 0.2733459 -0.45250246 -0.16891232 0.23610902 0.45447496 -0.34159288 -0.22780971 -0.3389194 0.029453173 0.2926483 0.040825725 0.14791925 0.25181744 0.63388985 0.46551013 -0.003522277 0.10598322 0.6616982 0.60281414 0.076242946 0.65744185 -0.28335035 0.41204315 -0.31699216 -0.37754038 -0.1258603 0.5481051 -0.3002398 -0.10632316 0.3472173 0.0028727162 -0.48399013 -0.523079 -0.6882889 0.22748518 -0.009577811 0.07073227 0.0924171 0.037129324 0.28339824 -0.3317143 -0.26169246 0.88317525 0.30764392 -0.3210034 -0.73213476 0.06935986 0.34874 0.50154287 -0.041776344 0.083403125 0.21284361 0.115683064 0.04309536 -0.5624546 -0.5410262 0.41535708 -0.0990222 -0.13221481 -0.39487678 0.4453221 -0.35420108 -0.3620136 0.31563476 -0.38051918 -0.30390713 -0.35195357 0.40347493 0.10307949 0.23247714 -0.77716345 -0.3549042 -0.18629093 0.027011719 -0.3974184 -0.40501764 0.3088824 0.14317834 0.30166653 -0.16987753 0.13999717 -0.22119442 0.41469783 0.008937709
579 0.5444181 -0.07243783 0.37696812 0.47789195 -0.20625873 -0.43010464 0.07672226 0.07005746 -0.01125793 -0.52027357 -0.69523185 -0.10232909 0.3212411 -0.15724997 0.09040166 0.3792198 0.52704084 -0.44067383 0.025493182 -0.2537565 -0.50994706 0.8697595 0.19499637 -0.12658407 -0.14175253 0.50558835 0.35242733 0.15986326 -0.57684445 -0.20193924 -0.12106602 -0.009128032 -0.11543232 0.25156862 -0.37926316 -0.04229731 0.63123405 0.36162683 -0.059100766 0.48856336 -0.2711317 -0.5151222 -0.04236109 -0.20241569 0.23209333 0.384163 0.16444296 -0.31643757 0.10038861 -0.4159227 0.1476353 0.17553578 0.3674756 -0.01302504 -0.6469699 0.037189707 0.31065717 0.055784147 0.25179112 -0.21421218 0.5942722 0.6640518 0.7414313 0.016952617 0.16163464 -0.020257229 0.4970416 -0.020122165 -0.03303861 -0.6013037 -0.45753068 0.08453232 -0.046730887 -0.61135066 -0.638768 -0.022584487 0.095463134 0.09168464 0.3819134 0.4012454 0.12245204 0.008296766 -0.002834088 0.52156425 -0.65234524 -0.44709903 -0.059452817 0.28285602 -0.28696415 -0.579613 0.37887624 0.5999461 0.49809572 0.6802913 -0.30744073 0.0016141346 -0.2433865 -0.24136725 -0.7358177 -0.46833375 0.7329573 -0.062292818 -0.18467547 -0.19529033 0.10689733 -0.56197625 -0.29246733 -0.020539343 -0.041712806 -0.8167886 -0.009514856 0.3570216 0.36418045 0.5190669 0.12919661 -0.25966853 -0.6221182 -0.31075087 0.081970654 -0.26698846 0.35743636 -0.012886146 0.43099925 -0.28827935 0.24726179 0.26417798 0.06313045 0.26280683
314 -0.5830353 -0.45236441 0.38214055 0.8265319 -0.37381944 -0.07889135 0.1682406 -0.29609248 -0.114198044 -0.33077008 -0.29777858 -0.29227465 0.08509935 0.09697859 0.09686271 0.1203559 0.032393645 -0.56327575 -0.46017238 0.695915 -0.18698062 0.10878454 0.059399977 0.08603434 0.50284433 0.032980636 0.37643212 -0.2997355 0.06147181 -0.4410451 0.0098614795 -0.20927791 0.051933642 0.12779038 -0.31305692 0.025808841 0.23602536 -0.09639328 -0.58587587 0.5885651 -0.15821055 -0.56890917 -0.16279678 -0.16784106 0.34827486 0.10231805 -0.19844085 0.044425376 -0.05874218 -0.1294242 0.14185911 0.44892234 0.03060655 -0.14224999 0.49672544 0.3180465 0.052359756 0.36043257 -0.050655544 -0.42423037 0.3171933 0.32236248 -0.2671129 -0.2733954 0.07538704 -0.24051812 0.16416538 0.44431508 -0.36510247 -0.4728756 -0.047679093 0.2939585 0.040146507 0.29093617 -0.4350945 -0.6697272 0.13639459 0.21382667 -0.271243 -0.4460299 0.54028267 0.36050978 -0.25741228 0.11448671 0.2122631 0.051025655 0.057670992 0.26655412 -0.43200412 -0.086287566 0.60560393 -0.19756721 0.137607 -0.20207706 -0.0886393 -0.088858485 0.07333788 -0.19692513 -0.4618543 -0.54429024 0.28034192 -0.22594927 -0.6617697 -0.60908556 -0.03379695 0.0054084184 -0.072300635 0.15656456 0.28691572 -0.20235537 -0.1301724 -0.2780341 -0.16574399 0.4090189 -0.23461565 -0.29527482 0.4549885 0.22188677 -0.004659711 0.15463077 0.5902462 0.1009873 0.3381825 -0.43413585 0.13301422 -0.18677671 -0.05467787 0.38588068
580 0.39817864 0.06722715 0.47747636 0.5532322 -0.42918405 -0.2845717 0.13477843 0.056007825 0.15815122 -0.422966 -0.59341115 -0.025819559 0.4898528 -0.07364362 0.17975669 0.16916884 0.5877212 -0.49433157 -0.04917464 -0.04894943 -0.25153297 0.7549558 0.17190436 -0.008402003 -0.22507292 0.43583205 0.371474 0.13693771 -0.39348885 -0.14141402 -0.092714384 -0.15349178 -0.07692732 0.06273645 -0.22551687 -0.09757599 0.5614468 0.33610037 -0.19899635 0.3915966 -0.14838709 -0.40857664 0.074657105 -0.09858028 0.35921916 0.39294222 0.0704266 -0.25764483 -0.03046315 -0.4794336 0.14740518 -0.04567733 0.32443488 -0.028322589 -0.62105435 0.02486939 0.31694093 0.15187462 0.207968 -0.38037273 0.44487205 0.76177233 0.8278404 0.120878465 0.07541899 -0.06638828 0.48483452 0.017890017 -0.0568007 -0.5470402 -0.41267264 0.056222565 -0.02024357 -0.62025374 -0.45259356 -0.1352921 0.12106351 0.013567857 0.3790143 0.55559283 0.069581255 -0.067676686 0.18785846 0.6451786 -0.5449846 -0.25053278 -0.10388843 0.113471255 -0.37574837 -0.5758546 0.34783748 0.45061144 0.34885365 0.60236675 -0.3961785 0.12146794 -0.2490437 -0.33937088 -0.78267634 -0.2815951 0.79021305 -0.16109169 -0.04308822 -0.27262446 0.020135142 -0.5270692 -0.45554614 0.0031102546 0.07059847 -0.88080704 0.057467386 0.35749558 0.5238679 0.3884149 0.06930252 -0.34994563 -0.6326523 -0.35204437 0.20986524 -0.36376446 0.21513292 0.044198275 0.4317649 -0.3838448 0.2001634 0.32140487 0.20145975 0.38354653
313 -0.31247127 -0.4867157 0.6401156 0.7066357 -0.33229703 -0.25696203 0.17305541 -0.27915752 -0.2800701 -0.38787636 -0.18768983 -0.23506282 0.05604641 0.018331446 0.04743479 0.45599636 0.25124678 -0.43855748 -0.4384745 0.64393693 0.008905423 -0.1831672 0.40142572 0.080342494 0.52174366 -0.005521237 0.2931819 -0.21169363 -0.11873551 -0.6179292 -0.16128273 -0.08916132 -0.08812997 0.3232047 -0.5779456 0.014370927 0.3742479 -0.008695604 -0.2807457 0.5492877 -0.42653337 -0.32530615 -0.1784192 -0.2819667 0.20011571 0.023073206 -0.14661793 -0.11217169 -0.09826741 -0.17715305 0.17059633 0.15313207 0.04725629 -0.34242034 0.3691708 0.053911492 0.16774729 -0.01586697 0.09064801 -0.118306264 0.33110392 0.37585342 0.08508681 -0.14888163 0.34298235 -0.18759848 0.23673692 0.446466 -0.30674452 -0.45979637 -0.22182028 0.33454338 0.09747971 0.3768345 -0.6021633 -0.36799863 -0.14095849 -0.16393894 -0.29741326 -0.4747375 0.36279413 0.22109707 -0.3208487 0.11658942 -0.31742293 -0.010092006 0.062745064 0.04992645 -0.16809739 -0.16235787 0.24404958 0.28381363 0.03368686 0.15444987 -0.12918991 -0.092481636 0.12879056 -0.53433335 -0.6123702 -0.7057594 0.44060573 -0.23339647 -0.64924794 -0.82316524 0.08411594 -0.040173244 -0.2258918 0.1457258 0.20493113 -0.10047354 -0.029545233 -0.27540553 -0.26448384 0.029835345 -0.19835433 -0.14546089 0.45580375 0.03605563 -0.007237004 0.20822297 0.52998394 0.24011137 0.37490824 -0.35013238 0.18492478 0.13993184 -0.11704891 0.44977513
781 0.12448846 0.11163858 0.8902857 0.18453637 -0.4056723 -0.30259854 0.5217658 -0.24567352 -0.6317209 -0.43521872 0.03654904 -0.10084561 0.2220613 0.14032091 -0.22642158 0.5361364 0.5828635 0.121275015 -0.037374265 -0.2884144 -0.1928289 0.4195131 -0.3049849 -0.28742364 -0.040528353 0.30480167 0.03214807 0.14334738 -0.30925316 -0.3618855 0.45499402 0.21134713 0.2205227 0.24165647 0.20325004 -0.03172582 0.1031752 -0.01612647 0.084886454 0.65185636 -0.06657227 -0.24868436 -1.1483752 -0.24299264 0.4395696 0.0038152435 0.50910497 0.36761725 0.06218674 -0.36542144 0.049509663 -0.12482817 0.122789636 -0.45552084 -0.31763336 -0.1420644 0.27213582 0.47402337 0.290608 -0.5968219 -0.029180076 0.5500607 0.26300186 -0.10237187 -0.1817437 -0.52856004 -0.17325528 0.024501473 0.0011730317 -0.5100678 -0.10507028 0.30799857 0.014421732 -0.093524985 0.30317292 -0.35664356 -0.12216033 0.02634697 0.3573972 -0.18983917 0.31076777 0.13344912 0.01918213 -0.04344364 0.17830513 -0.3960472 -0.11183014 -0.1600512 -0.15973108 -0.23247539 0.39043534 -0.1777806 -0.6894744 0.32867602 -0.00068978744 0.43287542 -0.025641559 -0.2765047 0.06638954 -0.08479107 0.1474387 -0.28345934 -0.55639243 -0.4421473 -0.41867653 -0.5666546 0.075318456 0.11065077 0.25244746 -0.336161 -0.21564251 0.24091555 0.20653452 0.09792524 -0.30737573 -0.119476564 0.064087145 -0.4775587 0.17963818 0.28413337 0.5929438 -0.3701597 0.025555015 -0.2728482 0.44694963 0.4668464 0.18480834 0.33943978
315 -0.30317286 -0.5587316 0.606678 0.6207457 -0.34441936 -0.39083013 -0.058093555 -0.40606952 0.07003928 -0.2502623 -0.46802527 -0.35843053 0.2599272 -0.044707827 0.07303336 0.19673537 0.3543055 -0.4342691 -0.44600996 0.53923017 -0.101299815 -0.02927662 0.25643823 0.23555802 0.6624276 -0.13950397 0.40080366 -0.41268277 0.07150424 -0.6577075 0.038241602 -0.22264452 -0.080223046 0.060750183 -0.39243174 0.062444124 0.1388683 0.14712325 -0.41769636 0.73085266 -0.32384443 -0.689577 -0.30939034 -0.40186778 0.084542684 0.088357225 -0.097019166 -0.12573154 -0.2999754 -0.09161649 0.15786178 0.2821824 0.03861791 -0.31322488 0.235429 -0.11526365 0.12210338 0.011416202 0.06916249 -0.1706006 0.4452902 0.356255 -0.18446541 -0.34477383 0.16487002 -0.029614894 0.09328606 0.61420447 -0.39958465 -0.29051661 -0.23536326 0.28424275 0.14977649 0.33995196 -0.36216977 -0.21033446 0.18069708 -0.20052984 -0.3029879 -0.62726486 0.5445 -0.068691485 -0.30267692 0.1679155 -0.11966874 -0.05524651 -0.015233901 -0.10008186 -0.2547242 -0.18212278 0.39275646 -0.070587866 0.31568474 0.27597454 -0.20366953 -0.34980544 -0.0208721 -0.3923605 -0.42488393 -0.71704596 0.31634268 -0.34104884 -0.49372795 -0.60350823 0.27173114 -0.040865373 -0.20962392 0.29023802 0.20548701 -0.3559283 0.006770818 -0.12421249 -0.17430162 0.36503315 -0.5090272 -0.2379268 0.31134462 0.027504766 0.040191792 0.094499946 0.57411313 -0.14006212 0.31821772 -0.4257281 0.1278774 -0.2578322 0.029471101 0.23087151
5 -0.18338056 0.39102077 0.5279622 0.61330444 -0.6103146 -0.76927674 0.45553237 0.07964792 -0.3248035 -0.1909912 -0.28375295 -0.56102777 0.07145385 0.29902092 -0.03840466 0.023486955 0.209605 -0.009494445 -0.35983318 -0.024486132 0.5122601 0.21029328 0.40064853 0.38764122 -0.052489303 0.293679 0.26034853 -0.39016533 -0.39658645 -0.14445172 0.046297714 -0.106862806 0.3108641 0.060710106 0.28503326 0.06472747 0.4185115 0.045032024 -0.022723068 0.2907183 0.19257925 -0.3310344 -0.016952533 0.024035804 0.16539061 -0.053188667 -0.019708836 -0.312922 0.66388005 0.028936043 0.028700583 -0.029879449 -0.096316405 -0.015836088 -0.415066 -0.026470687 0.37418357 0.345802 -0.31643787 0.4082474 0.11994349 0.16816166 0.2533038 0.024310587 0.08187654 0.15461962 0.058882404 -0.01618683 -0.40410754 -0.06546105 0.229667 -0.6265606 -0.21449718 0.15114295 -0.49726567 0.34545857 -0.13139397 0.40126172 -0.01526591 0.11824447 0.4683854 -0.10680078 -0.077146314 0.38583294 -0.09080078 0.3464344 0.1418696 -0.09527939 -0.2989621 0.19112402 0.032600943 0.033718668 0.107926205 0.41348046 0.24997953 0.2281766 0.22905284 -0.43177623 -0.065370925 0.00019667178 0.3564798 -0.076905794 -0.014847157 0.12077014 0.1573829 -0.28655583 -0.19875042 0.35113385 -0.2989341 -0.25161356 -0.31592387 -0.29035866 0.38903445 0.21693972 -0.642036 -0.9015377 0.27044758 -0.06919436 -0.6367731 -0.21052837 0.59594816 -0.20007166 0.27362403 -0.03839326 0.39625192 -0.53772306 0.51456946 0.34546646
32 -0.21671031 0.06242673 0.5093241 -0.08639583 -0.048775107 -0.33617085 0.1400469 0.09378377 -0.15477976 -0.37703687 -0.43080124 0.069629095 0.11978309 -0.24316524 -0.28387108 0.12183965 0.25494307 0.27504075 -0.075409345 -0.010112167 -0.21179786 0.462059 -0.16008022 0.020694928 -0.4583876 -0.030526957 0.07748836 0.45396024 -0.6634237 -0.1926135 0.3799133 -0.3298534 -0.06504262 0.12252956 -0.031357672 0.105105415 -0.12135348 0.057888273 0.021110037 0.29348657 0.061879646 -0.22939491 -0.4678822 -0.18711913 0.2805901 -0.15084495 0.2519279 0.19340715 0.3825263 -0.1855301 -0.05546737 -0.11787871 0.11753168 0.09443641 0.13321124 -0.1812313 0.32269263 0.2015673 0.3149174 -0.5523239 -0.24866752 0.6811923 0.29570967 -0.31555513 0.033919528 -0.105167285 -0.1931766 0.33367014 -0.071216054 -0.68775624 -0.48590904 -0.45322898 -0.15739524 -0.40034017 0.21056488 -0.15033127 -0.20770442 -0.30307862 0.6690427 -0.23593909 0.19758888 0.26793998 0.0008269571 0.6305033 0.18229835 0.006539909 -0.2084005 0.0690883 -0.09214131 -0.077336416 0.35428944 0.44811702 -0.6348932 0.25716782 -0.20310752 0.030825192 -0.11198193 -0.13499193 0.053643066 0.17343374 0.4928736 -0.19768117 -0.5570813 -0.7520176 -0.24757865 -0.29591864 0.21424007 0.23039933 0.26773724 0.18645288 -0.08355105 -0.013958725 0.06839527 0.015560469 -0.53501624 0.010161968 0.30698642 -0.43117347 -0.015249879 0.16528058 0.27708882 -0.4362427 0.038405705 -0.23047441 0.3978078 0.17719834 0.20433056 0.3022661
217 -0.20281698 -0.12910844 0.39045212 0.47009036 -0.1950658 -0.52913606 0.1690031 0.07512679 0.21755181 -1.1645509 -0.1985323 -0.16501258 0.7582754 -0.07642289 -0.06827239 0.7088189 0.43292254 -0.095098525 0.03524708 0.157318 0.2790987 -0.020312015 0.35515156 0.274892 -0.07655566 0.56266665 0.00045197117 0.08966982 -0.25539875 -0.1369656 0.09343495 -0.19597314 0.21984203 -0.23523974 0.014755002 0.2528823 0.49750593 0.09610022 -0.11070695 0.803549 -0.38787848 0.081424505 -0.062485144 0.26729175 0.20931019 0.16359402 -0.059976604 -0.16147602 0.5408781 0.05823423 0.39360178 -0.6797574 -0.5189832 0.29240513 -0.24350017 0.34565607 0.24849847 0.18861371 -0.09887982 -0.021701358 0.40985677 -0.074170806 0.057550598 -0.34120247 -0.19177923 -0.504729 0.84640986 0.21087418 0.13408563 -0.37867695 -0.07840395 -0.33883765 -0.18657835 -0.4558841 -0.34465122 0.27819383 -0.44990304 -0.1976212 0.47531518 0.06484609 0.66398555 0.10415886 0.20547554 0.5905768 -0.14279352 0.2246114 -0.09776485 -0.06778242 -0.27440277 -0.30321494 0.38003397 -0.22954671 -0.02538689 0.9801523 -0.13373978 0.13898893 -0.42510015 -0.3461289 -0.2765468 -0.17536736 0.4605512 -0.12324041 -0.3612088 0.12291986 0.21745968 -0.18178624 -0.3474448 -0.10264849 0.25188452 -0.76289546 -0.2974779 -0.12886122 0.088408105 0.1263971 -0.4489946 -0.81321716 -0.15247783 0.19562568 -0.19799143 -0.30741808 0.3524231 -0.5059635 0.1065962 0.29111156 -0.19902796 -0.4062686 0.3132384 0.026718657
312 -0.6341843 -0.24806266 0.67704606 1.0475167 -0.15317442 -0.34189877 0.12603466 -0.401677 -0.18123111 -0.3648954 -0.22110066 -0.48406345 0.38065347 0.07543886 0.13491626 0.2650782 0.27160147 -0.5194245 -0.425721 0.69688874 -0.24939881 -0.20700444 0.30393392 0.31844845 0.82170206 0.1734897 0.24255186 -0.22286817 0.03704966 -0.40746593 0.30812153 -0.29817358 -0.1543569 0.12179516 -0.3421551 0.22630534 0.245944 0.06780107 -0.29338858 0.90646034 -0.033984277 -0.36853716 -0.24072585 -0.13108985 0.28323308 0.0007886136 -0.29546914 0.08480576 -0.10727135 0.049036145 0.3200075 -0.11189872 -0.21340945 -0.30717126 0.43951252 -0.059494372 0.008889571 -0.053865694 -0.061877575 -0.22224572 0.2164003 -0.023402173 0.04092467 -0.26780227 -0.0068006194 -0.13723844 -0.11258699 0.50320303 -0.32343176 -0.317531 -0.09258132 0.18873896 0.1450961 0.16042443 -0.20818937 -0.5283636 -0.042372353 -0.018511208 -0.21594779 -0.42946783 0.20436756 -0.035184186 -0.37450287 -0.07415411 -0.010017484 0.17612875 0.20220497 0.12558477 -0.18531719 -0.2329345 0.46623015 -0.124350734 0.08706837 0.07259515 -0.23311637 0.015228369 0.030998562 -0.2741743 -0.35127708 -0.8143146 0.30171862 -0.16748212 -0.61270684 -0.605743 0.22623923 -0.085436635 -0.05084943 0.2154802 0.09534473 -0.039662644 -0.052403882 -0.20076327 -0.13443634 0.03341229 -0.29807925 -0.2913622 0.61543155 0.108465806 -0.087446004 0.015369623 0.6099745 -0.018513812 0.4038292 -0.30235055 0.1389548 -0.082701825 0.17682777 0.3625775
322 -0.51996195 -0.23334637 0.5064776 0.75878805 -0.37999785 -0.3680791 0.12336817 -0.25173843 0.02179694 -0.2573707 -0.45127237 -0.50464505 0.19602568 -0.026032878 0.30934584 -0.099225804 0.22551721 -0.4694734 -0.66008997 0.7054556 -0.18194978 -0.024703126 0.6097601 0.12068614 0.58015466 -0.075943835 0.20863584 -0.3520493 -0.0634333 -0.33990702 0.08749843 -0.19323178 0.011046875 0.13819034 -0.36789745 0.24069682 0.08735106 -0.28437787 -0.45461008 0.70919204 -0.4484858 -0.41978326 -0.19418229 -0.28276175 0.090965055 0.0069156094 -0.31883374 -0.15911332 0.11217311 -0.08585059 0.33565655 0.19881384 -0.15893067 -0.23734525 0.293245 0.016794344 -0.106051795 0.20645829 -0.009902439 -0.35616624 0.0067034373 0.3255375 -0.058120705 -0.21539429 0.03485164 -0.2179515 0.33269638 0.36074927 -0.0010267223 -0.56959516 0.029435001 0.29926115 0.22932383 0.5037304 -0.15000287 -0.5970141 0.018573586 0.018067608 -0.4198373 -0.58126 0.3318306 0.5179378 -0.37244838 -0.15285291 -0.019722192 0.1311494 0.3074001 -2.7955786e-05 -0.43121678 -0.3645481 0.44964635 -0.056313377 0.043120533 -0.23346591 -0.27509654 -0.19911999 0.12209937 -0.3739982 -0.4382329 -0.66741234 0.38371977 -0.20053853 -0.6063748 -0.47565255 0.13985445 -0.017012836 -0.20779365 0.17331 0.17794125 -0.23735158 -0.017120916 -0.3257006 0.048859075 0.30981833 -0.26603192 -0.35625082 0.354826 0.13255869 0.08071877 -0.0081858495 0.63133514 0.063934304 0.39146444 -0.25116 0.0517268 -0.20662318 0.117513806 0.16020794
628 0.030219907 0.4142905 0.58194286 0.22508474 -0.84609956 -0.57078135 0.47783247 0.023472017 -0.12276781 -0.41052812 -0.30373728 -0.4808448 0.24342409 0.448377 -0.040338073 0.024544414 0.19457728 -0.43893084 -0.19549859 -0.13543454 0.26510823 0.581161 0.13171871 0.46519175 -0.06020486 0.25878388 0.27549347 -0.36074233 -0.25700223 -0.17412741 0.30522507 -0.27084416 0.44330785 0.10610926 0.34528285 0.044643898 0.48113003 0.1932135 0.17724462 -0.2079665 0.10138714 0.0016346993 -0.120657936 0.08496435 0.44569522 -0.29823267 0.014495721 -0.64793074 0.334636 -0.06084232 -0.16719355 -0.16034767 -0.17482129 0.08312501 -0.25288698 0.100966595 0.38128 0.490008 -0.1553528 0.22246139 -0.15083575 0.057660885 0.23193517 0.23429011 -0.042628214 -0.17869847 0.15618701 -0.34836748 -0.30826765 -0.117878154 0.3217076 -0.611652 -0.24738142 0.38418052 -0.2901634 0.21332565 -0.06977473 0.34339246 0.07696378 0.22569385 0.34923077 0.22598296 0.02856365 0.4758998 -0.10309156 0.19630715 0.3302799 -0.016707566 -0.3626961 0.1921974 0.2295406 0.2682687 -0.0024318036 0.2453022 0.41770434 0.2506849 0.06342335 0.07857265 -0.10158594 -0.09747176 0.54769766 -0.09631215 -0.2388899 0.0903835 0.18021138 -0.26894593 -0.20163658 0.29400173 -0.16269171 -0.39588523 -0.2795031 -0.35772604 0.53530985 0.38624188 -0.3812165 -0.85002583 0.27256477 -0.28311124 -0.45808962 -0.2660573 0.6266705 -0.15946272 0.30941927 -0.0770886 0.3669411 -0.25945884 0.76404357 0.37034437
192 -0.2149967 -0.026570046 0.3451685 0.3820033 -0.4638273 -0.49279562 0.24038896 -0.017095853 0.0068829767 -0.66442263 -0.06241094 -0.11249525 0.3964621 -0.028437123 -0.07306159 0.719769 0.20699595 -0.22691932 -0.017936641 -0.083118185 0.16583227 0.15474598 0.21417236 0.27860624 -0.08082126 0.4248168 0.100553125 -0.09817807 -0.36764362 -0.28376427 0.308997 0.0524239 0.43504372 -0.2894181 0.07992654 0.2333619 0.5301436 0.0072558974 0.08467907 0.54687375 -0.18759896 0.022280123 -0.2926212 0.06509895 0.36835358 0.24517448 0.20251274 -0.4795992 0.47732195 0.16813725 0.12856495 -0.6760844 -0.15818596 0.3119039 -0.08345711 0.4211918 0.22863206 0.21782348 0.024323145 0.10915098 0.38818368 -0.13698032 -0.10418545 -0.30013216 -0.2337061 -0.39368296 0.80849993 0.15546024 0.14376327 -0.2376908 -0.07988289 -0.52115434 -0.033512652 -0.113853246 -0.26722005 0.41398817 -0.22237517 0.14303719 0.27877307 -0.023162743 0.6458931 0.13071226 -0.03186292 0.4459858 0.005921981 0.24573123 -0.079827234 -0.067033544 -0.18497741 0.027483078 0.30837357 -0.16621216 -0.14090253 0.85158205 -0.10101034 0.15338476 -0.11927079 -0.14335519 -0.1206353 0.20010197 0.4431978 -0.14617959 -0.15149295 0.38043693 0.16561578 0.11171939 -0.11982432 0.073576994 0.25057998 -0.68095535 -0.45791233 -0.409923 0.12448529 0.2528671 -0.51966095 -0.7750373 0.15824276 0.11333085 -0.26200375 -0.23347773 0.2584751 -0.54728734 0.12381521 0.34189183 -0.1267209 -0.44685096 0.51393795 0.21490887
468 -0.061382506 0.036291383 0.24563025 0.44020218 -0.39282176 -0.74982554 -0.23359416 0.17297861 0.12002834 0.056220856 -0.029318469 0.60198015 0.1465384 -0.072071865 -0.4751478 0.010721227 -0.42338818 0.15965043 0.11751196 -0.34040648 -0.28854683 0.28319675 0.42261553 -0.17393517 -0.23484145 0.033665136 -0.07344987 -0.3564454 -0.14628561 -0.2044306 -0.0008244584 -0.3832198 -0.09781417 0.17502935 -0.095637985 0.49686956 0.010826288 0.36448896 -0.9594973 0.56632084 -0.4051628 -0.11999227 -0.19323266 -0.4758857 0.4070382 -0.07275916 0.011371449 -0.18375258 0.503506 -0.20768736 0.03546267 0.079840496 -0.1559113 0.12534606 0.2507332 -0.039570644 0.19397518 0.5384109 -0.34875986 -0.7483212 0.30065367 0.13939472 0.31823054 -0.38744435 0.16799486 0.09150403 0.33573064 -0.093001276 -0.27158734 0.07901118 0.66580814 0.29031217 0.051056832 -0.39215273 0.19783182 -0.5974722 -0.06753919 0.18248479 0.3210641 0.17037293 -0.13900031 -0.2904028 0.29081 0.55068886 -0.32552806 0.20008758 0.4401485 0.56830335 -0.061716504 -0.23363414 0.35948637 0.12780748 0.46983865 0.27288976 0.09816138 0.36395863 0.088818945 -0.1563682 0.20803963 -0.5637333 0.077659145 -0.33639193 -0.1456396 -0.76793087 -0.36595768 -0.028787073 -0.5458667 -0.17166889 0.19312954 -0.4489748 -0.025274543 0.26630476 0.36717573 0.15939546 -0.50855094 -0.078270376 0.14863825 0.11950631 0.022425728 -0.4253375 0.4798739 -0.17169869 0.10156861 0.07007453 0.24703646 -0.12362407 0.3155698 0.31219754
213 0.32779905 0.08153528 0.38335842 0.55945253 -0.33159667 -0.30077946 0.18988903 0.058147445 0.069402106 -0.46166298 -0.5753159 -0.09494512 0.47391954 -0.04898479 0.12296955 0.39174813 0.43864295 -0.4542827 0.09197014 -0.17150757 -0.11739399 0.5283773 0.26067427 0.022460017 -0.23413545 0.5908244 0.37830663 0.13342197 -0.4179893 -0.28601053 -0.096902214 0.008479188 0.0261323 0.036122717 -0.22253448 -0.046787478 0.66288495 0.33318344 0.047834616 0.3364549 -0.07945376 -0.27755898 0.0007428183 -0.10895963 0.36430284 0.46286175 0.119287804 -0.40459496 0.07578248 -0.2722832 0.004729302 -0.16359411 0.3157408 0.014296912 -0.49548814 0.2065058 0.09631609 0.108016744 0.13987812 -0.04160945 0.63551253 0.4414873 0.5546102 0.13664411 0.004317283 -0.15277758 0.6181192 -0.09606215 0.13775946 -0.53878736 -0.29729694 -0.08916161 0.07424535 -0.5758309 -0.58624583 0.050878823 0.01121116 0.08913907 0.40246144 0.57329303 0.31939775 -0.07200327 0.0077509037 0.5333115 -0.42105335 -0.2459504 -0.0067732227 0.05961481 -0.43441653 -0.4276076 0.2157748 0.36676282 0.19921878 0.6947277 -0.2895353 0.26381534 -0.25702068 -0.31348538 -0.73865604 -0.08404332 0.71757436 -0.06220972 0.076959126 0.110114776 -0.019853067 -0.45480514 -0.3736338 -0.000109714 0.04563698 -0.9058108 -0.10722464 0.1645988 0.2649564 0.42655563 -0.029207736 -0.41302857 -0.5494081 -0.13950053 -0.105425686 -0.43437484 0.24653992 0.03228003 0.33252236 -0.29566765 0.028588898 0.09004497 0.47630042 0.40831503
