881 128
126 0.11038626 0.20051007 0.108033 -0.02925165 -0.107977405 0.047207616 0.2395178 0.007633136 0.09348235 -0.31107238 -0.3777203 0.18562123 -0.3321528 -0.2277642 0.15558882 0.41839248 -0.09339739 0.34616956 0.2722821 0.15427606 -0.105617635 0.35899496 0.40095294 0.05859793 0.00979783 -0.26088083 -0.18729936 0.09582717 0.30390835 -0.1654173 -0.20594868 0.7183634 -0.32766458 -0.035904594 -0.66880244 0.14123474 -0.058420274 0.14056289 -0.026534248 -0.3139073 -0.45537788 0.253472 0.09960795 -0.35094845 -0.038510982 0.009241645 0.2711748 -0.19707099 0.20692484 0.09467134 0.06462779 -0.19433343 0.31244236 -0.4333796 -0.16915308 -0.081589095 0.15453412 -0.38169372 0.50442034 0.2429327 -0.5097923 -0.28896946 -0.010278978 -0.5225007 0.12412417 0.22008374 0.7661488 0.3775846 -0.24902551 -0.07081362 0.020662596 -0.24662435 -0.067570455 0.07573154 0.21006387 -0.373444 -0.24064854 0.14978518 0.094698064 0.33756816 0.44611517 -0.27322742 0.602978 -0.16841206 -0.21839492 -0.059307754 -0.028240176 0.6501893 -0.05637361 0.20163114 0.09612786 0.16014446 -0.40179557 -0.093071826 -0.058088943 0.19169527 -0.035072193 -0.0042174286 0.0063995514 0.20662704 -0.15053375 -0.3956155 -0.00962062 -0.22485675 -0.21874592 0.10952501 0.524934 0.4044859 -0.03765453 0.048628144 0.15388289 0.056219 0.5618813 -0.53173673 -0.23508014 0.1409347 0.6954108 0.64460325 -0.5309418 -0.22734495 -0.31529772 -0.2727559 -0.2819391 -0.07284426 -0.049895715 -0.28081438 -0.32049936 -0.4160208
120 0.034212906 0.19698805 0.16806953 -0.11574857 -0.07709829 0.039546937 0.37803757 0.06389548 0.34104702 -0.20097698 -0.5318711 0.36106563 -0.3920396 -0.33991924 0.36353233 0.6396057 0.14350799 0.25115925 0.351462 0.06291245 -0.29536688 0.44326374 0.28272104 0.030048408 0.009890738 -0.18753691 -0.2152619 0.075916156 0.15328863 -0.23533364 -0.0071674692 0.5515589 -0.051246252 -0.1724196 -0.49123335 0.3304827 -0.05818167 0.14769559 0.11476949 -0.02099169 -0.5867638 0.26677373 -0.1657488 -0.24269193 -0.15582752 0.2968329 0.2434211 -0.1395758 0.27697355 0.04747894 0.20019719 -0.05898401 0.104291975 -0.3728879 -0.021906126 -0.06094098 -0.0024117422 -0.41362724 0.5360188 0.16952538 -0.6063252 -0.36904222 -0.07078948 -0.46731296 0.21794823 0.36924276 0.86362916 0.2703463 -0.45429683 -0.06399963 -0.24058735 -0.3725037 -0.13278995 0.0515831 0.3898081 -0.43413436 -0.12824911 0.04346379 0.04251529 0.40596992 0.47315305 -0.06358544 0.57178074 -0.31598705 -0.26348776 0.0922432 0.026388058 0.70656914 0.012844541 0.38216448 -0.09752768 -0.07819463 -0.23515473 0.06447839 0.002609441 -0.015501536 -0.08010089 -0.12918569 0.17990346 0.27991185 -0.17259777 -0.47775975 0.15856618 -0.19809851 -0.19401641 0.13623573 0.51030225 0.19586924 -0.0027290748 0.17962101 0.10967687 0.058259428 0.4424267 -0.34543276 -0.07737457 -0.09328672 0.73767906 0.60751 -0.5088516 -0.107732266 -0.09275523 -0.06038808 -0.15500778 0.033098947 -0.023328925 -0.17298889 -0.42612207 -0.5259794
131 -0.15945342 0.29325795 0.2418339 -0.075281724 0.015213735 -0.13153994 0.31687534 -0.12675954 0.2135452 -0.2092781 -0.6220562 0.18113126 -0.36406305 -0.5055938 0.266503 0.6401768 0.031504083 0.22593775 0.16855367 0.15991294 -0.26073572 0.4818854 0.08114893 0.20205656 0.12552644 -0.29837385 -0.22986084 0.07232814 0.009981881 -0.2422526 0.13971896 0.7700141 -0.29905137 -0.036826678 -0.67045814 0.41187957 -0.20012589 0.1715403 0.12165862 0.088212594 -0.5013137 0.15723866 -0.051176637 -0.28782582 0.05966403 0.19228093 0.51869917 -0.04506294 -0.04645447 0.046681866 0.0070843273 -0.104779355 0.21856 -0.110320896 -0.15574741 0.14143306 -0.18837261 -0.33898082 0.45759133 0.36759418 -0.54156995 -0.09230263 0.051146407 -0.24861251 0.0843721 0.66411453 0.8511187 0.09716346 -0.3442496 0.11777022 -0.023784665 -0.35152605 0.07031096 0.051251985 0.15090887 -0.44008085 -0.10089189 0.23889314 0.2470362 0.3141543 0.31502208 -0.008232357 0.57535636 -0.08775923 -0.23823872 -0.055908356 -0.08522757 0.588303 0.011036244 0.13172418 -0.026630394 0.05558783 -0.16445425 -0.043050356 0.036204215 0.056520212 0.0885754 -0.123273715 0.033800155 -0.03191742 -0.51012856 -0.44659784 0.15234424 0.008916997 -0.34862503 0.23559636 0.47073475 0.32266098 -0.14724228 0.011403792 0.15451896 -0.05521315 0.41969568 -0.32073772 -0.07213506 -0.100853615 0.83116084 0.66643703 -0.67089146 -0.120951 -0.13990478 0.013325716 -0.18567671 -0.15966584 -0.1403911 -0.23126015 -0.120993145 -0.55496144
129 0.24430719 0.14069869 0.08624757 0.002676065 -0.16588297 -0.002349676 0.51705784 -0.09277706 0.2683908 -0.049378626 -0.4338944 -0.08959693 -0.45405254 -0.39232948 0.28834078 0.5474843 0.02363878 0.30172023 0.2519619 0.31388256 -0.19053577 0.5222267 0.35880938 -0.066843756 0.18244855 -0.22960517 -0.09037442 0.13054812 0.07057084 -0.21587786 -0.0054124054 0.693194 -0.09641764 -0.27105334 -0.51771474 0.13924591 0.15950416 0.2789597 -0.27850732 -0.0973371 -0.44346833 0.25392413 -0.12177326 -0.36023194 -0.09740526 0.08398546 0.09457237 -0.24893701 -0.013381263 -0.019598162 0.21469903 0.023784352 0.25722224 -0.15608978 -0.32575196 0.071716905 0.019928126 -0.42011315 0.4425126 0.056054257 -0.41642877 -0.33339396 -0.032242432 -0.38220716 0.14919285 0.3567397 0.74973935 0.10941461 -0.2274014 0.06349767 -0.20199484 -0.6410864 -0.10197503 0.11414164 0.14907402 -0.3017877 -0.25100863 0.27268484 0.22613737 0.5674848 0.24381083 -0.3331693 0.700813 -0.12226653 -0.35153902 0.0051604426 -0.20628507 0.63186437 0.23049416 0.53052276 0.09285692 0.073016085 -0.23639664 -0.0070031425 -0.20318604 0.29761857 -0.058922485 -0.022995694 0.0826759 0.053218637 -0.26762733 -0.51118726 0.19196513 -0.12108132 -0.09676262 0.2497942 0.42813995 0.40826473 -0.104607195 -0.040753487 0.227063 -0.21299262 0.4172252 -0.68962246 -0.069546945 -0.07939227 0.86188775 0.94441265 -0.58929783 -0.23534967 -0.109558575 -0.035712417 -0.28299907 -0.025851319 -0.08974199 -0.13248518 -0.38752067 -0.6304914
125 -0.03310033 0.2663338 0.001438383 0.17042002 -0.17634091 -0.11096201 0.44702646 -0.098893724 0.12460749 -0.07704388 -0.45291376 -0.03940871 -0.2581765 -0.24197407 0.34279618 0.8434064 0.13312602 0.2487456 0.24870214 0.36160398 -0.3576861 0.4739851 0.2675743 0.10622188 0.0005562017 -0.20493259 -0.24726897 0.17982094 0.14495951 -0.1400478 0.08438328 0.7556229 -0.12809119 -0.027704334 -0.49958086 0.17399018 0.19847965 -0.010835562 0.13186294 -0.090029195 -0.40118298 0.22768147 -0.04082978 -0.17521726 -0.120388135 0.024647119 0.23885274 -0.045493625 0.11291777 0.11091444 -0.05899608 -0.16917719 0.27125487 -0.021525487 0.04237247 0.25552016 0.14371304 -0.5710446 0.6659938 0.03860952 -0.36426607 -0.2931473 0.140382 -0.5308302 0.032078415 0.45313883 0.73133826 0.10463637 -0.19318789 -0.03081719 0.04260684 -0.27915007 -0.009343408 -0.0063167843 0.22177106 -0.30543312 -0.24696884 0.2021134 0.08593952 0.41757414 0.3967116 -0.17182569 0.22066636 -0.32493308 -0.15879907 -0.13500538 0.027129255 0.4921372 0.014923818 0.39432722 0.006968039 0.02001635 -0.13040395 -0.065552376 -0.024029167 0.074274495 0.072616234 -0.020435398 0.1809716 0.07602372 -0.064372145 -0.50600004 0.18405011 -0.2133799 -0.18208823 0.12422071 0.4707462 0.19850002 -0.01816407 0.10637286 0.31102684 -0.024488298 0.2516979 -0.42688367 -0.076431155 -0.20553796 0.7865015 0.8663535 -0.509937 -0.252107 -0.14662994 0.012942308 -0.38722745 -0.004922199 -0.0555908 -0.37151074 -0.4357698 -0.6363314
123 0.1524693 0.3145663 0.14280243 -0.004343745 -0.15810823 0.03942457 0.1932688 -0.037666947 0.31397554 -0.127537 -0.46916234 0.33629748 -0.40146554 -0.111139946 0.21622136 0.76474607 0.2575794 0.51932454 0.45561495 0.094405495 -0.30978602 0.54047775 0.014343267 0.15809041 0.24778512 -0.32095537 -0.35195637 -0.033147175 0.11553524 -0.3306885 0.16887341 0.6669913 -0.1425622 -0.21394148 -0.7137797 0.24072982 0.071733974 0.1914686 0.0056317775 -0.18161848 -0.5292925 0.13928773 0.13750732 -0.4479847 -0.11440324 0.20577815 0.40393773 -0.19080995 0.21358113 0.028797654 0.17042942 -0.20889011 0.24547401 -0.22644801 0.20787163 0.27456227 -0.096782506 -0.49717903 0.57940346 0.13633557 -0.5802924 -0.25432718 0.10006423 -0.26308864 -0.04864672 0.19681415 0.6080404 0.26393932 -0.2611416 -0.0014546762 0.17341578 -0.3130836 -0.03159961 -0.029791165 0.077114806 -0.27447894 -0.3529953 0.20790853 0.19285348 0.5591837 0.33727628 -0.2547966 0.42134386 -0.08408651 -0.3387084 -0.08836309 0.0100984685 0.5503986 0.028558461 0.39763373 -0.026235208 -0.023004098 -0.22273104 -0.018863507 -0.15699063 0.23743595 -0.055919178 -0.23661456 -0.07663065 0.17041714 -0.13763575 -0.2777254 0.29312757 -0.16109219 -0.22466591 0.2603194 0.50382394 0.3122672 -0.17170566 0.14125891 0.22018689 0.16029137 0.32606643 -0.424911 -0.077129446 -0.135902 0.7267167 0.567473 -0.3152297 0.068547666 -0.020120041 -0.15271322 -0.20878711 -0.015587262 0.119496 -0.22695515 -0.52019894 -0.43256858
127 0.23027231 0.20698011 0.51698905 -0.1294996 0.0050451984 -0.14438076 0.3015321 -0.016524151 0.09925223 0.09365788 -0.36839274 0.056830503 -0.57513237 -0.26544428 0.28310624 0.47504577 0.1278509 0.29817313 0.25996843 0.17121287 -0.28474677 0.35511833 0.06443698 -0.0037067228 0.13527186 -0.20123905 -0.31168675 0.027605133 0.0012675073 -0.21598546 0.1608866 0.9659422 -0.3558153 -0.034607872 -0.5502742 0.26317623 0.07452365 -0.0101067545 -0.037621506 -0.09557318 -0.46726418 0.10730794 0.113218375 -0.44644758 -0.05591767 0.17454773 0.32029673 -0.019919487 0.114593245 -0.028128307 0.0672978 -0.009437345 0.31673536 -0.058012374 -0.044872522 0.073571846 -0.033391275 -0.32406798 0.6631919 0.14664929 -0.6794395 -0.3279735 -0.0076212385 -0.4922 0.17688525 0.32155046 0.74909127 0.301464 -0.3759026 0.06490143 -0.07214901 -0.41278598 -0.12501213 0.04983905 0.3509103 -0.42280892 -0.23453456 0.27301618 0.0031246857 0.43967766 0.29092696 -0.28329834 0.51217127 -0.019706978 -0.27320063 -0.042525835 -0.2092897 0.6021752 0.106386535 0.19455224 -0.0042465394 0.018469244 -0.35836276 0.064153194 -0.13978869 0.105854005 0.0042188675 0.041628975 -0.07931685 0.03410792 -0.22962378 -0.44068262 0.039917104 -0.011883544 -0.22427525 0.40321392 0.4079385 0.47767478 -0.07813373 0.0038370094 0.4032229 0.035862092 0.2834391 -0.38095483 -0.028201234 -0.03365728 0.7974669 0.6800522 -0.47447184 -0.14313026 -0.09840544 -0.15540144 -0.36518005 -0.08012969 -0.12186594 -0.35716233 -0.5324619 -0.40765053
130 -0.037135553 0.2326606 0.12340603 -0.29297262 -0.18059489 -0.10176101 0.39011917 -0.12962648 0.32207823 -0.16868797 -0.42045316 0.33973694 -0.51413006 -0.39113027 0.2887332 0.47513503 0.11415541 0.31367332 0.45923656 0.014491023 -0.48966694 0.61001384 0.35681316 0.1098258 0.121168256 -0.39690462 -0.10696049 0.093790695 0.095012054 -0.1845255 0.12835865 0.7009335 -0.12223221 -0.2927362 -0.58258516 0.2620194 0.086639054 0.13671152 -0.2151435 0.05082189 -0.4420069 0.24590446 -0.13565555 -0.33746806 -0.13080527 0.1411253 0.22756155 -0.18101439 -0.014166582 0.005378748 0.1447216 -0.08343159 0.18373923 -0.23481569 -0.19086431 0.2847144 -0.038918443 -0.46751243 0.5508735 0.14980777 -0.38678274 -0.24266331 -0.01485971 -0.39652076 0.19959286 0.20474109 0.67709506 0.10092811 -0.4888156 -0.03828604 0.020649688 -0.32898027 -0.2571283 -0.08020272 0.032487582 -0.23252909 -0.37625617 0.09341886 0.14474091 0.53805894 0.34323752 -0.33779603 0.44004822 -0.16871206 -0.06823179 0.040440924 -0.010615823 0.605755 0.059533082 0.3050056 0.019925863 0.08839405 -0.25010177 -0.13515638 -0.014797827 0.08833129 -0.03535323 -0.15690708 0.030417 0.031361043 -0.2415717 -0.28494748 0.19126683 -0.28704345 -0.2943043 0.37336087 0.53906244 0.39575693 -0.12277991 0.12037598 0.21363595 -0.26130703 0.33984238 -0.60594946 -0.12129227 -0.10300418 0.7035739 0.6431645 -0.65113705 -0.028097928 -0.09346167 -0.090429306 -0.25765818 -0.12600905 -0.12134436 -0.34221342 -0.32006973 -0.40725908
132 0.21192047 0.12407768 0.15513796 -0.089455836 -0.11375252 0.026131652 0.39616224 -0.2701956 0.25757107 -0.09774584 -0.4309942 0.30219877 -0.30786276 -0.5134056 0.087969206 0.60940266 0.09436975 0.38159144 0.3533764 0.22890341 -0.29841405 0.5919329 0.23470408 0.123570845 -0.04912086 -0.09952302 -0.26249382 0.111649185 0.078096524 -0.32141998 0.100299485 0.7863597 -0.075992666 -0.14491831 -0.6424003 0.23245347 0.1648724 0.11326628 0.13633627 0.080879904 -0.4297803 0.21640006 -0.11470224 -0.36714292 -0.24146168 -0.0061958386 0.3986265 -0.16854191 0.037588995 -0.050107863 0.074189864 -0.15959668 0.19603574 -0.3057878 -0.041921277 0.011014283 0.11362278 -0.24416019 0.5356538 0.0826605 -0.43823487 -0.36655712 0.08870213 -0.24687731 0.064398475 0.33793294 0.72417206 0.1281279 -0.31324667 0.22981642 -0.10657468 -0.63204056 0.14395306 -0.09533357 0.284213 -0.32856914 -0.33760795 0.34633267 -0.042084787 0.18543227 0.21589603 -0.19126809 0.4826448 -0.23705566 -0.18651544 -0.01564008 -0.054403555 0.56545305 0.09700414 0.22708736 -0.14349416 0.21745555 -0.23189688 -0.11773972 -0.15776879 0.04173199 0.17144884 -0.06683345 0.028694415 0.101163246 -0.088938184 -0.490217 0.0002769557 -0.11315472 -0.12287031 0.093945295 0.6980695 0.39152956 -0.06642473 0.084143475 0.12938677 -0.14092778 0.22433785 -0.59264123 -0.11794588 -0.15669248 0.6800379 0.69355327 -0.45050207 0.05818101 0.0018952288 0.01507929 -0.39639235 -0.036017373 0.011983941 -0.3243416 -0.5112816 -0.5356722
57 0.05213166 0.04767932 0.350751 -0.059983715 -0.3612441 0.25784048 -0.056505255 -0.33838737 0.21380201 0.15543577 -0.086112686 0.4551281 0.14103447 -0.13116562 -0.3197562 0.6915599 -0.2505872 -0.031089924 0.23986211 -0.22686851 -0.1412331 0.6844424 -0.23593569 -0.21718514 0.3866923 0.29942843 -0.0081296945 -0.038934126 -0.18992859 -0.41452295 -0.2214741 0.03457426 -0.13294294 -0.061389737 -0.08516877 0.057520162 0.16832368 0.33415696 -0.8973283 0.10616938 -0.2533957 0.50795513 -0.04994344 -0.015579271 -0.31918055 0.20620304 -0.56480205 -0.016335933 0.013541417 0.17876448 -0.15139054 -0.023882454 0.31224528 -0.20464791 -0.1441509 0.3189161 -0.36416367 0.06611468 0.42678106 0.08022133 -0.45724127 -0.53323966 0.3592809 -0.0841 0.17659831 0.14975868 0.9442898 0.4210893 -0.00038207578 0.30455628 -0.29551336 -0.6896126 -0.28353375 0.23728941 -0.026263705 -0.3935958 0.11025809 0.10209078 0.4201577 0.16541328 -0.034754455 0.085529074 0.11597149 -0.35921106 -0.8582553 -0.11788366 -0.2752396 0.22239213 -0.05529691 0.40355805 0.050510418 -0.10293398 -0.39603457 0.44052994 -0.14669533 0.27655235 0.2017469 -0.20762414 0.044792257 -0.22742376 -0.25265855 -0.69397235 -0.22208418 -0.032073744 -0.06560701 -0.0823916 0.23610671 0.001091301 -0.4013616 -0.19799088 0.43304932 0.13076971 0.030110443 -0.5077447 0.2256097 -0.20267087 0.33948687 0.2074493 -0.18408611 0.18846904 -0.29264835 0.155034 -0.37574422 0.1747159 -0.011091865 0.27687305 -0.20022808 -0.30706516
122 0.14142106 0.22238426 -0.036796886 -0.14365575 -0.30205983 -0.06974318 0.40340108 -0.023018904 0.4278425 -0.3713075 -0.22361559 -0.08566026 -0.48016018 -0.48271993 0.29239714 0.72931695 0.10227548 0.5604062 0.35087308 0.17775527 -0.33547792 0.59144187 0.07912753 0.008042573 0.0822742 -0.089230575 -0.30931327 0.05409307 0.14173307 -0.41099757 0.090646155 0.84198606 -0.27554008 -0.1451066 -0.47855973 0.25689578 0.072253756 0.13636874 0.088651486 -0.035985988 -0.32045346 0.22389543 0.111881085 -0.21869867 -0.106315635 0.12799534 0.3882797 -0.11281773 0.12220032 0.16093278 0.096445285 -0.105362944 0.3377028 -0.19640143 -0.08119686 0.19290261 0.0475526 -0.53960496 0.5666912 0.17796238 -0.318746 -0.25156087 0.07638657 -0.4721896 0.04231608 0.16131139 0.6282419 0.19146578 -0.23872441 0.25131556 -0.2322931 -0.37993374 -0.07991705 -0.07691249 0.11938374 -0.27178624 -0.30493438 0.3437191 0.050309554 0.5500947 0.3580811 -0.39689878 0.5212194 -0.10772649 -0.114836305 0.13599563 0.102172606 0.67151225 -0.09490844 0.21037874 -0.1400232 0.02090483 -0.3400052 -0.02316425 0.027402095 0.2602513 0.122654796 -0.032513574 -0.17516905 -0.07337676 -0.2851162 -0.38133207 0.13014714 -0.1569885 -0.14657171 0.16271777 0.1450812 0.4095348 -0.10132892 0.24372277 0.27673757 -0.120889224 0.529409 -0.4481036 -0.09990459 -0.07270407 0.5817882 0.78232247 -0.63286173 -0.01761828 -0.22871986 -0.19923565 -0.08095691 -0.07884295 -0.011502237 -0.3054708 -0.15734617 -0.5950824
124 0.13635989 0.4577218 0.3333826 -0.21713358 -0.23225151 0.025239144 0.23447508 -0.045130204 0.21122308 -0.21093425 -0.43455818 0.30737206 -0.42666557 -0.32597753 0.15640508 0.63958186 0.19824015 0.25329486 0.42707753 -0.022899972 -0.48987335 0.1431669 0.2753622 0.21682797 0.11808536 -0.33133104 -0.2486241 -0.013947632 0.0817544 -0.26749662 -0.0672622 0.6950865 -0.12348829 -0.05936334 -0.5832781 0.26917753 0.11406999 0.039397024 0.040738758 -0.15898442 -0.58752656 0.1106626 -0.10523916 -0.38753688 -0.00659304 0.20753513 0.39963555 -0.05520619 0.052761085 0.09829575 0.18640354 0.051903818 0.2574739 0.0036546728 -0.07417775 0.23326886 0.05067737 -0.47014838 0.4771522 0.022567552 -0.31602725 -0.26976535 0.01794132 -0.49345747 0.02689705 0.39543676 0.73807836 0.06741444 -0.50347155 0.21586017 -0.02789336 -0.4693291 -0.037179157 0.005878736 0.16043279 -0.4617129 -0.10117048 0.24495602 0.21766002 0.3931245 0.3652179 -0.354074 0.5358602 0.11684613 -0.3289403 -0.04682632 0.18717073 0.39651114 -0.1652177 0.41667694 -0.04665886 0.08957889 -0.19120762 -0.054888826 0.088512965 0.19966207 -0.021123007 -0.31978047 -0.06408704 0.05201055 -0.1430348 -0.43882903 0.21132354 -0.20985767 -0.27492777 0.23020907 0.50704294 0.5764276 -0.29892722 -0.061408106 0.12568532 0.06283616 0.26895055 -0.587422 0.06913326 -0.025677947 0.6733932 0.74573386 -0.3475388 -0.025062615 -0.050970938 -0.2387174 -0.101834774 -0.0008504974 0.06620772 -0.47760168 -0.378654 -0.43983972
117 -0.017255116 0.38552585 0.28079018 -0.10891775 -0.25098658 0.023742888 -0.017048128 -0.20617273 0.3089561 0.049922917 -0.29666832 0.24893023 -0.27792394 -0.31809393 0.059412844 0.43753168 0.042619523 0.42898333 0.38487965 0.017288232 -0.21505852 0.5559279 -0.0730106 0.2325843 0.0931229 -0.10820177 -0.284703 0.113146506 -0.029995775 -0.20739956 0.09329555 0.7278138 -0.0918717 -0.018714929 -0.458084 0.1746296 -0.10167906 -0.04168694 -0.1458071 0.07398589 -0.4929261 0.49710515 0.20385239 -0.27264202 -0.15285711 0.42099473 0.18268989 -0.11648208 -0.04880831 0.13553847 -0.009723974 -0.13206357 0.41330767 -0.14149374 -0.00678994 0.21177314 -0.15447986 -0.28648928 0.6513433 0.32326093 -0.7050912 -0.48191765 0.09923354 -0.31688187 0.15352717 0.28413573 0.88175505 0.16789562 -0.31894886 0.0933608 -0.048426915 -0.5291897 -0.24681814 0.18514873 0.17725007 -0.33153135 -0.026712868 0.22539935 0.05567761 0.3820285 0.29542238 -0.18771237 0.36983058 -0.2636422 -0.35056686 -0.09204874 -0.0411473 0.4760589 -0.18236567 0.23710233 -0.12663428 0.020888045 -0.09915996 0.032272585 -0.03812121 0.22113034 0.056363672 -0.11453686 -0.05161399 -0.046995215 -0.1624868 -0.56258744 0.070625976 -0.08121449 -0.20619045 0.19665243 0.5757571 0.32685506 -0.13809547 0.22988586 0.111034214 0.16668509 0.19454224 -0.40665323 -0.05500325 0.038106903 0.63361317 0.43419614 -0.47279048 0.15974323 -0.06426011 -0.11872684 -0.3273293 -0.08962507 -0.072043546 -0.22279231 -0.318986 -0.47372684
773 0.19076306 0.12247185 -0.13251741 -0.047166843 -0.12212583 -0.08094741 0.094868906 0.13582951 0.06348768 -0.40865916 -0.24193358 -0.08279532 -0.3506553 -0.2155827 0.17191817 -0.0069991625 -0.1718221 0.26751012 0.11980307 0.29520628 0.044792008 0.15356211 0.61578506 0.058748957 0.06290314 -0.3957185 -0.2946866 0.067351274 0.32450423 -0.28402966 0.15306665 0.43735242 -0.35965148 -0.14174485 -0.7083436 0.23050156 -0.119814985 0.29843816 -0.057842366 -0.21113671 -0.29402524 0.07342013 -0.16485861 -0.3562081 -0.16090435 -0.06999344 0.6632082 -0.074651495 -0.00086279114 -0.29991296 0.047697674 -0.12153192 0.1060513 -0.39539027 0.030524619 0.030463506 0.20196372 -0.5065368 0.4900884 0.11986419 -0.50090957 -0.14023349 -0.3537197 -0.45911244 0.18706931 0.32353577 0.54930234 0.44769603 -0.14564593 -0.10167691 -0.109339744 -0.3256542 -0.31074712 -0.111404575 0.07799927 -0.43370187 -0.23998244 0.19741614 0.13549815 0.19273388 0.7367136 -0.29399982 0.645475 -0.016839487 -0.26979983 0.14600724 0.07308431 0.7684983 -0.16722038 -0.03415481 0.09019232 0.04597575 -0.54125047 -0.26116067 -0.074335136 0.36227515 0.17328867 0.105231196 0.022054516 0.20129599 -0.041842777 -0.1438487 0.09069752 -0.24918094 -0.22235839 0.1726513 0.6458935 0.2655192 0.004862465 -0.2585491 0.12926847 0.10628134 0.3905989 -0.69561607 -0.30320528 0.16468808 0.86098593 0.660425 -0.37402037 -0.348124 -0.13819355 -0.056556612 -0.33255392 -0.09270978 -0.10851865 -0.3673528 -0.26648846 -0.24230011
115 -0.010790663 0.32307333 0.24921414 -0.09782245 -0.023073532 -0.072366275 0.2944791 -0.04432432 0.33938658 -0.20559432 -0.49010617 0.12999032 -0.42266405 -0.28683546 0.39645877 1.0818498 -0.0892699 0.2310594 0.33804145 0.13373451 -0.46986783 0.52115905 0.15585372 0.04945917 0.15540738 0.12462531 -0.21493512 0.19909827 -0.10776881 -0.32254234 -0.0054453765 0.74083203 -0.09811101 0.12217269 -0.5277733 0.5050293 0.10252197 -0.012679564 -0.05053644 -0.14863609 -0.6139864 0.14728223 0.26456615 -0.27136254 -0.123901986 -0.023835974 0.2352315 -0.20407993 0.252755 0.09931691 0.11131928 0.06353078 0.2867657 -0.41022834 -0.11676515 0.019234242 -0.020782989 -0.55989194 0.37763447 0.12066489 -0.31749204 -0.3041046 0.29300943 -0.47730264 0.13893764 0.4042981 0.48422357 0.20220645 -0.35452214 0.034912474 0.031153364 -0.31226692 -0.09419713 -0.06754816 0.37461233 -0.4026837 -0.18384357 0.3132274 0.049852546 0.6050868 0.15280965 -0.2955618 0.48904115 -0.23853 -0.2865164 -0.12018146 -0.13100657 0.5120428 0.089075826 0.30900204 0.21759705 -0.03136447 -0.20517348 0.032401964 -0.15028058 0.2398113 -0.038986508 -0.107276395 0.08209331 -0.028128423 -0.1967646 -0.58310896 -0.06244125 -0.34843004 -0.30602244 0.1407121 0.2712567 0.3543986 -0.15941684 0.18387948 0.03447089 -0.19212404 0.3440213 -0.33723068 0.08314313 -0.0071645323 0.71699965 0.68062836 -0.6374008 0.14850862 -0.095712036 -0.020051144 -0.17640172 -0.10695207 0.0010977015 -0.33076954 -0.4110908 -0.41950732
114 -0.09120011 -0.021916775 0.2561209 -0.11026035 -0.18247896 -0.07891663 0.34585372 0.04813984 0.22210503 -0.15433854 -0.37283254 0.23403068 -0.22731467 -0.38801697 0.2875643 0.81634825 0.15705918 0.48942918 0.35811645 -0.047654 -0.3476845 0.6553318 0.08951872 0.052740756 0.08220416 -0.06662774 -0.11019609 -0.10219215 -0.006587307 -0.2720779 -0.07670732 0.77812725 -0.25298917 -0.027433183 -0.6597637 0.21732384 0.014717897 0.19885935 -0.21555093 -0.07057157 -0.34643835 0.2048304 0.060963027 -0.25162432 -0.033605807 0.13870588 0.04444586 -0.14248715 0.29194728 0.18783933 0.19427097 0.031411003 0.28766534 -0.28822562 -0.12417275 0.19768639 -0.034841914 -0.30016044 0.5924106 0.12635987 -0.64691037 -0.2877002 0.32242334 -0.28373381 0.08756035 0.33431625 0.73791695 0.26149228 -0.38775054 0.24057929 -0.16133954 -0.38981956 0.014056066 -0.18268885 0.056505084 -0.3292166 -0.37388545 0.40990582 0.08295596 0.42512575 0.25017932 -0.24512504 0.5824379 -0.19887465 -0.17120968 -0.06254154 -0.17069037 0.5280997 0.1880647 0.14693578 0.054959875 0.06921312 -0.40612715 0.03445361 0.035862267 0.05503031 -0.04732811 -0.22497198 -0.15486133 -0.22845112 -0.28970385 -0.3858607 0.15411596 -0.25850904 -0.25288373 0.19402985 0.42881542 0.44726434 -0.36810404 0.059480265 0.29498443 0.008860577 0.43389753 -0.36565882 -0.043753088 -0.10965422 0.6371319 0.63299096 -0.66953367 -0.21943645 -0.21099679 -0.10986646 -0.22169726 -0.14750367 -0.03255191 -0.19135699 -0.31697217 -0.44417048
158 0.29100507 -0.009630884 0.12823595 -0.06639339 -0.113957405 0.22528277 0.33267155 -0.1706263 -0.047865 -0.17359672 -0.23510824 -0.05311672 -0.4000469 -0.13027014 0.13444549 -0.05538926 -0.17236477 0.25013366 0.14717208 0.26297286 0.07010058 0.25262815 0.51447505 -0.046440676 0.0973726 -0.36825588 -0.14580749 -0.01377559 0.37657082 -0.23908167 -0.1889214 0.51101476 -0.3999148 -0.25380328 -0.6300555 0.09625463 0.13703726 0.41191515 -0.26606178 -0.3713348 -0.30268285 0.19142273 -0.022548586 -0.5336913 -0.16068584 -0.24625507 0.26618677 -0.19360913 0.22575052 -0.14452538 0.03422364 -0.13839039 0.18339494 -0.3447956 -0.22729658 -0.027839359 0.12497169 -0.19082013 0.32552287 -0.060245 -0.53585845 -0.16931957 -0.31826243 -0.4975645 0.25849482 0.3154413 0.674381 0.29699904 0.111108005 -0.07786889 -0.11302384 -0.6161273 -0.09570058 0.05804093 -0.11848598 -0.20091 -0.10314885 -0.032062948 0.27377287 0.3048021 0.4141132 -0.2239051 0.6271016 -0.24847826 -0.24208288 0.23388584 -0.1063924 0.8100716 -0.0865986 0.25588897 0.059087798 0.11536942 -0.4397081 -0.08298723 -0.21890946 0.41212055 0.02449046 -0.026209105 0.16628435 0.20698452 -0.29054382 -0.34835547 -0.001871865 -0.30860308 -0.08714953 0.11147696 0.49952373 0.35885856 -0.021205125 -0.3929268 0.33882272 -0.09139677 0.54076415 -0.9620442 -0.37667084 0.11258593 0.69496775 0.8962456 -0.42258722 -0.40035936 -0.3298674 -0.12323764 -0.29239914 0.03425655 0.0034607144 -0.20343864 -0.27061477 -0.28438005
121 0.061531458 0.15353017 0.07637504 -0.09236233 -0.20178944 -0.06318968 -0.018593162 -0.052168295 0.3035526 -0.09589018 -0.46907136 0.21329626 -0.52469856 -0.3381078 0.20749113 0.40068692 0.1305308 0.36969703 0.27632794 -0.03251573 -0.26813802 0.5584142 0.29771125 0.24056157 0.10791307 -0.19658536 -0.37371412 0.119466 0.08993874 -0.06833192 0.10036977 0.9722587 -0.24472158 -0.24070665 -0.5722953 0.11734982 0.05282557 0.10815769 0.01507013 0.05383884 -0.5446287 0.15075025 0.12261969 -0.13023457 -0.1758891 0.24833573 0.3592301 -0.1765756 0.18933535 0.10021734 0.1912899 -0.14541817 0.1788021 -0.25710887 -0.15355065 0.1615828 -0.120275475 -0.44458845 0.752655 0.17512639 -0.43920818 -0.21164079 0.19034097 -0.35909352 0.11540615 0.24005319 0.7499565 -0.14172682 -0.21571285 -0.08630776 -0.024584763 -0.51411396 -0.06529998 0.15475242 0.06501908 -0.33200568 -0.16956128 0.19987 -0.013176247 0.4283004 0.38552716 -0.35474503 0.5346557 -0.11744555 -0.23027945 0.1310558 -0.09800261 0.5893746 -0.08261892 0.33386248 0.020953866 0.15534179 -0.18171383 -0.06691143 -0.012621107 0.26798517 -0.10835389 -0.099753715 0.081679314 -0.03568537 -0.11682714 -0.5934782 0.20385328 -0.1865857 -0.21307658 0.2831815 0.55902463 0.37630323 -0.06016716 0.0772151 0.07837623 -0.092403516 0.19043806 -0.3552461 0.0027624178 0.14980447 0.6992605 0.6890957 -0.5325291 -0.05063269 0.00472435 -0.25437698 -0.31995136 0.0042498647 -0.06741633 -0.16811453 -0.2262936 -0.38720655
128 0.019136868 0.22116528 -0.098931864 -0.008862466 -0.16428974 -0.2348736 0.123343796 0.14282961 0.29890728 -0.16009378 -0.35229835 -0.07172152 -0.30238548 -0.3490083 0.31722495 0.6088027 -0.03230534 0.29890376 0.22586086 0.17954724 -0.23635377 0.42648822 0.37037098 0.09467515 0.15522468 -0.09829723 -0.2297818 0.089002594 -0.019521324 -0.22413239 0.23634224 0.58942497 -0.06764268 -0.021117032 -0.55649805 0.26320162 -0.11831858 0.18635733 -0.14683229 0.03324364 -0.40878746 0.15150426 -0.096889265 -0.17891486 -0.15428795 0.22998151 0.38535476 -0.10457872 -0.07378818 -0.15856282 0.1623179 0.055443104 0.1731646 -0.24242397 0.033918243 0.18594714 0.053023323 -0.5488165 0.54678476 0.14821644 -0.50422657 -0.26429734 0.046416342 -0.3489895 0.13830736 0.4357643 0.5839921 0.251706 -0.34473988 -0.01332379 -0.16105962 -0.38441378 -0.39600825 -0.08014709 0.2067436 -0.45662153 -0.25708082 0.43445715 0.019173099 0.45816693 0.50598747 -0.35059386 0.57520956 -0.057643782 -0.37079576 -0.078181505 -0.09758859 0.5826938 0.04641015 0.16820763 0.2278692 -0.02210901 -0.34217656 -0.12426941 -0.06642385 0.25620174 0.04400807 0.004481088 0.013612599 -0.028224008 -0.03378071 -0.36228484 0.24104504 -0.20171463 -0.2839245 0.21393588 0.5899968 0.32776713 -0.141029 -0.00096770504 -0.0020930737 0.024183199 0.2320717 -0.40071574 -0.03188298 0.044765957 0.9073165 0.6209529 -0.5972175 -0.22040677 0.016251426 0.016210591 -0.33629274 -0.13665926 -0.18057379 -0.31078252 -0.358615 -0.4018846
768 0.0908239 0.17773724 -0.038163334 0.13922973 -0.122677125 -0.014233313 0.36519086 -0.04523312 -0.12198335 -0.2604509 -0.38353205 -0.05387366 -0.27368495 -0.09991662 0.22561018 0.23681523 -0.045429897 0.17280415 0.14964704 0.37988526 -0.06374817 0.16147387 0.5326034 0.13789856 -0.11424425 -0.4511486 -0.21410966 0.1099965 0.45071 -0.17231524 -0.07551388 0.61443573 -0.43085718 -0.108301446 -0.72107 0.1603471 0.15803732 0.1338529 0.16681573 -0.4183275 -0.31982586 0.20010822 -0.09072011 -0.33539432 -0.07870819 -0.28210703 0.45362318 -0.06993168 0.22192323 0.013316738 -0.16728626 -0.3226521 0.24087328 -0.27868652 -0.007553739 0.12965304 0.27398756 -0.5709667 0.5711169 0.078187905 -0.42068154 -0.2264961 -0.17344421 -0.6613623 0.13655798 0.40671918 0.7278983 0.32210103 -0.10072007 -0.13113923 0.11648176 -0.17622836 0.003914436 -0.02258837 0.057408284 -0.32155558 -0.23432685 0.04412221 0.15621383 0.23235348 0.6759888 -0.1985448 0.32492006 -0.285471 -0.07868134 0.009944816 0.16251709 0.6770632 -0.18914886 0.19426085 0.0031279586 0.10888668 -0.3325048 -0.20254688 0.004565976 0.19491003 0.15281074 0.06494347 0.14797762 0.24911618 -0.051027548 -0.32299426 0.076757215 -0.32609206 -0.17207544 0.043194156 0.5896986 0.19656363 0.10220113 -0.13951793 0.3679982 0.062013507 0.44320828 -0.69632393 -0.32215565 0.05271509 0.8219485 0.90636706 -0.342815 -0.42376363 -0.31005433 -0.112024605 -0.3690657 -0.06570737 0.0070471307 -0.48009744 -0.32515013 -0.4501969
782 0.2827362 0.090153664 0.43377903 -0.16835144 0.12368719 -0.04845721 0.20850734 -0.021588825 -0.1814083 -0.15316336 -0.2771894 -0.019719511 -0.6474372 -0.06470353 0.20305127 -0.037906807 -0.14660726 0.16274427 0.086501226 0.28340897 -0.04688438 0.07515256 0.30613863 -0.040706106 0.09247834 -0.34123474 -0.36858702 -0.034765 0.2784258 -0.24131912 0.07018711 0.8389964 -0.64988613 0.003131938 -0.6400651 0.27782893 0.03736426 0.044523202 0.07073812 -0.29911125 -0.35041583 -0.073054515 0.1553767 -0.5680367 -0.09061261 -0.20318352 0.5944948 -0.0007575803 0.25324425 -0.15169737 -0.05288665 -0.12438754 0.21134953 -0.2645543 -0.02347256 -0.11257386 0.118454665 -0.26973397 0.56839377 0.10636445 -0.60192037 -0.11568871 -0.30313253 -0.6483538 0.23749003 0.2645526 0.5729598 0.5046549 -0.11020126 -0.10413495 -0.01816414 -0.2737222 -0.08929107 -0.0025799572 0.30187222 -0.4173622 -0.2323222 0.04237417 0.017623533 0.21886502 0.48608246 -0.22061718 0.48976886 -0.004643399 -0.1497309 0.13977814 -0.17765388 0.7672848 -0.13547103 -0.06892687 0.020154394 0.026719792 -0.616463 -0.067189 -0.17189021 0.18694466 0.13505167 0.17057991 -0.046730693 0.21747127 -0.23573412 -0.2308311 -0.23293212 -0.08076815 -0.27280244 0.35682794 0.4088769 0.3719996 0.06727482 -0.25623018 0.4487596 0.042594515 0.42084298 -0.5687073 -0.2407402 0.13181242 0.723057 0.6346763 -0.31486076 -0.27688047 -0.2845075 -0.17722785 -0.34015355 -0.077293076 -0.110131346 -0.40788406 -0.43031058 -0.17863837
137 -0.07472346 0.32377645 0.281142 -0.06581645 -0.4703665 0.16860004 -0.15924436 -0.37956873 0.3168995 0.24231726 -0.12768127 0.20877452 -0.04627728 -0.21254455 -0.12942544 0.4991805 -0.16905634 0.27597576 0.3704192 -0.17614713 -0.14596069 0.7209737 -0.2676921 0.084717944 0.24950248 0.1948835 -0.1700157 0.021539373 -0.17627078 -0.47309637 -0.17650217 0.38854277 0.020127194 0.008137449 -0.15098311 0.049098715 0.09516846 0.09904039 -0.71257377 0.10312791 -0.4768153 0.6622342 0.3015694 -0.15543094 -0.24323104 0.32488492 -0.33789662 -0.21067767 0.06090373 0.2626417 -0.018743014 0.03983244 0.49718493 -0.083488695 -0.17789291 0.19775108 -0.36392164 -0.12012127 0.5682637 0.120641 -0.61686313 -0.69186884 0.35716578 -0.32510942 0.15882254 0.23814933 1.0960319 0.2745424 -0.1614864 0.17502774 -0.16950299 -0.76059514 -0.41798627 0.31092903 -0.011114852 -0.32626668 0.088913016 0.120081 0.29861307 0.43131986 0.20231144 -0.09256796 0.14753126 -0.48426348 -0.55214936 -0.10309105 -0.16391683 0.30702513 -0.25310004 0.5529013 -0.066143535 -0.16755675 -0.07841397 0.1996709 -0.13365759 0.36965674 0.08970231 -0.31984735 -0.06798818 -0.2842913 -0.18098016 -0.82700247 -0.03261823 -0.067310885 -0.08314641 0.09757176 0.3794452 -0.045411654 -0.44612196 0.03056818 0.29066688 0.24035311 -0.04438379 -0.6565652 0.008461416 0.034481194 0.51333237 0.4334141 -0.28942943 0.23975465 -0.24810185 0.02192448 -0.3728341 -0.04890579 -0.009864855 0.13630216 -0.33851004 -0.49942318
624 0.15468319 0.012351593 0.24250881 -0.20978764 -0.0429334 -0.06940926 -0.06891083 -0.23782614 0.13415636 -0.39840668 -0.4772904 0.5207877 0.079872735 0.04712194 -0.16148216 0.042819493 -0.058615834 -0.3952628 0.26254252 0.5818466 0.26575154 0.27268252 -0.040265404 -0.22399114 0.20478019 -0.22362256 -0.2735161 0.16132326 -0.31304228 0.012877041 -0.17104352 0.1325802 -0.5151093 -0.45083678 -0.57424176 0.009655456 -0.1970774 0.0670461 -0.4247655 -0.26303875 -0.14687593 -0.76389587 -0.4454877 0.059391543 -0.35235816 -0.214257 -0.21751775 0.22171828 -0.24945195 0.2389069 -0.052061003 -0.4761728 0.45421496 -0.35388216 -0.29808757 0.55848825 0.2352897 -0.44815332 0.6241538 0.4598898 0.4966162 0.11915876 0.030247426 -0.45997918 -0.2360869 -0.31884634 0.39886567 -0.12419241 0.21756724 0.35949814 -0.10073961 -0.42032298 -0.091208026 0.0060171057 -0.06856126 -0.33593282 -0.22996996 0.16722026 0.59301203 0.20820437 0.24971345 0.11494246 0.47615528 0.3721668 -0.8940817 0.12889087 0.08189217 -0.23452736 0.10210788 0.11206199 0.25806955 -0.19987062 -0.69940966 0.15874691 -0.14751282 0.3599711 0.32172388 0.071757436 0.3185505 -0.15198937 -0.09825949 -0.38246015 -0.4647181 0.25182247 -0.013022644 0.23292255 0.0117003275 -0.24314693 0.0889547 -0.09063921 0.41849518 -0.15169717 0.35916278 -0.41591677 0.5071749 0.17981263 0.12402 0.26926723 0.29650366 0.15105356 0.3450362 0.099730015 -0.34689522 0.02350968 -0.27498695 -0.10843573 -0.02870853 0.032239527
758 0.21811642 0.0549375 -0.032775126 0.0197539 -0.02070644 0.17055014 0.11367268 -0.023836121 0.025006942 -0.3845098 -0.35547414 0.20513597 -0.425433 0.12073248 0.15758693 0.20564735 -0.00986719 0.4021148 0.22325003 0.2272403 0.02457811 0.30165353 0.30529788 0.13716935 0.15153633 -0.45117125 -0.39954433 -0.06680244 0.42034987 -0.3374604 0.027753517 0.50795436 -0.48638257 -0.24297304 -0.8704262 0.2490597 0.059699498 0.36738703 0.08080326 -0.4778084 -0.39295018 -0.053668283 0.17428899 -0.5471782 -0.18322825 -0.27298677 0.6644633 -0.18982732 0.4352806 -0.15719682 0.014355745 -0.37053028 0.119042404 -0.52852434 0.21268046 0.108961724 0.06378606 -0.4607543 0.45073614 0.073151976 -0.49164873 -0.008116021 -0.22002028 -0.3808533 0.01311272 0.14179125 0.39733064 0.4103645 0.13026403 -0.20610438 0.24765952 -0.191407 0.045498304 -0.11860266 -0.13551766 -0.2029498 -0.32723764 -0.01754852 0.2225228 0.32660368 0.55672705 -0.18512109 0.45498446 -0.16254617 -0.19633031 0.17476787 0.040666267 0.7960257 -0.1606985 0.13072044 0.017966393 0.028412437 -0.48260117 -0.14126201 -0.20159279 0.40634078 0.050243083 -0.09734505 0.0030595649 0.31178787 -0.14672229 -0.09225303 0.09445793 -0.3544967 -0.20840396 0.12316004 0.53258073 0.17557825 0.0010171321 -0.20820741 0.31599084 0.1204687 0.51775384 -0.66100454 -0.3869525 0.06690841 0.6769608 0.6417263 -0.18778004 -0.16334309 -0.21938501 -0.17234986 -0.22179608 -0.016448831 0.16611186 -0.25795332 -0.35595927 -0.15821958
5 -0.18294148 0.104160905 0.2538503 -0.21764535 -0.10405996 -0.15428288 -0.06857645 -0.16055106 0.25820398 -0.18777461 -0.5767337 0.43782538 -0.13691984 -0.12268462 -0.3526761 0.039209995 0.049781602 -0.5353591 0.4202561 0.45738938 0.26928097 0.31488347 0.072819404 -0.46287832 0.390324 -0.12065006 -0.25711337 0.14816447 -0.24859755 -0.2552303 -0.39125422 0.14203414 -0.7581702 -0.2574002 -0.40040526 0.16914906 -0.1526925 -0.053157277 -0.2695379 -0.3313555 -0.038385257 -0.7540493 -0.66086525 -0.040311944 -0.41918358 -0.14074764 -0.07478219 0.06903163 -0.2757904 0.31731263 -0.31745878 -0.46393996 -0.036755756 -0.26405144 -0.103052475 0.6339617 0.33967167 -0.6424694 0.4335258 0.108380124 0.6028991 0.06767188 -0.0008284559 -0.37362233 -0.28798437 -0.27239603 0.30874074 0.04183086 0.18418019 0.17876121 0.13485448 -0.18792842 -0.14401202 0.18388358 -0.1806114 -0.5137929 -0.21215257 0.084063865 0.39793605 0.09932464 0.08278286 0.14472795 0.30358696 0.114975736 -0.4091242 0.26980543 0.05350039 0.02394257 0.19966379 -0.11919373 0.21817493 -0.15946534 -0.5739389 0.20846327 -0.097885504 0.6798581 0.3523724 0.2778868 0.46033058 -0.2854485 -0.26231036 -0.47095776 -0.4714928 0.25685096 -0.28120214 0.23535717 -0.05563871 -0.103776656 -0.097886235 -0.22752537 0.3707267 -0.30891058 0.23102997 -0.43202636 0.4327026 0.07006161 0.21811901 0.30858085 0.14504613 0.05405838 0.15995611 0.26633137 -0.28515705 0.0019114248 -0.23441935 -0.16683693 -0.06995194 0.048660774
628 -0.03740024 0.056686312 0.49371472 -0.22695322 -0.14165704 -0.07360488 -0.042250745 -0.20993571 0.04544837 -0.22480159 -0.6193621 0.3764905 0.17129886 -0.43402725 -0.30977678 0.18045475 -0.10574251 -0.59478223 0.21254274 0.5643714 0.25917152 0.26468223 -0.014994761 -0.39269274 0.0886691 -0.17289047 -0.07633632 0.11574496 -0.45752552 -0.026534522 -0.2897947 0.31856152 -0.6597413 -0.21891025 -0.23881464 -0.14904185 -0.15419929 0.015699385 -0.52468276 -0.24288282 -0.02060529 -0.7643375 -0.45238918 -0.2737963 -0.29637858 -0.18209125 -0.29506657 0.033293013 -0.3588379 0.26874632 0.05319424 -0.23830068 0.098102 -0.4101493 -0.18816814 0.7283941 0.4487266 -0.35640377 0.42508987 0.29386932 0.49389955 -0.016707547 0.08184746 -0.33804566 -0.4426459 -0.4073475 0.43951562 -0.0032566001 -0.22263628 0.42313623 -0.08785288 -0.381111 0.0022667937 0.1796902 0.1492749 -0.3320243 -0.04962881 -0.13683243 0.3293456 0.13477616 0.03814555 0.12020697 0.36145556 -0.095859855 -0.6174905 0.3028732 -0.06362337 -0.0732638 0.07452808 0.061394267 0.18657605 -0.35556245 -0.49768993 0.1999721 -0.14719076 0.6407722 0.3316972 0.017557237 -0.0044528814 -0.40042168 -0.23094828 -0.22837624 -0.3773082 0.33907032 -0.014992853 0.20766658 -0.021484032 -0.19884573 -0.110167034 -0.07618517 0.24165396 -0.18758973 0.07084421 -0.4907777 0.48309115 0.050133005 0.24252109 0.37927085 0.10493104 -0.055754244 0.3205251 0.35644972 -0.13905838 0.14671612 0.016268222 0.013816614 -0.032003637 -0.14946178
780 0.27790776 0.13390525 -0.07530848 -0.20361468 -0.14779721 0.026774058 0.38577378 -0.09664297 0.10963258 -0.55968297 -0.13364895 -0.17362522 -0.5878231 -0.2806681 0.19440174 0.040819112 -0.11441657 0.4277185 0.16518876 0.30828243 -0.10071124 0.32606727 0.3795094 -0.032135785 0.030224267 -0.34872723 -0.34603056 0.025899386 0.4740459 -0.4123226 0.025029218 0.72738194 -0.5846523 -0.23579016 -0.6039509 0.2785994 0.1493946 0.21863581 0.16949645 -0.28451937 -0.19338356 0.0852481 0.12044262 -0.44425115 -0.13497671 -0.3038037 0.6820932 -0.11998465 0.2459812 -0.025107525 -0.07035162 -0.23305388 0.2548655 -0.36788923 -0.10303683 0.042785324 0.18954793 -0.46379936 0.4608212 0.13442837 -0.21464339 -0.057523336 -0.29523692 -0.63497823 0.16508746 0.114563614 0.47529078 0.35112104 0.012066522 0.051229965 -0.089559905 -0.29845458 -0.028339334 -0.11671604 -0.022816965 -0.19676644 -0.29857722 0.038036928 0.15989253 0.33292097 0.5500631 -0.3227831 0.49717543 -0.11976639 0.041553646 0.3475591 0.19968589 0.85134876 -0.3246153 -0.017423408 -0.15458079 0.09841623 -0.5306688 -0.18046734 -0.025786096 0.3611886 0.25547162 0.084211566 -0.1069489 0.15114848 -0.32623798 -0.14529827 -0.10547436 -0.24704207 -0.15320475 0.16601108 0.16516839 0.32199576 0.10000689 -0.07120298 0.39895555 -0.15409291 0.63930297 -0.7711094 -0.38888943 0.06049293 0.5446623 0.82614493 -0.47471532 -0.15180072 -0.374217 -0.2312187 -0.102876656 -0.07117506 0.015140067 -0.41569644 -0.08830467 -0.37942767
86 -0.24043623 0.2125611 0.34387106 -0.20015599 -0.34453964 0.1753526 -0.13433108 -0.50394166 0.1445953 0.3398655 -0.15599537 0.23263712 0.027934263 -0.06709012 -0.20197266 0.28963557 -0.36236396 0.013168064 0.2993235 -0.123446725 0.029138768 0.70287466 -0.1709985 -0.11731377 0.29168695 0.3261507 0.006126834 -0.077155225 -0.31174076 -0.4256718 -0.4074954 0.17912966 0.13877001 0.028003303 -0.04624546 0.067079596 0.11476809 -0.021272164 -0.909176 0.104748875 -0.3135385 0.527442 0.34797567 -0.1602096 -0.28043526 0.059472542 -0.5965266 -0.35369 0.06802318 0.3407003 0.10433527 0.1857285 0.38155204 -0.17637037 -0.33914462 0.19798137 -0.21725538 -0.050942462 0.42011783 -0.005467925 -0.23920113 -0.56907976 0.25618014 -0.44769278 0.15233405 0.18962182 0.7290617 0.31202397 0.017761167 0.17545402 -0.23265582 -0.7714714 -0.52546555 0.30889112 -0.01203382 -0.29157972 -0.05428531 -0.012609267 0.21610364 0.46645787 -0.0068225353 -0.14655429 -0.010219767 -0.5349509 -0.56559604 -0.049354203 -0.25362128 0.21893707 -0.18667081 0.5037194 0.087255 -0.21428828 -0.110637456 0.20808072 -0.25649646 0.40214807 0.035981406 -0.3876015 -0.05903633 -0.5346996 -0.15084118 -0.7061523 -0.2752404 -0.108317144 -0.20237632 0.15116173 0.12061873 -0.31802428 -0.520574 -0.17177188 0.28989345 0.08959572 0.056826346 -0.7572367 0.10579549 0.05298187 0.3311155 0.36629885 -0.13020521 0.28787434 -0.22946951 0.14047101 -0.24622309 -0.18941128 0.026368296 0.11365483 -0.3102085 -0.35151765
783 0.10365724 0.11488485 0.14653756 -0.3264939 -0.049947154 0.042715505 0.3764133 -0.14153968 0.05012215 -0.2990933 -0.32387045 0.28649527 -0.57941735 -0.16273977 0.21786968 -0.08961451 -0.032409355 0.1812829 0.30084416 0.13734566 -0.25469646 0.2917926 0.54225975 0.07113994 0.029739397 -0.63762385 -0.1250653 0.07465349 0.38280922 -0.24983884 0.07993342 0.48283786 -0.4231564 -0.3719263 -0.7481527 0.32973796 0.124879606 0.2129563 -0.12252804 -0.24832365 -0.32817867 0.15015462 -0.20271547 -0.5543097 -0.16105126 -0.2415475 0.47975793 -0.15429133 0.10407481 -0.19029334 -0.06881428 -0.26880407 0.07872315 -0.40090072 -0.10435391 0.16974175 0.079525605 -0.44240475 0.4308422 0.086265855 -0.3524483 -0.11552277 -0.42999056 -0.5468213 0.26805845 0.16223341 0.53113 0.29702446 -0.26643473 -0.19832301 0.123488136 -0.1983157 -0.23690228 -0.1389584 -0.12485721 -0.16183971 -0.341456 -0.16842702 0.2122362 0.29843423 0.5340167 -0.27221125 0.38526502 -0.23855391 0.061719406 0.26390573 0.106795125 0.8050157 -0.120293766 0.1140061 -0.048071247 0.111335434 -0.43346882 -0.23799938 -0.06424025 0.18679287 0.099078774 -0.07119097 0.107844025 0.25255242 -0.23126476 -0.04585739 0.012545376 -0.40052745 -0.25378534 0.32330164 0.56864035 0.31529906 0.08683868 -0.16159591 0.35826156 -0.26689383 0.47804502 -0.8708625 -0.40368375 0.0005317084 0.66974676 0.7068337 -0.42730364 -0.13598667 -0.22076102 -0.08055785 -0.24847461 -0.1038838 -0.0077583846 -0.47210652 -0.25624081 -0.13767491
741 0.14673558 0.17252275 0.14997308 -0.15527035 -0.00782021 0.1517624 0.2996444 0.048567742 0.019256601 -0.43098095 -0.38466316 0.20955196 -0.50051725 -0.09680191 0.27337962 0.008426714 -0.07479879 0.1307454 0.19073418 0.20862006 -0.09014049 0.10713785 0.50129765 -0.038670857 -0.007902472 -0.41985643 -0.32161462 0.0068308446 0.45188445 -0.2500267 -0.11907572 0.43046856 -0.3547303 -0.17354538 -0.53866565 0.31645998 -0.046791203 0.17731586 0.19325954 -0.28582212 -0.4342183 0.0812102 -0.11408354 -0.40848038 -0.14947164 -0.022783453 0.5113665 -0.05849001 0.3897081 -0.063973404 0.014178396 -0.14693335 0.063673064 -0.4197008 0.002884366 -0.19787724 0.16673353 -0.3403688 0.44689634 0.10301805 -0.484032 -0.17375214 -0.46719193 -0.70520735 0.27911463 0.295369 0.6992662 0.4301389 -0.15093566 -0.21060792 -0.17040771 -0.31700486 -0.10818069 0.07184577 0.2932603 -0.38959643 -0.04440484 -0.25201753 0.14362311 0.21473573 0.6788226 -0.010300077 0.5467426 -0.24402119 -0.150035 0.31825444 0.13933483 0.8075731 -0.31127244 0.16983272 -0.1395907 -0.09408473 -0.45699725 -0.039966032 -0.009493892 0.13006844 0.055717975 -0.034435686 0.22585581 0.47313607 -0.18434867 -0.23990947 -0.09469328 -0.26194304 -0.18600188 0.12670156 0.44048515 0.14890102 0.13140212 -0.11116274 0.23735495 0.118314765 0.58588237 -0.60260755 -0.3072458 0.052830987 0.6165265 0.63237846 -0.30429286 -0.26107597 -0.26920757 -0.1306209 -0.11216432 0.07739228 0.0027323633 -0.27452558 -0.30601007 -0.31980035
143 -0.16111289 -0.0062798164 0.5069341 -0.17241006 -0.25328803 0.13485646 0.0057718516 -0.16163382 0.33870548 0.041690182 -0.23509438 0.3641333 0.030359978 -0.30084178 0.12305623 0.81819326 -0.22321795 0.11405123 0.28700107 -0.2899817 -0.20541954 0.83685637 -0.24269414 -0.08776141 0.20058289 0.46027178 0.00041391572 0.04403965 -0.3433404 -0.51327413 -0.3323777 0.1915584 -0.09308717 0.053918835 -0.19353822 0.3614016 0.17385456 0.16372013 -0.77966416 0.012925298 -0.48928452 0.53795195 0.2972065 0.037457023 -0.2555582 0.04388026 -0.5909259 -0.1734981 0.39778334 0.34138486 0.02279867 0.20835237 0.338238 -0.47646877 -0.28419676 0.07255598 -0.393286 -0.13940717 0.39827147 0.13575977 -0.6122956 -0.6012317 0.55598134 -0.17108555 0.30538723 0.31001538 0.86659306 0.30436403 -0.24295628 0.3003517 -0.28344703 -0.7103941 -0.14443009 0.04957462 0.075356536 -0.33404306 0.08374284 0.10432369 0.32809195 0.32712904 0.045002054 0.04515969 0.33051887 -0.6552831 -0.4977859 0.013079888 -0.26482505 0.29550126 0.0038622755 0.34364054 0.054714568 -0.21972258 -0.1476563 0.36800176 -0.08871826 0.32413766 0.027522055 -0.33654997 0.039983574 -0.38087374 -0.31694534 -0.8534023 -0.29203284 -0.32928306 -0.06381638 -0.014492127 0.17346546 -0.108876444 -0.5405662 -0.007440086 0.25557533 0.021978473 0.077360466 -0.36196202 0.20688508 -0.06667994 0.30314004 0.42058817 -0.3846743 0.33233067 -0.2439088 0.15944093 -0.22886321 -0.0650474 0.11867233 0.2837001 -0.1845993 -0.36324552
192 0.047257077 -0.18748471 0.35100693 -0.108479515 -0.09771696 -0.23179196 0.2260329 0.15602502 0.0040995013 -0.5282465 -0.37826195 0.36508262 -0.21774742 -0.07649397 -0.16731974 -0.22588795 0.3609833 -0.41311294 -0.14348938 0.29236346 0.084932156 0.7529731 -0.13450839 -0.22171278 0.057526965 -0.19240588 -0.29624158 0.35941136 -0.62954104 0.016473377 -0.4301617 0.3169907 -0.8102665 -0.52618474 -0.10057327 0.37346992 0.29841378 0.08117055 -0.6015239 -0.5465693 -0.090155825 -0.53389734 -0.36174864 0.052854948 -0.072254784 0.25670242 -0.3428934 -0.347611 0.2803075 0.17513748 -0.6048399 0.10215869 0.4074282 -0.38774526 -0.056103364 0.46991518 -0.044871837 -0.4120446 0.32789353 0.17165565 0.49509528 0.008788844 -0.10910238 -0.58851725 0.1516698 -0.16768204 0.45716855 0.2777339 -0.10943347 0.3356354 0.37298915 -0.04563821 0.0255533 0.30086887 0.015598731 -0.5195031 -0.12836385 -0.028593224 0.4245946 0.14444529 0.24248928 -2.5512563e-05 0.027686505 0.22233024 -0.50309944 0.3395095 0.0010518032 0.13927875 0.08021063 -0.22821085 0.028624263 -0.16733627 -0.35361555 0.06500195 0.057920903 0.64049655 0.09400375 0.06919343 -0.21962984 -0.33916467 0.12448889 -0.018795712 -0.1619111 0.18367957 0.15805358 0.19886851 -0.054295875 0.04062481 -0.29780272 -0.19177979 0.5039099 -0.08159256 -0.1518247 -0.14939032 0.3874493 -0.21154508 0.02167392 0.15815736 0.24860035 -0.106023446 0.27877763 -0.09877075 -0.24568804 -0.05248676 0.16948473 -0.13905987 -0.11029611 -0.14667408
60 -0.20550331 0.04367057 0.22305828 -0.3325307 -0.41689235 0.22829503 -0.11426779 -0.56182593 -0.04948476 0.2365926 -0.06843407 0.5151881 0.11786983 -0.07678155 -0.45182568 0.3337653 -0.3577409 -0.36477798 0.34680554 -0.2269232 0.013821823 0.5538074 -0.15881687 -0.338792 0.42116863 0.3091475 0.10813496 -0.23629881 -0.2103458 -0.56629163 -0.48013815 -0.09214185 -0.06128709 -0.13083613 0.06622983 -0.04807212 0.21718487 0.05367195 -0.98751897 0.105023496 -0.12101692 0.35544136 -0.14652553 -0.07998582 -0.44686282 -0.0066298167 -0.5262717 -0.3423544 -0.08927043 0.28628904 -0.122012824 0.08794579 0.12922105 -0.13401672 -0.14688969 0.40992376 -0.23249124 0.029846633 0.48955378 -0.20939007 0.048441615 -0.40709013 0.15803725 -0.29529592 0.082915224 -0.01543475 0.73927987 0.5045139 0.11142088 0.11418432 -0.37101963 -0.49628493 -0.515536 0.33133402 -0.07220685 -0.6098355 -0.07198812 -0.057976972 0.3480076 0.18378498 -0.016821172 -0.036840957 -0.3054949 -0.38262567 -0.757255 -0.092691205 -0.19948187 0.1871555 -0.122101456 0.4541308 0.030981328 -0.24898069 -0.40233853 0.29217333 -0.26485097 0.37162733 0.25298187 -0.3252643 0.056735024 -0.43381017 -0.13646244 -0.60659856 -0.51192343 0.1900195 -0.28920797 -0.009281527 0.13752303 -0.45788017 -0.54822975 -0.36278206 0.4606841 0.07305421 -0.076854326 -0.77484375 0.3188988 -0.15503909 0.33691132 0.11729619 0.077408575 0.35902616 -0.3077615 0.21043266 -0.2328841 -0.036843468 0.018407432 0.1799726 -0.35078892 -0.22273408
669 0.2511014 -0.14254412 0.47098804 -0.24865976 0.103938766 -0.15141273 0.0013857861 -0.010397232 -0.0037074054 -0.44942752 -0.34579864 0.5384159 0.12128482 -0.35501656 0.027647218 0.13117802 0.120361775 -0.3983132 0.13226798 0.5405708 0.44098857 0.41556108 -0.12890637 -0.29236686 -0.072257705 -0.3351633 -0.25406733 0.118185796 -0.4383668 0.116982184 -0.1591781 0.4225698 -0.5888234 -0.47380674 -0.5638912 -0.07594503 -0.2504569 -0.11371738 -0.51677364 -0.42508996 -0.1459353 -0.5571626 -0.3972837 -0.27677906 -0.28607973 -0.14378 -0.07753433 -0.007874731 -0.27546048 0.07570131 0.043629102 -0.20665799 0.33077237 -0.48970988 -0.13087453 0.7831593 0.23594332 -0.40570003 0.79189664 0.3663834 0.45672175 0.043924395 0.025920779 -0.22118098 -0.2503001 -0.32598555 0.36362863 -0.05320743 -0.066268824 0.4147634 -0.25386345 -0.18587624 0.21437643 0.053149752 0.10989297 -0.43641624 -0.018170001 0.15436001 0.709461 -0.11038752 0.19007045 0.12534384 0.61656624 0.24170622 -0.9979264 0.047658067 0.11574865 0.020600772 0.24756528 0.01800533 0.116289906 -0.12050365 -0.522802 0.17830966 -0.24482523 0.48983198 0.32812646 -0.010583612 0.03121147 -0.16925496 -0.16365145 -0.31476605 -0.5326447 0.47223428 0.17924029 0.18706545 0.047404896 -0.1545651 0.05635201 0.068160325 0.30166835 -0.10474909 0.26648876 -0.12730962 0.57083666 0.069843896 0.34918848 0.31734747 0.0019365513 0.18975595 0.4014732 0.0032026619 -0.03377391 0.20261165 -0.04889224 0.0143966945 -0.027110472 -0.10878382
71 -0.35461265 0.37608817 0.0944671 -0.09342209 -0.33798552 0.105605565 -0.26079044 -0.2658489 0.095118836 0.17617248 -0.10997832 0.32699424 -0.017285306 0.12323911 -0.26480758 0.15693243 -0.52982134 -0.082232594 0.16473217 -0.023595609 0.07018186 0.7518487 0.18771724 -0.017019968 0.36240768 0.24189873 -0.06957988 -0.02785089 -0.23092228 -0.57127327 -0.4713764 -0.04090185 0.2985378 0.011064339 0.070038036 0.09023241 0.29795665 -0.24906048 -1.0077467 0.12441052 -0.2690862 0.43209416 0.24840382 -0.092425995 -0.44181934 -0.14575873 -0.60244036 -0.3858919 0.0856 0.3026893 0.12133646 0.27743918 0.25498775 -0.094673686 -0.32425103 0.029836623 -0.00027065715 -0.0610462 0.5071936 -0.205274 0.12010981 -0.5258543 0.3472802 -0.66356045 0.014589759 0.25282237 0.60494846 0.38463694 0.010524162 0.009185535 -0.21688153 -0.7550901 -0.61512834 0.054579824 0.06329056 -0.33430508 -0.23019198 -0.23202784 0.22002113 0.2959464 0.18555588 0.0383269 -0.36467564 -0.58571124 -0.5328128 -0.049947865 -0.099135734 0.09206034 -0.4219386 0.52051926 0.15046372 -0.35989794 -0.32947138 -0.013087306 -0.10454671 0.25940737 0.20447737 -0.40986186 -0.10905996 -0.53852963 0.097841926 -0.67449605 -0.46203133 -0.19549482 -0.33306918 0.25551704 0.18888552 -0.86911577 -0.65243435 -0.35736728 0.35092714 0.12611535 -0.14335515 -1.0872216 -0.058639955 -0.026528906 0.30504596 0.2976911 0.064412154 0.37020415 -0.21345465 0.3059001 -0.28991494 -0.19734992 -0.013814945 0.25670218 -0.47877535 -0.32441273
7 -0.03030754 -0.1664355 0.27525645 -0.19753237 -0.1738093 -0.05503731 -0.027869707 -0.124384865 0.14387396 -0.15027507 -0.26056787 0.6216764 -0.124718465 -0.067145996 -0.36549938 0.2671294 0.08198333 -0.4895952 0.33420384 0.16106948 0.28692886 0.6527101 0.03664392 -0.5298373 0.394318 -0.046212137 -0.19033995 0.015448551 -0.22968929 -0.2924741 -0.38505873 0.0023554426 -0.64495486 -0.23597111 -0.24606918 0.070383586 -0.026769282 0.07663259 -0.5865006 -0.3697275 0.047290154 -0.26168138 -0.641478 -0.058647707 -0.39624953 0.036079768 -0.10760106 -0.05421371 -0.3453082 0.14746538 -0.43405816 -0.33496085 -0.068990186 -0.03713392 0.041704394 0.77966505 0.056440804 -0.44729236 0.49867624 -0.02732204 0.39949852 -0.07853211 0.027830802 -0.08213312 -0.19569829 -0.2365185 0.31637236 0.39637527 0.32354668 0.1903659 -0.0045825094 -0.07523187 -0.16691414 0.28515953 -0.20346151 -0.669683 -0.062217418 0.16274808 0.5339813 -0.17732412 0.04850662 0.10206152 0.11595789 0.09179533 -0.6241803 0.035111245 -0.012742674 0.22396769 0.43256426 -0.088231206 0.087332755 -0.028215636 -0.55084854 0.3441354 -0.21297555 0.6129471 0.3009409 0.07930505 0.2771203 -0.48029253 -0.2997137 -0.48673967 -0.49241054 0.40581685 -0.2232591 0.035979137 -0.053051617 0.09750214 -0.25696805 -0.434963 0.5417109 -0.1551026 0.26337916 -0.27996036 0.33735752 -0.17547666 0.3013456 0.10023698 0.11613221 0.23414388 -0.09664681 0.04187923 -0.3437309 0.033254623 -0.14998184 -0.08491047 -0.09468068 0.04345703
785 0.22778453 -0.014258619 0.03993884 -0.115665756 -0.006793427 0.053047992 0.3389133 -0.2552573 -0.037120856 -0.44207373 -0.3371342 0.20636764 -0.36468506 -0.32567164 0.042661205 0.077972986 -0.1691826 0.2558476 0.1757239 0.35125637 -0.08336505 0.33556724 0.53078836 0.06509273 -0.12542476 -0.28684863 -0.33522063 0.052960515 0.3937261 -0.34187803 0.033656266 0.6482805 -0.41188574 -0.11368004 -0.77628034 0.26778293 0.12296152 0.21784657 0.2091945 -0.14089358 -0.27163166 -0.00838431 -0.09703729 -0.46330178 -0.2570519 -0.4362893 0.69509023 -0.10826475 0.2091295 -0.20211215 -0.08754274 -0.29357696 0.07332396 -0.5403213 -0.045978546 -0.12812862 0.28319722 -0.24456513 0.46404532 0.050489757 -0.34023184 -0.13882157 -0.22781956 -0.4444448 0.14447334 0.2752493 0.55881304 0.33343852 -0.061894063 0.05180141 9.628434e-05 -0.4619097 0.16505481 -0.19646396 0.1716824 -0.31398705 -0.36541143 0.10443933 0.010954704 -0.025056517 0.49180147 -0.1510593 0.4923269 -0.23384419 0.0025149202 0.2073793 0.0044246856 0.75021863 -0.1300582 -0.09645058 -0.11705292 0.23639254 -0.5187315 -0.2873926 -0.1588621 0.1531769 0.31025365 0.053146787 0.080510765 0.2577588 -0.09795357 -0.2158792 -0.23169187 -0.23579454 -0.18816549 0.0570141 0.70718116 0.2876637 0.059719875 -0.2238029 0.2348289 -0.17593318 0.38295704 -0.81139463 -0.38131285 0.007997895 0.6254194 0.72232705 -0.34410015 -0.15905826 -0.20808266 -0.0129156895 -0.42334437 -0.06707999 0.01599327 -0.41399896 -0.37539524 -0.27627984
633 -0.1780281 0.11312028 0.40940166 -0.06516327 -0.17462184 -0.14119744 -0.1455183 -0.1738193 0.16152903 -0.15940951 -0.7537434 0.49206123 -0.14103833 0.0024529395 -0.6389194 0.10412338 0.106280796 -0.7952925 0.32827705 0.5135136 0.17239702 0.42774925 0.006718412 -0.24406672 0.4190885 -0.0064925626 -0.20593365 0.37672102 -0.42764854 0.0021155286 -0.4640146 0.24482699 -0.6647993 -0.33088607 -0.38456154 -0.038688462 0.035476837 0.2809871 -0.39403394 -0.120707616 -0.060026772 -0.6189448 -0.5279767 0.16805768 -0.045531128 -0.34641132 -0.35966098 0.14087565 -0.33338317 0.29287618 -0.16266857 -0.5091932 0.36642092 -0.28742874 -0.19618967 0.60259587 0.36706114 -0.36817744 0.33744696 0.46591085 0.38262877 0.12661466 0.03160134 -0.41080633 -0.36466387 -0.24175058 0.50768745 0.058348604 0.27346373 0.38335022 0.04452547 -0.2892726 -0.1119763 0.13506812 0.16831739 -0.4154713 -0.2558429 -0.0713103 0.3784771 0.2454975 0.29873392 0.1398713 0.38152337 0.15354693 -0.54493225 0.27099878 0.023352377 -0.1477828 0.009796452 -0.059752658 0.418973 -0.21815953 -0.63509095 0.12034406 -0.16488765 0.25230065 0.38155618 0.073549815 0.30442804 -0.5595141 -0.052113898 -0.2529997 -0.3649193 0.103798 -0.10180995 0.3368409 0.106953464 0.017667485 -0.19350499 -0.07367273 0.46871996 -0.008025961 0.34974948 -0.3486224 0.39605492 0.02952387 0.12516846 0.24995297 0.21151452 -0.047156077 0.1657141 0.23638678 -0.29893696 0.14842674 -0.25555825 -0.20383233 -0.014318922 -0.100357704
779 0.1446411 -0.03195731 -0.08318256 -0.09796411 -0.16562459 0.0117244795 0.005925737 0.012996176 0.03351578 -0.33406746 -0.37978598 0.057790857 -0.6256702 -0.13437964 0.2253418 -0.11206259 -0.040175218 0.3009016 0.15586852 0.07420691 -0.0633652 0.31754476 0.6585774 0.20036872 0.022214327 -0.40259734 -0.4183884 0.0614297 0.44109514 -0.021322709 -0.036675647 0.9235209 -0.53867304 -0.32549512 -0.7189052 0.10488318 0.121604174 0.20359062 0.10119249 -0.25927562 -0.39497367 0.0038525942 0.088260196 -0.2011349 -0.22981638 -0.14692475 0.56804335 -0.17808968 0.4235122 0.010956473 0.09229856 -0.28522313 0.09498365 -0.4686083 -0.13949399 0.050347507 0.1087846 -0.51278985 0.72861457 0.09265065 -0.365418 -0.025422202 -0.14634266 -0.6239697 0.21248913 0.16493648 0.60835195 0.003425238 0.0558068 -0.27769276 0.011085445 -0.39513037 -0.03704878 0.08515579 -0.07848474 -0.28491762 -0.201948 -0.012458236 -0.024429336 0.2940462 0.6874661 -0.36686665 0.5653718 -0.16900027 -0.05101498 0.3827951 -0.00094193756 0.83485746 -0.32166 0.15723896 0.048266318 0.17627351 -0.45424506 -0.19138503 0.013512822 0.37699145 -0.024427146 0.03314622 0.15459247 0.13205038 -0.089443006 -0.39873347 0.04858632 -0.3905755 -0.21100447 0.2102298 0.57578504 0.28460205 0.110001795 -0.17490262 0.20317014 -0.10039986 0.42043465 -0.58019406 -0.23987527 0.3270698 0.6692266 0.82332784 -0.4131058 -0.33891216 -0.21278308 -0.31301188 -0.30913475 0.028178208 -0.039462205 -0.28907216 -0.11899661 -0.21906506
13 -0.07801771 -0.13592735 0.2866939 -0.22802815 -0.068670265 -0.16580597 0.16431466 0.21900275 0.1833547 -0.3853093 -0.375588 0.64708567 -0.27205437 -0.24004775 -0.24700445 -0.010660378 0.32047585 -0.47347414 0.21605651 0.30256686 0.38876814 0.7364064 0.06781255 -0.4568389 0.2693129 -0.14336725 -0.23123129 0.31453365 -0.42390788 -0.18958884 -0.4487982 0.20753646 -0.7635095 -0.5211329 -0.2311856 0.24894784 0.08941026 0.084571145 -0.51959926 -0.59769565 0.010668738 -0.501291 -0.7081617 0.050615784 -0.28377134 0.20790868 -0.13259588 -0.33530825 -0.07328119 0.24956255 -0.581859 -0.19629668 0.031438936 -0.29344806 -0.053335115 0.6019222 0.034164388 -0.52224904 0.5966974 -0.05086395 0.50325346 -0.041104574 -0.06480569 -0.2639358 -0.014255181 -0.21618104 0.26069677 0.20530352 0.19745737 0.06989124 0.34900343 0.08945295 -0.0015718191 0.26127404 -0.098070964 -0.66894263 -0.06403638 0.078241296 0.5376816 0.005014429 0.12697898 0.21544735 0.084462956 0.20783295 -0.3401182 0.24549142 0.19650975 0.1647118 0.24104199 -0.38915518 0.046749603 -0.043963224 -0.38010633 0.08689792 -0.05757912 0.67324513 0.15573923 0.3408168 0.27947557 -0.32870942 -0.15034479 -0.52152824 -0.40043822 0.27292937 -0.101725675 0.22465338 -0.0070775375 0.08893227 -0.23313144 -0.20723656 0.3909785 -0.26580527 0.010395228 -0.28677535 0.47807792 -0.16328622 0.19422871 0.08932595 -0.041633286 0.04184078 0.13421492 0.061974995 -0.21799843 0.06464159 -0.048620507 -0.063615695 -0.026764728 0.037451133
626 0.06675363 -0.0038050357 0.32251975 -0.27981916 -0.1824317 0.0024848885 -0.028506802 -0.37449744 0.14775091 -0.18247959 -0.44903818 0.37795818 0.07474904 -0.03329733 -0.43223432 0.13707922 -0.053888887 -0.5593574 0.29359326 0.40754586 0.15789968 0.42970884 -0.123275615 -0.3455726 0.33406916 -0.050129198 -0.1047774 0.0050962092 -0.36559713 -0.31911546 -0.41351417 -0.045207426 -0.72913706 -0.25442603 -0.22943704 0.05199172 -0.13721612 0.18873568 -0.5828749 -0.26421022 -0.04211738 -0.59487545 -0.5344155 -0.08646078 -0.39929357 -0.13518907 -0.30933127 0.19394536 -0.40437448 0.23855737 -0.26836318 -0.4208924 0.23535757 -0.1317715 -0.037742604 0.6534076 0.23651643 -0.34930658 0.32572916 0.43323457 0.47393635 0.004093934 0.08170131 -0.2679169 -0.31825957 -0.4097645 0.5145121 0.33654326 0.15179123 0.4545516 -0.11473542 -0.4407167 -0.27577415 0.1666122 -0.15644981 -0.40876862 -0.15536891 0.057831123 0.354209 0.1586488 0.07112521 0.034394395 0.24149117 0.023871146 -0.750678 0.16635112 -0.07058536 -0.041197125 0.22914203 0.14911772 0.25576138 -0.34740925 -0.7114342 0.3946492 -0.14839847 0.613203 0.34082583 -0.09845896 0.025140999 -0.52113533 -0.22241354 -0.23076771 -0.41876012 0.2878763 -0.16814058 0.054885615 -0.12915671 -0.108079575 -0.25101915 -0.42095476 0.5730123 -0.048206184 0.2662277 -0.40484706 0.30488628 0.07255267 0.06970872 0.26684138 0.39486948 0.099019505 0.03600574 0.049757984 -0.48080784 -0.117769755 -0.08325018 -0.059590332 -0.028061863 -0.08041907
206 0.076776005 -0.38717446 0.18036997 -0.044764798 -0.13914914 -0.25604182 0.1432095 -0.0066269976 -0.05426148 -0.5761961 -0.44054207 0.21165368 -0.34537134 0.19079335 -0.11051969 -0.21070062 0.10366215 -0.22995551 -0.3116107 0.11809798 -0.21139432 0.81451 -0.16776499 -0.15120497 0.0014135663 -0.25381488 -0.43351126 0.19193418 -0.5257181 -0.09053155 -0.29251173 0.1882851 -0.7392407 -0.3264423 -0.14045197 0.50681955 0.15501338 0.070507124 -0.7149353 -0.35285264 0.027084017 -0.28725708 -0.1276525 0.039820746 0.09554428 0.20587336 -0.34891278 -0.10085658 0.3467429 0.052738488 -0.6604689 0.076462634 0.5096224 -0.112031914 0.055474136 0.47814393 -0.09496336 -0.45256567 0.28270873 0.40362325 0.49724704 -0.12047862 -0.10647772 -0.65123713 0.112815775 -0.16542879 0.4664727 0.728321 0.07294434 0.4069572 0.10208584 -0.1722225 -0.11759333 0.30009028 0.015972596 -0.352346 -0.27629584 0.010499132 0.43620673 0.019462774 0.436911 -0.041566987 0.036015086 0.18010136 -0.6304419 0.22159031 -0.09781287 0.42742562 0.21194687 -0.015482611 0.03551666 -0.25657016 -0.4807807 0.19905242 0.17102684 0.5647857 0.20340353 -0.3389768 -0.6626287 -0.7062425 0.08127987 0.16593623 -0.0020670553 0.1690998 0.19678594 0.15456225 -0.09193115 -0.095820025 -0.44495475 -0.43048233 0.6073176 0.16389643 0.029521054 0.10824007 0.15118334 -0.26115182 -0.13453026 0.28369525 0.63686436 -0.07206982 -0.08662387 -0.23470536 -0.4704584 -0.37712476 0.12755404 -0.28253433 -0.096852005 -0.34212953
319 -0.30594918 -0.37329483 0.13128693 -0.45529574 -0.49230102 -0.2671285 -0.54348975 -0.25644302 -0.21672893 -0.4396869 0.05923181 0.32541224 0.13423549 -0.26641485 0.10014653 -0.42205378 -0.17549303 -0.04777174 0.41106364 -0.16201225 0.3276246 -0.26181418 0.27772596 0.13406931 0.07484601 -0.10775102 -0.27846256 -0.60021013 -0.022168862 0.030084472 0.14603932 0.19445978 0.2249992 -0.73831487 -0.29375422 0.3999001 0.6461058 -0.065489024 -0.29321527 0.05989864 -0.2474966 0.10072098 -0.21424772 -0.038855027 -0.4196797 -0.69834155 0.26557982 -0.4717424 -0.036962286 0.3447934 0.14006707 0.0030709985 -0.15854223 -0.3962243 -0.39360657 0.0368997 0.008437903 -0.976518 0.2563998 -0.31347728 0.113159545 -0.10377609 -0.07560904 0.20280616 0.43344954 -0.08360743 0.34245926 0.016673075 0.31109753 -0.00936818 -0.15277661 -0.22998486 0.23316121 -0.15541953 0.29098332 -0.090342134 -0.3282728 0.22793432 0.34884524 0.10637225 0.5141124 0.21744362 0.38259545 -0.027635522 -0.45734632 0.09767967 0.22630328 0.22275934 -0.053575207 0.47984904 0.18146463 -0.4077381 -0.23145701 0.0846364 -0.26963905 0.32856128 -0.11039214 0.36039704 -0.086534135 -0.5803412 -0.09564183 -0.11198958 -0.20341164 -0.30486664 -0.08645561 0.18289648 -0.12310162 -0.40370202 -0.1708541 -0.13653864 0.43707705 0.3138749 0.046300203 0.15184177 0.3295383 0.26713818 0.28835657 0.18286711 0.38638505 0.3706162 -0.59776264 0.18016127 0.11754843 0.045994017 -0.14346226 0.20303687 0.446104 -0.7558137
781 0.3191847 0.23515916 0.24801351 -0.19475706 -0.17200339 0.12619285 0.1785194 -0.03582187 -0.104897566 -0.35166845 -0.25782958 0.08201416 -0.44371963 -0.15486 0.071662344 -0.041065387 0.022530926 0.20037869 0.21603078 0.09261106 -0.17075934 -0.056634042 0.55770427 0.15472215 0.051320493 -0.5095181 -0.2666961 -0.05849259 0.368423 -0.24700522 -0.20762733 0.6096614 -0.47268862 -0.14117515 -0.75042343 0.20378068 0.16854185 0.17292663 0.013359726 -0.48223397 -0.36780265 0.019799938 -0.1026652 -0.55940646 -0.03456286 -0.21843673 0.5653377 -0.08177716 0.19662075 -0.08124869 -0.0044877925 -0.059263166 0.2268767 -0.16299282 -0.10425964 0.09913035 0.25669867 -0.36875194 0.3786336 -0.061692405 -0.29984006 -0.10882035 -0.27465948 -0.6000627 0.09802178 0.34987304 0.6015142 0.21081169 -0.18198943 0.08931223 0.031278722 -0.46964732 -0.00091746444 -0.0662719 -0.09614791 -0.34221125 -0.108203225 0.11326591 0.30520704 0.13116713 0.5494122 -0.3390984 0.58915544 0.054681126 -0.19691522 0.15835114 0.20888841 0.5837497 -0.31464657 0.20633091 -0.002468438 0.21837603 -0.4158322 -0.2054545 0.028355988 0.3711493 0.08570223 -0.2186799 -0.039804853 0.13465938 -0.124609105 -0.25409323 0.020349605 -0.35392845 -0.20572366 0.17113318 0.55160236 0.60550344 -0.1584988 -0.40140098 0.24892323 0.049789224 0.39903605 -0.9034587 -0.25370172 0.18604901 0.61990786 0.8753081 -0.24976854 -0.26630723 -0.21410963 -0.287836 -0.1636046 -0.0037511324 0.11921563 -0.5543999 -0.26024398 -0.2269925
310 -0.28545663 -0.0037232384 0.0635655 -0.5282859 -0.5016496 -0.4150368 -0.53682095 0.051619276 -0.25771606 -0.26787752 -0.31448936 0.29789388 0.19902664 -0.0059170416 0.17728344 -0.26363277 -0.027248485 0.027394233 0.544476 -0.25974756 0.46852225 0.027749091 0.34272847 0.11496339 0.0068711606 -0.22461462 -0.020287737 -0.28508598 -0.25525555 0.01148612 0.023038236 0.25576553 0.09431886 -0.49427935 -0.24988934 0.4130123 0.59879655 -0.10358081 -0.16674258 0.10386197 -0.35390902 0.072358586 -0.31042406 0.10853579 -0.2778434 -0.5048209 0.24484818 -0.34983465 -0.08871437 0.3410339 -0.06523505 0.046519414 -0.22613163 -0.8400571 -0.27663708 -0.13760611 -0.25085375 -0.76682657 0.37584198 -0.2830484 -0.15093353 -0.11340689 -0.06642249 -0.009713479 0.5831007 -0.21435255 0.4057697 0.34600782 0.27368984 -0.015653877 0.14152458 -0.03177541 0.15416615 -0.41983843 0.41497123 -0.346515 -0.24570152 0.30338746 0.2837059 0.14133786 0.27074993 0.07349068 0.36374944 0.089690864 -0.28268674 0.14041018 0.14745274 0.017381715 -0.09086496 0.5761299 -0.084383614 -0.26277882 -0.11886001 -0.033901066 -0.26256377 0.21819365 0.0399635 0.42820004 -0.10904455 -0.5005539 0.071402185 0.107566714 -0.033954564 -0.3318596 0.1182144 0.26529413 -0.03825676 -0.4285806 0.03717387 -0.26718473 0.33100528 0.48988461 0.27560195 0.13380955 0.38628435 0.10809411 0.2114231 0.27470636 0.35145867 0.4020685 -0.31509802 0.20141381 0.20483164 -0.08063935 -0.072954625 0.18018982 0.20826629 -0.8759628
784 -0.14683835 0.17688845 0.15679865 -0.025949616 0.037076306 0.025909832 0.2053869 -0.13941929 -0.12984265 -0.5124016 -0.50009626 0.17135781 -0.36193466 -0.2306033 0.1473606 0.06165216 -0.14794393 0.22811407 0.08423979 0.2734232 -0.0052479217 0.2714832 0.4445689 0.22942248 0.07662335 -0.552297 -0.2891025 0.008127021 0.36096653 -0.16524057 -0.033233017 0.6456753 -0.532551 -0.065908484 -0.8416225 0.3191464 -0.1783016 0.26583838 0.09568415 -0.22712722 -0.37638867 0.02191143 0.0012685084 -0.4931409 0.024946969 -0.1865034 0.73206836 -0.061647937 0.1510726 -0.020585569 -0.100424826 -0.23797123 0.15038602 -0.27722636 -0.16467501 0.060558412 0.033159044 -0.3117592 0.4389587 0.26258552 -0.48810816 0.09938402 -0.2617562 -0.38736323 0.106403194 0.56963974 0.688688 0.19568722 0.013905576 -0.09628801 0.15042028 -0.3103857 0.20559478 -0.011858169 -0.062453754 -0.32766974 -0.07807156 -0.04433011 0.39018932 0.1080864 0.53195435 0.057643473 0.63432056 -0.13064735 -0.06819425 0.144499 0.014023636 0.69606274 -0.24630639 -0.054179728 -0.050130203 0.14476062 -0.3668369 -0.19748762 -0.00022008386 0.20145513 0.13979095 -0.100209475 0.114233375 0.13944055 -0.5051384 -0.23730804 -0.05214284 -0.19605462 -0.36964294 0.18481718 0.5850998 0.30298904 -0.116149634 -0.29562637 0.22814222 -0.00399053 0.6119959 -0.6405832 -0.39767078 0.0624283 0.72692126 0.7098999 -0.54808265 -0.3364742 -0.34946647 -0.08167332 -0.2054826 -0.0998702 -0.08884792 -0.26321533 -0.022642596 -0.3504135
286 0.15181799 0.7096221 -0.22169545 -0.010790596 0.009389667 -0.50407255 -0.13492906 -0.054175775 0.10130042 0.017776242 -0.23389757 -0.10284992 -0.07763097 -0.41480774 -0.161621 0.04950217 0.05556922 -0.3233175 0.12268631 -0.14905311 -0.22566263 0.58717877 0.12982227 -0.35994273 0.36508206 0.15172976 -0.41026288 -0.3469377 0.25785914 -1.2035125 -0.19434123 0.08426697 -0.3090026 -0.28888196 -0.39541653 0.4325282 0.45000055 0.20349042 -0.12742986 -0.033243243 0.15171064 -0.029529445 -0.31875488 0.118754044 -0.15897417 -0.60260004 0.15600158 0.0055863005 0.43269262 -0.22745053 -0.75528634 0.00087891694 -0.23537034 -0.66536146 0.4750046 0.17889866 0.23662329 -0.27818808 0.5847251 0.1614693 0.41768625 -0.45521942 0.5606557 -0.495489 0.098622836 0.55958265 0.698833 0.70507973 -0.4458129 0.055863593 0.11948556 -0.030212382 -0.43165153 -0.5559879 0.025068425 -0.338029 -0.4349534 0.13053954 0.60114694 -0.04237246 0.7361497 -0.15451424 -0.4938552 -0.5081568 -0.250859 -0.07903548 0.34209397 0.12576148 -0.61508685 0.18216355 0.48048994 -0.1517741 -0.45225605 -0.40184626 -0.12633988 0.3758935 0.60791165 0.02684708 -0.1002763 -0.00014198085 0.2737514 0.045795117 -0.260393 0.02366578 -0.28139696 0.12527466 0.14840648 -0.7521004 -0.23384632 -0.22748362 0.37751985 0.24289149 -0.4646126 -0.63121176 0.12517107 0.107926 0.4428466 0.6514357 -0.26712453 0.114299126 0.085080065 0.24934793 -0.28058612 -0.058389094 0.14807555 0.3161882 -0.19952033 -0.42445368
312 -0.2640226 0.014073655 0.060698386 -0.44075012 -0.5324861 -0.39025077 -0.2634189 -0.16214046 -0.18059485 -0.13899998 -0.22671658 0.2014263 0.08666347 -0.22264 -0.08070312 -0.35556805 -0.04048287 -0.23713812 0.38457072 -0.14084181 0.17374279 -0.2491282 0.24351479 0.05232076 0.08367705 -0.12444717 -0.33464983 -0.5897744 -0.22657724 0.07959264 0.11655097 0.3555559 0.06841011 -0.7756184 -0.30309504 0.12502854 0.372007 -0.28616872 0.052288108 -0.18799013 -0.25669986 0.11972736 -0.26562813 -0.25190228 -0.67948645 -0.56265324 0.24740766 -0.50922966 -0.12651813 0.32655263 0.11947021 -0.055945322 -0.34452438 -0.89116687 -0.45892948 -0.28990033 0.050414402 -0.8276348 0.49723035 -0.2857832 0.11809509 0.11281132 -0.13240774 -0.029064015 0.51112324 -0.0054914877 0.3742547 0.24855831 0.1670662 0.112706885 0.08119884 -0.06587719 0.1222234 -0.4075577 0.25404027 -0.13573837 -0.31174278 0.4075111 0.20607996 0.21945319 0.49634317 0.4724595 0.2317624 0.013126969 -0.3792833 0.032051437 -0.030489147 -0.039062954 -0.070272945 0.4805354 0.09109097 -0.2638062 -0.08752446 -0.13303463 -0.33115914 0.36105907 0.044162255 0.20955689 0.0102879 -0.59729767 0.11581049 0.15339187 -0.054150946 -0.36460844 0.07567845 0.29990545 0.17537957 -0.26573095 -0.0022992296 -0.15682262 0.17849477 0.22194415 0.24010502 0.03484738 0.26935646 0.18182166 0.31526238 0.15713379 0.080743656 0.3083176 -0.552227 0.1530695 0.37044948 -0.0832669 0.019300202 0.13040335 0.21752764 -0.6949504
55 0.083179645 -0.09354823 0.2599695 -0.10493578 -0.15946262 0.12257513 -0.04649627 -0.40404665 0.09911509 -0.009683103 -0.082004264 0.6797451 0.08002289 -0.021105211 -0.5334113 0.3809056 -0.06443739 -0.38918838 0.254529 0.063568525 0.10958306 0.5775107 -0.17763916 -0.4299969 0.32018605 0.17013769 0.026480388 -0.034167755 -0.23513895 -0.3131869 -0.31693497 -0.11791963 -0.4025029 -0.18182601 0.03940104 -0.06383721 0.1519356 0.27072483 -0.8595831 -0.1426399 -0.023385562 0.14122905 -0.40242746 0.01741694 -0.289973 0.045980092 -0.49736303 -0.03982261 -0.29107085 0.14874443 -0.25869906 -0.13677561 0.22023219 -0.07591307 -0.047138423 0.57321155 -0.19187486 -0.008897316 0.46660495 -0.07455728 0.0024621827 -0.2933524 0.22659399 -0.13570029 -0.0018928826 -0.24222295 0.6376048 0.615017 0.21463934 0.36788842 -0.24275824 -0.25120682 -0.20113601 0.31762075 -0.08835804 -0.61905944 0.043234102 -0.051283676 0.63261676 -0.05325814 0.028815184 -0.020009607 -0.043553412 -0.023368532 -0.8229579 -0.08905629 -0.15917929 0.11550806 0.14796603 0.26689512 0.08517482 -0.19366027 -0.575326 0.4805036 -0.23878457 0.27091745 0.25841942 -0.20353317 0.010193109 -0.39410403 -0.17616831 -0.39543915 -0.41461298 0.25964218 -0.02149961 0.028489932 0.1495723 -0.106281325 -0.32472032 -0.4231938 0.536121 0.091734655 0.10972304 -0.552146 0.25760248 -0.14908516 0.29758236 -0.028903458 0.07795821 0.19767195 -0.055909086 0.026307682 -0.36026382 0.13193157 0.00922013 0.21293588 -0.31836367 -0.15270315
320 -0.45971087 -0.280343 0.2972145 -0.371471 -0.37531447 -0.34295192 -0.52017623 -0.038888708 -0.2725107 -0.11228837 -0.043202963 0.3594069 0.02462811 -0.13093957 0.061023407 -0.5459802 -0.047822237 -0.0057926374 0.4886266 -0.04152817 0.23530395 -0.2050847 0.31684485 0.061361764 0.21151674 -0.0025400452 -0.047085073 -0.52021044 -0.12290852 -0.121327244 0.0007311858 0.29781088 0.15086576 -0.608122 -0.22479519 0.39204004 0.63740987 -0.30159166 -0.118183285 0.081191525 -0.099242754 0.03782538 0.017680973 -0.066527255 -0.2889248 -0.5672865 0.30988348 -0.42007032 -0.07047749 0.2749538 -0.16749825 0.19385079 -0.37839973 -0.5847799 0.015189708 -0.04518451 0.014896314 -0.6854858 0.26371014 -0.39126822 0.03893804 -0.008577148 0.07241744 0.17574447 0.5489912 -0.15768614 0.4628181 0.46013126 0.45274737 -0.23866455 -0.093728356 -0.24343088 0.101248205 -0.37155396 0.4045456 -0.34872594 -0.34589255 0.12568597 0.35761502 0.13533746 0.44899833 0.30111834 0.10851854 0.09359442 -0.36856848 0.06572398 0.01153856 0.20005706 -0.26850998 0.5488232 0.08798502 -0.3254061 -0.2480257 0.028578412 -0.24358961 0.19370605 0.19363928 0.34484 -0.1885519 -0.67715406 0.15672913 -0.07146758 -0.12099495 -0.44013295 -0.07696228 0.26088676 0.042865563 -0.26434672 -0.28947607 -0.0843342 0.29686108 0.26641566 0.35883257 -0.012901049 0.4284342 0.13717571 0.022389725 0.046715673 0.037422035 0.49925357 -0.3556328 0.07128541 0.19098198 0.060174778 -0.10207573 0.13351275 0.16716208 -0.76728255
194 -0.0069926716 -0.032864552 0.34821522 -0.33568 -0.17584516 -0.027521137 0.14443417 -0.1222605 0.15044644 -0.4319503 -0.5871655 0.5082278 -0.04209976 -0.17822729 -0.3690986 -0.04489832 0.0883705 -0.51361114 0.20749137 0.51490945 0.23506214 0.5021793 -0.013404958 -0.28023124 0.24810798 -0.12695538 -0.07746826 0.38437197 -0.5801546 -0.10387825 -0.4327117 0.18192397 -0.80163217 -0.5443385 -0.2023846 0.13262524 0.052759245 0.29105186 -0.5958715 -0.43811256 -0.060706366 -0.7966988 -0.5869276 0.058480404 -0.27552143 0.054204423 -0.40350953 -0.11195312 -0.13722306 0.40497452 -0.3425779 -0.29999366 0.3648389 -0.4023729 -0.2484665 0.478835 0.13911399 -0.41232148 0.44340116 0.34218848 0.49305898 0.047397286 -0.024121288 -0.42510316 -0.14080735 -0.43174317 0.49077514 0.14069049 0.09971206 0.28909308 0.25882348 -0.32728267 -0.08028167 0.14413932 0.015852006 -0.45055223 -0.14301707 -0.045810208 0.37914866 0.40011173 0.10708407 0.18124868 0.19167085 0.15453963 -0.47882646 0.3958961 0.12210264 -0.14932759 -0.002289921 -0.16268021 0.19736318 -0.34392834 -0.5866227 0.110535055 0.0088227615 0.60375947 0.16775836 0.20607544 0.10661498 -0.4011151 -0.092551894 -0.3443482 -0.33900428 0.10049381 -0.07363428 0.25982702 -0.007475898 -0.05508617 -0.231712 -0.18537849 0.42008466 -0.17621168 -0.006945517 -0.5279294 0.5076724 0.03354466 -0.018575087 0.18360573 0.19620892 -0.10489811 0.24851373 0.14685525 -0.37423196 -0.010322863 -0.0026286754 -0.019994507 0.03193203 -0.078713216
692 0.026523368 -0.059142854 0.4534072 -0.09353391 0.20142922 -0.09090038 -0.09405802 -0.05938798 0.019916894 -0.25892907 -0.3566582 0.424794 0.08602516 -0.47683197 -0.33076146 0.13491286 0.22792806 -0.49560934 0.26120082 0.6690723 0.3565909 0.35670352 -0.040041126 -0.38173714 -0.06105335 -0.13471363 -0.016489984 0.14290738 -0.42420927 -0.07634017 -0.3483849 0.36407158 -0.7830707 -0.42314637 -0.21387488 -0.007848264 -0.07299034 -0.05222413 -0.35426387 -0.48780093 -0.08781172 -0.4793893 -0.5597604 -0.35343412 -0.2362706 -0.2750254 -0.13808657 -0.10096326 -0.5156806 0.052787893 0.029478513 -0.05012369 0.080730714 -0.35346866 0.0867035 0.6902399 0.42499846 -0.40226242 0.5908331 0.13957816 0.18309271 -0.059606712 0.08272715 -0.13170615 -0.3279012 -0.44184133 0.3040774 0.33059672 -0.24887563 0.45348996 -0.24303283 0.024249904 0.34575808 0.10270338 0.24907376 -0.7202488 0.12733555 -0.1661959 0.5521861 -0.025399819 0.10662968 0.045959096 0.5952178 -0.09555385 -0.5089639 0.2270419 0.09146069 0.049823437 0.17156097 0.053432334 0.03679991 -0.34434047 -0.51307213 0.38219857 -0.12919398 0.36384156 0.29688588 -0.054163225 -0.10579642 -0.3193735 -0.15480791 -0.10076287 -0.5588855 0.2822149 0.04498934 0.19455656 0.16007398 0.047373213 -0.08234163 -0.010481813 0.30798975 -0.022378862 0.2883448 -0.31284702 0.31923878 0.103361264 0.59594005 0.27571067 -0.20357496 0.030281667 0.5044888 0.06272308 0.02493114 0.1948668 0.14076705 0.094344325 -0.22519313 -0.32862356
9 -0.12052507 -0.06814592 0.42432237 -0.2603625 -0.09331363 -0.14064342 -0.08327554 0.05182795 0.08375352 -0.19038087 -0.4469531 0.52712244 -0.041973248 -0.5092656 -0.17531642 0.26348186 0.06384091 -0.5406218 0.31371117 0.32371464 0.4456889 0.48263758 0.062013004 -0.5427206 0.16830765 -0.17573391 -0.19215652 0.047520947 -0.32710665 -0.16773139 -0.3562449 0.35604534 -0.6401611 -0.2473747 -0.3751256 -0.058256138 -0.22717172 -0.12811494 -0.4556328 -0.3816975 0.024129204 -0.478968 -0.6105276 -0.3014732 -0.356965 -0.065061785 0.010429163 -0.14051619 -0.36551192 0.16748905 -0.15984239 -0.2695286 -0.17614858 -0.3233189 -0.0112119615 0.86120766 0.32737336 -0.49526176 0.63633484 0.027632156 0.52174646 -0.07484269 0.04060149 -0.065521374 -0.3853454 -0.26170915 0.27233076 0.066725545 -0.0060276785 0.12754036 -0.08238724 -0.013604098 0.060145322 0.20681216 0.018225351 -0.5555938 0.02472926 0.064949356 0.5327942 -0.21136995 0.012170391 0.23448196 0.343965 -0.05149803 -0.5334381 0.12955597 0.10519175 0.22763972 0.3352334 -0.168846 0.08190582 -0.0784046 -0.39267704 0.17710674 -0.20265792 0.7430919 0.3755267 0.22136484 0.23113167 -0.421051 -0.37850553 -0.5333162 -0.54166245 0.5214353 -0.117293514 0.124332786 -0.023554914 -0.057070706 -0.13998021 -0.061561402 0.22920838 -0.253869 0.14901648 -0.1954127 0.529241 -0.08804565 0.4371998 0.3277002 -0.13665827 0.1422677 0.095264465 0.25875577 -0.023698319 0.19302543 -0.09325597 0.0042997687 0.022278523 -0.06912666
317 -0.31242645 -0.19204552 0.029729418 -0.6174443 -0.5024768 -0.17150551 -0.34159133 -0.1874558 -0.28788468 -0.23534685 -0.21563323 0.21287698 -0.0017426853 -0.18889254 0.048383757 -0.36846805 0.08750327 0.24542575 0.54377776 -0.11350279 0.48821497 0.061839845 0.33757138 0.23019996 0.031441044 -0.018957838 0.005454675 -0.52112955 -0.18381289 -0.05932036 0.14008912 0.2719823 0.14502405 -0.43021983 -0.47854358 0.45739245 0.6610653 -0.37162587 -0.12910515 -0.13678162 -0.031383205 0.15458997 -0.44034648 -0.1578003 -0.45333967 -0.6102994 0.26257417 -0.4901504 0.09115675 0.3049431 -0.013829238 0.050169498 -0.19181617 -0.5851599 -0.30966565 -0.053521965 0.07930736 -0.7522942 0.3543132 -0.40465778 0.039502956 -0.12710822 0.0065694437 -0.016693527 0.6075389 -0.20149086 0.460909 0.18141656 0.2226104 -0.15870923 -0.0021947033 -0.24635041 -0.18526025 -0.35567015 0.45500356 -0.18785731 -0.3958681 0.46693167 0.12874635 0.17812224 0.4773347 0.20036256 0.051311374 0.07251192 -0.18527083 0.048196875 -0.07026 0.00831879 -0.060845107 0.36068457 0.13305546 -0.47633663 -0.32825908 -0.036636695 -0.33773503 0.24008821 -0.020182554 0.34846526 -0.21439032 -0.5182602 0.15262184 0.13261798 -0.34507367 -0.33849448 -0.19151706 0.38688788 0.054057714 -0.26627257 -0.19097392 -0.09421414 0.1635149 0.31914237 0.16344528 0.025754267 0.25987014 0.047053404 0.259916 0.13529931 0.18711254 0.34485665 -0.35692674 0.19170612 0.34843108 -0.042202223 -0.118093364 -0.07334413 0.054652 -0.7959432
32 0.119654536 0.14900926 0.29769868 -0.30317983 0.058021434 0.19949794 0.4679806 -0.075202 0.16834173 -0.2492708 -0.52471244 0.41345733 -0.6096977 -0.17661293 0.26959273 0.2801876 0.014930225 -0.079563364 0.22749996 0.09545687 -0.2512069 -0.016381172 0.2906216 -0.15954025 0.012514029 -0.17474121 -0.286765 -0.07101582 0.28842536 -0.32712698 -0.014227068 0.2463983 -0.10604554 -0.24558501 -0.27444118 0.45943546 0.039283965 0.09635534 0.36978838 0.07386096 -0.47446102 0.08414816 -0.37338126 -0.24737659 -0.2757158 0.13538037 0.39732307 -0.012470976 0.37782854 -0.02179948 0.17991698 -0.117786765 -0.20981576 -0.38860616 0.14232491 -0.0955775 -0.023112724 -0.3611267 0.3878611 0.013514146 -0.3395385 -0.1927301 -0.53868276 -0.6733517 0.30687574 0.3103528 0.70278287 0.4018072 -0.21193871 -0.004566206 -0.4804541 -0.35766193 -0.10564519 0.15772402 0.5222082 -0.5770243 0.012292517 -0.40215185 -0.11272578 0.30415532 0.5196858 0.078673236 0.33577266 -0.22395493 -0.22939727 0.42454 0.17332348 0.8513771 -0.33763164 0.28900772 -0.31836104 -0.23540755 -0.28989768 0.1825936 0.045129806 -0.11701889 0.092533074 -0.14999278 0.32279667 0.50101084 -0.21905251 -0.33074513 -0.03647264 -0.057254117 -0.23326631 0.10974719 0.32195005 -0.16445477 0.1387583 -0.08629025 0.22538018 -0.0017961606 0.52856773 -0.36242896 0.052217633 -0.17643195 0.5723968 0.52771485 -0.08029319 -0.05015186 -0.15438601 0.029519474 0.014373157 0.17461704 0.08869375 -0.27692404 -0.3209179 -0.3416445
17 -0.050425354 0.13119297 0.034009274 -0.101414904 0.00037220388 -0.2675284 -0.18125953 0.1472687 0.1420247 -0.2303118 -0.22938243 0.44269416 -0.057081107 -0.23785682 -0.4707424 0.01948637 0.2534626 -0.6703504 0.23785424 0.36355305 0.21605383 0.49159297 -0.016027583 -0.46420267 0.27515897 -0.121652246 -0.22838895 -0.07002208 -0.078482725 -0.62399524 -0.419333 0.09668759 -0.71846783 -0.4174014 -0.4556746 0.2764665 -0.008688102 0.08826208 -0.20821352 -0.38911802 0.012299037 -0.54031396 -0.84719026 0.08099416 -0.4113892 -0.23485583 0.001651798 -0.17709678 -0.16822037 -0.02743372 -0.6472704 -0.20833643 -0.22163217 -0.32482624 0.22673264 0.59447926 0.19567075 -0.4848337 0.6545658 0.083476625 0.52845794 0.033927448 0.20461065 -0.2636352 -0.12830988 -0.060016174 0.2821694 0.19777077 0.07980845 0.08615491 -0.08136492 0.20474054 0.009814563 0.11152181 -0.26484677 -0.68029207 -0.15295143 0.16040848 0.65466505 -0.035959885 0.1637067 0.14398608 0.12002594 0.15625863 -0.40048778 0.06461872 0.28561983 0.07806612 0.26395166 -0.25359467 0.16476712 -0.015050152 -0.5695573 -0.015412318 -0.22223566 0.6051005 0.4813809 0.22386847 0.34182706 -0.18140554 -0.060871482 -0.40778995 -0.4351051 0.5129853 -0.3107347 0.048419125 -0.07483179 -0.14340587 -0.12069829 -0.15400673 0.41053253 -0.2591527 0.024543643 -0.21255472 0.5403139 -0.07975214 0.34693608 0.33947596 0.004275858 0.08417545 0.11154741 0.01133677 -0.22628784 0.07722203 -0.14993097 -0.012263005 0.0080007585 0.060157172
205 0.18091115 -0.015660046 0.44016197 -0.12808987 -0.12596439 -0.23591138 0.33816436 0.23661143 0.056241494 -0.55116886 -0.3888536 0.5021958 -0.046898354 -0.31565717 -0.22678341 0.017307235 0.4522341 -0.67885303 0.058925085 0.50713336 0.40009287 0.6709348 0.12186156 -0.17929776 0.08574175 -0.073800735 -0.13025685 0.23165485 -0.40674785 -0.036250386 -0.1623277 0.031495273 -0.6413926 -0.6740503 -0.07528798 0.10678806 0.29949775 0.35917056 -0.6276599 -0.5579303 -0.028565064 -0.51807594 -0.5667407 0.22110184 -0.20346582 0.10817463 -0.16270167 -0.23671174 -0.1623331 0.18472326 -0.52080023 -0.2033746 0.20573795 -0.26415974 -0.16288842 0.5996097 -0.08623583 -0.41965595 0.65023226 0.3079359 0.2926447 -0.192571 -0.15651189 -0.20844403 -0.057308227 -0.29610643 0.45379123 0.12820083 0.010421627 0.41994768 0.26509917 -0.3193399 -0.042032924 0.24358116 0.16997501 -0.6499956 -0.039728742 -0.06583576 0.3768017 0.21285301 0.49529517 0.062385608 0.19410679 0.24060757 -0.6072458 0.28424886 0.17815593 -0.15170476 -0.0064251 -0.26386937 -0.05605479 -0.09253123 -0.34154716 0.031329855 -0.16722271 0.6268351 0.032001637 0.117474474 0.09928108 -0.29098302 -0.106328964 -0.3114703 -0.29272547 0.25585893 0.022890924 0.19690134 -0.005078668 0.21813834 -0.21229671 -0.31069872 0.58604646 -0.10989234 0.04313807 -0.5097479 0.31852394 0.004952074 0.26760387 0.12718193 0.20171298 0.11523011 0.42090964 0.062332258 -0.35414144 0.20912948 0.058416072 0.13818 0.08325151 -0.08739682
293 0.103693694 0.5280211 -0.104768604 -0.10780123 0.053346746 -0.4909494 -0.100359544 0.075032495 -0.031699017 0.0686187 -0.28506073 -0.021695204 -0.10300636 -0.20174287 -0.16854152 -0.0054377 0.01716423 -0.368041 0.029922187 -0.06265214 -0.24107875 0.44429988 0.10277091 -0.26405618 0.4034962 0.23839931 -0.50940627 -0.2930883 0.09609871 -1.1240716 -0.3375752 0.1460029 -0.42713124 -0.32397318 -0.27318245 0.47938737 0.49808997 -0.019815594 -0.09390183 -0.0005614332 0.17838989 -0.05432295 -0.29523194 -0.045897767 -0.27512378 -0.61119586 0.1539282 -0.18533568 0.40968484 -0.101869345 -0.7092436 -0.018672395 -0.15234424 -0.59052503 0.46003366 0.14743266 0.28448072 -0.08156879 0.7526031 -0.10782108 0.555495 -0.4066007 0.52591723 -0.55806625 0.0952993 0.588355 0.544277 0.78971076 -0.28884256 -0.16647649 -0.039017934 -0.15501922 -0.493432 -0.5738197 -0.005557938 -0.55309993 -0.61806816 -0.074808076 0.50913733 -0.049556635 0.7350543 -0.05432233 -0.6399542 -0.5313041 -0.21794832 -0.03178201 0.2028796 0.15568139 -0.6486666 -0.0067498484 0.54073066 -0.05631734 -0.4091995 -0.5203761 0.092668645 0.20104314 0.49573535 0.021747664 -0.19456533 -0.057080854 0.5266251 0.06522512 -0.512266 -0.05040817 -0.37046507 0.26242164 0.17797141 -0.788074 -0.4020067 -0.32367688 0.39968812 0.21695171 -0.48835427 -0.648284 0.016411254 0.11400886 0.57371205 0.557197 -0.19123313 0.030548368 0.027222348 0.19392473 -0.30995846 -0.14994933 0.20159714 0.22744747 -0.29253373 -0.45154265
635 0.10024809 0.13769689 0.3775486 -0.1292715 -0.20802084 -0.22014657 0.1129766 -0.08705745 0.107177995 -0.3944851 -0.5350468 0.29493678 0.05302954 -0.19254684 -0.32913828 0.08791245 0.18720563 -0.7394125 0.22986281 0.61743546 0.29089305 0.32529104 0.21631071 -0.14211485 0.1812586 -0.07673488 -0.15286279 0.0553167 -0.21637014 -0.09148834 -0.078052305 -0.040573135 -0.6081575 -0.39093304 -0.22670306 0.010829692 0.08928431 0.22296996 -0.41161972 -0.33119744 -0.019045787 -0.78291285 -0.4859859 0.21564129 -0.33048618 -0.21415743 -0.045356225 0.13723592 -0.3530748 0.19962823 -0.27442622 -0.47432116 0.0749569 -0.17042312 -0.20356366 0.6082733 0.15264979 -0.58222455 0.47464076 0.46114373 0.40404728 -0.07329767 -0.14527819 -0.2906544 -0.3652521 -0.36635616 0.42012644 0.0059890747 0.033903856 0.49092677 0.08006696 -0.54817766 -0.1341325 0.20243941 0.08325203 -0.51313597 -0.15104173 -0.05398201 0.21776232 0.20689678 0.46571347 0.03422541 0.3466947 0.16286026 -0.6220718 0.30232462 0.05506578 -0.26413894 -0.019899117 -0.038360287 0.06648844 -0.2170824 -0.505675 0.12283289 -0.19814779 0.6509845 0.19949353 0.03384769 0.24082075 -0.35101312 -0.22712307 -0.26934084 -0.29460582 0.2300512 -0.17671773 0.15618183 -0.09769968 0.045997526 -0.10285134 -0.39753482 0.58167505 -0.098761916 0.23562573 -0.6256898 0.22189675 0.17498976 0.25984886 0.28526908 0.47060034 0.11502939 0.3840638 0.2782441 -0.4774551 0.13915458 -0.13394506 0.03814472 0.050728887 -0.08339952
634 0.019500172 0.2985468 0.06373083 -0.1382433 -0.097176746 -0.16710706 -0.19367982 -0.11668137 0.16983946 -0.19269034 -0.4814295 0.30588803 0.13770758 -0.16818447 -0.63997704 -0.0546762 0.10080286 -0.7741005 0.23411657 0.5793918 0.08130868 0.27239096 -0.119621545 -0.2682505 0.2929221 -0.104804784 -0.1451747 -0.01056034 -0.21376625 -0.5249866 -0.42911217 0.0540079 -0.8196197 -0.39273167 -0.40889385 0.12718068 -0.008337225 0.23921421 -0.22582665 -0.22465688 0.0050174347 -0.86053354 -0.7406727 0.11741802 -0.36124298 -0.40221673 -0.26354116 0.06413164 -0.24800812 0.08825432 -0.47391313 -0.3376143 0.08416224 -0.4332297 0.09966577 0.5034299 0.40134898 -0.3419891 0.43132693 0.43567446 0.5369308 0.11982828 0.24860069 -0.47825927 -0.23959424 -0.24307841 0.5009796 0.1327854 -0.036511358 0.37824363 -0.08000414 -0.22355008 -0.10424637 0.053471822 -0.19251646 -0.4540217 -0.29418588 0.027934583 0.45565087 0.29398108 0.17693803 0.09500204 0.19976331 0.10597251 -0.5334824 0.23173389 0.15288767 -0.24457294 0.0033212663 -0.04512191 0.4306313 -0.3037984 -0.75947136 0.0010432746 -0.18221422 0.527485 0.52066755 0.032396063 0.188722 -0.21879809 0.048579715 -0.1852393 -0.35125163 0.32802448 -0.25018784 0.15058655 -0.05373391 -0.30711102 -0.09343615 -0.15403716 0.42418185 -0.17160386 0.0090971915 -0.48029575 0.5308135 0.13602245 0.14099178 0.42376488 0.24265197 -0.1077341 0.25775325 0.14850853 -0.38102528 0.038252283 -0.12223967 -0.024470285 -0.050334666 -0.052082334
217 0.07728071 -0.21926506 0.07387487 -0.06486382 -0.20479675 -0.32081714 0.14458463 0.24074717 -0.03222171 -0.55814725 -0.5983933 0.19667104 -0.27572384 0.16223155 0.13560617 -0.37097535 0.11033547 -0.22267875 -0.2830176 0.2233084 -0.22851959 0.8115878 -0.11284044 -0.15971395 -0.034165617 -0.3110702 -0.5323701 0.18015239 -0.55300754 -0.0106979245 -0.26989514 0.2983089 -0.7035913 -0.5010941 -0.26770183 0.47283882 0.26659703 0.056759093 -0.5870098 -0.33471492 0.10519341 -0.6006227 0.028491821 0.14535855 0.14178178 0.35605517 -0.24418463 -0.21445644 0.52092046 0.047367338 -0.72207826 0.072511345 0.6396933 -0.35366368 -0.13990825 0.26476958 -0.002478646 -0.5060232 0.3494895 0.38138092 0.57460916 -0.16439083 -0.16273648 -0.9114711 0.32280216 -0.1338228 0.46099788 0.41323283 -0.1950225 0.26576224 0.2198278 -0.31604195 -0.0968361 0.38305113 0.05400812 -0.4137393 -0.3255015 0.002082776 0.41983616 0.25162572 0.5402916 0.0056654834 0.09109734 0.2142114 -0.5555618 0.28015074 0.0013864966 0.21928078 0.012509575 -0.04407814 0.09749451 -0.40501326 -0.32490003 0.055820502 0.29018036 0.6084278 0.16753706 -0.25511807 -0.5225884 -0.57802904 0.33162364 0.1248216 0.10204885 -0.024735227 0.24079159 0.31374446 -0.08375222 -0.25224125 -0.22860944 -0.19734342 0.4536413 -0.015082019 -0.044021588 -0.07336826 0.3139209 -0.25330245 -0.046517394 0.32254553 0.5119469 -0.14767033 0.20291169 -0.11972432 -0.37726948 -0.45015162 0.10009922 -0.35709634 -0.08149832 -0.33848298
690 0.26523888 -0.043751687 0.38531414 -0.03149993 -0.16488232 -0.16768453 0.14439899 -0.039534476 0.022854714 -0.35388568 -0.17202555 0.46260664 0.07758331 -0.11029073 -0.31550536 0.25319052 0.28271103 -0.68000925 0.14661093 0.32875234 0.34349638 0.6515659 0.110447794 -0.27269766 0.21238613 0.05707804 -0.13071698 -0.09123255 -0.1772487 -0.19419362 -0.09488475 -0.25356793 -0.4372747 -0.41588745 -0.047708966 -0.0010874161 0.22352947 0.36229146 -0.66114825 -0.3641228 -3.43739e-05 -0.23061764 -0.52796 0.21413659 -0.32398808 -0.07878222 -0.08925965 0.05496796 -0.42497754 0.0348952 -0.4000342 -0.32535064 0.06912754 0.048064124 -0.035569478 0.6844556 -0.10391474 -0.31933954 0.60691196 0.31704855 0.1749401 -0.28346032 -0.059534587 0.017411118 -0.19097398 -0.22600421 0.42447788 0.37337086 0.13181898 0.4916701 -0.052176088 -0.35726148 -0.22863252 0.22664332 -0.0007929666 -0.64368314 -0.03893475 0.012319831 0.43127966 -0.07662532 0.50025904 -0.07679855 0.12298125 0.15512758 -0.7958798 0.018336406 0.005628843 -0.11037127 0.16828872 0.03684915 -0.10222142 -0.05364592 -0.45142668 0.2876331 -0.30450422 0.47902298 0.13170421 -0.091383256 0.08698073 -0.44348267 -0.2184551 -0.24093789 -0.38996676 0.35959405 -0.05476412 -0.054500498 -0.07627846 0.20841648 -0.23126978 -0.57733893 0.7777157 0.07070267 0.292168 -0.4496517 0.079462685 -0.016823296 0.37106723 0.091365434 0.36676347 0.31623092 0.16727798 0.008477795 -0.5090833 0.12787464 -0.01498551 0.15269203 0.018058298 -0.06995227
686 0.14161022 -0.21456502 0.44921884 -0.20091988 -0.14202242 -0.07504713 -0.047498535 -0.10419189 -0.13205978 -0.29086286 -0.29927385 0.5420648 0.18873942 -0.42938235 -0.28014484 0.37249213 0.026023934 -0.6304416 0.09770161 0.3007259 0.30825996 0.610161 -0.09782116 -0.43927035 0.04756868 -0.13954102 -0.044637136 -0.07351653 -0.43124574 -0.09660673 -0.2727195 0.18908557 -0.57845944 -0.34588528 -0.2028269 -0.22389604 -0.047596756 0.15847243 -0.7951404 -0.31408197 -0.010619223 -0.2625193 -0.5293219 -0.3015458 -0.28247693 -0.11892523 -0.25090444 -0.09286858 -0.45147496 0.011511112 -0.11786372 -0.076276936 0.094844356 -0.23306951 0.026394831 0.93427736 0.1729273 -0.18498297 0.6361075 0.20998125 0.32715502 -0.13499701 0.12815633 0.030206077 -0.32991752 -0.35581774 0.43396747 0.3122753 -0.07528097 0.43801954 -0.33981404 -0.12799136 0.05260832 0.17440891 0.119396634 -0.54684687 0.046515737 0.008638784 0.6320736 -0.173951 0.10032623 0.059446055 0.28794038 -0.033022895 -0.9201568 0.014639508 -0.03396749 0.12589918 0.3410698 0.07505219 0.06727974 -0.15824084 -0.5578557 0.31636563 -0.29243547 0.5259122 0.38013548 -0.14051047 -0.1831211 -0.5310187 -0.23854116 -0.2180921 -0.51057863 0.607119 0.104144566 -0.007807774 0.046742067 -0.048712716 -0.24080196 -0.19626099 0.4437201 -0.048438076 0.14741604 -0.19656877 0.48308182 -0.13718744 0.4243134 0.24997422 0.043484375 0.1725767 0.115640245 0.04732933 -0.09937838 0.20418052 0.09417685 0.13663842 -0.020121034 -0.20046654
15 -0.28212363 -0.049555387 0.34350336 -0.06861703 -0.05140087 -0.2746873 -0.14460823 0.12862302 0.21336927 -0.13246852 -0.55188984 0.63087946 -0.4089215 -0.059994705 -0.454312 0.12729882 0.30942214 -0.6861473 0.35492694 0.35755593 0.38826415 0.6267403 0.15800573 -0.45673788 0.4135526 -0.07061022 -0.31599772 0.38533053 -0.29429778 -0.04546907 -0.4964661 0.3484173 -0.6623972 -0.31023994 -0.49816865 0.082389 0.014336078 0.041774306 -0.29725912 -0.28637 0.036561303 -0.33321252 -0.6442888 0.100045115 -0.044475313 -0.23117375 -0.009351126 -0.08135971 -0.28345367 0.14500517 -0.3166012 -0.44324479 0.07922442 -0.19168322 -0.075734735 0.7130916 0.26303098 -0.5659332 0.50861126 0.042626094 0.44463176 0.104081936 -0.07340155 -0.20472187 -0.3177298 -0.1087562 0.22391671 0.16122918 0.4417328 0.07200534 0.08940665 0.18553333 0.03369466 0.19035181 0.085361525 -0.6738113 -0.17214401 0.07778903 0.61543536 -0.17789371 0.28047004 0.19750877 0.3177523 0.23010017 -0.32757193 0.13667591 0.15384929 0.20970286 0.3014095 -0.30456764 0.25433657 0.032401733 -0.45422477 0.10824852 -0.1916432 0.32016343 0.38634357 0.266724 0.44719225 -0.605313 -0.12290551 -0.45943415 -0.46213374 0.24378784 -0.16116656 0.36436138 0.112195835 0.16102193 -0.19939828 -0.044562664 0.4104296 -0.10071539 0.3708657 -0.11656924 0.32920733 -0.17251436 0.36721554 0.1731323 -0.0819998 0.09985451 0.018165903 0.12798023 -0.11827615 0.19145076 -0.3011535 -0.25529018 -0.06650254 -0.03392012
671 0.064774856 -0.102678046 0.3750753 -0.067556 0.063408 -0.21823025 -0.10510836 0.0009924893 0.08790428 -0.29399016 -0.42973584 0.7026795 -0.15907474 0.07227585 -0.26830754 0.13402008 0.22769189 -0.5505515 0.24344963 0.4787116 0.40073436 0.5432683 -0.0012281953 -0.24028443 0.24161638 -0.15804401 -0.33318695 0.32570636 -0.3545489 0.19819883 -0.29276595 0.36887547 -0.4567757 -0.49272662 -0.65839714 -0.050708782 -0.028892403 0.10369613 -0.4513069 -0.2667948 -0.12896094 -0.3580867 -0.41038853 0.11659603 -0.04048592 -0.34404972 -0.14183062 0.061278343 -0.26632398 0.09425545 -0.04154992 -0.43681648 0.52032137 -0.31306836 -0.22031125 0.6600942 0.1968657 -0.36524326 0.68579096 0.33810955 0.35111883 0.15263222 0.005253851 -0.31327575 -0.24213669 -0.15337375 0.34390765 -0.002702719 0.4165902 0.31150326 -0.13711146 -0.07735444 0.06846683 0.019815607 0.17406966 -0.50670964 -0.18374114 0.17042936 0.77724427 -0.05348855 0.40635008 0.1333336 0.5102482 0.43206358 -0.87177205 0.005885012 0.13371724 -0.057037897 0.17484489 -0.042877465 0.3261324 -0.041245557 -0.617691 0.10382692 -0.30784717 0.050069295 0.35504186 0.04514867 0.33792946 -0.37534177 0.029808031 -0.35874835 -0.49472582 0.23585643 0.10080063 0.34508345 0.19313316 -0.0047461907 -0.00954263 0.05899254 0.4634404 0.056297142 0.49182472 -0.122668706 0.41748276 0.0059917914 0.30684426 0.1554597 0.041676026 0.20721112 0.26481724 -0.029161973 -0.15791462 0.22998826 -0.30686817 -0.17386909 -0.08109261 -0.052412014
322 -0.12463951 -0.18327399 -0.071817435 -0.4548031 -0.5480207 -0.22991607 -0.38856232 -0.13035253 -0.36001706 -0.22309825 -0.1499424 0.23949851 0.07630046 -0.059546664 0.014186323 -0.24926649 -0.02810452 -0.02938284 0.44805005 -0.38086239 0.06358015 -0.15150878 0.21748474 0.11261823 0.1807949 -0.030768678 -0.0021630495 -0.43121827 -0.4075559 -0.037569888 -0.10143574 0.42172334 -0.09601071 -0.73252994 -0.18401821 0.39765707 0.5545726 -0.14118761 -0.13393748 -0.14130114 -0.3252259 0.16319501 -0.18348446 -0.19852726 -0.4392248 -0.47856295 0.37501344 -0.58504134 -0.01115477 0.46602345 -0.044105884 0.26023915 -0.21146265 -0.5820196 -0.18915305 0.11376494 -0.07569089 -0.65336233 0.1817466 -0.06850135 0.008510876 0.075934485 -0.17973927 0.24285966 0.3404241 -0.37193406 0.48916093 0.30266356 0.34393266 0.072058626 -0.20875953 -0.1251637 -0.01584394 -0.3367341 0.20520054 -0.11476236 -0.3631787 0.23187947 0.28166756 0.31469896 0.14886254 0.15587305 0.28280017 0.15129775 -0.44878846 -0.034937754 0.16953872 0.04662131 -0.031180121 0.77824223 0.047561448 -0.42350113 -0.2872097 0.12834452 -0.30397415 0.15045512 -0.08751566 0.2345987 -0.17268954 -0.7708147 0.02920968 -0.034004435 -0.2059355 -0.2967676 0.08417557 0.29915658 0.0916762 -0.15009007 -0.08954891 -0.1600827 0.20056203 0.21055476 0.28395823 0.13339055 0.21025585 0.33693925 0.13318998 0.16882479 0.20851839 0.5698834 -0.4720497 0.34022927 0.28120297 -0.06977049 -0.017686615 0.15576409 0.10773422 -1.0655928
627 -0.05761323 0.06140573 0.25189534 -0.07387001 0.08672617 -0.070045814 -0.109948434 -0.36465934 0.14978628 -0.25980702 -0.47740546 0.3597911 0.019187633 -0.022377592 -0.5221295 -0.04854926 0.070060894 -0.46747273 0.39121538 0.75188065 0.14820318 0.19115041 0.08651317 -0.3113421 0.22796597 -0.097282134 -0.06800091 0.16701454 -0.33278218 -0.15739158 -0.31127942 0.13749643 -0.7940373 -0.34373853 -0.23748158 0.16777651 -0.0073715225 0.02851408 -0.25189438 -0.40721816 -0.107055895 -0.8289108 -0.55148697 -0.04040058 -0.35150325 -0.35439357 -0.21292475 0.11586455 -0.44950604 0.2611207 -0.08895907 -0.3245728 0.17819412 -0.20538697 -0.06198201 0.4738468 0.40107495 -0.5757874 0.36543995 0.21819949 0.33731654 0.1207005 0.05701753 -0.48010108 -0.3365672 -0.49991888 0.3170799 0.28317425 0.03364419 0.45997685 -0.012268147 -0.22405419 0.080012366 0.098848954 0.03694477 -0.62535834 -0.13639084 -0.123297244 0.3770202 0.28416622 0.16928641 -0.01981952 0.42831844 0.08774271 -0.41825834 0.34562144 -0.012002883 -0.18089657 0.063265845 0.16617723 0.14993116 -0.44827253 -0.75892854 0.3650365 -0.080587685 0.35160595 0.2690289 -0.0076954984 0.1452747 -0.32517272 -0.11753826 -0.09957134 -0.45394084 0.041958902 -0.20847529 0.28266543 0.07522153 -0.040775675 -0.06809729 -0.3026074 0.48768112 -0.06994982 0.37895104 -0.6638719 0.22069184 0.21909638 0.3157327 0.21213959 0.24083593 -0.015000222 0.5131056 0.16720007 -0.3397371 -0.019437924 -0.05220678 -0.09321751 -0.27873695 -0.1720696
