881 128
126 0.34584042 -0.29561496 0.36440256 0.3353683 -0.11039184 0.020533912 0.28276634 -0.058371857 0.15620668 -0.08349816 -0.2313731 0.93981105 -0.036035664 0.0018725896 0.5218814 0.3072768 0.34600294 -0.37864864 -0.0021129185 -0.060342636 0.20908816 0.5331654 -0.2270268 0.32254377 -0.094593875 0.3129545 0.1894629 0.2802803 -0.2837442 0.0047224206 0.29277965 0.031608768 -0.30158517 0.25209028 -0.56922793 0.04746154 0.08411935 -0.24471419 0.23922187 0.13271676 0.15397932 -0.110849135 0.042174734 0.027864926 -0.3131583 0.14234674 -0.20226179 0.010393016 0.21422735 0.32620296 -0.29470703 0.17569146 -0.30928338 -0.41759562 -0.011094745 -0.39016393 -0.24361321 -0.07985232 -0.064255916 0.071763456 0.09964952 -0.29001045 -0.15505582 -0.3179996 0.02874776 -0.2939838 -0.18808581 0.5263281 0.040393557 -0.22813886 0.07223568 -0.19281675 0.01878983 0.02310784 -0.4600901 0.11068052 0.094840504 -0.14814663 -0.07357415 -0.3619177 -0.22475772 -0.13186096 0.093072325 0.21786433 -0.17423704 0.112776004 0.19944935 0.12238627 -0.2228705 0.032097556 -0.28276762 -0.22607172 -0.23416771 0.024573362 -0.115425795 -0.24690945 0.14994225 0.028511679 -0.09718255 0.12830299 0.2182814 -0.03038518 0.14193836 0.2562807 0.0581108 0.17905614 0.35406482 0.055770684 -0.87235343 0.2074937 -0.42883343 -0.37159988 0.27035552 -0.18756856 0.12799819 -0.3945257 0.259304 -0.12953462 -0.1742653 0.28457022 0.38975918 -0.0971631 0.25189927 0.26849687 0.839256 -0.19320668 -0.6397713 0.1256647
129 0.2756945 -0.14751515 0.25554264 0.21594572 0.017156418 -0.18174063 0.4155555 0.03839692 0.1362878 -0.0022918654 -0.24004444 1.0353177 0.06814715 0.011507502 0.5816991 0.38394147 0.39841777 -0.24655978 -0.048386976 -0.00170104 0.13444035 0.33949175 -0.20169862 0.35583538 -0.1382707 0.50490844 0.11572994 0.23439486 -0.31463876 -0.031062061 0.28846818 -0.054520067 -0.32738099 0.3792027 -0.53764766 -0.15565182 0.32076666 -0.30358148 0.3400072 0.1834419 0.003034688 0.0455885 0.27340764 0.028567933 -0.19544774 0.061023053 -0.24193643 0.15103167 0.025276724 0.40304258 -0.1723617 0.14536609 -0.12385893 -0.2179089 0.06843347 -0.5698167 -0.4449732 -0.05414717 0.07784899 -0.0641255 0.28444943 -0.18366873 -0.115258865 -0.11771066 -0.063937455 -0.26426587 -0.35231328 0.65784025 -0.048409164 -0.20967178 -0.081376 0.013586951 -0.16298282 -0.09097401 -0.34567785 0.076090746 0.2488632 -0.3032284 -0.09296122 -0.37953243 -0.14699592 -0.34605554 0.08100368 0.18093084 -0.4066686 0.13342741 0.31841594 0.0050694705 -0.052826904 -0.08481333 -0.25392428 -0.2351779 -0.20135386 0.06509811 -0.096255966 -0.25111616 0.38969126 0.20778145 -0.21363938 0.21909368 0.19765826 0.10209855 0.132633 0.22346371 0.12157586 0.090739444 0.2052266 0.06887196 -0.9129523 -0.03800438 -0.317391 -0.34163207 0.19083337 -0.060497344 0.039390292 -0.45582747 0.36115417 -0.043973677 -0.23107927 0.3099774 0.36938465 -0.086322896 0.01131035 0.331563 0.7225796 -0.22308907 -0.5851002 -0.054995693
124 0.40291694 -0.11805271 0.13028418 0.23083773 -0.014737549 -0.07125313 0.23487772 0.023290575 0.1274948 0.068704955 -0.43692774 0.9986691 -0.08882321 0.08804748 0.47175056 0.35699487 0.09966508 -0.06703599 0.05050451 -0.15462583 0.10819506 0.37676278 -0.29232362 0.50780326 -0.07386656 0.36009723 0.103266686 0.23381944 -0.19556265 -0.015429069 0.20725724 0.1337089 -0.31968066 0.31769356 -0.5586525 -0.1779102 0.037637677 -0.24450262 0.20942242 0.12729216 0.104282685 -0.27384797 0.12261333 0.16317637 -0.28730455 0.09805488 -0.16980053 0.10690467 0.18664525 0.122452185 0.008458328 0.24470247 -0.38219646 -0.27850407 0.16546474 -0.46678895 -0.3578773 -0.08499333 0.060533732 0.08447176 0.2871973 -0.22524443 -0.19438964 -0.16784422 -0.15262462 -0.3469821 -0.174312 0.5955281 -0.063226536 -0.38132668 -0.023269191 -0.11016371 -0.16418992 0.009136882 -0.29240343 0.11395518 0.11825014 -0.3003215 -0.1347289 -0.2950579 -0.29921302 -0.32128805 0.016871985 0.14148667 -0.26460168 0.16293068 0.2649408 0.119034626 -0.22547229 0.18749836 -0.110325076 -0.24827491 -0.20211552 0.0172763 -0.057390045 -0.24379025 0.51809996 0.16412173 -0.20810708 0.11743205 0.31139988 -0.07898722 0.11456131 0.16421507 0.25308 0.09918291 0.18831055 0.14996082 -0.9697466 0.107494 -0.38505942 -0.21240434 0.24087793 -0.10385873 0.10447293 -0.4920302 0.20643206 0.0022376047 -0.25707525 0.22889994 0.32604936 -0.042828646 0.12777993 0.30442086 0.8480717 -0.23637798 -0.5897018 0.012639105
127 0.36385062 -0.18349995 0.20300803 0.17441441 0.050405588 0.07999752 0.29438025 -0.13016807 0.16556597 -0.04118057 -0.31618604 0.86762863 -0.061068885 -0.02293512 0.46920794 0.2908602 0.4471625 -0.33017215 0.0009912546 0.024881085 0.14518982 0.28269625 -0.2142992 0.40758818 -0.18852788 0.32068726 0.18453808 0.3821441 -0.2362007 -0.08720366 0.45451316 0.0066598156 -0.2535283 0.2342477 -0.6314721 -0.061739836 0.19379866 -0.17374912 0.24714744 0.03507366 -0.07740678 0.03679553 0.2706594 0.093795806 -0.41198972 0.10723244 -0.38719568 0.12579754 0.20507176 0.35788226 -0.06929869 0.1646341 -0.09534435 -0.42242333 0.01087145 -0.51949847 -0.5244187 0.09231892 0.17864272 -0.0019301375 0.25442502 -0.11397086 -0.2531624 -0.045699026 0.026063332 -0.28232643 -0.12357551 0.41410664 -0.07957626 -0.19024242 -0.017544864 -0.11712226 -0.056434505 -0.024432158 -0.21180767 0.050144333 0.12907414 -0.35770848 -0.25466338 -0.28896132 -0.1682517 -0.39803472 0.26776722 0.19744684 -0.35417178 0.16440523 0.15192223 0.0008827425 -0.1908174 0.055433486 -0.13939878 -0.14714858 -0.13183364 -0.15741475 -0.09497693 -0.233242 0.37806872 0.2380013 -0.27490938 0.18621689 0.2627514 0.21172814 0.19938049 0.17915435 0.17754295 0.14017177 0.19824626 0.16480891 -0.92312515 0.13630484 -0.15256755 -0.39092746 0.26395184 -0.01355335 0.13560906 -0.4026588 0.3998017 -0.23468506 -0.20838536 0.2671869 0.30777377 -0.09472416 0.2476917 0.45723855 0.8149047 -0.08334204 -0.66519815 -0.13060568
123 0.3905841 -0.15418428 0.22367883 0.3394235 0.1051145 0.03127248 0.3814727 0.020009832 0.21969745 0.0060006767 -0.37248132 1.1454864 -0.028141053 -0.023753516 0.39221156 0.4213933 0.44634616 -0.230916 -0.08904044 -0.01742949 0.15342289 0.33607826 -0.14694348 0.40644363 -0.1534226 0.41902253 0.12620331 0.028704979 -0.27091783 -0.037336748 0.27345443 0.1399221 -0.3134046 0.21277241 -0.7005171 -0.15799192 0.17325333 -0.25207102 0.33319512 0.17732882 0.010081597 -0.18648948 0.3094861 0.14675279 -0.25059906 0.0009418276 -0.27212325 0.05671176 0.17651117 0.22999942 -0.20717008 0.052724607 -0.07219205 -0.1909673 -0.02861293 -0.5213807 -0.33248702 -0.020443302 0.21344136 0.038360115 0.27304173 -0.15943493 -0.29166007 -0.12429357 -0.044543244 -0.34273085 -0.28438842 0.50147355 -0.1976813 -0.3076333 -0.09440379 -0.2540354 -0.084732324 0.14301583 -0.19929622 0.10822557 0.10173272 -0.117918424 -0.06312219 -0.27989352 -0.09889227 -0.3253664 0.112641014 0.339438 -0.34228384 0.16572931 0.3576586 0.14613141 -0.042302374 -0.23370397 -0.24472523 -0.15953076 -0.120728366 -0.009699901 -0.20153373 -0.1241752 0.23611918 0.1341904 -0.20892034 0.30251113 0.48024726 0.10858599 0.21925078 0.03357596 0.020495001 0.06935375 0.34052932 -0.061206833 -0.87418383 0.11353384 -0.28508234 -0.25061893 0.17084526 -0.13683951 0.12651874 -0.2542072 0.40785936 -0.02367218 -0.29240143 0.18266597 0.28307343 -0.090389244 0.14407179 0.23428074 0.6912742 -0.050395574 -0.589878 -0.0033489102
132 0.40143967 -0.23199104 0.29881898 0.16521293 0.0046934686 0.13732173 0.29377583 -0.024842337 0.20315507 0.001308944 -0.4218138 0.9356069 -0.096880056 -0.030867513 0.5523332 0.18803053 0.26690036 -0.27773103 -0.029080333 -0.11373457 0.09073068 0.34083575 -0.30575567 0.3166877 -0.21203941 0.26674467 0.10044368 0.05014277 -0.2059486 -0.05921618 0.2836737 0.03577189 -0.28984472 0.20533848 -0.5483909 -0.23147805 0.032505717 -0.291131 0.10942871 0.22073358 0.013213878 -0.13380508 0.31779233 0.07872813 -0.38775006 0.031620577 -0.2555733 -0.065284304 -0.11348764 0.3532151 -0.1338197 0.10235957 -0.07787291 -0.16622037 0.036030117 -0.7562949 -0.5316297 -0.03162142 -0.11555177 -0.010169452 0.2839492 -0.18007828 -0.29498118 -0.18662263 -0.13366559 -0.31824157 -0.30468053 0.51934904 -0.039580874 -0.24206524 -0.010713188 -0.2383766 0.043957684 -0.07004828 -0.16534278 0.0673263 0.09001211 -0.29331258 0.008151703 -0.1867144 -0.1878816 -0.2541418 0.11674841 -0.030288883 -0.4287606 0.24541293 0.27313837 0.18619105 -0.20025843 -0.026899524 -0.17196947 -0.39761424 -0.17870085 0.10430124 -0.32536408 -0.1991747 0.3793697 0.08316554 -0.15905893 0.16134988 0.37886715 0.04766682 0.25177568 0.106723115 0.18757123 -0.021966944 0.14866494 0.35445243 -0.75479555 0.22188854 -0.31881142 -0.34160796 0.266989 -0.01674651 0.08769367 -0.48315102 0.32946184 -0.0042329147 -0.16314833 0.3428524 0.28667164 -0.04269906 0.1225802 0.38568607 0.916899 -0.043873314 -0.5737626 0.20077088
120 0.24902101 -0.23622392 0.4042332 0.22901161 -0.03232034 0.03537648 0.39347374 -0.11731106 0.15036534 0.26527283 -0.32071456 1.1752055 -0.14007196 0.06049047 0.50603217 0.42455912 0.29501256 -0.22925724 0.031863607 0.09357774 0.11752956 0.28493083 -0.2594765 0.40774807 -0.30945706 0.34685215 0.2789892 0.2693623 -0.4129136 0.03155796 0.20450215 0.14300853 -0.43631107 0.35291913 -0.5794011 -0.12010978 0.20213045 -0.1937076 0.029464636 0.16912787 0.19490834 -0.098955944 0.12260799 0.09409411 -0.1679144 0.08197703 -0.23346162 -0.11871763 0.20510076 0.19009942 -0.06453328 0.14699195 -0.24012563 -0.27730098 0.12911952 -0.52051395 -0.45466506 0.04591643 -0.10662702 0.086566254 0.2191959 -0.12886257 -0.18324037 -0.048401333 -0.018411433 -0.29101905 -0.31583056 0.61802065 0.08791839 -0.06978328 -0.05249428 -0.19763047 -0.113953575 0.061260436 -0.3659796 0.13870445 0.08352068 -0.30723202 -0.086439446 -0.28948262 -0.0726413 -0.1679977 0.09628196 0.18310624 -0.2652433 0.12243571 0.10362839 0.12983584 -0.021029968 -0.102245755 -0.15367466 -0.15781428 -0.12005928 -0.12160592 -0.069391474 -0.24582013 0.33016616 0.17204115 -0.30411172 0.3361647 0.17540269 -0.021267189 0.07333391 0.23703568 0.14303459 -0.07277664 0.26440966 0.11148942 -0.8620522 0.03513555 -0.2984074 -0.4113892 0.16586237 -0.10870887 0.01776325 -0.33959985 0.35456362 -0.037913255 -0.16663294 0.14754313 0.29558313 -0.15090816 0.11905385 0.4207058 0.7201921 -0.16173173 -0.8078624 -0.071382135
128 0.21498367 -0.19978583 0.20900649 0.22781642 0.16202341 -0.07151204 0.27634427 -0.09612566 0.047277376 0.113876596 -0.38727546 0.9560015 -0.06527853 0.06427862 0.43934476 0.3014721 0.33857474 -0.20768511 -0.123571075 0.028019553 0.26316893 0.43322727 -0.17134108 0.4201053 -0.26661915 0.31704906 0.19102436 0.24957123 0.014087815 -0.008399422 0.42038366 0.12456707 -0.3390982 0.32797667 -0.52457577 -0.08231351 0.116613515 -0.22708052 0.08252358 0.10239122 0.060811475 -0.33186755 0.29769644 0.29235044 -0.22489296 0.010509291 -0.26877376 0.10838843 0.2907327 0.27285495 -0.13058572 0.20735283 -0.14614302 -0.3524973 0.04051664 -0.49071354 -0.24730197 0.11684721 0.25168085 -0.13847128 0.24602468 -0.063935466 -0.41775844 -0.13859218 -0.15308812 -0.3936851 -0.156038 0.6224352 -0.09035086 -0.39520812 -0.06427967 -0.1839337 -0.09722791 -0.13014856 -0.14887878 -0.001008585 0.119053945 -0.23621468 -0.06750885 -0.4369021 -0.136888 -0.26372275 -0.005215015 0.019299429 -0.23541129 0.24512963 0.17046714 0.20416546 -0.22137792 -0.004758426 -0.2822439 -0.11916526 -0.22077915 0.0039932695 -0.18299004 -0.19990894 0.28014383 -0.021933755 -0.24506406 0.07118348 0.2608092 0.1269944 0.18132876 0.13449928 0.19940685 -0.0068760794 0.38472426 0.23163979 -0.9108882 0.20115128 -0.4894971 -0.49858406 0.1282094 -0.1747285 -0.0140352165 -0.45661038 0.27019855 -0.05245271 -0.08295479 0.19932634 0.36691856 -0.11952904 0.19884339 0.28648776 0.9536027 -0.27420503 -0.6498013 -0.07762255
115 0.38307586 -0.23836201 0.30270934 0.14333221 -0.012377901 0.078744635 0.32954243 -0.09347465 0.2946453 -0.0749309 -0.36332965 0.8769328 -0.12612149 0.15941818 0.5768112 0.27468294 0.3980342 -0.3071847 -0.30329582 -0.09628072 0.23300697 0.39090458 -0.36826074 0.4145179 -0.20141609 0.28597733 -0.07239942 0.15216276 -0.2978599 0.08182185 0.3510789 0.120265745 -0.21952139 0.48637843 -0.5536001 -0.1178588 0.069730885 -0.25795946 0.20691645 -0.034209624 -0.07774344 -0.18152706 0.11729219 0.08514886 -0.42878002 0.005572779 -0.2880857 -0.11443441 0.13342202 0.39590764 -0.106005184 0.19666275 -0.40550473 -0.39860758 0.29293194 -0.44037977 -0.40851325 0.16392519 0.16412047 0.13678664 0.28048474 -0.13552551 -0.22238469 -0.25891665 0.0618929 -0.2789629 -0.3066861 0.6085492 -0.07420517 -0.26642242 -0.033333737 -0.14073211 -0.15337269 0.037775714 -0.17092107 0.12718949 0.1422788 -0.25872022 -0.16712219 -0.20061629 -0.20291276 -0.2659992 -0.056746077 0.059887342 -0.21660492 0.24569838 0.21207055 0.0030516353 -0.11590418 0.0932188 -0.08818041 -0.31409308 0.06665598 -0.0008298651 -0.093295164 -0.27410084 0.24311742 0.21821456 -0.12567289 0.21485995 0.28961653 0.029679392 0.350027 0.09073731 0.039950013 0.33266088 0.11323188 -0.009625152 -0.9316388 0.11218671 -0.1490191 -0.35102648 0.20499164 -0.121756576 -0.0029686193 -0.32638294 0.3766059 -0.011393319 -0.12585545 0.19504713 0.31097075 -0.024699569 0.18929327 0.3951255 0.8160199 -0.20368706 -0.5859594 0.04269347
131 0.27088886 -0.23814549 0.19449277 0.2276566 -0.044921663 0.0030051542 0.22515021 -0.23396704 0.19176942 -0.18305078 -0.30950102 0.9929342 -0.01733538 0.013850547 0.6158771 0.26952565 0.47985843 -0.21342424 -0.09215655 0.010528291 0.18720168 0.4161201 -0.21250302 0.41952786 -0.14031884 0.4164271 0.24702494 0.10399639 -0.27359575 0.063451 0.33379138 0.3161647 -0.3066788 0.45624202 -0.64771473 -0.018236544 0.21614389 -0.24436381 0.27858177 0.08131182 0.042221762 -0.18264176 0.22706674 0.036311965 -0.3683768 0.04577428 -0.20191285 0.05290421 0.14078619 0.13696668 -0.0952755 0.065790646 -0.20999034 -0.32901257 0.054207914 -0.59053856 -0.45812085 0.003642802 0.008901214 -0.07331394 0.32938725 -0.19060104 -0.37893087 -0.035461552 -0.012791611 -0.17604858 -0.28508633 0.6861631 -0.078062154 -0.14652397 0.21989721 -0.24694057 -0.110765524 -0.06605648 -0.21420427 0.03962347 -0.053329125 -0.24332792 -0.11021387 -0.40059236 -0.1332341 -0.2500201 0.105450824 0.3353572 -0.2901934 0.20998926 0.11660504 7.424983e-05 -0.18406284 0.17266174 -0.008127392 -0.20014673 -0.08035024 0.133618 -0.04932987 -0.1210402 0.3235867 0.1603512 -0.1446896 0.076842494 0.26786104 -0.08734766 0.2368667 0.27870327 0.23907949 0.045999262 0.17263715 0.10470114 -0.7382299 0.08319417 -0.37360862 -0.4181921 0.021936052 -0.17514287 -0.0019545795 -0.3161547 0.2513835 -0.04693248 -0.24314141 0.26966932 0.39795974 0.03099832 0.15676776 0.39198005 0.79981995 -0.12171397 -0.67222756 -0.11054712
130 0.27153528 -0.09000151 0.31569347 0.21732506 0.007663208 -0.028141199 0.46471635 -0.009190782 0.19632779 0.03136016 -0.37691572 0.9674878 0.0014560827 0.17485201 0.4654077 0.23936296 0.40725335 -0.19104831 -0.063452326 0.07562962 0.18424034 0.29171085 -0.21725437 0.35843024 -0.08287778 0.40020722 0.22577937 0.27693853 -0.21595863 -0.05059145 0.15091322 0.2350259 -0.37191266 0.36559182 -0.47970316 -0.016943637 0.24978177 -0.22508623 0.2779498 0.06137397 0.069470115 -0.1370953 0.2791596 0.14695719 -0.35387537 0.022014188 -0.29599532 0.23302451 0.24608918 0.30643713 -0.032372463 0.2336481 -0.053287763 -0.16089174 0.1592593 -0.5233734 -0.38552487 0.03923538 0.097454324 -0.08065098 0.37366623 -0.19357596 -0.23597598 -0.1372045 -0.06956616 -0.33723417 -0.15906751 0.64919496 0.106511146 -0.17651443 -0.08385896 -0.17368066 -0.022607964 -0.04596707 -0.19973251 0.1023617 0.21149121 -0.2155724 -0.08573749 -0.27472097 -0.2884506 -0.28683767 0.2533318 0.28842932 -0.33432356 0.1941374 0.3242979 0.09932637 -0.20058812 0.0007293874 -0.2536634 0.013143545 -0.23637986 -0.10166903 -0.16158254 -0.0713487 0.3437855 0.17916866 -0.24811478 0.10437855 0.21851194 0.026967907 0.20427996 0.16506483 0.12753135 0.16170096 0.2257874 0.112411685 -0.843839 0.18412888 -0.18446921 -0.4357699 0.38962197 -0.1377718 0.05924758 -0.446342 0.23994611 -0.091839865 -0.27170193 0.22567347 0.30476797 -0.053765025 -0.030641843 0.4702967 0.68910146 -0.28502822 -0.57566565 -0.083034396
114 0.30405495 -0.2361226 0.3342009 0.22722057 0.15639758 -0.087529555 0.40403447 -0.022830477 0.27887392 -0.101827994 -0.30014974 0.968496 -0.017719053 0.032128885 0.5441695 0.29785237 0.43855804 -0.24717492 -0.27008304 -0.013965067 0.18139304 0.35658866 -0.31633267 0.38645354 -0.15092853 0.27671206 0.03299899 0.20449612 -0.33139563 -0.0472076 0.28555652 0.0031131092 -0.29623562 0.45697743 -0.45583686 -0.057410676 0.12088389 -0.279572 0.35669142 0.08151526 -0.052294765 -0.15974556 0.057999734 0.14178464 -0.31369612 -0.030209754 -0.3626701 -0.07553041 0.14899874 0.32656506 -0.14459267 0.17460623 -0.36700705 -0.32981843 0.08588856 -0.5450649 -0.3056583 0.09771994 0.2195628 0.05915805 0.25955334 -0.06067386 -0.17418262 -0.16598585 -0.07250608 -0.3247281 -0.39918512 0.6550178 0.06818597 -0.4208509 -0.10212968 -0.061035883 -0.17169361 -0.009759611 -0.23155245 0.08380687 0.085174255 -0.26337767 -0.098187625 -0.20845494 -0.20914546 -0.2794203 0.015511378 0.16963618 -0.24147531 0.12469035 0.18825425 0.023311367 -0.061237205 -0.024203027 -0.13812618 -0.3206941 0.0454722 0.026216013 -0.0037660543 -0.35706842 0.30175182 0.1651906 -0.100487575 0.1902791 0.25348982 -0.035674315 0.23964399 0.118338354 0.062013626 0.27539462 0.10296473 -0.0073812883 -0.8694887 0.08301095 -0.24646989 -0.3557399 0.10368879 -0.09304954 -0.17814489 -0.46587053 0.35707963 -0.0054150564 -0.18443947 0.19210505 0.46063888 -0.2206327 0.087298475 0.42695352 0.8081289 -0.20196798 -0.55951846 0.09542076
121 0.41037712 -0.23239924 0.29393482 0.05570253 -0.083793916 0.11130592 0.28815466 -0.05678733 0.059359573 0.17597862 -0.35003674 0.8559621 0.052119575 0.009240116 0.54224813 0.26743606 0.29773736 -0.09271759 -0.1697972 -0.07821175 0.10752618 0.30387762 -0.22276187 0.5688487 -0.32072398 0.4211744 0.16899973 0.32121032 -0.23883502 -0.04601832 0.30839145 0.2134596 -0.23554774 0.42904726 -0.57009107 -0.22381534 0.100514844 -0.30932203 0.30604404 -0.0009794561 0.11670144 -0.14297028 0.22370204 0.14818709 -0.25048205 -0.14027214 -0.23533447 0.0461302 0.12809834 0.25558192 -0.15950097 0.1414639 -0.3336387 -0.33831245 0.107541665 -0.5367669 -0.4347756 0.17144099 0.20075876 -0.056765378 0.16262236 -0.20816621 -0.18893212 -0.15892135 -0.0036274767 -0.25404587 -0.2376902 0.61052734 0.0020376544 -0.18231843 0.0037082643 -0.23419635 -0.059031945 0.021643009 -0.031052366 -0.0093644215 0.10638159 -0.23284258 -0.02831032 -0.57268524 -0.25084248 -0.33609805 0.16654147 0.16131133 -0.1997244 0.42445445 0.21774481 0.060240835 -0.2172268 -0.0026863774 -0.32600048 -0.19035406 -0.20036593 0.16751865 -0.1641479 -0.22279923 0.39962298 0.14987667 -0.24273846 0.06781484 0.290511 0.29394934 0.16652858 0.09838822 0.17762595 0.16231735 0.21628788 0.13939323 -0.94652003 0.19081838 -0.2518305 -0.3035485 0.013960889 -0.100400485 0.08393707 -0.38511834 0.27992105 0.018514585 -0.31272244 0.16872296 0.4164727 -0.060410038 0.14933118 0.3767916 0.75837666 -0.3284844 -0.6821498 -0.0066306936
158 0.28846052 -0.2574178 0.16386145 0.13655949 -0.22253767 -0.19471061 0.3574815 0.07352353 -0.01657197 -0.10007702 -0.13287807 0.8900445 0.21021596 -0.05060679 0.5386294 0.51299095 0.3228616 -0.3472422 0.09633818 -0.1325061 0.15858291 0.50810295 0.0296293 0.22837552 0.046577565 0.42688677 0.16420326 0.330646 -0.24586938 0.07244167 0.27074715 -0.24038465 -0.31647962 0.14960186 -0.50725466 0.03165014 0.27813634 -0.18286307 0.3341808 0.23705648 0.102150135 0.16015406 0.3041408 -0.12428317 0.045394436 0.17732763 -0.12898207 0.26088196 0.13002968 0.49124682 -0.3379562 0.19389552 -0.0655495 -0.2603954 -0.1486651 -0.3561247 -0.2558336 -0.25619066 -0.114764936 -0.22433229 0.14709859 -0.44841543 0.10982549 -0.30753028 -0.033203665 -0.09205096 -0.22653745 0.5756268 -0.15051816 -0.2700486 0.00295183 0.17357074 0.050709058 -0.17396678 -0.5909437 0.24405159 0.1750256 -0.1174898 -0.06337965 -0.34692138 -0.23206457 -0.26420352 0.011369993 0.33174038 -0.1620265 0.2323323 0.42179218 0.054451235 -0.16851936 -0.048111815 -0.45562503 -0.24503529 -0.3340886 0.17948022 -0.07857805 -0.30865815 0.3949814 0.18734987 -0.11106395 0.029918954 0.09880175 0.084405124 0.012257397 0.3516406 0.13253808 0.0032096736 0.40246072 -0.0009218909 -0.9392226 0.077514544 -0.54979044 -0.39468023 0.11580059 -0.15038946 0.22818936 -0.4518931 0.09236281 -0.08264056 -0.2546799 0.21007235 0.42515892 -0.10769962 0.12148956 0.10996358 0.5734 -0.35919055 -0.5967706 0.040008873
635 0.040750567 -0.2664845 0.27549836 0.23096798 0.098113544 -0.31838876 0.15111576 0.0694764 0.2805874 -0.24408281 -0.14173234 0.5004826 0.3528181 -0.2468981 0.18742916 0.18931165 0.44071332 0.22829069 -0.26835382 -0.10276676 0.23799752 0.5095457 -0.13911715 -0.013420592 0.49091372 -0.023562524 0.19502154 0.07044249 -0.20494545 0.28603438 0.4008413 0.46499515 -0.6638805 -0.39620325 -0.13883355 0.33096868 0.15550222 -0.049508672 -0.14163525 -0.15956332 -0.5352613 -0.07314231 -0.26997408 -0.4533907 -0.0210386 -0.05591626 0.13931416 -0.070044935 0.47811458 0.02205831 -0.14036638 0.3448489 0.22253792 -0.023004012 -0.07278706 -0.24627866 0.12407795 0.2814398 -0.20094466 -0.55486 -0.2582035 0.29997358 -0.26106057 0.2076884 0.20623095 0.95379853 -0.28569987 0.08763051 -0.10477752 0.016066395 0.121623054 -0.35807168 -0.15498993 -0.5283347 -0.22785133 0.040316842 0.09361365 -0.19351959 0.22601677 -0.2906524 -0.5059056 -0.46428174 0.1407693 -0.42258433 -0.042592064 -0.11200725 -0.027008152 0.028619029 -0.25330666 0.15682022 0.07225504 -0.15376142 0.41063395 0.4259043 -0.28165647 0.3125099 0.14148524 0.041701727 -0.41177073 0.10370256 0.5553933 0.24534 0.15671167 0.5306256 0.34739617 0.23310472 0.20800394 0.23788539 0.23842335 0.25686622 0.14518398 0.08234666 -0.0324304 -0.04129087 0.2411123 -0.37450632 -0.34662667 0.21013746 -0.3907041 -0.3974817 0.41940188 -0.25469902 -0.14078042 -0.017848434 0.47550708 0.09733137 -0.17716607 -0.16714856
122 0.41751617 -0.23570606 0.217246 0.3850166 -0.030685514 -0.0628512 0.4246347 -0.08081346 0.20773226 -0.036640994 -0.30821732 0.96735376 -0.15532973 0.101636104 0.56355333 0.46315596 0.34598994 -0.13844892 -0.053819586 0.0015800261 0.0098408805 0.5103978 -0.21712923 0.34705493 -0.17931218 0.49386552 0.14001977 0.16879413 -0.20062982 -0.066545226 0.3925208 0.14060974 -0.3642084 0.24288745 -0.6039606 -0.1682859 0.105954714 -0.31333548 0.36417377 0.22411856 0.08475008 -0.013677102 0.1476259 0.067161456 -0.25559142 -0.0040226746 -0.06800046 0.12623984 -0.0286947 0.21658501 0.019283958 0.13870068 -0.2616718 -0.31304663 0.12630726 -0.6416675 -0.2829516 -0.05343034 0.235036 -0.0031157834 0.26460704 -0.113892525 -0.18731794 -0.09457074 -0.14327885 -0.115282685 -0.13202947 0.62526953 -0.04236961 -0.23086095 -0.067422636 -0.15839025 -0.0019791196 0.28897083 -0.37279946 -0.06336711 0.23951493 -0.2559806 -0.18166724 -0.24377887 -0.27416533 -0.28522316 0.049785115 0.21487077 -0.40423515 0.2637231 0.23494734 -0.05050346 -0.31743318 -0.062510125 -0.18679908 -0.14949638 -0.1160951 0.009890232 -0.085316986 -0.060011405 0.30951226 0.14996104 -0.16425294 0.11838755 0.2727604 0.025259493 0.13354288 0.100621395 0.10817906 0.13076967 0.1870898 -0.020885782 -0.8061881 0.068112195 -0.22588879 -0.24682945 0.24410181 -0.09109544 0.015826846 -0.26167363 0.21934588 -0.096600704 -0.41283303 0.34041616 0.42203298 -0.04080895 0.12884983 0.20772345 0.8680398 -0.30792484 -0.6414064 -0.039863
57 -0.16186841 -0.39878795 0.493522 0.3622619 -0.09364476 -0.50459284 0.43239182 -0.022136906 0.44287002 0.22083907 -0.14027926 0.8982135 0.21770523 0.03602019 0.28837225 0.11396162 0.5202442 0.11240998 -0.5924784 0.1352248 -0.07415682 -0.058385506 0.019809198 0.24190886 0.327804 -0.059379082 -0.055657484 0.175912 -0.20380431 0.015699688 0.35220993 0.0263108 -0.7496893 0.37095165 -0.2579509 -0.40190515 0.09588848 -0.13889377 0.40787342 0.17986113 -0.33890286 -0.053433158 0.007550831 -0.12186463 -0.07555885 -0.06525378 -0.344047 -0.14489174 -0.009975592 0.14476389 -0.6294482 0.09242057 -0.24980967 0.08864874 -0.084563136 -0.34150952 -0.07024149 0.25234348 0.1861107 -0.0067765815 -0.13158487 0.04863104 -0.30633414 -0.15631977 0.32717788 0.1931546 -0.6629865 0.3973205 0.13078916 -0.18628222 -0.32806364 0.045512807 -0.1578307 -0.40367797 -0.06327025 0.15019439 0.19852448 0.0037745035 -0.06661926 0.172413 -0.2810927 -0.36961243 -0.09308838 -0.16495788 -0.87996405 -0.32424107 0.017632816 0.15732706 0.06555818 -0.030030545 0.13738428 -0.08912628 0.11696375 0.24939884 0.17618982 0.071128294 -0.08741317 0.3253407 -0.20144372 -0.09362035 0.19076222 0.03644987 0.037286546 0.09689537 0.33884084 0.44171524 0.15347257 0.041379835 -0.31368348 0.2007935 -0.0776742 0.17596218 -0.37645575 -0.30160034 -0.33563867 -0.45501617 0.31006318 -0.23055826 0.08963173 -0.2310773 0.5923025 -0.41100624 -0.24550596 0.36700574 0.61898214 0.103145726 -0.5367802 -0.11832548
741 0.23996557 -0.32238558 0.38872746 0.13772957 -0.30075634 0.07876558 0.36329135 -0.08590381 -0.04083631 0.30154717 -0.19189896 1.0300479 -0.016371554 -0.065469414 0.46909732 0.5344938 0.23805304 -0.36773878 0.20771001 -0.008286758 0.1328942 0.40783823 -0.07589516 0.27468678 -0.24226612 0.34208956 0.3747308 0.36577445 -0.40530506 0.08724672 0.22298093 -0.034781273 -0.3703022 0.10880497 -0.5568275 0.0026187135 0.19912799 -0.118660465 0.018970393 0.21975385 0.34493697 0.08431002 0.19200912 -0.051871225 0.08071212 0.17806011 -0.09029585 -0.03711932 0.24586822 0.30292547 -0.25805235 0.15447128 -0.124366574 -0.3052275 -0.12291868 -0.34079352 -0.32430118 -0.14125669 -0.31035036 -0.059907284 0.0071664825 -0.37692642 0.012201302 -0.22537108 0.03191974 -0.12283076 -0.17805034 0.45145094 -0.011760013 -0.039243694 0.05154868 -0.10940081 0.08687103 0.0357399 -0.5265139 0.26193744 0.048155855 -0.14302237 -0.003729607 -0.40711102 -0.09001043 -0.12278396 0.14926402 0.2771059 -0.04842267 0.19384837 0.14373854 0.18951915 -0.0875571 -0.1738202 -0.47632557 -0.1366349 -0.36186084 -0.048831847 -0.15359701 -0.2582949 0.29128903 0.1167323 -0.24108317 0.20480797 0.10293579 0.10587216 -0.057091385 0.33595118 0.11221365 -0.1757336 0.51183724 0.15522628 -0.86277694 0.15038918 -0.4942116 -0.4327696 0.16828161 -0.14366077 0.25020278 -0.31349185 0.21632457 -0.11320967 -0.19775432 0.12643524 0.33259594 -0.14707686 0.23049626 0.23492482 0.5717015 -0.23406039 -0.8001819 0.014869924
117 0.16837786 -0.2246997 0.4348485 0.38358068 0.0040466227 -0.029241852 0.24487682 -0.0675373 0.2987596 -0.006945254 -0.24113517 1.021301 -0.15364781 0.011158827 0.4816964 0.043146893 0.44306114 -0.18193074 -0.13499975 0.0858995 0.0002739545 0.2867663 -0.2703702 0.50770944 -0.034323603 0.3382014 0.21778315 0.30325615 -0.102376446 -0.17695093 0.29665014 0.23557307 -0.3944877 0.33284992 -0.5198983 -0.17980976 0.057882372 -0.30978823 0.30191803 0.18004043 0.06045364 -0.13194585 0.07164984 0.1121352 -0.50988597 0.15854988 -0.3331392 0.07055202 0.1410227 0.10005366 -0.29783452 0.08510521 -0.37606323 -0.24301866 0.0012542325 -0.4557931 -0.39577135 0.020569365 0.05616061 0.12085953 0.17074679 -0.1795731 -0.38217384 -0.15698004 0.085021205 -0.2097906 -0.18254443 0.49443477 0.11781501 -0.10169098 -0.025399355 -0.28203323 0.008685991 -0.10975618 -0.12871738 -0.11120573 0.23679215 -0.12790057 -0.18411031 -0.28884768 -0.19214971 -0.19702797 0.146325 0.12665083 -0.5914229 -0.078145236 0.09806206 0.10380692 -0.20716289 0.060550407 -0.07259677 0.018281603 -0.25771797 0.00801356 -0.008736129 -0.08351456 0.12848732 0.12997623 -0.25894487 0.0020428137 0.102764145 -0.007254064 0.13592903 0.118583694 0.2576891 0.27570733 0.21134587 0.102008976 -0.7305868 0.25580543 -0.26380536 -0.16356213 0.0561956 -0.20990342 -0.032733206 -0.33636764 0.409559 -0.3344847 -0.0308718 0.29947823 0.41211778 -0.12562835 0.024348037 0.3846017 0.9374481 0.08655553 -0.6452435 -0.09336677
784 0.3256941 -0.33769765 0.14319216 0.09701372 -0.34731454 0.105678074 0.27831557 -0.23119143 -0.016031582 -0.17262135 -0.29790056 0.854698 0.056448292 -0.07286107 0.58231455 0.42180222 0.4547605 -0.3899118 0.10581401 -0.10018766 0.3077032 0.580039 0.004038964 0.21874297 -0.036456198 0.37105104 0.2860049 0.17812313 -0.28380316 0.13098858 0.26923364 0.16161877 -0.28146628 0.23109114 -0.5790698 0.16209994 0.23103961 -0.09639282 0.23188427 0.10317077 0.22655281 -0.020531707 0.25951678 -0.068739474 -0.10693169 0.12983476 -0.017997557 0.14448301 0.21088661 0.31692502 -0.2286739 0.09127156 -0.13227016 -0.38956645 -0.14051086 -0.40461048 -0.30195823 -0.2088945 -0.27707162 -0.2391629 0.16026568 -0.43347567 -0.15343726 -0.25916246 0.003191272 -0.034431405 -0.16600056 0.65822446 -0.16674471 -0.17199709 0.33354905 -0.14460821 0.12154675 -0.0918258 -0.45766923 0.20115395 -0.047345962 -0.06506006 -0.019704042 -0.46322668 -0.20827763 -0.16647336 0.13033685 0.44926238 0.008596919 0.3435541 0.17301469 0.11090541 -0.28496036 0.14447579 -0.33842632 -0.19124813 -0.32237637 0.17322241 -0.12952636 -0.15052254 0.32574803 0.12753485 -0.03999506 -0.06433598 0.2105919 -0.03822232 0.10369867 0.38955796 0.19581962 -0.027917555 0.3965235 0.09060427 -0.7416507 0.21138221 -0.59068644 -0.491884 0.10642092 -0.1837716 0.25485286 -0.28474948 0.012882063 -0.03218342 -0.31331238 0.17139086 0.42527702 -0.020551508 0.35644564 0.20609228 0.5981979 -0.3114355 -0.66894084 0.06417738
758 0.34829885 -0.23785281 0.19620386 0.253529 -0.19675452 0.076817915 0.3562846 -0.01924664 0.0845376 -0.027113669 -0.32046074 1.0839322 0.040508807 -0.1107549 0.41702127 0.4504924 0.48533997 -0.4064267 0.047652055 -0.099477395 0.26564524 0.46794692 0.03036963 0.28665602 -0.015518729 0.37504324 0.21360996 0.08093483 -0.24563764 0.0551868 0.2845836 0.035357524 -0.27957445 0.011147408 -0.70534027 -0.018191377 0.17512846 -0.15760112 0.24194281 0.26614457 0.13805518 -0.046135496 0.39931422 -0.031294428 -0.042736985 0.17198087 -0.14342995 0.13342106 0.27105936 0.3346665 -0.42045265 0.07547398 0.014260604 -0.20673653 -0.24806078 -0.36774576 -0.22936714 -0.25264204 -0.121158205 -0.09456174 0.11014934 -0.45178518 -0.15745734 -0.34222618 0.03671354 -0.15724346 -0.19639108 0.42775336 -0.30477938 -0.28589746 0.0897443 -0.21765953 0.13104063 -0.009590883 -0.4145166 0.26365167 0.056304723 0.064810984 0.033453163 -0.35155526 -0.09206695 -0.23540168 0.14136812 0.4513731 -0.12525581 0.19941375 0.36631382 0.2331516 -0.11134132 -0.20533215 -0.45858464 -0.15378405 -0.36339828 0.046928152 -0.29070014 -0.124995664 0.21448845 0.113544494 -0.14090975 0.15289578 0.35495812 0.091167204 0.13232273 0.18565585 0.03152054 -0.052397184 0.5553815 -8.087371e-05 -0.8695411 0.29327354 -0.5753766 -0.34978577 0.18047202 -0.23882218 0.3130939 -0.26360127 0.22517999 -0.10342989 -0.24957441 0.14937124 0.3164443 -0.08065391 0.27601424 0.0793303 0.5806554 -0.073541895 -0.5897755 0.09393525
781 0.40231642 -0.16945657 0.048239302 0.12847199 -0.25650787 -0.0481636 0.24561016 0.047364682 -0.03499498 0.04412066 -0.38655064 0.9231344 0.008377492 -0.0160113 0.39443445 0.5642494 0.04989416 -0.23128062 0.31125033 -0.23336819 0.22169518 0.53234804 -0.076825105 0.33703032 0.01586342 0.32935646 0.2007853 0.2684538 -0.2758396 0.09382911 0.16042776 -0.025526788 -0.31050473 0.06301778 -0.5501421 0.03664689 0.08463777 -0.063511565 0.10024844 0.16444482 0.28202304 -0.13639624 0.17489055 -0.022458518 -0.02395325 0.23660201 -0.015192424 0.1730467 0.3127244 0.2183619 -0.07490079 0.2685505 -0.23477136 -0.2767608 -0.041562658 -0.30503747 -0.22289708 -0.31331378 -0.25235927 -0.08175678 0.15844549 -0.4474403 0.052661367 -0.30345878 -0.124410085 -0.19809918 -0.1065649 0.48971918 -0.19374904 -0.41494346 0.074508764 0.003754867 0.0058856346 -0.016197298 -0.5675549 0.3406373 0.01568843 -0.16564779 -0.04687616 -0.32952783 -0.31623 -0.2700474 0.023427533 0.30979833 0.02910284 0.2184321 0.34791434 0.2061947 -0.23843242 0.14448299 -0.36506534 -0.22872601 -0.38420087 0.045993917 -0.10766629 -0.28042048 0.5552409 0.11843261 -0.124637745 0.060878318 0.27989694 -0.08862243 -0.015158126 0.34027678 0.20885415 -0.078570716 0.44525883 0.16132523 -0.99173415 0.18667142 -0.6238579 -0.30313477 0.29287863 -0.15225518 0.36507842 -0.47378734 -0.029163405 0.023715988 -0.34163094 0.121299855 0.33061284 -0.03996847 0.27405405 0.13319272 0.6489706 -0.34346 -0.5933151 0.12306321
768 0.3136728 -0.21346754 0.22642201 0.19624117 -0.3617011 -0.07502393 0.35023388 -0.14072925 -0.13712151 0.1937498 -0.26365146 0.7745204 0.18600698 0.060495626 0.58096284 0.34431493 0.3685941 -0.3435344 0.06687003 -0.21604802 0.372839 0.5718144 0.0008210234 0.20641305 -0.13602029 0.38738275 0.13389422 0.26326573 -0.27674717 0.13184856 0.42540133 -0.07275108 -0.22870058 0.20934299 -0.6558438 -0.06078902 0.14535746 -0.23508337 0.2151814 0.15037738 0.12519893 0.047071148 0.3134081 -0.007592634 0.056259293 0.11169433 -0.15346958 0.14811558 0.28182507 0.43586317 -0.24894893 0.24826533 0.011436603 -0.23797089 -0.01933457 -0.36418492 -0.18241322 -0.27221718 -0.12995405 -0.08246052 0.017625578 -0.3735744 -0.08980073 -0.32421568 0.054863907 -0.1774553 -0.12330223 0.43073678 -0.058160372 -0.19487508 0.3096384 -0.08543078 0.115765706 -0.09372989 -0.48845947 0.23642603 0.16596477 -0.26389435 0.016041527 -0.4577551 -0.22285247 -0.21634313 0.21731916 0.22451994 -0.083462685 0.21597101 0.18521848 0.06479212 -0.20631775 0.06882496 -0.43382564 -0.28659892 -0.36958975 0.02478285 -0.2177198 -0.0907404 0.24467663 0.11626061 -0.12827958 0.14684555 0.09882048 0.07109107 0.1345187 0.2600864 0.10430057 -0.1251518 0.47659272 0.17816077 -0.80899394 0.31074944 -0.55226725 -0.4638554 0.2792272 -0.13983305 0.16578865 -0.5171543 0.25656968 -0.15625452 -0.19724247 0.24634385 0.35566196 0.002039447 0.27378404 0.19792624 0.5851475 -0.30750543 -0.59116036 -0.06912802
633 0.16766803 -0.39850342 -0.0865159 0.14070994 0.06132058 -0.41175002 0.168946 -0.025218397 0.22076805 -0.07409367 -0.24494328 0.44335064 0.2933687 -0.22142689 0.056236636 0.2814186 0.50978166 0.06875301 -0.17095643 -0.2367961 0.22019264 0.41206828 -0.20392808 -0.0708024 0.504325 -0.050137434 0.27942568 0.041075327 -0.43715218 0.23664454 0.6524638 0.54220533 -0.53151697 -0.13719583 -0.21074207 0.19141972 -0.04852535 -0.19515389 -0.097348966 -0.25583416 -0.34633502 -0.21821709 -0.369261 -0.39814118 -0.007640933 -0.14206697 0.32293677 -0.007420389 0.46818665 0.043804802 -0.13300097 0.26637045 0.21959312 0.13335773 -0.15372582 -0.2271803 0.020557303 0.3030344 -0.27006277 -0.5846574 -0.32599375 0.30841818 -0.32318744 -0.184893 0.15182841 1.0149479 -0.34701583 0.050336655 -0.09715279 -0.08541277 0.026938215 -0.2492036 -0.16689461 -0.45857105 -0.0034702518 0.42181996 -0.06142189 -0.061230853 0.17841716 -0.1545909 -0.4921062 -0.40057704 0.17318614 -0.34320298 0.089920565 -0.14155519 -0.057557497 0.10733207 -0.03758121 0.2760308 -0.1906962 -0.29263166 0.23759775 0.3907838 -0.34781733 0.4087284 0.11357168 -0.008973279 -0.07404048 -0.11270714 0.76147515 0.2129101 0.1846333 0.5614482 0.40824926 0.31275627 0.1608363 0.4629155 0.32740957 0.18479219 -0.06694573 0.28351167 0.21884218 -0.15781716 0.3093487 -0.34119043 -0.45791405 0.12796593 -0.19913818 -0.34883344 0.5911746 -0.32015488 -0.21004374 0.062851146 0.16158268 0.023067335 -0.29838663 -0.001605675
785 0.3750602 -0.30352756 0.31193277 0.043792278 -0.29385072 0.1957642 0.33111373 -0.01211492 0.06268473 0.029305253 -0.3437376 0.8858839 -0.0348578 -0.09089059 0.49804705 0.32977867 0.22379933 -0.34509763 0.15805504 -0.14362033 0.12334735 0.3987 -0.12589365 0.20339936 -0.12409059 0.24917422 0.22833246 0.15610556 -0.26632294 -0.0023209667 0.18223357 -0.016896268 -0.2865344 0.035375893 -0.5423578 -0.09898093 0.08613717 -0.13949919 0.070463665 0.2506979 0.2213921 0.037967242 0.36052194 -0.08870866 -0.15485181 0.14458025 -0.09388468 -0.007094565 -0.049246065 0.39560342 -0.2300153 0.10515336 -0.032468725 -0.17118749 -0.12886438 -0.610374 -0.4422784 -0.21152157 -0.37964308 -0.10820811 0.12764543 -0.45109254 -0.0694893 -0.31308094 -0.07867043 -0.1331069 -0.22415473 0.48819065 -0.073001266 -0.17270201 0.04479991 -0.18772458 0.23726943 -0.05143956 -0.36301678 0.23104121 0.044812836 -0.121730655 0.07017606 -0.23025344 -0.21427931 -0.17014904 0.15760592 0.14583606 -0.21305428 0.34125262 0.32137987 0.2469769 -0.24998027 -0.06942996 -0.40698433 -0.31217867 -0.37655777 0.14411451 -0.3532806 -0.1982937 0.3953628 0.09993859 -0.12438414 0.065729305 0.30232364 0.07587774 0.096330054 0.2397031 0.18316555 -0.10971799 0.3254618 0.3442926 -0.761108 0.3034349 -0.48782283 -0.38807625 0.26154515 -0.084373884 0.3052279 -0.41023472 0.11636341 -0.018535905 -0.2773727 0.23133677 0.32311174 -0.05950563 0.19736245 0.26829907 0.69979006 -0.17271912 -0.6303728 0.27871656
125 0.29991794 -0.112200506 0.28284132 0.35610577 -0.11076652 -0.10286118 0.3510397 -0.15667933 0.055569343 0.15375793 -0.29593274 0.8430581 0.08232723 0.1650425 0.6124881 0.1998312 0.404264 -0.20821366 -0.07820808 -0.120070696 0.31538063 0.4561225 -0.22751032 0.33375633 -0.22368102 0.44981 0.038488053 0.115484886 -0.2890196 0.06039623 0.44792104 0.12832703 -0.25717312 0.4225174 -0.6952865 -0.19832715 0.11637025 -0.40549633 0.2595825 0.11312213 0.011713615 -0.09419647 0.22511606 0.10974587 -0.22222763 0.017689764 -0.2588853 0.061356682 0.22229014 0.2985178 -0.072237186 0.22655678 -0.08508923 -0.20579904 0.21581353 -0.5160029 -0.3210055 -0.12824453 0.11206329 0.095591314 0.1536037 -0.14894459 -0.32417884 -0.1670315 -0.0005638922 -0.318074 -0.21209724 0.45508185 0.009620786 -0.19220187 0.2551611 -0.21985228 -0.08233594 -0.004043252 -0.2921944 0.08033898 0.19782954 -0.43037912 -0.05834088 -0.43154976 -0.21735641 -0.29380006 0.2413856 0.15940744 -0.33146405 0.07234944 0.17054808 -0.040686388 -0.12160325 0.087489314 -0.20269436 -0.2847225 -0.1748138 -0.07222258 -0.17543218 0.004190015 0.21342136 0.12626308 -0.16916901 0.28865114 0.19116558 -0.01914489 0.29429173 0.13205145 0.07737738 -0.0068241134 0.255977 0.16615388 -0.73878735 0.21516493 -0.28923452 -0.36516854 0.31602377 -0.076543115 -0.043682363 -0.509533 0.49395388 -0.16825113 -0.18803504 0.3749381 0.31063256 0.05056483 0.1351141 0.3506493 0.74099094 -0.15215807 -0.5531722 -0.19090962
779 0.48434296 -0.32788035 0.2411832 -0.03289566 -0.34289446 0.16714427 0.313008 -0.021738084 -0.12332042 0.1298762 -0.27091327 0.80103064 0.15949099 -0.1024712 0.51481175 0.4753016 0.26962313 -0.25569966 0.061232746 -0.19298464 0.13879722 0.4656728 -0.0042985715 0.3727307 -0.1704516 0.40582928 0.26399156 0.3777276 -0.31261507 0.037764862 0.23454072 0.033609845 -0.2107349 0.14678404 -0.5490669 -0.0184528 0.14079553 -0.14560355 0.28933373 0.044533744 0.24601214 0.04189873 0.2589011 -0.021665627 0.019675426 -0.013715978 -0.0646358 0.11732841 0.17734218 0.3690615 -0.28025147 0.14062825 -0.20254001 -0.3359184 -0.14081681 -0.34522364 -0.29554993 -0.07568294 -0.0885757 -0.19698581 0.034245964 -0.4567094 0.07443218 -0.30802763 0.030215919 -0.09035751 -0.13956432 0.53288174 -0.078502096 -0.14786781 0.10447294 -0.11938712 0.15169516 0.028238509 -0.30817467 0.16560143 0.060405865 -0.03967122 0.04021222 -0.5511793 -0.270597 -0.25471276 0.17662093 0.3259195 0.065495685 0.51682633 0.268587 0.14331052 -0.271012 -0.048089847 -0.57043034 -0.18768823 -0.38926327 0.2354842 -0.19265127 -0.26747814 0.41595528 0.14194983 -0.16249181 -0.01659606 0.22438201 0.2885247 0.002858759 0.24797665 0.14743148 0.031329017 0.43705317 0.05697495 -0.92700243 0.24715343 -0.45798546 -0.35036668 0.05623808 -0.12360314 0.35553145 -0.32852092 0.056162983 0.028551534 -0.4035009 0.07574518 0.42614126 -0.08491536 0.2877987 0.19209039 0.5059056 -0.45272124 -0.6723701 0.13944666
782 0.37760386 -0.25149935 0.18033311 0.029337186 -0.23291336 0.15388267 0.30501893 -0.13104723 0.036480483 -0.04503552 -0.28905985 0.78369564 0.0010884386 -0.13393417 0.42030856 0.42701912 0.4331204 -0.48963895 0.20104167 -0.059456695 0.21796411 0.39785805 -0.02332171 0.24459508 -0.09326324 0.27950847 0.2895665 0.44248745 -0.28486457 -0.010181377 0.41627458 -0.15385054 -0.20924152 -0.034859378 -0.6181562 0.1387534 0.22624457 -0.010661662 0.18072253 0.09872437 0.073981196 0.23311797 0.34136632 -0.07715795 -0.18572778 0.23734951 -0.2539868 0.18650275 0.29520378 0.46656287 -0.18897791 0.17671345 0.022630645 -0.42455578 -0.21652241 -0.35312444 -0.41918784 -0.10043248 -0.11383638 -0.14268476 0.09667304 -0.3703449 -0.021733353 -0.19568114 0.09562573 -0.09750232 -0.031033792 0.3304421 -0.17845012 -0.18418907 0.09928679 -0.03909659 0.1481385 -0.03431052 -0.42273074 0.23550601 0.041367054 -0.19695875 -0.18576176 -0.29981497 -0.16532688 -0.32188904 0.3168003 0.33968833 -0.09439348 0.25437608 0.19855179 0.08207462 -0.23216276 0.017204782 -0.3781657 -0.1279658 -0.31791958 -0.10976033 -0.15562472 -0.2744983 0.39818752 0.2288699 -0.19310147 0.09214117 0.20211795 0.24130803 0.09493661 0.2983184 0.1360876 -6.895008e-05 0.42550644 0.1777713 -0.93327683 0.24514802 -0.3660131 -0.46068376 0.30228448 -0.035283122 0.38440514 -0.35958543 0.19649838 -0.24766909 -0.28007567 0.16719182 0.30669376 -0.09155905 0.3950569 0.29725453 0.6203206 -0.15562025 -0.65751696 -0.008989776
698 0.07405154 -0.24506354 0.21061589 0.24109243 -0.05714803 -0.10991572 0.35365906 0.08021039 0.27268443 -0.07437776 -0.026255753 0.50103337 0.33875594 -0.2689211 0.06911106 0.31830278 0.47878838 0.3372106 -0.16625641 -0.23113118 0.30949098 0.49391794 -0.15961327 -0.04584336 0.3579271 -0.08373857 0.091277696 0.08107214 -0.17302927 0.25300953 0.39730275 0.3414913 -0.71983045 -0.54559237 -0.17893547 0.22314808 0.20333141 0.06449525 0.004531188 -0.21389645 -0.48515195 -0.0062591946 -0.34312972 -0.41809493 -0.1293473 0.024137245 0.27806118 -0.049006805 0.44725266 0.024816863 0.005032981 0.36084843 -0.028930323 -0.2997507 0.021570437 -0.27263466 0.29800263 0.23014121 -0.12018574 -0.3763211 -0.1917365 0.05643145 -0.13479187 0.17230354 -0.050640352 0.93150187 -0.2685865 -0.13416475 -0.3563917 -0.30312788 0.06768071 -0.2215583 -0.21621984 -0.23240736 -0.25756946 0.18173727 0.28038752 -0.2342598 0.13270769 -0.29195443 -0.46573836 -0.6092976 0.2411894 -0.5052787 -0.04481423 -0.14062317 -0.0025177044 0.03587344 -0.3080489 0.031830218 -0.25255397 -0.015442023 0.44450232 -0.03749201 -0.32614025 0.45993418 0.15925603 0.14801168 -0.39729008 0.19291389 0.61736274 0.33908227 0.21909161 0.37911072 0.2955837 0.32977316 0.09548993 0.43809068 0.1007827 0.2781165 0.2907286 0.11359936 0.23566253 -0.01851069 0.17113839 -0.37039405 -0.18286583 0.04197362 -0.65754783 -0.19998282 0.34237668 -0.25767314 -0.07496876 0.1553058 0.51520437 0.038248386 -0.1616591 -0.11312897
783 0.29579976 -0.17015778 0.3156259 0.097644076 -0.2558114 0.064107105 0.5182582 0.044971846 0.07141708 0.021506805 -0.32418048 0.96804464 0.06863549 0.10708498 0.45023164 0.3677808 0.4051516 -0.36154562 0.08756706 -0.026421435 0.29857364 0.4407564 -0.05761473 0.23534617 -0.023679158 0.4002968 0.29383639 0.2776416 -0.23427641 0.051061347 0.050973296 0.16030495 -0.35090408 0.17981155 -0.43626523 0.13437234 0.2807044 -0.1314082 0.19288571 0.10692551 0.24817741 -0.013552945 0.35080048 -0.0044250535 -0.13574737 0.12742314 -0.13986215 0.26975903 0.30042654 0.44711688 -0.16680765 0.23776141 0.04861633 -0.14492767 0.01862706 -0.36312112 -0.26317546 -0.15213159 -0.2049925 -0.22872739 0.28225273 -0.48117787 -0.018438397 -0.3627257 -0.06655261 -0.19053242 -0.10598077 0.62577695 0.0074426015 -0.18179788 0.0045098257 -0.12659797 0.19655363 -0.07331067 -0.42337725 0.29809642 0.21096654 -0.026416834 0.055489853 -0.36385664 -0.28978205 -0.17143528 0.23888983 0.40209126 -0.05340006 0.32294774 0.41991824 0.19290419 -0.2471918 -0.06240685 -0.56885934 0.020283576 -0.42609268 -0.041176803 -0.29512388 -0.09406527 0.323975 0.13479148 -0.18802945 0.024661925 0.16402231 0.044280067 0.1294265 0.28805083 0.07420953 0.075531684 0.42629233 0.11485137 -0.8882306 0.30228347 -0.415817 -0.52892995 0.45666707 -0.2234802 0.29513165 -0.40023142 0.04202441 -0.048274472 -0.3157977 0.17909409 0.29067037 -0.041782957 0.06689127 0.31104094 0.54480726 -0.4049347 -0.58084595 0.0817804
628 0.22365676 -0.45043978 0.15941337 0.14566031 0.00322471 -0.40824342 0.29523912 0.1086181 0.0021364253 -0.30083698 -0.31138325 0.42406356 0.3420508 -0.3334366 0.017563812 0.055877738 0.2524078 0.13274315 -0.33017445 -0.14937173 0.15325776 0.5163923 -0.3010312 0.027068883 0.513815 -0.08808839 0.3006216 -0.007624436 -0.3573273 0.15217517 0.5051941 0.51741415 -0.459914 -0.017187234 -0.053664844 0.3970063 0.13416101 0.038997017 -0.21302088 -0.16549857 -0.33131889 -0.072912425 -0.26854703 -0.45367417 0.05899524 -0.0626297 0.18251078 -0.08593677 0.546356 0.11398814 -0.11949444 0.40190396 0.37249285 0.08957326 -0.22770537 -0.09272859 0.1793415 0.35770646 -0.09749425 -0.5009802 -0.20864092 0.3811671 -0.2750942 0.031596374 0.17907363 0.9013041 -0.28590202 -0.08456177 -0.11273775 -0.10497392 -0.037237998 -0.11708881 -0.13396208 -0.65446204 -0.14880799 0.21956018 -0.010585584 -0.13542499 0.054450814 -0.38570258 -0.45459652 -0.7067804 0.11402615 -0.50342983 -0.007910163 0.06315071 -0.31543326 0.11179029 -0.007997621 0.22290103 -0.045556128 -0.35506555 0.33699593 0.25395712 -0.25569502 0.2585869 0.093116455 -0.2018496 -0.27706325 -0.22816707 0.62206954 0.19236693 -0.005961296 0.714873 0.35475945 0.19834335 0.38849878 0.314686 0.29845 0.17244011 -0.16500035 0.19943133 0.12871613 -0.028534722 0.23133616 -0.3518 -0.44219193 0.16140772 -0.33980724 -0.44048086 0.6432047 -0.40422243 -0.06507777 0.21685803 0.23750652 -0.096255705 -0.26063728 0.05469323
705 0.15597105 -0.3774991 0.33178955 0.036381893 0.0861609 -0.17359981 0.38133627 0.16335939 0.15978771 -0.2756086 -0.15444875 0.5451418 0.24938124 -0.24855503 0.007992893 0.22825661 0.11876334 0.2327101 -0.34699827 -0.16125084 0.22108077 0.3957014 -0.25614113 0.018986719 0.37647626 -0.117127076 0.21440905 -0.038868826 -0.09016121 0.16951178 0.2653933 0.48505363 -0.62178046 -0.21196727 0.09088101 0.30996904 0.23733926 0.07742819 -0.067702286 -0.14643462 -0.43661946 -0.0033985283 -0.37251323 -0.37441126 -0.20291068 0.001317941 0.15948804 -0.0884063 0.31508607 0.12166974 0.06951438 0.42529207 0.29273537 -0.103421085 -0.19025043 -0.13092919 0.17280924 0.3134334 0.052871868 -0.42748368 -0.20887503 0.115143985 -0.049943637 0.2562455 0.06975174 0.8329421 -0.27590358 -0.11232163 -0.21577996 -0.07005562 -0.11083901 -0.2437659 -0.26205266 -0.5063293 -0.2895908 0.20108078 0.030666234 -0.19937925 0.066735774 -0.5194452 -0.44991305 -0.76418424 0.08769605 -0.6063681 -0.111017786 -0.078813635 -0.22745301 0.036128253 -0.20878688 0.017149793 -0.11387719 -0.09437983 0.47378257 0.03156926 -0.17818925 0.22481528 0.2557689 0.078884214 -0.53553784 0.08949066 0.5580678 0.2700854 0.07190381 0.6890911 0.32144073 0.3848339 0.29310235 0.21842709 0.1667487 0.1548066 -0.018990897 0.102655515 0.060902283 0.14835764 -0.009691258 -0.36889094 -0.38511628 0.18238813 -0.42472428 -0.24674703 0.31869188 -0.43172055 -0.17748459 0.19938779 0.5463038 -0.003525959 -0.20452818 -0.17643815
5 0.16145886 -0.37031728 0.11877151 0.38682836 0.06478992 -0.504475 0.10118304 -0.14363 0.15265383 -0.011742672 -0.18197738 0.3651249 0.52486306 -0.24436413 0.24423705 0.44929636 0.5204097 0.06863104 -0.20533928 -0.14330769 0.2858837 0.3112499 -0.0020784466 -0.09227078 0.37178227 0.12497136 0.25388768 0.025294997 -0.32425395 0.32314843 0.469232 0.36365265 -0.59331524 -0.34011668 -0.23797695 0.36627525 0.1664179 -0.12057696 -0.37308228 -0.14806499 -0.23510489 0.17081738 -0.16557786 -0.43811634 0.22671132 -0.22560287 0.2561507 -0.14271262 0.3844926 0.06327645 -0.17764653 0.3419573 0.20069878 0.045314945 -0.2383279 -0.0449712 0.07817673 0.28432104 -0.11110889 -0.63234794 -0.41865373 0.3837827 -0.17904137 -0.075402476 0.09996891 0.9089131 -0.24292552 0.009827386 -0.19549043 0.037025783 -0.10088955 -0.053598505 -0.12347675 -0.60722435 -0.11344194 0.20811018 -0.08492818 -0.11276238 0.21076806 -0.20024404 -0.52728796 -0.42976898 0.21320161 -0.4674392 -0.035781067 -0.2202062 -0.03169848 0.10522991 -0.25521094 0.13234022 -0.16967621 -0.2766671 0.09356954 0.15599838 -0.3052541 0.26147258 0.15628459 -0.0042679575 -0.15121575 0.03416925 0.45084515 0.1661213 -0.2027895 0.72034013 0.42610276 0.039436787 0.25185636 0.38370082 0.44035152 0.26886553 0.04135146 0.11327739 0.19265988 -0.08664786 0.24814127 -0.37534982 -0.3605212 0.03430816 -0.33362433 -0.46961066 0.6247487 -0.25792274 -0.08251743 0.17682315 0.18531376 -0.08123658 -0.14309719 -0.07628736
624 0.19482501 -0.46738213 0.16116713 0.16592956 0.023310704 -0.33184883 -0.025560934 -0.12834708 0.28755727 -0.07344138 -0.19344383 0.4654021 0.4661612 -0.2348206 0.059940185 0.11111866 0.66889286 0.13801748 -0.2430903 -0.18278974 0.21789953 0.43263006 -0.35420713 -0.06378868 0.3347086 0.072440095 0.24196818 0.05290681 -0.3785242 0.16898155 0.6042336 0.41721702 -0.48497024 -0.2764582 -0.32018784 0.23252751 0.07880836 -0.085504375 -0.22189382 -0.19923614 -0.46944565 0.12956883 -0.26789215 -0.4616968 -0.0015075182 -0.036215037 0.237815 -0.15193789 0.552905 -0.07914335 -0.23445687 0.24732108 0.116412066 0.19441804 -0.17795286 -0.09335833 0.10597791 0.38198972 -0.26161888 -0.5500065 -0.13572669 0.4362879 -0.09358242 0.10681238 0.11332431 0.86466455 -0.3320708 0.055492003 -0.107099056 -0.12084247 -0.025619732 -0.26470116 0.020020686 -0.46772018 0.029405406 0.26036325 -0.034527875 -0.15759903 -0.07043788 -0.19302902 -0.5432299 -0.48019308 0.31470492 -0.37117615 -0.17375971 -0.15990703 -0.027295405 0.11314164 -0.14226481 0.111750595 -0.09249323 -0.32230264 0.21786243 0.3184121 -0.32159194 0.19162825 0.09568146 -0.057350725 -0.21045454 -0.019185206 0.6350931 0.25941205 0.052777648 0.5888982 0.64195687 0.1387224 0.267857 0.2750865 0.38305357 0.12950857 -0.118445985 0.13836199 0.022248354 -0.16636324 0.2638564 -0.32481372 -0.3944436 0.069536686 -0.3979628 -0.48610595 0.65607905 -0.19693407 -0.20633976 0.1633324 0.30439234 -0.035985716 -0.24305725 -0.042310692
203 0.28597835 -0.5214926 0.052393213 0.0059133605 0.02505895 -0.20625468 0.2538581 -0.06999348 0.32428947 -0.0736378 -0.05863727 0.39851892 0.5915747 -0.1137565 -0.16508612 0.199376 0.8640933 0.118902266 -0.19458039 -0.25218257 0.24604048 0.27571434 -0.3031228 0.2557939 -0.054913767 -0.03910181 0.24829575 0.19795418 -0.2796016 0.29312488 0.68546486 0.32283214 -0.54956895 -0.12181255 -0.26478773 0.14058346 0.041274484 -0.16773506 -0.252256 -0.33690554 -0.31589735 0.20997664 -0.3639783 -0.5391355 -0.34000885 -0.0057771206 0.13187088 -0.40139773 0.5933369 0.013737757 -0.03749728 0.24930973 -0.073530726 0.24325012 -0.06140686 -0.05235173 0.23404528 0.34802523 -0.17672285 -0.27727094 -0.1053906 0.29799888 0.18428198 0.088337526 -0.119095154 0.69808316 -0.2911576 -0.08054956 -0.2381685 -0.12539637 -0.25935274 -0.18108183 0.019834474 -0.41510475 0.0983659 0.4277699 -0.13821994 -0.20296685 -0.2943086 -0.3381958 -0.52076375 -0.77866364 0.10942323 -0.29197875 -0.12869176 -0.14020056 0.016192349 0.24237244 -0.2389139 -0.10104776 -0.1909316 -0.121951036 0.20661019 -0.11979827 -0.102396995 0.17348203 0.19452235 -0.21947178 -0.15172213 -0.026921548 0.5558993 0.32077485 0.03373243 0.6806883 0.45399156 0.15994127 0.25358632 0.32173368 0.060037725 0.25086164 -0.13881515 0.16217485 -0.17315622 -0.13149798 0.10223694 -0.3771566 -0.425989 -0.11940838 -0.40013823 -0.25677404 0.6332901 -0.08013905 -0.23807135 0.30867833 0.36322626 -0.091654494 -0.21231133 -0.17961535
16 0.08794046 -0.27332225 0.30486792 0.2981921 0.1639107 -0.29493758 0.2161246 -0.06233764 0.27825615 -0.09055172 -0.07729303 0.47584644 0.31970903 -0.13734008 0.24681751 0.58810145 0.3514571 0.15000176 -0.22638738 -0.12377404 0.33441105 0.24572563 -0.028907262 -0.097298965 0.2557984 0.029539395 0.2930126 -0.031397436 -0.032830287 0.31246433 0.2819661 0.4035558 -0.66131413 -0.49840605 -0.07847648 0.35609818 0.27596888 -0.10617305 -0.25585827 -0.16687235 -0.2992876 0.18248543 -0.2679336 -0.33937097 -0.08662675 -0.14449696 0.25060135 -0.10340141 0.24383217 0.092491 0.043505806 0.41666988 0.1921796 -0.17976695 -0.19087046 -0.11113444 -0.02534608 0.20286034 0.036840096 -0.54328334 -0.41007742 0.10788818 -0.034533884 0.111136355 -0.012701408 0.92496485 -0.19228481 0.028125465 -0.31879264 -0.009265948 -0.13393591 -0.19404748 -0.33841953 -0.4734249 -0.22324914 0.19513123 -0.04958802 -0.15143566 0.26371607 -0.3795378 -0.55572236 -0.5483434 0.19227704 -0.5898154 -0.046785694 -0.3015861 0.09428328 0.023934016 -0.45819482 -0.034489084 -0.25066197 0.012381368 0.24945451 -0.039044514 -0.2482546 0.23375668 0.3433468 0.26750737 -0.4073778 0.2829657 0.4222414 0.24239504 -0.09281229 0.7766543 0.36325195 0.272949 0.20095833 0.35749856 0.24773787 0.24762408 0.16519621 0.0028444633 0.23235954 0.08084213 0.022343762 -0.39809644 -0.37014568 0.014610275 -0.4133894 -0.26803228 0.32185858 -0.3308859 -0.21085986 0.18464774 0.50102025 0.017520716 -0.12807244 -0.28635588
780 0.362289 -0.28647792 0.23809372 0.28169823 -0.32500228 -0.007868239 0.43282247 -0.08485676 0.05953993 0.012493924 -0.24252908 0.88050383 -0.06574012 0.040483695 0.4953 0.55319124 0.34840122 -0.2656236 0.14494972 -0.025646292 0.08178839 0.58948827 -0.012237931 0.2202228 -0.115042746 0.4585742 0.29419926 0.25957987 -0.22357313 0.0014158995 0.30727682 0.057693504 -0.3563804 0.06410241 -0.5877396 0.01613285 0.15588471 -0.17372109 0.28342485 0.25646713 0.30910897 0.12924922 0.20733503 -0.057740703 -0.036744434 0.1255462 0.048240997 0.20069094 0.09752448 0.2841571 -0.11152396 0.14237757 -0.1319161 -0.30578497 -0.07371585 -0.48630223 -0.17726628 -0.2382169 -0.06503389 -0.12974384 0.10192919 -0.3686186 -0.016650783 -0.24132861 -0.069282375 0.022137566 -0.014726599 0.5508133 -0.09451722 -0.17252909 0.046490103 -0.12923452 0.19955547 0.25583252 -0.570317 0.1030161 0.1700927 -0.110359326 -0.09122099 -0.3243733 -0.29703793 -0.17035706 0.13241093 0.38565102 -0.16503128 0.31010944 0.2700238 0.046110705 -0.37346745 -0.10044914 -0.42385587 -0.049833868 -0.33262497 0.016826041 -0.13716969 -0.054741524 0.2791701 0.11805507 -0.10557917 0.03393222 0.194925 0.058340836 0.015010205 0.23615208 0.08643423 -0.022681022 0.42387047 0.031982433 -0.78535944 0.19960168 -0.41592443 -0.32966858 0.2908241 -0.14890441 0.24377425 -0.24257244 0.032524407 -0.15326113 -0.453969 0.26003504 0.4309821 -0.024663115 0.22688167 0.093015805 0.6671317 -0.38012242 -0.6726327 0.011858194
55 -0.05986456 -0.45545048 0.44615147 0.28578636 -0.18045516 -0.4404246 0.4565729 0.022409026 0.3897735 0.22357896 -0.10548897 0.52200294 0.38813764 -0.018943232 -0.08144112 0.19281887 0.390201 0.35268992 -0.49125686 -0.042430982 -0.058385704 -0.0929487 0.043060828 0.07662113 0.3453431 -0.34457704 0.0055881916 0.039801277 -0.1700317 0.12606551 0.25021952 0.13077796 -0.77045524 0.044473432 -0.08165474 -0.19760802 0.08459324 -0.006349846 0.21146451 0.008451661 -0.38026276 -0.08562321 -0.11726111 -0.29885367 0.05664699 -0.09225764 0.07450606 -0.22744973 0.12533563 0.047738817 -0.53684646 0.2376409 -0.10385455 0.100724675 -0.266076 -0.14081633 0.29793072 0.24783096 0.042603433 -0.0834763 -0.3101209 0.12371486 -0.21554966 -0.11362169 0.21154678 0.50914663 -0.5597779 0.06469459 -0.06646634 -0.12959898 -0.2786686 0.02108071 -0.16870722 -0.427401 -0.08354924 0.36742976 0.03918807 0.06293658 0.044819012 0.14207835 -0.44879684 -0.47432265 0.012927686 -0.35970142 -0.4858806 -0.39821345 -0.0459878 0.2857776 -0.15530571 -0.11818102 0.0753008 -0.0999492 0.25107998 0.022323513 -0.023137206 0.36988312 -0.10015135 0.20117727 -0.11090706 -0.14222793 0.40454447 0.06957521 0.035574663 0.24156915 0.34122127 0.31368503 0.21388233 0.19470014 0.06763608 0.29162326 0.09776105 0.30193403 -0.19746965 -0.24251108 -0.24578412 -0.43676665 -0.039998736 -0.18898672 -0.14099145 -0.41384658 0.48045748 -0.34128433 -0.34740603 0.3118064 0.3351417 0.09880155 -0.35267684 -0.0053080125
7 0.056349684 -0.45323956 0.3484238 0.40470085 0.010501036 -0.46631923 0.27574667 -0.071683876 0.32821268 0.14701696 -0.2124915 0.3655989 0.47551087 -0.094521895 0.122367136 0.4855491 0.4413012 0.12929785 -0.36943647 -0.18902235 0.09596624 0.017584719 0.018852158 -0.022714285 0.21407379 -0.108873665 0.150171 -0.023149885 -0.05673624 0.20671546 0.35822263 0.26903588 -0.6558216 -0.27745476 -0.052790437 0.14073977 0.19054568 -0.069760725 -0.1543227 -0.12316675 -0.24865353 0.17837201 -0.117591456 -0.3462761 0.030200657 -0.228263 0.22270082 -0.15850635 0.20018628 0.1656442 -0.3178719 0.32467285 0.04510991 0.029005807 -0.4094099 -0.03308555 0.14635122 0.28065363 0.080777206 -0.4015126 -0.4000432 0.22756508 -0.06895231 -0.13264279 -0.0065914625 0.7574181 -0.22511451 -0.029506981 -0.27373204 -0.090487264 -0.2515688 0.015954357 -0.18809156 -0.5095217 -0.09481731 0.25008512 -0.03185761 -0.057480708 0.21161333 -0.12514895 -0.70507914 -0.54367334 0.17433545 -0.5032323 -0.1671695 -0.41899657 0.059190996 0.20454256 -0.40371072 -0.10716753 -0.1713978 -0.09156455 0.06463914 -0.14166062 -0.20703724 0.28070968 0.18909252 0.23219073 -0.13660958 -0.023562113 0.4525913 0.17839141 -0.09728646 0.64629114 0.42255723 0.25106558 0.21033548 0.38033983 0.25320143 0.40264246 0.14430013 0.2096753 0.14292756 -0.029962767 -0.031292815 -0.4514759 -0.3256944 -0.16707514 -0.28256774 -0.4138464 0.45948094 -0.30107853 -0.28428078 0.26799867 0.39492244 0.03828522 -0.17978679 -0.12993069
675 0.14381531 -0.39114574 0.35472304 0.017858818 0.12797867 -0.1256711 0.054139096 -0.08579118 0.31929457 -0.15572275 0.018919934 0.47258818 0.3613967 -0.1549937 0.063580744 0.24918708 0.6234058 0.20047858 -0.2567647 -0.21882133 0.34787744 0.39951262 -0.3775757 -0.075960904 0.180997 0.0015038435 0.16660483 -0.013591398 -0.12071867 0.14827383 0.49851203 0.30836993 -0.47043425 -0.47730237 -0.24530974 0.19526985 0.17083499 -0.076600716 -0.122733645 -0.21053457 -0.604196 0.1918511 -0.3306506 -0.3358587 -0.33235672 0.060050823 0.26284194 -0.17721969 0.40584078 -0.03914937 0.014443035 0.24767539 0.06325479 -0.03450177 -0.14076626 -0.085154556 0.105648875 0.30350256 -0.10599191 -0.47111923 -0.08633007 0.13005218 0.1179198 0.34502253 0.0075086597 0.82140887 -0.24789007 0.0010788799 -0.28489664 -0.13270256 -0.06761516 -0.40550956 -0.09115045 -0.30269393 -0.011567614 0.25097573 0.024745569 -0.18263313 -0.13199177 -0.41944963 -0.52254874 -0.6644826 0.3289034 -0.50644094 -0.27419737 -0.22857344 0.07974278 0.065485924 -0.3721819 -0.17135563 -0.18755987 -0.04271037 0.26962903 0.13065253 -0.2305067 0.12757647 0.26169553 0.2198004 -0.48451877 0.26652658 0.5250603 0.37403738 0.108235195 0.6422677 0.64198136 0.31228408 0.194785 0.11941906 0.23813158 0.07926034 -0.052492406 0.0034099321 -0.036729272 -0.03993032 0.06092942 -0.30866575 -0.40375233 0.0021199896 -0.52810806 -0.3032421 0.42724925 -0.29096696 -0.34036154 0.17081857 0.55107117 0.031260334 -0.15649433 -0.25115776
194 0.14059277 -0.40926656 -0.01055909 0.16219433 0.06018074 -0.3805754 0.29020283 0.040561624 0.24436128 -0.20772056 -0.1710901 0.42562097 0.5912873 -0.26327646 0.024959793 0.16077183 0.7072208 0.13797094 -0.23336232 -0.1847738 0.20452133 0.4383047 -0.09535552 0.27699003 0.3325616 -0.015202713 0.22912334 0.21435745 -0.36188945 0.40295553 0.5828023 0.47339934 -0.6915462 -0.09731121 -0.22911815 0.319268 0.017877392 -0.16306458 -0.25823987 -0.23394567 -0.3290325 -0.069922306 -0.28902453 -0.589533 -0.044202663 -0.12047881 0.06847733 -0.28325522 0.6267308 0.12750468 -0.089255475 0.2883437 0.12918684 0.18316957 0.0016009768 -0.1545382 0.20652372 0.34805673 -0.25715965 -0.5483243 -0.20339811 0.44625264 -0.20122111 0.02236493 0.09179373 0.90936124 -0.2954127 0.01432685 -0.101954564 0.025523772 -0.046127256 -0.16572444 -0.055531546 -0.6635635 -0.15559952 0.24380921 -0.047719683 -0.19470844 0.07802097 -0.30882254 -0.50385815 -0.5576545 0.027600413 -0.28841463 0.116591044 0.024199514 -0.11301801 0.19432755 -0.13825192 0.2315875 0.031212999 -0.26816896 0.3320076 0.32207724 -0.2647403 0.30842683 0.080539234 -0.3242682 -0.19346507 -0.15643209 0.51304984 0.25602132 0.0725963 0.6603588 0.29715496 0.14585456 0.26010376 0.46247542 0.107323684 0.36818212 0.027127855 0.17138486 -0.1102001 -0.16667147 0.31677565 -0.42313278 -0.37389553 0.11418991 -0.33205748 -0.28970775 0.6372102 -0.12984373 -0.081769675 0.10226342 0.33185756 -0.034345374 -0.24889982 -0.08859529
668 0.09612519 -0.49494892 0.39972088 0.19625935 -0.11396465 -0.3297579 0.14748442 -0.06589927 0.45399582 0.15935205 -0.18208197 0.3958593 0.40580463 -0.04825255 -0.10230535 0.15835021 0.5952137 0.2508413 -0.30948144 -0.15241395 0.06492236 0.13276811 -0.33768517 -0.0006781667 0.13386777 -0.15747254 0.17746848 0.015707532 -0.12844045 0.029698433 0.5088789 0.21220244 -0.5083378 -0.26046503 -0.121211864 -0.00935039 0.15731406 -0.031871527 -0.0985933 -0.18299676 -0.37073585 0.19712578 -0.20194738 -0.3237289 -0.12113747 0.025560206 0.23689575 -0.15715465 0.44215 -0.09362108 -0.41300797 0.24798793 -0.09579919 0.12918206 -0.34749204 -0.021579944 0.22742207 0.34972563 -0.102414 -0.21105303 -0.19514409 0.24070077 0.034623455 0.041072946 -0.004039027 0.6427434 -0.30512622 -0.016855229 -0.22158866 -0.32622242 -0.19861957 -0.114776365 -0.07943226 -0.3294774 0.08442472 0.3180503 0.009820783 -0.104338355 -0.1928055 -0.053412374 -0.6855381 -0.5560301 0.29943687 -0.38246426 -0.3871905 -0.43062472 0.13515222 0.19991674 -0.29454046 -0.19882438 -0.1697905 -0.09184388 0.12882273 -0.1488595 -0.15206341 0.23961833 0.09658443 0.13552818 -0.13442832 -0.056309942 0.61064845 0.24225102 0.04166782 0.43809855 0.64221567 0.19250424 0.23855765 0.26198354 0.28358066 0.19447622 -0.023274241 0.22731891 0.030518033 -0.14537227 -0.029147517 -0.38370654 -0.27294305 -0.24877529 -0.3745885 -0.48079664 0.5371377 -0.18056539 -0.4362187 0.32332945 0.39768192 0.046208896 -0.20563185 -0.048465643
627 0.11131522 -0.28277242 0.090976246 0.32182944 -0.12146241 -0.33147922 0.29393077 0.0550441 0.19273774 -0.098378465 -0.1436318 0.42741376 0.48975772 -0.33060592 0.092481196 0.14890824 0.53600603 0.3083387 -0.1672142 -0.16035178 0.2388366 0.5608269 -0.11726351 0.006561815 0.50990117 -0.03222539 0.10606134 0.117627814 -0.37609008 0.27255628 0.4999512 0.33286157 -0.6402034 -0.32670042 -0.31996652 0.28427184 0.14388587 0.041527573 -0.10614299 -0.1744169 -0.36819512 -0.06734455 -0.21637334 -0.49007553 0.15628968 -0.044123016 0.23812413 -0.1062141 0.6018501 0.0019065981 -0.22182544 0.3632629 0.037724268 -0.13706285 -0.008087037 -0.23215449 0.35638165 0.30478048 -0.2220099 -0.43267933 -0.2176239 0.28411883 -0.329714 0.00848022 0.12443738 0.89977497 -0.3068046 -0.09288595 -0.24098799 -0.28544354 0.120459504 -0.076797396 -0.11120532 -0.40126714 -0.21790297 0.14432381 0.23394991 -0.1777709 0.1224851 -0.16306834 -0.43267688 -0.48118237 0.25141314 -0.38007453 -0.035247646 -0.019961523 -0.12542821 0.08848352 -0.115642466 0.22478382 -0.10359385 -0.25914916 0.38577408 0.1938056 -0.35565585 0.46747318 -0.05259196 -0.115324944 -0.19284894 -0.06548359 0.56796813 0.21784611 0.11615072 0.38430768 0.316286 0.13430321 0.162034 0.48302218 0.22140367 0.29007658 0.21065672 0.16380285 0.2005676 -0.20163569 0.3428285 -0.38588285 -0.12082082 0.032377686 -0.55408263 -0.36155275 0.60124284 -0.21389769 0.030088687 0.17285845 0.2739264 -0.019816507 -0.22149272 0.08540669
692 0.26728958 -0.4166128 0.14290635 0.22829962 -0.17241845 -0.2112012 0.4876843 0.1464525 0.018287797 -0.11503298 -0.14891437 0.48848113 0.33403668 -0.38247436 -0.067333855 0.09894478 0.24889372 0.25452217 -0.28648317 -0.23044984 0.17643751 0.4533195 -0.28714344 0.029062701 0.4185857 -0.1301608 0.19352758 0.06863876 -0.33172908 0.12301438 0.4111718 0.3574782 -0.51951414 -0.14001846 -0.13736953 0.23758915 0.18858182 0.20750171 -0.034912966 -0.14730605 -0.29561716 -0.00245558 -0.27955246 -0.45299572 0.016997974 0.030215036 0.25328544 -0.09847429 0.44056967 0.09741705 -0.08302991 0.41641927 0.11512951 -0.16832761 -0.12789787 -0.15698116 0.39719176 0.33024028 0.039551213 -0.23890656 -0.114404365 0.15818478 -0.18241268 0.020590978 -0.017267004 0.7984382 -0.3054817 -0.3278622 -0.3128687 -0.3345006 -0.11612648 0.036409833 -0.13018005 -0.37412193 -0.21203353 0.28238115 0.21545932 -0.17627774 -0.054017447 -0.329359 -0.29660112 -0.8204893 0.16971983 -0.58763564 -0.088692285 0.05013621 -0.38484797 0.07656675 -0.046974283 0.09070301 -0.24067926 -0.26593357 0.3987143 -0.22738606 -0.2701191 0.3948835 0.037328213 -0.101771615 -0.26776037 -0.12793568 0.59550726 0.2520474 0.03054677 0.46216214 0.28550342 0.255587 0.24911852 0.44456872 0.1471323 0.20130378 0.016007287 0.24536867 0.32345295 -0.03939657 0.11605847 -0.35222775 -0.19799884 -0.009795034 -0.60085374 -0.24870637 0.59668636 -0.38456476 0.06836242 0.4260478 0.28844818 -0.14744774 -0.27942288 0.12760001
14 0.3232286 -0.3461181 0.04640837 0.15945986 0.13587809 -0.36096194 0.23478875 -0.05103716 0.3910289 0.034837928 -0.2656025 0.42797282 0.61636055 -0.18649004 0.14153726 0.5274373 0.36024964 0.123703845 -0.06418456 -0.07679313 0.2570008 0.2046752 -0.1340165 0.049359392 0.26425135 0.18866253 0.1532901 0.008934118 -0.1440568 0.20466429 0.25681767 0.41098452 -0.677425 -0.27461728 -0.23891588 0.17100091 0.075016715 -0.15454787 -0.13144416 -0.07867331 -0.11810816 0.21429418 -0.23937039 -0.40052533 0.003328391 -0.074432224 0.35617852 -0.2959973 0.08224287 0.09089837 -0.103653744 0.30400214 0.051178083 -0.122713186 -0.33654767 -0.00245258 0.32612053 0.37941548 0.052132197 -0.53587687 -0.5560935 0.22676772 -0.122098364 -0.14462185 0.0645623 0.6137385 -0.23268595 -0.25528315 -0.2662885 -0.1225201 -0.34260184 0.11324526 -0.25758263 -0.5652248 -0.19173451 0.44253007 -0.22027954 -0.096493244 -0.06087975 -0.2534135 -0.66847974 -0.42909634 0.22498444 -0.53474385 -0.18375957 -0.32612455 0.0865143 0.1779238 -0.21326739 -8.9378416e-05 -0.29991326 -0.15458192 0.116599336 -0.18911353 -0.21396287 0.21310353 0.13823226 0.077403694 -0.12577786 0.07801659 0.48036298 0.16291587 -0.16306037 0.6832054 0.48153353 0.117262624 0.146693 0.5463558 0.327278 0.286735 0.045133635 0.05586532 0.24225983 -0.11666828 0.1343412 -0.5322159 -0.32846937 -0.019272944 -0.46424794 -0.2543027 0.4742633 -0.13202791 -0.14604597 0.33842298 0.46625257 -0.05293842 -0.12057948 0.019854445
629 0.39143732 -0.38590485 0.082770385 0.17273615 -0.06538144 -0.36052206 0.12232283 0.0006228316 0.5067858 -0.073435806 -0.2220948 0.54280955 0.3172931 -0.21012756 0.04952073 0.13014278 0.42006662 0.20459329 -0.2467219 -0.12714271 0.14625722 0.4577029 -0.2681102 0.025628211 0.49863926 0.17178509 0.32980487 0.13752885 -0.37314686 0.26345146 0.44412562 0.5588472 -0.6893257 -0.2982789 -0.12887861 0.31789201 0.17165393 -0.031142244 -0.22463046 -0.099415 -0.41732422 -0.041461267 -0.27327052 -0.56649446 0.19599546 0.012690332 0.16473487 0.015064509 0.48392642 -0.06710241 -0.23044476 0.43090203 0.04629337 0.15140043 -0.115126394 -0.166683 0.14489226 0.2630859 -0.3695065 -0.53608996 -0.24313264 0.40879294 -0.23248044 -0.035527065 0.14208049 0.7998626 -0.4104694 0.14376658 -0.050137307 0.029097347 -0.021192808 -0.2551534 -0.026852341 -0.6395416 -0.2656697 0.3239486 -0.052241445 -0.16781223 0.021841105 0.010278453 -0.42084488 -0.33143124 0.15401615 -0.35806203 -0.048348982 -0.17937796 -0.08223777 0.06049801 -0.17246093 0.2767871 0.010632487 -0.4962602 0.33118892 0.17623219 -0.3549178 0.4010794 0.17413342 -0.17191076 -0.21671619 -0.13146573 0.6867623 0.1485016 0.00333815 0.44572648 0.43629813 -0.045841213 0.2784406 0.37812093 0.29583478 0.16488856 0.026395464 0.15338516 0.15437448 -0.07936103 0.22199456 -0.44668254 -0.334356 0.20689975 -0.23618054 -0.33806488 0.5086019 0.052279983 -0.1588312 0.13108407 0.39333454 -0.016121034 -0.09753948 0.09630734
192 0.24178067 -0.21490452 0.15540467 -0.17771022 -0.05179221 -0.1560898 0.48743016 0.032871522 0.19951342 -0.38824448 -0.13773064 0.12467186 0.43875492 0.023947537 -0.21604384 0.24793015 0.6861864 0.18532695 -0.106850654 -0.07869671 0.2693855 0.4279442 -0.09666349 0.37209922 -0.08808386 -0.2523705 0.15912947 0.18848777 -0.20955959 0.42003134 0.578776 0.36632252 -0.6151898 -0.045873854 0.03766222 0.31379348 0.16706376 -0.1778538 -0.4400278 -0.41024488 -0.22061415 -0.07564793 -0.23684053 -0.58434105 -0.3000615 0.053250797 0.10830337 -0.3693923 0.75285745 0.13264216 0.03509723 0.52707356 0.009737249 0.07965879 0.034269042 -0.07350899 0.36150527 0.19362402 -0.3273739 -0.12892984 -0.3063096 0.17010088 -0.0002873363 -0.02332537 0.026092036 0.55237293 -0.1948213 0.06100137 -0.2976472 0.082023345 0.030466076 -0.22064866 -0.110439196 -0.54188097 -0.07153538 0.29429662 -0.1024592 -0.20271592 -0.12118978 -0.32521543 -0.5647315 -0.83029306 -0.12101472 -0.1340371 0.05011322 -0.12580639 0.071040705 0.33224913 -0.37166807 -0.124132335 -0.057697356 0.09583321 0.20830968 -0.16416445 0.012006463 0.3408517 0.33150432 -0.3464213 -0.035969645 -0.14125293 0.49915737 0.048375245 0.12234553 0.6239675 -0.053103764 -0.01886409 0.3753879 0.13947771 -0.18102084 0.47254065 -0.030330108 -0.0077956296 -0.27228644 0.01720291 0.20747404 -0.39308095 -0.4231401 -0.085980535 -0.19024956 -0.3058956 0.40077296 0.10174435 -0.25065482 0.16887493 0.25154677 0.028120873 0.021364436 -0.28209445
696 0.23141243 -0.3341178 -0.14880314 0.19348249 -0.1229241 -0.22633375 0.46704707 0.053779464 0.17082597 0.0061691063 -0.073959716 0.48089784 0.25477195 -0.24430385 -0.07108678 0.37764874 0.5215865 0.23663592 -0.0948037 -0.30690035 0.31006503 0.41212043 -0.15076515 -0.05615441 0.3891077 -0.18406868 0.17506546 0.09676572 -0.34294862 0.24500029 0.5689104 0.40719938 -0.62815654 -0.2166449 -0.22533731 0.059812494 0.024464374 -0.059630856 0.12271203 -0.30953798 -0.29981223 -0.19153807 -0.4247148 -0.37271506 -0.116063125 -0.042860895 0.38584265 -0.010862853 0.3796324 0.048640985 -0.017977046 0.30933443 -0.020380182 -0.20234327 -0.02067791 -0.30477354 0.27320138 0.20590383 -0.123534605 -0.26894706 -0.2873572 0.008599084 -0.2645567 -0.23506169 -0.07294148 0.9291326 -0.38249338 -0.19154488 -0.34250224 -0.37484026 -0.051504966 -0.12825036 -0.22991815 -0.23133662 -0.063340314 0.5042114 0.17975037 -0.080497496 0.04076374 -0.15383969 -0.3515272 -0.5998867 0.14520876 -0.46397164 0.04209168 -0.124174476 -0.06544989 0.1187952 -0.14076944 0.12593165 -0.40227813 -0.12754129 0.34200013 -0.12314513 -0.3118651 0.58957577 0.08555497 0.07000637 -0.07189688 0.011732179 0.733139 0.29656237 0.25183907 0.35955712 0.2487742 0.41397083 0.018620163 0.5771972 0.12954429 0.22646455 0.117587194 0.29803953 0.39125493 -0.15730225 0.14615387 -0.34457132 -0.2710956 -0.059610587 -0.44459108 -0.111312345 0.5133144 -0.35045457 -0.08018579 0.27350923 0.20389962 -0.036031824 -0.287515 0.024564233
715 0.25729558 -0.32425463 0.37582386 0.14286023 0.008408816 -0.112053834 0.21123372 -0.07686172 0.53069746 -0.04881166 -0.10379223 0.41037476 0.3619653 -0.10275204 0.15394899 0.31221876 0.28967246 0.19471866 -0.28873053 -0.23104516 0.24329206 0.19717984 -0.16432011 -0.06477667 0.3187866 -0.062393133 0.16598713 -0.025345782 -0.16730103 0.33855262 0.4434261 0.4408525 -0.549396 -0.60795647 -0.3095883 0.26978824 0.11654121 0.11368795 0.0010483875 -0.09655944 -0.5762275 -0.016133113 -0.24324398 -0.6029552 -0.2812453 -0.088013604 0.23130761 -0.19373944 0.24996978 0.06867594 -0.07209787 0.43335396 0.07987583 0.023002822 -0.15132049 -0.19809633 0.21091385 0.3593337 -0.10241805 -0.42268226 -0.27929512 0.09577705 0.13366799 0.20161675 0.2656337 0.8262093 -0.24626566 -0.12452282 -0.2501537 0.034140877 0.053672552 -0.37706867 -0.12765501 -0.15005137 -0.26863 0.3906705 -0.17067789 -0.061802443 0.28158453 -0.31761697 -0.5223739 -0.6918926 0.23405404 -0.38670877 -0.07200951 -0.1951161 -0.057709053 0.03154632 -0.31390402 -0.0055945204 0.00055720896 -0.1076523 0.3813845 0.23317884 -0.26485947 0.36421293 0.20107758 0.20223543 -0.42808238 0.12980941 0.6169609 0.19546933 0.18453863 0.5393119 0.28698704 0.35922453 0.26152873 0.30334014 0.08015675 0.32326218 0.14280362 0.11579496 0.035031777 -0.07525696 0.20604742 -0.40314707 -0.39238486 0.2593985 -0.55904776 -0.32556164 0.1797124 -0.13001275 -0.12234369 0.11389135 0.61912954 0.06688477 -0.09577625 -0.13739157
669 0.3552267 -0.53701866 0.28652313 0.024538571 -0.056258712 -0.22929002 0.21694142 -0.001469119 0.074603945 -0.2151137 -0.19680746 0.47512963 0.26424265 -0.25314632 -0.09355205 0.024850149 0.3693322 0.13929439 -0.33109245 -0.19067182 0.19380654 0.4199038 -0.5660531 -0.038048983 0.22918753 -0.07224584 0.31484553 -0.048561882 -0.27294978 -0.002745934 0.5539358 0.42181513 -0.2848949 -0.061306342 -0.07547028 0.2478484 0.2183235 0.09851675 -0.17715389 -0.2294084 -0.3770384 0.18899876 -0.28808877 -0.39883962 -0.19152884 0.12284946 0.26683056 -0.09480238 0.48743528 -0.0049982555 -0.077817515 0.38074806 0.18947144 0.06313463 -0.28623506 -0.013534917 0.16123718 0.39236698 0.017544983 -0.26340964 -0.02118776 0.21019675 0.054625574 0.12083938 -0.0076904013 0.73752797 -0.30553234 -0.14886624 -0.23971741 -0.27563265 -0.18655841 -0.15405835 -0.06281418 -0.4115913 0.043341883 0.32925352 0.022468524 -0.16240948 -0.28260285 -0.4053221 -0.4197123 -0.863182 0.25747013 -0.5660797 -0.258455 -0.05450211 -0.2739575 0.06725567 -0.09920965 -0.022111991 -0.24491608 -0.23495266 0.27595112 -0.12616788 -0.19468834 0.11504602 0.1784111 -0.08019238 -0.31714773 -0.10661057 0.6280145 0.25466117 -0.011722875 0.68974227 0.5751545 0.2646401 0.34903252 0.18224852 0.28988692 -0.004792044 -0.30900285 0.15923843 0.17275031 -0.012059439 0.017355919 -0.26221555 -0.42178687 -0.036578704 -0.45752004 -0.4001545 0.6328308 -0.3730347 -0.20793392 0.456136 0.29276994 -0.17062958 -0.23016009 -0.0008005893
13 0.15696189 -0.43242607 0.03536404 0.27278006 0.09719422 -0.349041 0.3841525 -0.059395522 0.2739421 0.054922365 -0.060786337 0.37647387 0.57356596 -0.14963046 0.06644113 0.5420801 0.6229019 0.043565083 -0.22213243 -0.23908737 0.24643412 0.08269351 0.060229797 0.23161499 0.0512382 0.015099433 0.28473458 0.18806839 -0.23964061 0.46835414 0.4915402 0.28388637 -0.6841134 -0.21328421 -0.15964483 0.263029 0.11545545 -0.17970534 -0.35428658 -0.21512018 -0.09683284 0.19038129 -0.2842361 -0.5001926 -0.08728211 -0.24274345 0.091892704 -0.37174276 0.39136335 0.19535151 0.019570844 0.32713255 0.0241907 0.11437708 -0.10534002 -0.048546985 0.12306663 0.27565238 -0.029979615 -0.42351145 -0.35340002 0.2796112 0.08820972 -0.046711117 -0.119487375 0.8284372 -0.16886672 -0.099817105 -0.28172022 0.062416993 -0.32824352 0.020605933 -0.1742017 -0.5099812 -0.116146185 0.36758125 -0.18914914 -0.17893064 0.13143285 -0.34221682 -0.49398726 -0.65705305 0.023063973 -0.3928089 0.11464491 -0.19270825 -0.053859428 0.18582329 -0.29896617 -0.02460018 -0.22506557 -0.09959588 0.16263035 -0.19734275 -0.15355682 0.25385934 0.26493806 -0.08584332 -0.16470951 0.03737865 0.36971447 0.2611026 -0.16525577 0.7943748 0.24852015 0.14816873 0.20284672 0.5318773 0.090766825 0.4182136 0.1135094 0.1937738 0.033314474 -0.0030333414 0.1013737 -0.44144538 -0.33410415 -0.10613832 -0.3418237 -0.1956997 0.5507737 -0.17701212 -0.11888589 0.28083006 0.3294929 -0.082552694 -0.18144877 -0.21769415
198 0.013225231 -0.4713224 0.2238473 0.13509014 -0.060328107 -0.32342383 0.5191019 0.13246216 0.37285334 0.05156165 -0.15406488 0.38560262 0.51768035 -0.10603804 -0.16899885 0.20806548 0.5695082 0.22904243 -0.38413605 -0.22249472 0.022425711 0.071546 -0.00957274 0.31341118 0.14040329 -0.27578112 0.09031425 0.16574782 -0.14847124 0.27107787 0.41411844 0.2678953 -0.75034976 -0.0013134835 0.014985177 0.034332532 0.1060261 -0.04935104 -0.08247745 -0.19952701 -0.28991973 -0.05986368 -0.24583393 -0.4540718 -0.1320444 -0.12224361 0.049342573 -0.2854617 0.42018598 0.18669176 -0.24013634 0.27331668 -0.060492173 0.16415781 -0.17140631 -0.11297233 0.28239 0.30189934 -0.07661924 -0.24340744 -0.22388306 0.25273556 -0.06595019 -0.0356534 -0.017637135 0.67042106 -0.3160601 -0.05884512 -0.2121502 -0.07575501 -0.22426072 -0.05923666 -0.0978175 -0.5415624 -0.13559651 0.31269708 -0.0013155995 -0.13429138 0.04491136 -0.19238216 -0.5803502 -0.659448 -0.024427878 -0.30304888 -0.06631052 -0.23463824 -0.053168118 0.3024318 -0.25513893 -0.06959853 -0.01038464 -0.11267379 0.25746062 -0.118817165 -0.10964159 0.36194676 0.10188069 -0.048308194 -0.14073704 -0.18504563 0.5115115 0.2545238 0.10183576 0.49969035 0.26493296 0.25451505 0.20829527 0.3817207 -0.026231589 0.44053316 0.13220969 0.31124088 -0.17969835 -0.05538343 -0.012700623 -0.46651626 -0.28114733 -0.11574541 -0.23029517 -0.26375026 0.45922443 -0.18059123 -0.28167585 0.20889984 0.4152622 0.074208364 -0.23626652 -0.11175135
689 0.12958375 -0.46620694 0.37563297 0.18813655 -0.037337385 -0.3090059 0.31732517 -0.020970741 0.63193554 0.225045 -0.24382581 0.3548775 0.44619244 -0.053638972 0.028207814 0.24664845 0.3785382 0.14746563 -0.3791038 -0.2068387 -0.008222859 -0.08574889 -0.14465271 0.089739755 0.25774106 -0.1891094 0.082216844 0.047965176 -0.14710352 0.2024243 0.47358015 0.34607977 -0.5657418 -0.28187996 -0.1830282 0.016162317 0.03299351 0.06289806 0.050844964 -0.09013392 -0.4084267 -0.007510599 -0.1777956 -0.52351195 -0.19140685 -0.13868311 0.21571383 -0.26597178 0.19703352 0.14462559 -0.36697012 0.31414357 -0.077913545 0.16818473 -0.33670083 -0.111257434 0.26795197 0.45449516 -0.031556312 -0.29430446 -0.32633802 0.25413793 0.042176697 -0.0684041 0.23703088 0.7023628 -0.2465671 -0.15190317 -0.16798496 -0.060803156 -0.16517262 -0.09829985 -0.09872312 -0.25646698 -0.09533981 0.4232817 -0.13642535 0.012006767 0.18099852 -0.07389413 -0.6680118 -0.5880617 0.17792621 -0.33657393 -0.14435875 -0.3841868 -0.058298707 0.21175207 -0.18498623 -0.04813945 0.038147215 -0.13300341 0.20840108 0.053772718 -0.17862552 0.33709314 0.057812475 0.18553777 -0.14869705 -0.14419645 0.60146755 0.1655246 0.14740455 0.4333028 0.3791606 0.39134806 0.19374108 0.42298967 0.09122045 0.41588172 0.16223969 0.34007108 -0.0055605643 -0.16939254 0.10833367 -0.46362066 -0.29496232 -0.007659421 -0.3406975 -0.4218768 0.33360976 -0.14398195 -0.25602117 0.24389091 0.5267624 0.11978799 -0.21800038 -0.011001349
773 0.22572723 -0.31491622 0.23684871 0.08943789 -0.111956015 0.023319365 0.34507835 -0.07524393 -0.05744592 0.103647284 -0.27697897 0.947874 -0.039563384 -0.045295775 0.43083167 0.526306 0.3345842 -0.39803275 0.088659085 -0.018110929 0.2539495 0.5619655 0.0063252836 0.25233775 -0.23205113 0.27074793 0.31693247 0.29308596 -0.07495165 0.074450694 0.3800836 -0.060795963 -0.3224114 0.035985313 -0.47454053 0.093854465 0.1840648 -0.09636902 -0.023410706 0.19042729 0.25289202 -0.076471016 0.34806666 0.07822776 0.047988456 0.15048963 -0.076589465 0.11267664 0.30230415 0.41790393 -0.2348959 0.18648112 -0.028690713 -0.37204653 -0.1945232 -0.35404152 -0.18370472 -0.07917297 -0.038669333 -0.30471286 0.106583856 -0.31814557 -0.1383903 -0.29730436 -0.16638051 -0.17114118 -0.09417961 0.55297565 -0.23227069 -0.37133792 -0.043409467 -0.08972698 0.12126474 -0.06869785 -0.4498228 0.18968017 0.06676781 -0.07824638 0.0363976 -0.44362706 -0.11777569 -0.1684745 -0.0152401235 0.17780276 0.033779874 0.37485692 0.24970073 0.25734007 -0.2718609 -0.14191307 -0.5700166 -0.109094545 -0.37517706 0.009013718 -0.26157188 -0.2694958 0.30893683 -0.025916032 -0.19236273 0.016273934 0.19774887 0.19642156 0.046248984 0.28913763 0.12981537 -0.16846101 0.5610887 0.24485509 -0.9570909 0.24284601 -0.677154 -0.6015362 0.16316761 -0.18498752 0.22681893 -0.35979548 0.048332844 -0.050143886 -0.16096015 0.13179909 0.364629 -0.13939281 0.29497203 0.12593937 0.7876556 -0.35128713 -0.69726276 0.06739932
4 0.2475739 -0.48348346 0.20830227 0.19067027 0.09536096 -0.34346452 0.017593352 -0.2091889 0.22980028 0.05625071 -0.13122322 0.35087007 0.49487314 -0.15721974 0.11328769 0.3872286 0.6010774 0.042444017 -0.22233833 -0.22797559 0.25810492 0.22094616 -0.28802034 -0.111759104 0.111358486 0.10406989 0.26366022 -0.036246303 -0.22205605 0.15651318 0.5259218 0.3009977 -0.38319296 -0.32240036 -0.25481725 0.26659802 0.18986934 -0.12647574 -0.34562868 -0.21858908 -0.2739442 0.36216393 -0.17667165 -0.3415486 -0.06609556 -0.11038147 0.33933428 -0.1814633 0.36011788 0.024091057 -0.10450155 0.2770899 0.10326134 0.08465909 -0.31074443 0.04743015 0.022087779 0.35935646 -0.041360825 -0.5314129 -0.20298943 0.26801923 0.10146733 0.0141943665 -0.091400705 0.77760905 -0.19278315 -0.02594414 -0.30092132 -0.11642971 -0.21984902 -0.09363901 -0.071250066 -0.38963866 0.08565968 0.3165448 -0.10850542 -0.14961271 -0.044754717 -0.2924051 -0.59301925 -0.579273 0.3925716 -0.5025663 -0.1891194 -0.27392823 0.022479832 0.118052766 -0.31914392 -0.07106708 -0.33269683 -0.19783594 0.00894408 -0.070743784 -0.28912365 0.08831828 0.25467643 0.10481674 -0.19374341 0.065702416 0.5207621 0.25798053 -0.1590745 0.7922657 0.66741383 0.14038777 0.21024278 0.3451092 0.38912606 0.14430508 -0.08584565 0.07337612 0.22327103 -0.051986586 0.11449696 -0.34958053 -0.4368215 -0.11110151 -0.4076361 -0.4160671 0.60349774 -0.24944238 -0.2576017 0.3414395 0.29460254 -0.11804756 -0.15800445 -0.096980825
626 -0.038223986 -0.3684459 0.2933406 0.22218725 -0.0680208 -0.4813482 0.19530453 0.056439888 0.4703513 0.0026106462 -0.3981126 0.36285606 0.45971054 -0.1429008 0.06798208 0.12531136 0.45755264 0.23351116 -0.30238056 -0.09214539 -0.020381374 0.34356958 -0.18624449 0.079124376 0.3897395 -0.110039055 0.1173796 0.014529744 -0.19049981 0.114456505 0.48743194 0.39466864 -0.6302805 -0.1712565 -0.05790036 0.19350806 0.116647504 -0.051227197 -0.1400584 -0.15321422 -0.34201312 -0.07759845 -0.15219142 -0.39923233 0.083880134 -0.09840246 0.17405212 -0.088028274 0.5312677 0.0677307 -0.43576843 0.33169383 0.059291538 0.09563381 -0.3015396 -0.117626876 0.21307418 0.38820678 -0.20912345 -0.4899018 -0.30019328 0.40842238 -0.29327667 -0.07106376 0.1854951 0.82164127 -0.25456253 0.037687283 -0.14345385 -0.28643847 0.03970669 -0.09414188 -0.16113406 -0.55862224 -0.1271734 0.14129592 0.049247697 -0.123510495 0.11617623 -0.08636043 -0.7954006 -0.37078112 0.2561726 -0.3266706 -0.11059207 -0.26932827 0.07444047 0.1971051 -0.17833598 0.12665124 0.01653926 -0.20446712 0.22292057 0.28434652 -0.29175794 0.33573025 -0.007845584 0.01246883 -0.09729261 -0.2603446 0.6146663 0.1597428 0.15443966 0.4994094 0.50093657 0.19465289 0.23563796 0.45140916 0.25453976 0.33654034 0.14915249 0.24157688 0.0675975 -0.1583627 0.24631692 -0.47868803 -0.26632577 -0.04204029 -0.26904133 -0.5049448 0.5166153 -0.16208847 -0.32778123 0.117249325 0.42982143 0.13391155 -0.22320652 0.053937316
71 0.032399934 -0.38237938 0.6751829 0.288525 -0.21884777 -0.3760581 0.33173567 -0.32006487 0.13424261 0.26812008 -0.33574298 0.69552076 -0.04405119 0.104505554 0.32159892 0.16641636 0.23109265 0.18644792 -0.5839066 0.22531058 -0.18896656 0.07988312 -0.009394679 -0.23065875 0.4309037 -0.17399554 -0.14503323 -0.085535735 -0.39038047 -0.039728392 0.35677633 0.22038785 -0.7370683 0.1716946 -0.2005479 -0.183758 0.025697596 0.008250377 0.36189505 0.18015558 -0.65169674 -0.124768086 0.2207827 -0.14502622 0.23175284 -0.12612084 -0.10900528 -0.10650177 -0.05551272 0.10685379 -0.5856006 0.3126169 -0.14362352 0.1773657 -0.07472031 -0.28309345 -0.10034515 0.009855729 -0.18906526 0.0031724588 -0.18917754 0.30323556 -0.6035536 -0.15857612 0.6638497 0.20406336 -0.80295694 0.6572024 0.29375714 0.14743991 -0.06613962 -0.17558424 -0.01702711 -0.40829712 0.14264116 0.14193447 0.16183358 0.26233646 -0.119519785 0.5345334 -0.20133744 -0.47942752 -0.07490263 -0.24816558 -0.8485376 -0.22616838 -0.08113512 0.50450253 0.058232054 -0.06726849 0.32453835 -0.09574309 -0.08405692 0.5368784 0.13065226 0.15852404 0.007610466 0.26073277 -0.109549284 -0.16944474 0.1642723 -0.2761188 0.03820625 -0.05975874 0.17002858 0.1560178 0.6235888 -0.41706482 -0.19158266 0.20302545 -0.11443459 0.002326031 -0.47690886 -0.19499585 -0.20241001 -0.1802429 0.15701626 0.030571392 0.23369008 -0.601241 0.4513393 -0.467887 -0.08972787 0.22962037 0.30293143 0.007682212 -0.45937648 -0.06949869
213 -0.1467216 -0.18167754 0.46065408 -0.050426997 -0.371997 -0.26163712 0.70535225 0.13635199 0.12562372 0.07289162 -0.65355754 -0.0021046377 -0.057033166 0.13714336 -0.19062681 0.20634842 0.33025792 0.09892324 -0.18101655 -0.046313602 -0.032657217 0.16909796 -0.2051646 0.23788692 -0.055146705 -0.5497422 -0.056830525 0.05815008 -0.16086775 -0.09744686 0.43134743 0.107520916 -0.46211627 0.03689757 0.46883756 -0.027312025 0.14915079 -0.12881415 -0.28088567 -0.2797262 -0.038985454 -0.20919377 0.059949342 -0.11652213 -0.04883453 0.03609021 0.26390967 -0.025717631 0.74648976 0.3980824 -0.4755392 0.4663987 -0.09652185 -0.05064792 -0.29243004 0.0036687963 0.16693161 0.005769435 -0.30446178 0.009191495 -0.28392825 0.23457275 -0.36834973 -0.3447363 0.027991243 0.36384457 -0.05133718 0.19565356 -0.32855326 -0.3687209 0.06254928 0.13599329 -0.28340018 -0.46273208 -0.04904492 0.19706528 0.18675928 -0.057824403 -0.06630623 -0.06945549 -1.001096 -0.7884857 0.12694766 -0.18886353 0.0077683832 -0.4208777 0.38466334 0.6046641 -0.3980335 -0.26822892 -0.24428226 0.15460317 -0.34486315 -0.38371888 -0.09114842 0.38972253 0.34107402 0.17037754 0.18483706 -0.53282744 0.5252126 0.04456686 0.26896155 0.16703212 -0.011785463 0.14416812 0.55491126 0.1974484 -0.35566515 0.6076906 0.051627446 0.1749621 0.20068967 0.13078298 0.25491622 -0.485164 -0.20402825 -0.3705189 -0.12705006 -0.6039179 0.33760732 -0.0752291 -0.35975647 0.22620314 0.3035115 0.12295654 -0.0954535 0.09322332
713 0.1506433 -0.33570755 0.036981013 0.007860475 0.10700424 -0.18541776 0.32067525 0.06359759 0.29287648 -0.1378919 -0.053228468 0.5525948 0.09378616 -0.1391494 -0.010919297 0.41571596 0.37371626 0.16434574 -0.19367433 -0.2836531 0.3182657 0.36938244 -0.21744715 -0.09630114 0.36632323 -0.14801629 0.27608058 0.0067705126 -0.17803863 0.2475185 0.47439644 0.51936185 -0.600748 -0.28408706 -0.034082085 0.15643762 0.072118975 -0.15183362 0.057699528 -0.28397247 -0.44973212 -0.21243307 -0.51516426 -0.29090214 -0.30466577 -0.046942208 0.3023917 0.05358276 0.30475822 0.05932971 0.11880423 0.30888098 0.18379882 -0.08300821 -0.08356763 -0.29041052 -0.025001626 0.1898621 -0.13474447 -0.46938714 -0.28320417 0.002643489 -0.12583745 0.017444124 0.0010013422 0.99021554 -0.34353688 0.04022868 -0.23160683 -0.10203804 -0.021923425 -0.448161 -0.29366583 -0.3280506 -0.1089535 0.4406806 0.014699332 -0.09890524 0.15308936 -0.33426258 -0.41099358 -0.5559108 0.114410535 -0.48771644 0.045949325 -0.19782433 0.024361458 0.036597703 -0.25797376 0.060121555 -0.2771759 -0.05306603 0.37358165 0.14754067 -0.28198567 0.40150687 0.30971336 0.22583143 -0.33965626 0.17960629 0.71310645 0.32559326 0.27809653 0.56267375 0.33256772 0.5040441 0.08357025 0.3413613 0.14339992 0.10555244 0.019117357 0.18450946 0.19394957 0.036877606 0.05035735 -0.32925567 -0.46302757 0.12545328 -0.25052515 -0.1109835 0.28661886 -0.39842924 -0.31929144 0.06654914 0.43387946 0.09000872 -0.24988441 -0.21475454
690 -0.08055296 -0.3348316 0.44272572 0.17302278 -0.018777577 -0.24956469 0.3617864 0.17745294 0.45528534 -0.08203257 -0.19748911 0.40090573 0.30639365 -0.10071169 -0.020667955 0.21007214 0.31077442 0.31460813 -0.3798975 -0.18414342 0.07014204 0.24252455 -0.12854959 0.072312325 0.33719313 -0.27658808 0.08388113 0.007329133 0.010574012 0.142681 0.3228872 0.3043104 -0.68486065 -0.3729491 0.05374757 0.12774996 0.15392235 0.023432897 -0.0028456245 -0.11437561 -0.49678037 -0.15608776 -0.27962416 -0.32251975 -0.18300456 -0.06552817 0.14696014 -0.09569641 0.4003059 0.122596756 -0.22182275 0.33842093 0.079517916 -0.06827129 -0.24444665 -0.15854737 0.22688009 0.26617914 -0.08430013 -0.39314818 -0.27759087 0.1519419 -0.16140255 0.18591708 0.11762654 0.8053409 -0.21537702 -0.023842162 -0.23694351 -0.18219388 0.020841975 -0.27162054 -0.24559018 -0.42445526 -0.27059183 0.1596125 0.065104716 -0.116160356 0.18432195 -0.27849725 -0.71386516 -0.60836893 0.16334066 -0.43512246 -0.13093169 -0.3033834 0.095443085 0.17876032 -0.38371602 -0.086407766 -0.013299108 -0.0008872108 0.33323285 0.11656653 -0.20773672 0.40041935 0.13773334 0.24530801 -0.36467636 -0.011610626 0.5775531 0.27529204 0.23104493 0.44974235 0.3444533 0.38074595 0.24516122 0.27605417 0.076702535 0.36213458 0.21477933 0.20625564 -0.015585467 0.022707554 0.05938965 -0.46825004 -0.2992615 -0.010391327 -0.3773545 -0.3257304 0.25855523 -0.2728266 -0.35381857 0.05207996 0.6499272 0.20542797 -0.17900108 -0.12020679
8 0.14189519 -0.34342667 0.0983269 0.41199395 -0.08464991 -0.3355042 0.27767816 -0.12158945 0.20496126 0.13800038 -0.0747946 0.34016606 0.50459474 -0.24596055 0.16026247 0.51687217 0.52605855 0.18552592 -0.19214198 -0.23372187 0.29377574 0.2350696 0.002564867 -0.079895645 0.23467508 0.03044948 0.18746401 0.03451512 -0.29258153 0.3378605 0.4213044 0.25162748 -0.6047675 -0.409465 -0.27654532 0.30454892 0.24012898 -0.0039398256 -0.2512655 -0.1902995 -0.16085608 0.20906864 -0.17716227 -0.43648666 0.15875319 -0.2091588 0.3076009 -0.14959486 0.36989745 0.105462484 -0.09691893 0.40665892 -0.028935654 -0.1502385 -0.12952502 -0.079592556 0.18007171 0.2672776 -0.027392915 -0.45098257 -0.28773093 0.18017681 -0.048430957 -0.10615303 -0.11988474 0.8888005 -0.20956017 -0.14377314 -0.42612737 -0.2335349 -0.1321631 0.087899625 -0.19542389 -0.31666774 -0.17146987 0.2876164 0.07884826 -0.15458995 0.21175559 -0.19489539 -0.48385945 -0.5513642 0.32611817 -0.5088783 0.021786733 -0.18880753 -0.06592436 0.0998801 -0.3147709 0.046248503 -0.35109428 -0.18034276 0.16260305 -0.19874305 -0.38244906 0.36948565 0.14043105 0.08965017 -0.1439206 0.036692347 0.43290138 0.23368734 -0.10250224 0.6197734 0.3516751 0.14388537 0.12746325 0.6148819 0.22862604 0.3299312 0.26147094 0.13929886 0.41222316 -0.086626194 0.18350127 -0.40410474 -0.18044177 -0.122404054 -0.5411734 -0.29134285 0.5481461 -0.2354817 -0.0115846135 0.3447233 0.25181362 -0.10508522 -0.15926312 -0.023512715
686 0.12314022 -0.50610745 0.39385724 0.12957203 -0.12927097 -0.35564992 0.5358364 0.21208559 0.22960746 -0.04701663 -0.3486343 0.433318 0.2597845 -0.1813708 -0.14689632 0.0875271 0.042216353 0.24681702 -0.45636135 -0.1526001 -0.04745921 0.15159734 -0.2803004 0.0978006 0.3809512 -0.32995036 0.19161889 -0.05205793 -0.10667295 -5.5631215e-05 0.31317505 0.35387182 -0.54237676 0.015363307 0.16814283 0.11232514 0.1672156 0.15717103 0.0020012485 -0.08163671 -0.29216778 -0.09731252 -0.22945227 -0.32200423 -0.056935966 -0.014485137 0.19372693 -0.110187344 0.31638774 0.19269805 -0.27288222 0.4108905 0.19990012 0.006214461 -0.41968608 -0.031654578 0.30158448 0.35476682 0.10443373 -0.23475392 -0.26545167 0.19129007 -0.18600444 -0.019252421 0.11364109 0.6770961 -0.29975262 -0.19812414 -0.20570499 -0.27878192 -0.23678221 0.04344798 -0.2767422 -0.5384137 -0.20400275 0.34694222 0.0013723132 -0.04662285 -0.014805478 -0.28567472 -0.58121145 -0.7980458 0.09857778 -0.57292676 -0.18596141 -0.19470727 -0.2514239 0.2142309 -0.118491575 -0.03182398 -0.097741745 -0.18483044 0.29906148 -0.16666083 -0.1327678 0.33506936 0.07590248 0.054332383 -0.2446758 -0.29547834 0.60354745 0.17782357 0.02445455 0.545591 0.3573784 0.35941076 0.37385887 0.36279878 0.14707892 0.24890453 -0.044863027 0.3298088 0.16958442 0.013190463 -0.067774236 -0.455496 -0.29389688 -0.07729948 -0.32413393 -0.38229886 0.46219087 -0.42571288 -0.267492 0.3890899 0.4303379 -0.008074212 -0.27675134 0.10668536
631 0.07916427 -0.42418668 0.09604601 0.026101952 0.07753171 -0.3230896 0.13362795 -0.10172833 0.2900772 -0.12779519 -0.12347517 0.35571554 0.42900598 -0.25475615 0.044170983 0.08810108 0.64056355 0.14216965 -0.42124996 -0.20733806 0.19714886 0.3977838 -0.14792955 0.13027641 0.5436371 0.100693986 -0.062642686 0.07423909 -0.41128218 0.13514185 0.4982409 0.33358806 -0.61765164 -0.09897078 -0.23588668 0.22097778 0.102373086 -0.17251168 -0.25960234 -0.07594209 -0.4627791 -0.12228166 -0.14941067 -0.4504192 0.05112749 -0.08684443 0.2075834 -0.12845312 0.48576137 0.1657945 -0.13519658 0.31942078 -0.036011912 0.0619277 -0.09767174 0.032760717 0.15913737 0.4299252 -0.22517903 -0.73718834 -0.08110567 0.36519828 -0.33811858 -0.02933922 0.099022605 0.7876351 -0.27587622 0.09722839 -0.14973876 0.11250883 -0.030070705 -0.080572605 0.033188548 -0.6376392 -0.21981776 0.2247382 0.11749596 -0.18177377 0.11810648 -0.15325919 -0.5164219 -0.33618483 0.33311924 -0.36912358 -0.15273252 -0.17999263 -0.24083684 0.13749391 -0.19762447 0.25156894 -0.0562566 -0.47153094 0.21719709 0.33665475 -0.4854688 0.3928304 0.07416211 -0.13939281 -0.18355666 -0.32053742 0.5351598 0.074695714 0.012621896 0.6018606 0.52328646 0.18486194 0.17925493 0.3814799 0.24921255 0.2955831 0.012885882 0.14526999 0.12775934 -0.1303636 0.3117904 -0.36833403 -0.21849608 0.033145137 -0.18880162 -0.29447764 0.66927356 -0.17582934 -0.2278088 0.078784086 0.32559872 0.025338752 -0.1380501 0.10738449
674 0.1751591 -0.40843803 0.17596892 0.18174592 -0.16419147 -0.14928791 0.19398153 -0.050201174 0.23360151 0.07211391 -0.06522441 0.3835299 0.47559384 -0.26189387 -0.05881446 0.1774103 0.6951327 0.27790308 -0.18014424 -0.28244227 0.25542808 0.42937893 -0.33544835 -0.077524416 0.17447357 -0.058686167 0.076167755 0.064170755 -0.3142238 0.13716824 0.5747847 0.26646224 -0.49365425 -0.36950156 -0.32952255 0.14848517 0.18584469 0.10373586 -0.08176737 -0.30347136 -0.42186004 0.1448053 -0.25856814 -0.44020435 -0.088039644 0.017089814 0.35161665 -0.12363276 0.5387379 -0.050535295 -0.14898458 0.28309283 -0.14955455 -0.098433614 -0.06925878 -0.15588003 0.31952387 0.34351 -0.16054401 -0.26954278 -0.017004563 0.16980444 0.024105972 0.08723161 -0.09779723 0.78976345 -0.3069613 -0.17564864 -0.38863313 -0.4115796 0.008648658 -0.16393733 0.006510477 -0.14572981 -0.0041569807 0.25506005 0.25049555 -0.2282885 -0.121716276 -0.193841 -0.4904494 -0.6510349 0.3981007 -0.4139627 -0.1761927 -0.14336744 -0.049746245 0.12802728 -0.21536282 -0.03159926 -0.2950057 -0.14796825 0.27107748 -0.110349 -0.33410063 0.32835326 0.061515376 0.049116366 -0.19508961 0.03572851 0.66283643 0.34685248 0.19893965 0.39274576 0.50853026 0.21001966 0.12344862 0.39534816 0.1973985 0.20947124 0.11726436 0.17123306 0.1910369 -0.14427973 0.21177629 -0.31351048 -0.2107926 -0.08087016 -0.65524584 -0.35761192 0.5385785 -0.18868968 -0.102330536 0.31246385 0.31673062 -0.04446129 -0.20912746 -0.008938663
630 0.15712725 -0.2771528 0.07774609 0.20182534 -0.0063559366 -0.49322563 0.21556473 -0.005107815 0.36593455 -0.18686014 -0.06359395 0.35707098 0.3021521 -0.18265986 0.19736849 0.0106590865 0.50705415 0.17591631 -0.25220233 -0.1228256 0.2407451 0.38119894 -0.2403421 0.19956307 0.58201593 -0.08861442 0.3194903 0.16866495 -0.43059978 0.34932816 0.56235486 0.17357482 -0.402121 -0.3749383 -0.27268562 0.22410817 -0.05100015 -0.33153945 -0.19318904 0.0032966614 -0.35384387 -0.1056893 -0.20093298 -0.37034747 0.011197066 -0.022773994 0.13535053 -0.2233272 0.6406673 0.02628293 -0.29247394 0.32118014 0.1599123 0.15853454 -0.04823164 -0.103428744 0.11070708 0.16443856 -0.2947481 -0.56787497 -0.20700659 0.3162271 -0.30161792 -0.0334676 0.21085761 0.8994427 -0.19952959 0.11161318 -0.11921841 -0.08216437 -0.08268478 -0.07188304 -0.23651287 -0.5611504 -0.17207825 0.35939214 -0.17692164 0.02471167 0.12872098 -0.24559326 -0.3811282 -0.5349135 0.21971619 -0.3660664 -0.020283269 -0.052293304 0.07376927 0.08522692 -0.22411056 0.1818536 0.030754423 -0.4167302 0.18391623 0.48579425 -0.28761545 0.38726112 0.057042923 -0.030152587 -0.24338797 -0.23324473 0.34639144 0.2324481 -0.04204873 0.5321347 0.40268543 0.18098201 0.2480525 0.5034617 0.17991635 0.19634819 -0.006112002 0.21889699 0.20086913 -0.31943566 0.27243268 -0.5420842 -0.264332 -0.048221193 -0.3967229 -0.2724511 0.73840123 -0.133136 -0.1973155 0.18981591 0.32658687 -0.04411748 -0.12889364 0.15152742
671 0.26218075 -0.4742926 -0.013525663 -0.05557765 0.038066667 -0.2320751 0.13253732 -0.086421326 0.19983378 -0.030469615 -0.058100503 0.41049436 0.20114444 -0.14210322 -0.12970462 0.1835282 0.68084544 0.07420279 -0.16871405 -0.29325855 0.28370932 0.33360508 -0.46969664 -0.07034381 0.24707879 -0.11136209 0.24207044 0.048724636 -0.3623218 0.07464342 0.71282244 0.35070357 -0.3005536 -0.12505393 -0.2315835 -0.0068081827 -0.023757614 -0.23165226 -0.045138832 -0.32306573 -0.39670864 -0.0068546613 -0.3816169 -0.29381832 -0.32232907 0.06511362 0.41897643 -0.0614212 0.45008254 -0.05487733 -0.0871878 0.17349333 0.044970993 0.11623197 -0.15874296 -0.123619445 0.059107266 0.3157686 -0.18561506 -0.33893293 -0.099104576 0.114809886 -0.05068077 -0.12086317 -0.07986401 0.81335557 -0.33713463 -0.011851209 -0.20878518 -0.20630002 -0.14252567 -0.25910252 -0.059506945 -0.23056005 0.23448707 0.54268456 0.01332558 -0.08834153 -0.17515337 -0.18181469 -0.41953287 -0.5873509 0.28618985 -0.3963608 -0.16563277 -0.23369648 0.009674074 0.09037967 -0.12537764 -0.0007295321 -0.3741276 -0.19061376 0.14832047 0.03595588 -0.25459263 0.28560346 0.2022076 0.0986713 -0.101557575 -0.031707898 0.7701532 0.29120496 0.19217224 0.5040492 0.5844357 0.38956848 0.07073743 0.31932428 0.26177147 0.032682173 -0.22861089 0.2504574 0.22578824 -0.16646974 0.10793201 -0.26948547 -0.46399605 -0.10531121 -0.28682828 -0.27856252 0.62084556 -0.3015069 -0.37651026 0.27767515 0.16598484 -0.049696118 -0.24387327 -0.043358997
685 0.012596988 -0.33800805 0.26849532 0.31985366 -0.25919995 -0.3149378 0.4452286 0.0774106 0.33586323 0.08318907 -0.12196277 0.36628535 0.43425393 -0.19150083 -0.04021932 0.17960554 0.45512506 0.38935477 -0.28755596 -0.16740853 0.102027304 0.2750403 -0.097397685 0.05113674 0.34457025 -0.2672167 0.030014602 0.0654154 -0.15142089 0.14918432 0.4047671 0.17671472 -0.65855736 -0.2792513 -0.15596512 0.0501517 0.17102905 0.08083178 0.057184674 -0.14401801 -0.3213662 -0.062857516 -0.1538463 -0.39133042 0.048854906 -0.014429718 0.24820551 -0.12869518 0.42849484 0.06388631 -0.3487718 0.34717843 -0.13319327 -0.19428779 -0.17448229 -0.14110474 0.45750675 0.260261 -0.061693404 -0.1834845 -0.24277887 0.11664858 -0.22326434 -0.07591834 0.026638204 0.77169204 -0.31101838 -0.17910537 -0.36143726 -0.46364444 -0.043335818 0.042069126 -0.19004092 -0.34311026 -0.17731023 0.27273354 0.25467607 -0.07726651 0.025340883 -0.058821183 -0.54127365 -0.5770908 0.22619861 -0.43561405 -0.18647726 -0.23373115 -0.014018181 0.18925537 -0.25509077 -0.045570545 -0.16320625 -0.1126078 0.31119278 -0.14117235 -0.2517335 0.50613135 -0.070013635 0.08359914 -0.11073797 -0.1311222 0.5040047 0.20357114 0.13225141 0.3054822 0.34495017 0.25100902 0.15796922 0.49601597 0.12748472 0.3454037 0.2533569 0.27343723 0.22072135 -0.21319829 0.068944 -0.41727927 -0.05191953 -0.23483612 -0.51414514 -0.32093433 0.5138681 -0.26082778 -0.17226276 0.32443485 0.347864 0.026763609 -0.24103129 0.0794042
688 0.052884713 -0.43150422 0.12204389 0.11539308 -0.029989466 -0.40584362 0.43649706 0.10968818 0.33390957 0.012156602 -0.22606693 0.45473918 0.13778272 -0.069332734 -0.1280598 0.2801855 0.4083454 0.16610631 -0.31382158 -0.24306431 0.06487322 0.1679026 -0.21836467 0.04604308 0.35994366 -0.32931226 0.20897327 0.0047930693 -0.12618607 0.05613324 0.53408617 0.38480118 -0.58032465 -0.015476457 0.07638027 -0.08469036 0.019568171 -0.16325407 0.12002263 -0.2399751 -0.31303853 -0.27236378 -0.3449282 -0.23568828 -0.18840764 -0.039132416 0.29097345 0.032920193 0.31128085 0.1068608 -0.27882344 0.25009117 0.04853331 0.023096753 -0.31718436 -0.19188572 0.1285112 0.22129628 -0.056628823 -0.25569195 -0.34397608 0.100513 -0.27465704 -0.26325095 0.019256203 0.82446235 -0.3383411 0.009589663 -0.20238416 -0.29551354 -0.1633177 -0.14191528 -0.29422787 -0.43738523 0.024566 0.49455467 0.054681525 0.021170855 0.04227149 -0.06501173 -0.59981215 -0.5281932 0.055786345 -0.42751056 -0.09197803 -0.3756154 0.05938814 0.20094508 -0.1945986 -0.016653819 -0.23729524 -0.08500472 0.2035424 -0.044515647 -0.18139748 0.46285376 0.14205317 0.19943848 -0.048429914 -0.18201135 0.73275596 0.21249042 0.23609921 0.4340554 0.37914193 0.48977008 0.12802294 0.41605228 0.16130692 0.23428449 -0.029225139 0.3896053 0.19983153 -0.103262104 -0.04595668 -0.39824134 -0.37007186 -0.17967018 -0.11326934 -0.26834688 0.47292602 -0.39029843 -0.4844385 0.2221845 0.3274267 0.11716143 -0.3161471 -0.031026479
