881 128
126 0.033833366 0.06498191 -0.25970984 0.31822023 -0.1191877 0.3278689 0.034185626 0.26911557 -0.16220032 -0.030678594 -0.27382332 -0.3738925 -0.076426655 -0.16245605 0.009134799 -0.12848872 0.14230543 0.24950035 0.18964443 0.27312258 -0.09127198 0.47304246 -0.28530395 0.22890009 0.01455266 -0.41419882 0.37514302 -0.2958997 0.60587865 0.04204147 0.16255112 0.22913139 -0.11442989 0.1491972 -0.1946395 0.08195506 0.05506968 -0.24151069 0.16630578 -0.08338155 0.11407621 -0.0021885138 0.19547416 0.11513709 -0.27197188 -0.047853436 0.36314628 -0.22554287 -0.4516682 0.11634068 0.014824439 0.26599774 -0.2781523 0.19799933 -0.2895169 0.014588579 0.15032639 -0.47316304 0.1443312 -0.08121019 0.32067698 -0.08346602 0.23031203 0.22983894 -0.11188806 -0.3837323 0.032120243 -0.4924642 0.054318234 -0.55283254 0.23444293 -0.020853097 -0.12925641 0.43642446 0.7149685 -0.35247657 -0.5887164 0.7880414 0.17031074 0.08855319 0.11283281 0.17916748 0.1384564 -0.29105031 0.21870689 -0.08968325 -0.053035863 -0.23035696 0.6689579 0.09702194 -0.32513124 -0.115235165 -0.01950087 -0.038052946 0.025973778 0.036463957 -0.0070267497 0.41495067 -0.08003315 0.21132874 -0.29257622 -0.13319312 0.20921634 0.5089689 -0.73671365 -0.3181554 0.05658548 -0.094606996 -0.23834118 0.18936579 -0.19541568 -0.4354977 -0.075464845 0.1528965 0.091516905 -0.3414921 -0.0037269676 -0.43576 0.42323297 -0.016950902 0.08753948 -0.19348802 0.10029882 0.39606932 -0.22796637 0.7532952 -0.088023946 -0.14329314
125 0.10640269 0.14106819 0.13373989 0.2578939 -0.25494516 0.5153629 -0.016523309 0.22280498 -0.30595693 -0.09481602 -0.3423694 -0.42614546 -0.12873779 -0.32369253 0.025801718 -0.12117942 0.11951578 0.23489492 0.32753396 0.15179288 -0.017407477 0.44485086 -0.22603497 0.15160552 0.20241907 -0.26225236 0.4127189 -0.11036076 0.48085988 -0.046032 0.23248433 0.35871965 -0.23673913 0.042039603 -0.16438995 0.15277354 -0.014353599 -0.36193436 -0.02281198 -0.029861465 0.32621974 -0.052273296 0.17918514 0.2062003 -0.16979973 -0.112812206 0.37753558 -0.15886839 -0.56714606 0.08504306 -0.018546252 0.25705734 -0.3013899 0.38030687 -0.3361578 0.21620928 0.13502185 -0.4127298 0.113827236 -0.19006054 0.46078083 -0.09742644 0.17540611 0.1831303 -0.13273048 -0.33421168 -0.026215648 -0.5643345 0.18307279 -0.43386742 0.14792496 -0.026215332 -0.18953887 0.31309253 0.6670688 -0.14611764 -0.7128313 0.524812 0.090394415 0.013865328 -0.19085981 0.1345864 0.36016572 -0.24402516 0.19016665 -0.12323223 -0.051529624 -0.27692857 0.7044454 0.112181716 -0.32665962 -0.15152383 0.19820112 -0.111287445 0.030625038 0.22498983 0.014083231 0.22461765 -0.10554168 0.3403873 -0.068442464 -0.20492846 0.39631993 0.53926677 -0.72466296 -0.2564941 -0.10915776 -0.013983513 -0.16126709 0.19052915 0.10034583 -0.6380003 0.0029247056 -0.007207767 0.04119962 -0.32943898 0.1552122 -0.55908614 0.30620462 -0.116798125 0.05695824 -0.22843944 0.1120142 0.3629683 -0.3811593 0.6251497 -0.20991002 0.08922771
120 -0.022576602 0.1123437 -0.004853984 0.3637769 -0.21973315 0.27697742 -0.06866026 0.30497947 -0.26922828 0.08659767 -0.46510488 -0.40744892 -0.32000598 -0.17009278 0.04688761 -0.1971446 0.22483432 0.26394546 -0.02330635 0.15942177 -0.13652058 0.49783227 -0.3834236 0.21625593 0.19047906 -0.3388657 0.39160243 -0.044584222 0.41830003 -0.083278425 -0.09617468 0.33521208 -0.13919118 -0.013095879 -0.05234732 -0.029465571 -0.09735381 -0.28928247 0.0016150405 -0.03496596 0.2308806 0.0037718867 -0.04368303 0.15369926 -0.26006088 -0.13653295 0.4760607 -0.09728924 -0.50495136 0.19877502 0.1176276 0.2961736 -0.09086906 0.18316554 -0.26117194 0.117078096 0.091961876 -0.14973637 0.262862 -0.008067659 0.43982092 -0.14721757 0.20518981 0.19042948 -0.18683316 -0.5504956 -0.11245332 -0.6493892 -0.09132361 -0.4154174 0.1515452 -0.060650535 -0.26022232 0.44275248 0.76249844 -0.33096075 -0.48839954 0.5758914 0.21799429 0.15899177 -0.061437096 0.1701186 0.30429545 -0.25672975 0.28919402 0.04802252 -0.0753596 -0.2961088 0.72060674 0.2090172 -0.21399248 -0.21299921 0.06706742 -0.089256085 0.14505313 0.017304573 -0.09701087 0.16360971 -0.3104422 0.27560037 -0.13505141 -0.29417813 0.19438313 0.23637573 -0.7988908 -0.3902745 0.066338845 -0.07470239 -0.334051 0.24107708 -0.040175084 -0.5573843 -0.031070892 -0.06814778 0.023743741 -0.37971383 0.06401604 -0.615691 0.19872083 -0.05777592 0.10986028 -0.11406776 0.08472565 0.29087552 -0.4726174 0.70697874 -0.3433397 0.0146157285
129 -0.08945035 0.031155072 -0.24466823 0.37282208 -0.22593431 0.27956173 0.05905687 0.5067656 -0.1971248 -0.0005543445 -0.32378694 -0.49760535 -0.18825305 -0.2586049 0.019304631 -0.30208007 0.12326573 0.18668458 0.09146594 0.2560704 -0.03489642 0.47141692 -0.22183414 0.2738153 0.22108133 -0.2778697 0.24239577 -0.15495475 0.47581792 -0.058679674 -0.15848665 0.28443804 -0.24877353 0.017813012 -0.23437184 0.17359096 0.16606855 -0.14034052 0.12452962 0.047591127 0.16307424 0.13969085 0.095916435 0.31063986 -0.1626964 -0.08383272 0.47197723 -0.4401848 -0.46370262 0.074767776 0.012560529 0.04265072 -0.07028786 0.36478516 -0.437042 0.043333493 0.084448755 -0.45610356 0.16015449 -0.005262129 0.30696428 -0.17008322 0.20307858 0.19804458 0.01322104 -0.59775245 -0.21950117 -0.5760626 -0.12749408 -0.39045018 0.03282071 0.2207149 -0.06850687 0.44201386 0.5932233 -0.16834152 -0.71857315 0.6265032 0.19640861 0.0042782375 0.05127331 0.04453923 0.5114846 -0.23676978 0.17091244 -0.13537335 0.05820634 -0.2921089 0.84503263 0.24050918 -0.25042439 -0.23135617 0.08505174 -0.08851337 -0.025909403 0.057419013 -0.022888228 0.08729831 -0.19793963 0.19739059 -0.22655007 -0.41267028 0.2969067 0.4840212 -0.7415912 -0.3749931 -0.009667249 -0.107973106 -0.35269454 0.18356515 -0.11062159 -0.50546634 -0.07926675 0.21051069 0.18230751 -0.5291911 0.08077188 -0.43766007 0.28777555 -0.18717487 0.12801512 -0.050190676 0.08057604 0.4421472 -0.28057134 0.8572693 -0.22180685 0.052647408
130 -0.124963194 -0.10494242 -0.12505144 0.42224067 -0.15013759 0.34984154 0.16206926 0.39261928 -0.12495249 -0.07721606 -0.2290329 -0.52006316 -0.12812912 -0.3373969 -0.06589042 -0.3679789 0.13727432 0.3816548 0.107327335 0.06202562 -0.09091786 0.66269946 -0.35106522 0.15149784 0.008564808 -0.35299188 0.45598122 -0.05039319 0.39957938 -0.0071649686 0.014967612 0.3787397 -0.07780073 0.19808571 0.016501646 0.16552551 0.13210152 -0.26168635 -0.19437918 -0.28136402 0.2382241 -0.035749182 -0.0051407022 0.21996805 -0.2718962 -0.023495475 0.5147094 -0.16472742 -0.43399075 0.1821538 -0.09333444 0.23694205 -0.18099326 0.12773257 -0.32121027 0.042284086 0.11090778 -0.34353164 0.15044735 -0.19473927 0.27853867 -0.08416435 0.23627084 0.24130818 -0.1427712 -0.4891332 -0.15687828 -0.4819113 0.100225724 -0.26630548 0.29134843 0.0052911253 -0.1474336 0.35952473 0.9346526 -0.14176686 -0.6707622 0.46842644 0.065120906 0.019576179 -0.1140818 0.18790255 0.44326642 -0.25978866 0.2949307 0.1046857 -0.045670297 -0.38711932 0.6996332 -0.04301753 -0.23667221 -0.11293992 0.113696806 -0.13486244 0.16022149 0.08228748 0.12192632 0.2384227 -0.30031163 0.15454096 -0.20486091 -0.31002617 0.27970573 0.27075332 -0.7627168 -0.18997695 -0.04071509 0.13645269 -0.255247 0.359199 -0.26512527 -0.5209424 0.029051648 0.12487368 0.18088062 -0.2285988 0.2645762 -0.5382738 0.28419927 0.078152426 0.17044505 -0.085646674 -0.07924395 0.2833793 -0.47587636 0.62906116 -0.12994216 0.2395185
124 -0.046768844 0.05034297 -0.09365372 0.51196164 -0.13047601 0.29875657 0.07532449 0.3782374 -0.28879374 -0.028965812 -0.26638892 -0.5057888 -0.32161635 -0.18454197 -0.033822913 -0.17816734 0.12837373 0.1270931 -0.08170739 0.07591966 -0.13075833 0.46734357 -0.29926816 0.026569664 0.04341694 -0.33690944 0.44600925 -0.21197166 0.5999889 -0.107949406 0.07106902 0.46626526 -0.20084532 -0.04594938 -0.070567705 0.20298487 -0.21613987 -0.18432711 0.12176111 0.09646294 0.121064104 -0.021991422 -0.0052490546 0.09609687 -0.2521301 -0.07872636 0.6160601 -0.3731235 -0.49670362 0.0357484 0.044707313 0.085680455 -0.06361558 0.17056865 -0.249504 0.20520285 -0.14431688 -0.32860944 0.064532906 -0.17235313 0.24218434 -0.10884744 0.2329494 0.17243727 -0.22230822 -0.4945054 -0.21663693 -0.6384771 -0.10138831 -0.5065082 0.2590448 0.0077398983 -0.1840777 0.5537974 0.6974999 -0.11978975 -0.6970876 0.5439937 0.28786808 0.2433434 -0.18888679 0.12872471 0.41062006 -0.15250233 0.1421305 -0.09299072 -0.01536008 -0.2128926 0.71353406 0.07913428 -0.29764155 -0.12928115 0.19212016 -0.05707073 0.16833068 0.17111392 -0.264901 0.43333524 -0.11011378 0.26209688 -0.01286537 -0.223911 0.33855167 0.36273426 -0.7722215 -0.29681483 0.04811182 0.1148029 -0.24432799 0.13128397 -0.035554234 -0.657996 -0.16943894 -0.07644285 0.23212542 -0.30364263 0.13922817 -0.5826048 0.17336003 -0.04476173 0.14338307 -0.083020575 0.089447 0.25239483 -0.36119646 0.65870404 -0.1930658 -0.12600867
127 0.01681935 -0.0024465744 0.17170405 0.33617625 -0.27470404 0.46497893 0.037524957 0.1640687 -0.22140464 -0.010046265 -0.36584955 -0.4990701 -0.30621198 -0.28062817 -0.22627957 -0.36848354 0.3705326 0.23523304 0.031859044 0.17433242 -0.107331336 0.54831105 -0.2233303 0.07820214 0.16712625 -0.31843373 0.47085825 -0.0567652 0.51317525 -0.14201201 0.22933087 0.3926973 -0.29128903 0.16540253 0.06692284 0.106089175 0.103742406 -0.4524733 0.047450814 -0.037053153 0.25005588 -0.007995356 0.13420732 0.14318337 -0.15625437 -0.058385275 0.45883042 -0.24363591 -0.42371055 0.2172748 -0.15020648 0.19951472 -0.17463745 0.25515625 -0.26326102 -0.084318146 0.09251968 -0.38572088 0.21747455 -0.088237934 0.6229895 -0.055134214 0.14629973 0.14420334 -0.1080685 -0.46268782 -0.1175336 -0.6296217 0.1510007 -0.44008526 0.2037102 0.0004832345 -0.05523681 0.43224514 0.56328225 -0.12780221 -0.80485535 0.50418174 0.07627502 0.063827485 0.037798192 0.21261193 0.083956786 -0.33391884 0.19257347 -0.14665954 -0.040301386 -0.35104626 0.81645393 0.26445365 -0.16216426 -0.13224219 0.05013132 -0.017207969 0.17628083 0.017498553 -0.15886931 0.3883517 -0.32671696 0.25415885 -0.23605318 -0.1254248 0.26049015 0.415111 -0.8060523 -0.35752174 0.09234961 0.00803533 -0.17833564 0.14394529 -0.04019414 -0.541106 -0.062420443 -0.015345183 0.108099654 -0.48201624 0.057612777 -0.48378384 0.22082691 -0.044807512 0.017434098 -0.2014306 0.029454155 0.39277452 -0.3413287 0.65706307 -0.19956289 -0.035507865
132 0.013624016 0.04674182 -0.14819236 0.36456877 -0.307098 0.49382865 -0.053983413 0.10053815 -0.21739316 -0.04220626 -0.27652714 -0.4206535 -0.34618214 -0.20264326 0.018118247 -0.2431439 0.19578639 0.25148842 -0.093553334 0.14840195 -0.095834605 0.5726156 -0.1760951 0.19446118 0.26441124 -0.3373512 0.29804724 0.010981073 0.41118154 0.116308615 0.02562785 0.50312835 -0.2360154 0.1502094 -0.08140994 0.1288287 0.0017858973 -0.21041995 -0.14635478 -0.1575471 0.2547568 0.019292794 0.044381727 0.09820774 -0.29887384 -0.039270647 0.2687829 -0.20291033 -0.24745023 0.0015571032 -0.07595613 0.18110077 -0.30482322 0.23282696 -0.31246567 0.2162138 0.083457775 -0.5593749 0.09345296 0.15984076 0.40798202 -0.13088313 0.084953874 0.14638329 -0.19185275 -0.70041203 -0.081142515 -0.63497496 0.07565873 -0.26730284 0.16760905 -0.00028391267 -0.35592985 0.42518082 0.70727146 -0.20242265 -0.6521131 0.39136446 0.18623863 0.1158119 -0.14782058 0.09172362 0.3505612 -0.2164357 0.16117503 0.0073368056 0.17993008 -0.45171967 0.6832203 0.18227907 -0.24422067 -0.17819828 0.036812216 -0.016651116 -0.0026170975 0.019113377 -0.029056858 0.36336786 -0.24212962 0.22265379 -0.25447 -0.18960708 0.3281411 0.30573958 -0.8004612 -0.21330668 0.12614633 -0.021450665 -0.17791338 0.30351153 -0.16601914 -0.5722299 -0.022052709 0.050712567 0.08413315 -0.51666147 0.04287691 -0.67560476 0.36001378 -0.089028634 0.07353209 -0.13628446 -0.0634559 0.35617945 -0.050270833 0.7274386 -0.1194437 0.07713383
768 0.12559192 0.12470715 -0.12755156 0.20492633 -0.20165153 0.5237803 0.063535444 0.21802272 -0.3004566 -0.25045666 -0.28883177 -0.16996267 -0.04431711 -0.20382348 0.08975337 -0.20852026 0.11501587 0.19789816 0.4491401 0.21541145 0.22980475 0.5002267 -0.33105716 0.096792795 0.011406515 -0.2735454 0.42371988 -0.24493036 0.48707432 0.06348005 0.33995888 0.29319727 -0.094289385 0.09848292 -0.26681903 -0.098456785 -0.124423236 -0.29427645 0.12421082 -0.001106136 0.18986446 -0.067209296 0.36180085 0.09549036 -0.29851833 -0.2283514 0.23862287 -0.16448055 -0.57382727 -0.03582543 -0.067836404 0.13667855 -0.37131926 0.52396977 -0.079645485 0.14235307 0.15500495 -0.4121777 0.1878902 -0.03308427 0.44654334 -0.13863823 0.1711558 0.15749997 -0.13171116 -0.028353477 0.10761156 -0.5585445 0.26917252 -0.5434483 0.09060748 -0.025783338 -0.13276532 0.3053683 0.57734543 -0.3813229 -0.54330295 0.6841353 0.11088613 0.054817785 -0.05078885 0.24172047 0.13142501 -0.17661071 0.26984763 -0.3950911 -0.058463484 -0.15312985 0.6027252 0.089278266 -0.43448016 0.1320534 0.32686773 -0.036273263 -0.1849326 -0.0046956353 -0.00638194 0.29994437 0.10603879 0.30187947 -0.089386314 -0.18326183 0.36604777 0.6377175 -0.6482949 -0.47833076 -0.19126998 -0.02257044 -0.27311853 0.16014315 -0.25341174 -0.50109494 0.15620439 0.16225934 -0.045418877 -0.32737643 0.14515606 -0.54600126 0.60352075 -0.068452835 -0.120376006 -0.4710755 0.14695774 0.40375477 -0.09414786 0.6234839 -0.24282274 0.14821094
115 0.08180533 0.15893726 -0.17951488 0.28052872 -0.19023444 0.38395554 -0.029858327 0.175267 -0.10990125 -0.074092954 -0.1434072 -0.4739186 -0.046447445 -0.046089143 -0.05868751 -0.08169704 0.15605476 0.3012855 0.13176304 0.12668581 -0.2741719 0.4267689 -0.19288205 0.2917768 0.15444571 -0.32317054 0.39044675 0.009114807 0.5133266 -0.3010524 0.030022876 0.3695239 -0.2085921 0.20954657 -0.0983237 0.24467853 0.010853607 -0.25844622 -0.12508903 -0.07408228 0.12826839 -0.038111255 0.021027822 0.103204206 -0.076157615 -0.030159984 0.43101114 -0.2391798 -0.40209943 0.1757611 0.03246522 0.21564968 -0.35312665 0.07307488 -0.41275793 0.063560136 0.0020864494 -0.56437254 0.21506535 -0.034560435 0.2171871 -0.022353379 0.07139362 0.17726198 -0.047440447 -0.5428928 -0.21384041 -0.34709466 0.04238921 -0.36652508 0.29631117 0.014103801 -0.26970503 0.4670158 0.7736401 -0.113987625 -0.5311605 0.46707377 0.058552038 0.025728036 -0.087595806 0.15358405 0.47254786 -0.38951346 0.055927597 0.10628104 -0.023854988 -0.21598753 0.6327281 0.12044233 -0.15943916 -0.14498238 -0.049557947 -0.014662625 0.08688177 0.25712642 -0.1739879 0.26006258 -0.35470983 0.43755227 -0.3188523 -0.1754362 0.16934565 0.47374102 -0.9404866 -0.22046039 0.11774257 -0.21756707 -0.21587211 0.21130611 -0.04882054 -0.5107206 -0.17728797 0.11248129 0.21702747 -0.33264002 0.045407172 -0.35932833 0.40634695 0.06648582 0.11039022 0.024649939 0.12387744 0.22530413 -0.24318644 0.9378915 -0.15284319 -0.06971822
121 -0.06006525 0.067856364 -0.23441291 0.4481112 -0.16416758 0.49867058 0.066454135 0.40960476 -0.23619612 0.042135168 -0.37379524 -0.48824993 -0.2447089 -0.23184793 0.057151258 -0.3837206 0.108480394 0.51197803 -0.12745462 0.09643612 -0.23272406 0.5100532 -0.3625863 0.14976622 -0.08923819 -0.41447654 0.5579526 -0.22630112 0.4853159 -0.030313276 -0.008417407 0.416107 -0.23116067 -0.00051756954 0.038415726 0.115123756 0.13223791 -0.374723 -0.012955243 -0.03257457 0.02772422 0.006430744 0.015596887 0.042909183 -0.16005503 -0.12568378 0.47539344 -0.39743418 -0.5092859 0.0142693035 -0.2701461 -0.0034196083 -0.3305827 0.18184106 -0.1481685 0.07892415 0.19933175 -0.23208216 0.21435755 0.0865979 0.331502 0.007825577 0.26578146 0.065840095 -0.11991014 -0.5353594 -0.34064344 -0.55548716 0.05055605 -0.44519794 0.1304477 0.20391664 -0.25199908 0.398998 0.5513129 -0.075712815 -0.6618311 0.35206878 0.25224274 0.110078864 0.029668003 0.09620626 0.4471273 -0.35275444 0.016662605 0.09170045 0.16097127 -0.36542878 0.6832521 0.10516464 -0.23463355 -0.09624438 -0.013611086 0.055389185 -0.17849953 0.030357081 -0.016800174 0.18124223 -0.26922545 0.19825974 -0.23632792 -0.2185076 0.2946675 0.3495468 -0.7117835 -0.23821972 0.15463117 -0.00023436223 -0.3520963 0.18472725 -0.26497772 -0.44978088 -0.06946958 0.10012389 -0.095396996 -0.5125612 0.22242731 -0.5267801 0.21595675 -0.10446746 -0.040512573 -0.10053892 -0.010708968 0.3144452 -0.37263837 0.93133724 -0.10811336 -0.07688906
128 -0.10460402 -0.058958717 -0.26606423 0.3785404 -0.16558133 0.29441467 0.29578853 0.45593336 -0.11043459 0.015043017 -0.39240524 -0.57363397 -0.066046126 -0.11509756 -0.007410444 -0.2358796 0.18447329 0.33990863 0.20864122 0.07047383 -0.26388797 0.5228198 -0.11779527 0.068743676 0.13326342 -0.3453918 0.41405147 -0.13678381 0.5168013 -0.058996525 0.07634437 0.26542458 -0.2692043 0.1570441 -0.1767801 0.046720255 0.05660928 -0.20513539 0.14145656 -0.10234538 0.23512237 0.08141392 0.031335626 0.20333885 -0.31888446 0.1437414 0.46921244 -0.36143243 -0.40185693 0.08992231 -0.132379 0.32578278 -0.29521245 0.3378287 -0.38355342 0.21027753 0.07141513 -0.4368925 0.07566626 -0.16232048 0.46941206 0.10177286 0.3179376 0.048760183 -0.1391212 -0.50223213 -0.048841693 -0.3926095 0.1344075 -0.4542718 0.011485338 -0.090695955 -0.18339635 0.51070887 0.7259779 -0.11679515 -0.52727765 0.6936814 0.10325426 -0.09743254 -0.13112919 0.35392252 0.28882208 -0.16489507 0.035665207 -0.10485244 0.19749284 -0.2524766 0.89182943 0.20181744 -0.264646 -0.35977387 0.07476756 -0.16168918 0.13821872 0.13640662 -0.14869726 0.17753187 -0.19435252 0.11321979 -0.16961478 -0.26027536 0.28222 0.441127 -0.78413624 -0.27969918 0.09889447 -0.055188037 -0.06586789 0.24397987 -0.061802767 -0.5337608 -0.21188146 0.17712355 0.21204032 -0.46061662 0.16855362 -0.3871969 0.17842744 -0.07980782 0.18085122 -0.1383279 0.031246578 0.4147448 -0.46995425 0.72872657 -0.12718524 -0.052351523
57 0.052211303 -0.024188934 0.1823235 0.25225082 -0.25891075 -0.049700834 0.06636635 0.11353059 0.09423917 -0.066546135 -0.15284505 0.14273614 -0.014645348 0.22874781 0.28822133 0.043618176 -0.090856396 0.19797376 0.055395823 0.0021698354 -0.15493383 0.057642553 -0.07884429 -0.034895338 0.310061 -0.2072208 0.6355306 -0.082033835 0.13648719 -0.14732662 -0.025752092 0.36141926 -0.4667882 0.1283981 0.02824294 0.26223895 0.34814948 -0.22661838 0.041094333 -0.065626785 0.09551631 -0.39441752 -0.16813481 0.34240526 -0.5228306 -0.4028608 0.23728347 -0.08299638 -0.18602128 -0.30046037 0.08463345 0.1031549 -0.30319178 0.36914116 -0.45642307 -0.37504742 0.5052449 -0.37633538 -0.041901004 0.10512847 0.12075819 0.17501017 -0.0106143495 0.44318584 0.22248356 -0.65475494 -0.453744 -0.3715661 -0.11694589 -0.068597585 0.62557316 0.10225871 -0.2878648 0.34558067 -0.19566943 0.18000653 -0.30790865 0.20664576 -0.44197613 -0.078191 0.22107683 0.24325201 0.56677246 -0.14438182 0.09775924 0.42094317 0.49482915 0.1756919 0.44021958 0.32487234 -0.28294113 -0.39089763 0.22243546 0.26075816 -0.4500172 0.45513582 0.11269795 0.13110551 -0.3775702 0.67240995 -0.46616232 0.21649738 0.08041175 0.4025932 -0.41867143 -0.0015989696 0.13027821 0.37189764 -0.10014534 0.17620629 0.056553837 -0.50538033 0.17102657 -0.33348507 -0.13285302 0.13554344 -0.24438645 -0.048127435 -0.3137529 0.17519784 0.45511055 0.45982835 0.19679184 -0.11511309 -0.30054855 0.6790397 -0.44442043 -0.26990584
131 0.025298899 0.07610193 -0.0037096215 0.36028695 -0.14925891 0.3820935 0.14831251 0.345062 -0.29900244 -0.051030625 -0.29973933 -0.42029634 -0.12841737 -0.083719 -0.10948148 -0.35150793 0.2886972 0.21161991 0.06528822 0.123211086 -0.040714256 0.49040937 -0.3466382 0.2000412 -0.02117087 -0.33710417 0.46384975 -0.11595847 0.48953068 -0.12054116 0.08459563 0.33683714 -0.2576602 0.1014244 0.1264706 0.108453825 -0.18515441 -0.17280103 -0.13936053 -0.013465872 0.1346904 -0.04203924 0.09134627 0.09661448 -0.15972379 -0.16446987 0.45858595 -0.22149435 -0.38456017 0.19701539 0.051078323 0.2526543 -0.23698512 0.18660037 -0.43483844 -0.23834983 0.071146786 -0.2913234 0.06452584 -0.06659058 0.15510052 -0.078188084 0.2506493 0.4321346 -0.05583633 -0.4935771 -0.14572321 -0.61226964 0.18530177 -0.3562718 0.030512294 -0.033612054 -0.20146172 0.28265628 0.7050713 -0.19099438 -0.66654843 0.5712333 -0.043571085 0.032132234 0.05092102 0.039375253 0.26318088 -0.20334227 0.06415534 0.045940366 -0.061201595 -0.24810246 0.752002 0.08214397 -0.148259 -0.16574576 0.079692736 0.0034178884 0.14681795 0.05374362 -0.07984947 0.31101122 -0.23218042 0.17824164 -0.18437724 -0.15628582 0.1534751 0.35439903 -0.8062217 -0.2693379 0.06364474 0.11821697 -0.26810923 0.262261 -0.10632398 -0.60136163 0.03301987 0.12841077 0.3081558 -0.4237131 0.15526538 -0.6901034 0.2718929 0.059492256 0.21465258 -0.021528566 0.13637999 0.3731769 -0.15278909 0.8231006 -0.07534734 0.08425576
773 -0.0027956038 -0.05005172 -0.55335665 0.32663614 -0.12331014 0.29666317 0.39038882 0.4100158 -0.09604957 -0.12511271 -0.33645606 -0.2821328 0.04144226 0.030734673 -0.008207305 -0.2691322 0.16560413 0.34353438 0.31296572 0.13568936 -0.02270003 0.6254657 -0.2169415 0.03344896 -0.0197791 -0.38979435 0.40755054 -0.24021307 0.561929 0.048807703 0.1265866 0.15288877 0.033542763 0.25221 -0.22902803 -0.23314802 -0.11796818 -0.15128693 0.1839554 -0.10761142 0.06346832 0.038452413 0.18539716 0.061004065 -0.47269738 0.064028345 0.34984222 -0.31931454 -0.40675005 0.046495676 -0.15223105 0.27705774 -0.34351543 0.35054225 -0.0801674 0.14849105 0.08199876 -0.49476868 0.2194132 -0.038629584 0.43841878 0.055096 0.2709546 -0.007992432 -0.18783978 -0.1607195 0.100409925 -0.3823067 0.16641945 -0.5818361 0.00039719022 -0.1630307 -0.13640265 0.44603452 0.7570445 -0.39622 -0.35797825 0.76296693 0.14434849 0.015604556 -0.027191343 0.5357726 0.09582225 -0.09784935 0.19153263 -0.3947128 0.064375885 -0.106687486 0.75754225 0.10087971 -0.29696465 -0.10157328 0.1853192 -0.107303515 -0.003845652 -0.08404202 -0.24532299 0.2878546 -0.02392561 0.10477444 -0.19113515 -0.254947 0.2782619 0.48128808 -0.703968 -0.58409035 0.014781177 -0.14694503 -0.1923145 0.2265401 -0.44087788 -0.39425412 -0.07382809 0.3264791 0.115272634 -0.40787727 0.12772432 -0.3759982 0.5302692 0.043526947 -0.04896656 -0.43994516 0.030852856 0.4276493 -0.17819443 0.69222975 -0.17161599 -0.0027966201
123 -0.18671049 0.022674304 -0.21681194 0.46237516 -0.0668223 0.4483055 -0.06041186 0.1495889 -0.27315804 0.10997366 -0.42268932 -0.34302014 -0.075303786 -0.111095384 -0.031553827 -0.18197033 0.0009682949 0.2215654 0.094145596 0.30913672 -0.09256148 0.50553894 -0.25012553 0.13335533 0.1628303 -0.2596281 0.41727045 -0.22211729 0.36005297 0.030800585 0.2738954 0.3943135 -0.14271004 0.16522962 0.010337194 0.07331436 -0.16564167 -0.26483172 0.005401071 -0.018700298 0.18056281 -0.076517634 -0.020739181 -0.022607341 -0.22481284 -0.08925437 0.46964514 -0.10232446 -0.41637698 0.09366823 0.0745485 0.27912354 -0.2813527 0.16831212 -0.43010512 0.17159632 0.21197653 -0.48460245 0.17814621 -0.07253863 0.49541 0.0068525304 0.32996395 0.21744826 -0.16344719 -0.46800658 -0.045990612 -0.6311618 0.1551956 -0.57645816 0.13848032 0.089803495 -0.0668146 0.5895496 0.7450931 -0.20544356 -0.6996972 0.5218682 0.12315935 0.06860921 0.05909651 0.12433693 0.3635143 -0.3788781 0.15966561 0.05594863 -0.034577023 -0.16357432 0.6099719 0.05780572 -0.15226306 -0.18116772 0.1415902 -0.19847259 0.021400573 0.03609542 -0.16534363 0.17114414 -0.381649 0.22347671 -0.19913265 -0.20091769 0.35392877 0.26158777 -0.7364149 -0.18904889 -0.041121554 -0.122834176 -0.16677505 0.23943603 -0.1452718 -0.45295572 -0.034181476 0.09205571 0.1700471 -0.49312958 0.080566235 -0.5863986 0.039579406 0.13664964 0.24538918 -0.05864544 0.04264599 0.2787416 -0.18784757 0.70922035 -0.11858311 -0.075208515
122 -0.040041912 0.053974353 -0.14977574 0.32796368 -0.030774957 0.56473106 -0.13381161 0.23888256 -0.09067305 -0.10453877 -0.18898323 -0.4168364 -0.22315943 -0.21460012 -0.03540333 -0.28331694 0.2504639 0.20081869 0.07072757 0.1422943 -0.14860854 0.46249968 -0.43065855 0.19503318 -0.0040862574 -0.31852075 0.49456507 -0.1321873 0.4801152 -0.07534663 0.050253335 0.38323894 -0.22613369 0.05719826 -0.20101076 -0.055697512 -0.034693055 -0.31443968 0.1602701 -0.108223274 0.21213937 0.12772287 0.113211885 -0.041391194 -0.1850571 -0.0019142884 0.15414996 -0.19738999 -0.4701721 0.19059601 -0.056193173 0.19825305 -0.15843186 0.22848675 -0.262024 0.1589768 0.15302676 -0.17201197 0.19811547 0.07502727 0.34095603 -0.21453778 0.17624025 0.18368736 -0.08199888 -0.58317715 -0.23613878 -0.70167273 0.0524534 -0.42393732 0.18744439 -0.067020185 -0.14109614 0.4969911 0.6596763 -0.05419033 -0.72459537 0.7096235 0.12387238 0.07754843 -0.11635114 0.10672925 0.36320704 -0.2855981 0.1690065 0.024087537 0.18243828 -0.33053574 0.73542744 -0.10214306 -0.2175112 -0.17167866 0.15562546 0.03724114 0.16014925 -0.040609952 -0.15280955 0.26794642 0.035249203 0.21705742 -0.189868 -0.14131303 0.18637526 0.39222455 -0.8163605 -0.4189795 0.0079492945 0.029421955 -0.29094836 0.22562568 -0.066492915 -0.4898967 -0.044803735 0.1312281 0.31371525 -0.4612401 0.19679712 -0.6052776 0.37617683 -0.05546198 0.10831979 -0.08991854 0.09575276 0.29583508 -0.35425144 0.77197814 -0.1923256 -0.062115625
785 0.077920094 0.023967627 -0.47514826 0.3710207 -0.20604898 0.47376478 0.109152906 0.17169733 -0.18489592 -0.1818654 -0.26502478 -0.17456456 -0.2158063 -0.03620354 0.024857996 -0.32641703 0.15434971 0.27481425 0.024105279 0.16502063 0.14272918 0.69549453 -0.28338963 0.113813706 0.09297594 -0.43719578 0.3162417 -0.16194268 0.48915845 0.2149915 0.10178915 0.36526513 0.017825754 0.2407076 -0.1467464 -0.11604852 -0.15222836 -0.14136523 0.0033177126 -0.17390592 0.08438516 0.035379805 0.19560245 0.0014523154 -0.48752168 -0.11347415 0.21616974 -0.23766872 -0.30346102 -0.07862125 -0.11849355 0.12102674 -0.3433539 0.28886738 -0.07051728 0.10919866 0.070589244 -0.5721521 0.17346202 0.19590744 0.36543176 -0.14592768 0.028132629 0.085860394 -0.22629607 -0.37342465 0.089518234 -0.58213437 0.061233893 -0.39438128 0.14829654 -0.045599516 -0.29748616 0.39769265 0.7356815 -0.4916364 -0.5017477 0.5501781 0.22612526 0.2307676 0.010370896 0.26012173 0.15899386 -0.11002518 0.3059592 -0.2647538 0.07889328 -0.29548147 0.59945494 0.12955949 -0.3328139 0.05410763 0.12244523 -0.025407545 -0.1572243 -0.17207693 -0.07757601 0.47265267 -0.043721993 0.1907537 -0.25139344 -0.20276687 0.32130787 0.37804615 -0.6633431 -0.48833692 0.04731768 -0.0760071 -0.33806092 0.25582418 -0.5385394 -0.43843466 0.07542117 0.2112062 0.0011045345 -0.43047175 -0.016431207 -0.6217851 0.62686443 0.00890841 -0.11202535 -0.42866194 -0.060585473 0.36825913 0.18125802 0.67088735 -0.15614992 0.0681384
783 -0.14349015 -0.17827502 -0.36864066 0.4230524 -0.051099837 0.30563363 0.2818629 0.35850132 -0.077307254 -0.19701034 -0.21435252 -0.20372592 -0.027241834 -0.28446344 -0.015313097 -0.41336843 0.07624682 0.30887517 0.24631503 0.11614796 0.12275605 0.73811775 -0.43920097 -0.010103525 -0.15388018 -0.36762884 0.48926046 -0.2070156 0.35697952 0.16334312 0.18987182 0.28599614 0.089179605 0.25552222 -0.13832273 -0.120931946 0.039634112 -0.20661005 0.088443294 -0.2558764 0.15871082 -0.029733635 0.1773796 0.09882811 -0.50658184 -0.12410782 0.38375175 -0.12591122 -0.47817874 0.044955242 -0.1264105 0.15576576 -0.15570256 0.35024628 -0.091811955 0.028393611 0.17438592 -0.3471488 0.1818738 -0.105961084 0.41193685 -0.118296 0.21577936 0.15384777 -0.13848734 -0.13153316 -0.00942919 -0.5365927 0.13971345 -0.41711178 0.31204695 -0.04980689 0.020075807 0.39763626 0.857111 -0.34165764 -0.60276824 0.6929927 0.04546033 0.056958646 0.03820155 0.38745886 0.23862931 -0.15278657 0.43384543 -0.23381494 0.0031345244 -0.21617581 0.6148016 -0.08574369 -0.4000087 0.09393761 0.32444417 -0.08388283 -0.008459851 -0.14485684 0.019202078 0.32026407 -0.04737022 0.08657338 -0.19166532 -0.3073312 0.3206152 0.38985056 -0.65274775 -0.49259886 -0.18270165 0.13887794 -0.3395401 0.33310607 -0.5769021 -0.4209073 0.17430456 0.2724124 0.098676406 -0.15419723 0.2147882 -0.49745852 0.4790758 0.12406021 0.062193178 -0.3281342 -0.069878794 0.34786236 -0.262003 0.5599099 -0.2125335 0.21986927
71 0.37665096 -0.050918072 0.23755962 0.51237524 -0.4794477 0.3561236 0.13150357 0.07914338 0.06563198 0.23971711 -0.5015542 0.5109034 0.14374955 0.30778342 0.05579673 -0.0012791536 -0.11384269 0.2461941 -0.10601307 -0.20768344 -0.2683859 -0.016509145 -0.10042597 -0.24259557 -0.05396164 -0.309994 0.7211649 -0.22852577 -0.02698299 0.04128779 0.3148883 0.5563501 -0.45271316 0.071867235 0.12211735 0.17097789 -0.37201795 -0.27169368 0.23357166 -0.2936849 0.1979792 -0.21653286 -0.046337467 -0.2190672 -0.71670216 -0.32837757 -0.20933627 -0.18916525 0.006625228 -0.2590961 -0.028169198 0.0046884995 -0.090731524 0.82449985 -0.18881106 -0.23297766 0.631461 -0.14987032 -0.12293823 0.1643465 0.14276111 0.043236036 -0.27497682 0.44296113 0.2635504 -0.08038839 -0.24232648 -0.5174721 -0.12720594 -0.14876536 0.7326399 -0.308054 0.032402996 0.050900307 -0.24073005 0.40374202 -0.3825688 0.045066725 -0.6605357 -0.079803005 0.37659305 0.18214644 0.55572426 -0.019694598 0.022929948 0.09394183 0.8408501 0.49306127 0.044293303 0.29159516 -0.23880386 -0.25072584 0.24459943 0.09511686 -0.3285191 0.09064275 0.040009066 0.12145028 -0.07149055 0.20227386 -0.29443833 0.3849755 0.005341139 0.5766699 -0.43704617 -0.30864397 0.1903044 0.255196 0.14217189 0.111479275 0.025296945 -0.41365078 0.3357863 -0.21634696 -0.15010159 0.1832532 -0.38194102 -0.14211248 -0.58474755 0.32954633 0.08748301 0.4169233 -0.04360026 -0.1267148 -0.3775619 0.5954904 -0.3617396 -0.28649384
779 0.013489503 0.032500714 -0.3833597 0.41072547 -0.075907424 0.47868276 0.20036393 0.38382316 -0.20673324 -0.101292014 -0.37272915 -0.2019791 -0.05500313 -0.12946102 0.05743263 -0.39935085 0.114956595 0.43915382 0.1087419 0.10731859 0.0056543094 0.582529 -0.4575708 0.07514318 -0.21984108 -0.47081518 0.54167783 -0.3480506 0.49045143 0.06466952 0.1613565 0.30251893 -0.012133345 0.079167046 -0.08919296 -0.11502706 -0.008887753 -0.3796691 0.15204272 -0.072796956 -0.02599525 -0.014599598 0.17182124 -0.0008553974 -0.3512296 -0.21595804 0.38323626 -0.33195105 -0.56873244 -0.059850045 -0.27016792 0.008467941 -0.36644384 0.28567493 0.10083143 -0.007947569 0.24002434 -0.24838102 0.25804687 0.06974738 0.39249998 -0.043479882 0.20031743 0.035431996 -0.1453732 -0.102418415 -0.10244936 -0.48165673 0.088878945 -0.59008044 0.1578246 0.062438205 -0.13322057 0.3867617 0.57189053 -0.37282985 -0.50567716 0.5920677 0.21238908 0.17505518 0.13239093 0.29446656 0.17317034 -0.25647607 0.20242752 -0.21400908 0.06828965 -0.17648228 0.6246503 0.097342625 -0.37756762 0.15848717 0.15094282 0.0095269885 -0.28038752 -0.1566538 -0.03380029 0.32030597 -0.051577725 0.19795 -0.17518929 -0.20561625 0.28206533 0.4868413 -0.58151346 -0.52245766 0.011480372 -0.05214947 -0.45111918 0.1341052 -0.5688551 -0.34680316 0.06746338 0.21055083 -0.17394844 -0.3528452 0.15766725 -0.4590683 0.43779433 -0.027320191 -0.20475517 -0.4196083 0.014480397 0.33309895 -0.21490107 0.808982 -0.2070065 -0.008386882
55 0.15469156 -0.12324751 0.23068401 0.15371245 -0.36549047 -0.16701399 0.3630481 0.08885836 0.12958513 -0.35383317 -0.06144134 0.39777878 -0.14256565 0.052020226 0.3869988 0.18244736 -0.07805914 0.21914646 0.054175228 -0.034868635 0.20898108 -0.029431418 0.06260332 -0.26933315 0.23803793 -0.011791218 0.71371263 -0.12319144 0.11049135 0.008870177 0.09594878 0.19445357 -0.09238203 0.17599034 0.045113727 -0.08684124 0.15802924 -0.30021757 -0.12725729 0.045942795 0.08330691 -0.35042343 -0.07078544 0.107276805 -0.5107701 -0.3907157 0.2399142 -0.08064487 -0.13982859 -0.4435478 0.11258853 0.07141081 -0.2011481 0.29159603 -0.12773398 -0.3219585 0.46750548 -0.48889226 -0.041400928 0.12427598 -0.0959856 0.121441804 0.0703955 0.3923611 0.22450249 -0.37596446 -0.573263 -0.4273407 -0.10280819 -0.08961047 0.5945229 -0.023446223 -0.2681613 0.15346989 -0.4634917 0.35794324 -0.14295676 -0.20915954 -0.37416348 0.018626355 0.021609165 0.450392 0.42637554 0.09193352 0.24091916 0.05377743 0.17515099 0.40098888 0.1853325 -0.05257317 -0.19485742 -0.38784665 0.4090813 0.28541636 -0.5021085 0.355703 0.037723813 0.18289387 -0.18498756 0.628227 -0.38203576 0.5024603 0.14769357 0.28725556 -0.14132997 -0.22790153 -0.019032748 0.37316808 0.036525875 0.17229544 -0.051912658 -0.37029982 0.25096807 -0.3902727 -0.34654662 0.13574876 -0.208822 -0.16897054 -0.23859681 0.35445517 0.31212446 0.32275996 0.03392661 -0.1973989 -0.15304115 0.3205618 -0.34196013 -0.38616163
70 0.33942708 -0.086360194 -0.021408368 0.38890657 -0.536059 0.25279418 0.2777186 0.04429416 0.044906802 0.20454264 -0.3387339 0.5300948 0.14749706 0.49296826 0.020947687 -0.09402492 -0.10293734 0.22502883 0.16284524 -0.10204206 -0.1729048 0.105583794 -0.17605817 -0.3306364 -0.16620873 -0.2536499 0.86633015 -0.18336111 0.020957926 0.032103598 0.3018882 0.5339959 -0.37250748 0.13341926 0.1737069 -0.13007142 -0.31410605 -0.10179718 0.3481609 -0.25975406 -0.016824 -0.45148826 0.098180234 -0.23359281 -0.8174122 -0.41413793 -0.24837768 -0.059927367 0.0038602839 -0.24237573 -0.17863809 0.0101820715 -0.059314076 0.7957186 -0.20255229 -0.110760614 0.6828929 -0.18041973 0.019961216 0.26770213 0.15483665 0.18381573 -0.25910917 0.24014348 0.14134881 0.1040141 -0.096905075 -0.4891632 -0.06282032 -0.23658523 0.6058079 -0.29755592 0.15124881 0.03062459 -0.3450986 0.47798672 -0.41595092 0.012572529 -0.6897641 -0.06726174 0.4313111 0.32461596 0.58682126 0.07726086 0.05920235 -0.006362881 0.8229126 0.41762692 0.062368944 0.16931967 -0.1318113 -0.40942383 0.41475555 0.25903347 -0.43611982 0.015996456 -0.21728484 0.13183142 0.021692464 0.16832054 -0.30300584 0.303151 0.16539326 0.47723213 -0.31842908 -0.37944812 0.041311484 0.46103188 0.20113602 0.09630169 0.046251446 -0.4809737 0.4491968 -0.0669964 -0.04997051 0.08319866 -0.3572691 0.07069374 -0.2975531 0.22827344 0.17437235 0.35095197 -0.0048672957 -0.08477317 -0.122156054 0.42752784 -0.44295603 -0.20316951
158 -0.021497883 0.00073875824 -0.45914927 0.3650857 -0.10251483 0.22714253 0.1544738 0.40395913 -0.08189527 -0.078427345 -0.3176808 -0.0828427 0.046851456 -0.016653802 0.048065115 -0.3478594 0.10005564 0.1322291 0.22383477 0.20152403 0.16198434 0.54831487 -0.2140011 0.14969501 0.1454965 -0.30062953 0.24525756 -0.233862 0.3419442 0.03797058 0.08567857 0.16688234 -0.033262257 0.16641456 -0.3093163 -0.07023435 0.011361783 -0.1272852 0.349307 -0.022584809 0.078508504 0.04869249 0.21305275 0.21278879 -0.37154037 -0.18611757 0.3998006 -0.3552258 -0.47911862 -0.08991853 -0.0119896075 -0.030706022 -0.16145082 0.5132234 -0.16734612 -0.119922765 0.14398128 -0.49616882 0.17599757 0.051891755 0.42676565 -0.1480078 0.0258914 0.069480665 -0.006501722 -0.19374238 0.00588355 -0.47279108 -0.062605 -0.47274935 0.118692055 0.13482805 0.019543426 0.49954918 0.52766645 -0.4818076 -0.4479439 0.7695296 0.08730801 0.07553682 0.25742826 0.24777381 0.20947169 -0.09885084 0.30301708 -0.40245926 0.08135032 -0.035550233 0.6570707 0.361122 -0.42388162 0.07573104 0.22625425 -0.11900905 -0.24089281 -0.11408073 -0.08037445 0.22687967 -0.07702732 0.23172149 -0.21252315 -0.35664234 0.29002735 0.52886504 -0.59486103 -0.6407129 -0.088686466 -0.18502189 -0.44687554 0.103221856 -0.49952677 -0.3352304 0.045401864 0.30857772 0.060315598 -0.33641332 -0.049939908 -0.28389773 0.43796095 -0.08111579 -0.003096353 -0.29568058 0.09679164 0.37741625 -0.037861794 0.7666686 -0.3698902 0.04708253
117 -0.07216346 0.0940004 -0.013033242 0.40930152 -0.11652708 0.19893067 -0.021603188 0.26409513 -0.14707632 0.1283211 -0.31766835 -0.45835897 -0.23367013 -0.29826486 0.115870014 -0.08288243 0.12988418 0.2224767 -0.07024419 0.06196064 -0.39258036 0.39804894 -0.32928517 0.08636815 0.041801978 -0.4200968 0.45889762 -0.25051832 0.47037542 0.1649719 0.09874525 0.37512285 -0.4549402 -0.03735136 -0.11818673 0.27368936 0.2338829 -0.25843677 0.119184725 -0.067893006 0.26474074 -0.046914037 0.03585866 0.15160766 -0.3311635 -0.093669504 0.39545226 -0.11818924 -0.36323932 0.03279842 0.019044485 0.30483562 -0.24145356 0.24531831 -0.38878164 0.021958329 0.21721311 -0.270653 -0.07319102 -0.020932103 0.39428648 -0.00837598 0.2508556 0.2756299 -0.10890676 -0.6605126 -0.101763315 -0.5775405 -0.025489317 -0.38346493 0.3486133 -0.04425722 -0.26407772 0.47456515 0.56928736 -0.17701285 -0.61132246 0.74723035 0.10955669 -0.016669251 0.033474326 0.091839336 0.2980937 -0.25121942 0.07238941 0.26230484 0.34581545 -0.29104117 0.6969604 0.10531423 -0.40300763 -0.3812703 -0.021424524 0.09432583 0.005615246 0.1853659 0.08330194 0.33651766 -0.10381588 0.18215738 -0.23837297 -0.0763249 0.17367388 0.43453243 -0.7804552 -0.0804458 0.18631425 0.16902755 -0.13107589 0.3165433 0.08691539 -0.55231345 -0.021827709 -0.06521561 0.03740378 -0.2860622 -0.021222016 -0.52037656 0.064790085 -0.096954 0.35672557 0.114784785 0.09219238 0.41258442 -0.42030394 0.79535073 -0.09910746 -0.25052145
741 -0.007946481 0.069297254 -0.34403145 0.31851822 -0.1312285 0.22214991 0.058176823 0.31884393 -0.20848508 -0.012881395 -0.45391873 -0.11646607 -0.20254998 -0.069193564 0.08550742 -0.19120438 0.16868691 0.27475026 0.06346663 0.25699362 0.03125728 0.5484825 -0.4597441 0.14603348 0.007352347 -0.39514416 0.3668298 -0.18861929 0.43768054 0.06861093 -0.02007286 0.16548303 0.13318744 0.05415298 -0.16904749 -0.35427457 -0.15656331 -0.22796641 0.1924328 -0.023851732 0.07157369 0.021451037 0.13776545 0.012955628 -0.4178449 -0.17339449 0.35542095 -0.05932166 -0.5082868 0.14973845 0.0849764 0.26933694 -0.13818355 0.2532771 0.0041184654 0.0749347 0.14835553 -0.12448913 0.37239295 0.11394871 0.47090518 -0.177625 0.23487505 0.10914926 -0.22823703 -0.20222448 0.060531642 -0.58037746 -0.07152583 -0.594158 0.13484026 -0.14408915 -0.15069413 0.46865714 0.75277126 -0.61800486 -0.29676303 0.7848099 0.2686392 0.19710065 0.10704367 0.3733979 0.033169627 -0.22260968 0.4250659 -0.24767853 -0.13522044 -0.13383475 0.598234 0.13761562 -0.30428746 0.0018869687 0.1510202 -0.055407286 -0.005150673 -0.24762075 -0.17636904 0.24260461 -0.12969291 0.16503783 -0.17070712 -0.27945632 0.17673633 0.28246662 -0.6743364 -0.66983163 -0.0132690435 -0.20035148 -0.42818996 0.21929456 -0.3981708 -0.3649508 0.1259198 0.105713174 -0.121280715 -0.3246657 -0.003439032 -0.5481136 0.4569441 0.007549915 -0.056915358 -0.38830087 0.09321581 0.34850466 -0.25215212 0.6493275 -0.37252325 -0.010546534
781 0.0022540288 0.008530124 -0.3896668 0.5106802 -0.02584221 0.30108768 0.18832965 0.35872158 -0.20564058 -0.1709884 -0.22961134 -0.19694541 -0.15177685 -0.063652165 -0.022067506 -0.2761549 0.082226485 0.09262621 0.085150085 0.11407945 0.14586985 0.56357294 -0.35591638 -0.052413475 -0.083458066 -0.37634712 0.45637485 -0.36009547 0.5548903 0.04314771 0.22989656 0.35767174 0.020065336 0.09003048 -0.19001642 -0.051481146 -0.3419449 -0.16294114 0.3050548 0.05170594 0.017869368 -0.018291567 0.17903763 -0.018299134 -0.4341123 -0.15311453 0.48840335 -0.36297432 -0.52844757 -0.097270325 0.0066109016 -0.010798432 -0.08320925 0.2606217 0.022930393 0.11284663 -0.093871064 -0.41132808 0.13994971 -0.09085402 0.28604332 -0.17108259 0.13152355 0.09565367 -0.19836012 -0.14325307 -0.029723238 -0.6223942 -0.07185915 -0.6165985 0.25566557 -0.019799527 -0.05290883 0.5375345 0.64302754 -0.36968523 -0.5778182 0.6872642 0.2756465 0.33286393 -0.017574523 0.27463314 0.21201497 -0.05189634 0.30586612 -0.41117758 -0.048150133 -0.05427216 0.6014596 0.034426406 -0.41107178 0.12046089 0.33885127 -0.065091856 -0.024484297 -0.066375315 -0.29913437 0.52845913 0.10172424 0.24396703 -0.041695196 -0.21911201 0.3510011 0.45654336 -0.6246322 -0.6035788 -0.06904654 0.05218934 -0.38146946 0.090173416 -0.44406536 -0.4778845 -0.04647378 0.12385941 0.15264638 -0.23467791 0.06384263 -0.49607566 0.43102723 0.049564045 -0.037407905 -0.38141763 0.055774715 0.25982657 -0.07486274 0.60542315 -0.24452864 -0.117456965
628 0.5169538 0.07664104 -0.2309318 -0.020558637 -0.7297961 0.10729047 0.5216699 0.5185325 -0.112172805 -0.24471961 -0.008923758 0.25040084 -0.098139726 0.032627247 0.3363144 0.22279042 0.045669563 0.23545307 0.2179524 -0.24554583 0.40384853 0.13989885 -0.14813614 -0.35613263 -0.112145424 -0.052080583 0.87509036 -0.09995089 0.28720707 -0.24245602 -0.17194739 0.24000259 0.40478498 0.056110617 -0.16845849 -0.46080178 0.112712376 -0.105730444 -0.14983155 0.48288772 -0.026954517 -0.4617669 0.09797264 -0.27299228 -0.57461166 -0.09221095 0.348145 -0.2165055 -0.45635638 0.026768152 -0.0028552888 -0.108456254 -0.028309815 0.1257308 -0.15008564 0.16853483 0.23042816 -0.5875778 0.20446716 -0.041788008 0.0278219 0.14762859 -0.2054043 0.21804938 0.028958784 -0.037759848 -0.70252323 -0.10883062 -0.0766671 -0.059937872 0.42891774 0.2307245 0.031077575 0.033962443 -0.40095356 0.14712699 -0.2648887 -0.19548778 -0.13150425 0.23263445 -0.11592015 0.2699509 0.59729815 0.11635308 0.35725358 -0.22572428 0.020553328 0.39401922 -0.02953283 -0.12591746 0.0063387547 -0.30296972 0.51024693 0.12196953 -0.5475722 0.5339427 -0.19170266 0.16928059 0.49898404 0.18600488 -0.26694185 0.25445655 -0.26456684 0.32937717 -0.41220108 -0.4770835 0.18241085 0.24858257 0.20337139 0.39833403 0.044451702 -0.39147016 0.61795676 -0.3065849 -0.09262084 0.13608167 0.09797684 0.014571028 0.31879407 0.30017063 0.27459046 0.04155802 -0.18372673 0.23598719 -0.25316986 0.09280033 -0.26522937 -0.24337925
5 0.583843 0.08551375 -0.18418019 -0.23164381 -0.5371163 0.0056579434 0.40145767 0.46527326 -0.20693919 -0.11015216 0.027117398 0.3672206 -0.14726648 0.03914927 0.3133876 0.45339388 0.11079815 0.35505354 0.41604927 0.09916255 0.3758712 -0.00312341 -0.20926245 -0.15633547 -0.19677542 -0.034622967 0.7068674 -0.37433422 0.5073218 -0.10443473 -0.06252792 0.08363085 0.49561858 0.13565248 -0.08263213 -0.5805279 0.105293594 -0.15496795 -0.2092205 0.3674759 -0.029385949 -0.4847783 -0.019596549 -0.24044694 -0.4946081 -0.38985533 0.53240114 -0.40982094 -0.45678937 -0.18357632 -0.022695856 -0.12958209 0.16388442 0.23119383 -0.12199245 0.08757365 0.1772027 -0.6607099 0.35241878 -0.00033933792 0.09244649 0.058953438 -0.28526738 0.44536117 0.013430985 -0.0674616 -0.59047747 -0.28764763 -0.094843216 -0.08190582 0.5390811 0.3483387 -0.06082149 -0.17697951 -0.3995173 0.32271263 -0.18274316 -0.02214789 -0.0025439332 0.21462554 -0.15772659 0.31627578 0.76586443 0.19585232 0.28181428 -0.4471799 -0.053956576 0.4308988 -0.06298989 -0.107549235 0.027426513 -0.24350798 0.41158074 0.10691817 -0.46521407 0.41417137 -0.3149922 0.06422548 0.33167338 0.14910659 -0.07086677 0.14450745 -0.0008238266 0.27444 -0.43365845 -0.5676112 -0.08432156 0.17102596 0.29153255 0.4021987 0.07912839 -0.25508317 0.49634093 -0.26969114 -0.10421151 -0.0068095 -0.13334222 -0.17453364 0.28501806 0.34147212 0.18620983 0.1252933 0.14294425 -0.03960573 -0.18475336 -0.061568484 -0.20246494 -0.29147974
780 -0.01826992 0.023470305 -0.48697788 0.33547342 0.07415616 0.5713738 -0.010542588 0.28608823 -0.0369882 -0.21765317 -0.20203762 -0.15120208 -0.06717302 -0.022229332 -0.0112928515 -0.35970405 0.21128593 0.18910728 0.23996213 0.19804354 0.0682654 0.55204874 -0.47017264 0.12077684 -0.11713552 -0.36684874 0.5179935 -0.2714145 0.4873857 -0.019944498 0.14359753 0.2389786 2.811604e-05 0.17779042 -0.33208495 -0.35821423 -0.15170959 -0.30023023 0.36110836 -0.10133284 0.07483269 0.13933918 0.25046793 -0.12979001 -0.34350085 -0.034906447 0.092783 -0.22136432 -0.54911983 0.1052092 -0.1251154 0.12973699 -0.20049691 0.3252456 -0.053894084 0.121220015 0.18275985 -0.22892362 0.32921356 0.1368535 0.43099964 -0.21282426 0.14980146 0.07011202 -0.1052892 -0.27413976 -0.085792035 -0.6799585 0.08742652 -0.5929012 0.14965788 -0.06107999 0.00059235806 0.5448337 0.62362266 -0.305468 -0.5668237 0.8737713 0.14696392 0.15612644 0.021805882 0.30781677 0.18082103 -0.21938656 0.2988871 -0.27717397 0.13024952 -0.14426224 0.68907946 -0.11333231 -0.3003242 0.03436499 0.2881112 0.009054496 0.009731093 -0.2503037 -0.25210604 0.30071247 0.20528099 0.20088477 -0.198506 -0.1708942 0.20924279 0.46834198 -0.6955823 -0.72514397 -0.09860869 -0.07727821 -0.42316607 0.17030694 -0.4382122 -0.31272617 0.011602035 0.31855106 0.26315737 -0.4577756 0.15508917 -0.5017875 0.5959188 0.025088757 -0.062468108 -0.36022317 0.106250726 0.30608824 -0.12790577 0.73692375 -0.281093 -0.09520758
782 0.037618484 -0.09565213 -0.21013904 0.34550956 -0.17343983 0.33626717 0.2601368 0.21413632 -0.12765609 -0.16790305 -0.32046425 -0.2090429 -0.19033441 -0.12669815 -0.18711726 -0.43398404 0.3411977 0.19944794 0.13136424 0.14761354 0.1258242 0.6451805 -0.23108229 -0.08077606 0.016610755 -0.3780245 0.42575637 -0.210138 0.5060295 0.018455697 0.31785133 0.25018254 -0.025469964 0.27153307 -0.072147675 -0.18245488 0.0068356004 -0.33298218 0.25678778 -0.051368363 0.11464108 0.008883806 0.28351495 0.040306658 -0.41358984 -0.099961825 0.38614342 -0.2880563 -0.39060822 0.048740286 -0.2157749 0.10611077 -0.19367956 0.35268846 0.03238324 -0.13490175 0.07476363 -0.4276952 0.22146669 -0.022029115 0.64316255 -0.06517297 0.08005027 0.021776399 -0.13433862 -0.12531386 0.07777935 -0.5422061 0.14341193 -0.5522857 0.1957965 -0.07038661 0.027113907 0.48565182 0.5178817 -0.40939823 -0.58476937 0.6815213 0.11354897 0.14264305 0.14824136 0.46091062 -0.16758886 -0.1819566 0.3188597 -0.5012455 -0.021906026 -0.17076509 0.73505825 0.2680535 -0.31665665 0.0816869 0.2020182 -0.026801499 0.005017926 -0.19361489 -0.24236654 0.5236777 -0.097316906 0.17590445 -0.23057207 -0.13583967 0.26152718 0.48374993 -0.63611645 -0.65346324 0.034597058 -0.030576268 -0.24451195 0.12375842 -0.45442542 -0.38987374 0.039315592 0.14749889 0.00082280353 -0.38077947 -0.011226845 -0.38629317 0.44767666 0.03993163 -0.15787087 -0.5108589 -0.006885559 0.42451787 -0.076854564 0.5408282 -0.23352858 -0.039613128
114 0.09404532 0.14697434 -0.009025289 0.38088918 -0.17892832 0.53823435 -0.24454059 0.335827 -0.2057768 0.015331744 -0.3627678 -0.5233284 -0.0697323 0.08622252 -0.10167481 -0.2913601 0.23014303 0.35426727 0.14328076 0.01402705 -0.13619292 0.41885364 -0.29360703 0.34801036 0.14718649 -0.4220173 0.51364547 -0.1767322 0.45745054 -0.31246343 -0.013891736 0.3987766 -0.29510966 0.16961354 -0.051748637 0.2533588 -0.12779188 -0.41643876 0.05990796 -0.2864142 0.24547541 0.0090330625 -0.10868569 0.17552859 -0.16442634 -0.075962946 0.42624685 -0.2948443 -0.55389065 0.14256938 -0.02815729 0.14609084 -0.31085905 0.20453948 -0.43845022 -0.002366565 0.13829261 -0.32622102 0.1800056 -0.25134254 0.28600824 -0.061998475 -0.090143695 0.24164192 -0.03661842 -0.6359128 -0.056709148 -0.49949926 0.0070804087 -0.35740831 0.2557109 0.13576937 -0.26882607 0.46183437 0.70662963 -0.1968152 -0.55577546 0.6076765 0.10276263 0.20785885 -0.03152651 -0.034441862 0.47284806 -0.35756135 0.13580075 0.19098678 0.044880968 -0.25192612 0.7705356 0.3350202 -0.21791092 -0.06271616 -0.084462516 -0.251578 0.05344919 0.23322071 0.142513 0.21208648 -0.2600237 0.38366863 -0.17842896 -0.2826879 0.13217613 0.45400453 -0.8166258 -0.16167945 0.17004539 -0.026379663 -0.2582513 0.109013185 -0.052295122 -0.5534519 -0.17684525 -0.057713374 0.25109637 -0.33569112 0.056029502 -0.4225767 0.16093524 0.029753154 -0.00874856 -0.08703047 0.09253054 0.12780261 -0.5096624 0.845274 -0.2647195 0.054491114
758 -0.14226966 -0.0006903017 -0.49395174 0.492535 -0.022565989 0.40659028 0.094039135 0.15294868 -0.22054656 -0.014020345 -0.381657 -0.058668062 0.011696185 -0.0065440023 0.0046585067 -0.25072417 -0.035816666 0.17977494 0.1813101 0.3571645 0.13067079 0.60844386 -0.24720095 0.013542767 0.017830849 -0.29101324 0.43431887 -0.35233438 0.3539611 0.21856308 0.39570376 0.286585 0.03330366 0.26994604 -0.048827287 -0.15265109 -0.27184746 -0.18633524 0.1371268 -0.034092393 0.06502208 -0.109344825 0.17261468 -0.124915995 -0.41030973 -0.13875712 0.37559482 -0.09403335 -0.4099681 -0.042984698 0.039971367 0.21272495 -0.30784234 0.24924406 -0.20349854 0.04430286 0.24733262 -0.5762404 0.23003626 0.012617644 0.5247387 -0.01767182 0.31767732 0.16820292 -0.18325669 -0.19012551 0.12404325 -0.6351959 0.1979768 -0.67391557 0.10913255 0.038569584 0.023805816 0.56412536 0.7319469 -0.4579723 -0.6009364 0.60963273 0.11258747 0.109880835 0.23236735 0.27560282 0.1666596 -0.25149456 0.27244473 -0.21486527 -0.04434059 -0.02730143 0.5116187 -0.02590355 -0.25697696 -0.0024780615 0.24573874 -0.16101652 -0.15327612 -0.17814301 -0.19499543 0.2927025 -0.20404169 0.16586345 -0.23613879 -0.18266708 0.39388806 0.30840778 -0.6097466 -0.41830984 -0.13313928 -0.12681629 -0.2763189 0.21658903 -0.5119833 -0.31028453 0.10475066 0.28834122 0.0693356 -0.45933995 0.021632576 -0.5621739 0.2947692 0.20414333 0.1393746 -0.28369007 0.021315435 0.32990274 0.105445474 0.66758585 -0.12410642 -0.09405038
192 0.16107708 0.13040388 -0.11816174 -0.10940191 -0.8522706 -0.3363461 0.44903025 0.1575021 -0.10720043 -0.026624594 0.09008369 0.0037833322 -0.3001345 -0.1762626 -0.14604558 0.26302224 -0.0862303 0.36170706 0.42601815 -0.07099297 0.25565535 0.3912439 -0.14172724 -0.49816337 0.14624375 -0.06279306 0.6805737 -0.09689061 0.064652294 -0.16634211 -0.009431902 -0.07745556 0.3841734 0.36015832 -0.2711922 -0.6204434 0.090017445 -0.14994141 -0.097674966 -0.18886898 0.11519899 -0.530996 0.03147236 -0.27848187 -0.4002539 -0.35354328 0.5049167 0.21723165 -0.23301052 0.0016108138 0.22712824 -0.04268057 0.18917358 -0.10929992 -0.40778258 0.13355327 0.1859749 -0.631466 0.45851356 0.059156362 -0.17559801 -0.09429004 -0.31853446 -0.086891666 0.1500781 -0.24755684 -0.19254565 -0.28495654 -0.25327855 0.055572364 0.40256375 0.13872045 -0.12980224 -0.06899938 0.07875437 0.20240356 -0.0168352 -0.07433634 0.22701748 -0.00016728991 0.09055437 0.14106336 0.94397247 0.24982794 0.3077975 -0.25211406 -0.089893736 0.30728942 0.07264147 -0.5245367 0.16295531 -0.571194 0.1138434 0.26151827 -0.059433054 0.21548261 -0.28729463 -0.0054107136 0.08806437 0.1786494 -0.39577696 0.13819325 0.04701334 0.22079915 -0.2981715 -0.05943667 -0.0076912786 0.34184432 0.23359804 0.23152603 0.05209968 -0.10525563 0.51726043 -0.118171684 -0.24542896 -0.35008568 -0.04970043 -0.26670584 0.6866275 0.24564114 0.023149855 0.08768235 -0.2958753 0.19256742 0.03301623 0.034809705 -0.3572867 -0.1624025
624 0.43214622 0.12265699 -0.046124488 0.031273212 -0.58556825 -0.1781108 0.6480377 0.44372174 -0.11781989 -0.18102594 0.054352652 0.3543405 -0.23216067 -0.0062576733 0.19007115 0.32245055 0.39489892 0.19337511 0.2116493 -0.065750554 0.56305087 0.11348396 -0.14282078 -0.25064164 -0.011493528 -0.056529764 0.7948169 0.08205591 0.29001993 -0.30825508 -0.3203116 -0.06395435 0.2671998 0.031283863 0.043771096 -0.41330114 0.2174256 -0.36227775 0.12440373 0.25462866 -0.11039821 -0.59609085 0.07655691 0.01862439 -0.46029267 -0.44429284 0.40090194 -0.041899838 -0.3810333 0.12215604 0.12962642 -0.08188368 0.0017294569 0.18221189 -0.101401635 0.17394526 0.26495838 -0.62800956 0.36230996 0.029914444 0.077496745 -0.035080653 -0.35898146 0.35452035 0.052387457 0.036548708 -0.49285492 -0.20361629 -0.04268345 -0.1241727 0.65700334 0.39220613 0.17419274 -0.03412012 -0.41368598 0.39169973 -0.40799195 -0.18104255 -0.13320167 0.10576964 0.0815246 0.45264584 0.5736021 0.033635683 0.36364746 -0.26246637 -0.042647913 0.37234312 0.060613867 -0.25721446 0.18114747 -0.3618255 0.29016927 0.214324 -0.6194212 0.27620062 -0.19932657 0.09963865 0.21117476 0.18574269 -0.1943038 0.086242475 -0.028415712 0.29502416 -0.12427044 -0.47489408 0.036873396 0.28441572 0.39033043 0.49591097 0.069979064 -0.25768057 0.42815077 -0.072603114 -0.12693292 0.22684155 0.084826365 -0.11083185 0.3064217 0.48015493 0.19563222 0.0044689435 0.05192663 0.14733908 -0.024606293 0.07510278 -0.2531897 -0.24153997
784 0.032613114 0.030518979 -0.24913898 0.32596055 -0.106706515 0.26293048 0.3596748 0.3910149 -0.26344392 -0.15177222 -0.3170967 -0.12517107 -0.06387391 -0.09357222 -0.019010954 -0.379395 0.28729364 0.1878081 0.15665787 0.1773964 0.15087867 0.58895016 -0.4458542 0.055689298 -0.20594841 -0.38022253 0.47711587 -0.27229863 0.49798885 0.11851742 0.18412577 0.2026885 -0.06426445 0.13670722 -0.00068190915 -0.18949696 -0.21077704 -0.087981924 0.07530686 0.07285651 0.03619066 -0.041077744 0.32257524 0.012713911 -0.359919 -0.27180976 0.40222135 -0.18253094 -0.38662663 0.10079045 0.01820258 0.21242262 -0.231817 0.34794903 -0.12175252 -0.3316291 0.11220764 -0.27993524 0.10688367 0.06474398 0.26169726 -0.12565947 0.25833866 0.3794465 -0.09921975 -0.123105526 0.015567049 -0.6095391 0.21170014 -0.49197355 0.025851183 -0.117440835 -0.077903196 0.23372711 0.64012116 -0.47925225 -0.5142732 0.8256711 -0.013732076 0.04101027 0.24464127 0.24811386 -0.039479647 -0.07315626 0.21679719 -0.3158072 -0.07775219 -0.12234655 0.64878714 0.06043728 -0.31438017 0.02378884 0.21706447 0.09903779 -0.044479597 -0.2134703 -0.16296545 0.43027195 -0.009164645 0.05377009 -0.20782563 -0.14536549 0.13114421 0.45911184 -0.70882213 -0.6183062 -0.013673534 0.08668927 -0.3829778 0.2744418 -0.44501817 -0.45192605 0.24462253 0.29824042 0.13106503 -0.340482 0.08236413 -0.65350056 0.5391532 0.063173085 0.10023808 -0.3064855 0.1436599 0.53276134 0.08738102 0.78277236 -0.12273603 0.08022759
155 -0.0933341 0.06111806 -0.15399909 0.36684182 -0.20035143 0.19032383 -0.010589861 0.45810896 -0.187502 0.03796999 -0.5203584 -0.12957051 -0.23335671 -0.07910697 0.1161616 -0.39041868 0.19978853 0.1278452 0.01537429 0.081697084 0.09419322 0.53937 -0.34326607 0.19146909 0.2868934 -0.22496654 0.23871715 0.03322969 0.114804134 -0.06421671 -0.21727425 0.24019784 -0.09169246 -0.04506943 -0.2010458 -0.22699831 -0.10760047 -0.19176374 0.1610735 -0.009117799 0.27177736 0.07834618 -0.030633159 0.2636504 -0.29788122 -0.24646097 0.43469483 -0.17156264 -0.54645896 0.039768882 0.12067761 0.02059618 0.010042419 0.48710272 -0.17041633 0.0020770181 0.12285977 -0.07280271 0.27648973 0.13386412 0.5242593 -0.27701536 0.05782232 0.08366065 -0.07599956 -0.3910701 -0.10664868 -0.62095016 -0.15599759 -0.3097285 0.02677482 0.072650805 -0.11486624 0.5013871 0.6190855 -0.49838033 -0.3206063 0.61799836 0.15408963 0.07593989 0.04472364 0.16832228 0.37193924 -0.089767285 0.39065862 -0.18838386 0.06700106 -0.13242549 0.67513573 0.40872958 -0.3294071 -0.030196652 0.26483706 -0.18896727 -0.072404094 -0.14820352 -0.06621425 -0.09409068 -0.26035333 0.2263048 -0.05361892 -0.5244365 0.21316597 0.23866229 -0.6932715 -0.67306405 -0.07726117 -0.16536786 -0.47830683 0.22422361 -0.3055774 -0.4165743 0.15461622 0.10164969 -0.023124354 -0.42060888 0.03411957 -0.5560922 0.2048206 -0.122343466 0.03239807 -0.17162186 0.109552525 0.2845838 -0.34739968 0.70715004 -0.60982907 0.23888573
688 0.31883737 -0.07692514 0.14788282 0.07597022 -0.4052365 -0.14529516 0.572778 0.26214856 0.04109245 -0.079544984 -0.025636774 0.31260124 -0.4064455 0.06593696 0.15153725 0.37317058 -0.08381766 0.34351802 0.19061914 -0.04518664 0.46264377 0.12961894 0.19970524 -0.60671073 0.349806 -0.12008276 0.636225 -0.11482698 0.19175409 -0.14410761 0.025037182 -0.19272493 0.2758082 0.29276997 -0.08521178 -0.34646088 0.20504245 -0.20851587 -0.2960787 0.11089283 0.08316827 -0.674543 0.10615495 0.012213587 -0.69307756 -0.23832957 0.3969079 -0.38710627 -0.2039479 -0.3006925 0.0840617 -0.18883497 -0.09235447 0.17810361 -0.18126574 -0.10192873 0.3055093 -0.6723198 0.30426398 0.27932116 -0.051587425 0.06925769 -0.04295454 0.4051933 0.17274107 -0.30448458 -0.7302872 -0.42319006 -0.055775195 -0.06912473 0.46255234 0.2519992 -0.16170399 -0.025184136 -0.58035076 0.3631897 -0.039638497 -0.3460655 0.040146057 -0.022708321 0.12554531 0.55518496 0.46585667 0.14663665 0.31051424 -0.32755092 0.11533534 0.533049 0.074960135 -0.17079501 0.06438583 -0.2630997 0.44604778 0.22083977 -0.36668533 0.19447823 -0.0741745 0.028864704 -0.045294255 0.44907442 -0.30672157 0.41938952 0.13299483 0.35559648 -0.026955416 -0.20919915 0.0009230587 0.2569897 0.19122271 0.4248826 -0.07122121 -0.17742606 0.43180504 -0.3344843 -0.3977275 0.035792295 0.14541768 -0.43231493 0.0070586987 0.44777015 0.13502939 0.041699603 0.020843208 -0.048478384 -0.025673363 0.09948391 -0.17762671 -0.29843208
7 0.3516401 -0.029105412 -0.040945835 -0.056069504 -0.3928775 -0.2182401 0.31740785 0.1849864 -0.0055540237 -0.3243894 0.091755755 0.41302243 -0.14868611 -0.05079206 0.34788463 0.4229741 0.024530835 0.3302427 0.317975 0.2096922 0.47454622 -0.008348493 -0.018581579 -0.2293429 0.054586586 -0.103568725 0.6797724 -0.2458017 0.41004458 -0.025906377 0.07873112 0.11780261 0.30169272 0.23843609 -0.053895 -0.3301936 0.08366103 -0.27925283 -0.39508665 0.17219387 0.07141647 -0.40343216 -0.027951758 -0.047031105 -0.30891043 -0.46776006 0.5026358 -0.32560858 -0.2934402 -0.48069274 0.08940417 -0.09341982 -0.046040103 0.20644528 -0.09828743 -0.094031185 0.29547718 -0.83086145 0.14232536 0.04189761 -0.11587312 0.06957361 -0.05144372 0.41840234 0.27050793 -0.4069956 -0.6861025 -0.5254865 -0.06988111 -0.0813837 0.518143 0.24050705 -0.46497408 0.0862816 -0.48117068 0.51205665 -0.09716262 -0.06506269 0.02476399 0.17516229 -0.28889796 0.50823474 0.5973035 0.18391725 0.27499714 -0.27179733 -0.027231568 0.3974469 0.1599679 -0.20579252 0.011180473 -0.35200682 0.4881838 0.2255447 -0.45279786 0.41257674 -0.1547186 0.08139076 0.036784038 0.55125844 -0.27808556 0.29895416 0.1793921 0.32931352 -0.23570243 -0.40491545 -0.17481133 0.24811512 0.1751549 0.38887396 -0.13671847 -0.25285473 0.23484747 -0.4488688 -0.2113935 -0.11342321 -0.23655133 -0.31438646 0.17928648 0.3250798 0.18926902 0.18069015 0.15344928 -0.12608787 0.09222706 0.09124919 -0.2727827 -0.26757285
69 0.16862443 -0.16548672 0.13796113 0.60957867 -0.6744556 0.35323352 0.21449316 -0.20216882 0.09316543 0.03664385 -0.4165854 0.6440246 0.10676834 0.3744387 -0.017435754 -0.10162233 -0.05647883 0.21560186 0.062313356 -0.001457794 -0.1860417 0.10317964 -0.078789786 -0.28524062 -0.056796208 -0.19468904 0.762972 -0.16289449 -0.082663484 -0.009286603 0.2958098 0.57007104 -0.45118585 0.17373525 0.07868691 0.05550562 -0.42825967 -0.24018978 0.20685288 -0.43256584 0.032439902 -0.32713774 0.01505034 -0.2663374 -0.86491144 -0.40532848 -0.38467923 -0.12594672 0.22835232 -0.43771347 -0.106920175 0.18061581 -0.1503737 0.7450692 -0.101215266 -0.15073511 0.79469264 -0.16644394 0.060630884 0.41233253 0.24981469 0.10771275 -0.06382289 0.36410654 0.28340945 -0.06252403 -0.13483821 -0.4740365 -0.06589164 -0.20490856 0.530892 -0.5257802 0.16317339 0.13099545 -0.23521519 0.47561198 -0.41001672 -0.025556264 -0.7452962 -0.058938902 0.34631085 0.35444668 0.4059042 -0.004367003 0.08358649 0.011574901 1.0004333 0.42937002 0.26699015 0.17343774 -0.08283113 -0.33776835 0.41989464 0.22882432 -0.37155947 -0.1923715 -0.06482274 0.14476493 -0.26025447 0.2653271 -0.48157376 0.24101718 0.10951914 0.52054995 -0.27306554 -0.2744628 0.051873375 0.30450007 0.07362422 -0.08412556 -0.08844548 -0.48820964 0.37379453 -0.19833349 -0.25271013 0.16951174 -0.32549044 -0.12817635 -0.5514547 0.2818926 0.05651709 0.341597 -0.11748361 -0.22607543 -0.115780674 0.6468962 -0.31136557 -0.20247966
203 0.252729 0.091491155 -0.09853213 0.0030129768 -0.6345866 -0.35577956 0.5824851 0.31750396 -0.07566926 -0.3244445 0.17755471 0.18015496 -0.23035939 -0.16151106 0.08714187 0.36240277 0.25332114 0.3115592 0.31314328 0.06057228 0.47433066 0.24134015 -0.04307997 -0.28378192 0.11351219 -0.21119948 0.9741463 0.24698222 0.2527786 -0.36114186 -0.24695584 0.0030185857 0.25522792 0.28179815 -0.1188986 -0.4089335 0.32972 -0.2959598 -0.030345982 0.048798922 -0.05609243 -0.46017963 0.05539437 0.01716292 -0.23326328 -0.38623926 0.47559243 0.11749798 -0.34359702 0.15677324 0.23566435 -0.15099949 -0.04786403 0.1786564 -0.29675904 0.090938985 0.22233164 -0.824835 0.42538708 -0.053979166 -0.12074521 -0.033675406 -0.30819046 0.2139017 0.106123924 -0.32214737 -0.5106854 -0.30479974 -0.049685463 -0.034066778 0.5974678 0.44118991 -0.05251563 0.14028944 -0.20563054 0.48651633 -0.3105171 -0.11181838 0.111649826 0.007288882 0.08878087 0.42709982 0.702829 0.05350104 0.36682224 -0.25821295 -0.176448 0.13775444 0.10791845 -0.40620506 0.2267648 -0.35562393 0.11451987 0.30649692 -0.5410519 0.24372889 -0.19042978 0.0782573 0.0409345 0.30922103 -0.38549158 0.13866125 0.05716573 0.31421894 -0.17809007 -0.29913884 -0.009626554 0.35050043 0.27953303 0.44754708 -0.003318449 -0.17997955 0.44463927 -0.049568232 -0.16694945 -0.019314054 0.10148125 -0.21479522 0.6937903 0.4021598 0.19315456 -0.051976368 -0.080107614 0.31448936 0.2100192 0.14338554 -0.4339703 -0.11919309
686 0.33793175 -0.003570035 -0.11694901 0.17714821 -0.6954902 -0.045449324 0.4926581 0.33213368 0.07220235 -0.37454283 0.0285835 0.21368101 -0.19061042 -0.027087469 0.28459796 0.0797282 -0.094032325 0.22204767 0.113546394 -0.23075254 0.60319835 0.2338793 0.056471482 -0.5956578 0.2332344 -0.07268832 0.8189165 -0.05332683 0.17201428 -0.19786888 0.018596485 0.13769281 0.28922367 0.20035271 -0.2045761 -0.2871573 0.039792705 -0.19229491 -0.3460801 0.34182322 0.13902201 -0.47934172 0.17072941 -0.10919435 -0.52879435 -0.07199336 0.4204454 -0.15488404 -0.28756925 -0.1810658 0.095671214 -0.085607156 -0.19945933 0.0008098759 -0.16327722 0.03816069 0.18149894 -0.72254175 0.0496852 0.0044239084 -0.13843004 0.11655861 0.040237784 0.21950229 0.25104338 -0.34297058 -0.7487278 -0.3441253 -0.071393184 -0.03020848 0.38744718 0.13286358 -0.32872304 0.21821545 -0.42346832 0.1505984 -0.07651911 -0.33776557 -0.020959012 0.19215573 -0.22079222 0.36905685 0.4197043 0.13539179 0.35277316 -0.08668431 -0.03797999 0.45967194 0.11794809 -0.24490191 -0.0097713685 -0.3040874 0.6279976 0.15546617 -0.326364 0.5352987 -0.040902458 0.17257667 0.2530915 0.56481177 -0.5240691 0.43205285 -0.13730459 0.39075345 -0.26394233 -0.29652622 0.11052061 0.37059218 0.09438502 0.40921932 -0.14031464 -0.3585511 0.3389333 -0.50322974 -0.23114783 -0.020030728 0.14109638 -0.19665903 0.17775398 0.31190798 0.12534599 0.07599759 -0.31090343 0.16581258 -0.04607709 0.25517863 -0.26974452 -0.2541001
309 -0.04693183 0.08140213 -0.1897828 0.38406715 -0.34848955 0.54303527 0.060343083 0.71806264 -0.2889502 -0.3027492 -0.1951774 0.15794624 -0.06929728 -0.052480213 -0.26677433 0.19874473 0.14675346 0.46936226 -0.29156876 -0.26121703 0.02426218 0.28293878 -0.011799581 -0.027627995 -0.21338522 -0.14777122 0.142857 -0.5839657 0.4134421 0.09010064 -0.76898456 0.2415002 -0.047132682 0.15845487 -0.3341833 0.034736965 -0.21961416 -0.28673276 -0.07222292 -0.15096553 0.04360572 0.23593989 -0.1309805 -0.33292058 -0.2718728 0.053446703 0.051701702 -0.3431122 0.29573876 -0.07609331 -0.01705604 0.09946451 -0.33591664 0.10757062 -0.03417117 0.016389629 0.16731839 -0.20525448 0.007839731 -0.059035454 0.097876 -0.23237662 -0.4061398 0.82920617 -0.12012897 0.051567752 0.011153962 -0.05786489 -0.1914228 -0.00041081733 0.37888837 -0.019176897 -0.070632406 -0.124986425 0.18722315 0.2145155 -0.15944217 0.59840375 0.44035614 0.16873592 0.07228636 0.22951588 0.67890763 -0.22208783 -0.101911634 -0.1769633 0.5657472 0.47897333 0.47471994 -0.10189333 0.35331273 -0.1974771 0.34336805 -0.3570645 -0.07652851 -0.15946949 0.02504918 -0.20021206 0.10419328 -0.1783548 -0.089635156 -0.7094098 -0.19583474 0.4535489 -0.12895837 -0.20637982 0.28391516 -0.2722582 0.21482816 0.21403001 0.011219196 -0.08128883 0.68399626 -0.51159245 0.23695312 0.29392445 -0.2561341 -0.32333428 -0.40720686 0.12584887 -0.15575701 -0.53599983 -0.07451506 -0.14944443 0.21888646 0.35156474 0.23431289 0.31987295
626 0.4407973 0.06424009 0.06799593 0.022242026 -0.66106135 -0.072139084 0.5050663 0.27846733 0.046891376 -0.23055607 0.067106985 0.32964805 -0.17078696 0.010457116 0.31526235 0.34716892 0.15912713 0.18000239 0.308561 -0.12317023 0.4588023 0.05758917 -0.062258825 -0.41176867 0.1255992 0.051001452 0.64612806 -0.25916448 0.26723367 -0.10324854 -0.011327313 0.016866703 0.24337143 0.07748611 -0.058754675 -0.30625084 0.14701456 -0.28988415 -0.13384692 0.2630136 0.10581653 -0.6327424 0.053014074 -0.078164 -0.6202752 -0.4108104 0.47486404 -0.26346597 -0.33703616 -0.23984839 0.113741696 -0.054785535 0.0059104087 6.8972004e-05 -0.091317624 -0.027265243 0.19303022 -0.7003901 0.16684642 0.072048984 0.030585106 -0.05029515 -0.1892885 0.4515713 0.21464285 -0.0376061 -0.5172044 -0.23183681 -0.18336149 -0.091772564 0.56001884 0.20621829 -0.040886357 -0.051573772 -0.4985455 0.2409391 -0.25666654 -0.31178564 -0.20617269 0.116842866 -0.07774179 0.33066916 0.63574857 0.14574955 0.28808272 -0.1182045 0.10584009 0.5666537 0.060800932 -0.23506853 0.019607516 -0.42172506 0.5562872 0.16803823 -0.43145272 0.4366986 -0.13296713 0.2310666 0.28878483 0.43971765 -0.26473 0.2814957 -0.010823354 0.33290666 -0.22422785 -0.31990287 0.019333974 0.31514168 0.337601 0.36775398 0.111082666 -0.37605682 0.32429147 -0.2691304 -0.27290186 0.14990237 -0.014940263 -0.119480796 0.0546309 0.4437902 0.21038976 0.27772698 -0.038016714 -0.08954332 -0.17217977 0.20393758 -0.07079458 -0.39405948
9 0.4275464 0.019945813 -0.30018196 -0.15569128 -0.507684 -0.007038934 0.35706607 0.52202743 -0.10484596 -0.32051164 0.0018716217 0.28849256 -0.124896355 -0.014349902 0.38973346 0.26420513 -0.10401232 0.366831 0.20602825 0.04414206 0.5103647 0.11614494 -0.086391434 -0.21843593 -0.075203106 -0.17290227 0.8305146 -0.10185941 0.41777623 -0.20448501 -0.16580795 0.23402336 0.4814169 0.25059295 -0.14868607 -0.4908292 0.05777218 -0.10340948 -0.38539484 0.41819072 -0.011391624 -0.25790742 0.00041067338 -0.20956495 -0.27867687 -0.1335339 0.44409063 -0.27732325 -0.3954635 -0.12243189 0.041166827 -0.12087769 -0.11756136 0.22374628 -0.15665683 0.06755689 0.17332105 -0.6813864 0.1992071 -0.10227487 -0.07546447 0.24009493 -0.028235415 0.27869898 0.0484085 -0.4150869 -0.8586891 -0.32169703 0.057360437 0.0016064811 0.3710446 0.28184932 -0.37907827 0.12677847 -0.2793785 0.28646347 -0.0560598 0.019738121 0.14760226 0.24970153 -0.3224444 0.4086259 0.61249423 0.14621492 0.38238156 -0.31562313 -0.1644229 0.32478148 0.10027834 -0.09040948 7.27319e-05 -0.115882136 0.3996833 0.066476576 -0.5011421 0.5484678 -0.1560884 0.0120890355 0.258621 0.36917654 -0.33111668 0.21059968 -0.14196013 0.30775952 -0.4093227 -0.5569314 0.071351014 0.14807001 0.014468158 0.45585367 -0.18656018 -0.20538415 0.49398267 -0.50434834 -0.09184101 -0.086020656 -0.0528927 -0.23314543 0.38969678 0.23446518 0.20678532 -0.081250146 -0.0016262592 0.19189334 -0.0791194 -0.015708541 -0.35734025 -0.11202507
314 0.046867155 0.14440161 -0.22292677 0.45294896 -0.310981 0.48614255 0.18852323 0.55861247 -0.23416008 -0.28861773 -0.00040002383 0.08858833 0.108860545 -0.0028519717 -0.3144962 0.14005506 0.08866693 0.50272954 -0.43192834 -0.16687308 0.1302144 -0.11031309 0.16808082 -0.12515977 -0.39223507 -0.15835842 0.11904007 -0.3724315 0.5415166 0.062707104 -0.72433275 0.025909621 -0.13479389 0.15086764 -0.31876397 0.12573998 -0.14088492 -0.19120687 -0.0958818 -0.28026342 -0.08578682 0.3730327 -0.076075785 -0.37466145 -0.21813086 0.010560593 0.1494581 -0.32920474 0.23853861 -0.12903647 0.004751776 0.16572034 -0.4549423 0.23757274 -0.008563402 -0.05835144 0.35296825 -0.25660652 -0.006543835 -0.18973324 -0.24471228 -0.18371816 -0.35541388 0.6713983 -0.0002527077 -0.10720475 -0.17133617 -0.15781671 -0.24254534 -0.20772246 0.2065795 -0.09702734 -0.02534092 -0.14934075 0.20917998 0.21551703 -0.4067236 0.61403126 0.20473874 -0.033012588 -0.16523483 0.28371596 0.91894364 -0.27233398 -0.33718255 -0.2995756 0.3198535 0.67173934 0.4903198 -0.22727592 0.2961478 -0.19581053 0.27100152 -0.23308654 -0.18675134 -0.21389692 -0.15766217 -0.23977655 0.26009175 -0.19572623 -0.14070338 -0.49542797 -0.280456 0.6251417 -0.051432703 -0.18122664 0.35587737 -0.15273418 0.16741963 0.22240679 0.05415193 0.027564632 0.6251366 -0.22954714 0.07751461 0.34039608 -0.19324867 -0.31314582 -0.20245516 -0.010110002 -0.1374727 -0.4886321 -0.11966553 0.27276808 -0.012670051 0.43832812 0.28798497 0.10894923
166 -0.036639564 0.028112907 -0.3448242 0.40491056 -0.20213288 0.34556562 0.050770905 0.2813274 -0.10460576 -0.08855684 -0.3329862 -0.094127886 -0.19721785 -0.023516439 0.106659494 -0.45351353 0.14608562 0.032274447 0.0065094545 0.06262419 0.19913432 0.61949635 -0.15228748 0.12932238 0.38075826 -0.22386685 0.17044881 0.030922262 0.119818605 0.18102318 -0.049061786 0.3877186 -0.19853139 0.10644773 -0.21775953 -0.06207515 -0.12014534 -0.021748656 0.08328638 -0.067361854 0.26619717 0.08569646 0.10059704 0.19631158 -0.40266484 -0.1848012 0.2334429 -0.27494034 -0.2985124 -0.1817046 0.00043474732 -0.052327774 -0.12933828 0.57465994 -0.24779297 0.011531845 0.112976745 -0.49456924 0.0648296 0.27019548 0.45512262 -0.253504 -0.08111611 0.06829975 -0.04410612 -0.5357531 -0.08781564 -0.66991204 -0.04213836 -0.1824711 0.0018327958 0.1145132 -0.20168708 0.48189637 0.53006476 -0.38064808 -0.5053223 0.48948014 0.030665932 0.058424048 0.024409864 0.092203505 0.4347664 0.05393571 0.27261248 -0.25009105 0.34705213 -0.2158596 0.6586266 0.3534852 -0.37995973 -0.05918543 0.3046713 -0.11253409 -0.25879648 -0.13651048 -0.06121322 0.12964787 -0.11449773 0.21593179 -0.13430099 -0.385437 0.35146886 0.31697547 -0.6340657 -0.5735976 -0.06150012 -0.0512915 -0.39929923 0.2529436 -0.4309684 -0.45910355 0.15417054 0.28307045 0.13911867 -0.50890464 -0.0043909308 -0.59561247 0.34712702 -0.12254009 0.09507092 -0.16897628 -0.005118424 0.35581368 0.15252514 0.7281724 -0.40767443 0.23636512
310 0.1271613 0.049355622 -0.16752054 0.63901675 -0.38193265 0.62716556 0.11544202 0.6549356 -0.2048291 -0.39703995 -0.048914496 0.1334303 -0.15494084 -0.06153519 -0.24152036 0.17789061 0.018831398 0.59081453 -0.496961 -0.24247646 0.19537523 0.08053858 0.032992188 -0.31580043 -0.2978289 -0.2585559 0.066339456 -0.47366694 0.3354802 0.22070925 -0.6717143 0.10121204 0.053574853 0.17616957 -0.44298786 0.03887402 -0.24999985 -0.24169956 -0.07848962 -0.23419951 0.09600152 0.12934482 0.09404598 -0.5745586 -0.4718088 0.12199835 0.14678168 -0.40862507 0.41022906 -0.44876483 0.013718103 0.23408301 -0.32469577 0.05602307 0.05875069 0.15338686 0.15320052 -0.14534327 -0.04125899 0.06114229 -0.042815927 -0.2813563 -0.18787955 0.7343221 0.115496814 0.046929695 -0.017054323 -0.16338742 -0.2053319 -0.16458951 0.18014644 -0.25175673 -0.25152442 0.0062294486 0.023138303 -0.042525765 -0.3051966 0.39541417 0.17488106 0.3093085 -0.055166878 0.23679449 0.60456103 -0.36091676 -0.19188403 -0.35276058 0.34278184 0.46766004 0.49546632 -0.2511369 0.29473886 -0.30517706 0.37130034 -0.3594642 -0.024769124 -0.17292407 -0.084885724 -0.05406401 0.060512953 -0.24920547 -0.17201668 -0.50041217 -0.1663501 0.7116337 0.054387778 -0.30206886 0.17879495 -0.12969951 0.26769105 0.16503856 -0.08452951 -0.18768738 0.509682 -0.38719997 0.25894082 0.23787619 -0.079540424 -0.32641247 -0.5176129 -0.029072048 -0.058875754 -0.5074593 -0.018957552 -0.13358921 0.18544148 0.53559375 0.11102716 0.28999186
315 -0.06262958 0.006958894 -0.062458444 0.4238457 -0.18035324 0.40121132 0.14895721 0.55631155 -0.29585174 -0.17892158 -0.14020216 0.23382904 -0.10110668 0.12663338 -0.22663733 0.13075015 0.217372 0.6279278 -0.35034192 -0.14792897 0.18119799 -0.16432711 0.013042167 0.033005673 -0.1881642 -0.013989573 0.025234468 -0.29706383 0.376415 0.18809469 -0.6392359 -0.079519525 0.12524462 0.14187486 -0.49633208 0.0290718 -0.13288212 -0.1752578 0.08604551 -0.42933777 0.10421513 0.21362762 0.0814154 -0.6175048 -0.2907276 -0.008727184 0.18015932 -0.27250302 0.27756014 -0.13218401 0.107771106 0.09053415 -0.41625842 0.26025084 -0.08482992 0.091759995 0.15655164 -0.19650032 0.16409063 -0.06310086 -0.014685058 -0.29670626 -0.22443059 0.6835405 -0.062081594 -0.0985788 -0.034357168 -0.07342906 -0.044821907 -0.21076965 0.12503654 -0.09391623 -0.02194156 -0.1608217 0.40620044 0.11288817 -0.16174468 0.51778644 0.20418777 0.029247172 -0.19601654 0.46299335 0.6835957 -0.17602643 -0.29945362 -0.35735705 0.2872263 0.5605896 0.74098855 -0.33731997 0.07445972 -0.24130377 0.4464675 -0.34912404 -0.050309815 -0.07322075 -0.03224468 -0.1485487 0.17565055 -0.022182055 -0.028215617 -0.61537355 -0.1894458 0.6299063 -0.12025728 -0.2751531 0.10994263 -0.24628425 0.28956935 0.06743214 0.14362372 0.1068182 0.65376776 -0.31879687 0.088140205 0.49125937 -0.2292702 -0.4292445 -0.30681714 0.11888466 -0.19869608 -0.6286952 -0.107499145 -0.123419784 0.005498684 0.26473776 0.20303978 0.34937665
206 0.2219038 0.13842756 -0.01721528 0.21507704 -0.9052681 -0.28965458 0.3458031 -0.098076224 -0.031077221 0.15913777 0.00013090292 0.18101175 -0.48982382 -0.18089983 -0.28113255 0.19113739 0.1414547 0.065872684 0.387458 0.0049795904 0.3504827 0.4675383 -0.1974399 -0.6114265 0.26087943 -0.052606042 0.45975223 -0.26152173 0.09387346 -0.1303776 0.27006245 -0.14033155 0.16205107 0.2292822 -0.29806024 -0.39703035 -0.30694908 -0.39494026 -0.21115437 -0.40047392 0.27564177 -0.7358559 0.15261956 -0.19748352 -0.37609386 -0.48674226 0.4032924 0.0918712 -0.24277711 -0.2941418 0.22172779 -0.05959813 0.1139012 -0.14761443 -0.2476827 0.12989146 0.19001278 -0.6442016 0.32225785 0.2252617 -0.029973365 -0.25747666 -0.24283771 -0.050701596 0.35638145 -0.14028607 0.10260189 -0.6086154 -0.3796824 -0.17857619 0.36628786 -0.015448676 -0.1628804 -0.046190646 -0.041232686 0.17887834 0.047295503 -0.2596018 0.31558916 0.071347214 -0.124417 0.14649615 0.71869904 0.36956808 0.27205524 -0.07620639 0.14236763 0.524176 0.22814557 -0.61165303 0.13124828 -0.8653969 0.33433175 0.12897176 0.3043733 0.22045828 -0.20214249 0.013328692 0.17794792 0.45422202 -0.40680197 -0.023099437 0.16487937 0.256151 -0.36955515 -0.05938163 -0.11196131 0.39355138 0.42384642 0.3428074 0.043300528 -0.120066546 0.1099062 -0.28767788 -0.20407796 -0.43068764 -0.2348602 -0.3053492 0.4100891 0.3383952 -0.118987344 0.2950005 -0.14804508 0.043611914 0.08531712 0.1126581 -0.13261108 -0.2902693
311 -0.059178483 0.005005645 -0.11670563 0.4096757 -0.42107874 0.7074714 0.12670773 0.6398991 -0.28937414 -0.2419861 -0.16559654 0.28357166 0.15253374 0.08009523 -0.32369554 0.17628804 0.08531094 0.47326437 -0.17511632 -0.13978885 -0.015806112 0.034571894 0.21661736 -0.10690375 -0.25537765 -0.31642628 0.13210918 -0.5431901 0.26233244 0.20116764 -0.37845802 0.07151874 0.076541215 0.08545765 -0.3366748 0.17721 -0.17832054 -0.39023772 -0.1549379 -0.36840737 0.025030788 0.32442528 -0.13493711 -0.38946638 -0.22144194 0.07120749 0.29051122 -0.35261407 0.31302595 -0.19457623 0.08047617 0.060055245 -0.4506716 0.2334666 -0.026133781 -0.11418754 0.074304275 -0.12582414 0.033458903 0.0808147 -0.18118905 -0.1178037 -0.39444178 0.82821625 -0.035385758 0.039759062 0.020588163 -0.054964803 0.0069393627 -0.068259425 0.19511537 -0.038652346 -0.03122063 -0.07766482 0.40871528 0.0016543505 -0.22154641 0.5007514 0.23020174 0.069527164 0.032567162 0.13053799 0.7280797 -0.36956298 -0.02236109 -0.34713504 0.34789833 0.7082093 0.47579 -0.36062455 0.27871642 -0.17936042 0.39275202 -0.53706247 -0.17799586 -0.09634533 0.06819005 -0.1503616 0.21130396 -0.12981513 -0.013773941 -0.4781775 -0.1941952 0.6667139 -0.022881776 -0.19460018 0.36081886 -0.008927923 0.3101127 0.110788316 -0.11741726 -0.025418751 0.7499196 -0.5176101 -0.021780929 0.46580672 -0.016846202 -0.4110578 -0.41779533 0.24207294 -0.17448519 -0.43237194 0.10953379 -0.09843293 -0.09812551 0.38115063 0.17821895 0.10822279
32 -0.041531064 -0.0278429 0.07698685 0.33953363 -0.2603267 0.1918736 0.098265946 0.31004283 -0.35542706 0.0036568095 -0.7133799 0.0085799135 -0.3337607 -0.0667472 0.10949552 -0.2104003 0.1902614 0.23988837 -0.1477258 0.10470993 0.034154832 0.36280122 -0.5798955 0.17869805 0.14657629 -0.38398933 0.23701979 0.055351052 0.17125365 -0.07330602 -0.2607623 0.23772086 0.13075046 -0.24527438 0.0059300694 -0.4655003 -0.19324255 -0.39699453 -0.08520016 -0.07981127 0.18237808 -0.009805422 -0.18332052 0.16310368 -0.5163443 -0.3554487 0.29405448 -0.0041435137 -0.48689133 0.07274659 0.10229197 0.37915394 -0.04850326 0.23254763 0.0227322 0.17028964 0.3920678 0.288239 0.37225455 0.13011025 0.4319904 -0.2504973 0.33733606 0.15195101 -0.24603692 -0.18557353 -0.0766262 -0.5782071 -0.19816512 -0.4789756 -0.026631534 -0.34089682 -0.24931726 0.46758658 0.61573803 -0.5265901 -0.23776732 0.53426707 0.10995499 0.21121328 -0.17453521 0.46282068 0.14988564 -0.19290753 0.5174324 -0.07945463 -0.0733839 -0.10699109 0.7616445 0.2809475 -0.22206317 -0.17740507 0.36593413 -0.09698617 0.091808155 -0.25897872 -0.17007658 0.033532627 -0.29297915 0.17735149 0.12114293 -0.3061161 0.17070241 0.075909324 -0.43264636 -0.6118984 -0.066278115 -0.13659476 -0.3285513 0.21454997 -0.21692052 -0.58424234 0.26819262 -0.25908348 -0.3306522 -0.28516752 0.022802474 -0.73307794 -0.03208324 -0.021888979 -0.12123912 -0.2740961 0.021345602 0.17597526 -0.5588386 0.39761615 -0.6281126 0.25252405
690 0.3187845 0.030619388 0.16948122 -0.07179 -0.5184045 -0.23800722 0.5063954 0.42258316 0.21524553 -0.24899042 0.041190505 0.30232197 -0.26884377 -0.0385602 0.3816389 0.18642415 0.057557616 0.18313077 0.21894121 -0.20232163 0.62383217 0.18766831 0.08149199 -0.3508201 0.24300265 0.278421 0.69622236 -0.30174252 0.21362084 -0.1675206 -0.12842384 -0.0010596027 0.16802159 0.31160223 0.13428755 -0.33230656 0.121977076 -0.35461703 -0.06679736 0.20804012 0.011484173 -0.36697188 0.050589032 0.027171716 -0.45881447 -0.331842 0.5337398 -0.11090671 -0.26758727 -0.39661732 0.24525364 0.16753502 -0.004152018 0.053974714 -0.034683354 -0.1279446 0.14214194 -0.6945411 0.2179322 -0.020688303 -0.050503567 0.13218781 0.08116754 0.23464721 0.21654436 -0.050692968 -0.7501117 -0.32884568 0.002462584 0.007149374 0.5561174 -0.029605448 -0.15739627 0.0816182 -0.29496634 0.32437196 -0.2802383 -0.21724279 -0.29201302 0.12850694 -0.06607194 0.46470204 0.49598518 0.11644847 0.40381244 -0.37232152 -0.13428238 0.6871259 0.25718713 -0.28439766 0.001296778 -0.22437543 0.34723207 0.1335388 -0.46418208 0.41865104 0.1298258 0.14834939 -0.118381046 0.53394616 -0.41233224 0.27071714 0.18095365 0.2573513 -0.00017253036 -0.41461667 0.049643263 0.21244779 0.015799142 0.1562591 -0.19649343 -0.1304502 0.20287013 -0.2069963 -0.15089521 -0.01910281 -0.1157884 -0.29962233 -0.011716191 0.43189985 0.15359572 0.17674047 0.058575064 -0.21102406 -0.20113964 0.2807352 -0.16561353 -0.36330593
301 0.26692218 0.0905697 -0.1736771 0.43270335 -0.19243534 0.3816257 0.22338757 0.6594031 -0.29096487 -0.24201244 0.018771656 0.061361752 0.0062204096 -0.017907737 -0.25910765 0.22769518 -0.005556824 0.48139063 -0.19830717 -0.26202023 0.082750954 0.12097809 -0.019879447 -0.13337326 -0.25004593 -0.22433409 0.111680046 -0.42417327 0.46591592 0.14834023 -0.78293276 0.018356694 -0.052081306 0.18304908 -0.5325683 -0.10055294 -0.30536428 -0.07557238 -0.03694841 -0.35340676 0.06973016 0.3936356 -0.23891817 -0.33550903 -0.38179335 -0.10419514 0.37153587 -0.38465497 0.22614205 -0.15957482 -0.107331544 0.22416233 -0.36913604 0.3632999 -0.23372541 0.16404778 0.11770561 -0.14307915 0.058679864 0.118260175 -0.09932094 -0.2962612 -0.24101496 0.64512986 -0.09275083 -0.1526119 -0.17636319 -0.032781295 -0.20394872 -0.1074781 0.18997689 0.068238996 -0.07358947 -0.10432686 0.5648421 -0.16276006 -0.29050866 0.47544843 0.40875396 0.04237566 -0.1686412 0.23380718 0.7261856 -0.19363296 -0.24482565 -0.2408732 0.20029826 0.76068217 0.6241029 -0.19507417 0.25530547 -0.22867383 0.50949824 -0.40466374 -0.18084829 -0.105813384 0.08902676 -0.31166962 0.31375587 -0.35950217 -0.19186006 -0.5182657 -0.19836776 0.46763664 0.066670105 -0.12857932 0.12996975 -0.12889768 0.17976631 0.1485434 -0.03553348 -0.008444337 0.65068734 -0.43197864 0.112229586 0.1589665 -0.1587212 -0.31416395 -0.3455179 0.2424888 -0.017510686 -0.5246677 -0.052070275 -0.12153316 0.16882062 0.2813001 0.07297003 0.29081216
687 0.15817137 -0.055969875 0.044823598 -0.038302485 -0.39954728 -0.046900526 0.73386705 0.24545592 0.079798885 -0.65348274 -0.010801986 0.39799166 -0.3005118 0.08652728 0.35817465 0.20378591 -0.03351711 0.2218087 0.24567212 0.009943121 0.5042837 0.12634605 0.13532709 -0.5028406 0.2969474 -0.12279428 0.59917057 -0.01825452 0.22203988 -0.08472877 -0.018535411 -0.057899527 0.28722513 0.2799316 -0.12502424 -0.34376532 0.03336894 -0.2808904 -0.081633255 -0.009592312 -0.061808787 -0.3855495 -0.034104504 -0.020871261 -0.41928393 -0.38840905 0.3400476 -0.2549822 -0.23406665 -0.109165095 0.07010299 -0.022645665 -0.32002437 0.13657197 -0.08595162 -0.25320548 0.106901586 -0.51524967 -0.071661994 0.15436524 -0.23470347 -0.098448895 0.07346074 0.44259465 0.113292344 -0.3317625 -0.36804536 -0.43841508 -0.08649088 -0.20826623 0.54372203 0.10862575 -0.2502236 0.038144726 -0.26202562 0.14264102 -0.14961709 -0.4013485 -0.06495091 -0.017170908 -0.0201492 0.5688045 0.7236322 0.16600597 0.33805168 0.030870799 -0.03809175 0.43619114 0.085148536 -0.23022933 -0.17967203 -0.33061048 0.45448473 0.0988339 -0.48737705 0.3215148 -0.19627969 0.30742452 0.035258863 0.7552799 -0.42926842 0.37441838 0.20728256 0.34553623 -0.15434113 -0.29487595 0.035045214 0.25304514 0.040334404 0.21353592 -0.046693176 -0.28812534 0.1414838 -0.21204448 -0.4756581 0.016603399 -0.05845901 -0.31358823 0.08741065 0.46220356 0.056088347 0.14273675 -0.0278569 -0.05191757 -0.10127652 0.06236358 -0.13693482 -0.30295864
698 0.34229854 0.05070723 0.09342261 -0.18466285 -0.54151976 -0.1278113 0.4884065 0.6244038 0.106368646 -0.053737916 -0.009171163 0.19126885 -0.18730675 0.062812805 0.29596892 0.13521077 -0.08429649 0.45963332 0.18779443 -0.124363005 0.6806005 0.2640228 -0.11083437 -0.3181905 0.119175635 0.02554365 0.68776166 -0.04975633 0.18447033 -0.15258664 -0.44614923 -0.09766177 0.4555332 0.30762357 0.24439003 -0.50896144 0.30300766 -0.23837554 0.08437235 0.31418714 0.10220197 -0.59566826 -0.037190095 -0.010495868 -0.5562057 -0.41856402 0.7056542 0.09119414 -0.31304577 0.029023388 0.26983377 0.124452926 0.20594451 -0.12669335 -0.117364824 0.07029484 0.023639886 -0.5015957 0.33939353 0.024778103 0.11006262 0.10291203 -0.01598871 0.4783325 -0.034370996 -0.25066465 -0.7608658 -0.104518086 0.11106752 0.18977046 0.6377185 0.21580277 -0.08837128 -0.09386289 -0.055960473 0.2029951 -0.24570702 0.09088952 -0.19909635 0.065540865 0.024814349 0.38613915 0.6777547 -0.0059217364 0.48719656 -0.30730262 -0.149613 0.4638045 0.32211015 -0.20927158 0.09719526 0.09454346 0.2133127 0.17320149 -0.50938904 0.37107745 -0.05104638 -0.021404257 -0.122091174 0.35558355 -0.3651379 0.08887627 0.029518163 0.31868967 -0.049767807 -0.54485726 0.2830041 0.026846534 -0.06894161 0.3579778 -0.17322788 -0.043142065 0.2152664 -0.21653873 -0.31380144 0.12117554 0.05773814 -0.49193984 0.0026204877 0.38062814 0.17070386 0.012372855 0.05035866 -0.010613184 -0.15595782 0.09345791 -0.09757931 -0.213955
13 0.305336 0.01808245 -0.1847082 -0.25870636 -0.57895046 -0.21109438 0.3222376 0.32959357 -0.15047735 -0.3070415 0.10375837 0.17966701 -0.2119014 -0.13729729 0.19080122 0.53095305 -0.11391779 0.4736531 0.43851838 0.22077578 0.31202504 0.11004877 -0.074594505 -0.22220258 0.023201475 -0.148814 0.7964509 -0.10346316 0.36186817 -0.17521057 -0.122121 0.087570354 0.47510648 0.41475365 -0.2512367 -0.60814834 0.22897887 -0.10517468 -0.37931943 0.12177902 0.015907306 -0.28340417 -0.096209146 -0.1806456 -0.22963779 -0.34009495 0.55391467 -0.19158109 -0.34036967 -0.16554324 0.15096875 -0.1057064 0.08553872 0.15767609 -0.3093047 -0.0026907835 0.17351237 -0.7726375 0.43791515 0.0061878585 -0.13648567 0.07013138 -0.14856592 0.27371454 0.06424245 -0.48780414 -0.6363461 -0.35336557 -0.08598828 0.035266604 0.41681716 0.34606135 -0.33184153 0.03708534 -0.15152693 0.38099316 -0.0077943057 0.06674846 0.27968395 0.09943739 -0.14324716 0.37278563 0.83917004 0.1399894 0.3122471 -0.38054073 -0.19751152 0.19779228 0.07144815 -0.23780103 0.08173192 -0.23084368 0.17945886 0.21439162 -0.3328806 0.33825207 -0.28173006 -0.029941715 0.0035301417 0.2863838 -0.29011345 0.19541891 0.036696535 0.24204487 -0.3772928 -0.34648857 -0.052012302 0.15575671 0.10118472 0.3260977 -0.07161175 -0.11417777 0.51221865 -0.28032553 -0.20079862 -0.24356942 -0.1021856 -0.37408376 0.6209006 0.27301216 0.13087118 -0.0008782421 0.005389124 0.093244486 0.050645377 -0.011414265 -0.39136097 -0.112098135
692 0.3766751 0.043030307 -0.11445422 -0.02291845 -0.70739704 -0.025746342 0.44504848 0.51392055 0.06780478 -0.087706335 0.0062889433 0.15682255 -0.07751951 0.025746329 0.2549168 0.100232765 -0.15524338 0.43507326 0.1325365 -0.19571522 0.631961 0.3278492 -0.17159712 -0.47954273 0.047486994 -0.30790183 0.850717 0.17543584 0.13898574 -0.18451904 -0.2668937 0.0936398 0.4816539 0.18493462 0.015203009 -0.43701103 0.19446237 -0.08810784 -0.14984544 0.3850141 0.21953872 -0.6925878 0.046067826 -0.15902112 -0.51396304 -0.22754048 0.54049563 0.08870298 -0.34892717 0.15442282 0.19822277 -0.116169326 0.025163928 -0.14710227 -0.18591002 0.1766794 0.09921006 -0.57429254 0.16759491 -0.00046474562 0.0153155355 0.12242011 -0.10523854 0.38222972 0.016743219 -0.35770673 -0.7489982 -0.086966135 0.044265326 0.09946233 0.42260805 0.29174125 -0.19688815 0.081159 -0.14400193 0.12959161 -0.09189604 -0.0045455424 -0.0032157903 0.115099706 -0.0943782 0.3005043 0.64552015 0.09354012 0.49683022 -0.09379867 -0.014943408 0.27257127 0.1902113 -0.19324332 0.08886124 -0.0070180553 0.43708107 0.15912828 -0.502289 0.4525233 -0.14215684 0.010150702 0.28189173 0.37113485 -0.40831265 0.16707297 -0.24767989 0.3564002 -0.25867358 -0.4753183 0.32085723 0.15017797 0.05008031 0.590443 -0.08787266 -0.24424554 0.38618618 -0.42967907 -0.31588626 0.13012011 0.18482356 -0.3413041 0.21823156 0.25541496 0.25349903 -0.024738304 -0.19463825 0.32502747 -0.057092898 0.060014892 -0.18207447 -0.08284718
157 0.008621271 0.10038259 0.02205795 0.29117942 -0.22426821 0.45167705 0.11999352 0.4267099 -0.28716856 -0.12829319 -0.4325369 -0.15627849 -0.044071577 -0.22291678 0.10840685 -0.3672943 0.095426194 0.058852166 0.39543948 0.095602505 0.25847855 0.49773625 -0.22900549 0.107250854 0.28167808 -0.13315508 0.29276618 -0.02867874 0.1955362 -0.0120430235 0.13813066 0.29772 -0.24336007 -0.012874219 -0.2513617 -0.04620333 -0.099691704 -0.21606591 0.09355916 0.09348142 0.32218853 -0.00017687335 0.18593869 0.3045179 -0.2053569 -0.2733484 0.35877168 -0.25952396 -0.5874177 -0.093837135 -0.01163718 0.019677542 -0.16946383 0.7451535 -0.28420386 0.06583632 0.18977597 -0.3090983 0.09887644 -0.040194128 0.5488498 -0.18503462 0.09724205 0.14332415 -0.03317994 -0.19793518 -0.114743374 -0.62229025 0.17330034 -0.33615506 -0.11286343 0.109980784 -0.04128889 0.3231333 0.4723542 -0.25351012 -0.6169048 0.5547313 -0.044579927 -0.09261678 -0.08009703 0.10134044 0.42434043 -0.016264189 0.23624313 -0.3655277 0.118311115 -0.119087815 0.72703546 0.30780432 -0.42517564 -0.02004828 0.47816288 -0.1758948 -0.22327207 0.060682535 -0.042732686 -0.055233687 -0.058194667 0.27486828 0.083911784 -0.42734325 0.43230632 0.53500414 -0.58769166 -0.5498335 -0.2756575 -0.022542598 -0.3644803 0.14802644 -0.15538912 -0.5455402 0.21342368 0.20003106 0.09319076 -0.39883977 0.21123974 -0.5744098 0.27768072 -0.20784299 0.075512685 -0.27087048 0.15512295 0.410622 -0.18236063 0.6438478 -0.44730952 0.3579719
198 0.18702778 0.0029804856 0.119268045 0.035553366 -0.66151226 -0.31885636 0.428903 0.15738194 0.072602175 -0.3839809 0.12985143 0.13226129 -0.1854438 -0.12839493 0.20970452 0.34077394 -0.04872096 0.3054165 0.38203326 -0.06298602 0.31113142 0.1483489 0.083986856 -0.43588486 0.25056928 -0.021584779 0.8760222 -0.04238768 0.11935685 -0.13343431 -0.0045875506 0.10656662 0.1343643 0.37764764 -0.15124299 -0.32907856 0.35930297 -0.22564766 -0.18266672 0.027668059 0.11170804 -0.3887256 -0.020321064 0.012952062 -0.43978375 -0.35469824 0.50163734 0.024992228 -0.25679806 -0.2330224 0.23393174 -0.0060629942 0.047326617 0.07835381 -0.32752195 -0.14090857 0.28518894 -0.8326426 0.26259506 -0.0025958635 -0.17692013 0.032567307 -0.10866389 0.22141464 0.24673627 -0.40853345 -0.5765652 -0.3459126 -0.12566328 0.051545653 0.5857198 0.18691438 -0.18621428 0.15260354 -0.30052444 0.3821847 -0.20774408 -0.16803189 -0.08028911 -0.02792874 0.087717876 0.3532443 0.694138 0.085032925 0.3104192 -0.15294647 -0.048616774 0.2855572 0.16965018 -0.35440522 0.033856325 -0.40714613 0.25640765 0.36470115 -0.42974365 0.35912037 -0.052474484 0.15749744 -0.10218014 0.49011123 -0.44391072 0.44646794 0.09030477 0.33234957 -0.14056863 -0.13874616 0.005510339 0.38021317 0.12824142 0.21939328 -0.054951865 -0.23553884 0.4023171 -0.16321452 -0.29272974 -0.08200319 -0.042740785 -0.26718214 0.3539798 0.40923652 0.22157255 0.17622459 -0.18696135 0.04733983 0.033440948 0.24567285 -0.35026738 -0.29926413
627 0.43780005 0.048398077 0.004517059 -0.10531586 -0.68224984 0.017626053 0.51594096 0.49337497 -0.07104056 -0.069970705 -0.0013619754 0.29322177 -0.11408552 0.0922154 0.27047879 0.31237632 0.0707072 0.46407628 0.25154507 -0.035593797 0.53639114 0.13205919 -0.27985707 -0.34412834 -0.09619819 -0.15711486 0.7127535 -0.006519231 0.24498786 -0.028939027 -0.32288286 -0.028928794 0.51167834 0.06999294 0.10512576 -0.56255245 0.25511584 -0.19491813 0.07680989 0.3265113 0.15745185 -0.79269665 -0.017591968 -0.17958693 -0.68999875 -0.51513726 0.58747023 -0.008344713 -0.3861882 0.13849114 0.15119654 -0.05013816 0.2582543 -0.09700858 -0.06684111 0.18778127 0.13602121 -0.51015127 0.31600037 0.13929267 0.18490316 -0.059840083 -0.28995243 0.6510929 -0.07978154 -0.103887886 -0.49636942 -0.079746544 -0.06544356 0.029521957 0.6700866 0.36063552 0.12195594 -0.22893831 -0.27339706 0.19243221 -0.25587282 0.005496105 -0.17997561 0.090084225 0.034761213 0.3436808 0.75338805 0.04498033 0.41062784 -0.18514486 0.061683558 0.35221243 0.13062279 -0.21019618 0.12923302 -0.13890427 0.42709365 0.23187405 -0.55528915 0.31731477 -0.3120518 0.061623976 0.2810262 0.20189673 -0.16918695 0.097206526 -0.0942618 0.36198854 -0.23660532 -0.5808991 0.2208836 0.118320115 0.26842695 0.5551383 0.098522425 -0.26265126 0.34795737 -0.22624828 -0.39661244 0.29345083 0.07738964 -0.31763488 0.085778825 0.4439822 0.22482803 0.07016932 -0.008974808 0.07697396 -0.12882957 -0.041056823 -0.015845835 -0.25062063
674 0.2944258 0.07090341 -0.011655096 0.03160752 -0.41998258 -0.2672121 0.56027776 0.4934813 -0.024525037 -0.05080276 0.024701769 0.30050716 -0.24559659 0.052574407 0.13063885 0.10132276 0.19308507 0.3146495 0.08562433 -0.007729599 0.7037388 0.2625668 -0.17392707 -0.25695172 -0.0022344228 -0.30218524 0.7381922 0.28127268 0.2484206 -0.23087697 -0.38855472 -0.17262717 0.36303136 0.14132564 0.1929171 -0.39615473 0.25448838 -0.37328634 0.11253024 0.15624067 0.023193022 -0.75703704 0.03571125 0.051024597 -0.37017494 -0.5043163 0.53615665 0.1930281 -0.31599697 0.22975628 0.20682171 -0.047156136 0.025995722 0.0004631402 -0.13582565 0.15097567 0.19263439 -0.5190268 0.26531333 0.06359377 0.07230226 0.08125364 -0.22312166 0.44030344 -0.10209739 -0.3072316 -0.5606762 -0.22812094 0.10148274 -0.0054572127 0.666684 0.398073 -0.006962577 0.004398432 -0.18033467 0.38329914 -0.2553212 0.06371316 -0.0036860693 0.059919387 0.004856058 0.51310927 0.596675 0.011606537 0.5165821 -0.17536359 -0.11450716 0.27761105 0.33333802 -0.29383227 0.19930638 -0.12952185 0.18863352 0.20976055 -0.588125 0.23896107 -0.15438366 -0.04909922 0.05972597 0.33767486 -0.27796987 -0.007616242 0.04700783 0.35516384 -0.022261323 -0.6016846 0.14606102 0.20611273 0.17824289 0.6097059 -0.08075393 -0.08249101 0.20543239 -0.2428649 -0.26193786 0.19550996 0.07413734 -0.41768128 0.17427823 0.40442234 0.21570829 -0.08613082 0.112584494 0.24871369 0.16618744 -0.08738646 -0.20422865 -0.14767742
746 0.004088635 0.05439968 -0.18417108 0.35817185 -0.31308115 0.41697857 -0.004715634 0.14530027 -0.25513688 -0.06551147 -0.46369806 -0.15666464 -0.40469882 -0.07991996 0.094374284 -0.32881933 0.21215676 0.26203787 -0.13097914 0.08573559 0.063226976 0.64942956 -0.33811677 0.15019454 0.28463405 -0.32354364 0.27946317 0.11488593 0.21005243 0.16642126 -0.13203582 0.44215626 -0.03276378 0.059087966 -0.04602152 -0.26285133 -0.24544619 -0.19799735 -0.15884443 -0.14852937 0.27196053 0.03496134 -0.011038115 0.03810646 -0.46542704 -0.16460434 0.20864338 -0.040422127 -0.2925346 0.015940797 0.0057732756 0.2117469 -0.18940525 0.29122153 -0.052068025 0.23711447 0.1335132 -0.25797766 0.26718032 0.29365292 0.50517666 -0.24960536 0.0743301 0.07560428 -0.2633712 -0.5010326 -0.005380774 -0.69296277 -0.00869175 -0.25956637 0.03858072 -0.16125716 -0.39468798 0.40941322 0.77010936 -0.46879295 -0.37903425 0.39290428 0.1968154 0.1891121 -0.1824408 0.2629374 0.28994325 -0.08870654 0.37948546 -0.12418811 0.10739036 -0.35358465 0.6200205 0.21095006 -0.23898847 -0.09755701 0.21758354 -0.07500997 -0.037794072 -0.23372222 -0.1335108 0.1790477 -0.2599179 0.1896071 -0.115842536 -0.313871 0.27565747 0.11731975 -0.7063939 -0.5522566 0.029539997 -0.11527404 -0.33164454 0.35739857 -0.34850755 -0.5273429 0.19209805 0.044812795 -0.08423284 -0.49267736 0.03575263 -0.79376817 0.37930587 -0.036941517 -0.0587704 -0.3165943 -0.07424171 0.28455916 -0.06563283 0.61474884 -0.40429857 0.26208168
632 0.45805395 0.08559357 -0.21650827 -0.018501699 -0.843551 -0.0077825584 0.53703374 0.4000936 -0.3785969 -0.43094772 -0.04042668 0.31717443 -0.19326553 0.10543947 0.22147942 0.20049308 0.17820886 0.35157225 0.2245591 0.0011087911 0.5767515 -0.13966285 -0.101820745 -0.41470933 -0.13227329 0.28941503 0.61555225 -0.2084505 0.31845927 -0.0058545624 -0.3351426 0.0739041 0.48459285 -0.005574718 -0.08000605 -0.6014172 0.12862161 -0.2257225 0.16481008 0.3902202 -0.07407315 -0.41774538 0.0014709268 -0.1730383 -0.7215054 -0.37561592 0.4709012 -0.14776066 -0.3375697 0.0048995498 -0.050855134 -0.073832795 0.2916467 0.14961839 -0.06810643 0.29785544 0.31834495 -0.59275424 0.4331546 0.16030589 0.1632332 -0.071062975 -0.4002851 0.28369474 0.11146823 -0.13854823 -0.4610103 -0.19465894 -0.07811965 0.16200936 0.70220107 0.34140322 0.035179384 -0.2891178 -0.51935786 0.16165683 -0.32021368 -0.06914789 -0.22200538 0.1759776 0.006555088 0.35831866 0.605104 -0.052571654 0.16086571 -0.18462059 0.018520148 0.3647252 -0.004257695 -0.20238863 0.12575772 -0.45167068 0.38618255 0.39571378 -0.38461494 0.46703273 -0.33369097 0.066197395 0.23881394 0.114428826 -0.26367113 0.30919284 -0.17193109 0.38507757 -0.32515624 -0.44116414 -0.0010720579 0.27655977 0.30881554 0.40284783 -0.049185745 -0.18170659 0.48603246 -0.185596 -0.28123236 0.1266562 -0.029158652 -0.04986694 0.22954485 0.45723903 -0.022773415 -0.052053414 -0.13594334 -0.015112604 -0.22070679 -0.06520482 -0.2631878 -0.4225257
16 0.3975913 0.043552354 -0.11000409 -0.3363458 -0.45409945 -0.14195117 0.39978728 0.563479 -0.04979393 -0.25483087 0.0425574 0.32026467 -0.2556705 -0.05526222 0.40382347 0.3656072 -0.0001726169 0.3467607 0.3430907 0.110333815 0.5527767 0.122660175 -0.092281185 -0.0984165 -0.030249985 0.13484901 0.63894105 -0.32923204 0.46199626 -0.18838274 -0.30199465 0.035462312 0.48917982 0.3487034 0.025385566 -0.5906257 0.108649485 -0.24828646 -0.21534546 0.31509537 -0.09058369 -0.24070148 -0.064098775 -0.14839408 -0.26986015 -0.35256556 0.592514 -0.24665311 -0.36835325 -0.2803187 0.15856802 0.11530365 0.07768079 0.117351584 -0.069734395 0.0096079325 0.078176744 -0.6473391 0.36764902 -0.061499182 -0.0028823416 0.17004964 0.029026786 0.31374153 0.020972457 -0.2139079 -0.7864388 -0.31511697 0.05308804 0.024555422 0.48182097 0.16070281 -0.26432645 -0.0391731 -0.16500778 0.34035772 -0.1735226 0.07228338 0.024702523 0.22087774 -0.27793497 0.46993515 0.6835371 0.11870801 0.4114818 -0.5208175 -0.27887675 0.5297826 0.22784653 -0.20112218 0.036487274 -0.11072105 0.24207641 0.051249135 -0.45944926 0.4437291 -0.10371838 0.0033084105 -0.016305389 0.34089637 -0.26803768 0.07526424 0.103930146 0.20713367 -0.2206271 -0.57988894 0.02086751 0.020565221 -0.02565173 0.24459262 -0.20170166 -0.038034953 0.3136567 -0.2881738 -0.076707184 -0.1367732 -0.18113852 -0.35221827 0.27249137 0.31165674 0.15793303 0.004921552 0.22178239 -0.11569733 -0.15644939 -0.0049154637 -0.21152708 -0.20325501
8 0.40073726 -0.008731607 -0.13018568 -0.16229664 -0.51459265 -0.086983785 0.23193888 0.39336452 -0.06614298 -0.13999732 0.06547259 0.28663936 -0.07945438 -0.002289738 0.27595237 0.27432758 -0.090708256 0.57623047 0.24113944 0.20515369 0.5450528 0.096412495 -0.22835761 -0.16190255 -0.1354567 -0.2752581 0.7380196 -0.016752414 0.36745965 0.0032719914 -0.15964623 0.07943819 0.5691725 0.2450951 0.03672385 -0.51419264 0.15729575 -0.18492347 -0.27762845 0.2939599 0.21986172 -0.56860673 -0.09563183 -0.1805445 -0.36956722 -0.45224646 0.63376176 -0.04565711 -0.3531695 -0.09184284 0.16023374 -0.11490487 0.18870331 -0.01553973 -0.08649334 0.13361683 0.15242255 -0.6649198 0.27424935 0.030354602 0.07282092 0.08290387 -0.16973181 0.5673771 -0.006651229 -0.49622416 -0.6878621 -0.27898106 0.029284101 0.08525541 0.5269044 0.4032681 -0.32076293 -0.06031414 -0.19997188 0.3468192 0.015127861 0.19770826 0.099801034 0.18494596 -0.27216995 0.38390774 0.6926747 0.097176686 0.39880612 -0.27566862 -0.12867971 0.17758591 0.20249468 -0.17316219 0.10008168 0.012274772 0.3581164 0.2361353 -0.44588694 0.37115917 -0.29135805 -0.108181655 0.11066138 0.36314943 -0.25744653 0.121859774 -0.03387207 0.33833966 -0.3691826 -0.6460533 0.07203331 0.049876597 0.094188266 0.5375886 -0.10580509 -0.16328919 0.2116533 -0.5164085 -0.3106897 0.00019001013 -0.08168845 -0.45673168 0.22405335 0.2889461 0.1714967 0.012761942 0.055926424 0.08883278 0.073895864 -0.06309513 -0.18346602 -0.13583161
318 0.018921556 0.17325464 -0.07978475 0.3935863 -0.2949034 0.5750274 0.28432274 0.6719308 -0.17321683 -0.17933968 -0.09729011 0.17830274 -0.060376883 0.053705554 -0.5114856 0.29787084 0.21748117 0.3912693 -0.38857836 -0.23926309 0.1864769 0.14641595 0.098010235 -0.23199882 -0.16720273 -0.044410657 -0.0680719 -0.43676734 0.27124888 -0.02489865 -0.579737 0.095572986 0.11485449 0.109718785 -0.55773133 0.038427483 -0.18373474 -0.2646921 -0.15125038 -0.29405656 -0.033458047 0.35479733 0.041257884 -0.48769042 -0.416196 -0.08000079 0.30141717 -0.39277872 0.2179707 -0.12948303 -0.005267351 0.23025212 -0.2941865 0.04433171 -0.26372826 0.037791785 0.32228965 -0.17624791 0.048406698 -0.094915494 -0.13047639 -0.33721536 -0.3653951 0.736757 -0.14049645 -0.013818229 0.03286248 -0.051427852 -0.27052093 -0.2829343 0.21124935 -0.27861524 -0.13671653 -0.055149265 0.51947916 -0.13201149 -0.17337036 0.5901814 0.37147978 0.16271988 0.0065720254 0.35422114 0.641662 -0.19581382 -0.15225987 -0.2669091 0.2773073 0.74474907 0.38212916 -0.13607173 0.5146553 -0.33970392 0.4797117 -0.56697446 -0.15711835 -0.2046766 -0.1970697 -0.12437022 0.048192676 -0.07086305 -0.19276536 -0.6181546 -0.15809038 0.5332791 -0.09122977 -0.12592651 0.057495717 -0.15674298 0.2555295 0.12939185 0.055450894 0.02309361 0.6185343 -0.5709376 -0.049185064 0.27933234 -0.20791607 -0.27437028 -0.4260105 0.1973329 -0.27633896 -0.4656565 -0.032880105 -0.024014989 -0.051076487 0.36996084 0.33517474 0.27109846
