881 128
126 0.3302843 -0.44176376 -0.33532518 -0.5069849 -0.050862975 -0.06401261 0.12189525 -0.06077672 0.025621355 0.09133837 -0.22548938 0.2758428 0.0868882 -0.19049436 0.33628485 0.25226292 0.012111964 -0.60290945 -0.2774776 -0.13331114 -0.08604215 0.59392875 0.20791948 -0.20974837 -0.12038744 -0.6771842 0.07960987 -0.07391929 0.027399024 -0.006150241 0.11625349 0.39471823 -0.1979204 0.4112586 0.39747798 -0.5153756 0.19840014 -0.12003231 -0.014339487 -0.22488435 -0.10626518 0.2640778 0.099087566 0.14482766 0.567091 -0.23440823 0.328978 -0.03224566 0.12064889 -0.33436367 -0.24079956 0.14693931 -0.3469973 -0.5530584 0.30040458 0.08442531 0.350915 -0.2563367 -0.5612344 0.31190142 0.12239576 0.27853423 -0.23839974 0.019723851 -0.5101165 -0.08408755 0.22564022 0.45016816 -0.5069557 -0.34346047 -0.12974581 -0.30423465 -0.1569992 -0.43132156 0.717551 -0.20087478 -0.1210332 -0.48495048 -0.05230184 -0.18425487 -0.49216792 0.70522946 0.17747717 0.5385931 0.6359632 0.5052165 -0.13068803 -0.074753396 0.06479575 -0.4127387 -0.27224088 0.5354049 0.20813747 0.17532589 -0.0149425 -0.10853824 -0.16327858 0.40869513 0.056380957 -0.02382585 -0.27495584 -0.24324466 -0.08283635 0.09334427 0.25535214 -0.35166806 -0.28953582 -0.065895766 0.07444351 0.030136792 0.066161804 -0.17470995 0.27365893 -0.047575098 -0.22484213 -0.092047796 -0.088966236 -0.37444806 0.06974435 0.24748959 -0.14640328 -0.2427827 0.12444105 0.47695825 -0.1672409 0.26999626 -0.034290574 -0.17128229
120 0.22046924 -0.55326074 -0.6117675 -0.38895807 -0.09320108 0.16375645 0.09544666 -0.015759068 -0.1574716 -0.07976104 -0.04173396 0.38454697 -0.065782234 -0.39556584 -0.039260156 0.26690415 0.09042474 -0.69277704 -0.07995241 -0.0040121065 0.26778644 0.5827249 -0.11573533 -0.15849495 -0.11143493 -0.64377606 -0.013006699 0.24116091 -0.15587707 -0.1227197 0.40573466 0.08008772 -0.37371963 0.60381424 0.45241103 -0.38786942 0.12853982 -0.070958234 0.30205125 -0.2838311 -0.17254515 0.38321218 0.06746511 -0.016213445 0.5279205 -0.093169816 0.3018608 -0.023164544 0.20465301 -0.27024707 -0.02527148 0.20404074 -0.07523642 -0.21881258 0.42622152 -0.036771916 0.10581359 -0.08142432 -0.40971494 0.35295653 0.021069909 0.48698914 -0.19682504 -0.22653951 -0.4759707 0.11650815 0.19554019 0.19259149 -0.38542432 -0.3452546 -0.3728408 -0.16204908 0.06467218 -0.3649552 0.93694884 -0.18988259 -0.009145769 -0.22581626 -0.18318205 -0.45397675 -0.62546307 0.80625576 -0.011401293 0.38848093 0.38943177 0.30299723 -0.28157482 -0.3653723 0.23753193 -0.45417544 -0.52398276 0.4714464 0.05756742 0.14305733 -0.028592667 -0.24543327 -0.17842476 0.32836094 -0.19750422 -0.23055509 -0.36809263 -0.14278392 0.105610095 0.16055816 0.123326235 -0.3125355 -0.29320437 0.19693871 0.3041557 -0.17310776 0.058219418 -0.06679539 0.36463717 -0.020185482 -0.20843577 -0.11116335 -0.17186543 -0.13145407 0.12752798 0.18508282 -0.22703789 -0.14482749 0.17707647 0.5262784 -0.32072154 0.48769614 0.045222007 -0.33842555
129 0.22114453 -0.6395248 -0.71947503 -0.376481 0.06577953 -0.042507406 0.18695843 0.17672431 0.09647805 -0.033492148 -0.33163 0.52381986 0.05225921 -0.1870491 0.13665333 -0.07864417 0.1491281 -0.8109251 -0.16700341 -0.23085146 0.081590995 0.39623034 0.22143248 -0.08828236 -0.39801666 -0.7193703 0.24857023 0.18090814 -0.13065705 -0.06446868 0.30389452 0.30409586 -0.22311495 0.50613105 0.43506682 -0.47309953 0.013167141 -0.10341662 0.28416067 -0.22306235 0.035533305 0.18947649 -0.037574627 0.1096127 0.6294465 -0.1891523 0.35233444 -0.1295672 0.32290417 -0.30432522 -0.24910127 0.042534616 -0.09536422 -0.42424628 0.46396396 0.049897023 0.17979614 -0.1954577 -0.45425397 0.54491395 0.29298458 0.4314475 -0.4113522 -0.025951369 -0.44464573 -0.03637383 0.16272444 0.29394802 -0.33533257 -0.4053962 -0.089153044 -0.09185416 0.035683405 -0.4278034 0.94882596 -0.197951 0.030276759 -0.5850582 0.012664559 -0.28799114 -0.46183264 0.7377833 0.18551394 0.6025544 0.4349028 0.47849128 -0.16174321 -0.19967765 0.2493108 -0.41366377 -0.11414869 0.83162105 0.123221 0.12516633 -0.09326076 -0.12682997 -0.42788634 0.4110098 -0.15248382 -0.12427983 -0.44538358 -0.20698595 0.17211916 -0.013242359 -0.25601757 -0.3203787 -0.3369731 0.25887293 0.20647413 -0.19828695 0.112283364 -0.39735407 0.23496588 -0.09939878 -0.43622822 -0.040935874 -0.17854668 -0.11672231 -0.057180203 0.02796066 0.06864643 -0.33191568 0.3327825 0.35850713 -0.24344493 0.20792928 0.2573418 -0.33632728
127 0.36005282 -0.5677565 -0.3045182 -0.29512107 -0.026064051 0.03748133 0.00012814037 0.09225681 0.06449619 0.14790694 0.009679507 0.46903437 0.0008632372 -0.18792534 0.11455389 0.2793054 -0.113744 -0.56630963 -0.030915866 -0.33370522 -0.038186245 0.33092245 0.17349523 0.034189533 -0.02922799 -0.7935065 -0.073628396 0.24815352 -0.25418738 0.2728823 0.17017189 0.3861839 -0.16578273 0.42311656 0.30903476 -0.49499568 0.08124945 0.0039749686 0.21185176 -0.2128828 -0.07505803 0.17740218 0.1101345 0.059995443 0.6555385 -0.12972996 0.4425162 -0.07221336 0.16031227 -0.30647656 -0.07856938 0.014391297 -0.12123358 -0.44669008 0.62666416 -0.19642407 -0.07017546 -0.4559894 -0.38193426 0.3485643 0.13320369 0.4470937 -0.5316936 -0.067751415 -0.38765314 -0.103416525 0.09507662 0.14526394 -0.5196249 -0.26037937 -0.33443564 -0.30819502 0.08110791 -0.30307832 0.80830944 -0.22664526 0.0521913 -0.4905663 -0.037849233 -0.5523079 -0.5132047 0.65094346 0.19483095 0.5331731 0.51871085 0.46936768 -0.15796652 -0.26732415 0.12768155 -0.37769687 -0.17937236 0.5872357 -0.00034782008 0.097852565 -0.087134436 -0.32900113 -0.13138947 0.4200615 -0.0018620816 0.03214886 -0.35949963 -0.053794287 0.010274493 0.0680881 0.20574848 -0.48053753 -0.43077707 0.21317212 0.10977501 -0.2674938 0.16601175 -0.38227302 0.23467612 -0.12756556 -0.3859128 0.091067605 -0.11753727 -0.16929978 0.29281357 0.2739312 0.014985846 -0.17850517 0.06972149 0.2316764 -0.37906054 0.23444436 0.09238591 -0.3887915
57 -0.23386253 -0.5763087 -0.05407236 -0.7717785 0.40491095 -0.124875195 0.5673811 -0.058892753 -0.0036007299 0.08093733 -0.015523779 0.24636959 0.24952437 -0.031268906 0.007447153 -0.4740639 0.20316608 -0.7521415 -0.13842203 -0.27473938 -0.16522895 -0.29398322 0.60731703 0.42515823 -0.33397955 0.13414097 -0.046153225 0.029434254 -0.054382246 0.50386894 0.15411793 0.05959787 -0.35054037 -0.04201781 0.18998149 0.441697 0.11765572 -0.21502331 0.22571263 -0.114808686 0.33713207 0.13177463 -0.1868051 -0.253416 0.36487576 0.05463109 0.17966443 -0.14890152 0.45671925 0.020640802 0.070864186 -0.07881746 -0.26265666 0.55601126 -0.11562394 0.27849337 -0.052796975 -0.6859281 -0.37550208 0.28737175 0.45592412 -0.102996595 -0.276989 -0.2406442 -0.04651849 0.44256642 -0.0908767 0.15267572 0.38355252 0.28472075 -0.3208171 -0.054892924 -0.092488326 -0.4498426 0.5999523 -0.32740414 0.20320183 -0.4189364 -0.1924507 -0.30044353 -0.5971628 0.6778978 0.12512562 0.3820307 0.1388509 0.26893082 -0.040953547 -0.2452116 0.059917286 0.2558568 -0.51091844 0.82456064 0.09574701 -0.083377786 0.50850266 0.1198888 -0.3193325 0.24767868 -0.21530241 -0.010416841 -0.2730258 -0.04069119 -0.0012320913 0.11074827 -0.33371255 -0.14662264 -0.20824611 0.31286427 0.13581401 -0.044163276 0.28057817 -0.5456532 -0.23791303 -0.34068868 0.17819473 0.15402289 0.26762664 -0.04129311 -0.022286497 0.3405249 -0.09386973 0.21324393 -0.09999468 0.4431863 0.30746728 -0.2639421 0.22118586 0.24081029
132 0.09055562 -0.56193644 -0.5464564 -0.4776842 0.0663219 0.056680914 0.15364067 0.122747205 -0.0062028407 -0.10164608 -0.2347431 0.36046576 -0.09610706 -0.3971567 0.1271057 0.27223435 -0.047425475 -0.6439065 -0.38684115 -0.30338317 0.0825677 0.38092902 0.011468643 -0.24169649 -0.07686854 -0.6606718 -0.114111826 0.22706118 -0.15855168 -0.03714286 0.11431783 0.1463728 -0.24368373 0.5853516 0.4476508 -0.4199139 0.2961512 0.13646941 0.1078693 -0.2624394 -0.03271047 0.28010902 0.01291752 0.16741274 0.6530632 -0.10696505 0.58866453 -0.11040179 0.28074396 -0.34976092 -0.027672224 0.11967491 0.055079624 -0.49058393 0.22699583 -0.04061294 -0.05582987 -0.30048788 -0.58667815 0.37705085 0.033906415 0.19232322 -0.3132162 -0.21144556 -0.5671683 -0.07017201 0.03804267 0.10352136 -0.4160605 -0.25648358 -0.38716885 -0.11234835 -0.06018175 -0.3709231 0.7963136 -0.029548949 0.053734582 -0.35621133 -0.05285324 -0.23309079 -0.60657007 0.6012848 0.24156573 0.69539505 0.31194204 0.45561787 -0.12372773 -0.032467984 0.065728426 -0.3562399 -0.24021994 0.3796987 0.064528964 0.16536029 0.0612898 0.13379186 -0.09927847 0.14771001 -0.12461612 -0.111756116 -0.6273307 -0.07665274 -0.021877404 -0.018521808 0.06846861 -0.4355944 -0.466691 0.13594736 0.24581979 -0.2617064 0.13961212 -0.37883666 0.19728555 -0.19321698 -0.37976965 0.024175012 -0.13425826 -0.23542304 0.078355975 0.2282243 -0.09449498 -0.034383982 0.081180595 0.54514104 -0.2999366 0.21932015 0.022584358 -0.2904189
131 0.20037699 -0.40983096 -0.69964826 -0.24843943 0.050001718 0.025261836 -0.14491549 -0.05733634 0.24881019 -0.05437066 0.06910814 0.3377304 -0.09998086 -0.30857843 0.09558984 0.37688637 -0.08572821 -0.54928243 -0.14934672 -0.1543053 -0.0011789567 0.46820477 0.11892763 -0.39580724 -0.19937871 -0.583162 0.18799081 0.07398641 -0.10423571 -0.0178439 0.3420125 0.1571434 -0.35328537 0.33075413 0.47407725 -0.34817126 0.14993562 -0.015513704 0.05519017 -0.3233976 -0.099705175 0.26188362 0.12910962 0.14710177 0.63343966 -0.29130557 0.47574648 -0.1339133 0.28776613 -0.29125637 -0.16918361 0.031039946 -0.16439772 -0.34613663 0.4908808 -0.014460451 0.16284883 -0.20670691 -0.45420828 0.40694696 -0.093796715 0.29982615 -0.17693835 -0.17202576 -0.32257774 0.12914963 0.07967839 0.3266791 -0.3024597 -0.12099289 -0.18033722 -0.026971009 0.007132296 -0.22739516 0.73795426 -0.18860133 0.095645495 -0.2921864 -0.08938235 -0.5789682 -0.4543565 0.83461845 0.26825315 0.4425011 0.46984932 0.44440958 -0.075761646 -0.008288154 0.12073865 -0.540534 -0.107866526 0.6099368 0.13158779 -0.0130436765 0.14516017 -0.18097216 -0.06342994 0.2147636 -0.07991822 -0.21555813 -0.3168758 -0.21381855 0.13644768 0.22795768 0.13294207 -0.554437 -0.273455 0.28337562 0.15172468 -0.2220982 0.1512321 -0.097408816 0.3272754 -0.14581358 -0.6045313 0.06512885 -1.286267e-05 -0.20502949 -0.031087907 0.3285173 -0.12838288 -0.118956216 0.14410084 0.45529592 -0.48959866 0.16317396 0.2405194 -0.25495455
125 0.13485216 -0.45079452 -0.68959355 -0.33637813 0.21785639 0.05518786 0.0016990929 -0.0115320925 0.020972913 0.170267 -0.17896399 0.43463078 0.017431851 -0.19175877 0.056770116 0.23624788 0.1590949 -0.56420916 -0.004755359 -0.054920293 -0.02493827 0.2603407 0.1792122 -0.027731279 -0.12920664 -0.6580069 0.083747104 0.12255781 -0.14625412 0.22091402 0.3311148 0.20838395 -0.32587478 0.31007284 0.34177187 -0.64989066 0.043748688 -0.18365392 0.29503274 -0.056729347 0.1380496 0.18928032 0.33100337 0.124729656 0.5510785 -0.21599463 0.41780794 -0.11841258 0.16194119 -0.4363057 -0.21669473 0.13964304 -0.24775663 -0.41078112 0.501495 0.0376643 0.053103715 -0.5488439 -0.49669543 0.5623889 -0.1811822 0.078439444 -0.15869132 -0.12599128 -0.3563247 -0.068957746 0.17137168 -0.13483804 -0.4667395 -0.41793486 -0.21210995 0.08193352 0.081985295 -0.27764806 0.803605 -0.046591874 0.13884674 -0.5676322 -0.15834974 -0.39193398 -0.5593331 0.60528404 0.12430265 0.48343307 0.2757304 0.25386867 -0.10610215 0.028625196 0.22137459 -0.510122 -0.08496198 0.5754313 0.020191249 0.2410949 0.14906368 -0.009942398 -0.16273747 0.37314034 -0.18818925 -0.16649473 -0.5179889 0.02736171 0.17551416 0.034091365 0.2512136 -0.24619128 -0.46789327 0.400373 0.20732903 -0.19788876 0.04267385 -0.17873065 0.55492723 -0.15549682 -0.19302808 0.11963502 0.13436577 -0.17162251 0.12092552 0.019288559 -0.14993943 -0.088147834 0.13489746 0.49911627 -0.35000393 0.47059676 0.18018056 -0.24401027
117 -0.028751208 -0.48651466 -0.53402245 -0.53241843 0.19200502 0.015384599 0.1404874 0.05687681 0.028247202 0.010921916 0.09490585 0.46973145 -0.032472618 -0.4129992 0.10202465 0.19109175 0.06940349 -0.67221415 -0.14395462 -0.21141829 0.080184504 0.3214696 0.2664941 -0.026930334 -0.25637835 -0.28254813 -0.044071626 0.21525635 -0.07174309 0.071059585 0.40541282 0.37235865 -0.35241273 0.24613379 0.25452527 -0.47501242 0.15331063 0.0013803239 0.11543989 -0.118381344 0.059604917 0.14192247 -0.025033012 -0.009401242 0.3584227 -0.05747082 0.49807996 0.07864835 0.38163736 -0.2727473 -0.18633185 0.22258732 -0.15016215 0.02741808 0.27977243 0.34809902 0.12097082 -0.41079628 -0.345224 0.22625963 0.017127745 0.39794737 -0.3817591 -0.1352912 -0.4958186 0.22706306 0.22182854 0.32894936 -0.22842096 -0.14224447 -0.24984857 0.16931625 0.07686998 -0.235111 0.8285457 -0.1950178 0.11884839 -0.52545565 -0.121806465 -0.3432229 -0.7918072 0.6972261 0.2806577 0.3059535 0.36734885 0.44214204 -0.032354016 -0.19722565 0.27176544 -0.2075196 -0.23618081 0.6722105 0.0038685878 0.10059386 0.1771853 -0.060653854 -0.20340735 0.41274267 -0.1810804 -0.021230359 -0.38453096 -0.110227376 0.045353197 -0.01049306 0.14764051 -0.48483324 -0.31665415 0.15589803 0.15154198 -0.106164224 -0.14627789 -0.23020145 0.3213154 -0.24795246 -0.17289579 -0.037657958 0.24601704 -0.2329692 0.19447103 0.43152526 -0.1477261 -0.024137257 0.38343683 0.47503558 -0.26589245 0.28571147 0.08339195 0.08963366
121 0.20250276 -0.5855407 -0.6902682 -0.31521067 -0.010906186 0.1985486 0.18702133 0.058126852 -0.021845965 -0.0014133548 -0.20863749 0.4138939 -0.07250278 -0.3692117 0.23208381 0.3001548 -0.014317446 -0.5610004 -0.19438861 -0.254053 0.05599017 0.2960746 0.36376598 0.016132116 -0.093196735 -0.59968805 0.22673975 0.18364118 -0.013911916 0.33011335 0.37733072 0.38235012 -0.40337446 0.6260886 0.44006956 -0.3405111 0.0166498 -0.019413276 0.1270491 -0.1279032 -0.033572648 0.26173246 0.30511525 0.22337635 0.44062358 -0.072180174 0.4805322 0.102738366 0.30378145 -0.14257963 -0.070015594 0.35243508 -0.084343195 -0.28991744 0.44971412 0.16244437 0.1355724 -0.037501544 -0.3468453 0.36922035 0.07129395 0.28783318 -0.19300638 -0.013403142 -0.51305956 -0.18071091 0.07860152 0.16193321 -0.4022868 -0.29867545 -0.1588016 -0.11232378 -0.09012591 -0.18259583 0.7910137 -0.15869498 0.013837259 -0.31807402 -0.082503326 -0.5478878 -0.6006826 0.6412905 0.20623979 0.3364301 0.4033035 0.59104556 -0.19127129 -0.24315655 0.18553388 -0.38539875 -0.006348786 0.45696998 -0.0072560916 0.31912598 0.07929308 -0.19028416 -0.21874416 0.33082768 -0.04552286 -0.15123391 -0.6104549 0.12113073 -0.13030514 -0.094752744 0.2392492 -0.51289093 -0.48402724 -0.010933483 0.098100334 -0.28444278 0.031579524 -0.18232709 0.40687475 -0.19341694 -0.42053628 -0.07589046 -0.27422646 0.007249349 0.024167364 0.37961996 -0.21162805 -0.31784707 0.23946306 0.18743849 -0.3207579 0.35920626 0.1496569 -0.24109696
122 0.37582284 -0.41675463 -0.57896596 -0.46057248 -0.16295147 -0.13886881 0.08192086 -0.07635878 0.1193525 0.23312889 0.03217543 0.3168519 -0.16189717 -0.34610617 0.17985521 0.27605894 -0.14507122 -0.6116454 -0.009565108 -0.33483085 0.21221457 0.45941636 0.23038901 -0.18459386 -0.23128125 -0.735069 0.056054264 0.00488606 -0.22055641 0.08578481 0.33434987 0.12004874 -0.45675406 0.5872199 0.4241525 -0.5009485 0.081561856 0.027022842 0.1636644 -0.118988805 0.06930043 0.3856861 0.0994569 0.19047156 0.55387336 -0.13503963 0.5021087 0.028015276 0.18385404 -0.4099887 -0.04681232 0.37981254 -0.15960118 -0.16610464 0.6299314 0.00023649106 -0.060715545 -0.25577867 -0.48125336 0.33154333 0.09440032 0.45487988 -0.29047856 -0.02378905 -0.56842536 -0.04705951 0.11707062 0.12109169 -0.41510403 -0.12808627 -0.27472067 -0.14676501 0.18860719 -0.1855376 0.761849 -0.05796444 -0.012347501 -0.39550123 -0.14365816 -0.30195785 -0.4559358 0.55546975 0.25855887 0.6703788 0.4371066 0.45100632 -0.17706472 -0.1362571 0.12897047 -0.41631016 -0.12850496 0.6871418 -0.14863187 0.3090689 0.089082815 -0.08083282 -0.05776532 0.3855687 -0.22017278 -0.04379334 -0.48603395 -0.2028146 -0.14438933 0.15435015 -0.055954795 -0.21868742 -0.22928005 0.1287213 0.29053703 -0.17273623 0.27935243 0.0049360287 0.27391428 -0.06979876 -0.3062157 0.008540647 0.08673804 -0.20018335 0.113270834 0.33058771 -0.017787406 -0.20505221 0.056668565 0.5293951 -0.16715942 0.35084376 -0.012390353 -0.09376796
115 0.2716637 -0.47975335 -0.63088876 -0.5133788 0.21232267 0.19074908 -0.14734393 0.0574592 -0.0014237949 0.070668 -0.1158556 0.5420837 0.05498555 -0.3140221 -0.0368048 0.37704542 0.09155281 -0.63628787 -0.2405868 -0.24147573 -0.15071113 0.14918394 0.26395252 -0.18509053 -0.0074107326 -0.42594582 -0.105042145 0.2593744 0.08926461 0.29106393 0.049936384 0.36034912 -0.5680789 0.5043302 0.6460157 -0.042978913 0.100687094 -0.028648904 0.13787664 -0.08780233 -0.062236886 0.3240561 0.35863733 0.18995118 0.48819262 -0.017484559 0.38618818 -0.007256306 0.20050189 0.02203442 0.08801893 0.19591384 0.0066323415 -0.43065763 0.3936029 0.06314231 -0.06852916 -0.3077101 -0.4012066 0.22503677 -0.11290022 0.31865695 -0.2673233 -0.0836089 -0.47219193 -0.0419639 -0.0075598 0.27350658 -0.43605357 -0.2733731 -0.17511296 -0.09135818 0.11307377 -0.36269155 0.6630445 -0.059528198 0.015243359 -0.35299045 0.018580815 -0.627991 -0.27537042 0.7468586 0.11333191 0.58470047 0.4182588 0.56947684 -0.120605044 -0.41865647 0.101815104 -0.33061665 -0.32757 0.52598774 0.08303767 0.018154865 0.23768602 -0.1123576 -0.17405184 0.30632576 -0.110556565 -0.06648095 -0.37403813 -0.19432862 -0.01164466 0.2125588 -0.007995642 -0.21242195 -0.33997697 0.3733212 0.14283587 -0.14998758 0.06659868 -0.15595937 0.48222655 0.028035648 -0.26839456 0.107210726 -0.16372252 -0.13488127 0.18229152 0.25954154 -0.21935132 -0.29591268 0.16923167 0.31838393 -0.30947587 0.26142895 0.25109127 -0.44883534
741 0.43981716 -0.582662 -0.23835556 -0.37577438 -0.26172423 0.042040747 0.19808242 -0.047933538 -0.3194484 -0.047589827 -0.42713776 0.10147697 0.027984047 -0.11664136 0.41244382 0.11712764 0.10129983 -0.49773845 -0.17352048 0.17082593 0.20115721 0.8493064 -0.34310132 -0.042945012 -0.074883096 -0.8082666 0.20693971 0.0067405556 -0.07947634 -0.3289079 0.1754492 0.033906657 -0.18890664 0.583347 0.49557832 -0.40206894 0.1047476 -0.19132456 0.30999166 -0.42058545 -0.27397147 0.37198943 0.07144899 0.16003616 0.587885 -0.056721225 0.08875077 -0.076651245 -0.059138607 -0.27573228 -0.29678774 0.03681917 -0.32523844 -0.55323404 0.29505515 -0.2703581 0.55031747 0.14469773 -0.5221035 0.3811713 0.16939357 0.29346943 -0.15467578 -0.2011205 -0.33317634 -0.04689845 0.056752466 0.33902302 -0.40273884 -0.5685793 -0.22429596 -0.6351752 -0.23442055 -0.4460577 0.8733884 -0.14317939 -0.014090197 -0.11252204 -0.083971374 -0.3044363 -0.5165192 0.8517248 -0.14266454 0.29469055 0.52263117 0.30782893 -0.4497739 -0.18948956 0.2000608 -0.5044284 -0.57390773 0.37562466 0.44453502 0.22209497 -0.1924554 -0.32364634 -0.033689894 0.2833515 0.115242146 -0.18208511 -0.14701606 -0.17918976 0.31286895 0.17546816 0.3560796 -0.21846975 -0.2319247 -0.26921466 0.10638965 0.011410685 0.17715433 -0.16405621 0.09311186 -0.11225995 -0.04711128 -0.25854176 -0.35809156 -0.26108578 -0.06885416 0.00092744664 -0.26512524 -0.3096949 -0.04997135 0.32452095 -0.16866459 0.29707444 -0.19851245 -0.19996105
123 0.3824965 -0.36377388 -0.5570595 -0.64442617 -0.027822243 0.18317612 0.25498116 -0.09213545 0.058229633 -0.10586758 -0.2018812 0.32125646 -0.09667619 -0.36296567 0.21264254 0.023655774 -0.08261211 -0.47496986 -0.07220124 -0.27931535 -0.088893585 0.20157233 0.19397312 -0.39432016 -0.18810377 -0.59326375 -0.13664311 0.14044394 -0.05333528 -0.094850324 0.317022 0.39816305 -0.4726137 0.38529685 0.55230224 -0.4003416 0.12893032 0.048112676 -0.017915735 -0.31208342 0.14270462 0.3155407 0.27945915 0.08181268 0.6370953 -0.057213545 0.5770384 0.011926645 0.39838803 -0.37644264 0.10132567 0.1275887 -0.06427308 -0.2893771 0.6491703 0.14351389 -0.025074266 -0.21509318 -0.5744118 0.4238659 -0.14298709 0.27688643 -0.35286847 -0.16255693 -0.34303874 -0.030611498 0.11147915 0.35020536 -0.40608075 -0.488624 -0.40144265 -0.17775884 0.3163261 -0.3714559 0.88908774 -0.06300437 -0.02164917 -0.54189146 -0.01346313 -0.528386 -0.40438223 0.65242994 0.14586197 0.6995153 0.5569764 0.41588312 -0.23605067 0.01747481 0.21033654 -0.36229694 -0.31617305 0.5797484 0.13644882 0.17081058 0.033253495 -0.056703333 -0.17443667 0.37372926 -0.029608766 -0.1691383 -0.29699218 -0.026029114 0.08723859 -0.07468471 0.20870458 -0.23969291 -0.29903853 0.036637366 0.07547893 -0.282713 0.080213316 -0.15747619 0.39121404 -0.21803018 -0.119533785 -0.07624706 -0.24696821 -0.17963481 0.05251993 0.25030178 -0.13926451 -0.16059777 0.24708915 0.2359882 -0.45117518 0.1539426 0.23959413 -0.08035014
128 0.24891381 -0.5288298 -0.7228153 -0.4449855 0.017393343 0.058487512 0.11381466 0.09332195 -0.005795449 -0.08317225 -0.43108055 0.43407604 -0.1563103 -0.43421808 0.10295136 0.12592475 -0.020069376 -0.57056165 0.011126812 -0.2352516 0.23255958 0.21950693 0.14735843 -0.0014576092 -0.17746626 -0.59468746 0.2485851 0.25350952 -0.0037544412 0.25115865 0.18837376 0.32528183 -0.32643256 0.47803247 0.24471341 -0.4575529 -0.02471823 0.06406063 0.18979256 -0.29366314 -0.06124423 0.2378901 0.018653888 0.14027609 0.6259835 -0.026647424 0.42025104 -0.035400312 0.2850854 -0.41336566 0.10395353 0.40902752 -0.12910463 -0.35138917 0.5478332 0.029122323 0.16126254 -0.36619276 -0.3738594 0.3378341 -0.055560865 0.39087388 -0.28897643 -0.025928138 -0.60360163 0.1964144 0.05107115 0.43728796 -0.29008207 -0.19560906 -0.23240785 -0.18154103 0.26235875 -0.20053373 0.71079004 0.021265345 0.005809663 -0.19330183 -0.084244736 -0.448451 -0.66723365 0.73851866 0.12386072 0.4547576 0.33506835 0.37014207 -0.20359492 -0.02530941 0.23112302 -0.24811228 -0.32102898 0.3718312 0.04521306 0.36857364 0.054886013 -0.18848585 -0.09344941 0.37410277 -0.0718526 -0.13370429 -0.20136474 -0.06068262 0.14110889 0.098456964 0.025024917 -0.5019336 -0.5560962 0.18895577 0.15823895 -0.013328163 -0.010794714 -0.073002495 0.55836946 0.012987716 -0.40196443 -0.049766306 0.20454054 -0.25836632 0.032325175 0.25853142 -0.093660526 -0.28081965 0.19157049 0.328937 -0.28798327 0.48712504 0.024177948 -0.28648686
784 0.40062627 -0.46300784 -0.5257176 -0.23568478 -0.1915969 -0.109022886 0.023217402 -0.13879262 0.109362185 -0.026832407 -0.28488824 0.08504236 -0.0022717717 -0.015501881 0.5401673 0.24199055 -0.10445178 -0.39733267 -0.28499645 -0.032098986 -0.03728729 0.7434735 -0.005447951 -0.30004933 -0.23032926 -0.7631317 0.36522552 -0.23640186 -0.015039763 -0.28255078 0.15290847 0.15824488 -0.22909269 0.38042974 0.5599967 -0.29274672 0.1336299 -0.06331786 0.06716578 -0.45080003 -0.1987231 0.29320914 0.17617677 0.40290758 0.69416434 -0.22983621 0.32485592 -0.14071032 0.08795049 -0.24482343 -0.3617322 -0.039051436 -0.38674554 -0.6905852 0.3541393 -0.23409301 0.6186142 0.018831227 -0.66590863 0.4280395 0.13762729 0.04449979 -0.030629119 -0.1530619 -0.18058448 0.01756075 -0.22214165 0.38185397 -0.34163132 -0.25716183 -0.088405915 -0.46312705 -0.28903887 -0.31045794 0.7226571 -0.0665843 0.050621547 -0.17506826 -0.03716852 -0.4305914 -0.3441677 0.8759892 0.1502645 0.39216372 0.48599663 0.47767952 -0.24520569 0.16756544 0.036748 -0.60157144 -0.13750403 0.575646 0.5161079 0.12188043 0.0689339 -0.24854906 0.15416443 0.1270124 0.2759959 -0.12971601 -0.19966477 -0.26508403 0.3236517 0.19384395 0.3432825 -0.38246626 -0.20998755 -0.15044256 -0.018288292 -0.06456203 0.38315105 -0.15605387 0.027689222 -0.34122697 -0.5484143 -0.07258585 -0.048030715 -0.33277553 -0.21290956 0.19060929 -0.14538395 -0.32595426 -0.056173965 0.37019905 -0.38199332 -0.06469242 0.020775849 -0.1465103
130 0.2470327 -0.43740427 -0.61560625 -0.29743227 -0.16825448 0.07329999 -0.14688149 0.002995343 0.048200887 0.02681691 -0.15356404 0.5646649 -0.07491658 -0.4521863 -0.13813043 0.34765914 0.21553609 -0.48232532 -0.07640697 -0.2050178 -0.066353925 0.3087965 0.29075652 0.008298679 -0.30656013 -0.6203444 -0.111967444 0.041686904 0.0394819 -0.12915769 0.5152362 0.2271989 -0.09876148 0.45452663 0.4921867 -0.53956294 0.23315339 0.14069784 0.3852634 -0.22983035 -0.115750775 0.31168255 0.041678805 0.15421106 0.4393206 -0.10732162 0.4419915 -0.11649885 0.27858266 -0.25624278 -0.0073107355 0.19168526 -0.025268378 -0.5917935 0.5165479 0.07522606 0.006802437 -0.25638393 -0.4847486 0.20954527 -0.0004639997 0.35758314 -0.17452505 -0.06701473 -0.4359494 0.115848504 0.028437942 0.16548817 -0.70623493 -0.3101966 -0.20936328 -0.15276594 0.2171256 -0.3238754 0.69134206 -0.28238097 -0.007643488 -0.31474945 -0.21220602 -0.35599756 -0.67945015 0.6800397 0.2280677 0.57202893 0.34409395 0.40758204 -0.20605965 -0.20208815 -0.04414359 -0.19152114 -0.15277155 0.71211016 -0.070930205 0.25933444 0.1811082 -0.29207727 -0.24722306 0.17881453 -0.13508084 0.0049839634 -0.4542012 0.116843656 0.1102892 -0.093565494 0.06949872 -0.35591048 -0.3597712 0.16269106 0.15409794 -0.18094273 -0.025355488 -0.19029428 0.56643087 -0.24424511 -0.37071955 -0.01926397 0.17997262 -0.37382248 0.07975008 0.25704825 -0.12038934 -0.33258766 0.2952174 0.45904392 -0.5330099 0.32516253 0.31167546 -0.2746936
782 0.53467596 -0.55772865 -0.07131184 -0.28618026 -0.17687649 -0.13812841 0.113864385 0.001503306 -0.07190278 0.21730761 -0.33186787 0.14275268 0.07254491 0.08828519 0.5190909 0.13721637 -0.0803689 -0.3401647 -0.039444588 -0.18280816 -0.034226872 0.5967145 -0.028603656 0.14525239 -0.0052266894 -0.9051617 0.07658414 -0.08854774 -0.13563856 0.04576031 -0.01846575 0.27452168 -0.045205127 0.36877015 0.338266 -0.51958257 0.07205729 -0.09487651 0.23096468 -0.39466956 -0.14029075 0.15542714 0.08980291 0.31006777 0.6822482 -0.13420981 0.24661773 -0.03641089 -0.014524356 -0.32265782 -0.3298838 -0.017849801 -0.3821454 -0.7381661 0.4502083 -0.4154975 0.39418516 -0.28298587 -0.5165324 0.3341074 0.26982242 0.23555067 -0.36955732 -0.08935125 -0.21749091 -0.13542075 -0.103355415 0.2775396 -0.51050365 -0.41644397 -0.20799921 -0.6635494 -0.1836637 -0.32571748 0.7504567 -0.04081137 0.08350956 -0.3650724 0.0010284776 -0.40185595 -0.47938335 0.74870116 0.10473467 0.38712373 0.5582438 0.47296026 -0.27393928 -0.0063707978 0.1266881 -0.4041952 -0.20100747 0.5610406 0.36580315 0.15711673 -0.19960216 -0.35392255 0.1806906 0.35918447 0.37221125 0.15189509 -0.16167334 -0.15418172 0.22859421 0.07231125 0.42062768 -0.32069612 -0.38787678 -0.24947271 -0.075754836 -0.031489264 0.32443312 -0.39063376 -0.03765638 -0.30254617 -0.30641225 -0.06639041 -0.043739412 -0.31915298 0.14762874 0.120363906 0.03052637 -0.27184775 -0.11504364 0.15139106 -0.2638984 0.09037845 -0.13286369 -0.1625792
137 -0.19244926 -0.59565175 -0.39007908 -0.74093944 0.2517639 -0.16096012 0.510931 0.014868349 0.1447836 0.09518425 0.18377924 0.42231986 0.21041773 -0.20573556 0.049270786 -0.14913936 0.18700133 -0.86718917 -0.19257532 -0.4299092 -0.12358943 -0.058760352 0.5757847 0.21723053 -0.33905295 -0.053220946 -0.04917632 0.108100556 -0.06787685 0.25412562 0.35009724 0.3856266 -0.3901765 0.113548756 0.19312826 -0.05340095 0.17069814 -0.18484579 0.1560429 -0.17593664 0.1616072 0.028033745 -0.2405652 -0.27152193 0.40617937 -0.028935557 0.38014197 0.048959803 0.5969747 -0.13572074 -0.00027560283 -0.021364875 -0.1945703 0.4006669 0.08885303 0.37911713 0.004730191 -0.74088544 -0.42327628 0.32301176 0.37756807 0.22186479 -0.4694211 -0.23427473 -0.19745328 0.4586861 0.017514339 0.31567547 0.07983986 0.09978777 -0.33494803 0.20276672 -0.011878299 -0.4306802 0.9004147 -0.3266229 0.2144011 -0.64611864 -0.26902002 -0.19306828 -0.87987584 0.79844505 0.346535 0.35352707 0.25400975 0.4505225 0.022243267 -0.22477435 0.1662974 0.14028192 -0.3812723 0.9584629 -0.03450109 -0.071792364 0.36644384 0.059818666 -0.4273753 0.34651995 -0.1999236 0.09369318 -0.4118416 -0.19090053 0.077314325 0.0006602312 -0.20212269 -0.2217268 -0.2394883 0.309683 0.19718717 -0.056724116 0.0083062835 -0.43018827 -0.041968036 -0.39152557 -0.08965761 0.05073455 0.3778254 -0.14960189 0.16028313 0.42782566 -0.011704888 0.12534748 0.19088992 0.42357624 0.11179385 -0.058120776 0.26748863 0.23965238
124 0.33586875 -0.46234876 -0.43548 -0.42074582 0.15051764 0.09289873 -0.08741561 -0.0008289455 -0.0052395486 0.082425974 -0.10697179 0.56815976 -0.117135234 -0.32342327 0.15816829 0.14897881 0.14502493 -0.5201741 -0.1522723 -0.07129512 -0.14400403 0.43171674 0.021944212 -0.11569828 -0.057939332 -0.5858524 0.10251235 0.23098059 -0.18411794 0.067685366 0.13769546 0.094487615 -0.37269107 0.3970348 0.549407 -0.5468788 0.16866253 0.22422461 0.37650305 -0.16797511 0.045431502 0.16366678 -0.061070066 0.09807657 0.54146254 -0.07901575 0.42668182 -0.06281867 0.25896284 -0.50683165 -0.28637218 0.23125559 -0.0987012 -0.4072944 0.5895541 0.008202989 0.22628585 -0.002339045 -0.50794166 0.31125918 0.1353566 0.3964155 -0.4091325 0.0179686 -0.43076378 -0.23351721 0.16285056 0.2974494 -0.21931617 -0.41609123 -0.3496485 0.069480546 0.14311728 -0.29897758 0.7129905 -0.1367065 0.14778806 -0.31939155 -0.10171062 -0.58997285 -0.453961 0.6802635 0.18975389 0.6324718 0.3650133 0.35952133 0.00080677774 -0.25726435 0.034836262 -0.38712588 -0.120727174 0.7104836 0.1534454 0.20696919 0.05840359 -0.09192394 -0.24981028 0.3545252 -0.08884985 -0.08853689 -0.3096971 -0.18476091 0.00023436674 -0.0943905 0.06217152 -0.46747366 -0.45543256 0.31070596 0.099019624 -0.06256804 -0.011812001 -0.057327356 0.3199058 -0.069966875 -0.27463794 -0.006666181 -0.11782331 -0.21900152 0.105556734 0.40855503 -0.3516503 -0.069056615 0.21133433 0.3342668 -0.16813423 0.319325 0.21743898 -0.12944816
780 0.5955435 -0.42655492 -0.380325 -0.42770573 -0.4107836 -0.26185092 0.2123556 -0.2069274 -0.046651475 0.32374611 -0.29952943 0.0046524843 -0.053699475 -0.035292894 0.6330897 0.13706934 -0.15009364 -0.4091635 -0.06633496 -0.14787424 0.12830435 0.7437628 0.11259994 -0.074178346 -0.22019255 -0.9206337 0.26620108 -0.3544379 -0.13503909 -0.13565224 0.17599398 0.072540335 -0.33275247 0.5967801 0.48903373 -0.49402764 0.06672588 -0.09042394 0.19730546 -0.21852198 -0.02284205 0.385091 0.14469151 0.43978193 0.5548428 -0.080888696 0.29736984 0.03825193 -0.06243531 -0.37671295 -0.31523216 0.3324147 -0.42423373 -0.46916062 0.5187481 -0.17108633 0.41716486 -0.022966182 -0.6170209 0.36769843 0.28177273 0.19602215 -0.11947544 0.023709772 -0.4121378 -0.18503393 -0.063631944 0.14158727 -0.44364673 -0.35084918 -0.1713295 -0.5361074 -0.09365299 -0.24243036 0.7245556 0.051342197 -0.031242188 -0.2979265 -0.15272707 -0.12183432 -0.34709233 0.5612164 0.0882021 0.56999254 0.47503284 0.44487575 -0.32865945 0.057209056 0.04699524 -0.501286 -0.122691534 0.64153755 0.20735145 0.44618207 -0.0001988011 -0.15841958 0.13871142 0.31930628 0.12578513 0.018867103 -0.36817336 -0.2457863 0.013073651 0.124331065 0.21329664 -0.009899439 -0.15154836 -0.31594333 0.12537101 0.019385371 0.44765937 0.026198804 0.0036884428 -0.24395286 -0.20251322 -0.148128 0.05553001 -0.28721052 -0.0647633 0.13276109 -0.06302141 -0.38136718 -0.17208932 0.39818168 -0.030809421 0.23151179 -0.22319621 0.073814414
55 -0.33684146 -0.5932118 0.20482248 -0.5186441 0.38558307 0.11202444 0.3033174 -0.07474644 -0.0793745 0.21456964 -0.3108412 0.004059838 0.051144492 0.020586494 0.0963166 -0.54645544 0.23034069 -0.63924193 -0.104515724 -0.27993655 -0.16480888 -0.2896129 0.44809398 0.52723193 -0.25747192 0.19165365 0.21288174 -0.09764569 -0.08592624 0.68873876 0.08984315 -0.3963843 -0.21990873 -0.11550505 0.1668206 0.38326305 -0.054233044 -0.17093278 0.29532367 -0.07661416 0.23838186 0.26487264 -0.3116232 -0.33965796 0.46096656 0.062234346 0.03770052 -0.15850943 0.32482648 -0.06960373 -0.07342817 -0.14866808 -0.43177503 0.43346858 -0.024328692 0.20426013 -0.13472362 -0.5354149 -0.1696152 0.31625873 0.17226449 -0.29666713 -0.07506524 -0.251964 0.13047712 0.48784307 -0.13099848 0.12854835 0.47930908 0.31273636 -0.17761952 -0.25808534 -0.2472386 -0.17738731 0.20356056 -0.110238045 0.41198713 0.10526762 -0.22061321 -0.17377445 -0.4319653 0.47704178 0.20686793 0.28611284 -0.028464183 0.10869599 -0.1212843 0.09207467 0.04623555 0.39112303 -0.29994708 0.5969433 0.29453167 -0.09151221 0.6060283 0.2730329 -0.27579147 0.05025512 -0.2611012 -0.101295106 -0.2686765 0.2286809 0.074196815 0.3076313 -0.25952297 -0.101271 -0.17509645 0.22142376 0.14053752 0.15457208 0.18082337 -0.6266843 -0.3336665 -0.2504901 0.24989569 0.2556493 0.1626837 -0.25677353 -0.30212635 0.17743662 -0.075828224 0.31788343 -0.33782792 0.31510746 0.37503707 -0.13328311 -0.0551616 0.39626667
213 0.29196167 -0.8543135 0.40420404 -0.28779215 -0.13453513 0.22004105 -0.106590465 0.24885903 -0.3720105 0.2084445 0.19687858 -0.26262897 -0.4726872 -0.12332162 0.34425694 0.33113733 0.10565667 -0.35707062 0.025009409 -0.2850334 -0.45826188 0.05376166 0.21215944 0.033428226 -0.1973125 -0.03807349 -0.050020877 0.26270205 -0.004852324 0.4764614 0.2195786 -0.41618267 0.015468573 -0.028147113 0.33288872 -0.26065466 -0.22488803 0.02638407 0.29398805 -0.1346836 -0.2276907 0.4623886 0.038939662 -0.19852048 0.28279594 0.2890095 0.16557933 -0.23736036 0.19515063 0.0033388024 -0.35194826 -0.49685058 -0.21221831 0.114678755 0.45100933 0.24936476 -0.53355116 -0.11998366 -0.056435335 0.7999065 -0.0031108437 -0.43420026 -0.1368623 0.00191372 0.32506347 -0.037224244 -0.4076821 0.40273517 -0.057054527 -0.15273668 0.15389581 -0.31978732 -0.30032375 0.055891827 0.3987633 0.14768383 0.0760339 0.34890005 -0.20137374 0.01923854 -0.43025935 0.54874146 0.41126093 0.22635736 0.34556928 0.4993358 0.0423891 0.07706996 -0.4284145 0.07941705 -0.27848783 0.19150281 -0.11498067 -0.07623754 0.36726665 0.0027951996 -0.086961776 -0.10151377 -0.80664444 -0.07235779 -0.8643127 0.40538758 0.42529538 0.24465151 -0.14976002 -0.18344443 -0.21610592 -0.033316292 0.15825541 0.38644898 0.07898725 -0.6045409 -0.43380436 -0.2815536 -0.07954732 0.3044848 -0.47716296 -0.4966006 -0.14749725 -0.096045345 -0.14306948 0.065214664 -0.4000677 0.05598458 -0.20325315 -0.009237823 -0.109811485 0.46316224
783 0.48553 -0.4269074 -0.36518016 -0.2746258 -0.4049379 -0.0676937 -0.026741385 -0.060286675 -0.11116282 0.036389817 -0.5268877 0.23387834 -0.018649122 -0.1948408 0.42201927 0.26478866 0.16573021 -0.28306648 -0.22535646 -0.07127308 -0.15153292 0.62193763 0.13188891 0.051345013 -0.28111634 -0.84637225 0.17270556 -0.20821148 0.10510732 -0.3364364 0.28899863 0.2016732 0.037446823 0.5004859 0.5703455 -0.5429859 0.20249568 -0.0071904184 0.38713452 -0.3754579 -0.22904328 0.3485976 0.097241595 0.3468814 0.49796245 -0.08406796 0.25140002 -0.15460849 0.009668628 -0.20418064 -0.2458965 0.1124686 -0.2763713 -0.94668573 0.39354363 -0.2232209 0.45665517 0.0058471286 -0.63006556 0.27035037 0.13025518 0.13392426 -0.04754816 -0.012155828 -0.34338102 -0.046149522 -0.20136093 0.28187236 -0.7582129 -0.5023702 -0.0421714 -0.6204289 -0.11711779 -0.39095274 0.67240113 -0.16920204 -0.028125871 -0.15643527 -0.16827825 -0.18125501 -0.5793675 0.72064483 0.09014932 0.4536684 0.41989303 0.46299052 -0.3894464 0.021730317 -0.11465554 -0.309319 -0.17241147 0.57302076 0.31944922 0.39313167 0.10114336 -0.35485935 -0.011666263 0.08847491 0.17719443 0.04447518 -0.28500876 0.047495242 0.33516312 -0.091672994 0.33055758 -0.19726159 -0.2952332 -0.3183394 -0.015021667 0.00633414 0.12635918 -0.2544905 0.25938383 -0.37168214 -0.31489074 -0.13458371 0.0018102678 -0.46344754 -0.14878532 0.06166894 -0.151527 -0.5882262 0.033427365 0.29862413 -0.41447103 0.18576509 0.040833164 -0.17885438
158 0.37476575 -0.5933335 -0.5306021 -0.3384084 -0.16654108 -0.18050872 0.33902118 0.027622683 -0.030751422 0.047930084 -0.51564485 0.24302465 0.20334378 0.15248817 0.5493832 -0.16855484 0.11056889 -0.63965553 -0.27048868 -0.12116124 -0.061975047 0.5452476 0.1238598 -0.0037232533 -0.32405457 -0.78629845 0.36377132 -0.11425706 -0.015184656 -0.22628829 0.038016893 0.385846 -0.12160422 0.4913919 0.42391822 -0.3445807 0.009446854 -0.23133902 0.25739515 -0.3032344 -0.07308255 0.13922471 0.024000097 0.26065043 0.5926178 -0.08887792 0.15188456 -0.08249226 0.096038885 -0.17349263 -0.35858625 -0.02758718 -0.30629787 -0.6478042 0.29942894 -0.15446344 0.5941633 -0.07183365 -0.5855203 0.46918058 0.47296786 0.13647853 -0.25119478 0.006583134 -0.26395935 -0.04987544 -0.10688251 0.30808046 -0.31645557 -0.5001891 -0.03125123 -0.39925337 -0.2119323 -0.48822382 0.8804452 -0.045800366 -0.020095967 -0.48815972 0.0154030565 -0.12617403 -0.3285072 0.7111828 0.013865329 0.42789698 0.38448024 0.47098422 -0.29085305 -0.027973738 0.1644956 -0.42103434 -0.16293314 0.7174989 0.53830653 0.19893543 -0.12298483 -0.23392725 -0.18507794 0.32684544 0.23138471 -0.023879264 -0.26880434 -0.29265344 0.32273963 -0.020217191 0.041964717 -0.058666322 -0.23043583 -0.07245882 0.05944378 -0.015979897 0.29958192 -0.3763542 -0.04944222 -0.2730779 -0.29966837 -0.17012453 -0.13520493 -0.19545141 -0.08666251 -0.08963286 0.030507596 -0.4640222 0.08337141 0.22772284 -0.11467326 -0.00078158866 0.057744563 -0.17276096
114 0.29532844 -0.4571316 -0.553618 -0.3653295 -0.18871944 0.15229034 0.06592327 -0.047022972 0.2467772 0.07390528 0.21908042 0.41124427 -0.013715718 -0.3120867 0.09908379 0.3186921 -0.14114977 -0.7347101 -0.34188387 -0.24809714 -0.39846885 0.23505352 0.50143194 -0.26944155 -0.13493262 -0.61702573 0.16040964 0.22514284 -0.18081485 0.20210573 0.15563996 0.47522277 -0.1412601 0.44677904 0.29489264 -0.37657905 0.093731806 -0.11334121 0.09154339 -0.17531337 -0.10497198 0.13139135 0.0666198 -0.19193769 0.48071533 -0.10161236 0.3906683 -0.1510222 0.2519467 -0.30477154 0.23114367 0.11723691 -0.14866106 -0.2879872 0.6495878 0.021155689 0.03852215 -0.35532674 -0.48296103 0.42017263 0.16119905 0.31050372 -0.20715535 0.09986882 -0.48770517 0.038356982 0.109915115 0.084334925 -0.37044886 -0.16376108 -0.44305032 -0.038186427 0.12974462 -0.48296505 0.83899003 -0.3213946 -0.049383197 -0.30063364 -0.27685416 -0.25879195 -0.49358314 0.48357758 0.08954466 0.5188886 0.25140804 0.5076149 -0.121500514 -0.029564086 0.044012703 -0.42720515 -0.21060185 0.47597817 0.098249786 0.21291074 0.33372372 -0.2813167 -0.45001674 0.2556572 -0.06263782 -0.17834945 -0.5801642 -0.097170666 -0.114091635 -0.02852897 0.13540183 -0.3286897 -0.31174192 0.4865947 0.32820228 -0.2434256 0.088836126 -0.23425932 0.41338935 -0.11689906 -0.41896194 0.10197954 -0.112823986 -0.08785999 0.1768461 0.29125857 -0.1741764 -0.18199378 -0.025831973 0.4077838 -0.2881981 0.37737504 0.3161524 -0.42032775
773 0.4258952 -0.5525382 -0.48469847 -0.49624923 -0.1492226 -0.08523712 0.28452444 -0.007244348 -0.13651986 -0.052500367 -0.7580953 0.12866242 -0.029078599 -0.15271345 0.5523893 0.020252116 -0.04551713 -0.45742857 -0.15696006 -0.11036067 0.13594563 0.47761056 -0.0008554531 0.001414374 -0.13469298 -0.73900914 0.40644908 -0.010541812 0.11781986 0.042245515 -0.06041448 0.37498558 -0.18855512 0.4640216 0.27302605 -0.45489675 -0.027580593 -0.045500875 0.123906486 -0.42244554 -0.15216628 0.23245831 0.05867473 0.34074602 0.68650335 -0.04349955 0.24365485 -0.026997022 0.09823441 -0.44132677 -0.12782636 0.30375826 -0.40672383 -0.67625916 0.3913134 -0.13546091 0.61988795 -0.1878667 -0.587842 0.3864269 0.1111734 0.10803433 -0.14836122 0.012099955 -0.49402952 0.05124348 -0.14451806 0.58018667 -0.3040164 -0.31196603 -0.12211673 -0.5781311 -0.06971383 -0.29751354 0.67581296 0.1360592 -0.05697985 -0.10431769 -0.035339855 -0.24965957 -0.58492464 0.8043198 0.050252903 0.40678585 0.4417946 0.37765536 -0.32287583 0.2037323 0.15170303 -0.3307692 -0.41195208 0.24135236 0.40858665 0.43740273 -0.045758486 -0.18509504 0.10624324 0.33343795 0.24212179 -0.10596689 -0.013612894 -0.13519444 0.29094276 0.10401353 0.28244883 -0.37840268 -0.531786 -0.21533956 0.0017187761 0.21119699 0.14652193 -0.08687715 0.28909016 -0.08039816 -0.32597852 -0.17507118 0.08672205 -0.40813813 -0.13649438 0.11185017 -0.16059549 -0.4226103 -0.048105054 0.24652424 -0.13812077 0.31324944 -0.24093306 -0.15554523
781 0.57295513 -0.44845703 -0.21319808 -0.41535738 -0.08539526 -0.06457998 0.03246799 -0.13037811 -0.087500945 0.18191092 -0.48197293 0.2290554 0.013412784 -0.02673525 0.58701843 0.047599535 0.10783241 -0.34813824 -0.2914285 0.053179447 -0.23435977 0.64199585 -0.06158358 -0.034100123 -0.03768165 -0.76288235 0.2744378 -0.15704843 -0.054931242 -0.12267615 -0.09635377 0.042017736 -0.24234457 0.45140257 0.63951665 -0.48333332 0.18751836 0.10337631 0.33355168 -0.2875345 -0.029938966 0.19249746 -0.026609076 0.3697746 0.5931437 -0.06875117 0.2512537 -0.087644 0.024107471 -0.447102 -0.48074925 0.15764223 -0.3219859 -0.7762575 0.42716923 -0.21117754 0.5943121 0.17741561 -0.7267942 0.3571551 0.33842897 0.12541206 -0.22358008 0.04558666 -0.33244377 -0.38273403 -0.09004791 0.3485431 -0.28767407 -0.56068105 -0.20868176 -0.3763318 -0.16268343 -0.38941893 0.61682236 -0.03115844 0.06678446 -0.20293647 -0.056426093 -0.3546871 -0.32135186 0.70767224 0.064149946 0.6356365 0.42799732 0.40273857 -0.15663478 -0.034430355 -0.09022062 -0.45796567 -0.11769516 0.6543569 0.4894064 0.31490624 0.03358893 -0.11733177 -0.046373162 0.2336143 0.24994574 -0.03157011 -0.20365594 -0.25511482 0.09729627 -0.060540114 0.21596639 -0.2598083 -0.40751103 -0.118128456 -0.053997986 0.11775202 0.2297954 -0.090313904 0.065536305 -0.19902359 -0.23037829 -0.110222146 -0.1979805 -0.34277433 -0.0906166 0.24719745 -0.3548713 -0.26340508 -0.07953656 0.23470014 -0.022344626 0.12486801 0.003313404 -0.03571146
60 -0.2777816 -0.5952234 0.03975225 -0.8089425 0.26557645 0.1426012 0.70976335 -0.2674234 -0.11172123 0.15846868 -0.3883147 0.047187895 0.29811332 -0.06467974 0.022454306 -0.7936547 0.22592187 -0.80366033 -0.04229792 -0.2537076 0.029715694 -0.52135456 0.5441735 0.53840166 -0.11998429 0.1990039 -0.08881944 -0.2589136 0.025065674 0.6058191 0.42832673 -0.32270813 -0.39736706 0.058601633 0.37042174 0.35128117 0.109240554 -0.41892093 0.31069025 -0.3236165 0.21826276 0.30515078 -0.46071073 -0.23819347 0.58454984 0.16281942 -0.044696216 0.061775543 0.48027447 0.10131174 -0.029296108 -0.2842108 -0.42016575 0.6413111 -0.19480917 0.434115 -0.18894766 -0.55583525 -0.2654837 0.48015213 0.3678501 -0.028148653 -0.26984608 -0.5023955 0.11477596 0.5031545 -0.069911614 0.2542377 0.5020583 0.20284627 -0.54588026 -0.3126295 -0.23057434 -0.41714576 0.37745798 -0.33369386 0.1544858 -0.27101216 -0.33528572 -0.07758922 -0.83994275 0.71235037 0.11470527 0.40222323 0.14117458 0.026369005 -0.122393526 -0.22647013 0.0035715844 0.38602197 -0.34981337 0.88862395 0.09093465 -0.18063445 0.39895758 0.17103828 -0.4444412 -0.07341609 -0.23212063 0.02790741 -0.09466961 0.11787574 -0.05921243 0.24777175 -0.39391026 -0.19836608 -0.24644476 0.058269434 0.0593097 0.034981854 0.2384949 -0.66140485 -0.37761697 -0.24010262 0.28548217 0.11393106 0.2831608 -0.2639357 -0.3538622 0.1034894 0.014981771 0.4688757 -0.39477837 0.14447401 0.41415128 -0.104872465 0.026186822 0.4049184
32 0.30004248 -0.5632636 -0.39933017 -0.27822843 -0.14508915 0.32173166 0.11135903 0.017115027 -0.16300757 -0.16503529 -0.25649896 0.17845108 -0.098020874 -0.34865463 0.056175306 -0.0007146463 -0.008775692 -0.5580249 0.02546606 0.26061085 0.55131745 0.6600443 -0.5051274 0.13427529 -0.08395677 -0.57588357 0.28036076 0.15398958 -0.33017698 -0.28428695 0.37723485 -0.40673676 -0.36224326 0.62868845 0.46423712 -0.20150667 0.08045511 -0.18746044 0.4291958 -0.3951266 -0.26269886 0.30681372 -0.084857926 0.016271403 0.60789037 0.17771058 0.08989958 -0.098827556 -0.08373138 -0.15001534 -0.15163589 0.010441664 -0.08563266 -0.14450598 0.27759057 -0.32228795 0.13663478 0.10644189 -0.1206651 0.40569767 0.004422441 0.5522311 -0.2647943 -0.5034061 -0.30330038 0.18293574 0.14039141 0.086117625 -0.019023912 -0.47916993 -0.37836775 -0.4848393 -0.0065611186 -0.25125757 0.75201386 -0.2188448 0.22378257 0.08146947 -0.115583554 -0.46641955 -0.49100876 0.63719827 -0.33860034 0.09357504 0.25656116 0.14236104 -0.43764034 -0.38370237 0.35411558 -0.5587941 -0.5303861 0.25986457 0.33765146 0.055803616 -0.09328382 -0.34199548 -0.25658682 0.13931973 -0.11809866 -0.28942886 -0.16797556 -0.17843172 0.29736364 0.3332026 0.0045582284 -0.27478558 -0.1639079 -0.05391393 0.22695145 -0.25301188 0.14638314 -0.2472133 0.015995545 -0.03875436 0.038342707 -0.15660386 -0.35537925 0.05162763 -0.1809546 0.016229704 -0.11413199 -0.0817352 -0.07247984 0.18751267 -0.22600207 0.3767835 -0.068678215 -0.33766854
779 0.41209725 -0.6003801 -0.46545514 -0.34826666 -0.23809211 0.021413678 0.38280612 -0.017482242 -0.13580726 0.07625783 -0.5548147 0.073390834 0.028233776 -0.09966335 0.6962826 0.18103677 -0.049340453 -0.4025745 -0.25632158 -0.12197818 0.031145813 0.57328075 0.2757533 0.11708548 -0.08349234 -0.7635756 0.43683752 -0.1730355 0.04444551 0.09733973 0.22215845 0.37115535 -0.25860137 0.6585609 0.4600915 -0.39092377 0.024356699 -0.17716192 0.11196958 -0.26028472 -0.09584673 0.24818201 0.30140367 0.3966565 0.47830072 -0.05501543 0.29310408 0.11909483 0.08453881 -0.12974252 -0.31780154 0.2708887 -0.3489018 -0.56003207 0.28441003 -0.025334662 0.548921 0.11684591 -0.48259276 0.4298768 0.22884111 0.09444517 -0.09708967 -0.0044547827 -0.40192315 -0.2875818 -0.089396715 0.2405179 -0.43032122 -0.48820132 -0.0022101197 -0.52474153 -0.38317838 -0.26870677 0.8106233 -0.09536293 0.0077581345 -0.27249503 -0.0720088 -0.32022035 -0.5636399 0.6668663 0.06912615 0.21518254 0.48679155 0.64791256 -0.33251953 -0.028994216 0.16099921 -0.4503546 -0.03576808 0.37472448 0.32760775 0.43594557 -0.01270294 -0.26980546 -0.02962952 0.30798337 0.2537327 -0.08361692 -0.48430258 0.023814468 0.04540406 -0.09260988 0.4700809 -0.35582393 -0.41830316 -0.5070356 -0.056910023 -0.0914384 0.16512674 -0.23758517 0.08611248 -0.38203534 -0.33987793 -0.22519934 -0.30250707 -0.0901329 -0.1334807 0.19689077 -0.18668854 -0.48739162 0.031637527 0.06381594 -0.17174709 0.24278478 -0.108546086 -0.057109606
768 0.36346036 -0.4256624 -0.47872645 -0.33209187 -0.019876132 -0.12640259 0.12882255 -0.11043601 -0.13646871 0.2482489 -0.47395852 0.11344739 0.1227826 0.07528143 0.56566584 0.1303801 0.15751594 -0.39891598 -0.1093037 0.090159446 -0.0724806 0.5609518 -0.025335416 0.06389524 -0.13615896 -0.8666095 0.3562294 -0.17856976 -0.033549823 0.00069731276 0.17201346 0.13372001 -0.2347956 0.3870183 0.4648107 -0.647573 0.0409882 -0.319933 0.3576078 -0.21876882 0.0067129266 0.2035423 0.25646004 0.31209546 0.5891397 -0.16622424 0.18438162 -0.09836608 -0.061573494 -0.3990011 -0.482498 0.098707154 -0.48702797 -0.7085261 0.38960978 -0.15668853 0.53464496 -0.27566037 -0.6630647 0.5289355 0.018016083 -0.036474098 -0.05344787 -0.08182094 -0.27751347 -0.14000902 0.0079575665 0.06992238 -0.4731961 -0.66686684 -0.09074419 -0.32344383 -0.19307911 -0.3532937 0.7599372 0.05931027 0.08955829 -0.4855423 -0.13057546 -0.19676027 -0.5013045 0.7370115 -0.021520494 0.39650497 0.39001417 0.2952561 -0.24924901 0.19415861 0.1553487 -0.589504 -0.123438865 0.5643392 0.42125314 0.36884007 0.047245234 -0.13966547 0.013532413 0.29902694 0.12664835 -0.11424826 -0.2899512 -0.11918607 0.34937605 0.058793064 0.42839134 -0.051292468 -0.37952623 -0.024478303 0.061746974 0.03417927 0.19548872 -0.1513201 0.30617437 -0.23387082 -0.12237531 -0.06679331 0.034255225 -0.2856365 -0.04212692 -0.09767919 -0.17221813 -0.3238215 -0.0674048 0.37486038 -0.17613146 0.39170408 -0.055325132 -0.072681434
758 0.5760124 -0.38913622 -0.33039752 -0.61748827 -0.20343708 0.051401794 0.34565112 -0.15352814 -0.037595466 -0.041923746 -0.5781731 0.05483567 -0.048436947 -0.10412506 0.5867726 -0.15910456 -0.04592374 -0.25919497 -0.11121896 -0.17533973 -0.15092266 0.44043493 0.09162388 -0.29249397 -0.19890788 -0.74717253 0.049374927 -0.17633863 0.038226236 -0.32689762 0.14036135 0.34010944 -0.2786322 0.37169048 0.57328093 -0.4382092 0.11810753 -0.012706746 0.0015960578 -0.4531292 0.08432534 0.29696932 0.24177879 0.26713473 0.7061966 -0.09733693 0.38496718 0.0014997533 0.22215265 -0.43458146 -0.089155205 0.042820215 -0.31027842 -0.66601515 0.54453665 -0.0767866 0.39134428 -0.02957524 -0.72604436 0.42273325 0.018534511 0.0782326 -0.22042489 -0.13096887 -0.18312694 -0.13473356 -0.046996854 0.475149 -0.4354271 -0.65147114 -0.27338913 -0.5551083 0.11355535 -0.42748627 0.8179324 0.071926475 -0.054998934 -0.40936774 0.040420964 -0.36193728 -0.32993773 0.65862966 0.08790187 0.6376176 0.6053976 0.4409315 -0.38034433 0.25450033 0.16952178 -0.37584627 -0.31172517 0.5361578 0.4678699 0.26703042 -0.0919023 -0.08441825 0.024750948 0.3253717 0.28625506 -0.07795251 -0.13043857 -0.06805042 0.25788906 -0.13052703 0.3801413 -0.092878476 -0.26646304 -0.37790555 -0.09877676 -0.07654764 0.20817572 -0.22680892 0.12312761 -0.35602415 -0.078112625 -0.22423893 -0.2512113 -0.3352979 -0.1332287 0.07523607 -0.104157515 -0.3117027 0.07338849 0.1448497 -0.31105152 0.01739906 0.04694905 0.05424378
138 -0.08168702 -0.5921493 -0.6327723 -0.53155047 0.00039068193 -0.113438636 0.6171122 -0.1060056 0.182425 0.045913875 0.042861503 0.34390688 0.39550757 0.07645839 0.02449686 -0.42120972 0.2948759 -0.929816 -0.293985 -0.29929528 -0.31866664 -0.2241132 0.6894918 0.12523077 -0.3659902 -0.062462572 0.016979283 -0.009317097 -0.068060644 0.034057494 0.13774773 0.48872176 -0.32685947 0.18233743 0.2501018 0.12707922 0.08177434 -0.3085106 0.21327741 -0.20826031 0.038445514 -0.070602775 -0.19722432 -0.2427256 0.3549388 0.13297272 0.18131669 -0.050614465 0.4823114 0.14969155 0.12033401 -0.19673109 -0.18722919 0.2980102 0.07206869 0.2196501 0.056258403 -0.56945115 -0.41190434 0.49048802 0.7528515 0.079553574 -0.42377567 -0.1377257 -0.10803381 0.4284563 -0.20004645 0.107378535 0.117676415 -0.006730186 -0.36534977 0.06811395 0.030035611 -0.66257864 0.9034426 -0.39992106 0.015596855 -0.49312997 -0.25633708 0.0007070175 -0.44697636 0.6096286 0.050087336 0.36021423 -0.060780246 0.36007977 -0.08267932 -0.25059372 0.07039574 0.037711073 -0.3092549 1.0003458 0.2526149 -0.07992448 0.44788793 -0.1022401 -0.6299937 0.1498729 0.015658136 0.0856977 -0.37481967 -0.34987086 0.18066213 0.031133635 -0.3651841 0.16880053 -0.048235632 0.52661675 0.2897341 -0.1684438 0.20354065 -0.44504747 -0.2099684 -0.41338515 -0.085663304 0.06448368 0.23203474 -0.018946394 0.04196035 0.1354515 0.021517206 -0.04894468 0.053952567 0.2119835 0.05798906 -0.35163978 0.4743716 0.00088228367
86 -0.1881887 -0.5474637 -0.41042992 -0.62120765 0.05964598 -0.0867228 0.8282653 -0.14217272 -0.07805962 0.014520375 -0.0661672 0.19080848 0.32940373 -0.08342066 -0.102101676 -0.21294174 0.33583388 -0.85139674 -0.022097437 -0.3868362 0.015408694 -0.3940412 0.6152866 0.24068095 -0.11292673 0.09841392 -0.40451762 -0.07927189 0.17708753 0.31043243 0.35911927 0.2096949 -0.33418337 0.2563261 0.39195323 0.110078506 0.069417626 -0.33885542 0.15225303 -0.22762845 0.08665164 0.16136454 -0.20234019 -0.14064959 0.47889918 0.12035939 0.17049837 0.14646354 0.5891654 0.2060845 0.07550386 -0.31691408 -0.12389801 0.5592041 -0.16825077 0.5698162 -0.2069109 -0.6341073 -0.21266112 0.48634014 0.5836821 0.19414906 -0.48243612 -0.29921612 -0.093221255 0.3189525 -0.0881447 0.23293081 0.07043992 0.018705294 -0.5021662 -0.034401514 -0.085839495 -0.43015736 0.74637455 -0.46080476 -0.1408892 -0.6586836 -0.3731505 0.011010124 -0.8478923 0.7281223 0.2371121 0.30870956 0.19654213 0.15250182 -0.029971952 -0.21990839 0.021980612 0.27098486 -0.27670544 1.0041395 -0.05466978 -0.1102156 0.34517834 0.06974264 -0.54078203 0.054211453 -0.05374606 0.10039721 -0.38840958 -0.13897675 -0.02496453 0.15566304 -0.16019273 -0.13961224 -0.24612965 0.16038933 0.23580693 -0.09491872 0.20023823 -0.38890952 -0.14296645 -0.27335837 0.16748385 -0.0400114 0.17524154 -0.26522416 0.14241214 0.25948068 0.1079782 0.374882 -0.07253222 0.16391812 0.0073102424 -0.29479092 0.2649337 0.16828857
71 -0.1680417 -0.46261728 -0.2504772 -0.5519716 0.05264777 -0.09260277 1.0333669 -0.36257774 -0.31597966 0.03636698 -0.6935805 -0.070988834 0.2749512 -0.08832347 -0.12543897 -0.444528 0.45542783 -0.567138 0.26682538 -0.24084519 0.35972607 -0.48383865 0.41284987 0.3517173 0.010251827 -0.13264297 -0.40898034 -0.24304047 0.3043085 0.4308768 0.48821452 -0.15959673 -0.38386232 0.32302678 0.62319595 0.18547085 0.029122481 -0.37540016 0.18514006 -0.34569907 0.18914182 0.30226097 -0.07460956 0.037449643 0.6848888 0.034114715 0.021021971 0.15626064 0.5223711 0.15922762 0.08204232 -0.43593094 -0.18574739 0.5560942 -0.3366474 0.49074775 -0.22919194 -0.4457955 -0.09020232 0.54893893 0.44302243 0.12454661 -0.37093222 -0.5080619 0.026950084 0.17196287 -0.15756592 0.20447396 0.17236081 0.033252377 -0.5733783 -0.39533436 -0.21040663 -0.27859646 0.49110112 -0.4748657 -0.24632882 -0.4666718 -0.48016882 -0.130601 -0.89318544 0.66785806 0.2816911 0.2490355 0.31566176 -0.27279603 -0.30949274 -0.04307191 0.009076014 0.3372753 -0.20433551 1.0672596 -0.24534072 0.044942547 0.2395299 0.2096854 -0.38837817 -0.17993294 0.058827054 0.014724594 -0.17917387 0.015717834 -0.10753394 0.27634835 -0.026598543 -0.18600723 -0.30239832 -0.08002528 0.20631951 -0.1320006 0.42120612 -0.17577767 -0.08272115 -0.12539817 0.34828588 -0.10725633 0.00772643 -0.2813523 -0.08613451 0.2533975 0.017384712 0.55087084 -0.25350952 0.13915986 0.010094108 -0.29959565 0.22362614 0.1388404
561 0.37184545 -0.89087284 0.29410955 -0.3742509 -0.3703295 0.29039568 -0.024098868 0.10609813 -0.3309163 0.29236585 0.16973823 -0.44954342 -0.21971816 -0.25494087 0.35761392 0.5269113 0.060326125 -0.4697113 0.33782384 -0.15490325 -0.45370045 0.11300045 0.15031749 -0.17858124 -0.1041912 -0.18655358 -0.2955846 0.41895196 -0.025171293 0.34172532 0.35337391 -0.49190587 -0.05853937 0.14917602 0.44705558 -0.3838129 0.0686794 -0.3793117 0.357922 -0.24473988 -0.4453096 0.43404904 0.1350849 -0.14234525 0.15662052 0.3502392 0.3140226 -0.2552394 0.28504306 0.17558329 -0.3344463 -0.6065303 -0.1540218 0.13048239 0.4273358 0.31231323 -0.50674313 0.083793096 0.15701936 1.0560992 -0.10404707 -0.24328418 -0.39709094 0.10542658 0.40348002 -0.23853011 -0.15948592 0.6053725 -0.19795708 -0.354341 0.07628289 -0.21696137 -0.2330276 0.06477392 0.544312 -0.033980716 0.06665523 0.19235152 -0.2790471 0.11957912 -0.59600115 0.6899109 0.29823303 0.29286888 0.65709656 0.42727518 0.04966892 -0.45285282 -0.5566647 0.039974503 -0.3436071 0.21906759 -0.35829708 -0.22378376 0.22062398 0.030857624 -0.26341817 -0.13975382 -0.90936637 -0.14126216 -0.90405685 0.2198377 0.51425266 0.09764141 -0.24489376 -0.2659776 -0.21715364 -0.10662408 0.22198768 0.25278205 0.047032293 -0.59404963 -0.42024276 -0.21309544 -0.20340136 0.3113068 -0.69281036 -0.29858112 -0.15231968 -0.3119346 -0.17648315 0.09611418 -0.18893825 0.08650017 -0.36079141 0.043587137 0.05498691 0.33385497
140 -0.2785516 -0.774207 -0.39625573 -0.6129006 0.31164357 -0.045791935 0.4899459 -0.16392519 -0.08132792 -0.07480183 -0.12573044 0.34326962 0.41263622 -0.07087317 0.09241123 -0.423378 0.18377286 -0.99509317 -0.14513148 -0.23833486 -0.23427734 -0.24015911 0.4942439 0.1322069 -0.3688391 0.17036955 -0.3091455 0.091817036 -0.014360553 0.28158262 0.04633242 0.6000746 -0.24461238 0.042075384 0.09978985 0.18489635 0.27516916 -0.32668516 0.16380906 -0.10227844 0.13354348 0.14561652 -0.16452174 -0.16497943 0.25414073 0.30174994 0.41524655 -0.040415592 0.38652948 0.38002005 -0.24714133 -0.12595695 -0.07972686 0.5369747 -0.029201591 0.5340147 -0.0625682 -0.6311995 -0.15631838 0.36121678 0.5533027 0.047211025 -0.67160743 -0.1333398 -0.30870727 0.411275 0.0032261526 0.3371933 0.1999951 0.18170263 -0.13566306 0.09488492 -0.04201141 -0.49326688 0.82612616 -0.3776663 0.07148713 -0.6104025 -0.1363805 -0.1174346 -0.5472285 0.78242105 0.08352628 0.34395206 0.19613795 0.35630736 0.019712416 -0.54241186 0.0039169895 0.16726197 -0.4126142 0.9117055 0.09817928 -0.1656938 0.41991156 0.21012019 -0.32756335 0.2311834 -0.1271837 0.07236833 -0.32436523 -0.27993432 0.16932616 0.17718488 -0.33616224 -0.13177024 -0.10698104 0.304642 0.102090314 -0.028910337 -0.06443854 -0.6800409 -0.24026494 -0.3845656 0.04652845 0.17738709 0.27329287 -0.19786091 0.0742478 0.16081353 -0.12386948 0.06374287 0.27626488 0.31956115 0.030866828 -0.40577996 0.16430569 0.21570759
308 0.30609405 0.27916896 0.045449737 0.08362325 -0.46741545 -0.24584329 -0.28666818 -0.3242551 -0.15635657 0.04127921 -0.21368872 -0.09160326 0.11207973 0.18077348 0.25875443 -0.02187966 0.10673136 0.020935008 -0.29172438 -0.22096364 -0.11235191 -0.43842518 -0.1399889 -0.14708385 0.25191414 -0.22139347 0.017443871 -0.118597545 -0.40031666 0.6360656 0.07983128 -0.20063254 -0.39837158 0.4136696 0.6662232 -0.2617979 0.77248 -0.42712396 0.70347977 -0.4561779 -0.06606185 0.23520154 -0.51025236 0.006318791 0.23406471 0.13318647 0.5232781 0.0017394251 -0.013652742 0.30159262 -0.16118567 0.011368434 0.2063913 0.20882529 0.124848664 -0.1881805 0.0963619 0.012190245 0.02103857 0.27117598 -0.09188825 0.09095622 -0.6205648 -0.14438583 -0.21222879 0.05442779 -0.010978139 -0.09095798 0.031994287 -0.21775874 0.059495714 -0.08002669 -0.15079053 -0.16166215 0.7584161 -0.64603776 0.56614625 0.09865694 -0.61339194 -0.075946175 -0.73197013 0.9212214 0.288303 -0.07478091 0.6313788 0.36562613 -0.2608464 -0.33922783 -0.25066513 0.28485507 -0.023107909 0.2705676 -0.20511726 0.093046926 0.41925365 0.054770812 0.093392864 -0.41451925 -0.10737082 -0.47713748 0.2855956 -0.1213244 0.46404442 0.0320933 0.12784737 -0.38043395 -0.024593867 0.06037687 0.2313783 0.13205524 -0.27507135 -0.022835592 0.06920802 -0.31473377 -0.43555042 0.48399568 0.13231502 0.23892346 0.1232808 -0.21722458 -0.3923089 -0.24001347 -0.22873572 -0.32992506 0.32865232 0.0649411 0.38740855 0.030238412
579 0.47241795 -1.1381096 0.18275626 -0.18791088 -0.16190067 0.59139234 -0.06005549 0.12446962 -0.37133893 0.008529678 0.007406542 -0.19576612 -0.25276014 -0.2987731 0.3923919 0.15933092 -0.113966286 -0.4438866 0.26016754 -0.1624361 -0.41569957 0.005060829 -0.06677823 0.0583978 -0.11228965 -0.33802462 -0.15690207 0.10650587 0.15589502 0.26652288 0.40665123 -0.4732637 0.034576915 -0.025655743 0.42718276 -0.44076505 -0.021670243 -0.08210791 0.37747437 -0.2381613 -0.5475504 0.53564453 0.09037679 -0.033677094 0.57440335 0.44453838 0.40415695 -0.11444459 0.2705434 0.12088116 -0.5959266 -0.44747 -0.21929418 0.027751178 0.4653029 0.55259615 -0.66385293 0.04228995 -0.10357517 0.94482386 -0.09831412 -0.35272428 -0.19007799 0.06203478 0.31507462 -0.036858834 -0.3414028 0.50847816 -0.27863443 -0.4426372 -0.07129367 -0.3626704 -0.22886066 0.0045468737 0.5819222 0.20789415 0.052292153 0.34900495 -0.113144815 0.14755525 -0.5143783 0.8346887 0.28812218 0.22936745 0.6100146 0.26106647 0.069826834 -0.045263167 -0.7015338 -0.13584276 -0.36534056 0.19253668 -0.31882292 -0.095089294 0.16680187 0.08677321 -0.23914641 -0.18709283 -0.6553436 -0.10781221 -0.79461384 0.3209459 0.53667927 0.15685922 -0.2200933 -0.10670552 -0.3603674 0.048923265 0.034531824 0.50039726 0.06955127 -0.7265171 -0.44633985 -0.17088957 -0.20059532 0.46721348 -0.48580706 -0.5490932 -0.2443907 -0.25571772 -0.07960463 -0.028787225 -0.16740116 0.011089393 -0.30860975 0.027916163 -0.089519955 0.28912383
310 0.52501047 0.21795526 0.14752822 -0.019085651 -0.32650623 -0.25287718 0.17471585 -0.28546292 -0.11711236 0.133667 -0.144563 -0.20890822 -0.017418984 -0.07462668 0.3708893 -0.010579844 0.1855014 0.0026740346 0.26187176 -0.35550562 -0.37691206 -0.43536255 0.21341515 -0.033101182 0.2723208 -0.11695364 0.27480277 -0.194588 -0.33710995 0.29858935 0.16302265 -0.23909749 -0.4885033 0.31021926 0.7251578 -0.32676068 0.71852815 -0.4681156 0.45006165 -0.54919064 0.017501555 0.35244146 -0.09169954 0.043622002 0.12881039 -0.09516479 0.40342993 -0.02788192 -0.1275987 0.37798 -0.09796415 0.10646681 0.12733449 0.279942 0.16908737 -0.15611921 0.059538808 -0.073992066 0.11462735 0.17802848 -0.28384507 0.02973007 -0.25938386 -0.13110152 -0.3214597 -0.0631804 -0.026663266 -0.43401784 0.085294314 0.017289419 0.31911194 0.07330901 0.08019553 -0.13794619 0.7035933 -0.8158673 0.4424858 0.12988651 -0.7750161 -0.278926 -0.53733224 0.9127085 0.072651744 0.04336746 0.43677896 0.47560254 -0.29103228 -0.21817854 -0.18212156 0.40239295 -0.1422863 0.43848205 -0.4229367 0.21452253 0.3902448 -0.03314618 0.14578514 -0.062407803 -0.19133589 -0.63176304 0.16591339 -0.03554912 0.34560233 0.022409476 -0.11649195 -0.273484 -0.17745861 -0.14826077 0.10855022 0.0519939 -0.28031507 0.10596842 -0.1314542 -0.38640252 -0.38654837 0.41798127 -0.050252207 0.013963284 0.13409452 -0.14651851 -0.38042423 -0.22210903 -0.07726597 -0.54712075 0.29838413 -0.051513556 0.20566265 0.332018
322 0.43803006 0.16262895 0.32249916 0.21025626 -0.3148822 -0.43934923 -0.19090955 -0.4182448 0.010483023 0.12455346 -0.20239328 0.010144188 0.14121456 -0.1231783 0.7510591 -0.12029982 0.30849448 0.084884666 -0.008031237 -0.30821326 -0.2138288 -0.44362792 0.22793871 0.07279085 0.16308545 -0.31584743 0.0336317 -0.12134033 -0.19650316 0.20488122 -0.06728147 -0.1289056 -0.24563715 0.38236254 0.67622596 -0.25224063 0.64190936 -0.44055665 0.48211202 -0.35699752 -0.032631446 0.15222865 -0.16340318 0.066807374 0.35751978 -0.17140707 0.58765596 -0.12928377 -0.11365967 0.060477532 -0.1018818 0.21739545 0.1631088 0.20954894 0.31771964 -0.2631666 0.34060976 0.0060146437 -0.057060905 0.22500211 -0.025340185 -0.1174955 -0.617876 -0.2275942 -0.09137062 -0.058335096 0.106412955 -0.090892375 -0.044805888 -0.12039442 0.22163372 -0.13079889 0.03014908 -0.04272506 0.8793486 -0.54722416 0.4290468 0.21036568 -0.5460314 -0.16889782 -0.5411074 0.7362405 0.29749867 -0.033441518 0.53387994 0.45238805 -0.4567631 -0.40176934 -0.21096124 0.12169976 -0.053931065 0.3966067 -0.11852963 0.07497829 0.43485087 0.06003462 0.18995874 -0.3416963 -0.14246698 -0.14401597 0.05348075 -0.025170486 0.62958235 0.3246345 -0.088909134 -0.13763955 0.05452575 -0.005733339 0.11203929 0.0883534 -0.46714446 0.49012667 -0.03224046 -0.3870103 -0.4303993 0.5047952 0.0022997546 0.31838205 -0.2655418 -0.09735119 -0.14794947 -0.20524368 -0.18346082 -0.42421883 0.22323608 -0.17650484 0.10391331 0.2687033
301 0.4313523 0.14517134 0.1860763 0.14734265 -0.43346038 -0.2055406 -0.29256558 -0.60049045 -0.1789777 0.12356149 -0.20403996 -0.022164728 0.18825595 0.12978038 0.45632565 -0.18192722 0.25401592 -0.016634608 0.052811924 -0.221409 -0.24049704 -0.6119982 -0.06799857 0.030991467 0.24870284 -0.23278776 -0.09505807 -0.09815173 0.02691406 0.23880674 0.14078821 -0.13345233 -0.34049222 0.20316009 0.47204867 0.0023462314 0.7776081 -0.4553188 0.18935804 -0.42672312 -0.012964669 0.37052196 -0.39606535 0.088780634 0.1832594 -0.024350759 0.3520802 -0.06403464 -0.116941035 0.37155658 -0.29889297 0.48532107 0.15249905 0.014299851 0.11944982 -0.01671975 -0.1182473 0.094959535 0.13157336 0.5099466 -0.15432976 0.19427025 -0.5260162 -0.15612748 -0.07872522 -0.23420839 -0.059508555 -0.11664617 -0.14522438 -0.24365649 -0.03530092 0.014055315 0.33477202 -0.21734785 0.8210152 -0.69892186 0.456883 0.15371351 -0.770425 -0.27011445 -0.562167 0.79269326 0.26567525 0.058133654 0.536381 0.23310901 -0.26136312 -0.44775194 -0.33781695 0.06535534 -0.10407582 0.31190714 -0.22888586 0.015207642 0.54301536 -0.07832263 0.15334094 -0.3968523 -0.07581119 -0.61302525 0.13063806 -0.23247217 0.519036 0.065644525 0.06455811 -0.3173108 -0.11983904 -0.21947384 0.3638863 -0.03960688 -0.50592685 0.20609802 -0.18920814 -0.29820064 -0.31005123 0.56243473 -0.1406895 -0.021022808 -0.21401832 -0.14948022 -0.34849936 -0.1430272 -0.03249844 -0.21380982 0.03393319 -0.17922144 0.15691848 0.11702633
316 0.525527 -0.026722997 0.13322403 0.028086187 -0.40340337 -0.12820196 0.029436465 -0.31974158 0.17160548 0.13426033 -0.284072 0.024833335 0.038013045 -0.016044812 0.55663216 -0.120852485 0.19457762 -0.0076851146 0.36707383 -0.2703571 -0.35469145 -0.50622386 0.005871083 0.12862861 0.45899257 -0.17925967 0.029637313 -0.23282772 -0.10707084 0.1745448 0.13035114 0.16076282 -0.44620526 0.37318957 0.6988595 0.025323702 0.59439945 -0.5938284 0.5062113 -0.014482096 0.24225295 0.1559565 -0.33138865 0.32819623 0.14549816 -0.22905606 0.46476862 -0.07149062 -0.07829426 0.16323166 -0.25444794 0.047472693 0.05264723 0.23826964 0.18999226 -0.116193175 -0.024398562 0.015468252 0.08235783 0.43509713 -0.0944995 0.08291776 -0.4592176 -0.21213253 -0.20027138 -0.07759768 0.086368464 -0.01382806 -0.29975215 -0.116988316 -0.128445 -0.08001122 0.10441957 -0.033716675 0.5547111 -0.6188538 0.54170054 0.1469203 -0.8482072 -0.12778378 -0.7070621 0.78778267 0.3331116 -0.1653707 0.6415561 0.5927984 -0.29628927 -0.3102575 -0.3702996 0.06618737 0.041463763 0.3988117 -0.23416398 0.14922109 0.4964218 0.05149278 0.037905302 -0.37110588 0.11355909 -0.3994351 0.18421149 -0.3086095 0.17726547 0.25502086 0.12202069 -0.4216455 -0.1137396 -0.10975512 0.15446958 0.10846492 -0.30204457 0.14569464 -0.12392118 -0.6810374 -0.44357124 0.5367904 0.05935047 0.29311216 -0.024998523 0.16214636 -0.13460988 -0.439764 -0.063245475 -0.52451247 0.2267374 0.071608305 0.37215984 0.15328474
572 0.554481 -0.95129037 0.27562627 -0.3357326 -0.2548529 0.27962467 0.13448316 0.073705696 -0.35494572 0.081610285 0.13895313 -0.28308737 -0.32349554 -0.19832778 0.48266163 0.167417 0.066082455 -0.35074666 0.18673275 -0.1848506 -0.38256925 -0.07475007 0.10641014 0.14940433 -0.09009037 -0.37589687 -0.22532897 0.038011197 0.12215654 0.20393984 0.4019749 -0.46662655 0.031161178 0.037283856 0.6291851 -0.49256954 -0.1348793 -0.041333437 0.32557532 -0.25400746 -0.39342532 0.53359014 0.06518252 0.09653299 0.453065 0.35987172 0.27426383 -0.088537015 0.27414092 0.050310403 -0.563555 -0.4976703 -0.062105246 0.08004118 0.4757922 0.4390055 -0.5907271 0.047798928 -0.11741975 1.042608 -0.07077102 -0.22027156 -0.2179487 -0.015992817 0.3150491 -0.0846912 -0.40425265 0.5136785 -0.35020947 -0.46787345 0.020932289 -0.32990617 -0.19976543 0.0026043118 0.6422329 0.13859923 -0.0126960175 0.33136818 -0.0898323 0.17372563 -0.6164812 0.80197513 0.3507345 0.3210395 0.7552576 0.35108876 0.025426295 0.11487282 -0.62996566 -0.084334426 -0.4261499 0.12752946 -0.53651124 -0.06660282 0.20342723 -0.045492712 -0.095248565 -0.24701096 -0.77995664 -0.16307555 -0.7674907 0.49517986 0.4453446 0.082292736 -0.19069043 -0.055899315 -0.44502145 -0.063564375 0.08007594 0.4320642 0.14438087 -0.4996609 -0.4005043 -0.30951765 -0.19040672 0.4225605 -0.6139302 -0.40148944 -0.26562712 -0.21244006 -0.08836131 0.0147552 -0.31525955 -0.2052106 -0.39135227 -0.04723008 -0.0323307 0.41849247
317 0.5310032 0.14110169 0.123912804 -0.06697603 -0.4530372 -0.21103266 -0.21077032 -0.64980674 0.18711066 -0.003760745 -0.103861034 -0.21347661 0.10144175 -0.12705278 0.41505197 -0.09502572 0.10334705 -0.104362674 -0.13029833 -0.34693566 -0.4415498 -0.5089989 0.15188074 -0.2034219 0.23577894 -0.18044624 -0.066007726 -0.43742126 -0.20408538 0.4095347 0.12459701 0.084187 -0.3619612 0.2656337 0.3216552 -0.122835815 0.54875624 -0.32406217 0.47533748 -0.31079197 0.021115836 0.17681758 -0.2148613 0.14052233 0.20418285 0.12978806 0.56504184 -0.15627384 -0.34951052 0.18193412 -0.14979689 0.016113859 0.2140609 0.14323011 0.2219295 -0.2006882 -0.10073021 0.09473872 0.10843429 0.54543155 0.018836169 -0.06991663 -0.6487431 0.029383216 -0.192127 -0.1159725 0.040022567 -0.09133133 -0.09140893 -0.15523912 0.07667377 0.15168491 0.14156674 0.015036621 0.67351085 -0.63646775 0.4487271 0.26662037 -0.61888146 -0.23359473 -0.45653647 0.62170726 0.14802906 0.030988902 0.6663454 0.7074672 -0.38568747 -0.24799258 -0.36501005 0.18938547 -0.10343135 0.3959057 -0.112853765 0.2578184 0.61654776 0.11424602 0.22172187 -0.23011729 -0.14283635 -0.32997018 0.24950315 -0.097107165 0.4544562 -0.12347192 0.11821932 -0.3523539 -0.12562205 -0.061348174 0.35838103 0.01096454 -0.5887308 0.18266836 0.02618524 -0.40553883 -0.19086537 0.6683366 -0.08991287 0.11324109 -0.138742 0.040979017 -0.41981828 -0.12263559 -0.023489838 -0.40404397 0.18946786 -0.14597747 0.39713886 0.32123324
315 0.40561357 0.12947951 0.0069390116 0.15935904 -0.41770568 -0.19532564 -0.08020708 -0.5992502 0.032889083 0.07412206 -0.42459643 -0.10319054 0.07589996 0.04060667 0.41148955 -0.08697678 0.30137384 -0.06739773 -0.029446159 -0.3491032 -0.2570062 -0.49386021 -0.16964352 -0.0066976477 0.33643422 -0.29781973 0.017022891 -0.28208125 -0.26906592 0.22030829 -0.07911806 -0.07045365 -0.44696972 0.30953842 0.57850176 -0.20990399 0.71488994 -0.32312974 0.36984277 -0.26939335 -0.052372333 0.20862697 -0.26729563 0.0023032683 0.21832487 -0.0143344095 0.48543528 -0.049116682 -0.027500259 0.38415456 -0.09534482 0.17092799 0.019997392 0.09556948 0.34381762 -0.19990845 0.09985997 0.037440762 0.10278266 0.28590462 -0.051705416 -0.12777539 -0.4738407 -0.077392474 -0.23304367 -0.009406293 -0.21256611 -0.15825179 -0.08814888 -0.08572933 0.1664365 -0.117890164 0.07117757 0.08803921 0.46361443 -0.7413756 0.41105187 0.08227624 -0.79995024 0.024746409 -0.49571213 0.6892481 0.1791559 0.154363 0.58213186 0.30671063 -0.35314727 -0.26306537 0.02736142 0.018919857 -0.08902115 0.49350077 -0.36210224 0.07812107 0.37171474 0.21912566 0.1621118 -0.3244482 0.034142394 -0.49468198 0.2070279 0.050499853 0.74902475 0.094097815 0.20574982 -0.6187151 -0.052822165 -0.20822543 0.2616782 -0.23060982 -0.44863763 0.22633152 0.07210174 -0.66316456 -0.29715255 0.78479546 -0.12316957 0.10218089 0.00041886396 -0.14455979 -0.13482493 -0.24531533 0.00030606828 -0.32558015 0.23340163 -0.0020332881 0.14245829 0.23532279
626 0.0311028 -0.61295325 0.23757851 -0.5281783 0.33811668 0.021280924 -0.23263192 0.042239036 -0.14196427 0.10563434 -0.36152306 0.15891127 -0.26117706 -0.32026368 0.24794556 -0.38542202 0.021919984 -0.65751964 -0.36590686 -0.36470422 -0.4077578 -0.11813551 0.357206 0.40326002 -0.038477406 -0.049369287 0.50052726 0.21488146 -0.18966445 0.7494675 -0.00200272 -0.61155564 -0.45256343 -0.13365945 -0.11650054 0.22441982 -0.13452163 0.107650444 0.21350701 -0.1748464 0.19446397 0.31293604 -0.29967985 -0.40377212 0.53191423 0.05464556 -0.009036212 -0.48842108 -0.0915611 -0.15199837 -0.1180392 -0.17899033 -0.48164427 0.24287198 0.45983282 0.01939129 -0.031451028 -0.35330075 -0.45367166 0.5824637 0.19145603 -0.30601373 0.035522845 -0.26014328 0.15734906 0.1193239 -0.105035454 0.42538136 0.28958002 0.45562223 -0.052623995 -0.2664575 -0.23025121 0.27479813 -0.10495583 -0.12213594 0.3498573 0.5008646 -0.47430676 -0.13255847 -0.6521951 0.30906674 0.42721048 0.27180865 0.022427363 0.09606344 -0.115493864 0.1288313 0.050024755 0.13190919 -0.018451415 0.45692766 0.2643238 0.0031815374 0.66043967 0.37344092 0.13031252 -0.35994837 -0.04139321 -0.028262556 -0.3018291 0.33637068 0.29738176 0.42870796 -0.20512144 -0.59862024 -0.2220976 0.28439528 0.28180015 0.013750205 0.12925845 -0.8940834 -0.15026917 0.028706213 0.08158705 0.33842835 0.18243895 -0.50519574 -0.41986954 0.23680994 -0.28518334 -0.12113235 -0.5668271 0.42911065 0.4343917 -0.05776539 -0.21303391 0.24897557
319 0.6614698 0.21951103 -0.009410149 0.050240833 -0.3353413 -0.20012227 -0.09017973 -0.30648562 -0.023993881 0.119839676 -0.28173795 -0.018216446 0.23550975 -0.10717322 0.35058868 -0.02380335 0.21121362 0.12338649 -0.07799427 -0.26156715 -0.09899618 -0.60114115 0.25007787 0.14042486 0.1839593 -0.2975332 0.05400196 -0.32507086 -4.8182064e-05 0.65107286 -0.015152233 -0.07641533 -0.36727527 0.544454 0.51447886 -0.034068905 0.6084274 -0.53966993 0.3776676 -0.34551814 0.10621881 0.22900048 -0.22011349 0.24707091 0.32098743 0.09590445 0.353136 0.03732001 -0.10185298 0.2745543 -0.08417811 -0.060624756 0.09531497 0.14517064 0.24710128 -0.21702224 -0.10014612 0.07688574 0.12973642 0.21575716 0.0070210053 0.29151607 -0.41940504 -0.16559616 -0.078530565 0.097704045 -0.22232188 -0.037418704 -0.06916349 0.119242646 0.14497453 -0.0683506 -0.008096735 -0.059792496 0.79773086 -0.6628612 0.508139 0.13830441 -0.732357 -0.005128184 -0.6050041 0.5038231 0.42282453 -0.044384845 0.25907895 0.33253098 -0.25681484 -0.3724579 -0.27487347 0.31241262 0.16531105 0.5152098 -0.5377388 0.035274584 0.5133388 0.26004234 0.079808265 -0.51142794 -0.09394738 -0.4560104 0.03299007 -0.022518853 0.515581 0.24446252 0.13939473 -0.28099838 -0.30405375 -0.014893909 0.19146499 0.050090972 -0.5908429 0.025658542 -0.02562651 -0.31981736 -0.35513246 0.46937868 -0.29224402 0.29034567 -0.2912908 -0.011869752 -0.54416025 -0.10209666 -0.19309708 -0.43615863 0.07046829 -0.15612875 0.33411115 0.33886796
581 0.46057877 -0.9451049 0.18498987 -0.390814 -0.2777495 0.3739923 0.086706966 0.06586993 -0.24963416 0.16728711 0.04526432 -0.40700725 -0.23679668 -0.22623132 0.39437664 0.24649628 0.025678426 -0.34691232 0.32238412 -0.10567103 -0.40655705 0.0087636905 0.07900573 0.013859869 -0.12203028 -0.3115309 -0.15235883 0.22255826 0.045633808 0.2723372 0.3407332 -0.5379774 -0.033108998 0.0069350894 0.52808106 -0.38634956 -0.052964747 -0.18451361 0.34517428 -0.23138863 -0.47743252 0.40195373 0.069480866 0.047082525 0.29346845 0.41493452 0.26414543 -0.14666796 0.30654866 0.05448626 -0.40441 -0.56445056 -0.25262102 0.17319961 0.45737758 0.41935632 -0.58577883 0.057536058 0.094891384 1.0106357 -0.13269399 -0.30785218 -0.20865235 -0.0028208042 0.34042847 -0.0813037 -0.18924925 0.5056556 -0.20674872 -0.3797603 0.0005266873 -0.29990077 -0.17910916 0.02230243 0.56072015 0.08273468 0.11591483 0.26042694 -0.2323161 0.10203248 -0.5582788 0.75297487 0.22174895 0.28570214 0.6808573 0.42980987 0.046030827 -0.09928113 -0.5860376 -0.053666234 -0.45155308 0.1712439 -0.39367586 -0.16309373 0.2597158 0.017877737 -0.16634393 -0.13953581 -0.780855 -0.1264533 -0.7930136 0.32689738 0.4734713 0.08933129 -0.2240586 -0.16183022 -0.33518198 -0.08237789 0.11574696 0.40950122 0.110183224 -0.5769952 -0.37322155 -0.25687885 -0.16974775 0.34951082 -0.62241185 -0.3280243 -0.31174153 -0.26098078 -0.19763795 0.070983335 -0.23071074 -0.09359486 -0.3233873 0.08107446 0.0055920384 0.41408852
567 0.4512167 -0.9868319 0.240085 -0.46891114 -0.272641 0.34104416 0.08192451 0.09370573 -0.26543853 0.16568948 0.14659216 -0.3555363 -0.25121266 -0.29338223 0.4447904 0.30903164 -0.02177742 -0.4586627 0.22927082 -0.13765743 -0.44825247 -0.05186588 0.22705807 0.025848506 -0.11130991 -0.24177314 -0.19856305 0.2800713 0.053667977 0.2629901 0.31081778 -0.43046045 -0.052827522 -0.016841235 0.5062739 -0.38375685 -0.04057013 -0.12529287 0.3405397 -0.2558013 -0.47866276 0.38740462 0.075010344 0.06417728 0.28901798 0.4187669 0.26672938 -0.17450237 0.29325235 0.061327748 -0.4380779 -0.49774686 -0.17854351 0.115994 0.45368528 0.4138203 -0.5526295 -0.0041467166 0.041068338 1.088911 -0.053136468 -0.23208362 -0.30094084 0.039959293 0.3568553 -0.09104875 -0.26779702 0.6022112 -0.24136984 -0.41586456 0.022149174 -0.23031256 -0.12366555 0.011063109 0.5898765 0.050816808 0.0949297 0.29470873 -0.16540909 0.13160993 -0.6063017 0.72212195 0.29579428 0.28688854 0.684992 0.40045312 0.030812314 -0.141074 -0.5769594 -0.07989552 -0.4378807 0.1712459 -0.4718031 -0.19583303 0.2972192 0.004582086 -0.19829187 -0.18503071 -0.81047887 -0.09361876 -0.78633666 0.38427326 0.46672514 0.08035536 -0.24975352 -0.17698719 -0.28963035 -0.009147513 0.12238599 0.3726532 0.03346453 -0.54208237 -0.32947564 -0.26029783 -0.24593806 0.38379273 -0.56931645 -0.27034426 -0.29835346 -0.27875498 -0.10596062 0.058734275 -0.2678381 -0.087769404 -0.35412967 0.084199235 0.08722417 0.36098385
311 0.39856476 0.16701552 0.009284178 -0.13234948 -0.51931846 -0.21540146 0.029484615 -0.6380513 -0.101383775 0.31754667 -0.3901209 -0.13602337 0.30366322 -0.15663445 0.5416471 -0.114671364 0.33246377 0.16711237 -0.22407009 -0.4332078 -0.347122 -0.6103944 -0.17085208 0.13220276 0.22709504 -0.29369614 -0.10353556 -0.16898265 -0.20410584 0.4672837 -0.010507835 -0.13328284 -0.41972128 0.4127585 0.46707168 -0.23638429 0.6093278 -0.44039747 0.35401177 -0.40423948 0.062969044 0.10933645 -0.17393285 0.13167411 0.28441536 0.18890324 0.5244182 -0.06238861 -0.17590943 0.18113299 -0.026085308 -0.06389365 0.02854437 0.1466523 0.29612485 -0.30679262 0.06515152 -0.07331772 -0.01977887 0.16187128 -0.21703804 0.18231188 -0.582332 -0.12726974 -0.2319159 -0.4304285 0.020962065 0.056320526 -0.19011475 -0.20284802 0.28703558 -0.2111474 0.043893177 -0.08584633 0.7422669 -0.5871608 0.3648955 -0.0068362015 -0.81693333 -0.15307558 -0.5238115 0.6589207 0.38767746 -0.11835779 0.6472775 0.37097567 -0.11707476 -0.48619798 -0.3679733 0.16955969 -0.3206272 0.5282198 -0.37231353 0.078678906 0.3903431 -0.07129952 0.07558097 -0.3566759 -0.038830414 -0.30076867 0.3115423 -0.22648811 0.4289995 -0.044379648 0.14650023 -0.17296344 -0.07944358 0.024170712 0.10512102 0.007806141 -0.32803932 0.14932592 -0.30927908 -0.40017128 -0.3415605 0.47425607 -0.11454296 0.19228846 -0.017322525 -0.07308367 -0.3807804 -0.32258794 -0.27020922 -0.49676764 0.04870131 -0.18301703 0.32102177 0.16692244
785 0.27838525 -0.61353 -0.3506738 -0.46640453 -0.13988453 -0.10328922 0.31302878 0.032778535 -0.18246658 -0.0065699425 -0.58507884 0.079906866 0.03586902 -0.094278835 0.5659421 0.21520618 -0.045874618 -0.49277002 -0.48926237 -0.17362535 0.039662365 0.6045574 -0.12610428 -0.10161297 -0.021383416 -0.84245026 0.03476529 -0.10317859 0.005679705 -0.18373856 -0.11226398 0.16216932 -0.08425772 0.61671126 0.45366845 -0.43998742 0.2983473 0.045434486 0.11025027 -0.34263837 -0.14231068 0.31221035 0.07631183 0.4579649 0.65581584 -0.06985066 0.4199321 -0.0695049 0.048684765 -0.30906484 -0.28782734 0.1000049 -0.17625904 -0.8622342 0.04581424 -0.22349367 0.3863042 -0.1281329 -0.7596188 0.38477495 0.2494908 -0.081756376 -0.15347432 -0.15375088 -0.4718312 -0.22267935 -0.18783456 0.17652613 -0.52113146 -0.4251093 -0.21769583 -0.49366048 -0.39511147 -0.3971177 0.71649617 0.117889926 -0.014138918 -0.2976514 -0.018327259 0.005650558 -0.556362 0.6347544 0.13700023 0.60247236 0.3922414 0.47571385 -0.23531814 0.12921381 -0.051425956 -0.39767203 -0.21706809 0.29556477 0.37201607 0.31633684 -0.04705764 0.09439465 0.13741899 0.08875231 0.22876917 0.015017043 -0.51696414 -0.10217687 0.11699775 -0.038021542 0.3017248 -0.23512699 -0.46046454 -0.30375972 0.06898915 -0.022508841 0.30891687 -0.38894415 -0.032939874 -0.3145113 -0.2940106 -0.110810935 -0.18263279 -0.37615302 -0.045543306 0.094385356 -0.12637669 -0.2294018 -0.12855603 0.44925457 -0.16093391 0.091944955 -0.26748398 -0.14860885
627 -0.22098038 -0.35792288 0.047094107 -0.20715843 0.30725116 -0.22363617 -0.37271145 0.07950651 -0.16439426 0.15548739 -0.5473566 0.2182091 -0.17530748 -0.48611477 0.13473783 -0.21840107 0.1603331 -0.6192205 -0.11905619 -0.14923644 -0.14695962 0.14771554 -0.02118947 0.15265243 -0.17116329 -0.27562058 0.5241568 0.37025985 -0.08682057 0.7664858 -0.27419648 -0.55815876 -0.2740119 -0.14196102 0.095650315 -0.018258914 -0.21191218 0.15285723 0.36050284 -0.1291673 0.021465154 0.58954835 -0.30051744 -0.007462022 0.47508782 -0.04324867 0.19055645 -0.6262387 -0.42545283 -0.21951388 -0.22107486 -0.21402647 -0.42799914 0.26308885 0.27737263 -0.07737576 0.38655505 -0.19381858 -0.4743068 0.5728158 0.28609252 0.06867902 -0.2503626 -0.11100275 -0.008579028 0.19587922 -0.23529497 0.45602387 0.063564196 0.42122987 -0.21969444 -0.38591477 -0.2635913 0.21638277 -0.15082909 -0.22008328 0.42763954 0.16847084 -0.49276608 -0.13867086 -0.40714234 0.42720944 0.22415644 0.039183144 -0.19227327 0.13709663 -0.15288892 0.12870696 0.2074882 -0.21605985 0.26271918 0.57690686 0.2581246 0.005210633 0.3986693 0.5797391 0.1942636 -0.31757972 0.15026796 -0.056330066 -0.25948375 0.15458035 0.32823056 0.5742441 -0.20933928 -0.6220445 -0.17892669 0.33756503 0.27148536 -0.011387594 -0.041371327 -0.76123244 0.32549202 0.15637489 0.114029385 0.50776947 0.14888519 -0.54901946 -0.448656 0.16149467 -0.41419354 -0.2463992 -0.50057566 0.5376798 0.23929922 -0.15215182 -0.18825243 0.08845558
321 0.49448588 0.15316346 0.23550862 0.06577761 -0.3920558 -0.4144235 -0.041102614 -0.470594 -0.17579705 0.2509756 -0.4685751 -0.12817344 0.1815669 -0.04324952 0.4678831 -0.19096532 0.28200108 0.16828096 -0.11682083 -0.43138573 -0.44384396 -0.43555054 0.20153894 0.09274761 0.15109824 -0.35353357 0.2302868 -0.09857549 -0.20983858 0.44513714 0.10754289 0.13838539 -0.3672809 0.32894382 0.66914964 -0.03434698 0.46703634 -0.49409986 0.34198493 -0.3357965 0.35815743 0.1653241 -0.38834178 -0.028783605 0.1837706 -0.24044037 0.41135404 -0.13252433 0.08288162 0.22441217 -0.18439862 0.15194981 -0.122978024 0.26978824 0.4045421 -0.16278449 -0.16478509 0.030356579 0.2995887 0.42322788 -0.23180698 0.0047637047 -0.6295002 -0.09224492 -0.053764142 -0.32089105 -0.037162572 0.07614942 -0.087905824 -0.11772855 0.043193914 -0.0931943 0.14485392 -0.27493897 0.7096236 -0.5659095 0.59303486 0.06769602 -0.90239376 -0.28171226 -0.50421435 0.5730949 0.5179157 0.048202615 0.564407 0.35906783 -0.24921697 -0.29857138 -0.032206114 -0.010312998 0.009445173 0.40894 -0.34257278 -0.0038649347 0.31523785 0.17784515 0.21529137 -0.22681963 0.02694626 -0.5547027 0.064690866 -0.18106832 0.2466677 -0.021584976 -0.017418621 -0.449209 -0.20972675 -0.09847054 0.24595204 -0.08895316 -0.57196546 0.38031602 0.019159038 -0.36815295 -0.37788868 0.4026382 -0.12417509 0.21778268 -0.22218198 -0.2182126 -0.3128239 -0.27190068 -0.22259961 -0.18774495 0.2939974 0.011274482 0.4097946 0.33015254
320 0.5060251 0.22502735 0.27559465 -0.19299838 -0.4211387 -0.2887098 -0.07025435 -0.6082995 -0.211603 0.14862193 0.03175768 -0.110469945 0.21635954 0.08823718 0.462594 -0.2242439 0.10785828 -0.01597465 0.045812383 -0.45698383 -0.38078833 -0.47428092 0.21866669 0.10441341 0.19299148 -0.3034486 0.048780855 -0.23389688 -0.11601146 0.29088616 0.0033734806 -0.107128896 -0.5742434 0.29514235 0.518477 -0.14323252 0.67216665 -0.41768494 0.38559848 -0.48840663 -0.00073405495 0.16828236 -0.2509541 0.26158953 0.49126178 0.09995619 0.3535545 -0.06495544 0.015929336 0.17064863 -0.23621354 -0.13340606 0.102569476 0.08424984 0.46452028 -0.20851986 -0.088832885 -0.23827133 0.14735167 0.10715124 -0.008110878 0.113619246 -0.7289178 -0.34802487 -0.17442481 -0.119072825 -0.19198874 -0.18642253 -0.21170495 -0.014473856 0.19579902 -0.09813617 -0.053319808 -0.1788079 0.5897524 -0.6321651 0.7530666 0.19348252 -0.8134403 -0.2153294 -0.45782664 0.49598148 0.43913367 0.04633089 0.7658576 0.2298646 -0.15162301 -0.33439714 -0.3871689 0.114652336 -0.022760402 0.22831556 -0.27859622 0.1940445 0.32818133 0.042523574 0.08371707 -0.31615898 -0.11298852 -0.322386 0.17040557 -0.11839464 0.41223446 -0.0146290455 0.09162207 -0.37947398 -0.016263327 -0.23726255 -0.03264009 -9.091483e-05 -0.6248686 0.19142288 0.021783046 -0.43952188 -0.33586037 0.47867534 -0.1776742 -0.018384287 0.07503654 -0.006149691 -0.32532015 -0.11582365 -0.18229827 -0.3009585 0.1855576 -0.06835038 0.23202892 0.2228585
314 0.43198636 0.20718041 0.14614953 0.0683249 -0.58416075 -0.16448034 -0.04046941 -0.50248796 -0.07792565 0.18766318 -0.13832112 0.015970353 0.11462023 0.010125423 0.39385533 -0.15428074 0.21488169 0.39709702 0.039982997 -0.56392 -0.4663793 -0.33236435 0.27616376 -0.107623555 0.30957 -0.019735102 0.04455665 -0.2552686 -0.15687315 0.28478757 0.07243375 -0.33903766 -0.33814374 0.59181136 0.5617018 -0.24753024 0.67894465 -0.5044613 0.41430464 -0.20253061 0.12158466 0.32581595 -0.37132293 0.06770055 0.39083204 0.12660106 0.57247347 0.16551472 0.11995038 0.123686254 -0.20100257 0.110798486 0.026310783 0.31681883 0.55009186 -0.123495035 -0.06387797 0.15290537 0.12878065 0.257732 -0.13789418 0.10504335 -0.41262847 0.10323736 -0.12249681 -0.14209604 -0.038134757 -0.099206075 -0.46799248 -0.14676972 0.019315684 -0.46370938 0.05128424 -0.23287061 0.6195632 -0.9419382 0.39807144 0.043982558 -0.5983448 -0.021199584 -0.27854502 0.66257405 0.1751291 0.0047719167 0.6941646 0.36767328 -0.3497546 -0.15347949 -0.29963753 0.14249657 -0.3583132 0.29995215 -0.2532312 0.13548073 0.4798205 -0.029606674 0.20651387 -0.16766368 0.13657296 -0.26958305 -0.02928367 -0.06528422 0.46218112 0.1688348 -0.10469483 -0.41440457 -0.004776799 -0.22137661 0.19938819 -0.060564585 -0.3080665 0.25192073 -0.085376844 -0.29757333 -0.30001837 0.47701526 -0.19809438 0.17324537 -0.08028905 -0.16624348 -0.49023196 -0.11374664 0.026388433 -0.5087535 0.34512997 -0.32227802 0.46273655 0.32258117
192 0.008420428 -0.43774608 0.19345565 -0.0016557397 -0.17258263 -0.017679835 -0.21481054 0.20339608 -0.46111187 0.16835323 -0.08068492 0.10742286 -0.593163 0.044303574 0.12592971 0.005131887 0.5401736 -0.3936155 -0.113553934 -0.12761565 -0.29693705 0.2563883 0.19228576 -0.2857829 -0.28359598 -0.017467322 0.39677134 0.22966523 -0.08790237 0.6163615 -0.20214564 -0.06749912 -0.088145874 0.0002951214 0.13653983 -0.064771414 -0.2651722 0.3080708 0.21784587 -0.022449255 0.028091138 0.9657054 -0.027963413 -0.29850426 0.2972745 0.13138239 0.033470422 -0.23370281 -0.2587141 -0.032657128 0.022972068 -0.037600994 -0.22894017 -0.020998871 0.5463825 -0.31092373 -0.07476508 -0.38956276 -0.19131961 0.41429526 0.20910971 -0.32945004 -0.13001402 -0.05842454 0.013082174 0.24438119 -0.39862758 0.05008697 -0.0109181665 0.1400244 0.10781197 -0.42338178 -0.48040292 -0.1062153 0.27330062 -0.37479737 0.051051132 0.42107698 -0.24547054 -0.35120377 -0.24664028 0.13565569 0.3011243 0.023349717 -0.2097223 0.45729208 -0.17425495 0.10530424 -0.0047948994 0.28883606 0.08890005 0.2806647 0.58655566 0.56155926 0.55968624 0.113504544 0.0453861 0.07747661 -0.34243384 -0.007733285 -0.5455183 0.34691614 0.19585751 0.6288284 0.27419776 -0.12340332 -0.14583036 -0.08662055 0.28303212 0.07982229 -0.26529685 -0.5670023 -0.23529129 -0.1567407 0.18139438 0.17565492 -0.36697102 -0.563694 0.023860894 0.16723664 -0.35868278 -0.16428003 -0.17059806 0.31843963 0.010374097 -0.0020880108 -0.24006946 0.32368296
624 0.01959935 -0.2612146 0.037733145 -0.3373604 0.17995787 -0.3508181 -0.28985116 -0.050187763 -0.10265836 -0.008895546 -0.6134938 0.26998752 -0.31567338 -0.36852396 0.17247358 -0.16745153 -0.034673262 -0.7191211 -0.44761655 -0.32252204 -0.33690158 -0.06837109 0.10755501 0.22465846 -0.20631395 -0.14145723 0.53879434 0.23070537 -0.35369575 0.8857591 -0.29313534 -0.17531158 -0.2903332 -0.024570385 -0.09454807 0.36131248 -0.032071542 -0.054630633 0.34972057 -0.094775446 0.07206378 0.33045366 -0.119086355 -0.45328552 0.50173336 -0.007978199 0.13915914 -0.5733688 -0.33765376 -0.043256048 0.059967574 0.029606584 -0.2559591 0.29672208 0.31854072 -0.12339038 0.35611457 -0.35990688 -0.394128 0.3514133 0.29463914 -0.23209487 -0.06794041 -0.02258956 -0.2325168 -0.041967325 -0.11634727 0.100912735 0.24678779 0.32562384 -0.039037447 -0.643838 -0.31557158 0.2846492 0.016792526 -0.1750966 0.47363436 0.43780205 -0.56617254 -0.42710832 -0.5303999 0.20723961 0.42994678 0.12784715 -0.26975465 0.29296935 -0.28983906 0.06880137 0.16817616 -0.05074017 0.23161356 0.6201985 0.26310787 0.011034477 0.8533724 0.28382716 0.34395456 -0.41462243 0.100145094 0.06624987 -0.23697923 0.047488518 0.470096 0.48316562 -0.20728064 -0.5429181 0.045638796 0.3573154 0.15255606 0.010397454 0.31764033 -0.6180967 0.1451511 -0.0061199786 0.24240847 0.104057185 0.3822628 -0.8329336 -0.28062338 0.21831737 -0.48671138 -0.17803405 -0.6268626 0.4636962 0.37639627 -0.09516986 -0.09325645 0.019928375
312 0.32995945 0.14579892 0.049271803 0.035058163 -0.31281862 -0.3588195 -0.042849116 -0.46954876 -0.0622038 0.014169818 -0.29287335 -0.114814565 0.2723851 0.016345492 0.29178768 -0.2089333 0.055059027 0.34989136 -0.052934352 -0.41662765 -0.14183237 -0.38343117 0.044533506 0.29751107 0.2477852 -0.38542295 0.14742145 -0.1516458 -0.15975034 0.35060513 0.22654557 0.05490556 -0.2696446 0.30798292 0.38889948 -0.26593548 0.6514411 -0.39953575 0.41296715 -0.2958869 0.28987625 0.4131834 -0.47598997 0.20656145 0.39851373 -0.069905385 0.40960425 -0.04722184 -0.160932 0.22959135 -0.14187023 0.11848193 0.116255425 0.22479735 0.33336303 -0.19123636 -0.23808248 -0.3224474 0.019261768 0.28125176 -0.051462285 0.17067103 -0.39482665 -0.29578072 -0.19442914 -0.07640073 -0.17456466 -0.19943658 -0.15899561 -0.065118074 0.12086057 -0.1629735 -0.008658765 -0.036860373 0.81639004 -0.7441645 0.5139211 0.26993427 -0.6462363 -0.33847323 -0.6718383 0.7225665 0.0063117095 -0.009101754 0.5511946 0.44632435 -0.39493233 -0.22072041 -0.50099516 0.30721524 -0.11045194 0.3021371 -0.19616944 -0.0056505143 0.5242451 0.16937074 0.13280998 -0.3087374 -0.15404598 -0.5423752 0.24851897 0.050079636 0.57741284 0.078655034 -0.11956945 -0.4489394 -0.11697555 -0.21816292 0.033197768 0.022921225 -0.3866734 0.38001117 0.05674786 -0.45135915 -0.39501277 0.65657926 -0.1396918 0.0067903767 -0.06506205 -0.064049646 -0.29257843 -0.07467572 -0.13719416 -0.38696745 0.24046779 0.0120245395 0.14446864 0.23031709
313 0.38140205 0.26837492 0.11657071 0.36400715 -0.34940407 0.02134294 -0.27890325 -0.625021 -0.016672892 0.07584624 -0.23235828 -0.17619047 0.257678 -0.029481295 0.30881992 -0.18071839 0.14354019 0.04734238 0.010028959 -0.24426447 -0.4359659 -0.58722126 0.350442 -0.04162692 0.057874594 -0.23177116 -0.03761138 -0.2991078 -0.025607636 0.10961834 0.13661571 0.045060776 -0.53579676 0.2157097 0.7390505 -0.22620448 0.6941731 -0.4763286 0.29848745 -0.38726956 0.14052257 0.34120515 -0.28355163 0.06936288 0.13824056 -0.17400932 0.24196647 -0.041690815 0.27033913 0.21699269 -0.081904486 0.16008875 0.05990969 0.23613788 0.25537083 -0.100392066 0.10413808 0.039198946 0.09228866 0.5150377 0.07497814 -0.105569154 -0.41441703 -0.26649314 -0.29746678 -0.16662079 0.069485314 -0.14362536 -0.032113418 -0.11808147 0.21838954 0.001302267 -0.12871845 0.011404321 0.8317962 -0.79902196 0.39243183 0.32044518 -0.8174386 -0.05549612 -0.73013616 0.5848621 0.3020376 0.19106807 0.5774432 0.39695266 -0.2101367 -0.3385222 -0.29498285 0.12714982 -0.11469743 0.51883656 -0.33504817 0.13913599 0.4339372 0.28492662 -0.014009334 -0.3202824 0.18275602 -0.1882669 0.37095264 -0.13524102 0.24998298 -0.034533523 0.0062441668 -0.3228425 0.06415172 -0.16244106 0.06975442 0.16692932 -0.24086513 0.02303891 -0.071591176 -0.42036292 -0.20689572 0.5108861 0.016907688 0.12737478 -0.10826226 -0.22352752 -0.58704233 -0.24703726 -0.19117452 -0.47366947 0.30406287 -0.25871265 0.24153629 0.27398068
7 -0.21476002 -0.573148 0.34673724 -0.40378582 0.2462577 0.12465783 -0.2530526 0.052723438 -0.18444711 0.102102876 -0.52159315 0.038631763 -0.15939249 0.07723712 0.41824105 -0.48704213 0.39353698 -0.4875883 -0.08971949 -0.16502602 -0.42782578 -0.1253359 0.20679359 0.28281885 -0.25439182 0.029051885 0.355688 0.07085663 -0.1287612 0.9057504 0.05209964 -0.41240835 -0.29333183 -0.25568128 0.15569235 0.27648294 0.096449904 -0.04775444 0.23571901 -0.16010591 -0.12461919 0.32706404 -0.42473117 -0.05178453 0.49657318 -0.07265098 0.24773362 -0.5242737 0.096769474 -0.20597653 -0.18759483 0.1399445 -0.52816415 -0.04636949 0.12983747 -0.019747037 -0.18880856 -0.41041064 -0.28347373 0.34731475 0.09748971 -0.5292982 0.05624366 -0.1273781 0.022932375 0.5051647 -0.20890945 0.1838735 0.43505463 0.12779322 0.06536799 -0.2913661 -0.4089369 -0.12537345 0.09203875 0.09053775 0.6006187 0.34041706 -0.09271343 -0.30956474 -0.36342093 0.4044276 0.4138724 0.56848556 -0.03590021 0.09448521 -0.048863273 -0.02805343 -0.27988997 0.26066014 -0.12377543 0.47217783 0.3849862 -0.054179974 0.6339927 0.37213245 -0.056757245 -0.3216129 -0.35107064 -0.03948308 -0.017623652 0.45875996 0.20607395 0.24078055 -0.25553903 -0.269078 -0.080811106 0.47706655 0.06849414 0.05656515 0.27559963 -0.7599869 -0.19007681 -0.076898485 0.16523857 0.31790173 0.019096427 -0.42947173 -0.43093243 0.057805743 -0.25246266 0.09539458 -0.41964743 0.44648618 0.13655384 0.13708006 -0.010234224 0.37860566
9 0.037504587 -0.32393146 -0.008515812 -0.24125226 0.026761465 -0.060564727 -0.4324715 0.021703666 -0.038601205 0.15184893 -0.68383926 0.10816643 -0.24736987 -0.10931183 0.49241072 -0.29523224 0.5096348 -0.4345135 -0.10445343 -0.058055155 -0.6221371 0.034565482 0.108748704 -0.07793782 -0.13704489 -0.20396495 0.66123503 0.08785315 -0.103295445 0.67641026 -0.16618784 -0.5147405 -0.26986685 -0.036238573 0.1608371 0.033411786 0.12727074 -0.077861354 0.21619214 -0.18259744 -0.3833057 0.36883605 -0.35127267 -0.022022134 0.39410588 -0.11433836 0.19435114 -0.44635588 -0.24685416 -0.10611667 -0.20478569 0.074966416 -0.7094918 0.055736747 0.120057575 -0.021744598 -0.018944113 -0.23834483 -0.0417705 0.4033838 0.22365455 -0.16634993 0.11008772 0.0029352254 -0.2875406 0.40406156 -0.15935536 0.06071027 0.187445 0.0608268 0.087836504 -0.4535587 -0.25864697 -0.028212667 0.28116694 0.06351851 0.69889027 0.5306925 0.029930567 -0.44091895 -0.18729138 0.31841406 0.29640752 0.58169687 -0.29110172 0.20912518 -0.06342426 -0.06309024 -0.1619329 -0.12233919 0.14905028 0.5364277 0.47828442 0.0007894533 0.7908888 0.6224976 0.114653885 -0.3174361 -0.13031468 0.021974107 -0.022251582 0.33280337 0.35319817 0.28145704 -0.024752414 -0.31262574 0.2257631 0.31112203 0.19833148 0.11962265 0.18863222 -0.7666595 -0.12907976 0.09735532 0.21758616 0.07476744 -0.0959385 -0.49275675 -0.61976737 -0.13812687 -0.39069042 0.07229288 -0.17746113 0.37116477 0.049308527 0.3301526 0.103106394 0.13227856
575 0.41483685 -0.949338 0.20805435 -0.2660662 -0.3106401 0.36261755 -0.015652005 0.067200884 -0.34466714 0.15133892 -0.007413404 -0.38250408 -0.3576037 -0.2456482 0.35341877 0.26931426 0.04310993 -0.2581966 0.36380157 -0.16306014 -0.52009773 -0.008894801 0.07145976 -0.032017317 -0.07687227 -0.29130757 -0.15057111 0.18428129 0.1012777 0.2689544 0.3960901 -0.41638747 0.016985094 0.0742186 0.4648883 -0.46792665 0.0314683 -0.17233351 0.35936448 -0.31204668 -0.44838253 0.47647467 0.073142745 -0.02497092 0.28446004 0.36013633 0.3431841 -0.16993567 0.299913 0.10391565 -0.4312054 -0.49877813 -0.19094796 0.06894609 0.49241146 0.43029726 -0.6032566 0.13407622 0.04975674 0.92952645 -0.0076506557 -0.36744225 -0.24221842 0.052182917 0.3161836 -0.1097622 -0.29403293 0.55955046 -0.23125556 -0.3552845 -0.0034895074 -0.34044573 -0.24511869 0.050291885 0.48670998 0.14537139 0.061827235 0.25019 -0.19723417 0.10650884 -0.5845725 0.7824918 0.32408315 0.26557258 0.5839379 0.40362126 0.09572002 -0.14761056 -0.5529526 -0.04332716 -0.30949402 0.20508797 -0.34942815 -0.110380635 0.2100866 0.034540538 -0.14699993 -0.13313651 -0.75120854 -0.046813067 -0.84827477 0.30878535 0.46378946 0.10810438 -0.2489441 -0.1342836 -0.29976735 -0.06603647 0.13755167 0.43366945 0.14791569 -0.5807354 -0.4356948 -0.2226068 -0.17780733 0.36248803 -0.49214786 -0.41799098 -0.24343474 -0.20867272 -0.16789427 0.12804382 -0.26081246 -0.022548726 -0.2448363 0.01237197 -0.023139618 0.39933586
274 -0.15123454 -0.35772976 0.36014614 -0.46431994 -0.099413045 -0.044809405 0.69609344 -0.507036 0.015323062 -0.2493003 -0.37740684 -0.06851167 0.2520149 -0.16426013 0.28691104 -0.35766146 0.13590929 -0.34176326 0.28372154 -0.1997607 0.14042713 0.027799886 0.28137812 -0.016297791 -0.18820396 -0.01966085 -0.13376537 -0.21346232 -0.22265743 -0.00019040564 0.6044634 -0.04021305 -0.57733476 0.3145917 0.37722862 0.036438923 0.36275885 -0.00087690266 0.18638213 0.022864522 0.17682669 0.62861913 0.15142517 -0.24618821 0.85805213 -0.09611692 0.52290165 -0.22639143 0.09037391 -0.04486209 -0.27100664 -0.16788302 -0.65665317 0.6041873 0.14853981 0.0904189 -0.564008 -0.14760035 -0.61020917 0.39289173 0.1314761 -0.15103494 -0.53260523 -0.19967073 -0.19597456 -0.46900117 -0.099877365 -0.38693526 -0.16153193 0.42044532 -0.3450636 -0.61339283 -0.15384167 -0.16494553 0.41215563 -0.6470378 -0.029187858 -0.145607 -0.16864876 -0.20772079 -0.23751657 0.29781678 0.22215751 0.616761 0.08677548 -0.6588696 -0.2990311 -0.5292501 -0.54443115 -0.08148093 -0.061347373 0.9924313 -0.24380192 0.4229992 0.4483577 0.36701882 -0.3906538 0.009380715 -0.4147116 0.22527702 -0.01457334 0.1589039 0.09788744 0.32695407 0.1904258 -0.113804154 0.010013093 -0.07537718 0.14788955 -0.22737415 0.53655654 -0.19738123 -0.6454929 -0.1724678 0.2565221 0.097105056 0.027125012 -0.6270011 -0.6318819 0.19002873 -0.111061305 -0.22822595 -0.34039178 0.043967202 0.20538938 -0.6704335 -0.41283137 -0.08010077
309 0.5326038 0.033009823 -0.17243472 -0.039599553 -0.43008718 -0.14012332 -0.08665563 -0.68322 -0.10376955 0.13446951 -0.41661397 -0.27504343 0.035002094 -0.15945308 0.12205022 -0.30252415 0.3029781 -0.05947345 0.14822967 -0.31436586 -0.18329069 -0.4956098 0.17041583 0.034802146 0.3121662 -0.13607576 -0.039493255 -0.27947655 -0.13659067 0.2165397 0.087741934 0.045927927 -0.32445398 0.18042646 0.47171926 -0.24766342 0.62340957 -0.6698836 0.42067692 -0.53629684 0.031473726 0.41738707 -0.20606096 0.039981112 0.25547913 -0.112881325 0.48701668 0.03154303 0.0881033 0.1317182 0.029456148 0.021040818 0.06187024 0.07250351 0.44521752 -0.19465837 0.013388809 -0.140629 0.18232831 0.10024521 -0.17522909 0.26803344 -0.50362533 -0.2524106 -0.18143016 0.01754621 -0.040918097 -0.04091361 -0.1675055 -0.11200869 0.17706388 -0.17706397 0.09443889 0.072530985 0.74896854 -0.7302566 0.4850086 0.25333 -0.8852587 -0.33223933 -0.4554196 0.6412583 0.3012275 0.029027812 0.47458175 0.32521915 -0.37238652 -0.3021616 -0.37150827 0.38048378 0.16371875 0.22543739 -0.25227776 0.2087247 0.6260302 0.10135365 0.332753 -0.39577234 0.002240857 -0.17407338 0.19073904 -0.11942264 0.40518624 0.029077943 -0.029424302 -0.2648333 -0.13568768 -0.4111755 0.34968928 0.012532403 -0.4854265 0.4797902 -0.1901638 -0.4628999 -0.3946327 0.40707555 -0.08535636 0.109597385 0.02199935 0.037153706 -0.2276109 -0.20680258 0.0018078765 -0.45493725 0.018281836 -0.14531365 0.3824998 0.17768171
206 0.3083875 -0.7014553 0.3327494 -0.34515235 -0.18595058 0.03179696 -0.11628255 0.34047452 -0.56557566 0.089805394 0.3506267 -0.0644044 -0.724137 0.055646 0.22921859 0.376328 0.44633016 -0.33060068 -0.09537887 -0.25578564 -0.30180642 0.17817187 0.31877384 -0.0829476 -0.247522 0.15718608 0.003577974 0.29871306 -0.029515127 0.58167815 0.067514196 -0.2471094 -0.08802174 0.056718368 0.1808342 -0.10105158 -0.31983644 0.34375846 0.1934287 -0.14866239 -0.039854564 0.64744097 0.007903133 -0.3288843 0.21349253 0.26750517 -0.04279534 -0.30731767 -0.042457927 -0.027889093 -0.057405215 -0.3258629 -0.21923594 0.154728 0.5231681 -0.048963986 -0.48624295 -0.39931503 -0.2738573 0.67799044 0.29392672 -0.5516579 -0.062382568 -0.18438768 0.24182805 0.107848756 -0.6097197 0.13344687 -0.03493346 -0.040415805 0.20598263 -0.39585415 -0.4904804 -0.018843032 0.43245676 -0.21416308 -0.08970072 0.32198912 -0.3207903 -0.2574365 -0.49897936 0.4537864 0.39703783 0.26010934 0.041964147 0.64306223 0.037527308 0.065650076 -0.23333718 0.20855488 -0.24197744 0.20418908 0.2659879 0.30319288 0.4437143 -0.08059023 0.12291365 0.021449983 -0.6754492 -0.015927946 -0.89110005 0.5398593 0.25791514 0.5467994 0.074301004 -0.23853543 -0.22947578 -0.21260083 0.28887394 0.15139149 -0.002240521 -0.5422613 -0.40917662 -0.35024843 0.096224345 0.12647954 -0.47291806 -0.63520604 0.13958865 0.12663434 -0.28377977 0.02171516 -0.39982036 0.26419824 -0.19242483 0.023678442 -0.20005767 0.5898788
