881 128
126 0.119451925 -0.5649401 -0.25088215 0.028904505 -0.5656075 0.02365489 -0.08896058 -0.081459954 0.60106874 0.48181358 -0.28319398 0.008071376 0.3057143 0.048859484 -0.018122464 0.32837588 -0.107968 -0.1364557 -0.40468043 -0.35456324 0.07508159 0.005915019 -0.24479023 0.11950213 0.4245576 -0.09172379 -0.5499215 -0.08242499 -0.20430782 -0.12007345 -0.1932598 0.24486195 0.38956642 0.22544873 0.041154888 0.5589242 -0.13606462 -0.0059263953 -0.6072947 0.11775825 -0.026916847 0.20514281 -0.31758174 -0.33990127 0.34069055 -0.18989742 -0.11870814 -0.5011325 -0.119282335 0.22963004 0.17492038 0.60664415 -0.028423358 0.08279876 0.18088226 0.2080773 -0.015385258 0.07927535 -0.02831461 0.25542566 0.21860929 -0.016309166 0.062418964 -0.37800118 -0.17075397 0.09506902 0.13631365 0.0022433395 -0.036504436 -0.0509042 -0.20063947 -0.40782 -0.24751805 0.11907393 -0.1641686 -0.060979005 -0.36877063 0.10109839 -0.22626553 -0.18911572 0.18399304 0.5282987 0.44497824 0.06455053 -0.20556562 0.10932211 -0.012644453 0.068073325 -0.187074 0.5555694 -0.5001493 -0.2998373 -0.59378433 0.17803319 0.23564416 -0.0143481735 0.0628363 -0.103308335 -0.13980927 -0.18807201 -0.09294296 0.64817935 -0.35548934 -0.18260147 -0.5314357 -0.023459174 -0.11619335 -0.2957918 -0.44967872 -0.12412431 0.07870733 0.4295909 -0.23173308 -0.12322921 -0.8835046 0.05983269 0.1538905 -0.04897233 0.42027402 -0.028093698 -0.3702112 -0.21544811 0.060778514 -0.03602815 -0.28004047 0.35062948 0.114021994 0.14563164
125 0.17818218 -0.6968935 -0.294263 0.20792146 -0.39143348 0.028773783 0.09103796 0.088175796 0.45605275 0.665107 -0.08237117 -0.1284017 0.51246333 0.11307305 -0.11383239 0.116094016 -0.21677734 -0.18276948 -0.33757988 -0.22625108 0.09038164 0.087940186 -0.27191958 0.1505324 0.35214952 0.1607141 -0.7587214 -0.06803738 -0.18917577 -0.18341161 0.017016703 0.28305975 0.39068624 0.060943022 -0.09210421 0.45654204 -0.18864557 -0.02563114 -0.40855768 0.040780246 -0.14913662 0.079776675 -0.26279268 -0.2938215 0.32755867 -0.14801133 0.0027219139 -0.28464475 -0.26680198 0.34766462 0.02808556 0.8160101 0.14476435 0.12672469 0.26682252 0.14156552 0.0058558905 0.2297209 -0.00035985548 0.29041153 0.156108 0.06733227 0.10458815 -0.30123845 -0.14854969 0.12011302 0.32279396 -0.032766543 -0.110862985 -0.08744485 -0.24145915 -0.6548252 -0.16788298 0.022319077 -0.14288703 -0.24079677 -0.35066277 0.0022345886 0.22768144 -0.08660015 0.14740309 0.57720006 0.3937553 0.14240634 -0.07315819 0.1405917 0.23756501 0.16837765 -0.10019412 0.38773915 -0.35624236 0.10858818 -0.565525 0.29765156 0.08506563 -0.14789136 0.20464213 -0.04507113 -0.3346056 -0.09551501 -0.13902363 0.7226504 -0.2728783 0.03691535 -0.32598904 0.06922663 -0.04379028 -0.432582 -0.17066874 -0.09125692 -0.16604547 0.29696774 -0.01012924 -0.2630077 -0.8446054 0.044499103 0.29678354 -0.13490319 0.49710274 -0.017982325 -0.40408033 -0.051627073 0.13969888 0.2760744 -0.13488798 0.48354545 0.17153569 0.2090124
129 0.18714993 -0.66547596 -0.31943658 0.062323067 -0.4436533 0.05836966 0.12366456 0.1692525 0.53717834 0.7327724 0.030653754 -0.009943805 0.35149914 0.30438337 -0.005464972 0.2521889 -0.2403134 -0.14104202 -0.3611769 -0.0461189 0.038545746 0.30180648 -0.24872904 0.3205889 0.520655 0.00801099 -0.7759164 -0.26958728 -0.20196316 -0.15550919 0.005402443 0.15881953 0.52504706 0.06951929 -0.010722864 0.5770487 -0.19553572 0.099625535 -0.50090224 -0.09893592 -0.13080457 0.06919085 -0.2659097 -0.0974132 0.3388332 -0.119593315 -0.055985674 -0.5517445 -0.21814893 0.32447422 -0.058658972 0.5150201 0.18108284 0.16373746 0.22723326 0.17686751 0.10705945 0.025927449 -0.00062274124 0.327512 0.20910616 0.11112028 0.20784084 -0.37466788 -0.17135946 0.27973947 0.34541205 -0.3637153 0.18133526 -0.19217856 -0.17431733 -0.42633578 -0.06849813 0.13637857 -0.2935213 -0.22810178 -0.54803085 0.1536812 0.043307215 -0.18539537 0.27143183 0.42455563 0.49717113 0.08189541 -0.23450741 0.34739664 0.117981605 0.1585299 -0.30304453 0.5898874 -0.45000926 -0.13804255 -0.6915877 0.08217377 0.14544234 -0.017111987 -0.11508666 -0.10572034 -0.3954574 -0.30482998 -0.25023693 0.7706837 -0.05431254 -0.17829745 -0.48752064 -0.14315991 0.035208106 -0.35768992 -0.23755077 -0.18134235 0.05456121 0.5174281 -0.031154826 -0.27053645 -0.7948189 -0.08295529 0.14570613 -0.4222751 0.46738 -0.16274512 -0.4308906 -0.29568785 0.1528923 0.085159644 -0.18934208 0.3117288 0.06746657 0.40727893
57 0.17216252 -0.574488 -0.023711408 0.38251308 0.11283253 -0.08433173 0.18920268 0.07714334 0.087862186 0.34547856 0.08909869 0.58878696 -0.32283723 0.5571098 -0.13152997 0.25003576 -0.05200261 -0.54392433 0.02477803 -0.15635484 0.11260867 0.17924243 -0.00583486 0.25159132 0.3234843 -0.12924722 -0.36729538 0.38503695 -0.021625489 -0.30457714 0.4514654 0.17376404 0.5100382 0.021729393 -0.13254608 0.11306623 0.06231479 -0.0056032175 -0.2077956 -0.20806105 0.053125154 -0.3358792 0.07016545 -0.18106398 0.24367224 -0.074275665 -0.029423555 -0.34981674 0.39993462 0.26865226 -0.045522835 0.3640554 -0.34277776 -0.16896994 0.29547432 0.16879229 0.41386428 0.36359355 0.042250864 0.45884576 0.1158004 0.1868585 0.0744458 -0.41861823 -0.0051229373 -0.002967474 -0.012171847 -0.52344155 -0.045900293 -0.47387633 -0.2592093 -0.24179754 -0.056734473 -0.024492234 -0.15456882 -0.20171109 -0.34994143 0.15301749 0.55695516 0.5764668 0.33803532 -0.122668095 0.011654293 0.61009526 0.2482362 -0.014111589 0.27699494 -0.17111045 -0.096239015 0.26067498 -0.90088576 -0.23566365 -0.32042137 -0.069382444 0.23937991 -0.33179405 0.13451433 -0.41333404 -0.45520452 0.11531817 0.17514977 0.3407889 -0.45480886 -0.3840172 -0.005354426 -0.44982168 -0.14987253 -0.091709085 -0.21742946 -0.003314144 -0.15786542 0.3815446 -0.10894909 -0.5038579 -0.2075004 0.32130983 0.5411916 -0.15846294 -0.24341306 -0.28976914 0.25653672 -0.22630882 0.42440072 -0.05563106 -0.2809684 0.2830562 0.16733351 0.022130655
120 0.08059783 -0.6430636 -0.42399082 0.14020531 -0.48463976 0.133649 -0.025203656 0.076333314 0.5492541 0.6107571 0.052614834 0.0190647 0.3245206 0.1518433 -0.029322986 0.2785884 -0.30753988 -0.11985229 -0.36671594 -0.21140945 -0.09620683 0.058470942 -0.27802658 0.25383824 0.23826474 -0.09022228 -0.76145476 -0.082552776 -0.17111066 -0.26187235 -0.18025862 0.13330251 0.2398999 0.09529177 -0.10856579 0.347481 -0.25358722 0.037675835 -0.4814951 -0.09784224 -0.07271645 0.16669138 -0.2547541 -0.29435638 0.42659193 -0.14027502 -0.21449977 -0.37186253 -0.18731399 0.28216863 -0.15069462 0.4774651 0.17519702 0.01360414 0.30728477 0.15688328 -0.012175952 0.027663674 0.12414639 0.22737925 0.13721064 -0.22705507 0.24312292 -0.28725144 -0.1941276 0.08549475 0.33738762 -0.032767337 0.14028955 -0.035242196 -0.1830035 -0.55317277 -0.17045453 0.1257902 -0.19333972 -0.25108397 -0.40660423 0.1465613 -0.023188945 -0.095825106 0.33578256 0.4093389 0.55952364 0.045782093 -0.099030666 0.14233887 0.04766699 0.011473317 -0.38228995 0.36904868 -0.30124536 -0.1883391 -0.62996286 0.23495667 0.25045484 0.10996744 0.025036976 -0.0924506 -0.3701381 0.108963475 -0.112711534 0.60696024 -0.080369644 -0.16809052 -0.44828334 -0.123742096 -0.07140031 -0.25872007 -0.20911299 -0.2601594 0.03733237 0.3908393 -0.015877124 -0.10598076 -0.77625984 0.037757654 0.22907464 -0.17630373 0.33609286 -0.15291652 -0.3778013 -0.28796336 0.2173068 0.06442115 -0.18061651 0.44356948 0.045819774 0.30317935
132 0.013462627 -0.7652139 -0.3973932 0.16798826 -0.40996432 0.04463951 0.06817441 0.2144212 0.56023836 0.5244053 0.06737219 -0.012467473 0.5185678 0.19292438 -0.076342 0.24443167 -0.28352758 -0.35064477 -0.46546233 -0.25202832 0.0418583 0.14096984 -0.20359336 0.30161163 0.39896303 0.043096155 -0.61446387 0.00012120209 -0.1367178 0.061800905 -0.06883173 0.1421786 0.09502154 0.11811322 0.22484899 0.5764462 -0.22501671 -0.0024004956 -0.4461569 0.06565143 -0.10001058 -0.0014457754 -0.29238546 -0.30410978 0.19547263 -0.14152545 -0.112483755 -0.46419546 -0.1676396 0.25734398 0.032677118 0.48644385 0.13682368 0.2358096 0.28342 0.2031845 0.14484705 0.049379908 -0.04844584 0.39808986 0.3138668 -0.008664763 0.11868223 -0.34891608 -0.13095321 0.2534655 0.1944121 -0.08695478 0.035328135 -0.12548994 -0.33703837 -0.557573 -0.16918342 0.0032371334 -0.29069996 -0.18201602 -0.20157117 0.016171258 0.115497045 -0.08998267 0.18109253 0.57668704 0.44300056 0.018621799 -0.091967665 0.18360233 0.08478733 0.017782172 -0.08217927 0.49015594 -0.42053652 -0.121785074 -0.557084 0.18113115 0.19191267 0.016971434 0.11510322 -0.024253592 -0.3464253 -0.011223587 -0.17913957 0.59509844 -0.06087034 -0.27985623 -0.5071236 0.070865475 -0.2498033 -0.22745869 -0.2739843 -0.01044452 0.034460824 0.51633257 0.04604005 -0.16529799 -0.99302185 0.056206033 0.30525774 0.05603369 0.51386976 0.03383432 -0.123823225 -0.27496496 0.04757304 -0.0316873 -0.054646216 0.40130308 0.22310014 0.3408229
128 -0.0057048323 -0.6666142 -0.24040039 -0.05117672 -0.3650571 -0.09127044 -0.021494143 -0.04542981 0.28719282 0.661895 -0.058623176 -0.07542004 0.5598988 0.2374248 -0.018089173 0.26808888 -0.28141776 -0.16377056 -0.39768928 -0.35501087 0.051568106 0.23340069 -0.31384188 0.19734797 0.31702504 -0.06072905 -0.68179214 -0.09217239 -0.06773406 -0.14460741 0.0027082707 0.26625282 0.28716117 0.22265024 0.1411574 0.43072078 -0.1346631 0.003135004 -0.45611832 0.011468812 -0.029560445 -0.016960736 -0.31650642 -0.39987975 0.3563875 -0.053213455 -0.19233628 -0.3034148 -0.21251675 0.33866823 -0.04153516 0.629866 0.30271736 0.18505798 0.2041227 0.24262549 0.18738134 0.040704943 -0.14436702 0.33716214 0.2318361 -0.255442 0.17423932 -0.4552815 -0.121998504 0.23103592 0.29675853 -0.0115135275 0.0762054 -0.20442106 -0.14985308 -0.54444265 -0.1521832 0.21184945 -0.38706145 -0.209864 -0.497699 0.13113642 0.12093283 -0.215772 0.22857767 0.6208851 0.6194513 0.16903041 -0.2549316 0.18588004 0.06353731 0.15980485 -0.08470255 0.49483404 -0.3673512 -0.039253157 -0.40909353 0.1976267 0.25774834 0.019596893 0.17244142 0.0045113983 -0.23061681 -0.08369111 -0.0036967972 0.8339404 -0.008740723 -0.22213478 -0.6865608 -0.036251348 -0.13581257 -0.38009384 -0.12677407 -0.1815746 -0.04865295 0.46600512 -0.072085656 -0.026853545 -0.7604502 -0.15240686 0.0839632 -0.07769069 0.43576327 -0.11497605 -0.34618512 -0.10784154 0.12125235 0.012386397 -0.18792458 0.3165999 0.16882414 0.3839597
123 0.045501 -0.798666 -0.4189959 0.042980287 -0.59285897 0.032123346 0.05632168 0.07779571 0.38001996 0.79268086 -0.0077428226 0.007053771 0.3407803 0.29372802 0.08211886 0.09028905 -0.26203135 -0.113984704 -0.3994721 -0.21975496 0.014153069 0.154282 -0.29543328 0.19149944 0.11999024 0.041887492 -0.73005646 -0.15533017 -0.06504829 -0.002442512 0.10253106 0.2662226 0.5193657 0.3611791 -0.10476833 0.4703444 -0.26612335 0.1406334 -0.60051715 0.08171749 -0.3177962 -0.048245702 -0.29690605 -0.4378 0.41091746 -0.2127619 -0.037733957 -0.54286087 -0.2710034 0.24469306 0.020307569 0.53086776 0.32712018 0.1430952 0.19220833 0.31024352 0.2574567 0.0743203 -0.15026316 0.21742629 0.059684552 0.013442384 0.118719816 -0.30517715 -0.083886296 0.116127424 0.35636565 -0.0093085235 0.019616798 -0.13473108 -0.16266148 -0.5061388 -0.12583211 0.04319218 -0.33585048 -0.21258879 -0.35612413 0.19687301 0.012552605 -0.2671275 0.3799625 0.3789766 0.55196196 0.22558524 -0.18907753 0.14831378 0.14436188 0.12413343 -0.023005651 0.3151806 -0.5129965 -0.13979886 -0.5649707 0.15072677 0.24017912 -0.0070344694 -0.051230617 0.114317626 -0.3060244 -0.16188942 -0.15028912 0.6485291 -0.069481485 -0.23506843 -0.55792314 0.013954754 -0.108503 -0.23213834 -0.18151782 -0.09143325 -0.10025854 0.47078556 -0.09012129 -0.0960605 -0.7645805 -0.12305393 0.060555592 -0.09918656 0.46355948 -0.13941516 -0.31506494 -0.31883398 0.05947702 0.09829917 -0.3640194 0.52245724 0.2003964 0.21570686
127 -0.14941604 -0.49595508 -0.35439968 -0.03339323 -0.518905 0.040025745 0.115718685 0.023959812 0.5382388 0.56794345 -0.17050849 0.023722682 0.5376724 0.2935752 0.04322754 0.26266944 -0.27379182 -0.20580462 -0.28796467 -0.13543028 0.026792929 -0.03775135 -0.16987525 0.37784648 0.30342618 -0.060181737 -0.589496 -0.12048568 -0.105195925 -0.08105802 -0.11173896 0.3324842 0.27018052 0.15480977 -0.13817628 0.41346988 -0.13411531 0.0044503873 -0.33755085 0.23057391 -0.27529362 0.08028046 -0.273523 -0.12275112 0.1263771 -0.036184713 -0.07222011 -0.5617749 -0.1520083 0.3584504 -0.12650627 0.37022924 0.35591114 0.17756207 0.27606028 0.15853393 0.10809212 0.093012825 -0.075896576 0.3940218 0.1984373 0.050040856 0.11050426 -0.294828 -0.28589484 0.07368186 0.4051032 -0.0625894 0.23460041 -0.12686512 -0.12656572 -0.71630603 -0.24849069 0.20845316 -0.23469773 -0.23690543 -0.22626087 0.2014223 -0.0038426612 -0.078398675 0.31031993 0.48853245 0.4812722 0.14449212 -0.07338562 0.20744807 0.08564382 0.076181106 -0.18565956 0.45771992 -0.5700304 -0.060106583 -0.7777934 0.1063412 0.23640525 -0.14605018 0.094296 0.017423483 -0.28591523 -0.24726121 -0.16796277 0.71615744 -0.22903526 -0.31405053 -0.36733738 -0.12347493 0.0073919245 -0.34889293 -0.16131751 -0.05578266 -0.04279502 0.5777579 -0.0143801505 0.06477694 -0.7504038 0.06910385 0.23981701 -0.22012433 0.65654427 -0.044611365 -0.36730716 -0.29621327 0.16858427 0.16872342 -0.29790902 0.4251894 0.117679715 0.3614654
130 0.045887027 -0.5968361 -0.1891111 0.03273374 -0.32034197 0.18581246 0.20677371 0.02647366 0.45787796 0.58983994 0.010786206 -0.055446297 0.5678528 0.22055887 -0.0519589 0.32097793 -0.12148123 -0.096834645 -0.3560443 -0.089408636 0.107369676 0.17203934 -0.26177704 0.2798632 0.3096031 -0.04368296 -0.621064 0.11367015 -0.16479008 -0.39136276 -0.08620634 0.23951845 0.33380044 0.06462466 0.0506356 0.6163308 -0.30287558 -0.10648685 -0.60888386 0.049546592 -0.14894597 0.21734571 -0.3023592 -0.20777431 0.36208156 -0.05773508 -0.12828603 -0.4294963 -0.14057432 0.32941112 0.049992267 0.54102856 0.08465057 0.2758741 0.2176569 0.33650088 0.06672523 0.023385456 -0.04145466 0.37084466 0.25245878 0.029874936 0.2067426 -0.2300937 -0.28604007 0.034406975 0.19741224 -0.16911754 0.1438229 -0.08978146 -0.23601156 -0.48576355 -0.06451025 0.22011137 -0.21588512 -0.1702387 -0.571412 0.099603824 -0.038132846 -0.23515576 0.26046687 0.53026175 0.4692281 0.08220939 0.016891235 0.27604508 0.1950018 0.15547739 -0.14365771 0.6273715 -0.25525695 -0.13710761 -0.5218099 0.25434363 0.30819425 0.16163185 0.011468181 -0.0966507 -0.39063227 -0.16275157 -0.108029604 0.46168256 0.007930212 -0.34982288 -0.6850489 -0.09872293 -0.2468728 -0.25290033 -0.25691754 -0.09690029 0.06451561 0.4656475 0.083341666 -0.054373544 -0.86369675 0.05866402 0.13195044 -0.07269756 0.6644714 0.13386089 -0.22226948 -0.34322912 0.019010399 -0.084637985 -0.15489447 0.37178275 0.1689396 0.37864822
122 0.06590685 -0.58128434 -0.2956485 0.029613674 -0.38065842 0.11192304 0.055049043 0.063108 0.65894866 0.48599052 -0.03753793 -0.066801 0.489519 0.1357488 0.009469554 0.22003472 -0.32639664 -0.18044075 -0.31007278 -0.28579846 0.047398224 0.18891019 -0.34726828 0.57539773 0.3595952 0.055433188 -0.6776868 -0.09446268 -0.08986944 -0.31684023 0.03766036 0.04893903 0.38507995 0.15150857 -0.08023551 0.413757 -0.38195026 0.020598968 -0.59611464 0.0787375 -0.23386894 0.045744743 -0.19110893 -0.18215626 0.24751204 -0.20507526 -0.10563679 -0.29752514 -0.13620919 0.19601007 0.0364729 0.5854898 0.36285257 0.15830866 0.19255541 0.30275878 0.13957222 0.021867923 0.0039003578 0.46770856 0.23632309 -0.07698293 0.11977497 -0.4263096 -0.2723291 0.27443415 0.20612876 -0.11179182 -0.061336666 -0.14871676 -0.13993196 -0.60570234 -0.059613947 0.2209796 -0.26106244 -0.17688753 -0.30641317 0.039225016 0.12986632 0.033885166 0.44118404 0.5051847 0.4150979 0.14496791 -0.077498995 0.12123382 0.21960115 -0.048988994 -0.25633022 0.4900605 -0.2949704 -0.08877222 -0.53834754 0.14506647 0.11176527 -0.023295918 -0.07445393 -0.04114862 -0.29592064 -0.10367072 -0.27518463 0.6264685 0.10149962 -0.13794605 -0.43207198 -0.01112122 -0.12954469 -0.2305948 -0.4521709 -0.2347206 -0.16465622 0.46660808 -0.0915162 -0.24571514 -0.95780843 -0.07703851 0.1855243 -0.014079574 0.65282536 0.08299893 -0.32621524 -0.26296836 0.13765807 0.14740676 -0.23665439 0.29394063 0.31617907 0.31976366
131 0.0447842 -0.6224341 -0.3255188 0.0154573815 -0.36156628 0.051435262 -0.04879483 0.06728204 0.5264124 0.5029014 0.036264695 -0.057684463 0.3398831 0.1979327 0.07840791 0.31446877 -0.18589054 -0.095948264 -0.43547246 -0.3478152 0.040025838 0.022498384 -0.29834518 0.14465228 0.34895936 0.009516406 -0.66187835 0.21288346 0.027553553 -0.12718415 0.026014978 0.11787951 0.33253628 0.21772568 -0.044179793 0.47442478 -0.20187572 -0.056139283 -0.45173922 0.07006316 -0.19180377 0.03696669 -0.28100133 -0.01960481 0.3283814 -0.10440507 -0.112032175 -0.42657205 -0.28856704 0.3884046 -0.047964666 0.57807136 0.20077643 0.07312038 0.24984643 0.20563754 0.2410533 0.051971436 -0.13692287 0.5417932 0.23519105 0.013641535 0.09890596 -0.2665858 -0.22312291 0.29190114 0.1713811 -0.1805912 -0.12854275 -0.042913888 -0.1253808 -0.6909709 -0.11862048 0.01478977 -0.14736828 -0.24848318 -0.33150482 0.15885709 0.1483663 -0.043078285 0.24733251 0.58428204 0.39441827 0.07982984 -0.029288176 0.17954262 0.2342835 -0.05154392 -0.013691656 0.436746 -0.3287169 -0.04496093 -0.57313436 0.17107752 0.2586003 0.01876988 0.10986153 -0.1158196 -0.079513565 -0.21224555 0.007871419 0.8255304 -0.03730215 -0.1929757 -0.60797703 -0.22213645 -0.1574133 -0.17933087 -0.34085515 -0.09946972 -0.045078937 0.40322468 0.08800892 -0.0983202 -0.7680555 0.0123813115 0.026718184 0.034292493 0.28936693 -0.017488629 -0.45332855 -0.27621242 0.02892769 -0.06761363 -0.17129089 0.45414475 0.07351829 0.3273536
741 0.19347022 -0.40412787 -0.2903967 0.0012628551 -0.7826389 0.1101526 -0.10028644 0.039904453 0.5379555 0.37357208 -0.1641375 -0.00043228088 0.28108206 -0.048279993 -0.08965824 0.19938503 -0.15424168 0.0007121539 -0.42340907 -0.41647884 -0.14513344 -0.035779845 -0.43513167 0.040297396 0.13935904 -0.08743309 -0.5355449 0.07504915 -0.1877329 -0.24710645 -0.201082 0.10576277 0.3378654 0.18721376 -0.009694027 0.48584062 -0.16554165 -0.035584237 -0.7949272 -0.021808175 0.19617331 0.21644151 -0.3075801 -0.29474354 0.37027064 -0.16237512 -0.09739925 -0.54821545 -0.33101937 0.22030357 -0.038957234 0.5551351 0.0015695356 0.13565105 0.1447141 -0.031306576 -0.06998035 -0.07787088 0.12226291 0.13715121 0.1294831 -0.31924215 0.13307494 -0.3159545 0.011975815 0.07599231 0.20839907 -0.14373636 0.0965067 0.13130333 -0.26028216 -0.37434936 -0.4006486 0.06412153 0.012697842 -0.08826839 -0.28298724 0.04104669 -0.41610074 -0.19934927 0.37756717 0.55514747 0.7341176 -0.052051645 -0.1613869 -0.001889912 -0.25247195 0.18567199 -0.49477127 0.34631547 -0.40145507 -0.16165335 -0.6148084 0.08599643 0.021038152 0.039078724 -0.23758279 -0.0044203303 -0.32064387 0.05038291 0.08823648 0.6512192 -0.23240712 0.16883898 -0.40806705 -0.26460347 -0.051220976 -0.23948988 -0.28027487 -0.25810805 0.19379294 0.42083126 -0.14758278 -0.1311225 -1.0102637 0.12400552 0.13374378 0.044719066 0.38817114 -0.27934074 -0.5914723 -0.17073914 0.056448333 -0.15678209 -0.09172038 0.51168174 0.082359225 0.0069213314
121 -0.038748473 -0.63411194 -0.37663892 0.16891009 -0.5349741 0.19308235 -0.19542049 0.14982747 0.47373867 0.6043146 -0.13814092 -0.035712697 0.44160554 0.26508006 -0.16075322 0.21884473 -0.1281408 -0.10875738 -0.35148546 -0.43459204 -0.036441155 -0.015259958 -0.20220841 0.23677346 0.36795402 0.100449085 -0.7976815 -0.16419663 -0.33379033 -0.028162736 -0.18617 0.2138267 0.4138972 0.2320471 -0.012562944 0.45445296 -0.100649714 -0.0022536218 -0.43416804 -0.16958481 -0.036835037 0.24608928 -0.15427214 -0.39772227 0.3646546 -0.10775879 -0.03367475 -0.46524706 -0.30022955 0.43381608 0.037120655 0.6428807 0.25836825 0.13617124 0.11786583 0.32450992 -0.058589894 -0.00083148264 -0.072291024 0.3397986 0.22800185 0.023496183 0.25997582 -0.33999023 -0.20227316 0.124342375 0.32436422 -0.08986902 0.033523872 -0.25445706 -0.22932544 -0.58740276 -0.18760885 -0.058055975 -0.069984876 -0.31535447 -0.44108126 0.19587651 0.05578837 -0.2824488 0.17209521 0.67402035 0.34789017 0.009612448 -0.098907016 0.301265 0.216067 0.07195391 -0.15951763 0.53052914 -0.35518777 -0.112370916 -0.3127254 0.2364432 0.3212137 -0.02609924 0.020161496 0.048534438 -0.17125827 -0.077452816 -0.182514 0.6791597 -0.09605363 -0.482431 -0.6300306 -0.07709401 -0.11130492 -0.4191159 -0.2968952 -0.11773209 -0.037253372 0.50897616 -0.015160818 -0.08175472 -0.6497832 0.0002749285 0.059984215 -0.18399318 0.3447522 -0.031631485 -0.3515318 -0.52928513 0.18515566 0.039477244 -0.2304211 0.39396852 0.12042181 0.17550471
124 0.14974624 -0.57930773 -0.29280153 0.29619205 -0.541537 0.057995506 -0.06431587 -0.1989317 0.46865427 0.53856325 0.06998855 0.062326726 0.35294297 0.20640866 0.03010345 0.24798104 -0.33002514 -0.09719479 -0.41826716 -0.29108667 0.08637867 0.014794272 -0.22972685 0.22614188 0.3586901 -0.0048266333 -0.459863 -0.06572985 -0.3146737 0.01985708 0.082637876 0.24078135 0.2256477 0.048295178 0.005330471 0.48638433 -0.36618963 0.094341084 -0.47018793 0.14406294 -0.12508541 0.2637292 -0.25549814 -0.17693876 0.3252119 -0.040030237 0.0025732282 -0.49735862 -0.24108791 0.46327585 0.011510422 0.53567815 0.019609686 0.15211423 0.32771897 0.1670079 0.12003472 0.09786286 -0.17629658 0.19659826 0.1465126 -0.07054719 0.14146557 -0.34691945 -0.28860343 0.16308641 0.33333924 -0.29621297 0.05473695 -0.21368125 -0.18884069 -0.55039454 -0.045629334 0.055818364 -0.40339813 -0.11580529 -0.32046592 0.055636827 -0.034172285 -0.1086363 0.23807243 0.53446525 0.39089948 0.17430702 -0.21792498 0.17924388 0.14875379 0.13587359 -0.1488974 0.4750878 -0.5342928 -0.0046119145 -0.6643111 0.19102006 0.44499913 0.11652253 0.05822399 -0.14440492 -0.34649935 -0.12598196 -0.20979768 0.6517626 -0.08173694 -0.21862222 -0.4528572 0.09625323 0.009180462 -0.27652198 -0.41332927 -0.0412623 -0.090739444 0.48462534 -0.022942828 -0.07982227 -0.80690336 -0.0861376 0.20322527 -0.10311766 0.4874727 -0.08573571 -0.1865938 -0.37879327 0.105412446 -0.053395223 -0.25344405 0.49113223 0.008007536 0.18943289
768 0.27629748 -0.44221622 -0.15938859 0.09915617 -0.64067906 -0.013457273 -0.01480578 -0.0051969225 0.38280785 0.39330384 -0.35552117 -0.11541104 0.5275308 -0.10347612 -0.22640486 0.01781562 0.0110878805 -0.05273753 -0.385893 -0.37349436 0.045644846 0.008480844 -0.4414631 -0.0060637924 0.2194874 0.12573962 -0.49684605 0.09030401 -0.30672857 -0.23012859 -0.061851077 0.26835135 0.40635726 0.20562357 0.06401528 0.5201488 -0.057621103 -0.09469537 -0.6791818 0.13208574 0.07734651 0.17476559 -0.28824094 -0.28873187 0.28333235 -0.15636355 0.08716185 -0.430985 -0.3711169 0.22639161 0.14898418 0.82204705 -0.022957748 0.1673808 0.06800586 -0.031633005 -0.074623406 0.11768041 0.0012741598 0.19459316 0.15086256 0.02145239 0.019256374 -0.23546827 0.04101351 0.06445011 0.1644907 -0.18359743 -0.11772786 0.012083503 -0.3186782 -0.44621873 -0.42206737 0.0021016398 -0.011464919 -0.13473266 -0.27939057 -0.11175525 -0.14208475 -0.20459914 0.17276902 0.6902158 0.5886753 0.027251791 -0.12517275 0.051828198 -0.0054141376 0.4038294 -0.26309502 0.40724966 -0.4253953 0.14722434 -0.5491553 0.15211277 -0.047490586 -0.16784652 -0.101284385 0.035924114 -0.34092882 -0.18737718 0.09042317 0.73015434 -0.33010903 0.2700774 -0.30771014 -0.0752921 -0.08723745 -0.44585058 -0.21466145 -0.0689396 -0.093115866 0.31235576 -0.11783119 -0.2690206 -1.0194215 0.107454665 0.2330769 0.13059518 0.6191709 -0.11223469 -0.5972733 -0.016065696 0.01857271 0.12045144 -0.06541636 0.5216755 0.26654828 -0.06842656
5 0.13830505 0.115321 0.0863856 0.07002474 -0.03305803 0.20012964 0.15077195 -0.092726335 -0.121891074 0.2544723 -0.15265265 0.43817264 0.046059348 0.2223295 -0.6254634 -0.16089799 -0.20990372 -0.07042655 -0.2835383 0.07770713 -0.1734396 0.28241324 0.010147648 0.20792103 -0.18844382 -0.15941416 0.20409867 0.4342236 0.0063246405 -0.33637217 -0.091537155 0.36975053 0.79871905 -0.42104784 0.04613556 0.08853087 -0.41178605 -0.18652633 -0.11225772 -0.52357197 0.112032466 -0.18336911 -0.23422796 -0.2523789 0.3035807 -0.16123003 0.116829574 -0.29314953 -0.17780647 -0.03365522 -0.19790412 0.43890044 -0.08179002 0.379171 0.11468906 -0.3793107 -0.0017627334 -0.05701068 0.19304197 -0.14615667 0.25562266 -0.28531876 -0.3967904 -0.20566908 0.63558435 0.68262863 -0.0923088 -0.7520335 -0.2069557 -0.17474845 -0.013915559 -0.47035405 0.048592035 -0.23103963 -0.19636257 0.07942488 -0.23079889 0.3868552 0.12331068 0.040697806 0.3194081 -0.12234231 0.26816496 0.24976881 0.31709087 -0.37058768 -0.074224435 -0.16832452 0.16640212 0.07201626 -0.63152057 -0.012306732 0.4705262 -0.11985828 0.13877052 -0.3276171 0.044912495 -0.12010484 -0.1226759 0.13855895 0.26042056 0.29230684 -0.24699856 0.010775129 0.1929049 0.26650017 -0.52996886 -0.029214488 -0.08112859 0.008157228 -0.13084838 0.04092303 -0.5603032 -0.8650841 -0.3023264 0.45083055 0.3410097 0.1167042 0.2943003 -0.45542267 0.18714261 0.10904469 0.21538594 -0.24874572 0.21659926 0.77142364 0.07132594 -0.05515647
115 -0.09136576 -0.7436428 -0.2954559 0.105276056 -0.34014058 -0.017777234 -0.011492755 0.06477426 0.64488643 0.70118946 0.063830435 0.091116875 0.3147583 0.21339884 0.16896218 0.30098835 -0.31566906 -0.45510164 -0.19811402 -0.30396065 0.08651897 0.057281855 -0.33210763 0.31276703 0.39678192 0.062606685 -0.78400457 0.047711547 -0.09757084 -0.22816579 0.12477043 0.14147764 0.40418613 7.405633e-05 -0.1290292 0.36356655 -0.25827074 0.00974677 -0.26374683 0.10817358 -0.14084078 -0.13042085 -0.15646267 -0.38777944 0.1665765 -0.08071638 -0.067821026 -0.18955271 -0.119822115 0.32566565 -0.076336004 0.5099035 0.16182175 0.2634336 0.2682405 0.32044324 0.08587779 0.27368343 -0.03745121 0.33939222 0.16063896 -0.12672456 0.06605192 -0.5549188 -0.15326723 -0.090411715 0.33276486 0.0806486 -0.08390557 -0.18035121 -0.24802177 -0.5994658 0.09138014 0.178941 -0.19271334 -0.22825292 -0.3816475 0.13267899 0.18491507 -0.07279167 0.3317234 0.5244095 0.20973113 0.25837755 -0.08961017 0.07247572 -0.010053539 -0.052586526 -0.05430661 0.47608706 -0.39344704 -0.32312837 -0.5342625 0.3154296 0.20023605 -0.21092637 0.3109545 0.02166553 -0.3028892 0.020571595 -0.19360207 0.45967528 -0.31548935 -0.27841076 -0.5952151 -0.04509695 -0.029950626 -0.12851493 -0.35643303 -0.045242675 0.06843515 0.2998506 -0.027661158 0.038541414 -0.69672686 0.10684701 0.20556125 -0.1733761 0.3454737 -0.035001956 -0.23979801 -0.22063132 0.1571889 -0.122151785 -0.21565767 0.32329473 0.058340557 0.25748223
158 0.28801963 -0.4057777 -0.060898885 -0.020655561 -0.67701095 0.0032586588 0.102782235 0.056322347 0.51486397 0.33554032 -0.19560863 -0.017186485 0.17578262 0.04359157 -0.070351735 0.21277529 0.0830125 -0.037268866 -0.32339758 -0.26407865 0.06440845 0.19813985 -0.34197772 0.0859401 0.5148977 0.038091775 -0.41919422 -0.0016395892 -0.25391978 -0.1631687 0.024906883 0.10716491 0.6349465 0.13972218 0.07430539 0.72356343 -0.096039794 -0.012723801 -0.7976653 0.16307266 0.14339559 0.08546792 -0.23945402 -0.03141481 0.26693845 -0.1684095 0.10146888 -0.5850583 -0.18481936 0.1808173 0.20482138 0.6162432 -0.16908394 0.2028194 0.120673776 0.042980254 0.09424458 -0.0011915353 0.037027188 0.34626073 0.20083739 0.11178797 0.025929911 -0.4371188 0.0071716397 0.17019942 0.049362727 -0.4867841 0.051249184 -0.09152686 -0.25577962 -0.099507086 -0.31727213 0.13539378 -0.09472151 0.020993909 -0.39628488 0.0028261626 -0.30213153 -0.14921804 0.28210196 0.5511393 0.48586622 0.005769916 -0.22133964 0.13007203 -0.13574453 0.36957523 -0.37373242 0.6320117 -0.5564932 -0.14999998 -0.57294375 -0.10600063 -0.18367061 -0.10987318 -0.33323124 -0.05262333 -0.30768052 -0.40283346 -0.037452172 0.7091199 -0.27420938 0.19093415 -0.41483876 -0.34137157 0.02742695 -0.35079378 -0.34708858 -0.16328697 0.22456834 0.4688848 -0.14734672 -0.26200894 -0.9719331 0.04414578 0.0646263 -0.11998295 0.49070835 -0.14933935 -0.5636535 -0.13748007 -0.053697344 -0.23273088 -0.08887243 0.23953371 0.15746999 -0.034271464
783 0.1534298 -0.31146875 -0.061527174 -0.08201021 -0.61510503 0.18445516 0.1680606 -0.10979574 0.34658906 0.32928306 -0.21733208 -0.067279115 0.5498795 0.009657837 -0.1618131 0.17759205 0.06855011 0.10055195 -0.30731362 -0.21127568 0.03271609 0.059081383 -0.38826445 0.053665366 0.13348621 -0.053479627 -0.33770588 0.24963649 -0.24360421 -0.41046405 -0.11443463 0.25162357 0.4951593 0.15633 0.11334467 0.6697077 -0.25978664 -0.1448391 -0.9202348 0.16057728 0.085478574 0.32076582 -0.2955933 -0.22013734 0.32800573 -0.08162949 0.037199076 -0.5523105 -0.2955791 0.2295786 0.1924664 0.61739105 -0.08063673 0.3275632 0.10363785 0.18201694 -0.040599797 -0.05551997 -0.0027655822 0.18472801 0.15913661 -0.064944334 0.119953774 -0.16993147 -0.08969054 -0.069190025 0.100229144 -0.28068018 0.15261573 0.02151932 -0.26894066 -0.29381287 -0.30637994 0.188637 -0.020998355 -0.00800139 -0.43167526 -0.015724964 -0.40870348 -0.32243088 0.32101902 0.62596655 0.65315413 -0.005782236 -0.00053730933 0.13476434 -0.06207925 0.42232215 -0.27337086 0.53898925 -0.29985693 -0.030397987 -0.43092075 0.12572776 0.078957796 0.12917893 -0.25226828 0.049957253 -0.38222227 -0.23035334 0.102790795 0.45588177 -0.15011536 0.0074096667 -0.5687654 -0.18392754 -0.20730847 -0.2558986 -0.243932 -0.13603245 0.16391693 0.44308844 -0.03417307 -0.04494381 -0.99319077 0.09893945 0.020698268 0.12306675 0.8188698 0.0130883455 -0.47942582 -0.24856496 -0.15470399 -0.24365415 -0.07440468 0.43220684 0.20802681 0.023761887
785 0.11949642 -0.4763211 -0.25888035 0.08597308 -0.7118357 0.046575755 -0.022574747 0.11876706 0.5466273 0.24422358 -0.21196412 0.007380121 0.43457156 -0.02239173 -0.20222278 0.12673496 -0.08012997 -0.2108475 -0.48291093 -0.37431934 -0.005550544 0.018761223 -0.2824092 0.12728961 0.34160405 0.025403498 -0.33794284 0.087607145 -0.29219326 0.12970898 -0.16298752 0.12230934 0.20511177 0.16696747 0.3151909 0.7075572 -0.13037285 -0.03509365 -0.69596833 0.13987078 0.18118495 0.17558451 -0.30018082 -0.30049118 0.15649857 -0.1674376 0.0783195 -0.65019 -0.28278327 0.17874892 0.1766592 0.5296106 -0.074269876 0.29652035 0.11620503 0.03858371 0.00028576492 -0.040336695 -0.0006786568 0.22879079 0.2938145 -0.047383513 0.032968342 -0.3355046 0.050578017 0.21229571 0.09218229 -0.26809162 0.025582232 -0.033146616 -0.3998244 -0.29988113 -0.35793245 -0.053572167 -0.08761558 -0.011431121 -0.12563966 -0.08966867 -0.30163124 -0.21096297 0.18714912 0.7030895 0.5657585 -0.1556651 -0.16082975 0.058638617 -0.23531207 0.25550893 -0.26012656 0.49689668 -0.46627325 -0.12783259 -0.5491433 0.03955569 0.015181454 -0.021521773 -0.18881522 0.055508252 -0.31717882 -0.06990645 -0.04181212 0.5690863 -0.23458989 0.017248584 -0.43692583 -0.03171234 -0.17146043 -0.23537838 -0.37878367 -0.00015303887 0.19191137 0.5255769 -0.11548648 -0.20939466 -1.1697417 0.12226741 0.22554336 0.18190266 0.6327406 -0.058972154 -0.3573324 -0.22479826 -0.10158327 -0.21494824 0.0511103 0.4323622 0.2531011 0.011054663
71 0.06347951 -0.58734065 -0.1885784 0.619609 0.06725474 -0.2751137 0.20121701 0.4405059 -0.2991586 0.21774392 -0.029006619 0.36405715 -0.36905682 0.7479351 -0.2235671 0.11365078 0.14552972 -0.48935363 0.015456552 -0.3822021 0.37639284 -0.2609166 0.05874998 0.35624182 0.56541955 0.17990665 -0.20401253 0.17870967 -0.37395418 -0.18970755 0.37766936 0.06385419 0.28623098 0.19611636 0.055700243 -0.30302024 -0.046827354 -0.092184864 0.20070785 -0.66295695 0.23855081 -0.32992288 0.2588392 0.027014313 0.11576111 0.01587478 0.5567814 -0.5615589 0.29464573 0.2109418 0.24538627 0.45804092 -0.32056972 -0.33309436 0.19477893 -0.20339039 0.49845928 0.2949615 -0.123407796 0.32569215 0.006465852 0.42526576 0.32424626 -0.28747916 0.3126331 -0.07188121 0.123076946 -0.7910538 -0.19961958 -0.13503905 -0.4908997 -0.1703208 0.043350175 0.107108705 -0.035434436 -0.14768144 -0.52130616 -0.18102981 0.41514647 0.25646147 -0.18664233 0.25191838 -0.077888265 0.308092 0.3659859 -0.11227447 0.06701936 0.15862879 0.056021594 0.25037906 -0.8613333 0.2344443 -0.0216606 -0.12633468 0.16398919 -0.38765907 0.14147274 -0.3287513 -0.41304222 0.20756769 0.3610381 0.4759628 -0.7426835 -0.06853835 0.038003214 -0.26422736 -0.16135791 -0.18430273 -0.07962459 -0.11292789 -0.12014503 -0.024978455 -0.16812126 -0.48833433 -0.0810879 0.4961201 0.5214181 0.17469297 -0.079144776 -0.18919644 -0.008118051 -0.42249238 0.51263046 -0.021775614 -0.04836067 0.5268221 0.1298871 0.00065342226
782 -0.080681115 -0.24457386 -0.1767282 -0.11708335 -0.84671915 0.0007471738 0.00058948627 -0.13436824 0.502358 0.26975396 -0.4566155 -0.0011157162 0.5492545 0.051544093 -0.0917147 0.16995567 -0.07309422 -0.123343974 -0.30328503 -0.39067942 -0.010952165 -0.11772019 -0.3173532 0.17944391 0.19547188 -0.059567288 -0.30009308 0.040256746 -0.2222467 -0.0181389 -0.12699148 0.3349231 0.35372102 0.24130236 0.017168164 0.53160477 -0.022517445 -0.061998755 -0.632394 0.42804524 0.042792298 0.15008408 -0.30645075 -0.20089854 0.048766486 -0.044492554 0.06416955 -0.6465747 -0.29598224 0.28921238 0.05170567 0.48984486 0.13877332 0.30774197 0.08349936 0.02197388 0.0019248485 0.032140907 -0.054242283 0.28334513 0.19869854 -0.05363794 -0.00967368 -0.37413946 -0.07938257 -0.0019448167 0.25427824 -0.10886387 0.17520158 -0.07392902 -0.19608292 -0.4892687 -0.46893713 0.17021498 -0.054323725 -0.027084086 -0.08524821 0.057314925 -0.39149204 -0.20939775 0.33101988 0.68437237 0.59753007 0.026097523 -0.13883004 0.044748787 -0.23245326 0.31683797 -0.2788048 0.49182448 -0.6048674 -0.036661517 -0.6578993 -0.008212949 -0.0013805497 -0.21462592 -0.13448833 0.18361726 -0.21265657 -0.2512141 0.037759762 0.6699686 -0.40206417 0.0132944295 -0.33297694 -0.18683174 0.040533192 -0.37874824 -0.222797 -0.039043047 0.09791225 0.6022034 -0.16613044 0.11482045 -0.979187 0.12424954 0.1268093 0.042565048 0.80387735 -0.12100564 -0.5347376 -0.14688183 -0.014955819 -0.09243906 -0.19534615 0.41261667 0.2129727 -0.027878063
758 0.13635603 -0.5274396 -0.19431426 -0.046647366 -0.7891858 -0.034871064 -0.0004038748 -0.041901313 0.3371577 0.4041322 -0.1993944 0.02922184 0.22835626 0.10322263 -5.8488986e-05 0.040520933 -0.03437524 -0.02369935 -0.3885723 -0.4512752 0.0062180036 0.053230673 -0.43580896 -0.009314717 0.10072259 -0.0016205922 -0.3797071 0.07112086 -0.13408615 -0.062666625 0.1094663 0.22702332 0.5507092 0.4193951 0.034710266 0.580256 -0.17947347 0.049632505 -0.8985728 0.26273814 -0.0044368347 0.043501977 -0.25334936 -0.35145667 0.3689375 -0.20320477 0.11481315 -0.6872487 -0.2759043 0.14606565 0.22280386 0.5742712 0.060297366 0.1479142 0.08195416 0.1668505 0.25272897 -0.021907933 -0.15671846 0.21155135 0.02880588 -0.04703006 0.018988963 -0.31819043 0.09603448 0.059572026 0.14007774 -0.19576183 -0.030595558 -0.024262015 -0.29945362 -0.23598197 -0.3718433 0.05014593 -0.15510172 -0.02356729 -0.24014173 0.012453307 -0.35059866 -0.2820987 0.40243942 0.5409837 0.6530685 0.11878925 -0.21251914 0.01866845 -0.11478442 0.34505278 -0.17420755 0.3336406 -0.6051776 -0.06900246 -0.54623735 -0.0289718 0.028987475 0.012440155 -0.31454602 0.14047606 -0.2748062 -0.23464015 0.08882464 0.61468315 -0.18468684 0.0919461 -0.50085163 -0.21185666 -0.11010252 -0.21312232 -0.29181194 -0.07573841 0.03078811 0.4731885 -0.17654064 -0.10119564 -0.90578276 -0.060789175 -0.0009548217 0.19572285 0.538494 -0.12871356 -0.4528052 -0.23467791 -0.110996656 -0.16334407 -0.26689392 0.5107778 0.2515472 -0.14296223
117 0.027836077 -0.71860725 -0.2634985 0.16692819 -0.257253 0.030541833 0.03671259 -0.0928832 0.40990114 0.4977895 -0.04091432 0.011091713 0.2654611 0.3012714 -0.09188692 0.42777175 -0.13502227 -0.21871904 -0.3094208 -0.28492582 -0.00909929 0.06003942 -0.040032722 0.20569596 0.45282584 -0.14568801 -0.5810314 -0.020710053 -0.05960501 -0.15351032 -0.024940047 0.21764135 0.27811295 0.17201614 -0.067714475 0.33993024 -0.17030382 0.029943515 -0.4544672 0.19151029 -0.08220283 0.17083123 -0.08775076 -0.21048604 0.4271348 -0.108732566 -0.103358746 -0.319943 0.10654166 0.31280825 0.13865183 0.45889363 -0.007442973 -0.22606708 0.39442357 0.4008154 0.3114307 0.14778538 -0.06357796 0.4878885 0.18887179 0.042248502 0.1879929 -0.34240204 -0.36435276 0.11448615 0.15760963 0.0035308995 0.025561329 -0.27767923 -0.20747894 -0.5721962 -0.22618033 0.16151829 -0.3024669 -0.15716402 -0.40019876 0.11986654 0.21833487 0.13299634 0.28059617 0.3939568 0.38445157 0.26240402 -0.045322686 0.1810515 0.32506236 -0.041236762 -0.11551576 0.42069167 -0.536316 -0.113710575 -0.6270525 0.20032088 0.3204998 0.1893844 0.18196215 -0.22193328 -0.27807072 -0.052351933 0.0024979427 0.6670408 -0.16624023 -0.34935522 -0.47478506 -0.1905431 -0.19628203 -0.34160003 -0.23086803 -0.17637722 -0.17432293 0.6203797 -0.064248286 -0.12311484 -0.6514133 0.04851293 0.1564698 -0.09806581 0.3074668 0.07717419 -0.119004816 -0.30124193 0.15704246 0.0794358 -0.34805334 0.31966615 0.20865992 0.1837965
55 0.19465324 -0.24798004 -0.110243134 0.2544861 0.23185325 -0.014117561 0.24547301 -0.15139595 -0.2218172 0.06547262 -0.21389952 0.56605446 -0.12273034 0.4974788 -0.23771194 0.24101949 0.0005090805 -0.5277108 -0.17492147 -0.12028214 0.052920874 0.10945118 0.15389961 0.20553605 0.09890181 -0.19739673 -0.0033410888 0.68640125 0.08508278 -0.24862517 0.34265745 0.22332145 0.42981705 0.06193948 -0.04198349 0.17847425 -0.13272883 0.051398635 -0.102034934 -0.25901282 0.09892408 -0.300209 0.08924783 -0.07835417 0.09482171 -0.22513814 0.101475 -0.29275405 0.13791552 0.1741757 -0.24772689 0.34059855 -0.45078057 0.15518211 0.18783365 -0.19256957 0.39008018 0.24270433 0.0971682 0.099104434 0.10974124 0.028674921 -0.07672509 -0.24859081 0.27517498 0.07309766 -0.15842192 -0.7753309 -0.029319385 -0.5522223 -0.11399806 -0.15805174 -0.008539802 -0.07720272 -0.10495947 -0.15885083 -0.31962705 0.16147734 0.4448146 0.6271688 0.3320231 -0.31857887 0.12377297 0.5178597 0.26324004 -0.3248597 0.16589147 -0.18951857 0.027425503 0.025565164 -0.7571985 -0.10151307 0.10421731 -0.110687785 0.2622533 -0.27016824 -0.049829047 -0.32963634 -0.3861377 0.058084942 0.3584083 0.24925186 -0.21441685 -0.23720774 0.17895485 -0.24675359 -0.2710859 0.13309613 -0.1670013 0.069420524 -0.27412468 0.09710406 -0.24135637 -0.5414585 -0.2808354 0.34530723 0.5680229 -0.0020559852 -0.09988837 -0.48517072 0.296744 -0.05831733 0.37386253 -0.08969559 -0.19476098 0.29513526 0.2866086 0.06642561
779 0.060515065 -0.2875329 -0.17614767 0.017518029 -0.7462854 0.16945569 -0.22374728 0.010793585 0.44544032 0.28456423 -0.3444742 -0.03711687 0.4329123 0.041853555 -0.24926256 0.12299253 0.015983243 0.036141332 -0.3263965 -0.56165713 -0.06787507 -0.087191224 -0.3303143 0.1043353 0.2786126 0.050058987 -0.47285703 -0.010642289 -0.38642722 -0.083501846 -0.21462919 0.20183297 0.48015767 0.25428894 0.088739514 0.5769478 -0.043366197 -0.07369074 -0.72268564 -0.02805872 0.1974329 0.38675132 -0.16761817 -0.3394504 0.30275893 -0.08302544 0.104529805 -0.59546185 -0.41357952 0.4045136 0.14455318 0.7001147 0.0923748 0.23898168 -0.021595025 0.15531415 -0.17025521 -0.09038934 -0.05166071 0.2698765 0.22064118 -0.07314573 0.17262016 -0.36006013 -0.052644473 0.10581837 0.19176514 -0.27750322 0.052395478 -0.1336609 -0.28391683 -0.40837216 -0.35868505 -0.039092276 0.12610339 -0.13041459 -0.3440301 0.04102932 -0.30684403 -0.3635219 0.21416837 0.8304298 0.5063238 -0.11649608 -0.13018341 0.19264698 -0.069920756 0.2957194 -0.31025818 0.552306 -0.37837598 -0.034742147 -0.2736663 0.10569151 0.118110046 -0.04318249 -0.2354812 0.122851394 -0.15658985 -0.15975632 -0.016898498 0.6582585 -0.17428532 -0.1396615 -0.5575186 -0.20516716 -0.01959258 -0.42586493 -0.37007305 -0.11892552 0.094998166 0.52731967 -0.11842782 -0.089667596 -0.8400795 0.04189506 -0.01966877 0.001779667 0.5432612 -0.075998254 -0.5769132 -0.3988522 0.011751999 -0.13026406 -0.09908164 0.4122837 0.1616188 -0.120663434
114 -0.009647868 -0.7636261 -0.26597086 0.17855468 -0.5054282 0.13869998 0.13472156 0.049182273 0.67168665 0.7372677 0.13158688 -0.00880256 0.30693403 0.3077134 0.103820495 0.3365804 -0.29914933 -0.19079687 -0.32588443 -0.29284215 0.08923298 0.110957995 -0.23495173 0.35238627 0.3637733 0.111355856 -0.7478617 0.010827612 -0.10163974 -0.22538655 0.059685983 0.19327584 0.3861407 -0.01129562 -0.22794414 0.5568014 -0.23233166 -0.009993887 -0.3811107 0.08293375 -0.25887266 -0.10080289 -0.32398647 -0.24522589 0.325089 -0.06970976 -0.14327635 -0.27037916 -0.10257568 0.43957978 -0.103973836 0.5311136 0.11673242 0.31769085 0.2948175 0.20771408 0.08111818 0.1462315 0.030895667 0.43117625 0.24886635 -0.048704002 0.046790395 -0.503244 -0.28707716 0.065690726 0.30888128 -0.048008583 0.10814691 -0.12637265 -0.14045015 -0.5393886 -0.003076361 0.14757964 -0.24666904 -0.16798584 -0.40050715 0.26267764 0.08705463 -0.088417456 0.30267864 0.4348234 0.22464812 0.1489071 0.0043142615 0.15600139 0.16457646 -0.06684865 -0.08397444 0.5813857 -0.4404869 -0.28985843 -0.5460707 0.22972997 0.13086635 -0.13796403 0.11623492 -0.061851006 -0.20454769 -0.050903156 -0.26510414 0.5561265 -0.15773022 -0.2078264 -0.5880485 -0.12772785 0.034384795 -0.29808456 -0.23356877 -0.11999445 0.085628495 0.42289412 0.04180065 0.06539301 -0.78272825 0.07673082 0.19206831 -0.2480994 0.31053734 -0.066046804 -0.09374075 -0.20164303 0.1388266 -0.14381638 -0.17529611 0.38287157 0.019335354 0.23000073
781 0.2223354 -0.34825274 -0.09815408 0.17281125 -0.774871 0.025315387 -0.111050636 -0.30149654 0.37136927 0.2895491 -0.13135955 0.04965127 0.32217145 0.001734796 -0.0737514 0.17940998 -0.12528 0.027946342 -0.4001913 -0.45858547 0.0322842 -0.008621593 -0.35941052 -0.04795794 0.24671078 -0.02195369 -0.20147212 0.08411093 -0.34637657 0.0023332187 0.026681002 0.27151456 0.35226798 0.10396578 0.14117585 0.61239254 -0.29208523 0.020146808 -0.7586603 0.25640878 0.14343293 0.31111974 -0.2691313 -0.2268468 0.33182263 -0.042828538 0.11874656 -0.56886065 -0.3580225 0.4071607 0.1537505 0.6278744 -0.17447817 0.25893676 0.1962983 0.052955903 0.027111875 0.02860736 -0.14248173 0.10109106 0.1434596 -0.19261363 0.059409257 -0.400216 -0.09380708 0.08611954 0.19552109 -0.3549579 0.06954105 -0.14701211 -0.2575141 -0.32781345 -0.2382749 0.03709967 -0.24684538 0.053414967 -0.23469885 -0.033544075 -0.38458183 -0.23913962 0.2651861 0.66319185 0.53941935 0.080622196 -0.26841965 0.032099046 -0.15691768 0.37297946 -0.2264273 0.490891 -0.5557298 0.0039766296 -0.541645 0.084850654 0.21174078 0.099090494 -0.14600626 -0.008519608 -0.3181113 -0.1807625 -0.0044022924 0.6277626 -0.20696013 0.0673908 -0.45659277 0.010251199 0.018579023 -0.27096936 -0.4166197 -0.07085281 0.09805395 0.47798902 -0.15390974 -0.05177538 -0.96361285 -0.04089509 0.06360227 0.07861033 0.59736687 -0.16591677 -0.3735292 -0.2627933 -0.10802427 -0.29531747 -0.1394028 0.47150236 0.05659668 -0.13814299
780 0.21644548 -0.2978538 -0.10344521 -0.03542791 -0.7077364 0.087049015 -0.09580618 -0.10326369 0.64065176 0.1832697 -0.26311108 -0.05763691 0.39667866 -0.1077287 -0.07189778 0.10885488 -0.13399589 -0.00082285266 -0.32193378 -0.54811203 0.033179194 0.093388274 -0.5082533 0.32682917 0.30109477 0.055434044 -0.3595722 0.01607585 -0.25901112 -0.3263011 -0.0060481476 0.0669302 0.5012337 0.20983516 0.056570936 0.53136665 -0.31561226 -0.02727335 -0.90178686 0.1425129 0.049457446 0.16391914 -0.22736074 -0.16781081 0.23762752 -0.20846893 0.002360814 -0.42628777 -0.29969016 0.12998663 0.18498358 0.6891733 0.12750386 0.27180463 0.014921875 0.1318834 -0.027074104 -0.09270998 0.0048930827 0.2744113 0.18665645 -0.18505329 0.018505309 -0.46304274 -0.05084792 0.22575666 0.047626976 -0.2914733 -0.098991565 -0.040442176 -0.21670884 -0.3136675 -0.25355074 0.13479383 -0.08784916 0.033382706 -0.21631055 -0.08494777 -0.34280878 -0.11396665 0.40501043 0.6438339 0.49598175 0.039076064 -0.18834975 -0.033776164 -0.08351426 0.18246685 -0.39916557 0.5150434 -0.3625445 -0.060652725 -0.40596187 0.014611668 -0.06726783 -0.059612546 -0.34717786 0.054662965 -0.25096232 -0.20502937 -0.09367826 0.59382087 -0.050698478 0.16829382 -0.3648812 -0.041527297 -0.07111618 -0.24066573 -0.586529 -0.23662119 -0.0027741387 0.4149973 -0.27356234 -0.25791332 -1.0708683 -0.050133046 0.06169933 0.19614968 0.7178809 -0.028051388 -0.50292426 -0.20018546 -0.02872428 -0.086143725 -0.1400148 0.32380655 0.28930733 -0.049991135
7 0.16199513 -0.20317185 -0.15435411 0.19324224 0.116480134 0.15526731 0.10672173 -0.26209876 -0.14629987 0.14201185 -0.2621466 0.59507865 0.060833447 0.2516943 -0.44453028 0.13092288 0.014222505 -0.32853925 -0.33399802 -0.07132359 -0.09226464 0.21601555 0.15070313 0.30637312 0.017249161 -0.11836496 0.07964598 0.75173706 0.049919914 -0.23640715 0.07319728 0.20665175 0.6560453 -0.15517578 0.11846361 0.23733096 -0.4952257 -0.09488813 -0.120298296 -0.29014596 0.0032369778 -0.13548008 -0.18430212 -0.056993295 0.18414189 -0.32486323 0.14700137 -0.2289927 -0.13823412 0.0049388176 -0.29713023 0.49607986 -0.36983383 0.34889975 0.16056053 -0.4469177 0.277107 -0.07834803 0.17781773 -0.077036425 0.35999697 -0.13497567 -0.23723741 -0.27488393 0.3945361 0.4733853 -0.1521383 -0.8320832 -0.09588912 -0.53507864 -0.020837616 -0.28895715 -0.03717273 -0.11105232 -0.14988242 -0.019922972 -0.19886185 0.3880945 0.3411967 0.35134497 0.51117074 -0.3106598 0.24565832 0.45159912 0.31059173 -0.42118835 0.10955139 -0.18013638 0.17860088 0.15676053 -0.6036855 -0.075957336 0.57967293 -0.14349397 0.21533826 -0.33413148 0.001436168 -0.26233372 -0.20527044 0.056501172 0.3251083 0.17653672 0.026201872 -0.1312491 0.08885446 -0.03362038 -0.4229863 0.04014073 -0.09257683 0.12453586 -0.26128897 0.08821739 -0.40569422 -0.62639636 -0.426059 0.3903304 0.43910798 0.101530954 0.13775462 -0.45369157 0.3485687 0.0046964074 0.28402594 -0.3000952 -0.0102973925 0.37725577 0.27249587 0.08799519
316 0.15136814 -0.25744668 -0.08418 -0.25611192 0.09229895 0.65139097 0.28262365 0.24958546 0.29565 0.1621202 -0.29335278 -0.327408 0.4434394 0.62095135 0.16908866 0.23927814 -0.13539521 0.07805009 -0.27573237 -0.08242892 0.5655711 -0.16151667 0.105636634 0.8461734 0.54311633 0.052531082 -0.083634906 0.38247746 -0.2710326 -0.22725777 -0.09131491 0.0913569 0.15934023 -0.36788076 -0.12738357 -0.631182 -0.31115454 -0.113579154 -0.16570185 -0.40049306 0.050099976 -0.11651616 0.09547794 -0.04836181 -0.08584228 0.15097208 0.1534663 -0.7123598 -0.72565246 0.3568365 -0.041236404 -0.025979327 0.2601549 -0.044704873 0.036045924 -0.23404357 0.17162317 0.17671253 0.043271456 -0.131357 0.45219585 0.06473501 0.28268632 -0.5537578 0.24128924 0.18379375 0.21063964 -0.08811211 0.5988832 0.17821275 -0.17647707 -0.007086734 0.3713258 -0.3723927 -0.19953229 0.16070978 -0.6360004 -0.10491213 -0.23914002 -0.32386234 -0.15384424 0.09855044 0.269929 0.20349605 0.17449872 0.41258323 -0.20490363 0.15131651 0.3962546 -0.25519675 -0.3118371 0.0069433576 0.13810909 -0.36493707 -0.025742617 0.15203446 0.050251983 -0.18318783 -0.34820065 -0.22342843 0.25449315 0.15383945 -0.18357913 0.2964346 0.2128074 0.32834 -0.06626176 -0.2774394 -0.095303714 -0.11170624 -0.04116086 0.29119238 -0.26565439 -0.47291917 -0.46994132 0.50447446 0.04753828 -0.039348233 0.3641236 -0.13751782 0.07998911 -0.9074092 0.19371879 -0.22135574 -0.10060302 0.32572576 0.18212646 -0.19470374
784 0.17115283 -0.301225 -0.16002423 -0.08361208 -0.6929202 0.04490773 -0.10092128 -0.016295599 0.49339455 0.22180608 -0.19053668 -0.057049755 0.30632246 -0.035561346 -0.024643242 0.18149523 0.0040120766 0.058679283 -0.4425142 -0.50549346 -0.0094391275 -0.09180218 -0.42857835 -0.08149133 0.2563742 0.023727179 -0.35446286 0.34778407 -0.11590994 -0.082726605 -0.056903 0.12196518 0.42729622 0.24076177 0.08246044 0.60810083 -0.10501549 -0.12821472 -0.740804 0.15947719 0.07472938 0.1685883 -0.32400805 -0.01476819 0.24007614 -0.113201976 0.06669417 -0.6176725 -0.4824144 0.37021282 0.04587338 0.6448288 -0.004952185 0.22544195 0.12338458 -0.036619317 0.06833908 -0.038329937 -0.10320714 0.38313818 0.20332012 -0.06552577 -0.0001958964 -0.270995 0.0049703014 0.23921688 0.07945188 -0.39391667 -0.12685625 0.10042382 -0.23796977 -0.4806906 -0.34090522 -0.06438976 0.056745086 -0.09716626 -0.20138119 0.010762437 -0.28854784 -0.1971106 0.2350823 0.7825326 0.5497327 -0.06711861 -0.07826153 0.058259897 -0.10464904 0.23675662 -0.1803134 0.43139 -0.42517513 0.042908378 -0.5037387 0.023416275 0.045924895 -0.057449434 -0.15530987 0.015323898 -0.09346482 -0.32281095 0.17816128 0.85513866 -0.212777 0.16970406 -0.49219957 -0.34081712 -0.062700726 -0.22079475 -0.40495312 -0.071772665 0.13790251 0.37904653 -0.032938223 -0.1270426 -0.9557412 0.093177356 -0.02526444 0.19268878 0.42890516 -0.12980044 -0.7216119 -0.2054741 -0.118560866 -0.29464173 -0.019574821 0.536129 0.08752516 -0.019057587
773 0.11196912 -0.30405244 -0.028181832 -0.16006957 -0.6327055 -0.13273624 -0.09351055 -0.13351569 0.20619215 0.28449827 -0.33928603 -0.06940847 0.48819703 0.042067323 -0.19544642 0.21325007 -0.05433828 -0.04483549 -0.3735909 -0.56044966 0.0084989155 0.13680503 -0.3769965 0.0142406225 0.29070705 -0.10367742 -0.34748995 -0.059683327 -0.1657041 -0.10765393 -0.0631238 0.25184816 0.33424598 0.28164896 0.2801939 0.47332197 0.046713717 -0.074865736 -0.7074207 0.116776496 0.31522426 0.067473836 -0.26857665 -0.36488104 0.25577235 -0.03708035 -0.056260355 -0.40410075 -0.25438082 0.28254634 0.13438585 0.6560593 0.08651763 0.2400962 0.034461547 0.045974646 0.07926844 -0.056203157 -0.097135864 0.2531262 0.2328708 -0.33151647 0.05017851 -0.53233474 0.054444574 0.22846687 0.12853181 -0.12331077 0.11726063 -0.16940396 -0.18967965 -0.2873047 -0.4394799 0.1823477 -0.20102748 -0.008087283 -0.3526065 -0.024105875 -0.27688363 -0.22660835 0.23653145 0.7382251 0.7423529 0.053017247 -0.32068104 0.043703545 -0.23773947 0.3808213 -0.25046337 0.52043307 -0.50706124 0.04551639 -0.29044607 -0.002845473 -0.023276322 -0.03825536 -0.111634426 0.10821093 -0.16601962 -0.14180584 0.19744797 0.85135055 -0.16685508 0.10929085 -0.53589404 -0.15202692 -0.04131535 -0.47335625 -0.18945119 -0.27125016 0.09303665 0.52465653 -0.24592595 -0.045279935 -0.8945461 -0.090872735 -0.0029241594 0.10404843 0.52135515 -0.2187381 -0.4940885 0.0053963363 -0.007850455 -0.18095823 -0.109175384 0.23156743 0.22660649 0.02328201
624 0.10457456 0.10929308 0.3628356 -0.197233 0.085933134 -0.006215131 0.2527711 -0.15485774 0.039006248 0.23831862 -0.26035738 0.40252608 -0.0454948 0.29205403 -0.53950393 -0.0195379 -0.48214364 -0.21648687 -0.32813033 0.13952795 0.016909307 0.3831525 0.20677608 -0.033445697 -0.07229365 -0.36345333 0.1677833 0.37540433 0.16090038 -0.29066062 0.18302706 0.29751265 0.8026198 -0.35974383 -0.13920939 0.08077701 -0.19754966 -0.045855656 -0.14360902 -0.35970458 0.1725555 -0.32968378 -0.13879474 -0.19904509 0.40454483 -0.11324229 0.21949925 -0.1681803 0.044634145 0.20655084 -0.35471168 0.38951927 -0.15945548 0.3378494 0.18647166 -0.29132771 0.15822858 0.058754746 0.05798473 -0.21143383 0.15414044 -0.16581328 -0.32202512 -0.23657152 0.5289609 0.5437428 -0.111183316 -0.69991094 -0.17542958 -0.11526896 -0.0019033543 -0.43980736 0.030628195 -0.20177586 -0.30040562 0.07784686 -0.5410875 0.41232076 0.20902082 0.14584863 0.118302785 0.024897441 0.19820526 0.3413509 0.029765153 -0.36576435 -0.18992679 -0.22478665 0.21752998 -0.045571115 -0.7941474 -0.10466286 -0.08009634 -0.046294816 0.11845835 -0.22227141 0.1080258 -0.073083326 -0.1280355 -0.022787958 0.3763993 0.3747432 -0.51766354 -0.05409505 0.09064204 0.39960107 -0.43745333 -0.043723628 -0.13888496 -0.23429528 -0.14378333 0.15366164 -0.55301905 -0.763053 -0.48826393 0.5279635 0.1315378 -0.17059223 0.25902873 -0.66145134 0.11938562 0.26542607 0.26124248 -0.20653804 0.08164276 0.8114375 0.085817255 0.13345577
626 0.18890418 0.0047859894 0.20308003 0.22561441 0.1834402 0.050846443 0.13313675 -0.08765704 0.034523584 -0.051323995 -0.34820247 0.42744765 -0.04102935 0.42819673 -0.40509903 -0.022064537 -0.28800458 -0.36597162 -0.27345216 0.1493591 -0.21647029 0.16648528 0.15385832 0.32293567 -0.03107997 -0.273065 0.30770436 0.5906084 0.10096528 -0.2673904 0.051493205 0.3526339 0.77098125 -0.25032765 0.103316605 0.14705406 -0.26897562 -0.21187945 -0.16658722 -0.22485895 0.2339164 -0.45594028 -0.076008245 -0.22632708 0.1333027 -0.2438362 0.07542011 -0.1981072 -0.054787695 -0.012642676 -0.30249825 0.35395977 -0.4094422 0.40026823 0.3663983 -0.28598487 0.13797013 0.11583315 0.1775662 -0.1183443 0.3610902 -0.13242489 -0.2861981 -0.29131773 0.6954348 0.32381925 -0.28313482 -0.9580798 -0.2622846 -0.30464303 -0.05386851 -0.32552677 0.19039886 -0.35299423 -0.3226236 0.035163578 -0.35718808 0.35699087 0.25866106 0.31585956 0.14189821 -0.23252028 0.20260625 0.413214 0.09942661 -0.44852284 -0.018650971 -0.11231879 0.068023376 0.009292322 -0.710681 -0.09290778 0.24113303 -0.13782705 0.20939282 -0.32194608 0.20166656 -0.24283196 -0.34663564 0.22224455 0.28954133 0.32214013 -0.19072132 0.06101531 0.14143042 0.14062218 -0.47022334 0.112774245 -0.14070757 0.19678272 0.049045347 0.04311544 -0.5093423 -0.80695677 -0.3001554 0.400294 0.37053633 0.24939886 0.11364319 -0.66069984 0.2981162 -0.031165892 0.35625058 -0.43360102 0.054394003 0.5998348 0.13768123 0.09866273
627 0.2572683 0.41872856 0.15608525 -0.013191222 -0.05877428 0.052928045 0.362173 -0.14139485 -0.1827829 0.09003226 -0.30167595 0.33274934 0.21421726 0.29917914 -0.5434181 -0.14892343 -0.15223633 -0.16901083 -0.35394862 -0.0406701 -0.18051077 0.22751474 -0.16089252 0.13143252 -0.21398927 -0.41438153 0.31670666 0.46917176 0.10988531 -0.2026442 -0.025136663 0.44914126 0.7303617 -0.28149644 -0.030366985 0.19654854 -0.19168654 -0.09973966 -0.22770211 -0.47749498 0.1549678 -0.290517 -0.08367561 -0.3796591 0.3386514 -0.24590273 0.079899505 -0.38710383 -0.11579907 0.12409288 -0.08540908 0.33005157 0.0018525703 0.52971184 0.08709293 -0.18992169 -0.03632653 0.3050045 0.113981515 -0.2614312 0.0010107036 -0.085547045 -0.327613 -0.25016809 0.7833102 0.32618448 -0.13608453 -0.6865346 -0.3238034 -0.20060496 0.06885063 -0.43030545 0.1984577 -0.2547687 -0.16847304 0.05728295 -0.3786925 0.19321255 0.039259322 0.19765887 0.05136888 -0.12224626 0.16373357 0.20996821 0.27267772 -0.43802682 -0.21972571 -0.10474252 -0.006537883 -0.03900433 -0.5581303 -0.09144478 0.21414775 -0.031382434 0.114179015 -0.26071596 0.08789724 -0.029313408 -0.26717842 -0.053679477 0.36054295 0.37393552 -0.35426325 0.08531162 0.054936897 0.4167112 -0.33427858 0.10587311 -0.07599719 -0.015254205 -0.094631076 0.017148856 -0.6041157 -0.86184597 -0.42614996 0.54432815 0.31674618 0.044984166 0.350003 -0.75956076 -0.019046906 0.06907135 0.05845585 -0.31023636 0.090257876 0.7125839 0.19619611 -0.017094154
686 0.21566553 -0.036957942 -0.0079814615 0.10404648 0.18558566 0.09605628 0.07704445 -0.10051882 -0.09828724 -0.13189009 -0.4242576 0.5445032 0.19194295 0.32047328 -0.3819774 0.04206882 -0.25895557 -0.65128374 -0.25980875 -0.090194024 -0.06386923 0.22968091 0.3298334 0.19189328 0.078951575 -0.26330325 0.18212274 0.6616249 0.12037511 -0.23701301 0.23885326 0.3503196 0.5892499 -0.021394508 0.18542548 0.190604 -0.31227982 0.0035974877 -0.21562873 0.08463759 0.039534476 -0.22840631 -0.20497051 0.022302963 0.04850111 -0.36607918 0.11177077 -0.23858196 -0.12614456 0.13311766 -0.5007695 0.17806326 -0.28496158 0.3677154 0.2402806 -0.12650831 0.16961932 0.22014034 0.15953027 0.018366424 0.38259608 0.13697074 -0.21047685 -0.32432678 0.40518406 0.32709494 -0.19820578 -0.7701082 -0.06905214 -0.3683754 -0.118777625 -0.1998561 0.09129954 -0.17550065 -0.08237212 -0.043007962 -0.47417334 0.25732285 0.2390779 0.5275544 0.2910844 -0.2788464 0.31983525 0.4105236 0.34796968 -0.3035548 0.16353674 -0.2865189 0.103907466 0.07520388 -0.5868272 0.021309882 0.0897196 -0.11926157 0.24253364 -0.33462587 -0.006597039 -0.18294206 -0.056379683 -0.06499293 0.30210972 0.40538296 -0.072535425 -0.02643516 -0.010271194 0.036828056 -0.38715443 0.1375252 -0.19186601 -0.019502101 0.14717054 0.008981231 -0.4909801 -0.7087355 -0.3862627 0.2589167 0.3603879 0.033274833 0.008958551 -0.5791841 0.39174363 -0.06766996 0.19588728 -0.27236277 -0.095671855 0.5472316 0.4115099 0.10696442
4 0.07729759 -0.09543175 0.021034816 -0.29644996 0.039945953 0.15305658 0.1930076 -0.2888026 -0.036228463 0.3876505 -0.2675865 0.44981703 0.13464217 0.09573786 -0.54057634 0.1473603 -0.22926067 -0.14172931 -0.3682299 -0.0023257243 0.044121582 0.41012576 0.26329 0.0074776723 -0.11985554 -0.23108512 -0.005903275 0.5514263 0.20862836 -0.3056096 0.09013472 0.19163212 0.83241415 -0.30347264 -0.07929458 0.1479504 -0.5173461 0.028461047 -0.15089329 -0.42196372 -0.037199497 -0.11354785 -0.29347634 -0.07856378 0.44070837 -0.24604598 0.26063314 -0.1786609 -0.15402699 0.16773401 -0.4483702 0.57677096 -0.15281796 0.4484021 0.11093698 -0.4661759 0.25396392 -0.26360792 0.16447823 -0.25230274 0.26732787 -0.2950638 -0.3068371 -0.25787222 0.30083704 0.65897256 -0.043173116 -0.63576204 0.024165127 -0.32951564 0.11977389 -0.4654351 -0.18322161 -0.00792339 -0.13319851 0.09431728 -0.4278852 0.5314346 0.26571733 0.12916361 0.51060003 -0.074088044 0.2707074 0.38225323 0.20198466 -0.40611675 -0.06302594 -0.28615743 0.3539152 0.0819876 -0.6121609 -0.11741475 0.39632732 -0.03306314 0.11634126 -0.255406 -0.042299077 -0.05556035 -0.0030430227 -0.08536708 0.43541417 0.23922087 -0.18283805 -0.14126116 -0.010316654 0.32167283 -0.41360015 -0.05411464 -0.048470236 -0.25028518 -0.30006614 0.18965852 -0.5371669 -0.5615883 -0.6276185 0.5265487 0.03878617 -0.20532082 0.36439705 -0.5385731 0.13064076 0.29474914 0.16128714 -0.20708834 0.04629731 0.6179726 0.20924005 0.19357894
138 -0.014770871 -0.6548312 0.01803086 0.29821363 -0.19040339 -0.051232733 0.3025191 0.22335194 0.30765283 0.495413 0.2023539 0.28373435 -0.2530771 0.6991948 -0.094111845 0.27081203 -0.0059890244 -0.4534719 0.0045650247 -0.19940722 0.086675666 0.15357563 0.024709137 0.35277405 0.69572127 0.050223842 -0.5027549 -0.00468719 -0.061252348 -0.18308388 0.4224036 0.07242392 0.625138 -0.040598698 -0.20791405 0.322855 0.039168496 -0.004133118 -0.19780181 -0.007885194 0.08146325 -0.21572167 0.16367623 -0.11929063 0.23555024 -0.030249305 0.30936036 -0.31679833 0.3614903 0.35716525 0.11261936 0.280179 -0.27978534 -0.013461519 0.30592734 0.27479815 0.4727258 0.30051392 0.004695735 0.6208458 0.18087882 0.29159492 0.15583275 -0.7514104 -0.07311776 -0.00897605 0.20698807 -0.42886764 0.103106186 -0.44678187 -0.37662923 -0.114282966 -0.056316704 0.09913089 -0.12791479 -0.100143075 -0.56841475 0.12284908 0.390576 0.21705472 0.30113015 0.19698276 0.015866455 0.37311733 0.0627074 0.20603088 0.11797313 0.07630726 -0.08554722 0.55861473 -0.85506564 -0.24786107 -0.4245098 -0.07528807 -0.07652226 -0.21448874 0.017585237 -0.2570833 -0.4490553 -0.05582023 -0.08626242 0.39061168 -0.38574606 -0.21349038 -0.32221824 -0.58855075 0.04643084 -0.3651547 -0.07480566 -0.11450518 0.0779979 0.65982074 -0.0957103 -0.1728666 -0.3436523 0.37465253 0.24570598 -0.40940776 -0.039704334 -0.17654532 0.20146385 -0.3129478 0.26571614 -0.2582693 -0.18764599 0.20035253 0.09361899 -0.067156956
685 0.3259927 0.13765454 -0.058362447 0.15505268 0.13036925 0.008598631 0.29852945 -0.2046796 -0.14744078 -0.051265225 -0.40121412 0.44855204 0.23672993 0.34633142 -0.34823075 0.105267525 0.07171073 -0.43356615 -0.33485973 -0.13353437 -0.10017373 0.084825456 -0.021490077 0.2955683 -0.04641999 -0.3738669 0.3114626 0.7564771 0.19586489 -0.100267366 0.15200783 0.23311636 0.6297926 0.016398447 0.07153655 0.34669238 -0.23071037 -0.0488447 -0.25751916 -0.2310179 0.058414165 -0.295382 -0.051384818 -0.27218404 0.18806212 -0.49032655 0.1326086 -0.35308838 -0.110385366 0.09796794 -0.1271763 0.42699045 -0.32222503 0.4971336 0.16179352 -0.21589454 0.22213094 0.22659883 0.100241624 -0.21337903 0.16612913 0.11532114 -0.17307799 -0.2898238 0.6138946 0.041033383 -0.2532347 -0.81711346 -0.28106132 -0.47490948 0.021325238 -0.17771061 0.0701312 -0.23229676 -0.08323756 -0.02607858 -0.26263154 0.13157855 0.27549222 0.46973634 0.14483844 -0.328189 0.111512184 0.39484406 0.253631 -0.463998 0.0042161467 -0.06360053 0.03554237 0.023949709 -0.46710607 -0.14851303 0.32044858 -0.06474566 0.19686778 -0.27438724 0.055146813 -0.22334878 -0.3885244 -0.05440884 0.3934067 0.25432348 -0.060109794 0.008023589 -0.0612823 0.152449 -0.2216497 0.20099263 -0.09334719 0.23030709 -0.15858148 0.123129636 -0.44412562 -0.6754671 -0.56408894 0.51006633 0.37754008 0.14863478 0.14754342 -0.7200747 0.14821085 -0.10870592 0.09776075 -0.33345148 -0.10297005 0.369025 0.43812978 0.14147158
13 -0.025811113 0.06759166 -0.01971252 -0.029133407 -0.28262976 0.19658667 0.22313559 -0.29265872 -0.18461928 0.21493709 -0.28232867 0.4494324 0.34559676 0.3539554 -0.6005753 -0.03736972 0.13611595 -0.034005973 -0.31701294 -0.05431094 0.03601017 0.34319717 0.103566036 0.33956057 -0.10009539 -0.35254234 0.08236585 0.6134373 0.033744983 -0.26088303 -0.169962 0.34063986 0.49458566 -0.11036345 -0.013458892 0.19737811 -0.56708133 -0.060365524 -0.19931231 -0.43976933 -0.05879694 0.015053405 -0.21201712 -0.108053304 0.17953373 -0.11984372 0.09934418 -0.44579154 0.014854193 -0.15342753 -0.3736927 0.47769785 -0.070303544 0.30125546 0.08043038 -0.30797678 0.15212996 -0.13341488 0.18933663 -0.0987408 0.2837785 -0.2994165 -0.2716292 -0.3229932 0.3173509 0.61931545 -0.034224782 -0.7443102 0.14549935 -0.37406376 -0.058377214 -0.4726455 -0.0932651 -0.08477204 -0.30345923 -0.023951218 -0.26906392 0.56081486 0.1118787 0.34016573 0.55457413 -0.39706314 0.35429737 0.44509026 0.3738732 -0.36624956 0.030123675 -0.17848618 0.18497944 0.029021874 -0.36809605 0.00195838 0.60704875 -0.18906844 0.032330457 -0.28738534 -0.16824931 -0.06391193 0.07032853 -0.10945915 0.27486736 0.28199726 -0.044650506 -0.15063299 0.13202189 0.20317382 -0.44365144 -0.0031589966 -0.025741186 0.011060568 -0.2010945 0.08802624 -0.68028843 -0.8186447 -0.57646334 0.4201248 0.29788664 -0.07606489 0.33874646 -0.36934707 0.025562124 0.26403803 0.23735075 -0.3370229 0.230642 0.48868555 0.13314809 -0.00576123
628 0.16022731 0.21971883 0.1587472 0.04383585 0.021058396 0.112306975 0.120762445 0.0971434 -0.03927254 0.011144644 -0.30787453 0.39617342 0.20740533 0.254183 -0.54560035 -0.2746199 -0.38234898 -0.42054284 -0.23328462 0.035613053 -0.15052906 0.319002 0.20856336 0.14116322 -0.06873182 -0.277366 0.2496732 0.37613168 0.08753721 -0.30445302 0.0107787065 0.49837595 0.70210487 -0.32376742 0.21291906 0.112191625 -0.311525 -0.12736708 -0.20656244 -0.043718267 0.09301539 -0.2927417 -0.27215415 -0.17314547 0.2030529 -0.21370734 0.044292025 -0.34337062 -0.14542721 0.06317914 -0.33971524 0.15610723 -0.019414855 0.412726 0.24260345 -0.082169995 -0.06185534 0.2526643 0.12359975 -0.10082157 0.3393831 0.0053277435 -0.40894178 -0.3257365 0.6271443 0.54941285 -0.15517785 -0.67417073 -0.19651875 -0.023536941 -0.1494517 -0.40450332 0.18690741 -0.32777444 -0.17905924 0.041490514 -0.47843882 0.28399593 0.06572255 0.20778923 0.1348767 -0.11458199 0.35131302 0.24701725 0.35203615 -0.23774616 -0.026158083 -0.2583636 0.103118144 0.04732044 -0.6571841 0.07113465 0.096140064 -0.07496307 0.17482357 -0.35609537 0.08202067 -0.021712383 0.036502544 -0.042791534 0.19498938 0.46192536 -0.21695092 0.09693097 -0.031358875 0.2970172 -0.4807517 0.0034689372 -0.18681587 -0.066033855 0.29303518 -0.064434454 -0.64640915 -0.9532642 -0.28790805 0.26930258 0.2679641 0.08068375 0.18535995 -0.5831469 0.2728447 -0.04339765 0.10568239 -0.34422198 0.13680473 0.92096275 0.20104626 -0.00034865574
198 0.03807623 -0.08785676 0.10840365 0.06027712 -0.06769769 -0.0198067 0.23542184 -0.29378763 -0.12104717 -0.062563576 -0.4270118 0.42374757 0.2013629 0.6005635 -0.3904431 0.07579159 -0.006607546 -0.2998185 -0.3332551 -0.036732737 0.060241356 0.21351624 0.23008735 0.3803531 0.12082206 -0.44322264 0.16763957 0.7145285 0.13126984 -0.14655103 0.0677007 0.27540854 0.33331138 0.11342901 -0.04570147 0.2807852 -0.30912286 0.05613282 -0.21047574 -0.15351418 0.055907633 -0.17486657 0.033759914 -0.050266594 -0.005960316 -0.18932585 0.071860306 -0.26737893 0.1790999 -0.03600803 -0.3722291 0.33388162 -0.39554158 0.2327404 0.2424894 -0.19303712 0.3233632 0.11463933 0.12144735 -0.016981997 0.29053488 -0.10887917 -0.08911759 -0.36675775 0.3129335 0.22103895 -0.15310921 -0.9068003 0.058267932 -0.46800083 -0.12464613 -0.27549118 -0.034715857 -0.15216658 -0.37121746 -0.11452815 -0.38582274 0.41681725 0.22951289 0.62071013 0.2803412 -0.4238026 0.23894387 0.5552567 0.14083028 -0.44562113 0.050734673 -0.08182062 0.08880026 -0.07849312 -0.45623714 -0.06317328 0.21568808 -0.18944782 0.0846878 -0.18223196 -0.08591541 -0.21218829 -0.11859616 -0.07279262 0.29236582 0.29618105 -0.104764916 -0.12201573 0.09781077 -0.012476237 -0.35916385 0.106951185 -0.1021795 0.079325914 -0.11657643 0.107397996 -0.5353851 -0.6928095 -0.5802167 0.3492429 0.38240325 -0.07844025 0.10816198 -0.4932069 0.1398424 0.16106035 0.3700196 -0.38135624 0.045546394 0.2856523 0.22883171 0.08458572
86 0.025224209 -0.6504398 -0.06629571 0.43619403 -0.043955866 -0.18194693 0.33574167 0.34806368 0.043410778 0.42418355 0.16298881 0.29216698 -0.42542547 0.7573998 -0.06512608 0.3138869 0.046034295 -0.47396776 0.061587203 -0.23740704 0.2376232 0.013889073 0.10374737 0.29391265 0.67947453 0.016836127 -0.39178714 0.04956178 -0.24928738 -0.24892871 0.4143232 0.036999453 0.37254047 0.009768964 -0.15641882 -0.062436223 0.04150579 -0.046425585 0.0118902 -0.26402408 0.111812614 -0.23492803 0.24045733 -0.04483775 0.22414435 0.013004796 0.3711306 -0.4173878 0.4109658 0.32152423 0.21412621 0.25672325 -0.29766673 -0.3521716 0.32599673 0.14185491 0.5443712 0.39570293 -0.08638499 0.48874295 0.0627145 0.36455956 0.23721631 -0.49142274 0.01659857 -0.11485467 0.15316996 -0.47348332 -0.07850099 -0.20143385 -0.43618554 -0.2368469 -0.04492715 0.17048037 -0.2335231 -0.13942677 -0.5988345 -0.032617826 0.44444725 0.24706824 0.026413573 0.15099347 -0.044614743 0.37809643 0.19750926 0.13519923 0.09549441 0.004516649 0.015359418 0.31764826 -0.9660874 -0.03138129 -0.4113057 -0.04325117 0.17290233 -0.16700688 0.18677498 -0.3220549 -0.36608657 0.049441602 0.10679783 0.41821602 -0.5991925 -0.22091627 -0.16418178 -0.5316752 -0.11467183 -0.36815912 -0.11337802 -0.1877964 -0.09255175 0.30310693 -0.061566107 -0.26567796 -0.16923009 0.44372705 0.47695637 -0.16828923 -0.07658392 -0.14107811 0.12381311 -0.44783828 0.4773126 -0.110327065 -0.17657252 0.41864315 0.05102136 0.009277739
635 0.1400155 0.26867807 0.26871404 -0.07439511 -0.053313643 -0.04361836 0.33380646 0.19514725 -0.055708822 0.15394807 -0.3748762 0.25580084 0.120400555 0.5594269 -0.4299757 -0.1502947 -0.4087797 -0.09857784 -0.06027426 0.0034501287 0.02543074 0.28699335 0.18861656 0.11765163 -0.15733606 -0.40782246 0.24717665 0.4083875 0.2442145 -0.45305964 0.011596688 0.44455647 0.72437626 -0.28997576 -0.01927476 0.13405913 -0.34146917 -0.025632914 -0.1720847 -0.3585475 0.10748505 -0.4979563 -0.059086386 -0.3415298 0.13945915 -0.13913302 0.10312184 -0.30350617 -0.13368927 0.22860895 -0.17871706 0.49177167 -0.2150934 0.53566504 0.33668396 -0.1586813 0.03397778 0.10550312 0.29278705 -0.2627187 0.39449424 -0.30184567 -0.41633728 -0.3287827 0.65479666 0.314989 -0.1956497 -0.80411136 -0.04681899 -0.025699982 -0.057338428 -0.55169296 -0.102768674 -0.3515634 -0.17121387 0.08266559 -0.44533953 0.39089605 0.19432008 0.18324502 0.004488809 -0.2194974 0.09450771 0.32781875 0.18893126 -0.22155215 -0.14876425 -0.20789632 0.42968687 -0.25479895 -0.674277 -0.029070787 0.28952086 -0.05484334 0.3651627 -0.28854516 0.049163803 -0.04276676 -0.0473767 0.12230102 0.24537246 0.3462899 -0.17675228 0.1291039 -0.09804269 0.08637642 -0.3495909 -0.08097972 -0.21880335 -0.123420015 0.11182082 0.025276966 -0.6140128 -0.76903534 -0.37266186 0.430191 0.36485898 0.008166375 0.21504577 -0.50111634 0.13802285 -0.010338038 0.21304995 -0.24257001 0.17345242 0.8066724 -0.0766786 0.023115918
140 0.04708392 -0.701551 -0.02008763 0.27894786 0.055554036 0.021427184 0.33133754 0.036364395 0.13157046 0.44129217 0.044439405 0.23649837 -0.19702834 0.76390135 -0.057564948 0.5097342 0.023514483 -0.45890895 0.052549846 -0.21933746 0.1559821 0.12072478 0.27379513 0.40706125 0.6089033 -0.18812317 -0.41030028 0.13311172 -0.057783376 -0.33546057 0.301166 0.15992032 0.61837643 0.034993984 -0.24092427 0.031990226 0.019178709 0.0152828 -0.22303496 -0.11493102 0.063150816 -0.19496986 0.11653571 -0.084417276 0.27487805 -0.05787641 0.20874052 -0.22181645 0.4475196 0.25407374 0.195256 0.2907734 -0.306205 -0.28927454 0.36359715 0.39408138 0.5619885 0.30105844 0.054569792 0.5620273 0.16063261 0.2685755 0.22383943 -0.5742233 -0.2120262 -0.14741829 0.044204663 -0.2438989 0.10646446 -0.44249195 -0.29880846 -0.32961348 -0.09111621 0.21228187 -0.25745878 -0.07869091 -0.6585636 0.19828175 0.38109955 0.3889871 0.25070328 0.021168029 0.027731352 0.530617 0.21368709 0.09190238 0.31354317 -0.090309985 0.030827852 0.39174265 -0.83520293 -0.2584963 -0.37684855 -0.00908703 0.14545022 -0.11476361 0.2576375 -0.31196392 -0.3891315 0.031573903 0.2337764 0.44166175 -0.5173657 -0.47009492 -0.23935807 -0.46562806 -0.1859632 -0.2523386 -0.0269978 -0.18928052 -0.0822092 0.56109554 -0.16492999 -0.13692506 -0.18269996 0.39365557 0.21863839 -0.2702126 -0.03452977 -0.093389906 0.25578225 -0.41431957 0.35645136 -0.15655099 -0.33256418 0.1654577 0.24170339 0.042192463
668 0.17692506 -0.2267735 0.11765048 -0.045627452 0.24405913 -0.05195571 0.100739256 -0.2946245 0.0058141625 0.018044446 -0.4473673 0.5117894 -0.016973544 0.26047677 -0.35277414 0.26902032 -0.32176512 -0.46014455 -0.38501906 0.04055246 0.05808184 0.2535797 0.34845886 0.050915893 0.060476195 -0.26541516 0.11329437 0.70216894 0.17691515 -0.20203993 0.33547524 0.15439545 0.6710974 -0.058579035 -0.005217309 0.17528075 -0.2786115 0.04234664 -0.15726249 -0.15235996 0.15522659 -0.35030642 -0.098079495 0.016161596 0.23191598 -0.30220512 0.2277111 -0.07703471 -0.006891748 0.20473693 -0.5204956 0.5020894 -0.48336905 0.35241964 0.27236328 -0.42077133 0.3968971 -0.04780716 0.073658615 -0.15483457 0.26779017 -0.05271324 -0.13915308 -0.21719766 0.34467897 0.30047253 -0.22760797 -0.88576806 -0.12977362 -0.4398802 0.018253852 -0.27884468 -0.05286783 -0.08301298 -0.22234955 0.016797202 -0.50343865 0.3825306 0.38843277 0.42611897 0.2560611 -0.088163786 0.19409558 0.511085 -0.006933486 -0.51519334 0.022225091 -0.19317138 0.17481202 0.026223138 -0.7003041 -0.096867464 0.03365815 -0.06782129 0.18211201 -0.26734883 0.08706433 -0.21131752 -0.24230163 0.017593725 0.48726588 0.3297987 -0.26489905 -0.08586508 0.042431485 0.16820936 -0.37082234 0.11256574 -0.15494646 -0.10575356 -0.19598365 0.100420006 -0.37856045 -0.4894378 -0.57548285 0.4110158 0.1928053 -0.019988043 0.08124677 -0.6864655 0.21008047 0.203714 0.336228 -0.22512367 -0.13043652 0.42799494 0.27159858 0.30907375
14 0.1243249 0.10724038 -0.13792591 0.020896101 0.0128654465 0.24962747 0.14806981 -0.15704235 0.13598597 0.37948823 -0.16102129 0.5722117 0.14004786 0.09920377 -0.5286003 0.19914705 0.08376656 -0.23012137 -0.20529567 0.13159962 0.048096325 0.30776003 0.16843876 0.3629546 -0.19883448 -0.23029204 0.14735112 0.5782878 0.03237194 -0.40984496 0.04742782 0.15298383 0.75720435 -0.19223729 0.064718634 0.078881554 -0.48241925 -0.2577094 -0.24042419 -0.24889782 -0.0773737 -0.17574036 -0.38623536 -0.07366515 0.47461298 -0.27362174 0.13852118 -0.39261368 -0.20347477 -0.009251552 -0.50622886 0.6639163 -0.03995464 0.28343007 0.12697035 -0.41600153 0.26525077 -0.2801266 0.10497579 -0.079000264 0.35019353 -0.08106668 -0.41201195 -0.1214766 0.337895 0.6918259 -0.25675032 -0.6546152 0.113202475 -0.23454157 -0.068971105 -0.3788661 -0.122642726 -0.05773323 -0.14387761 0.18025398 -0.24058734 0.50705665 0.37428093 0.06182298 0.5597483 -0.29144892 0.33215794 0.37874877 0.30287302 -0.15488414 0.17197329 -0.31744462 0.37003794 0.1585761 -0.3376004 -0.10851735 0.657125 -0.07620604 0.12596206 -0.46267033 -0.1770154 -0.23422393 -0.08830005 0.09264488 0.28856286 0.34166414 0.010317126 -0.04906363 0.008281579 0.17794535 -0.27570492 0.1120635 -0.024871312 0.16675045 -0.19809237 0.19416213 -0.6172363 -0.74327785 -0.6642359 0.40268216 0.110523 0.23529421 0.23556015 -0.42354977 0.19212295 0.15904905 0.19878578 -0.11760834 0.041224204 0.754536 0.15649462 0.23305571
70 0.11950772 -0.44627637 0.016829282 0.576666 -0.09306364 -0.39034963 0.15092891 0.4086372 -0.3233787 0.18422653 -0.05443908 0.4803114 -0.3672089 0.6742782 -0.27849227 -0.113405354 0.06562728 -0.4538386 0.038623013 -0.36056098 0.5181094 -0.051995527 -0.026870217 0.2489282 0.45928928 0.19179174 -0.13114737 0.18227828 -0.49125847 -0.13083959 0.3874776 0.13748348 0.3207914 0.082069956 0.10348141 -0.23595741 0.02717912 -0.06927242 0.14973071 -0.6654542 0.24980743 -0.4404499 0.15098603 -0.009151927 0.08369367 0.09436709 0.46044686 -0.5161492 0.2810316 0.19891083 0.21074946 0.57789594 -0.24110183 -0.151963 0.06515689 -0.22745919 0.36121807 0.3991019 -0.17333414 0.24514188 0.013892549 0.3275185 0.17281404 -0.28306955 0.4549012 0.056573257 0.041833103 -0.90451485 -0.32143968 -0.08744289 -0.49061933 -0.32664558 0.067169696 -0.057416398 -0.10597846 -0.12081534 -0.4125424 -0.11435035 0.4273108 0.28696904 -0.23321931 0.28389466 -0.22875413 0.3352381 0.36260083 -0.2170323 0.023528008 0.11353962 0.1281229 0.19021872 -0.8759271 0.24987023 -0.0124288 -0.21281224 0.13103741 -0.5656855 0.20728889 -0.21063977 -0.34367475 0.13197833 0.34705856 0.49389336 -0.83054286 -0.13245 0.10916619 -0.09947153 -0.20573159 -0.17100567 -0.20455687 -0.14999121 -0.17943238 -0.14478223 -0.2603203 -0.6704917 -0.12838322 0.5004271 0.62135553 0.1844313 -0.063942395 -0.23774865 0.027494188 -0.27817464 0.5085717 -0.045823865 0.07869046 0.6079953 0.018304309 -0.028324537
690 0.2076675 -0.024877014 0.08582582 0.05341236 0.1094902 -0.038640372 0.18554302 0.0021588558 -0.060976055 -0.060326036 -0.45849395 0.3534457 0.14025787 0.5018496 -0.18679136 0.15140162 -0.2857753 -0.30330306 -0.056201212 -0.09548422 0.034178335 0.16528194 0.28609842 0.16128574 -0.06252009 -0.34545016 0.22038881 0.7202594 0.2623067 -0.352688 0.21070547 0.2524175 0.58837086 0.04624575 0.019501703 0.20855604 -0.33380452 0.05087809 -0.24624726 -0.17149979 0.03889008 -0.42720348 -0.01564982 -0.13763909 -0.061263334 -0.33541414 0.11713016 -0.18942289 -0.1633054 0.26308632 -0.34532803 0.4974339 -0.4953144 0.52222735 0.38482216 -0.19095773 0.23571783 0.03517259 0.3625055 -0.14166152 0.46125102 -0.20591916 -0.1904826 -0.3320775 0.362852 0.011842858 -0.2355101 -0.92517704 0.0629287 -0.36993065 -0.0094256895 -0.3125092 -0.22548111 -0.22148444 -0.09665159 -0.022955956 -0.38065368 0.36344954 0.34348586 0.51137406 0.17400068 -0.37629008 0.113911934 0.51373965 0.16710405 -0.31109005 0.05944032 -0.18610689 0.33379325 -0.21787691 -0.54131097 -0.07967847 0.29680005 -0.06349193 0.41245857 -0.27429184 -0.0034333684 -0.18338002 -0.15441097 0.13970155 0.3509838 0.25842655 0.08736492 0.0051646503 -0.07681641 -0.17737542 -0.2507774 0.081112206 -0.19670929 0.0054568164 0.047269642 0.079652995 -0.39949682 -0.4591014 -0.4331326 0.3703243 0.4080572 0.05203762 0.008791076 -0.49320218 0.21520485 -0.09041547 0.27725938 -0.21608442 -0.044976015 0.38512322 0.18106543 0.17735001
318 0.17693597 -0.14942944 -0.13833992 -0.4432483 0.11558691 0.6979519 0.22694287 -0.064531855 0.23751141 0.27877173 -0.2732259 -0.30353534 0.27092054 0.628537 0.23214257 0.21476404 0.024079032 0.09657004 -0.34976488 -0.23787788 0.42792323 -0.2197357 0.0879165 0.89306486 0.22074795 -0.2067411 -0.23907284 0.28600353 -0.24987824 -0.28247863 -0.28513828 0.31534538 0.29243377 -0.08678507 -0.31411105 -0.64888775 -0.14080893 -0.016652105 -0.16752 -0.38684097 -0.23676799 -0.1523949 -0.1367612 0.03162206 0.0028362274 0.23859358 0.15756658 -0.4736072 -0.83169883 0.21805736 -0.06567196 -0.13824387 0.22012337 -0.0032516746 -0.014819234 -0.31659114 0.22514673 0.27489552 0.01572834 -0.112568706 0.38954845 -0.19144468 0.3476174 -0.7196282 -0.022912148 0.18306302 0.45554623 -0.09215059 0.45520028 0.19836631 0.07115137 -0.13762861 0.3431261 -0.12277324 -0.016459446 0.17268834 -0.45009783 -0.13915288 -0.37208036 -0.29674935 0.051623613 -0.03437607 0.54893553 0.122118756 0.04145856 0.3180262 -0.17330723 0.034053836 0.18312606 -0.30780834 -0.34469104 0.2698861 0.1652367 -0.25531772 0.18696216 0.083767846 -0.20405506 -0.012551425 -0.24635382 -0.23264576 0.5045357 0.20633827 -0.066504896 0.21775307 0.19735299 0.31104827 0.100388125 -0.27942517 0.0033846844 -0.12978926 0.043819506 0.39695638 -0.41018978 -0.19905813 -0.43181157 0.5636063 -0.11455421 0.11294787 0.49750268 -0.24863084 -0.16383329 -0.6602004 0.03126374 -0.54822344 -0.19493198 0.09398006 0.21988203 -0.29656842
15 0.11755989 -0.0037692022 -0.10689397 -0.07371249 -0.024787461 0.37383407 0.19655596 -0.4779029 -0.093537234 0.24767217 -0.34000793 0.3790233 0.27094716 0.282106 -0.52125686 0.2284928 0.0009269423 -0.131701 -0.23732379 -0.084720224 -0.22659017 0.25354046 0.1419013 0.29502234 -0.29818487 -0.33193076 0.19689626 0.66675687 0.19251451 -0.4643423 -0.09825064 0.49056312 0.87015593 -0.21366628 -0.06399109 0.12429362 -0.42009485 -0.032735426 -0.2869877 -0.35486156 -0.015025502 -0.0646816 -0.24440949 -0.2261302 0.250524 -0.19565636 0.09282616 -0.25856918 -0.3556523 0.02603267 -0.38618043 0.47270966 -0.08539409 0.5107757 0.108988486 -0.21483229 0.11847727 -0.19643724 0.33469427 0.030681418 0.23362881 -0.39712664 -0.39175358 -0.2364601 0.3851652 0.5118323 -0.1684608 -0.53653944 0.2080843 -0.51977897 0.05622733 -0.2867777 -0.10984507 -0.03464055 -0.11153971 0.05801931 -0.18858904 0.51788384 -0.0039489227 0.115597636 0.59580135 -0.28204137 0.38951972 0.33532768 0.27807558 -0.3201055 0.0894684 -0.25170743 0.23250353 0.055969696 -0.41865736 -0.24059379 0.6282773 0.021063212 0.17555282 -0.3505668 -0.0950634 -0.11418248 -0.17725353 0.1176239 0.34183675 0.35479084 -0.112455405 -0.16087149 0.19302024 0.11642068 -0.44711268 0.29815808 -0.0341671 0.16077548 -0.13507327 0.2326278 -0.6256236 -0.6007038 -0.29556015 0.31088564 0.1899946 0.083350465 0.4036856 -0.36576882 0.17804943 0.09595359 0.17320548 -0.042880055 -0.037027616 0.52770936 0.24768256 -0.05483012
9 0.1298128 0.09911143 -0.1498594 -0.025736183 -0.05955596 0.37685573 0.075887345 -0.11491157 -0.11005198 0.18748865 -0.23046444 0.53419435 0.38868183 0.077052705 -0.60074276 -0.09473066 -0.1341562 -0.35135984 -0.32926208 -0.090693355 -0.16361932 0.38167307 0.21062844 0.23324995 -0.075831756 -0.15056081 0.07056612 0.5625664 0.05135023 -0.3197242 -0.064973265 0.39522192 0.6856247 -0.22359082 0.22229907 0.20335764 -0.6163161 -0.10817759 -0.25559223 -0.13705418 -0.13117936 0.030076062 -0.47364908 -0.030297484 0.24781123 -0.36275905 0.062362555 -0.36933523 -0.2732675 0.020574296 -0.47610176 0.24171218 0.040332276 0.4273064 0.07631863 -0.19886944 -0.025744 -0.0034689726 0.2334372 -0.08916688 0.390691 -0.05153211 -0.35943067 -0.35343403 0.3064657 0.7566405 -0.053411074 -0.5478743 0.015156635 -0.25382885 -0.024919275 -0.4502509 0.051632144 -0.12447392 -0.029910253 0.038069233 -0.39731854 0.3824001 0.09374638 0.25151774 0.5948843 -0.2687721 0.48403826 0.25980005 0.593059 -0.2598206 0.14589383 -0.33842215 0.16047293 0.20879467 -0.44877002 0.06285376 0.47568738 -0.124070495 0.122659445 -0.33011845 -0.15138604 -0.05993421 0.16474876 -0.1562813 0.22267784 0.34798655 0.096855216 -0.03467819 -0.07423341 0.22257471 -0.4376506 -0.02710084 -0.05679191 -0.12973846 0.0694998 0.030583069 -0.6507313 -0.7913242 -0.4822595 0.32566136 0.23775439 -0.027378786 0.24615268 -0.4491499 0.29553834 0.045416545 0.035285372 -0.34846878 0.11585935 0.7127674 0.37123156 0.023685312
137 -0.011084979 -0.7264615 -0.13271974 0.38494042 -0.03778539 -0.083394796 0.15659715 0.05036602 0.18778266 0.44438335 0.03681049 0.2972895 -0.061708417 0.61813587 -0.11884829 0.40164044 0.026969926 -0.44951755 -0.13800651 -0.25793466 0.121189505 0.007332768 0.07134148 0.28108034 0.6442365 -0.09698946 -0.4510806 0.09551189 -0.041092474 -0.23455329 0.2542639 0.21677668 0.39406317 0.10849978 -0.11312539 0.22977564 -0.051946424 -0.018359914 -0.25202718 0.031484816 -0.0022909704 -0.0151548805 0.12427995 -0.19937433 0.38073522 -0.030825678 0.11754867 -0.37665617 0.4251211 0.34445426 0.2090509 0.3955311 -0.27089828 -0.28159037 0.3989911 0.38350496 0.5226591 0.34342542 -0.1468913 0.607809 0.17338549 0.29167658 0.2205658 -0.5052262 -0.2061673 -0.054755017 0.12574084 -0.22915962 -0.016852655 -0.4319183 -0.37285528 -0.3417651 -0.11859715 0.1189918 -0.2314967 -0.15973814 -0.54320264 0.07566716 0.45756146 0.2931106 0.20274661 0.19760244 0.13392965 0.51139283 0.10456847 0.1867622 0.37156224 -0.03171595 0.011109659 0.45256558 -0.93215066 -0.14858748 -0.5190156 0.071990535 0.3064334 0.006247313 0.24767864 -0.3821321 -0.4746542 -0.06754728 0.078940034 0.52417403 -0.38766605 -0.47188586 -0.37285328 -0.40179306 -0.20979467 -0.31561178 -0.19647999 -0.10057226 -0.1621375 0.6595935 -0.1197757 -0.23160866 -0.36307368 0.33095497 0.33645853 -0.13119544 0.03640518 0.019290932 0.22804374 -0.41242024 0.29662046 -0.028780427 -0.40249914 0.3109264 0.1890068 0.07866555
143 -0.06240021 -0.8137078 -0.03887037 0.32747218 -0.046336453 -0.03027538 0.204628 0.19663057 0.43096933 0.6026291 0.19337769 0.30315682 -0.20711331 0.69196874 0.092525356 0.444337 -0.0899453 -0.6154969 0.08608134 -0.28010243 0.1619 0.20133683 0.08312266 0.39421657 0.69447607 0.007954987 -0.58559215 0.12465898 -0.13847789 -0.23875116 0.37055078 0.13477752 0.61788404 -0.12802745 -0.2262955 0.10551219 0.038055636 0.010925387 -0.05984364 -0.06914221 -0.02955498 -0.4055905 0.06370002 -0.15466845 0.15558292 -0.028893732 0.12977597 -0.15743665 0.30236158 0.3408511 0.03240976 0.35990813 -0.1786646 -0.040692005 0.35437962 0.34273523 0.38084936 0.43584877 0.031185284 0.5636576 0.18966636 0.16405667 0.13220738 -0.749055 -0.11535561 -0.16411537 0.115578994 -0.2180397 -0.0113891205 -0.4369055 -0.32434708 -0.38233602 0.0720591 0.10436378 -0.26928696 -0.14798139 -0.56517833 0.25222516 0.47448602 0.2810116 0.2022587 0.16961011 -0.18464698 0.49609134 0.13593142 0.09386546 0.17709784 -0.15535459 0.08904063 0.44994265 -0.7987503 -0.38095883 -0.32630688 0.09243191 0.09698065 -0.36745736 0.38593394 -0.1548691 -0.3086631 0.019967651 -0.009591688 0.3894836 -0.5322084 -0.454681 -0.32393175 -0.4257758 -0.07628009 -0.19705492 -0.16896369 -0.09797002 0.062111225 0.36413142 -0.114755206 -0.09293452 -0.20067097 0.37330574 0.29780945 -0.32337135 -0.11502819 -0.13079657 0.20317382 -0.38563356 0.3723758 -0.3141694 -0.24058373 0.1700722 0.06193262 0.12826295
634 0.031697597 0.16205032 0.15372413 -0.001984051 -0.016438793 0.008415989 0.3049684 -0.12196294 -0.17955582 0.09248359 -0.34816375 0.3485225 0.019829566 0.3779785 -0.55039704 -0.1968176 -0.20426348 -0.2591797 -0.24109711 0.08014398 -0.043747753 0.32068965 0.0050648293 0.137258 -0.2389588 -0.29951167 0.30178645 0.4726341 -0.07496327 -0.318724 0.037774667 0.5374566 0.6793344 -0.2642174 0.12809661 0.039948337 -0.18237747 -0.16318342 -0.1672995 -0.14720055 0.070877604 -0.57941514 -0.14267181 -0.22418895 0.27817833 -0.07568012 -0.21946765 -0.38199073 -0.08710851 0.05259476 -0.25637057 0.3802105 0.034575287 0.34161806 0.22052458 -0.35914978 0.0038149948 0.24355373 0.02704993 -0.23845208 0.10341106 -0.27911487 -0.4004191 -0.07385938 0.6808521 0.46437865 -0.16004625 -0.9105641 -0.14953537 -0.060403634 0.036537446 -0.5208378 0.16942121 -0.16634478 -0.51142305 0.118017755 -0.31555626 0.38153473 0.15994942 0.1956973 0.13553515 -0.0688324 0.3633973 0.2773108 0.1606929 -0.47385564 -0.14812157 -0.15427777 0.04890764 -0.015407477 -0.6941585 0.028985979 0.33174372 -0.0390966 0.16959448 -0.36923793 0.06283241 0.049953975 -0.095290884 0.078997135 0.3354893 0.39575893 -0.44573426 -0.017231472 0.16923508 0.2980898 -0.37786216 -0.04101068 -0.1344938 -0.07314481 -0.04168766 -0.16909099 -0.55644834 -0.94152087 -0.3455394 0.19992809 0.22735141 0.21420562 0.45254457 -0.7016321 -0.09627953 0.13599722 0.28398478 -0.36668423 0.07239691 0.85017926 0.07428656 0.112735264
312 0.26939577 -0.3384917 0.006994369 -0.19990413 0.2351918 0.47888958 0.15163279 -0.011708281 0.29388186 0.26292738 -0.38741168 -0.34552228 0.26663885 0.6046357 0.35909754 0.06959839 0.01278709 -0.23485273 -0.46800628 -0.25490528 0.6088824 -0.32928532 0.14977041 0.6845695 0.49484187 0.036897812 -0.013812171 0.29445252 -0.39396876 -0.19786425 -0.1951598 0.27909428 0.34295 -0.06223565 -0.09673307 -0.69194096 -0.14554775 -0.043683656 -0.24199975 -0.22905491 -0.19553024 -0.34589714 0.06847175 -0.12197852 0.055198483 0.31501368 0.43991166 -0.64260405 -0.668208 0.2812303 -0.08789576 0.060273506 -0.049931105 -0.116201684 0.09718373 -0.3514996 0.3261488 0.29266036 -0.03866965 -0.36239162 0.27105206 0.008342224 0.35818 -0.6077191 0.08404052 0.1775643 0.16366188 -0.12950927 0.38382342 0.18708678 -0.110210404 -0.10297461 0.49121276 -0.086217664 -0.2691707 0.34950238 -0.49576154 -0.25919455 -0.5382162 -0.35616028 -0.10642628 -0.028516218 0.46515545 0.28257903 0.021394555 -0.060095187 -0.43597284 0.15237121 0.20648457 -0.2573678 -0.36605838 0.114389114 0.12869367 -0.35266876 0.08372707 0.10656721 0.016171329 -0.15765269 -0.3604766 -0.13165136 0.5075557 0.19612394 -0.23304278 0.36863512 0.4142406 0.28798184 0.05764295 -0.1451889 -0.10397793 0.121973954 -0.12643246 0.1861791 -0.31017417 -0.3000441 -0.35190666 0.39469117 0.37207574 0.0064877965 0.54964864 -0.19052985 0.016386887 -0.62595403 0.07290565 -0.42668143 -0.074620716 0.15346873 0.36398196 -0.16204558
317 0.07463213 -0.16985826 -0.08850665 -0.16292712 0.21214303 0.5879652 0.1617002 0.092243694 0.18883164 0.11650915 -0.18648712 -0.28062317 0.1766044 0.6166468 0.1957579 0.21916454 -0.028942205 -0.09227709 -0.20648465 -0.37677866 0.44903195 -0.19598658 0.07040042 0.8575244 0.21927081 0.08905783 -0.124862686 0.39021724 -0.26060075 -0.22639823 -0.23462394 0.15266483 0.1889087 -0.1443199 -0.03933299 -0.725714 -0.31721455 -0.24326457 -0.21485683 -0.18308271 -0.061723337 -0.36172134 -0.09740119 -0.02960509 0.09084014 0.26060185 0.1920433 -0.4048383 -0.61588204 0.084866405 0.024329383 -0.15383323 0.092676245 -0.109032355 0.035146702 -0.2885694 0.24853642 0.18371859 -0.009617658 -0.06018796 0.4080214 -0.30566132 0.25746727 -0.50285405 -0.025409602 0.18226853 0.1268834 -0.008678875 0.45061353 0.2041481 -0.18723117 -0.058193784 0.5069456 -0.03430181 -0.19882669 0.21017611 -0.33408284 -0.17081717 -0.23702954 -0.32735187 -0.16535772 0.017762555 0.4950771 0.26819637 -0.012478503 0.111848146 -0.4148893 0.13052444 0.33110958 -0.21881844 -0.28376895 0.038731027 0.44152048 -0.49286932 0.18851621 0.030313602 0.124227524 -0.0987194 -0.4429015 -0.24102375 0.35360885 0.2657833 -0.21733019 0.20535868 0.29832006 0.17385398 -0.10909614 -0.16352648 -0.027668254 -0.020291457 0.1001863 0.17044693 -0.4056777 -0.4635977 -0.3848424 0.7200529 0.074775524 0.06958402 0.6080787 -0.09579377 -0.039181538 -0.979551 0.15952231 -0.5131895 -0.2268846 0.22863846 0.4824362 -0.15212685
309 0.238033 -0.17258799 -0.0537155 -0.15683395 0.24503715 0.5600304 0.25958732 -0.09380788 0.18229555 0.058963653 -0.5724844 -0.20128985 0.273858 0.78096694 0.26778463 0.2509767 -0.12157466 -0.12855181 -0.26279896 -0.19048521 0.5131278 -0.22585 -0.08389719 0.5903858 0.453183 0.17953886 -0.1436386 0.13970657 -0.02352562 -0.19921887 -0.3816505 0.23052856 0.2085154 -0.15376203 -0.19369093 -0.53569686 -0.19743076 -0.15899041 -0.20203075 -0.27455166 -0.08818847 -0.122308485 -0.17461775 -0.18716666 0.008452007 0.2972922 0.37978068 -0.56082356 -0.55503595 0.44763947 0.019744465 0.014009618 0.12059723 0.06487478 -0.05518419 -0.3319548 0.44000307 0.28618845 -0.103317626 0.04053645 0.51178175 -0.07448836 0.2522074 -0.59243125 0.08336731 0.18903199 0.20239343 0.086598404 0.27790448 0.0033413987 -0.041972876 -0.22068316 0.5478642 -0.07066985 -0.28957996 0.17517339 -0.72307575 -0.10819278 -0.20982622 -0.2649014 -0.2390558 -0.00589464 0.5721215 0.14318636 0.0046330104 0.26141548 -0.43712136 -0.0526255 0.39924133 -0.15174033 -0.63317496 0.13480118 0.35636145 -0.3043069 0.05359046 0.033479214 0.035800774 -0.09630318 -0.32543042 -0.301849 0.30997914 0.11260635 -0.17574637 0.2568654 0.27142113 0.0652085 -0.014132293 -0.34543124 -0.06952357 -0.14278938 -0.10434862 0.31241018 -0.20301512 -0.36550134 -0.5665675 0.60087067 0.058363996 0.0058602463 0.49082127 -0.120413624 -0.18829148 -0.65785193 0.17245121 -0.55309665 -0.10088386 0.028972683 0.47727224 -0.2764571
689 0.034100085 -0.17402957 -0.092232876 0.08894796 0.20230776 -0.005040232 0.2844895 -0.29604405 -0.15731673 -0.013461814 -0.47560567 0.46273205 0.056863707 0.39280537 -0.36985925 0.18012801 -0.07760911 -0.5863134 -0.23997857 -0.04790985 0.030268978 0.23435888 0.15832072 0.18364304 -0.1066089 -0.2736393 0.19552924 0.8131253 -0.016402254 -0.2741038 0.29779795 0.42263952 0.60369396 0.05889107 0.1527144 0.1431024 -0.21173799 -0.05157934 -0.1901072 0.12687784 -0.044731446 -0.58106416 -0.07613614 -0.030770417 0.14491828 -0.265411 -0.18561727 -0.29800183 -0.08960415 0.16118957 -0.40535247 0.4115342 -0.20993264 0.3412127 0.29831436 -0.41671628 0.27486348 0.2160393 0.06102406 -0.11520399 0.18133968 -0.15640868 -0.24162512 -0.07372259 0.41337726 0.19502799 -0.20225012 -0.99899113 -0.005710773 -0.416169 0.06313268 -0.22843494 0.066098966 0.009388256 -0.4344905 0.024758343 -0.28372887 0.3826356 0.37996978 0.5008198 0.33523682 -0.21336173 0.40826333 0.45676285 0.14684309 -0.5047575 0.039513092 -0.19943978 0.057443246 0.085868016 -0.6673015 -0.08131507 0.40682688 -0.0022828798 0.23473905 -0.38739273 -0.0075956467 -0.068973236 -0.15216188 0.048127007 0.42212737 0.31514934 -0.26205075 -0.1802907 0.09384835 -0.016802667 -0.23415859 0.08412567 -0.12769817 0.033022467 -0.1028258 -0.11163196 -0.3452341 -0.69213736 -0.4389437 0.10658857 0.25664645 0.18316996 0.29822013 -0.7101944 0.0023328601 0.047989026 0.33473507 -0.31696475 -0.24311465 0.48626032 0.36505225 0.28783596
60 0.17364673 -0.46537048 -0.16021769 0.5056777 0.1921567 -0.06372723 0.28607625 0.26645067 -0.14219807 0.2123996 0.041434202 0.48539004 -0.40300846 0.7129864 -0.12712525 0.2550623 -0.0030848365 -0.548177 -0.018347336 -0.18145557 0.2127072 -0.051640492 0.10635588 0.36441624 0.32911435 -0.030871116 -0.20814456 0.47009197 -0.19460411 -0.3419076 0.43893343 0.045491625 0.23717399 0.07197068 -0.12894417 -0.2032139 -0.0145729445 -0.078673504 -0.022147212 -0.51572615 0.20950478 -0.27908242 0.2351458 -0.03109459 0.13659523 -0.03275656 0.30674687 -0.46362415 0.24898942 0.2319984 -0.09196154 0.25957018 -0.38774395 -0.25484607 0.20969796 -0.1865655 0.5511453 0.34316778 -0.0131602995 0.25316352 0.05017223 0.19937392 0.20347847 -0.2773157 0.22402257 -0.026048433 0.02981963 -0.7103878 -0.069969386 -0.23089577 -0.3718819 -0.15213226 0.017755143 0.017160714 -0.09615009 -0.19413549 -0.45752868 -0.053498488 0.52318096 0.46697554 0.13484281 -0.119991474 0.10649124 0.5044929 0.30426002 -0.051773965 0.0980656 -0.12960437 -0.03837426 0.040120706 -0.8997106 0.047734804 -0.15423533 -0.15509742 0.2937025 -0.273742 0.044920277 -0.43146995 -0.51065695 0.2502795 0.32025224 0.33602348 -0.48756355 -0.16549084 0.20169097 -0.47992128 -0.20942007 -0.041837562 -0.13607052 -0.041351013 -0.23838794 0.121075675 -0.10563443 -0.5500712 -0.19904721 0.521683 0.6827373 0.109489046 -0.2092746 -0.36199206 0.23233277 -0.37147927 0.58258 -0.037779197 -0.14969535 0.5180429 0.18847275 0.040162772
194 -0.0069296714 0.2390453 0.2984981 0.02350894 -0.19863221 0.05365468 0.3034703 -0.18858247 -0.117573574 0.034327723 -0.35899055 0.31741402 0.19658545 0.589068 -0.5486259 -0.18808183 -0.12407507 -0.106172815 -0.3250062 0.10478696 -0.010169508 0.2902692 0.14966086 0.3570017 -0.021083128 -0.507538 0.28478974 0.42986527 0.036493916 -0.24304411 -0.15693521 0.4640034 0.47190034 -0.20036606 -0.05472768 0.17500281 -0.2923397 -0.096253365 -0.19903955 -0.25597003 0.16878337 -0.25339854 -0.06440952 -0.18908174 0.15463008 -0.023652893 0.00013607323 -0.3457318 0.17122503 -0.11907101 -0.3117192 0.2780388 -0.10823293 0.29141504 0.22186737 -0.17312835 0.08759994 0.20442727 0.05573154 -0.12395758 0.19816567 -0.23597191 -0.2817921 -0.3193199 0.5880251 0.46782 -0.13930996 -0.8379601 -0.06574321 -0.13086542 -0.14976947 -0.5260036 0.1619132 -0.26612553 -0.5068081 0.0016490289 -0.51342636 0.46871912 0.017836254 0.3548633 0.12667437 -0.2676608 0.30347484 0.41934946 0.17722484 -0.42431164 -0.087708555 -0.10625505 0.06302726 -0.12221652 -0.51874924 0.026266973 0.16422802 -0.19651006 0.030812314 -0.18404019 -0.014555346 -0.050861876 -0.088756934 -0.039604437 0.24087727 0.43372175 -0.30037755 -0.01187474 0.1507594 0.2749523 -0.48321846 0.033272013 -0.09046771 -0.01695234 0.010202534 0.009999289 -0.78174 -0.9471121 -0.49583212 0.38386407 0.27390254 -0.0043385266 0.28780314 -0.58912903 0.04851155 0.24458024 0.31247082 -0.47533527 0.27107614 0.7074095 0.02547085 -0.025948666
320 0.2345469 -0.32765904 -0.24803118 -0.42812172 0.13033888 0.53338665 0.12681562 0.15525292 0.20469469 0.17797437 -0.34729537 -0.40549654 0.1467268 0.5463004 0.14161325 -0.0018121747 -0.14051096 -0.18065383 -0.23822099 -0.11909775 0.61067134 -0.4684349 -0.060886174 0.6653145 0.39549756 0.06876786 -0.25812227 0.23200111 -0.10353729 -0.2732803 -0.27276155 0.2689479 0.11312298 0.020545715 -0.21315879 -0.75195676 -0.14145684 -0.07140717 -0.28797874 -0.2701316 -0.0038944385 -0.18089537 0.1127489 -0.19390285 0.14494346 0.31421363 0.30800924 -0.66993546 -0.69760025 0.27795413 -0.013179178 0.08674595 -0.055698242 0.1699158 -0.042514883 -0.23874556 0.19488004 0.32996306 -0.052010432 0.13761407 0.6140867 -0.01193111 0.27089316 -0.6347253 0.04733723 0.1582934 -0.023670157 0.15409878 0.33877784 0.27496573 -0.106621005 -0.13175036 0.3084121 -0.026546277 -0.10517592 0.22321318 -0.5686984 -0.15104298 -0.30827233 -0.21550547 -0.23504493 -0.12141969 0.5367546 0.16189544 -0.07136492 0.37438604 -0.34976333 -0.0321876 0.3408967 -0.10364698 -0.28955463 0.033380225 0.29290497 -0.31554925 -0.077233404 -0.14139692 0.29781523 -0.008264636 -0.20564798 -0.3247183 0.483852 0.22751236 -0.31802994 0.143945 0.2102177 0.27660358 -0.1259405 -0.17717695 -0.09795134 -0.03552434 -0.04166954 0.007166722 -0.36909622 -0.3004298 -0.32623205 0.5349182 0.007982691 0.09790297 0.40398708 -0.29158565 -0.08622631 -0.69439024 0.20913425 -0.4828911 -0.13544391 0.2773862 0.4995948 -0.24255477
675 0.12077394 0.080045015 0.20065539 -0.32703432 0.022132045 -0.07414363 0.28881377 -0.04274962 -0.04896127 0.21412987 -0.41457036 0.29264826 0.12281528 0.4230856 -0.3096877 0.14936978 -0.43404776 -0.107856356 -0.13393588 -0.105565846 0.19240232 0.33267358 0.33067113 -0.07966748 -0.09503886 -0.4186993 0.12885866 0.496324 0.3398082 -0.39390016 0.2011516 0.1943963 0.6734012 -0.13437338 -0.20384693 0.13181895 -0.3666542 0.17617851 -0.18932089 -0.34953493 -0.023938704 -0.34857684 -0.07445079 -0.13013265 0.23437887 -0.22002065 0.29359597 -0.15403502 -0.12521578 0.46344265 -0.36630845 0.5395491 -0.27342454 0.5585401 0.26943344 -0.28700578 0.23773682 -0.06249975 0.25476608 -0.30500457 0.35665268 -0.2936336 -0.2192413 -0.32085374 0.30941704 0.2539065 -0.092079006 -0.7259643 0.13116966 -0.17021821 0.046045724 -0.5022304 -0.29891095 -0.100778185 -0.09232951 0.07514217 -0.57095486 0.4511433 0.28125218 0.3008833 0.15651311 -0.14179717 0.07730687 0.4307786 0.09091548 -0.27910408 -0.12204736 -0.27849355 0.50490075 -0.28290457 -0.5844918 -0.08769461 0.14359194 0.004091058 0.35232908 -0.1653639 -0.05494839 -0.026266139 0.001446177 -0.025316212 0.44656974 0.2808215 -0.121241204 -0.008835031 -0.17623807 0.039282955 -0.18652548 -0.085598625 -0.1532859 -0.38065842 -0.12606917 0.1581276 -0.52754045 -0.41989383 -0.6071455 0.5323804 0.1437116 -0.27306595 0.20375408 -0.5223655 0.072249174 0.16856323 0.18698163 -0.0993165 0.025146328 0.590711 0.066477284 0.18354182
313 0.35515505 -0.37213048 0.019141369 -0.44322565 0.23406184 0.55364233 0.13545895 0.08506371 0.32934034 0.25434965 -0.28671896 -0.26895684 0.23496652 0.61027306 0.23875722 0.34914666 -0.015699575 -0.033426072 -0.20990686 -0.28550288 0.5157041 -0.19192442 -0.09838785 0.7616545 0.44208166 0.13302706 -0.13437365 0.13509576 -0.07723995 -0.247692 -0.34928468 0.30132464 0.28754887 -0.1701861 -0.21764317 -0.6390431 -0.096491285 0.009806102 -0.38151264 -0.47075406 -0.05761526 -0.18480304 -0.04104943 -0.059872467 -0.10698537 0.29074693 0.3072949 -0.37854648 -0.7208756 0.15123166 -0.025247913 -0.16499874 0.1444447 0.014914352 -0.029357769 -0.2901402 0.2471829 0.13964629 -0.012909969 -0.06398086 0.22380231 -0.114449285 0.22564392 -0.5285754 0.078242645 0.15351339 0.2972259 0.1523291 0.2950694 0.15869406 -0.04007758 -0.009915851 0.4561757 -0.16351308 -0.14246756 0.08859687 -0.5234931 -0.0967669 -0.38492715 -0.15227118 -0.04097885 -0.10042269 0.42454526 0.13099922 0.050001267 0.18315047 -0.29886672 -0.08096941 0.24684224 -0.32607093 -0.43858573 0.070589155 0.1994237 -0.31594554 -0.14560731 0.018257149 0.00947683 -0.24812603 -0.60195184 -0.3109093 0.49045596 0.36486253 -0.32125884 0.31490132 0.048468824 0.23950009 -0.15715778 -0.11336977 -0.19098519 -0.035681963 0.13752699 0.24440579 -0.36346063 -0.36773705 -0.50598073 0.5441818 0.0754829 0.04887199 0.29563525 -0.31020305 -0.19255115 -0.65187955 0.18272613 -0.42458582 -0.23218384 0.13801612 0.3032496 -0.13064945
157 0.28446445 -0.4787955 -0.097674325 0.20504685 -0.4600778 -0.010290493 0.27617002 0.22138956 0.2913731 0.5924071 -0.0012689119 -0.071728386 0.4100227 0.12690614 -0.18004824 -0.023150723 -0.08758244 -0.06681165 -0.16793019 -0.054235928 0.0729049 0.2927488 -0.35038316 0.115446165 0.35320276 0.2710454 -0.6253938 -0.08866125 -0.28743145 -0.25156075 0.16305916 0.17395487 0.5613451 -0.06493364 -0.068287544 0.56928384 -0.11800052 -0.037261188 -0.4937784 -0.0011851254 0.031681966 0.048378646 -0.19427325 -0.072882146 0.25491095 -0.08624744 0.20246151 -0.36391386 -0.3020804 0.35694444 -0.023474183 0.7943274 0.070482105 0.2639713 0.18674135 -0.073932424 0.018659895 0.16976474 0.09583177 0.28095832 0.09453652 0.1233462 0.11005997 -0.3141517 0.00067391497 0.13186002 0.3529663 -0.48198852 0.034496564 -0.14234433 -0.31349933 -0.39507544 -0.2243974 0.0772785 -0.057706334 -0.24227403 -0.4226679 -0.05770728 0.17543486 -0.11671852 0.24118808 0.6126603 0.44849733 0.10840326 -0.09428539 0.20990391 0.08638029 0.51021194 -0.32518736 0.45998925 -0.4229976 0.25926062 -0.56186944 0.04754379 -0.22730394 -0.24695092 -0.14383128 -0.0057707075 -0.5483758 -0.24868366 -0.14147386 0.72750044 -0.19534479 0.3268564 -0.17361881 -0.24348103 0.15201175 -0.4983997 0.013484462 -0.11670167 -0.014852602 0.26896137 0.08193504 -0.38186726 -0.7979554 0.014276934 0.29692912 -0.3104571 0.5519944 -0.16254166 -0.55978286 0.02356931 0.09467738 0.19100556 0.036885608 0.39471528 0.17326954 0.07592519
