881 128
126 -0.20451471 -0.37627846 -0.38974026 -0.0047981786 -0.35442787 0.011409683 0.22088903 -0.24112575 0.17374961 0.55884665 -0.27374706 -0.40602058 -0.44749174 -0.29312125 -0.47166508 0.18196632 0.42726356 -0.11868882 0.049974106 0.09423748 -0.42842463 -0.18800232 0.16055335 -0.41565007 -0.43961102 0.24375173 0.67109627 0.2730018 -0.6092261 -0.1276815 -0.041862637 -0.15304415 0.1497884 0.008801751 -0.08503076 0.29741463 -0.45368737 -0.007960495 0.07623727 0.14230253 0.06734127 -0.059960157 0.26041108 -0.35419255 -0.3509327 0.323916 0.20956151 -0.42362842 0.21391669 0.47194737 -0.2141009 -0.29624778 -0.17104653 0.08215939 -0.24021706 0.078930154 0.44737905 0.12883392 -0.24753462 -0.10972941 -0.25791186 0.0747162 -0.08254336 0.27889264 -0.16019306 0.058320712 -0.18128937 -0.045699056 -0.30388466 0.6272126 -0.046809845 0.15609069 -0.15133215 -0.052807175 0.16842149 -0.017717982 -0.12632 0.056689795 0.22861344 -0.5555176 0.09339208 0.21192858 -0.06710713 -0.10090029 0.5644266 0.28009763 -0.49627134 0.19903806 0.45302004 -0.1866453 -0.07974408 -0.059922736 0.01667064 0.5485745 0.07026659 0.031176604 0.22176015 -0.0932434 0.22996205 0.21098243 -0.542403 -0.20697172 0.47846198 0.036143027 0.28303134 0.37257728 -0.2890043 0.54015285 0.10850001 0.40525058 0.08890461 -0.35632133 -0.29323104 -0.27680537 0.12489511 -0.0012502919 -0.26221588 0.40812653 0.43091238 -0.23134986 0.1111432 0.00047714848 0.2574261 -0.046490006 -0.59839255 -0.13891526 -0.29957426 0.7430565
120 -0.30087522 -0.3782564 -0.31555253 -0.28105143 -0.16723628 -0.16936022 0.13311878 -0.16753344 0.18776971 0.44814658 -0.07550453 -0.4996657 -0.4294999 -0.3420722 -0.16127822 0.17629829 0.19716564 -0.087713905 0.1352812 0.19550802 -0.55305797 -0.16206233 0.14529605 -0.580115 -0.38122693 0.33737954 0.3834796 0.21449716 -0.5297692 0.05871172 -0.15556109 -0.3865584 0.18317653 0.07614445 -0.13567589 0.31008115 -0.34913817 -0.065975904 0.062379375 0.23707919 -0.17298579 0.0059472835 0.062154077 -0.09346957 -0.23561688 0.35773706 0.038783684 -0.45058802 0.24743785 0.5828961 -0.20813292 -0.33821848 -0.38825285 -0.00451679 -0.29946905 -0.0667781 0.3425036 0.069228105 -0.19423199 -0.10591242 -0.3868076 0.106506385 0.08000511 0.28592616 -0.03964318 0.2901977 -0.26363945 0.12482694 -0.19769254 0.4698853 -0.09033597 0.21365748 -0.3333042 0.43023026 0.08053799 0.08034562 -0.17971623 -0.0055971653 0.2614528 -0.5184986 0.35911614 0.44771385 -0.1365203 -0.047489174 0.52384734 0.46636596 -0.35598195 0.24053293 0.4865174 -0.021390421 -0.22384639 0.0036953364 -0.028612472 0.5377208 0.13008064 0.2777279 0.09568366 -0.1859531 0.04718914 0.024648588 -0.21947184 -0.312397 0.4882597 0.06170146 0.29443926 0.013995244 -0.3120568 0.2556178 0.07340916 0.33505768 0.059142254 -0.5947103 -0.22472464 -0.23510635 -0.04021648 -0.039313342 -0.03656194 0.42116526 0.49780974 -0.18915015 -0.1035844 -0.19680983 0.0037351642 0.02668043 -0.65587217 -0.4302719 -0.2241601 0.58219445
125 -0.14781885 -0.57774943 -0.3236495 -0.17402938 -0.38312036 -0.16080382 0.17974766 -0.097092055 0.26886564 0.5093774 -0.35590804 -0.48630306 -0.43647006 -0.28416198 -0.20278177 0.15917987 0.1448965 -0.08464918 -0.0071130567 0.32187977 -0.6555303 -0.2783583 0.1392894 -0.32837623 -0.5265031 0.3662883 0.66904217 0.3273241 -0.49706805 -0.095766686 0.02050293 -0.2565469 0.34843922 0.040015806 -0.095140025 0.17239173 -0.34624848 -0.20318958 -0.018671352 0.11476687 -0.00462635 -0.085992925 0.07362501 -0.27596837 -0.2845451 0.18436839 0.14942487 -0.30082604 0.13355915 0.6721552 -0.33548215 -0.09611239 -0.30533093 -0.090233505 -0.30992717 -0.063490674 0.34458077 0.16554517 0.010835197 0.21048912 -0.25666046 0.057026476 0.18975484 0.36775094 0.006392067 0.17749898 -0.18636797 0.07368109 -0.3630485 0.61984706 -0.21665521 -0.016328841 -0.12079269 0.20328023 0.23152414 0.16148409 -0.28642753 0.10699353 0.15269873 -0.6336717 0.17125316 0.30770463 -0.3169814 -0.071570024 0.48622128 0.40384704 -0.4602899 0.19633894 0.49253803 -0.24179395 -0.07320128 -0.11464637 -0.14358647 0.38869363 0.3211454 0.12787022 0.18165553 -0.07637954 0.06589429 0.05124557 -0.35556835 -0.26592278 0.20891444 0.25623336 0.3187567 0.28133145 -0.40357843 0.34356597 0.074857846 0.28242564 -0.020572549 -0.6594968 -0.29505584 -0.12406282 0.20817526 -0.030180853 -0.048806887 0.2716467 0.32306883 -0.2528771 -0.07222537 -0.018493567 0.11910943 0.13164407 -0.61704165 -0.22216837 -0.18787122 0.6293919
129 -0.15111196 -0.49988735 -0.3153888 -0.033993334 -0.2998091 -0.23232503 0.31658244 0.030343795 0.23975424 0.38356075 -0.20812394 -0.47809133 -0.3528098 -0.350716 -0.23386934 0.1855161 0.22143888 -0.16499794 -0.054016735 0.069418654 -0.42518386 -0.2169527 0.25061572 -0.19347395 -0.34220248 0.17367376 0.48292044 0.4322405 -0.67009836 0.05326244 -0.12971157 -0.1788829 0.1154484 0.050372187 -0.03820359 0.177862 -0.38576767 -0.17994493 0.19488806 0.119679935 -0.12375275 -0.02615826 -0.1522611 -0.34274462 -0.065666184 0.3624255 0.14362645 -0.51680714 0.27399066 0.57900083 -0.32991153 -0.25374284 -0.33541054 -0.11334997 -0.2675771 0.026016267 0.20157766 0.14652842 -0.033764407 -0.00045814848 -0.0038650616 0.03186986 0.05655551 0.2127644 0.109606266 0.13743079 -0.2892878 0.018010039 -0.13730358 0.38322458 0.04932157 0.2885254 -0.18149972 0.19424371 0.13775069 0.15100074 -0.11467013 0.11879296 0.37069464 -0.72552395 0.19590889 0.3711154 -0.20789349 -0.046179038 0.60571444 0.24891979 -0.5520305 0.20566055 0.4575669 0.00025534348 -0.3465132 0.062114112 -0.14244002 0.53848755 0.14074318 0.39799532 0.4982363 -0.106472895 0.14670649 -0.04789978 -0.4528382 -0.42292094 0.41722214 0.13197275 0.2091447 0.44643664 -0.49960256 0.2704122 0.041930355 0.34414887 0.06979183 -0.52732253 -0.4244485 -0.12528473 -0.081835404 -0.3376245 -0.04300991 0.5090887 0.5362442 0.06000343 0.09025517 -0.01838536 0.26621357 0.05214269 -0.6457823 -0.289094 -0.21891738 0.7395629
122 -0.19884776 -0.25728032 -0.22558923 -0.38644597 -0.4143512 0.042432927 0.10479941 -0.15560275 0.19024505 0.48486224 -0.18359356 -0.4001281 -0.2630244 -0.41385543 0.04958807 0.04654219 0.304204 -0.13669433 0.22446269 0.064872526 -0.6025656 -0.17249241 0.032436356 -0.35223094 -0.25685292 0.2961 0.5259843 0.30946648 -0.5445754 -0.11414812 0.042506844 -0.28586316 0.18644822 0.07513369 0.005462439 0.25305972 -0.36587325 -0.17858453 -0.14286512 0.13060157 -0.07840339 -0.09575988 0.18171488 -0.27076924 -0.19520338 0.1710927 -0.038500696 -0.41413358 0.22140804 0.7259235 -0.27267236 -0.27724257 -0.40191218 -0.0022582924 -0.32686427 -0.036804598 0.32883307 0.33781612 0.0033844993 5.9534847e-05 -0.17714818 0.26174724 0.007798065 0.22209638 0.17364967 0.11359777 -0.2566323 0.04295179 -0.2899093 0.5265082 -0.13750216 0.38108858 -0.14658546 0.3129319 0.018260282 0.25035217 -0.17729127 -0.0684142 0.24826093 -0.45343032 0.38274837 0.20953277 -0.1351109 -0.15649639 0.49565956 0.4494185 -0.36265495 0.30086958 0.4749989 -0.27680698 -0.19029355 -0.21983245 -0.14925258 0.60161614 0.17529799 0.087237105 0.22443065 0.14490117 0.13454837 -0.092178926 -0.40682715 -0.40841943 0.54502356 0.12991296 0.29128072 0.2991823 -0.27447498 0.3025433 0.26247197 0.12796016 0.03797707 -0.4618302 -0.23707512 -0.32778785 -0.02178666 -0.17888418 -0.06285778 0.15705466 0.5216452 -0.22610378 -0.23598446 0.021571308 0.26777962 0.026316205 -0.50283074 -0.39056417 -0.29253754 0.66344905
132 -0.15155686 -0.30949318 -0.1849203 -0.12425377 -0.26318502 -0.20118321 0.14835082 -0.20976022 0.17412059 0.4527252 -0.20224647 -0.46803054 -0.32310033 -0.30286783 -0.2022409 0.3368995 0.12046016 -0.059662826 0.05454669 0.04750271 -0.4613497 -0.1398389 0.17176075 -0.36615583 -0.42061225 0.21508221 0.5189489 0.20059907 -0.6391554 -0.106036596 -0.106727354 -0.27419835 0.16939887 -0.04800081 -0.04772452 0.33949667 -0.36402288 -0.012156804 0.13514009 0.1857724 0.20004398 -0.07175157 0.15553108 -0.11253318 -0.24739297 0.15937458 0.012631606 -0.47437748 -0.0006329933 0.64275485 -0.24898663 -0.27085978 -0.30088398 -0.007402909 -0.40915203 -0.18542372 0.2946684 0.12745787 0.08977288 0.025332041 -0.18251936 0.013542778 -0.07429346 0.11042856 -0.16327599 0.117602676 -0.21587665 0.09937891 -0.3266071 0.4104546 -0.16920753 0.14037666 -0.36001626 0.3326781 -0.006142798 0.06823235 -0.23019409 0.04869321 0.26029903 -0.6324909 0.208308 0.49015743 -0.23296696 -0.2947807 0.3582109 0.5696258 -0.37478432 0.10606122 0.2902799 0.0013951141 -0.060132317 -0.1360645 -0.015788836 0.4840625 0.14748469 0.22500604 0.31811005 -0.06277665 0.22340286 0.06933599 -0.40457332 -0.39507714 0.5484633 0.17034583 0.44778395 0.27771866 -0.2763212 0.33575192 0.13068016 0.22093485 0.093522795 -0.56625634 -0.46545744 -0.12839037 0.057775844 -0.063881665 -0.03155532 0.34961036 0.41727376 -0.24370368 -0.08782589 -0.07864122 0.2916587 0.020774074 -0.7219146 -0.22259432 -0.21672617 0.74847525
128 -0.29517078 -0.3761261 -0.39542028 -0.18137027 -0.47035986 -0.24305357 0.1519391 -0.24668759 0.24563214 0.40327042 -0.27164584 -0.45740265 -0.3034066 -0.3367142 -0.14888111 0.093525186 0.22487746 0.043039292 -0.028747924 0.04347051 -0.44080162 -0.25982252 0.113283396 -0.397531 -0.45224914 0.1938837 0.3665269 0.41036195 -0.57813233 -0.046740774 -0.14046507 -0.04660998 0.14434654 -0.019876756 -0.064813174 0.40702733 -0.3775712 -0.077989966 -0.10359399 0.19183148 -0.048181456 -0.0453595 0.2178162 -0.16835572 -0.29554164 0.316919 0.06845053 -0.32137677 0.15465102 0.6493229 -0.24111634 -0.33718324 -0.31234178 0.112870224 -0.3970367 0.043593813 0.2757516 0.45293355 0.07303294 -0.07012723 -0.08259919 0.1333132 -0.101168305 0.082865626 -0.03270966 0.12043567 -0.14604154 0.050599396 -0.29711986 0.5640451 -0.13576855 0.3427914 -0.13424738 0.3695159 0.05552929 0.040322613 -0.3505472 0.072932765 0.15281907 -0.4567334 0.11908245 0.4520238 -0.20811264 -0.025419725 0.6369712 0.5775616 -0.42542213 0.18190433 0.46308514 -0.0044925907 -0.018719828 -0.15648748 0.065874025 0.33168778 0.25812382 0.21658145 0.28737968 -0.1720487 0.13569681 0.1678473 -0.232071 -0.38442776 0.2850522 0.012431636 0.16396634 0.3194978 -0.39665413 0.23115407 0.26379782 0.24789865 0.01061632 -0.52602136 -0.40462834 -0.067617595 0.016877105 -0.15473375 -0.14909166 0.3473063 0.5103713 -0.13755241 0.06978536 -0.11394432 0.12855406 -0.023977421 -0.71398973 -0.2583583 -0.08960152 0.6696351
115 -0.30564982 -0.47771 -0.33872643 -0.39495602 -0.19756119 -0.10662366 0.080644324 -0.037162393 0.090399556 0.3297995 -0.1126076 -0.29198125 -0.07210897 -0.4714451 -0.122605994 0.24180652 0.29820174 -0.18896453 0.17434919 0.1719794 -0.45891285 -0.20105378 0.20844528 -0.40110466 -0.5171576 0.09367794 0.50643784 0.2353293 -0.5946227 0.003867877 -0.11757258 -0.18355657 0.24150471 -0.2058896 -0.01635953 0.10659877 -0.25548622 -0.26650786 0.20416474 0.20361382 -0.043536417 -0.07493398 0.25268924 -0.23130715 -0.26792538 0.099119075 0.109495714 -0.43392035 0.10328424 0.69334775 -0.11674712 -0.3082667 -0.3223617 0.07606419 -0.44392112 -0.15116902 0.34439546 0.33413893 -0.056418348 0.02918932 -0.356087 -0.09182895 -0.038492616 0.16550791 -0.036820408 -0.07694754 -0.17106815 0.04104636 -0.121610194 0.44596812 -0.09476146 0.066664666 -0.45108098 0.17075057 0.036051206 0.045109347 -0.298992 0.054895993 0.2879413 -0.5099936 0.20235053 0.26234376 0.056754977 -0.06959261 0.5715217 0.5304498 -0.4746406 0.18045554 0.35548973 -0.063353956 -0.1665709 -0.13877547 -0.0014804883 0.566643 0.14142112 0.11307087 0.23083302 -0.09623633 0.28358784 -0.10924924 -0.25250846 -0.4124504 0.4084847 0.18302168 0.33823594 0.3483924 -0.31315216 0.33480218 0.009883434 0.25962558 -0.06797913 -0.4732994 -0.2696366 -0.212495 0.21506988 -0.23052241 -0.096531466 0.35529757 0.39442873 -0.27121502 -0.03338726 -0.029547404 0.11604726 0.030460121 -0.64052856 -0.25102642 -0.32293716 0.8890893
121 -0.32584435 -0.54948103 -0.13698836 -0.29674146 -0.48261204 0.023967147 0.17096248 -0.114193685 0.30244893 0.45072868 -0.10176064 -0.5309756 -0.5216837 -0.30752543 0.07436817 0.3157442 0.3650787 -0.08776132 -0.020212065 -0.01942372 -0.4107416 -0.07337672 -0.06891971 -0.36185572 -0.3965591 0.18993478 0.42560363 0.33705175 -0.68687344 -0.051056683 -0.12843199 -0.19385828 0.2753344 0.043703925 -0.03799932 0.17217082 -0.363325 0.013342671 0.04375155 0.018142754 0.061661795 0.00045407642 0.13979262 -0.03763145 -0.323631 0.13479385 0.040429845 -0.5592065 0.11823053 0.5689879 -0.18518478 -0.26006287 -0.2660465 0.1231071 -0.16687906 -0.067749076 0.32521424 0.22816342 0.042465016 0.03658626 -0.28305164 0.18104954 -0.0540409 0.1744669 0.001722597 0.14307667 -0.2712883 0.03255541 -0.29926857 0.49708146 0.047500174 0.35244346 -0.1771716 0.15317738 0.31890687 -0.0010846833 -0.32043096 -0.0048469543 0.19008332 -0.6820538 0.31187057 0.23297817 -0.24848458 -0.013555632 0.32091781 0.3331138 -0.45884097 0.1592152 0.39027143 -0.14566295 -0.084918775 0.03516688 -0.06630841 0.7929475 0.07485516 0.106996804 0.09554279 -0.24896313 0.08606995 -0.12978405 -0.24248514 -0.31180695 0.52827185 0.02873531 0.27285597 0.48453495 -0.47190878 0.452832 0.083370045 0.31757852 -0.052675344 -0.39888903 -0.4491154 -0.05105598 0.06614801 -0.24872607 -0.20739864 0.46935627 0.57831675 0.06470906 -0.20095189 0.07920218 0.14734271 0.0660661 -0.4577379 -0.27262583 -0.20444156 0.6562621
117 -0.1401037 -0.64817184 -0.24638824 -0.28544578 -0.4481778 -0.18932962 -0.11726068 -0.025650507 0.18263978 0.4701477 -0.28530177 -0.33688298 -0.22262695 -0.33527395 -0.04728404 0.38125104 0.15185586 -0.08946306 0.18775605 0.09913827 -0.4662446 -0.24915366 0.05457952 -0.18756057 -0.466411 0.39726928 0.4362383 0.31806594 -0.4665477 -0.062395114 0.020216972 -0.12203191 0.12153823 -0.1453369 -0.094721764 0.4129039 -0.23641026 -0.0247162 0.07537623 -0.15216905 0.075091325 -0.031688843 0.30224875 -0.12787408 -0.17844264 0.24936965 -0.0063538523 -0.41137537 -0.059203573 0.6318252 -0.22932559 -0.34640414 -0.25952995 0.20670304 -0.35812262 -0.108406305 0.3626473 0.035886645 -0.15545276 -0.08733494 -0.060213055 0.065850735 -0.10366646 0.3496817 -0.043163456 0.030008946 -0.1586014 0.3035527 -0.35200256 0.40154105 -0.13659726 0.14312904 -0.22560577 0.091442555 0.24786708 -0.2047619 -0.17706987 0.071856685 0.23615476 -0.6113099 0.2651968 0.4210371 -0.14315012 -0.12194984 0.46241158 0.3978131 -0.35552523 0.15719967 0.4824982 -0.106860414 -0.08827951 0.027672747 0.0015070654 0.3928866 0.35501075 0.29779786 0.053338554 -0.05529139 0.15371957 -0.06825723 -0.28569123 -0.3195446 0.47367266 -0.16318853 0.27505141 0.2342507 -0.3356141 0.32787085 -0.04927897 0.40047032 0.054523032 -0.44799697 -0.30428222 -0.3391403 -0.18499132 -0.053993702 -0.100887425 0.31932065 0.44806704 -0.11614302 -0.076860346 0.01966321 0.35197255 0.14117071 -0.6760703 -0.38742274 -0.22644639 0.64069235
127 -0.008998935 -0.40098244 -0.22707024 -0.31999958 -0.28380316 -0.2660363 0.099800505 -0.17385833 0.2772507 0.4551224 -0.43191627 -0.46042317 -0.21881188 -0.38560766 -0.26212922 0.17728792 0.40988183 -0.054727554 0.19463962 0.15245312 -0.4548848 -0.22220819 0.16701698 -0.30027232 -0.30538768 0.18119934 0.66618603 0.4274875 -0.5722604 -0.014638458 -0.1979598 -0.120398186 0.22699879 0.023981865 -0.096850514 0.21517704 -0.2359536 -0.0344252 0.04425123 0.07568474 -0.03896717 -0.17595167 0.21850197 -0.26207113 -0.29135948 0.1622115 -0.015498291 -0.53910613 0.13860036 0.5746916 -0.30147576 -0.50332344 -0.3052992 -0.09259745 -0.3804321 -0.022972776 0.46277395 0.1592897 0.07574706 -0.004647761 -0.2635104 0.037172057 -0.013425492 0.36174494 -0.1211963 0.178044 -0.21909924 -0.22303592 -0.17002314 0.2502695 -0.18640423 0.35967883 -0.18909962 0.19925556 0.1916935 -0.107794195 -0.37841982 0.15832163 0.112823516 -0.7073214 0.44691515 0.36810216 -0.1420011 -0.037301898 0.49227554 0.5765377 -0.1286257 0.27582964 0.53676206 -0.105529666 -0.17095937 -0.15640707 0.07526667 0.47816366 0.20086572 0.2386589 0.13810177 -0.044959348 0.09282858 -0.05529712 -0.2879255 -0.28143218 0.5246026 0.12429565 0.1823702 0.35245097 -0.32279086 0.31065434 0.19243154 0.27186283 0.029250715 -0.42895392 -0.5141145 -0.12525877 -0.0021831086 -0.038066514 0.023578383 0.38252535 0.3573879 -0.074557625 -0.0942232 -0.08009955 0.3451172 -0.02119259 -0.61032593 -0.19263671 -0.29029506 0.6257653
130 -0.17519125 -0.31471294 -0.3047535 -0.36365628 -0.34009793 -0.14854762 0.1138428 -0.019425647 0.10454165 0.5675293 0.071810335 -0.2999911 -0.42750588 -0.33896 -0.032105606 0.10884111 0.16399843 0.08004651 0.11029841 0.17360185 -0.54846555 -0.1626518 0.007121069 -0.30739436 -0.42831883 0.34152195 0.6591452 0.4472376 -0.70757645 -0.06929016 0.06535465 -0.1890355 0.2645526 0.18642513 -0.027394662 0.29667145 -0.32306093 -0.12576997 0.09660154 0.22703551 0.075591825 -0.1073651 0.1577485 -0.14021872 -0.20825234 0.23308988 -0.0038789748 -0.5491906 0.29910308 0.6708227 -0.22700949 -0.18895853 -0.064915806 -0.049955003 -0.26601213 -0.021765744 0.36098665 -0.04752838 -0.044917762 -0.13972418 0.050973598 0.009415804 0.050852545 0.29879496 -0.06899955 0.07050849 -0.302022 0.003033001 -0.14883299 0.4585729 -0.13287507 0.28899232 -0.21691272 0.24001573 0.17600468 -0.16126528 -0.33228734 -0.119674705 0.18772142 -0.33321553 0.33054155 0.26707655 -0.05115575 -0.10174671 0.67121184 0.45542264 -0.44904673 0.11971354 0.42914528 -0.008467169 -0.15256695 -0.1851466 -0.054371256 0.45820615 0.16443631 0.22104907 0.21624713 -0.17515853 0.29218516 -0.10506081 -0.3579038 -0.38687217 0.4685526 0.03246086 0.22034559 0.35768372 -0.38346484 0.24587564 0.22762412 0.42343974 -0.06609527 -0.61428964 -0.3281345 -0.21245635 0.12010657 -0.15153272 -0.15167847 0.46367133 0.34009606 0.014739647 -0.054531902 -0.011155864 -0.0035523241 0.16642566 -0.6704572 -0.34001482 -0.085411906 0.60805076
124 -0.3673857 -0.3181785 -0.31572723 -0.26722187 -0.51674175 -0.17323281 0.25646394 -0.21384434 0.2387862 0.3624214 -0.13210243 -0.41327387 -0.25911358 -0.33126613 -0.09756543 0.20123087 0.18725015 -0.16458687 0.11539043 0.22158183 -0.5288233 -0.2689508 0.0392566 -0.2683863 -0.3477563 0.38551998 0.5430066 0.33804336 -0.73870337 -0.018364292 -0.17207137 0.030439856 0.14928356 0.11901532 -0.043010492 0.4311598 -0.39596185 -0.05827077 0.16771491 0.054647863 -0.025856595 0.027450062 0.1995375 -0.07477254 -0.3775003 0.2925684 0.052699335 -0.5616978 0.20937794 0.7693361 -0.12588772 -0.28416452 -0.31596357 0.13797241 -0.25087696 -0.12248169 0.30659348 0.26437175 -0.0019794905 0.07779748 -0.14532073 -0.14240453 0.0113849165 -0.01741386 0.009991395 0.23123738 -0.30034035 0.13010503 -0.23963995 0.36965534 -0.24494377 0.315922 -0.076433904 0.11664586 0.10478408 -0.065033436 -0.20894659 0.028328037 0.20071967 -0.45846158 0.38733006 0.19201013 -0.30840302 0.002211192 0.45461345 0.43943113 -0.3593762 0.11647021 0.52901 -0.011039313 -0.1314084 -0.1256197 -0.00037852122 0.47125494 -0.017952537 0.17190473 0.18470734 -0.14992201 0.043230325 0.00087069965 -0.2524318 -0.30531588 0.64532954 -0.00827741 0.42504618 0.15108025 -0.32786173 0.3993437 -0.0048754076 0.18546237 0.09995365 -0.6796797 -0.38199937 -0.46964288 -0.059959244 -0.30727154 -0.092849895 0.31971192 0.45934245 -0.099081725 -0.16201924 0.12607944 0.3042664 -0.17149977 -0.56073344 -0.2989098 -0.10690992 0.6592569
57 -0.46457812 -0.6253947 0.078654096 -0.07925508 -0.4300903 0.011922085 -0.48829496 0.17858283 0.12187817 0.30212465 -0.40230808 0.16756003 0.06058354 -0.42078865 0.51510566 0.07752237 0.14720243 -0.20597936 0.17075495 0.21745907 -0.046235982 -0.36363134 0.25264916 0.22089413 -0.11715923 0.18545325 -0.035911903 0.38033122 -0.105332434 0.2128935 0.15617049 0.23640366 0.08521873 -0.20486017 -0.17799754 -0.011254903 0.25930154 -0.58853567 0.040699787 -0.1816693 -0.03499272 -0.3579233 0.10999601 -0.01172218 -0.022708056 0.18997194 0.18494682 0.07228677 -0.2715939 0.41519907 -0.20738466 -0.38385814 -0.31070158 0.4514946 -0.45571244 0.17920317 0.21779183 -0.03536351 -0.5167628 -0.128921 0.20391802 -0.1991256 -0.056307487 0.44539377 0.06247293 -0.25482318 0.25871047 0.2570477 -0.24270354 0.205981 0.18730482 0.28227553 -0.38663286 -0.25709334 0.14009188 -0.2802844 0.10339323 0.42676157 0.3469579 -0.5092398 0.09379539 0.19829978 -0.3337156 -0.20241839 0.39274687 -0.0053037517 -0.5094876 0.09223772 0.10951837 0.20242755 0.20157543 0.32086968 -0.06782123 0.23873182 0.30388367 0.29423255 0.04016352 -0.1651827 0.16016185 -0.084485546 -0.29273587 -0.21071404 0.36809674 -0.31996572 0.23497441 -0.11529971 -0.34707922 -0.080274835 -0.26165357 0.10268956 0.22682421 -0.12609303 -0.19820149 -0.35356268 -0.50768954 -0.28128123 0.17543423 -0.010868582 0.36482155 0.019241197 0.20936196 -0.071394 0.22847548 0.27197516 -0.5717884 -0.60565424 0.1183496 0.60626113
123 -0.12537697 -0.22367279 -0.21256557 -0.22601199 -0.60588205 -0.2397267 0.22571203 -0.17258309 0.15735313 0.55032563 -0.0392517 -0.37230092 -0.094099894 -0.28891087 -0.20422481 0.13663314 0.17499584 -0.115208305 0.12848233 0.24351735 -0.29882875 -0.15200841 0.049329955 -0.38108793 -0.43392256 0.30481398 0.33765632 0.38348025 -0.619107 0.024508573 -0.13059787 -0.31907853 0.23058315 0.032075576 0.051236995 0.11105569 -0.35200256 -0.19755012 0.08843126 0.09406907 0.012953514 -0.057142098 0.16474645 -0.25752988 -0.14665362 0.35507438 -0.009559382 -0.4294891 0.12115816 0.7186668 -0.17611153 -0.43021905 -0.14209813 -0.1391552 -0.29102817 -0.051866893 0.21949293 0.30069822 -0.028647995 -0.024820777 -0.013191946 0.088587545 -0.052497193 0.25298402 0.027011156 0.11494464 -0.2842324 -0.007317034 -0.17808644 0.6134074 -0.121264644 0.18529256 -0.13782297 0.11869882 0.3157704 0.015438814 -0.1116163 0.102766074 0.2649398 -0.6596358 0.27254072 0.39214155 -0.20940305 -0.21152982 0.5090688 0.54559594 -0.47740588 0.37380934 0.5262478 -0.20173891 -0.28365886 0.024051415 -0.00012664069 0.5929199 0.26205838 0.24764334 0.4342721 -0.2827199 0.058420345 0.09969397 -0.17730828 -0.28974125 0.402818 0.09539548 0.19916725 0.28637087 -0.34530076 0.19351244 -0.047063973 0.23815048 -0.08424608 -0.5264679 -0.32175377 -0.18628404 0.092042 -0.12535504 -0.07456552 0.24294421 0.4459559 -0.23854166 -0.11265115 -0.056205995 0.20218708 0.013166983 -0.7066627 -0.16223432 -0.33343133 0.8404686
131 -0.25894037 -0.3587642 -0.43754575 -0.1605027 -0.48032334 -0.23320004 0.0827891 -0.45426193 0.1715519 0.35786065 -0.09291832 -0.21729971 -0.4302862 -0.3039683 -0.24209388 0.3216176 0.3042632 -0.06287938 0.10165693 0.11312066 -0.5569663 -0.18240294 0.065163754 -0.39766464 -0.2226319 0.3387793 0.43384412 0.42537642 -0.7231769 -0.06840324 -0.045311764 -0.21225263 0.28362423 -0.08280586 -0.11914557 0.14186984 -0.52377933 -0.11655689 -0.0018296241 0.10401219 -0.05798518 -0.15516062 0.08040732 -0.29757026 -0.2716129 0.22241105 0.020228751 -0.46151385 0.18990178 0.62426966 -0.15738617 -0.3808003 -0.30967748 0.0960976 -0.36935344 0.006294936 0.21684283 0.20857969 -0.13723812 -0.08122723 -0.21319602 0.028844176 0.01590768 0.11744135 -0.05302601 0.000444609 -0.2804984 0.29199433 -0.33804122 0.60943025 -0.007848106 0.2836712 0.030032579 0.20190032 0.04672035 0.080988295 -0.20337737 0.018165488 0.18724495 -0.5341337 0.36967796 0.56268173 -0.124140844 -0.058469 0.7165017 0.36087668 -0.48339188 0.20492336 0.4622575 -0.013830555 -0.12635513 0.18410635 -0.19897582 0.573232 0.040019177 0.21149346 0.16638558 -0.09594045 0.21383582 0.09193242 -0.23533179 -0.36000812 0.45868102 0.0013525723 0.09734965 0.400999 -0.20785835 0.48459813 0.04853573 0.10595139 -0.012230339 -0.3720328 -0.28557456 -0.3799481 0.18698771 -0.11324495 -0.041656323 0.37029016 0.4601734 -0.02526875 -0.20361906 -0.2505787 0.3115334 0.07734674 -0.6159882 -0.12297012 -0.17059243 0.6334492
768 -0.23920915 -0.36339417 -0.2427035 0.09019381 -0.30232605 0.042329773 0.34413064 -0.30287334 0.24024521 0.676816 -0.31498373 -0.47977203 -0.48656663 -0.12679178 -0.410619 -0.13918088 0.42291912 -0.15002993 -0.18493754 0.3470305 -0.57269084 -0.13663505 0.20439851 -0.45226866 -0.3291546 0.12464812 0.7097361 0.12571283 -0.58611435 -0.124479905 -0.019341648 -0.22516513 0.35903528 0.37959445 -0.13594697 0.25511682 -0.38267022 -0.09570086 -0.067338675 0.40445033 0.015427784 -0.04959002 0.017609557 -0.3560151 -0.3371765 0.3070769 0.3020765 -0.2165766 0.4039573 0.41028982 -0.3733519 -0.227675 -0.14078827 -0.1762414 -0.1343933 0.18715148 0.36107185 0.09797688 -0.27542204 0.12873653 -0.28837246 0.1373932 0.2725202 0.28005907 -0.14689192 0.25491714 -0.01211856 -0.18432154 -0.23814496 0.79989713 -0.11589825 0.09335473 -0.1904275 -0.030454393 0.084519655 0.13109174 -0.028934276 0.15275462 0.101206794 -0.62187296 0.12400483 0.050388716 -0.2833128 -0.07352496 0.46031493 0.15882193 -0.50409144 0.30142498 0.42490643 -0.23429152 0.0067733335 -0.04895608 -0.061010085 0.49365625 -0.0010845951 -0.12915839 0.34401837 -0.20067722 0.069754235 0.32715014 -0.59970486 -0.023198076 0.22959232 0.2600672 0.30114233 0.12284282 -0.30555063 0.40670848 0.2034588 0.21981715 0.111465335 -0.53315014 -0.28322497 -0.17168993 0.22553661 0.0032821528 -0.10229129 0.09068016 0.4196039 -0.23551117 -0.09512223 -0.099129334 0.10035712 -0.09935188 -0.6307432 -0.18812531 -0.19871981 0.53167367
114 -0.329455 -0.53146243 -0.32250878 -0.2875135 -0.34353006 -0.005732506 -0.0030081111 -0.114377305 0.2429136 0.37814295 -0.17767584 -0.31685108 -0.12487491 -0.49865478 -0.037279926 0.10739128 0.30936164 -0.12915373 -0.020083569 0.20532206 -0.44686925 -0.14576635 0.21120706 -0.43030682 -0.4442743 0.34048933 0.36013308 0.3219657 -0.49217486 0.15291898 -0.0015573907 -0.2269099 0.23426388 -0.20044012 -0.18023482 0.08823632 -0.20684384 -0.2820137 0.0722208 0.12114155 0.0134906685 -0.23042637 0.35985535 -0.20036384 -0.24343997 0.23059769 0.19524671 -0.46144643 0.16123377 0.6963105 -0.079301275 -0.20633534 -0.30499664 0.2964402 -0.42342195 -0.12150467 0.43371293 0.094693065 -0.22509266 0.056326658 -0.2696053 -0.07635411 -0.102581374 0.36426476 -0.019445645 0.13317566 -0.18080114 -0.04697361 -0.2675583 0.39476067 0.0056171217 0.17508408 -0.34339488 0.2317642 0.091228954 0.13748148 -0.48477632 -0.06468339 0.4304607 -0.7473862 0.13571692 0.3568803 -0.023917157 -0.04659921 0.4573542 0.49347436 -0.53433865 0.11549591 0.42333403 -0.0033582496 -0.02159807 -0.14220908 -0.009177672 0.33360052 0.103035346 0.32636774 0.18244539 0.062076658 0.21577583 -0.044096842 -0.25074095 -0.25615275 0.3275041 0.21388617 0.34413397 0.3125068 -0.20161572 0.12783435 0.03506942 0.21751717 -0.027956562 -0.53015465 -0.22769585 -0.122798614 0.096079886 -0.28099677 -0.062309843 0.30606875 0.50631756 -0.08896002 -0.1479058 -0.13520996 0.13275474 0.014062016 -0.52040976 -0.4571041 -0.26298913 0.7441603
158 -0.24733286 -0.3091089 -0.24353123 0.23916745 -0.23528747 0.010576594 0.40682915 -0.17108496 0.20309938 0.585522 -0.19886385 -0.38016218 -0.39583883 -0.23395663 -0.412479 -0.09271797 0.47214082 -0.2230006 -0.24213943 0.19294833 -0.40153262 -0.067654885 0.3097676 -0.30703026 -0.14640361 0.016628487 0.53491247 0.123798355 -0.70164245 -0.040797304 -0.009780566 -0.082720384 0.19664338 0.35581332 -0.10866952 0.31533897 -0.41562656 -0.100020096 0.112300605 0.37128723 -0.008407216 -0.08610512 -0.14943796 -0.4383297 -0.1324541 0.5001925 0.30470672 -0.37803152 0.5155105 0.32514817 -0.34573 -0.35409945 -0.17585424 -0.16221415 -0.12899739 0.266889 0.2945511 0.052757174 -0.3397186 0.012568624 -0.06852886 0.0598483 0.18133654 0.16822678 -0.07120048 0.20336606 -0.05401091 -0.21961962 -0.053190343 0.5970761 0.1172015 0.3493344 -0.24509144 -0.113883704 0.04406951 0.0588627 0.11928992 0.18480061 0.3014981 -0.6785052 0.15329975 0.060242873 -0.17626849 -0.046534736 0.61938995 -0.039437067 -0.6074484 0.24919708 0.42946342 0.0068182284 -0.11092657 0.09720647 -0.074024394 0.55116177 -0.16088012 0.11750556 0.5862255 -0.2016258 0.2188878 0.2573157 -0.66744334 -0.17210318 0.45898342 0.09451326 0.23890235 0.19112648 -0.39865658 0.3045211 0.16359872 0.28033614 0.16160469 -0.4720011 -0.39469728 -0.27652404 -0.07170687 -0.29033574 -0.066888176 0.20915543 0.6400753 0.008062056 0.048274558 -0.07592086 0.28373381 -0.1470866 -0.6544897 -0.31945366 -0.18000625 0.5687063
780 -0.2413372 -0.036545083 -0.124478824 -0.0362836 -0.2670947 0.28569838 0.30708674 -0.23226434 0.16434243 0.6160299 -0.16046527 -0.44702423 -0.35854653 -0.25651243 -0.21006244 -0.21673906 0.5424945 -0.21808876 0.0009833792 0.053047795 -0.48249358 -0.021659277 0.1330824 -0.4501569 -0.06644409 0.08914633 0.60188717 0.052613996 -0.561439 -0.17805895 0.0710557 -0.2473442 0.18252671 0.40493917 -0.027282039 0.39652762 -0.45764422 -0.07146393 -0.11984631 0.40091544 0.010198097 -0.063450515 0.10406792 -0.36508584 -0.27318358 0.3301834 0.104801655 -0.32286125 0.44934544 0.47088197 -0.32695737 -0.36561146 -0.20736043 -0.11862106 -0.14026074 0.20459509 0.40069988 0.22445765 -0.2746526 -0.04290253 -0.21949963 0.3248667 0.09540656 0.1252756 -0.023478916 0.21338582 -0.07475644 -0.27032506 -0.210291 0.72023255 -0.048607547 0.4594653 -0.2244408 0.050263252 -0.069617756 0.16578892 0.12405448 0.013415063 0.1905005 -0.45318487 0.2534609 -0.09547535 -0.13001135 -0.20556314 0.4313752 0.19682682 -0.40851408 0.37526813 0.4035658 -0.27344266 -0.084465794 -0.1806034 -0.07552195 0.7065547 -0.124079086 -0.20339438 0.38897294 0.034181733 0.13726883 0.2327994 -0.70738316 -0.1605631 0.60928005 0.13343945 0.3244055 0.09496669 -0.21854222 0.37111023 0.37630168 0.17729113 0.16540682 -0.39135993 -0.23797679 -0.40428317 -0.040520374 -0.10151573 -0.1260612 -0.034127414 0.5939882 -0.24397312 -0.17587504 0.004604817 0.26029196 -0.20907162 -0.49955368 -0.33681825 -0.29936677 0.5330927
773 -0.38137728 -0.10130672 -0.388055 0.1239351 -0.33627635 -0.012663276 0.3597219 -0.32494125 0.20229231 0.5735448 -0.2984748 -0.4648583 -0.43443054 -0.1825379 -0.40402734 -0.23405907 0.43773454 0.01794141 -0.247945 0.015166978 -0.37586358 -0.13399805 0.1456037 -0.44426703 -0.2988284 -0.004930063 0.44224304 0.19858603 -0.56419474 -0.13458745 -0.078301266 0.06498548 0.15032497 0.32998207 -0.06416034 0.5833861 -0.38798115 0.05358676 -0.24049272 0.43916664 -0.012730245 -0.03597171 0.17210025 -0.26008746 -0.32011086 0.4522926 0.19968879 -0.14387429 0.41856495 0.3267839 -0.33567142 -0.38859487 -0.14281885 -0.06793333 -0.22502245 0.3709364 0.38017476 0.39614043 -0.14355183 -0.1871997 -0.03251598 0.24276114 -0.020703664 0.14419909 -0.17710629 0.23153166 0.008389691 -0.21893373 -0.210332 0.74719864 -0.094094604 0.46921822 -0.15284905 0.08150461 -0.035886616 -0.01361097 -0.061779544 0.14764515 0.12153768 -0.3063036 0.04025224 0.1890131 -0.26813763 -0.035242062 0.7327145 0.33120286 -0.4700232 0.3000862 0.35952705 -0.047522295 0.07289047 -0.13375017 0.22944911 0.37367386 0.037888277 -0.05349884 0.40043405 -0.23635422 0.20274118 0.4744272 -0.5827302 -0.1734661 0.29444197 -0.04035481 0.109675266 0.15472405 -0.38083267 0.26543608 0.4860467 0.2468848 0.11917754 -0.4438979 -0.4535034 -0.09074862 -0.05374181 -0.0115166055 -0.20939454 0.20806324 0.6248997 -0.17826092 0.22800954 -0.13270284 0.060200043 -0.17109093 -0.737175 -0.21096182 -0.029092856 0.5232772
758 -0.16092378 0.047994703 -0.12669691 0.088521354 -0.5211443 -0.040890846 0.44981915 -0.32248187 0.10844202 0.68962044 -0.033545606 -0.38928622 -0.21995406 -0.105190545 -0.46941555 -0.15206814 0.439208 -0.13478719 -0.06327975 0.2545437 -0.21634245 -0.0050030355 0.09256566 -0.46878427 -0.22933684 0.10256957 0.472883 0.1833762 -0.69750136 -0.07218256 -0.1061388 -0.2660592 0.26865017 0.37486857 0.028901434 0.24007444 -0.42089474 -0.07181838 0.05098999 0.33814526 0.13053414 -0.069435924 0.10983921 -0.3586756 -0.27549446 0.47145143 0.13874897 -0.32299557 0.37758833 0.4460321 -0.23031773 -0.52946764 0.10223725 -0.2952665 -0.087852 0.242456 0.33674872 0.22770607 -0.27138504 -0.06312572 -0.06501141 0.17666036 0.042354506 0.17375383 -0.19151415 0.22598319 -0.10722294 -0.39887378 -0.10559607 0.853609 -0.067712516 0.2862826 -0.18788622 -0.15063198 0.24616855 -0.09688528 0.13274512 0.19206432 0.16350703 -0.62720764 0.1845593 0.08859609 -0.22615564 -0.25480026 0.4826902 0.32283685 -0.50524205 0.43503466 0.4476473 -0.21480276 -0.13449456 0.025669027 0.10592233 0.6910917 -0.005690278 -0.116142906 0.5786447 -0.40000835 0.10574972 0.41866294 -0.47799128 -0.032290272 0.47260556 0.093782455 0.18919392 0.12556422 -0.27554378 0.26704538 0.10949413 0.2453404 -0.012614628 -0.42426506 -0.3489281 -0.23194128 0.12277418 -0.03250937 -0.1278398 0.052079614 0.48253104 -0.26166612 -0.06215578 -0.10656465 0.16692643 -0.18308394 -0.7076236 -0.052898 -0.34087124 0.7011771
741 -0.28316557 -0.14489172 -0.22886132 0.071403354 -0.08197368 0.013034943 0.31700292 -0.26690993 0.17548105 0.63523036 -0.08672372 -0.49550813 -0.53090113 -0.17838182 -0.42109928 -0.04810248 0.39803067 -0.11443932 -0.04631183 0.24511153 -0.48355815 -0.035067298 0.23195168 -0.6254474 -0.12177611 0.172541 0.45026892 0.0030369102 -0.5424353 -0.016201902 -0.09676664 -0.37958372 0.20109157 0.39539889 -0.12909706 0.41238868 -0.3373389 0.0880989 0.007862088 0.40942463 -0.1096683 0.010269797 -0.02541391 -0.21647123 -0.25947285 0.46045527 0.1729777 -0.37419093 0.4788066 0.22835873 -0.23323393 -0.45182768 -0.19135758 -0.20049436 -0.10156968 0.2022822 0.40288526 -0.053104367 -0.43339616 -0.12806377 -0.40254208 0.21402037 0.19851123 0.29074043 -0.18916427 0.38451937 -0.09936995 -0.17092633 -0.08351363 0.6181276 -0.005721147 0.25919622 -0.34507695 0.110807866 0.041399002 0.0004251743 0.1321208 0.11760527 0.17750111 -0.5348255 0.2897518 0.19368792 -0.21558262 -0.118081145 0.452924 0.14141247 -0.34062377 0.311439 0.3980461 -0.052978348 -0.11908788 0.11028991 0.08580097 0.60193115 -0.14439528 0.020847946 0.21834673 -0.29338777 0.074031584 0.31721205 -0.43371058 -0.05233623 0.5168711 0.07621804 0.25137553 -0.17449419 -0.22352503 0.287472 0.20148987 0.28247616 0.12760395 -0.4229541 -0.23082489 -0.25213003 -0.064745 0.062630504 -0.06614883 0.18311445 0.5644518 -0.2430882 -0.095143735 -0.2557708 0.034597687 -0.14269452 -0.64662457 -0.34460935 -0.19772165 0.379595
781 -0.3904523 -0.13881405 -0.26403934 0.12143653 -0.36315247 0.04705657 0.45165458 -0.32765853 0.23994982 0.5422546 -0.2530481 -0.4156067 -0.3574314 -0.20493731 -0.38051644 -0.07289597 0.43042597 -0.23339804 -0.123418495 0.30036142 -0.50105286 -0.15974802 0.17371464 -0.3135779 -0.17206179 0.15456195 0.7022466 0.05878409 -0.7438023 -0.113372386 -0.118596464 0.118616 0.21070741 0.44982702 -0.044763297 0.5488668 -0.4082735 0.03452205 0.09646222 0.32513937 0.065255105 -0.012903089 0.10945044 -0.24671035 -0.43336248 0.39214802 0.24536565 -0.43837297 0.43287194 0.4370812 -0.22075514 -0.33831102 -0.15560107 -0.05667791 -0.07971291 0.17923938 0.4119719 0.19109493 -0.21053278 0.10419699 -0.19465746 -0.088036515 0.15995413 0.02767466 -0.15796508 0.31647986 -0.09614416 -0.19741163 -0.1322857 0.5307124 -0.19051364 0.36149853 -0.12563746 -0.19887759 0.019303007 -0.09529256 0.060247343 0.18357383 0.13915561 -0.45123574 0.28314346 -0.09957387 -0.3506463 -0.021788966 0.42748022 0.13863379 -0.3710723 0.19383006 0.45279026 -0.061629184 0.023754098 -0.09527578 0.09395587 0.51255894 -0.27294722 -0.12214415 0.3472489 -0.22475664 0.109856784 0.30365413 -0.59132546 -0.055658188 0.6279235 0.052238517 0.44342682 -0.021640277 -0.30317512 0.4735269 0.16088614 0.17227775 0.21849552 -0.60000706 -0.43640947 -0.481728 -0.051290695 -0.1917577 -0.12318525 0.1141163 0.5347967 -0.16246326 -0.073399425 0.12598957 0.3206691 -0.35774797 -0.57427126 -0.25138128 -0.08991403 0.49806976
779 -0.3626833 -0.286082 -0.08634147 0.082286514 -0.40524805 0.15836118 0.4192588 -0.29843533 0.2572688 0.6446633 -0.10426882 -0.522567 -0.59147197 -0.14815675 -0.21697865 0.032862283 0.57809865 -0.13080192 -0.21335149 0.072307095 -0.3073915 0.045898378 0.03549358 -0.47040886 -0.20229422 -0.009772058 0.49984697 0.11168599 -0.74027395 -0.1022698 -0.14247063 -0.17963156 0.30875075 0.39580703 -0.04371578 0.22298388 -0.38083702 0.11153863 -0.0012178277 0.30698243 0.102026194 -0.01613486 0.042220306 -0.16719198 -0.37271798 0.30016354 0.22234958 -0.45063007 0.38591293 0.2704112 -0.22376446 -0.38879454 -0.07164542 -0.08427835 0.006895203 0.21198745 0.37924463 0.16452715 -0.1797796 0.002644182 -0.3326882 0.23337032 0.07004248 0.14822978 -0.15946195 0.28012654 -0.10392596 -0.28925547 -0.15366174 0.68175244 0.1005471 0.40111434 -0.24673326 -0.11176393 0.2536507 -0.016369412 -0.002716979 0.15073766 0.13374956 -0.69539535 0.23845342 -0.025296133 -0.28630567 -0.059638876 0.31296495 0.09232519 -0.5053639 0.25615576 0.33008417 -0.15733422 0.013220907 0.1017217 0.03716104 0.87961215 -0.19712928 -0.14198665 0.30968204 -0.40750903 0.13114081 0.17371951 -0.49936378 -0.060670674 0.5444037 0.06301457 0.25125486 0.2897227 -0.42764288 0.4687317 0.18424737 0.27791607 0.029830184 -0.32147965 -0.48608527 -0.059726916 0.09559341 -0.17065273 -0.21577585 0.27612168 0.6585196 -0.01733253 -0.12243343 -0.015776984 0.13478522 -0.14159134 -0.49802297 -0.1983309 -0.21425374 0.5479032
55 -0.4241607 -0.1501021 0.1828836 0.111399524 -0.3062765 -0.084116854 -0.43095234 -0.04149588 0.092590585 0.21800053 -0.36117956 0.15178427 -0.13150828 -0.232728 0.4188203 0.10997953 0.11584653 -0.20003581 0.48202214 0.33311072 0.030387508 -0.39101583 0.25306228 0.23064089 0.02456816 0.19200756 -0.07389984 0.4739404 -0.043571465 0.11207591 0.024902899 0.28161612 0.12115893 -0.03898764 -0.07197074 -0.23661241 0.25004876 -0.609758 -0.17704494 -0.13923535 -0.21773124 -0.42473215 0.003211863 0.20933428 -0.19022627 0.19761673 0.22090992 0.094495006 -0.3323921 0.2571456 -0.3827761 -0.32928035 -0.33165213 0.39981827 -0.3705204 0.3936605 0.16116257 0.16756794 -0.44298527 -0.19406699 0.11133227 -0.25075707 0.039131947 0.4521796 0.099892646 -0.10615567 0.2572756 0.24033062 -0.063926265 0.13404934 0.22704624 0.2538572 -0.39276725 -0.27508765 -0.0071150684 -0.21329199 0.2552022 0.57812524 0.15939212 -0.36044946 0.17440878 0.050397743 -0.601355 -0.19658647 0.22320686 -0.121932864 -0.36657533 0.064716704 -0.16251014 0.23830019 0.4411169 0.44951615 -0.11117518 0.19363359 0.24670818 0.043165084 -0.017534906 -0.4201847 0.055059105 0.07900995 -0.16040975 -0.106506325 0.3409673 -0.3565508 0.3104257 -0.26955733 -0.28535864 -0.05007193 -0.34917194 -0.06420422 0.20749907 0.10057444 -0.06806108 -0.15924135 -0.41003233 -0.07098759 0.20890284 -0.008455245 0.084430225 -0.20502636 0.38589144 -0.13435023 -0.1705807 0.29376304 -0.3658559 -0.5126814 0.22978212 0.64984906
70 -0.79345953 -0.27407247 -0.1668522 0.019198174 -0.5856679 0.2159613 -0.35733688 0.29331768 0.11963815 0.14868255 -0.19269414 0.48586202 -0.068028815 -0.20849091 0.55942976 -0.4515069 0.15429929 -0.29138774 -0.15359318 0.10318815 -0.08978201 -0.19363196 0.019595997 0.40129614 -0.047450136 0.24459657 -0.40219095 0.30329016 -0.053548504 0.44453955 0.16825715 0.18698993 0.2052938 -0.11013417 0.12827826 -0.024508383 0.57623535 -0.27865314 -0.4480397 -0.27476496 -0.062312253 -0.43049452 0.28173935 0.08185029 0.10736165 -0.24737793 0.124294356 0.37160018 -0.25301015 0.31443697 -0.12222079 -0.2629206 0.2990529 0.20320153 -0.3529049 0.59981745 0.34035107 0.3435136 -0.39184305 -0.21572235 0.361396 -0.012297507 -0.11274205 0.5774391 0.23353669 0.11241785 0.2684276 0.4327376 -0.14692809 0.379117 -0.034801763 0.14955255 -0.32223746 -0.41596133 0.17959088 -0.34981236 0.32272795 0.5458414 0.27949175 -0.09422831 0.11715917 0.20609632 -0.99679947 -0.33143356 0.59939873 0.2166693 -0.62826 0.30652264 -0.16006897 0.04925796 0.23659469 0.316191 0.04234282 0.17088416 0.40520087 0.010439453 -0.09827342 0.025836404 0.18050382 0.05429213 -0.5250145 -0.09412153 0.43053064 -0.455503 -0.10876312 -0.21189833 -0.29560873 -0.3739279 -0.08807371 -0.31868738 -0.03907413 -0.12420432 -0.22249115 -0.3123464 -0.76634 -0.12004344 0.32675713 -0.13937178 0.48283774 0.052671317 0.34795898 -0.048821732 -0.11090423 0.097488075 -0.42747062 -0.54020077 0.15362795 0.35570636
71 -0.7513143 -0.48371956 -0.30513746 -0.07327717 -0.54407525 0.1838556 -0.31517076 0.30601916 0.12809308 0.28250414 -0.074189246 0.3601091 0.050769735 -0.31839654 0.5151633 -0.32775763 0.2663691 -0.39004037 -0.22870396 0.16844113 -0.2526348 -0.14732164 -0.053079553 0.2872156 -0.24523827 0.24443625 -0.38912874 0.21941744 -0.1321599 0.41748768 0.23072849 0.17988934 0.29400665 -0.18879746 0.033376668 0.037488833 0.5103574 -0.16380218 -0.49543405 -0.32183975 -0.10377544 -0.3326147 0.4224915 0.046970922 0.18856837 -0.116546586 0.13389581 0.18466331 -0.13234897 0.40499628 -0.09808409 -0.2784442 0.22192629 0.27273995 -0.37906092 0.40820807 0.3627721 0.25542423 -0.4675314 -0.11462391 0.30422327 -0.06141429 -0.21299829 0.68512785 0.22089975 0.19330032 0.19187556 0.4851653 -0.13839558 0.3841748 -0.065724626 0.107342064 -0.38603637 -0.4306967 0.17466772 -0.23321515 0.20602615 0.37796804 0.50690556 -0.33240148 0.18200581 0.2913312 -0.7926136 -0.24913044 0.6996433 0.28091538 -0.68437904 0.36359972 -0.008953494 -0.05401149 0.0622082 0.3114082 0.14274625 0.15516257 0.29718885 0.19465648 -0.011795434 0.15938148 0.2942784 -0.020863803 -0.5098773 -0.116907656 0.3491366 -0.44178653 -0.020846376 -0.012837702 -0.33631814 -0.39266372 -0.13746972 -0.22979783 -0.11038543 -0.25943053 -0.34483373 -0.29801232 -0.6349015 -0.26405117 0.31668773 -0.08298613 0.7235601 -0.026155295 0.18751104 0.0071118455 0.03832187 0.09561411 -0.44591525 -0.68174773 -0.03491652 0.4694153
783 -0.22028512 -0.073948294 -0.27797407 -0.0031020523 -0.2778193 -0.00045465564 0.3332237 -0.18319935 0.082052514 0.74428815 0.07354138 -0.27324343 -0.5652736 -0.1661407 -0.32012367 -0.08689707 0.3720694 0.02221283 -0.10305541 0.22014542 -0.506195 -0.03274295 0.061499733 -0.378828 -0.23974894 0.17459375 0.7859803 0.2554551 -0.8235892 -0.14579616 0.081911564 -0.14630835 0.30894336 0.5027617 -0.0028438373 0.40911606 -0.4213382 0.023997078 0.08387841 0.4831807 0.18390352 -0.10724809 0.066315815 -0.265715 -0.26700494 0.3339813 0.12866783 -0.48564556 0.53269625 0.41462564 -0.2521723 -0.3019971 0.13708955 -0.25973198 -0.09186143 0.25078806 0.4133527 -0.12105097 -0.24975775 -0.1700022 0.062833525 0.054127775 0.14642526 0.25277615 -0.2482935 0.14650282 -0.17824224 -0.24471684 -0.085491784 0.67233115 -0.096372224 0.30994144 -0.21986508 -0.08203258 0.13103925 -0.23946519 -0.0293682 0.013119428 0.14139694 -0.3143132 0.27328733 0.0753623 -0.12886176 -0.1789266 0.664127 0.19869393 -0.511554 0.19700557 0.34840894 -0.027393376 -0.06381029 -0.084289275 0.02233917 0.5691116 -0.1044283 -0.0528727 0.39334807 -0.32784688 0.36414224 0.2165428 -0.62986636 -0.16514349 0.51323944 0.029523378 0.21987088 0.221277 -0.3165592 0.38306195 0.3143367 0.36536837 0.019539507 -0.5590637 -0.41054884 -0.28462526 0.15259862 -0.03033467 -0.20827194 0.28660434 0.42973268 -0.0340439 -0.008258036 -0.03832594 0.018496307 -0.016748307 -0.72286814 -0.19677977 -0.069188274 0.5164008
782 -0.11001816 -0.18435806 -0.17582987 0.02957575 -0.14964809 -0.001427874 0.28927508 -0.25976548 0.24130851 0.60835314 -0.40520456 -0.46355683 -0.39393568 -0.1980047 -0.46442202 -0.09889411 0.6490134 -0.12961994 -0.07293192 0.13347143 -0.39530948 -0.06487348 0.2075682 -0.38251755 -0.1313236 -0.05721849 0.7263053 0.16419233 -0.60215765 -0.086890586 -0.16144213 -0.098173864 0.24102855 0.36467788 -0.10545801 0.35726145 -0.27484804 0.09742668 -0.04831131 0.33246052 0.03576159 -0.1386488 0.08997947 -0.34917194 -0.31317705 0.26825708 0.10654388 -0.35481736 0.39212093 0.26294485 -0.35959437 -0.538416 -0.10413256 -0.25780272 -0.16771072 0.2708252 0.50435257 0.10941592 -0.14339584 -0.05911457 -0.27893126 0.15824021 0.1027808 0.291925 -0.258403 0.26762113 -0.027279317 -0.45093358 -0.1152738 0.48743924 -0.085831925 0.41098633 -0.239327 -0.07399879 0.12191359 -0.13454919 -0.06858907 0.25173613 0.0670634 -0.6139025 0.32782644 0.084223725 -0.1828714 -0.065146245 0.47503212 0.2516975 -0.2016495 0.35613194 0.40345308 -0.13667844 -0.038069773 -0.08349723 0.14676142 0.5770821 -0.07008086 -0.097982354 0.26009065 -0.14791709 0.15611705 0.23973818 -0.60453206 -0.059933558 0.5309046 0.09707543 0.1479963 0.1790215 -0.2999474 0.41326085 0.35620108 0.24791317 0.114294164 -0.31546417 -0.5277538 -0.1820323 -0.019023465 0.06820908 -0.054546967 0.20125303 0.48073792 -0.10804798 -0.0071839187 -0.085373074 0.2840882 -0.20073785 -0.61891747 -0.09783964 -0.23919006 0.4516906
69 -0.8178784 -0.33275834 -0.11945702 -0.18832818 -0.7433753 0.25683933 -0.32444867 0.37376553 0.23075907 0.36709532 -0.166259 0.4391959 -0.1289862 -0.3215343 0.6311153 -0.36945146 0.2563611 -0.37353313 -0.27654368 0.10055131 -0.16536841 -0.1603073 -0.04182119 0.26428685 -0.1497443 0.2810605 -0.41138422 0.2136712 -0.08440859 0.40067157 0.31054246 0.22233772 0.35370514 -0.060694713 0.027373917 0.014608842 0.47397873 -0.22013918 -0.57135916 -0.31880122 -0.07383384 -0.3309284 0.3633231 0.083376765 -0.01442209 -0.13906015 0.058015075 0.2628529 -0.3596071 0.4469592 -0.15970095 -0.22229926 0.24561384 0.2238722 -0.4584145 0.4597222 0.23763579 0.35598862 -0.5189399 -0.15530518 0.38274777 -0.0066034673 -0.23750536 0.6184084 0.18783483 0.13238066 0.33008486 0.34809363 -0.22540638 0.42275712 -0.024466459 0.1927697 -0.22978792 -0.46614873 0.07562861 -0.27462763 0.22634919 0.51450515 0.42653182 -0.19601747 0.114516936 0.14324078 -0.92748237 -0.41054243 0.5831336 0.22539379 -0.5824165 0.39183846 -0.1987749 -0.013872269 0.1791212 0.30387118 0.15111494 0.3219604 0.30672303 0.04107033 0.0067771794 0.07820361 0.1634149 0.086643174 -0.52893245 -0.116295174 0.41368523 -0.5277782 -0.020899683 -0.20469789 -0.37792632 -0.354945 -0.037894923 -0.25508395 -0.016405893 -0.16817486 -0.3799766 -0.407348 -0.6694004 -0.031214157 0.36240867 -0.2952671 0.63488567 -0.0849617 0.20379722 0.06653062 -0.030778963 0.242013 -0.34702364 -0.5579429 0.110090144 0.48516834
626 -0.27587688 0.21323365 0.24433024 0.19945645 -0.15471336 -0.10142815 -0.43035194 -0.16312106 0.036231942 -0.14184122 -0.34103733 0.2310031 -0.1667646 -0.049419664 0.11710365 -0.04493875 0.14815824 -0.08138045 0.75303334 0.24714045 -0.023062587 -0.35348377 0.32476893 0.21593846 0.2495396 0.22528595 0.10443515 0.5839438 -0.06860126 0.16636352 -0.19925588 0.13189681 0.15323196 -0.022136055 0.16009025 -0.46836403 0.20716941 -0.56238043 -0.068853974 -0.0069273533 -0.18108879 -0.602734 0.10978933 0.20023854 -0.43989643 -0.14525753 0.29889977 0.035046205 -0.32612947 0.26433876 -0.33514974 -0.2852492 0.14018019 0.2174393 -0.23343347 0.56733346 0.16841917 0.30120987 -0.2008231 -0.22007266 -0.06931197 -0.26157594 0.090158045 0.18378353 0.21433645 0.07973774 0.25322354 0.3388145 0.16499259 0.13156392 0.28425148 -0.011582988 -0.5104984 -0.1886937 -0.09155192 -0.1992687 0.4220058 0.94526744 -0.37179667 -0.11848314 0.09541385 -0.16607219 -0.8438286 -0.21184842 0.27906796 0.13318034 -0.33323064 0.13094944 -0.29738036 0.2606763 0.49842414 0.32021743 -0.42681187 0.22151008 0.46539754 -0.43153402 -0.013505415 -0.50778157 -0.048901603 0.06673557 -0.25652173 -0.07847707 0.49377835 -0.24356943 0.21907976 -0.17945972 -0.2507075 -0.072717585 -0.39877462 -0.15289855 0.17129515 0.09821994 0.0938666 -0.20165321 -0.47597334 0.15207212 0.13142963 0.15325852 -0.18508205 -0.1469788 0.6643576 -0.20515482 -0.49765572 0.14089188 -0.36897427 -0.25227 0.04916034 0.6821081
785 -0.2024382 -0.06822709 -0.090752885 0.25808257 -0.1346037 0.018990649 0.3568448 -0.3356366 0.15502086 0.5951034 -0.23023705 -0.5084289 -0.49195364 -0.113794066 -0.45417604 0.08001945 0.35465258 -0.14353627 -0.21408424 0.042763516 -0.39789483 0.025120294 0.24968503 -0.4469468 -0.1899946 -0.0070690415 0.5627138 -0.073639825 -0.6654008 -0.18142058 -0.08345066 -0.22154208 0.1829003 0.29674104 -0.096188165 0.46707195 -0.4459533 0.13132924 0.05670518 0.43771005 0.27133515 -0.050150145 0.010314358 -0.23091081 -0.3054131 0.2879397 0.15781534 -0.33260605 0.24670932 0.31335524 -0.33740777 -0.33512548 -0.11762481 -0.20258087 -0.18933928 0.1255146 0.34636617 0.05407304 -0.16006887 0.007525844 -0.22490957 0.13271874 0.034321558 0.04134269 -0.30819812 0.24166474 -0.025637832 -0.19380705 -0.256492 0.6180219 -0.07030673 0.20125693 -0.38814828 0.048503544 -0.08917176 0.056676153 0.123021275 0.18513086 0.19687733 -0.6196621 0.109851085 0.21748956 -0.3006957 -0.31223178 0.317598 0.23926939 -0.43589798 0.1972466 0.17694332 -0.008862551 0.071714364 -0.04786576 0.040188022 0.5727361 -0.14789489 -0.11155587 0.46952695 -0.1590837 0.24751112 0.3961295 -0.70121914 -0.1385283 0.5744955 0.1418203 0.43070272 0.10840016 -0.22033943 0.40418845 0.2505101 0.16401197 0.20004621 -0.4656015 -0.49685487 -0.17459156 0.019347047 0.03793415 -0.064183086 0.14656286 0.52986604 -0.28066957 -0.010680579 -0.11267211 0.2565904 -0.17001283 -0.70177215 -0.14233291 -0.22307599 0.58597076
579 0.0363173 0.46382067 -0.036000665 0.11769843 -0.20840392 -0.23921701 -0.6130961 -0.5654122 0.3292177 0.17886205 0.14953363 -0.22868502 -0.06043928 -0.421732 -0.1531587 -0.008836722 0.59232306 -0.24879122 0.14071704 0.44175398 0.089282624 -0.24142528 -0.1564655 -0.5294094 -0.075421676 -0.027065562 0.384377 0.19521132 0.16852954 0.12991211 0.4074944 -0.168372 0.54349273 -0.0033835776 -0.22953887 -0.21820422 -0.08358762 -0.21658717 -0.5874845 -0.25418827 0.22165926 -0.6281334 0.4281868 -0.17825454 -0.64430594 -0.16155125 -0.0071579767 -0.15427123 -0.29831636 0.61030626 -0.2721376 -0.26983565 0.37278333 -0.29189175 -0.43454063 0.3672105 0.36905417 0.33493906 -0.11851047 0.12391595 -0.66821724 0.17741044 -0.34539664 0.13064261 -0.17741041 0.5525139 0.11563943 -0.100502044 0.31155303 0.18141922 0.06865538 -0.3389867 -0.75375706 -0.27201062 -0.100844845 -0.20813411 0.070296206 0.5786482 -0.25282684 -0.4263239 0.33794087 -0.17515382 -0.7177901 -0.40815142 0.5582086 0.5270196 -0.48391512 0.2630364 -0.16629697 0.35869732 0.2144736 -0.1536111 -0.5554923 0.078652926 0.28266022 -0.6242319 0.07963301 -0.21483885 -0.33595103 0.30058637 -0.20827594 -0.14502716 0.5337105 -0.16222796 0.12901416 0.14916901 -0.51389736 -0.4795007 0.10429224 0.27138326 -0.3595155 -0.06777825 -0.11242092 -0.34349883 -0.14579768 0.3243877 0.29015723 0.085394636 -0.10018046 -0.35334077 0.18225537 -0.4001862 -0.20540382 0.20069553 -0.16243233 -0.07584161 -0.16675434 0.54297596
17 -0.26464102 0.38475996 0.31767857 0.25389677 -0.24697869 0.07301607 0.14231096 -0.10520571 -0.24125426 0.26517686 -0.25525996 0.13861455 -0.29967993 0.18330628 -0.017124692 -0.13046846 0.30850416 -0.19746232 0.4870915 0.27450776 -0.060997054 -0.14326657 0.33195528 0.07196513 0.23450743 0.420195 0.18770942 0.808783 -0.3834738 0.331933 -0.5259682 -0.08094351 0.121774666 0.049126636 0.06443023 -0.57347095 -0.049465224 -0.74398786 -0.0715247 0.22443596 -0.25162575 -0.25582698 -0.10014102 0.5329795 -0.5687979 -0.2406761 0.34422684 -0.22203764 -0.14492925 0.6359506 -0.36284485 -0.38588825 -0.21445605 0.35138345 -0.10523306 0.45481643 0.24412614 0.35729662 -0.10020746 -0.56186974 -0.061369523 -0.32382706 0.34460726 -0.06405005 0.15389696 0.18225929 0.064976156 -0.008324498 -0.032150567 0.16778803 0.12238503 0.23804179 -0.30968797 0.22832562 -0.052066684 -0.12950629 0.166382 0.4779892 -0.2310194 0.025016885 0.08075278 -0.17105362 -0.61710453 -0.15239225 0.10627161 0.2161577 -0.16420123 0.2555342 -0.23851109 0.110538684 0.13871737 0.26300925 -0.1584442 0.44559112 0.27798086 -0.3609934 0.12362941 -0.4005389 0.09563036 0.018638177 -0.2192383 -0.17590047 0.46243954 -0.11801062 0.50190115 0.12299015 -0.29734686 0.24176542 -0.19826454 -0.29987812 0.08539127 0.13776977 -0.18943694 0.023725873 -0.053844552 0.07310035 -0.08056446 0.0726977 -0.0053529753 -0.29014182 0.43243968 0.12373274 -0.6051667 -0.061653055 -0.1923413 -0.17848223 -0.08941438 0.7026194
7 -0.16393687 0.2880976 0.3485326 0.3443538 -0.20631126 -0.10170731 -0.28993165 -0.3324623 -0.12089651 0.38625947 -0.5055736 0.10420176 -0.313204 -0.058360986 0.119550854 0.120675825 0.3372234 -0.20800696 0.66994053 0.5113025 -0.018018337 -0.39490142 0.21468836 0.14667676 0.1703553 0.26342154 0.22647694 0.8300284 -0.30119184 0.16323043 -0.20587347 0.14830346 0.11917467 0.0065960283 -0.09338541 -0.5471156 0.021615025 -0.7151991 -0.2029464 -0.11669361 -0.25209758 -0.28989458 0.010663853 0.26074874 -0.51321167 -0.050354388 0.3415809 -0.08534049 -0.33264786 0.41454628 -0.45493713 -0.44211307 -0.32479712 0.40448037 -0.16266891 0.50433946 0.25456002 0.10771776 -0.2577035 -0.29482672 -0.115985006 -0.17749451 0.1010866 0.19649512 0.01895421 0.16933015 0.089648604 -0.021688597 0.061744686 0.108019665 0.18358345 0.1546571 -0.40781856 0.020737255 0.08617413 -0.25173324 0.29335362 0.6739335 -0.15933369 -0.16149318 0.23661585 0.03144826 -0.7371839 -0.18188952 0.065021165 0.032714773 -0.27908266 0.12175111 -0.18724594 0.15730481 0.24275959 0.25213113 -0.31755483 0.20258099 0.24416709 -0.26833776 0.038594797 -0.48953372 -0.07216284 0.13673732 -0.081718914 -0.07234444 0.36551997 -0.20376162 0.4645205 0.08512225 -0.38319936 -0.055952497 -0.29109338 -0.09473033 0.15616968 0.2624394 -0.16229726 -0.017805465 -0.2163532 0.07411974 0.07079661 0.08139251 -0.110324696 -0.44138008 0.48536292 -0.062495306 -0.356293 0.17556533 -0.19847634 -0.43830833 -0.0013150194 0.6284224
784 -0.27317274 -0.14893357 -0.3581473 0.15334734 -0.34192654 -0.031518143 0.21839741 -0.59249246 0.14294615 0.5448716 -0.13533977 -0.20910951 -0.5045252 -0.15256394 -0.45364484 0.034775186 0.5387646 -0.12052506 -0.11884895 0.13321462 -0.51193804 -0.03316399 0.16669682 -0.4756891 -0.02742026 0.09630911 0.5266774 0.19312218 -0.76693773 -0.11909738 -0.011018197 -0.1449056 0.33212852 0.23395672 -0.14126778 0.26657256 -0.523683 0.006305509 -0.059545718 0.40944168 0.07248444 -0.20122027 0.0153220035 -0.39789483 -0.2798435 0.29816207 0.14554593 -0.32916299 0.41961482 0.35369536 -0.24599662 -0.5315953 -0.14543511 -0.0850815 -0.22979881 0.2539805 0.30014983 0.11812217 -0.321567 -0.096782275 -0.212622 0.09321584 0.10790117 0.072539404 -0.26756456 0.08405415 -0.104199685 -0.031794757 -0.2694812 0.76505643 0.018420896 0.36639604 -0.047175895 -0.03881089 -0.07202693 0.044662412 0.049565785 0.11817399 0.13148007 -0.5199227 0.3226411 0.34054798 -0.17463873 -0.11450895 0.719491 0.12648447 -0.47707865 0.27985355 0.34547746 0.003154113 0.02466343 0.20519508 -0.08064904 0.59971815 -0.22039926 -0.050861783 0.32152253 -0.15391338 0.32225823 0.40266615 -0.5394252 -0.15673783 0.5207096 0.004541617 0.09821608 0.23602268 -0.11985402 0.51402795 0.2435005 0.008332031 0.099671334 -0.28490967 -0.3921886 -0.39394835 0.17095089 -0.038057588 -0.03452451 0.1455883 0.5534008 -0.07404938 -0.16347472 -0.29622367 0.33606145 -0.13502476 -0.67230594 -0.04513266 -0.14002198 0.48753667
624 -0.5355238 0.11214002 0.13346392 0.20968337 0.080565475 -0.11839231 -0.07656019 0.120194934 -0.11424341 -0.28363863 -0.2058618 0.13114014 -0.25192827 0.16427416 0.0431575 -0.03730855 0.148279 -0.0805146 0.69503194 0.06579601 -0.34852067 -0.402398 0.35647148 0.2736548 0.35602218 0.19786592 0.20151773 0.82208794 -0.28302783 0.35744542 -0.36962885 -0.015773391 -0.11643196 0.053785186 0.33229116 -0.21804881 0.14462154 -0.4423999 0.04742026 0.17248899 -0.37567252 -0.44604272 -0.0753877 0.24706593 -0.3340958 -0.19800794 0.107490346 -0.09637167 -0.065484986 0.23704487 -0.29696992 -0.21400857 0.22217382 0.21882492 0.019688232 0.702006 0.07713255 0.37783167 -0.101829335 -0.41499844 -0.0380756 -0.21245988 0.23744228 0.07931759 0.4332435 0.16957642 0.15649642 0.35035205 0.255159 0.37402934 0.23039858 0.042443547 -0.47000328 0.028692488 0.11120372 -0.25318268 0.41650116 0.636598 -0.13030776 0.2061062 0.11724863 0.011755217 -0.97728115 -0.11125902 0.35053232 0.27261588 -0.40336284 0.21519934 -0.2936763 0.113372765 0.4113133 0.18644796 -0.35041064 0.37931967 0.26976788 -0.50123936 0.050765455 -0.51531386 -0.09578461 -0.037855577 -0.4355218 -0.06929133 0.43080643 -0.11402648 0.2115153 -0.3158172 -0.18438084 -0.057614706 -0.43225902 -0.085146435 0.09061986 -0.02250918 0.25362843 0.092586994 -0.4546507 -0.015185383 0.07176805 0.3250305 -0.05390365 5.8850812e-05 0.918021 0.041194294 -0.5476989 -0.23607862 -0.3813831 -0.44038877 -0.24389309 0.46612328
5 -0.2542993 0.29592294 0.08916726 0.3263975 -0.08614249 0.021671442 -0.14469817 -0.19590658 -0.3072484 0.10310131 -0.49774778 0.25226063 -0.25152603 0.26984715 -0.011207568 -0.16037495 0.24437885 -0.19868502 0.55262804 0.33437783 -0.11509457 -0.15457736 0.28054395 0.3207074 0.2760271 0.33055028 0.13721527 0.8048684 -0.48293474 0.26802647 -0.5221283 -0.0042789914 -0.074242875 -0.06460875 0.22157407 -0.51907456 0.14455642 -0.57014924 0.008466044 0.008872725 -0.331252 -0.31925577 0.013127713 0.28196645 -0.35638767 -0.38868192 0.34693578 -0.028021367 -0.103772804 0.35651338 -0.3422948 -0.3826461 0.045872815 0.38015524 -0.031951297 0.61431986 0.3036371 0.27449515 -0.07120414 -0.45140633 -0.011882364 -0.21931379 0.31647626 0.101497374 0.17644967 0.2733417 -0.002764305 0.2713792 0.042717457 0.09322005 0.08035312 0.07263178 -0.31255198 0.09902243 0.06490276 -0.24781092 0.4140215 0.751021 -0.35283548 0.05773066 0.146819 0.09461079 -0.8585868 -0.05947646 0.3071299 0.2677332 -0.3320932 0.27220646 -0.15938461 0.10962707 0.1434028 0.26470593 -0.27484727 0.16697247 0.49927953 -0.25364098 0.026951537 -0.51877654 0.10608673 0.041488446 -0.24924798 -0.1271375 0.47672948 -0.0279796 0.24380709 0.15228948 -0.19343361 0.019023512 -0.29830447 -0.27185956 0.05710988 0.14838964 0.04930212 -0.044381447 -0.36087736 0.021946602 -0.04122183 0.24455196 0.0010662455 -0.1925779 0.53021896 -0.015544647 -0.5795605 -0.17259164 -0.39641657 -0.2737676 -0.095268376 0.45880276
668 -0.3509359 0.05679505 0.39612648 0.23424807 -0.075398244 -0.21698223 -0.26040056 0.02991602 0.017815951 0.07769281 -0.2545009 0.06538093 -0.23455392 -0.20507094 0.08459278 0.18760204 0.22577487 -0.11027935 0.7529337 0.2363969 -0.17337862 -0.57914174 0.30419868 0.077634715 0.21434978 0.13192323 0.2682801 0.8322615 -0.099833295 0.19515406 -0.06842503 0.13897169 0.07067072 0.008769803 0.046676088 -0.22814538 0.04840859 -0.626809 -0.109426685 0.005455867 -0.25626397 -0.45175847 -0.09327904 0.23463485 -0.37913722 0.1792392 0.15108962 -0.10841177 -0.25051677 0.41653666 -0.4326957 -0.40190893 -0.26380602 0.22527605 -0.11961863 0.5979741 0.09922727 0.20318857 -0.18951789 -0.33794954 -0.10364971 -0.22588366 -0.014453678 0.12354795 0.33306867 0.06934468 0.28525466 0.09001228 0.28782406 0.41342446 0.33986306 0.09909921 -0.6582284 -0.09493848 0.1595154 -0.28187904 0.16696727 0.58721066 0.10705281 -0.016974218 0.2310136 -0.117023595 -0.8184891 -0.18468972 0.25269455 0.0032623527 -0.39041388 0.094670825 -0.22070403 0.17338982 0.5619368 0.18632434 -0.3902954 0.35213906 0.05044232 -0.43445137 0.15768869 -0.44688466 -0.23360875 0.009447025 -0.2600395 -0.1347418 0.34636757 -0.34201664 0.4346556 -0.36208233 -0.32883236 -0.10801956 -0.4139362 0.11027464 0.148127 0.011687034 -0.044021685 0.03163949 -0.36639467 0.060431134 0.10464719 0.12589364 -0.056894846 -0.27369756 0.9069918 0.031911127 -0.29491675 0.014225383 -0.30503106 -0.5732528 -0.06682013 0.6706906
15 -0.13392805 0.24217825 0.35138524 0.46024805 -0.06446845 -0.0593798 -0.08364704 -0.34244767 -0.41231608 0.29102582 -0.53698325 -0.008483177 -0.6617988 0.04555836 -0.1597329 -0.017946418 0.3416725 0.11061898 0.5622199 0.37612185 -0.04096401 -0.22097494 0.3246202 0.06831666 0.33950585 0.47349983 0.29249913 0.9060112 -0.5656053 0.27185678 -0.5400672 -0.17344582 0.08807935 -0.12173245 0.07184705 -0.45709604 -0.0113859 -0.35583365 0.14114243 -0.03831812 -0.4038744 -0.22217698 -0.16467014 0.19070701 -0.47489154 -0.13872263 0.6394543 -0.3420976 -0.0051409537 0.32996902 -0.32291988 -0.40668118 -0.23545456 0.29571313 0.057453346 0.5071427 0.35133535 0.2004034 -0.2554532 -0.38441464 -0.19878 -0.08236146 0.24455437 0.02142841 0.28292534 0.14064705 0.07707242 -0.050645653 0.098895095 0.098735295 0.24137717 0.040235553 -0.3252596 0.30341247 0.12028698 -0.10477699 0.22300024 0.66045666 -0.21805198 -0.2545503 0.13812777 0.010633905 -0.92066145 -0.043898948 0.11553694 0.10819712 -0.34969434 0.15921538 -0.0064116665 0.26358616 0.19997017 0.14756109 -0.47713637 0.20989467 0.24597289 -0.43638876 0.093326226 -0.2490204 -0.03476176 0.010631336 -0.14749046 -0.05305745 0.43290377 -0.08171136 0.3242336 0.16312002 -0.24181916 0.17494728 -0.11587 -0.19678807 0.16873424 0.2026785 -0.11448655 -0.04989596 -0.21263641 0.08172176 -0.09574848 0.16784409 -0.15229204 -0.42921546 0.59766155 -0.21816576 -0.54916704 -0.08297104 -0.20969106 -0.24725458 -0.12917797 0.68122685
8 -0.21537966 0.2637386 0.111283705 0.22482234 -0.11567631 -0.30433774 -0.03581916 -0.31903356 -0.0625068 0.13999924 -0.39518553 0.15106983 -0.52579325 0.03330401 -0.17436734 -0.090238534 0.09888454 -0.14974757 0.6158802 0.36801907 -0.09606566 -0.39396703 0.40430143 0.2076997 -0.008274119 0.28497788 0.3614169 0.9145617 -0.5246042 0.34546053 -0.6678685 -0.029659653 -0.28943375 0.2301681 0.15960208 -0.37790808 -0.27349645 -0.51108694 0.19949828 0.1050094 -0.38594303 -0.05641441 0.0032729206 0.309656 -0.5529149 -0.19673868 0.48960608 -0.3803088 -0.13376637 0.5174017 -0.36209366 -0.46306086 -0.049136154 0.26805887 -0.32149196 0.4119672 0.31780347 0.29109013 -0.0399086 -0.41748583 -0.19748016 -0.10687454 0.23518698 -0.14126903 0.12840278 0.16139336 -0.010903801 -0.020175694 -0.015546411 0.21428601 0.052972347 0.10600326 -0.37626928 0.1433078 0.034371357 -0.43706882 0.4725119 0.4884225 -0.31488916 -0.05909372 0.15517697 -0.02806046 -0.7495325 -0.16565482 0.095355846 0.13918246 -0.27981633 0.09621536 -0.19003037 0.35594273 0.2247462 0.19554856 -0.43777376 0.29791388 0.2548847 -0.1827686 0.16008554 -0.4058648 0.061073307 0.0040533026 -0.10807905 -0.20459287 0.36484325 0.009967531 0.57558787 0.1469221 -0.05077991 0.22359651 -0.30877593 -0.13517182 0.09910104 0.24691269 -0.036990717 0.13313866 -0.075317636 0.071659796 0.098380916 0.3039264 -0.3846535 -0.25792933 0.39195997 -0.086432256 -0.50701094 0.08471292 -0.09648691 -0.3414657 -0.084743924 0.6845773
86 -0.45459577 -0.79626083 -0.2400685 -0.0754076 -0.42178854 -0.09833564 -0.43543553 0.26991448 0.07358815 0.18754615 -0.17613922 0.16617958 0.23315078 -0.34826866 0.40137887 0.08218837 0.19977115 -0.364637 -0.059902377 0.16959162 -0.27406 -0.18684785 0.089669794 0.24823716 -0.25058106 0.25321683 -0.15134566 0.28444344 -0.13916118 0.32553473 0.28962544 0.16517358 0.08466287 -0.28130087 -0.081381515 0.029511185 0.32584888 -0.23082116 -0.1344854 -0.28803736 -0.11992371 -0.26907116 0.40769038 -0.0008286183 0.117228106 0.090277955 0.17901249 -0.1056062 -0.1199684 0.52454317 -0.1305463 -0.33013412 0.033476107 0.45290068 -0.4141953 0.1398777 0.238675 0.018439367 -0.4742595 -0.12063961 0.2315669 -0.08430634 -0.11558414 0.5812499 0.19090575 0.059603103 0.17448297 0.5389074 -0.1459417 0.19567631 0.046372585 0.10623157 -0.48021448 -0.30868357 0.058506254 -0.2786928 0.06591097 0.25935927 0.5081422 -0.6064413 0.14985904 0.32486004 -0.39691508 -0.10963609 0.5965773 0.21757378 -0.60973066 0.16815563 0.1675695 0.018864248 0.010588038 0.32962567 0.009086884 0.14721891 0.3895531 0.40290526 0.14082976 0.07960189 0.25634643 -0.11337691 -0.44770807 -0.1661732 0.29255047 -0.30001235 0.20024104 0.021359708 -0.3293947 -0.19874324 -0.28057644 0.1763181 -0.018013181 -0.27775076 -0.20786954 -0.29745683 -0.6125315 -0.3708633 0.19402812 0.048520047 0.6629295 0.09813942 0.05312578 -0.06021432 0.253522 0.11826302 -0.5351409 -0.76082224 -0.112146996 0.5306707
320 0.19367346 -0.26489374 -0.47539204 0.2873218 -0.35183147 -0.17425841 0.15165049 0.05937617 0.4100754 0.09349038 -0.23988143 0.18569823 -0.58903956 -0.057257507 0.014641089 0.21513641 0.18018837 -0.032175384 -0.1690567 0.020362455 -0.5440469 -0.15495163 -0.028340746 -0.20454259 0.67025256 0.30739862 0.45675772 0.43827534 -0.2153199 0.52474445 0.3493779 -0.06580453 0.2437323 0.08850953 0.27337167 -0.4610876 0.1423884 0.26939905 -0.02726396 0.2014396 -0.33955404 -0.3557115 0.3916264 -0.28319037 -0.77603686 -0.46580836 0.36509934 -1.1664752 -0.038808864 0.4523832 0.4835128 -0.18097036 0.429905 0.050400514 -0.24775854 0.17857526 -0.09179363 -0.11598941 -0.43797794 0.15189077 -0.3289551 0.059870355 0.07277482 0.11485121 -0.024047155 0.49720296 -0.14017315 -0.04964244 0.10429932 -0.18380062 -0.3315526 0.03122968 0.08164283 0.17528734 -0.5138155 0.18599065 0.12108958 0.23175661 -0.14659369 -0.35571277 0.059305828 0.051426627 -0.7867724 -0.37284547 0.1299736 0.16420758 -0.047101695 -0.018168114 -0.534061 0.34375352 -0.34299845 0.004186718 -0.043838475 0.4974801 -0.15899818 0.074023396 0.4619245 0.20327555 -0.31196758 0.045085825 -0.679576 -0.09210226 0.18272719 0.3458995 0.32331002 0.14329787 -0.08434622 -0.012353648 0.2633155 0.043215927 0.09782996 -0.130412 -0.30543697 0.09784321 0.11389292 0.090548985 -0.1995117 0.2155162 0.39862296 -0.38733166 0.10858132 -0.33803055 0.0939043 -0.010317726 0.17645103 -0.38802117 -0.1227354 0.094096504
308 0.0070718373 -0.4779654 -0.52738065 0.103227556 -0.4220935 -0.11824239 0.17704931 -0.03956626 0.3824545 0.10856445 -0.14461559 0.37284684 -0.5411609 0.00016812 0.112824075 0.16889086 0.05969298 -0.14007545 -0.19485942 0.17799746 -0.6552846 -0.28220502 0.028119717 0.04136522 0.443232 0.2521622 0.37064025 0.2768658 -0.2132162 0.39637533 0.24655521 0.071448624 0.2267053 0.019008288 0.31550506 -0.2546645 0.19740596 0.47971648 -0.019850135 0.08824299 -0.4239749 -0.3347025 0.4579145 -0.258956 -0.6532049 -0.34460184 0.48409015 -1.0590326 -0.02540421 0.29844818 0.201311 -0.2099114 0.61629444 0.10603593 -0.31924215 0.34926754 -0.17443953 0.042459376 -0.506042 -0.06946327 -0.23413253 0.11986098 0.12144093 -0.018050514 -0.13889125 0.2554888 -0.13647273 0.019654129 0.15026365 -0.1181932 -0.09565376 0.06790671 0.333741 0.05688108 -0.6879317 0.10869409 -0.01266004 0.37190872 0.014726935 -0.20599689 0.10692357 -0.011734354 -1.0205551 -0.64061856 0.13862692 0.10563604 0.07020281 -0.13313082 -0.38981664 0.33942035 -0.3434387 0.06606305 0.23714949 0.42848083 -0.037732087 -0.12615754 0.53312397 0.14069773 -0.056745715 0.012987659 -0.60025793 -0.09493431 0.28470168 0.32941535 0.12586051 -0.03784462 -0.15026146 -0.14984418 0.2790958 0.097264506 0.10314135 -0.09351384 -0.22138947 0.0075559327 -0.02424032 -0.009868872 -0.3209719 0.05931758 0.2786219 -0.16034463 0.1543426 -0.03914206 0.28190187 -0.09347379 0.13383342 -0.2383829 0.11336754 0.017885383
686 -0.40642983 0.239531 0.3894983 0.09945068 -0.25380635 -0.16544233 -0.4106879 -0.11801578 0.046470895 0.0040091784 -0.24112329 -0.021670816 -0.3068612 -0.029416995 0.3043793 0.04259329 0.12015045 -0.17651153 0.6993759 0.24792235 -0.02712368 -0.32316205 0.25163275 0.12343058 0.12900408 0.0059159845 0.18283081 0.59597445 -0.17958747 0.057609648 -0.11744304 0.14626761 0.117791414 0.08094743 0.10061576 -0.4112358 -0.045699958 -0.6142967 0.0066583767 -0.15862578 -0.12522942 -0.38008818 -0.12596403 0.07353188 -0.5083104 -0.016405262 0.21591005 0.10473017 -0.1416885 0.39103162 -0.46690503 -0.15695333 -0.05116966 0.2633866 -0.20101093 0.7041391 0.25511128 0.43335617 -0.4968235 -0.14750555 -0.08288781 -0.21349844 -0.0054108505 0.33714217 0.09198047 -0.17230624 -0.012017087 -0.049243454 0.046008892 0.20171839 0.26913387 0.16398026 -0.5218956 -0.1670403 -0.17345126 -0.15356618 0.19049585 0.6756017 -0.14339118 -0.26528847 0.11502804 0.004650074 -0.77618957 -0.0666881 -0.11966 0.078195 -0.33385155 -0.053772528 -0.41866928 0.2327859 0.37660846 0.21097763 -0.27144167 0.3697948 0.18544385 -0.39185488 0.11344308 -0.40773052 -0.33017734 0.36982378 -0.15592083 0.2376376 0.41007587 -0.14030504 0.27446437 -0.27611727 -0.22609955 0.08502485 -0.38252762 0.14580859 0.16931793 0.1790558 0.058704242 -0.06410498 -0.2873118 0.0015110153 0.013345096 0.14398701 -0.05237384 -0.41429257 0.54957086 -0.23636219 -0.46640545 0.21298702 -0.21285135 -0.47898176 0.13391462 0.6884272
628 -0.50911623 0.26336128 0.21222498 0.16872326 -0.13274568 -0.0017074343 -0.31098124 0.027379028 -0.12725121 -0.32217807 -0.25566456 0.098931015 -0.3453701 0.24661331 0.21396826 -0.12906246 0.11297115 -0.13368875 0.65392226 0.08662531 -0.13958102 -0.12686384 0.32788318 0.29582328 0.30815756 0.04925455 0.14668973 0.6564392 -0.37604183 0.1924085 -0.30203927 -0.004402368 0.009706577 0.005888634 0.3802509 -0.45926747 0.09001504 -0.4649699 0.19646713 -0.02236581 -0.22679436 -0.43987626 -0.15404086 0.03365248 -0.40156403 -0.29597506 0.26298794 0.121181615 0.03648951 0.28268018 -0.3472935 -0.046144083 0.34978497 0.2558915 -0.0011055744 0.7757291 0.22661304 0.49807987 -0.38190138 -0.22666389 0.011198862 -0.21554518 0.2194631 0.24226072 0.21860498 -0.03928414 -0.085256055 0.23042558 0.083281256 0.14864491 0.21325833 0.069729626 -0.4514675 -0.042701576 -0.20888352 -0.060595572 0.2732784 0.8027955 -0.30780366 -0.094885476 0.044246804 0.028436176 -0.93082315 0.08147206 0.08965696 0.27543992 -0.39591506 0.06482132 -0.44579712 0.21071035 0.3341006 0.21603982 -0.34471998 0.34124625 0.38380978 -0.50155175 0.15909444 -0.3918603 -0.22600015 0.30738142 -0.3872642 0.22597267 0.4909675 0.06978103 0.08693462 -0.24640186 -0.11606662 0.13124388 -0.41661763 0.03527929 0.07214502 0.082143925 0.24719892 -0.11092356 -0.40444848 -0.06318287 -0.056521658 0.25498196 0.005582344 -0.17003581 0.5902012 -0.28393543 -0.71737057 -0.08713863 -0.3490228 -0.33026698 0.013743684 0.5258588
633 -0.3304522 0.12534256 0.1984703 0.4058129 -0.15868036 0.0021412193 -0.20013522 -0.1292719 -0.2593968 -0.1217641 -0.41402242 0.2039624 -0.48101014 0.087595746 -0.06056177 -0.22675818 0.10908392 0.17543934 0.5355943 0.13770819 -0.062613 -0.1799749 0.4078847 0.21586658 0.3602355 0.44119203 0.13675503 0.68910944 -0.34468135 0.22957054 -0.48685867 -0.10438828 0.123044714 -0.12460386 0.36882725 -0.29714677 0.20902115 -0.251016 0.17559874 0.07847287 -0.28588292 -0.44778052 -0.09318636 0.13446103 -0.30518875 -0.19174851 0.6117382 -0.12482557 0.051177442 0.15141477 -0.22031258 -0.28712526 0.13693829 0.1407642 -0.011060337 0.61408633 0.2606606 0.37004396 -0.18511021 -0.39842585 0.02016668 -0.14045207 0.30643263 0.0783283 0.45499584 0.01692881 0.19414768 0.37222216 0.13742597 0.18381025 0.24645467 0.019504033 -0.3903629 0.008261999 0.045945022 -0.09960149 0.3337915 0.83561075 -0.36216348 -0.14561036 0.07735629 -0.090177976 -1.078675 -0.010814653 0.31917918 0.122094505 -0.44884053 0.1493616 -0.07552285 0.31325743 0.4488263 0.289635 -0.4750611 0.24488482 0.47402808 -0.47489926 0.032134894 -0.27166077 -0.011763475 -0.036904413 -0.34101543 -0.031455386 0.49578828 -0.13264748 0.046603113 -0.102421805 -0.09239242 0.18390869 -0.19922766 -0.25716507 0.13598475 0.055516016 0.05038375 -0.19135194 -0.51489383 0.09025321 -0.053790495 0.16410671 -0.15652089 -0.11567111 0.70845443 -0.33580092 -0.6124179 -0.13407789 -0.40949336 -0.13498689 0.079007626 0.65092266
32 -0.2803692 -0.16844247 -0.13351026 -0.11399944 -0.14492236 -0.2728868 0.17807087 -0.2128246 0.21826778 0.5802005 0.1142311 -0.5055698 -0.4208833 -0.21928465 -0.0406643 0.13322921 0.019702323 -0.03319565 0.008043963 0.27164853 -0.5058236 -0.05700962 0.12217621 -0.5967615 -0.0254669 0.38481784 0.06681304 0.04818003 -0.48904252 0.12616403 -0.03815779 -0.529261 0.17631082 0.3759387 -0.14359362 0.40548292 -0.054629512 0.20085895 -0.077902265 0.22188751 -0.2161546 0.10429811 -0.101509556 0.09122722 -0.09664871 0.37587973 0.014951567 -0.43782458 0.29807645 0.24092211 -0.181484 -0.5220173 -0.28973943 -0.1819876 -0.14912164 0.02940069 0.14037348 -0.1743821 -0.28026575 -0.11564231 -0.32073084 0.2526169 0.2304064 0.38367653 -0.106344 0.47138625 -0.17271005 0.15265478 -0.077096276 0.3789137 -0.07541406 0.26289687 -0.38885194 0.38667423 0.0013100861 0.040857967 0.12410779 0.051921837 0.20929755 -0.66236037 0.50179416 0.53684443 -0.6224121 -0.23491977 0.29934618 0.27006748 -0.1878422 0.28998053 0.25227058 0.13128927 -0.19073015 0.32304683 0.12833445 0.52795744 -0.018113026 0.33562347 0.102350056 -0.40416452 -0.06820791 0.17577532 -0.057012785 -0.18314016 0.5878409 0.028898196 0.28350744 -0.40108392 -0.16486077 -0.09054671 0.16940337 0.11888512 0.06729475 -0.47577593 -0.2963278 -0.08688636 -0.2904203 0.0128463805 0.13290921 0.13586469 0.6082735 -0.24776146 -0.34925133 -0.40381253 -0.06450071 -0.008306727 -0.68024045 -0.5457577 0.07099189 0.1998394
9 -0.2997797 0.3944166 0.3327864 0.18718903 -0.10127261 -0.13347624 -0.18453558 -0.18252742 -0.22535811 0.14108679 -0.4229171 -0.018750481 -0.46561897 0.18697217 0.108798705 0.04807199 0.23381162 -0.2563903 0.67093176 0.35188708 -0.103385836 -0.21038173 0.2884535 0.18028027 0.18604791 0.052060816 0.288029 0.8907235 -0.6083086 0.22431234 -0.39592505 -0.03607512 -0.08036637 0.10598176 0.091939084 -0.5680619 -0.16342875 -0.61875725 0.2008299 -0.096401654 -0.29008323 -0.13118519 -0.1905039 0.13576469 -0.5550884 -0.19913551 0.35438585 -0.10411418 -0.026809487 0.51171464 -0.45889083 -0.27598622 -0.07534813 0.37925392 -0.02223698 0.64976364 0.309317 0.26619416 -0.3615005 -0.3008207 -0.16373742 -0.17823076 0.19404389 0.11566659 0.01789947 0.034916315 -0.22298817 -0.14647932 0.016763307 0.096911006 0.17856541 0.15939318 -0.37962517 0.2103069 -0.1064645 -0.16628072 0.21530238 0.61010295 -0.23886366 -0.1521268 0.17135933 0.14180937 -0.7649689 0.056971096 -0.0992667 0.22656773 -0.28290826 0.085268736 -0.32837385 0.19679447 0.113606244 0.12982209 -0.320084 0.36684892 0.19137037 -0.35684085 0.2421781 -0.4423522 -0.21928585 0.30113596 -0.14262556 0.18979734 0.40525162 0.124084756 0.43882957 0.005573236 -0.17268117 0.16386427 -0.33688843 0.08140814 0.115291975 0.22881672 0.0395423 0.052373853 -0.09977324 -0.023026956 -0.11043607 0.28352687 -0.034002915 -0.41853464 0.44290128 -0.15557677 -0.6416504 0.050510153 -0.16907033 -0.4615058 -0.0921611 0.58078957
13 -0.15597261 0.21536405 0.2748419 0.62422436 -0.19733195 -0.05693368 -0.072463535 -0.21902083 -0.1774356 0.23072514 -0.45502868 -0.05336795 -0.49982372 0.006456868 0.016142555 0.14601906 0.28202948 -0.08986085 0.5023062 0.43520772 -0.12283245 -0.40971103 0.37546733 0.30581504 0.20250654 0.41523296 0.6182435 0.88422096 -0.4888529 0.21015854 -0.39440936 -0.11363456 -0.07699076 -0.012411666 0.063466735 -0.43809018 -0.14231557 -0.80167294 0.00091754383 0.078332305 -0.30028072 -0.25569764 -0.39472958 0.30009693 -0.50640476 -0.39662972 0.237038 -0.16887444 -0.09193275 0.65458095 -0.26806623 -0.52352196 -0.117818944 0.40033823 0.0128955105 0.4983638 0.29299724 0.24658258 -0.1380038 -0.29662457 -0.10976104 -0.098396085 0.33672598 0.0056028124 0.013153932 0.13020094 -0.039526146 -0.19655713 -0.033407114 0.1929869 0.12319166 0.15753677 -0.29498947 0.30160424 0.025003353 -0.19448286 0.18753514 0.7367039 -0.097296804 -0.047381938 -0.012667924 0.014067096 -0.62701267 -0.3690985 0.12418339 -0.01321174 -0.15213092 -0.18887667 -0.057081185 0.10557168 0.1299477 0.17286938 -0.35822576 0.30647308 0.29870117 -0.31041107 0.18526015 -0.3872433 0.1489987 0.15488452 -0.26153287 -0.34073097 0.5761369 0.14372085 0.44700405 -0.05343598 -0.4282544 0.40732324 -0.2869414 0.02239579 0.121366456 0.31250837 -0.12882182 -0.19655108 -0.17121075 -0.079396166 -0.010500937 0.036370937 -0.20679621 -0.3000607 0.5586122 -0.032944962 -0.40177408 -0.18984874 -0.2973003 -0.13180919 0.051099394 0.5114386
689 -0.29298726 0.22032747 0.3506398 0.118897066 -0.30652177 -0.06676962 -0.1361708 -0.022944368 0.1113657 0.09724459 -0.06363393 0.12459848 -0.13055183 -0.10405233 0.066968374 0.011099854 0.1868477 -0.1961625 0.71634775 0.2309736 -0.04648521 -0.32399273 0.37715182 -0.013171833 0.143018 0.29343998 0.10479584 0.57145727 -0.023460617 0.14815702 -0.21933952 0.08414382 0.25506574 0.05828307 0.07805202 -0.3467358 -0.007397178 -0.7410755 -0.13534568 0.15325725 -0.1098675 -0.53373873 -0.035088714 0.436743 -0.5178328 0.104510345 0.23065326 -0.099550605 -0.26918706 0.5069479 -0.43849638 -0.38539726 -0.2526344 0.1868395 -0.31772378 0.4888697 0.19811967 0.48369947 -0.20351069 -0.35402375 -0.066709734 -0.40259928 0.13830082 0.100628704 0.17766304 -0.0008747835 0.29057056 0.11902732 0.0197784 0.2551307 0.2524217 0.15185313 -0.55350703 -0.12967119 -0.09270512 -0.16855982 0.17436321 0.61516845 -0.1566672 -0.24052908 0.11967592 -0.3617277 -0.5840477 -0.22628056 0.18302213 0.0089019155 -0.24055366 0.10057421 -0.31244624 0.2725779 0.4884598 0.40558583 -0.26734632 0.43088582 0.2610244 -0.38151535 0.07478906 -0.46808726 0.024171881 0.012530176 -0.13374008 -0.21802685 0.52104276 -0.3885633 0.45467392 -0.20615874 -0.35321465 0.16027264 -0.32160535 -0.17722936 0.13923699 -0.030968262 -0.13658378 -0.11241836 -0.231882 0.088750966 0.06792518 0.03317114 -0.117134735 -0.2874471 0.5634848 -0.016855163 -0.4728678 0.18237495 -0.31773272 -0.24693516 0.06795678 0.93895847
321 0.015407626 -0.35433695 -0.8136195 0.3858262 -0.4075912 -0.10545598 0.100194655 0.30682507 0.5629895 0.1516242 -0.3380304 0.40356082 -0.65298045 -0.14373015 -0.012255284 0.23677298 0.20773068 -0.18856306 -0.27119875 0.23357406 -0.5750525 -0.049212754 -0.13620624 0.0774411 0.45437 0.1957506 0.4527839 0.4111318 -0.2894589 0.35416824 0.087988965 -0.09434994 0.2640533 0.15120785 0.3425149 -0.25907394 0.18589954 0.46035796 -0.17146267 0.11091467 -0.21315199 -0.3550347 0.23940839 -0.06568553 -0.6387508 -0.4839001 0.27236894 -0.97330517 -0.058689013 0.34507823 0.3769476 -0.27174917 0.6278984 0.09685749 -0.09312316 0.45115593 -0.1924088 -0.005245553 -0.2852002 0.10163499 -0.24848196 -0.15309367 0.11638911 0.060267113 0.092233285 0.4668446 -0.107636094 -0.07402585 0.06844232 -0.16507387 -0.06999721 0.17411228 0.07203843 0.010523436 -0.4840978 0.0015967072 -0.1106462 0.24892901 -0.14511052 -0.117019154 0.09327943 0.11531698 -1.0422208 -0.5616507 0.11142441 -0.023908703 -0.11383161 -0.13724233 -0.43185136 0.2049551 -0.45608827 0.071468465 -0.034500267 0.45828724 -0.1581581 -0.023350248 0.39290562 0.19093761 -0.21414626 0.14451768 -0.49245223 -0.22840005 0.28328982 0.417355 0.33958632 -0.00993994 -0.08902267 -0.16871254 0.20946394 0.07171989 0.34941626 -0.07905985 -0.39361337 0.0489317 0.074290894 0.13465902 -0.26991627 -0.012341946 0.5130664 -0.3418268 0.28592592 -0.078525685 0.25458705 -0.12014668 0.09284317 -0.33711967 -0.002049484 0.19204572
60 -0.5726986 -0.42454323 -0.0040549166 0.03874816 -0.46428877 -0.16153255 -0.5459042 0.094738 0.020979071 0.2517366 -0.26473832 0.20754068 0.076570146 -0.3058396 0.5604352 0.027183399 0.10400172 -0.26423347 0.19265747 0.2912778 -0.11120432 -0.30925485 0.13697329 0.20208766 -0.03608794 0.21458161 -0.26284388 0.37838256 0.04100804 0.25077918 0.3157914 0.34066817 0.17612873 -0.088510565 -0.0969399 -0.16398078 0.50104326 -0.35489693 -0.27895102 -0.24815011 -0.30601084 -0.32217616 0.22664471 0.15472208 -0.04931806 0.1456064 0.32215694 0.0805754 -0.18894638 0.29578742 -0.2580578 -0.35415497 -0.11700379 0.44327036 -0.36876896 0.34977022 0.11509172 0.018185416 -0.5541765 -0.24177969 0.18648504 -0.13275847 -0.023047285 0.72642946 0.16404021 -0.0069392873 0.26784715 0.4317706 -0.03230879 0.080655605 0.16313913 0.22123072 -0.44865328 -0.38017002 -0.092816904 -0.121684104 0.20177032 0.49766284 0.4018553 -0.46788472 0.2526288 0.23174623 -0.7047246 -0.15795851 0.47737128 0.039168622 -0.49632627 0.15137272 -0.13496338 0.13847671 0.259594 0.4651573 0.041213304 0.14511178 0.2586432 0.25203425 0.11842434 -0.17311698 0.05767357 0.10191697 -0.33643726 -0.018098598 0.25568104 -0.3211454 0.23584358 -0.3406628 -0.31699666 -0.2829027 -0.28882596 0.06698858 0.07885062 -0.11124774 -0.22908211 -0.18413831 -0.64478046 -0.21066655 0.24911477 -0.08141565 0.47032207 -0.153688 0.2452611 -0.22797798 -0.05986679 0.23312849 -0.4355665 -0.7974009 0.23840767 0.5454548
213 0.12745547 0.43970996 0.065445945 0.23401605 -0.18258668 -0.29454944 -0.6558321 -0.4934275 0.24170177 0.115403265 0.020832833 -0.115294866 -0.002709813 -0.44291693 -0.045203708 -0.008476646 0.46705785 -0.19722004 0.31513318 0.49494416 0.15237421 -0.325833 -0.021628834 -0.27072975 -0.014275071 0.021931676 0.44899982 0.27627468 0.16710684 0.042425286 0.2916005 -0.13338639 0.400559 -0.08548642 -0.021440994 -0.17704448 -0.02761776 -0.47036177 -0.46370608 -0.21212775 0.20232743 -0.59151566 0.19316423 -0.052007508 -0.496608 -0.19680215 -0.10796167 0.048780445 -0.27242115 0.6086442 -0.26530305 -0.42245826 0.26570544 -0.23358501 -0.3684564 0.49571395 0.3316258 0.35514197 -0.011664815 0.07687435 -0.5451723 0.1667912 -0.24786954 0.025311803 -0.168119 0.4363233 0.17772149 -0.21665694 0.38331237 0.2043403 0.12901883 -0.33389968 -0.71869713 -0.15526265 -0.022393014 -0.33311227 0.10093822 0.7576744 -0.23733026 -0.20635273 0.29208833 -0.22140111 -0.57131517 -0.472242 0.4977973 0.38988858 -0.39425802 0.011514864 -0.09716037 0.31185997 0.2603086 -0.11731878 -0.50938576 0.05740018 0.19172885 -0.54332954 0.024330387 -0.28674608 -0.26659486 0.22907831 -0.11001393 -0.2078619 0.59993404 -0.09984574 0.18506868 -0.13550204 -0.507954 -0.34696493 0.024564024 0.28561404 -0.27480704 0.009514779 -0.062131297 -0.41597405 -0.2630688 0.30711463 0.2113358 -0.008469592 -0.23768823 -0.2961835 0.3941275 -0.2907219 -0.19198397 0.123657845 -0.2880236 0.019195067 0.07183414 0.39426187
316 0.124733426 -0.49218398 -0.49485517 0.22846362 -0.4093203 -0.30257633 0.060703732 0.09182595 0.41539347 0.15769261 -0.15321451 0.15620992 -0.4738443 -0.28047475 0.11941542 -0.033238817 0.2032725 -0.043791573 -0.16921698 0.31418592 -0.48845884 -0.072056435 -0.02147372 -0.025296377 0.53749347 0.30355796 0.3752373 0.24464245 -0.48691636 0.33711907 0.34275514 -0.071699664 0.07061247 0.06005709 0.2655916 -0.43457875 0.056779787 0.33619732 0.02915432 -0.15410018 -0.3780103 -0.36419365 0.34915695 -0.47755393 -0.62900627 -0.65539986 0.38169795 -0.8978385 -0.068159014 0.1909621 0.5941081 -0.32249412 0.49134505 -0.0096951565 -0.20696606 0.38021043 -0.098750405 -0.042736076 -0.33915854 0.11810031 -0.13860525 0.2203677 -0.07743745 0.17045917 0.08430408 0.24983436 -0.08539354 -0.15914571 0.20988464 -0.16902508 -0.2547044 -0.27940252 0.18766005 -0.044101138 -0.550929 -0.09536046 0.12976909 0.31949165 -0.15278871 -0.26823905 -0.2027433 -0.016171424 -1.0349057 -0.6657532 0.34297332 -0.12329017 -0.12044322 -0.15936191 -0.45908695 0.40337235 -0.3099175 0.037592802 0.137506 0.37016684 -0.05768472 0.020825453 0.39431283 0.23794241 -0.14021234 -0.22355247 -0.63195306 0.1570954 0.32257995 0.43027574 0.1528283 0.04883414 -0.042416878 -0.2960298 0.31446195 -0.10729105 0.20940718 -0.052286856 -0.20497741 -0.045509804 -0.053601723 0.02557088 -0.23481716 0.044361312 0.4225973 -0.09957806 0.14283964 -0.012976622 0.19463393 0.046220694 0.03536826 -0.35450134 -0.11457266 0.05379218
313 0.12821251 -0.3558055 -0.45862797 0.42137137 -0.47085494 -0.1077762 0.025323037 -0.09795662 0.43488032 0.17019068 -0.014602569 0.21035193 -0.87381136 0.12915352 0.21585146 0.090815336 0.22100842 -0.0077326996 -0.11534767 0.16184343 -0.5099476 -0.14014058 0.06768827 -0.033880625 0.50847703 0.3091979 0.2002844 0.22692956 -0.18142475 0.31653762 0.36890835 -0.07108756 0.15031657 -0.051454365 0.36663923 -0.16654184 0.075547054 0.3514574 -0.13915847 -0.0040091774 -0.47798946 -0.28727078 0.28632852 -0.3285135 -0.6532957 -0.4648585 0.46964428 -0.97039944 -0.06698799 0.30347484 0.31977487 -0.23934385 0.47515818 0.13659844 -0.48342118 0.36252812 0.055778414 0.06430051 -0.5439968 0.23761906 -0.38181254 0.25430852 0.03363771 0.10929569 -0.13874234 0.27886823 -0.05741638 -0.11259643 0.10758995 -0.07478757 -0.072682686 -0.1154509 0.06632153 0.08668343 -0.5417169 0.07234459 0.064170614 0.3060752 0.044266727 -0.38861403 0.061440364 0.053313553 -1.0321459 -0.56671 0.014664993 0.0071102697 -0.17131022 -0.20028692 -0.38434467 0.2843603 -0.2803489 0.080105275 -0.01547419 0.30455285 -0.18441682 0.17840303 0.2038959 0.15971026 -0.025710577 -0.16816935 -0.49133235 -0.032632172 0.41793865 0.20259798 0.25942075 0.16783996 -0.1457071 -0.3225502 0.12166235 -0.048438597 0.12965278 -0.1106128 -0.5180248 0.29113764 -0.0544673 -0.014359111 -0.16396976 0.09287117 0.46919513 -0.40948063 0.043992322 -0.12950946 0.08523345 -0.11079935 0.22830926 -0.3267938 -0.0972156 0.020572294
561 0.20973162 0.37787062 -0.06659297 0.010257454 -0.23910064 -0.35375503 -0.6353386 -0.554841 0.35226053 0.19133985 0.035941318 -0.13874063 -0.10760882 -0.6067933 -0.0677798 -0.1634622 0.48352656 -0.1737013 0.07868883 0.5494769 0.0495917 -0.04465407 -0.1312747 -0.5423028 -0.047616385 0.13657697 0.2942757 0.047839724 0.14418152 0.1349036 0.46166223 -0.17224832 0.6636005 -0.10184738 -0.15690224 -0.2501149 0.03290232 -0.1967438 -0.56885815 -0.15069684 0.25946975 -0.6707377 0.33735746 -0.15401551 -0.49394095 -0.09476284 -0.059117183 -0.21000421 -0.36422318 0.6094059 -0.18182632 -0.39750674 0.4686472 -0.31251174 -0.55450976 0.27143586 0.31538066 0.35762164 -0.08658538 0.27818716 -0.616008 0.34963077 -0.44162205 0.16130799 -0.08802161 0.6111326 0.23343931 -0.28814915 0.4871175 0.27271515 0.1578614 -0.39137807 -0.72418034 -0.24815163 -0.15759116 -0.22811382 0.20539977 0.7653669 -0.20780188 -0.32444218 0.43647906 -0.23490547 -0.5831343 -0.56783116 0.6958534 0.6023913 -0.4891788 0.24195334 -0.062280484 0.27431267 0.2032437 -0.2601761 -0.5219118 0.1523263 0.07604747 -0.5352058 0.046754245 -0.118237846 -0.24730636 0.36830115 -0.29020578 -0.18819326 0.6551475 -0.065531895 0.051590245 0.036081795 -0.591654 -0.5380011 0.081459716 0.14600417 -0.35360596 -0.1707523 -0.10451509 -0.44224992 -0.19672155 0.31779197 0.3157846 -0.11611663 0.029075146 -0.3867395 0.129334 -0.25453606 -0.08678233 0.20861642 -0.40765232 -0.025666893 -0.12272694 0.44918653
199 -0.38802767 0.22376437 0.38381174 0.31989905 -0.24235897 -0.059565037 -0.20211338 -0.014273393 -0.008291862 -0.12179949 -0.24569975 -0.13992299 -0.50334084 0.06973644 0.1835961 0.10950555 0.06636751 -0.06926461 0.6236821 0.18684399 -0.17640041 -0.3144175 0.43414652 0.28311014 0.16335268 0.052169126 0.523412 0.70807123 -0.5022228 0.08848736 -0.27935302 -0.104974024 -0.018083896 0.14685304 0.2750762 -0.34980002 -0.21820787 -0.6422385 0.25471762 0.10197756 -0.18871312 -0.2788507 -0.44823167 0.041055426 -0.5158269 -0.23066628 0.17583834 -0.002067564 0.13425091 0.5323845 -0.34822172 -0.20402192 0.13655527 0.25528443 0.08578166 0.6514127 0.19795246 0.44905648 -0.37018836 -0.13326691 -0.022423862 -0.13752879 0.2700822 0.11804317 0.046105597 -0.16836117 -0.23068592 -0.094813146 -0.028993303 0.24775319 0.19416645 0.21279608 -0.40242228 0.18315504 -0.20631818 0.0016706412 0.09283064 0.736153 -0.14506863 -0.20672733 -0.02617447 0.0071515497 -0.7024861 -0.09833252 -0.08511786 0.09845087 -0.2134026 -0.2682643 -0.3010604 0.18069325 0.27197665 0.134629 -0.36509183 0.48846453 0.20402277 -0.47093868 0.34742266 -0.3505913 -0.19512732 0.39139098 -0.31152394 0.05973654 0.536765 0.24302334 0.29700702 -0.37977535 -0.25360107 0.48845655 -0.38988963 0.24336576 0.17684378 0.1979261 0.028002772 -0.23898615 -0.1990601 -0.16261196 -0.14243138 0.112080716 -0.12094638 -0.2827966 0.537195 -0.31090942 -0.5543991 -0.11089386 -0.34629655 -0.23910604 0.17627227 0.60281086
310 0.16715051 -0.3620984 -0.613673 0.20658413 -0.35264358 -0.046467453 0.14529194 -0.0025806658 0.42510456 0.042613264 -0.1582603 0.35299155 -0.5591105 -0.14112768 0.052586555 0.13547137 -0.048795823 -0.02690059 -0.024965357 0.21794716 -0.6459264 0.045015693 0.096291095 0.053528186 0.5668365 0.40825626 0.32196102 0.38337535 -0.29793534 0.45501834 0.36254787 -0.15981789 0.16342287 0.09904126 0.23393136 -0.11874712 0.053895596 0.5796632 0.025134314 0.19008358 -0.39372683 -0.16226034 0.1347965 -0.12831448 -0.67688113 -0.48615012 0.37189946 -0.95385337 -0.118997 0.24668658 0.3969513 -0.087190345 0.4700794 -0.1278465 -0.39365876 0.43884346 0.020381708 0.13227408 -0.6148905 0.074974485 -0.18556504 0.030348893 0.06677827 0.0886639 0.02359753 0.38412213 -0.19795497 -0.319727 0.17406888 -0.14848147 -0.0742579 -0.037862338 0.113362625 0.015221086 -0.63738436 0.016886925 -0.039852187 0.327835 -0.122979775 -0.19724503 0.038320832 0.13534926 -0.98364985 -0.47707742 0.19549538 0.13577478 0.15602754 -0.07690368 -0.37641165 0.33361065 -0.40399516 0.13192686 -0.08492614 0.44575688 -0.15077391 0.043894786 0.33726105 0.20461072 -0.015213165 -0.16354285 -0.43226808 -0.23238231 0.26470852 0.42184383 0.25193244 -0.08827421 -0.26467046 -0.20420809 0.21656637 0.29527026 0.26415294 -0.17695962 -0.42037946 0.08097395 -0.08611326 0.15418208 -0.08763337 0.09988118 0.27041268 -0.23177998 0.09742036 0.2158865 -0.14619662 0.07808437 0.09703884 -0.024349323 -0.10679205 0.18444686
318 -0.013603224 -0.2439082 -0.42464274 0.26904714 -0.21517095 -0.21802129 0.20508401 0.18514833 0.58025384 0.05246512 -0.10382996 0.206425 -0.39461052 -0.0931967 0.08213929 -0.020911431 -0.0075890566 -0.044254743 -0.23507169 0.18632476 -0.49647325 -0.13829835 -0.095084496 0.08800809 0.5328656 0.20926611 0.476681 0.34720808 -0.4090271 0.23822504 0.33478367 0.004961436 0.18348972 0.027860224 0.33555964 -0.35050595 0.02590207 0.19625746 -0.1559358 0.013752761 -0.30884722 -0.22608362 0.29827404 -0.29767612 -0.7763617 -0.38374072 0.38127747 -0.9768876 -0.027031006 0.2325361 0.40997282 -0.17652598 0.49831825 0.02563046 -0.5445939 0.35492307 -0.27340895 0.028437292 -0.37142593 0.29764882 -0.16142072 -0.15002343 0.1309402 -0.03213467 0.18990839 0.08327622 0.017591838 -0.23864153 0.031027578 -0.13851763 0.03849779 -0.044355065 0.055142872 0.13269715 -0.41203123 0.152226 -0.07084567 0.29591212 -0.011799866 -0.31083682 -0.06916142 0.032530878 -0.92415786 -0.5478456 0.18010846 0.28942227 0.06473253 -0.19305183 -0.67770976 0.020218471 -0.397873 0.17179711 -0.10048933 0.33849874 -0.09785781 0.16776428 0.4882855 0.14701292 -0.28067705 -0.28613466 -0.63391435 -0.18396138 0.20862675 0.3013784 0.28400365 0.17241658 -0.041928954 -0.12296926 0.11769218 0.0971261 0.10656797 -0.08877194 -0.4815347 0.12073863 -0.20250222 0.09012706 -0.2404254 0.14049868 0.45552903 -0.2587719 0.20635097 0.024891937 -0.073418915 0.071149945 0.30519277 -0.32745773 -0.07596384 0.21711273
312 -0.11506511 -0.29107386 -0.6557678 0.36576432 -0.6463046 -0.1898777 0.016564962 0.13501997 0.44759062 0.03717874 -0.11042103 0.31450215 -0.584087 -0.09571115 0.018408488 0.19772491 0.16973825 -0.019069908 -0.2762034 0.019815931 -0.54263765 -0.09160457 -0.034664538 0.2302943 0.44418597 0.17959468 0.43839526 0.40483972 -0.28288272 0.4206612 0.40897253 -0.032838248 -0.08324859 0.07838665 0.26753566 -0.21167961 0.26160792 0.34914696 -0.04935731 0.027571397 -0.3639383 -0.17794938 0.2182806 0.045862477 -0.75860786 -0.5841927 0.38912743 -0.7960053 0.041100707 0.5010495 0.4324898 -0.08033124 0.8522285 0.13611715 -0.2833147 0.422784 -0.13578296 0.064570725 -0.35834607 0.08365543 -0.32287154 0.06698653 0.20688257 -0.065819226 0.1350361 0.19117473 0.026791528 -0.062220458 -0.010407324 -0.11754219 -0.17792918 -0.018530477 0.2475874 0.19588165 -0.5534161 -0.0055390084 0.046272088 0.35995424 -0.06447086 -0.24908407 -0.14341657 -0.13764745 -0.87893504 -0.30234694 0.18239465 0.008784572 -0.10002204 -0.07975361 -0.4940159 0.12889425 -0.23948765 -0.038634263 0.020752799 0.48345098 -0.15902951 -0.030746652 0.3437115 0.3064827 -0.15526102 -0.01385744 -0.6553813 -0.024783278 0.26978898 0.36995798 0.2759583 -0.09643847 -0.1591167 -0.20466818 0.19374914 0.20019737 0.3352312 0.07203112 -0.41079026 0.07808437 0.020276286 0.10339202 -0.15833132 0.1379224 0.39790404 -0.19374116 0.037455205 -0.0058928183 0.03787996 -0.034246534 0.23007357 -0.22299804 -0.12471695 0.012115315
659 -0.2821222 0.057251066 0.38200524 0.36158296 -0.33003354 -0.165318 -0.3607861 -0.29603258 -0.00095812976 -0.023028988 -0.24085934 0.10361041 -0.026086956 -0.12968357 0.26710495 -0.055491086 0.2985028 0.03303934 0.6038235 0.20907563 0.060771566 -0.455214 0.21953616 0.10654616 0.2254975 0.46154246 0.279168 0.5322404 0.06518979 0.06648753 -0.20571151 0.15357476 0.22841175 -0.048881307 0.041017856 -0.3996563 0.006348781 -0.6685514 -0.17391945 -0.050635792 0.065417714 -0.4955784 0.09291936 0.2855475 -0.6545913 -0.0085374 0.32823202 -0.081099615 -0.13658978 0.4316046 -0.22528686 -0.3320853 -0.15040873 0.27456734 -0.33722922 0.6085806 0.29845542 0.3887014 -0.303482 -0.23955616 -0.18818636 -0.20450239 0.13978912 0.18417752 0.27933732 -0.14264505 0.2789054 0.07606139 0.041914232 0.28062502 0.30927157 0.26276487 -0.48826757 -0.2812459 -0.0018334124 -0.30517986 0.32834035 0.5812321 -0.2869143 -0.16298588 0.031425655 -0.15578598 -0.69594085 -0.24933921 -0.08672622 0.110506445 -0.3044406 -0.11364132 -0.100288495 0.12816189 0.39083037 0.30285496 -0.30845448 0.47725934 0.2366603 -0.29527146 -0.038030595 -0.3288546 -0.11260333 -0.02436804 -0.23404981 0.103365794 0.42648405 -0.19364083 0.40207914 -0.097770184 -0.26527244 0.0006059658 -0.2402893 -0.014478911 0.280991 0.30247152 -0.011493419 0.0071744923 -0.27272657 0.01717476 0.041754622 0.13336101 -0.13906913 -0.16841066 0.6628537 -0.28044698 -0.19871084 0.30660555 -0.2551268 -0.29310387 0.12431232 0.69658786
634 -0.42829478 0.278071 0.16150054 0.11958012 -0.21880116 0.12546541 0.0028216676 0.08238094 -0.078464836 -0.19056767 -0.12267185 0.28567666 -0.20161201 0.21701957 0.07844928 -0.26115388 0.11151972 -0.13574864 0.580712 0.0714652 -0.11723743 -0.089429714 0.42660695 0.16213827 0.32910073 0.36625862 -0.030530218 0.5901865 -0.21861123 0.3070295 -0.48485392 -0.1054142 0.13347131 0.061227906 0.3657539 -0.4274191 0.15613398 -0.56123585 0.034782376 0.32492846 -0.2306405 -0.49849403 -0.027020521 0.420337 -0.4475077 -0.25001767 0.2900191 -0.089079514 -0.106466234 0.34586963 -0.27734774 -0.23682387 0.16656105 0.18269686 -0.1332338 0.55639744 0.13292234 0.5350457 -0.09753413 -0.4751559 0.04483597 -0.35983184 0.40030587 -0.007409797 0.30682656 0.13839397 0.18466242 0.37471977 -0.02009883 0.17635335 0.1643983 0.11962275 -0.36796921 0.0298537 -0.13193285 -0.07793075 0.3582758 0.7271269 -0.35808674 -0.0010705068 0.029081857 -0.27729133 -0.75779486 -0.14047417 0.29436383 0.24926396 -0.25640005 0.2638356 -0.35116673 0.23043376 0.3534293 0.40794957 -0.22287935 0.46221817 0.44249803 -0.41509408 0.044222597 -0.4862959 0.14510527 -0.07077286 -0.3401741 -0.16385254 0.5703733 -0.14170833 0.23448023 -0.17929871 -0.1827022 0.21496834 -0.29258245 -0.4127033 0.1151794 -0.0532472 0.044927817 -0.13299462 -0.34162363 0.08199132 -0.012484352 0.13434522 -0.06575579 -0.045435008 0.5565801 -0.08758268 -0.7302858 -0.055723533 -0.41502142 -0.05817292 -0.01951747 0.7275735
687 -0.19963229 0.08540952 0.46047562 0.17505941 -0.27588153 -0.11065445 -0.39681095 -0.08425929 0.03840143 -0.04627091 -0.36479148 0.06756725 -0.25595868 -0.23524664 0.433059 0.13017753 0.2959828 -0.05153564 0.83845633 0.2914853 0.08334801 -0.41865322 0.23240528 0.11876909 0.2856527 0.21504484 0.10267057 0.78247875 -0.056839097 0.13713457 -0.085063994 -0.021048961 0.32447243 0.060528103 0.064494565 -0.5219664 0.16886011 -0.62397844 -0.09311548 -0.028481724 -0.13902624 -0.3727469 0.030979296 0.2744893 -0.45185772 0.0755516 0.30316383 -0.10148231 -0.46073776 0.43148875 -0.3503403 -0.27016348 -0.15222587 0.31210178 -0.23262432 0.4193695 0.017053148 0.09267372 -0.36776647 -0.14179596 -0.12680556 -0.045499872 0.12866662 -0.02039083 0.13386503 0.11271945 0.24212179 0.12876269 0.021534897 0.11747891 0.4316263 0.09294577 -0.3960776 0.10520743 -0.052081063 -0.16261545 0.24678414 0.79786557 -0.13306358 -0.2442389 0.20581074 -0.1823794 -0.55314076 -0.27209148 -0.012150505 -0.0159923 -0.22170359 0.0494572 -0.19548537 0.22204913 0.43475893 0.29270095 -0.2704141 0.4345934 0.12547444 -0.31707 0.008524176 -0.4284503 -0.11123899 -0.094003186 -0.22512242 0.08227694 0.463004 -0.22454147 0.4744028 -0.32533818 -0.36979458 0.18683672 -0.30454493 -0.03527596 0.32114658 0.18739939 -0.13798703 -0.26272753 -0.33340138 0.23364486 0.08883517 0.067274384 -0.22234514 -0.13456565 0.6396801 -0.18036236 -0.37870067 0.50750023 -0.24635886 -0.17360157 -0.046292532 0.7381677
315 0.040179912 -0.47141865 -0.3992281 0.34308624 -0.50532115 -0.103062116 0.04735964 0.21192196 0.4348704 0.10413565 -0.22664008 0.29348546 -0.6435271 0.006435319 0.09347462 0.04813124 -0.01094534 0.046655253 -0.25217974 0.09996104 -0.54970527 -0.11904948 0.19645235 0.042236727 0.57737046 0.5102669 0.38473812 0.387808 -0.32277724 0.20424615 0.13235368 0.040392864 0.26567626 0.07854903 0.47868654 -0.16705762 0.124346554 0.4130286 0.016004527 0.062331397 -0.37352422 -0.37144756 0.34727547 -0.45247138 -0.6864393 -0.3620518 0.5383373 -0.8325806 -0.106734246 0.17864087 0.3768558 -0.20901363 0.54676235 0.0648905 -0.25838202 0.45952266 -0.07844993 0.1698903 -0.4911196 0.035798512 -0.09882028 0.20761567 0.20171787 0.22216803 0.070330545 0.22949705 0.12285501 -0.25628567 0.10376713 -0.10381278 -0.10754899 0.09130745 0.25406873 -0.027748065 -0.6968281 0.28745973 0.21674852 0.25794807 -0.1387388 -0.3174942 -0.07105777 0.05328719 -0.91113263 -0.43146667 0.27078822 0.09817688 0.038828313 0.017910674 -0.16202071 0.27866763 -0.22844423 0.024772432 -0.067625634 0.37412694 0.17089221 0.29581982 0.41839707 0.30917594 -0.23598377 0.115644984 -0.48121616 -0.23703189 0.2068915 0.41880327 0.09058408 0.11009638 -0.019288827 -0.011940911 0.30580863 0.008766574 0.3766903 -0.08681145 -0.39400208 0.112944335 0.022134058 0.12654762 -0.1271318 0.06931575 0.32368866 -0.21797937 0.26722935 0.08183478 0.18368727 0.080021836 0.2789142 -0.4274805 -0.08024952 0.21175666
627 -0.40471244 0.16026358 -0.03591917 0.13316849 -0.14377609 -0.23406903 -0.22876112 -0.1168057 0.038210776 -0.26807812 -0.26656127 0.37121913 -0.35797504 0.0731709 -0.036426045 -0.30224004 -0.0811483 -0.11543046 0.6278874 0.18726315 -0.08628951 -0.33255684 0.452705 0.3483245 0.068077646 0.20318283 0.12590118 0.70920545 -0.34256017 0.3471026 -0.5860958 0.026203198 -0.27877533 0.19625558 0.4363123 -0.292606 -0.007167686 -0.43345135 0.21140969 0.14472385 -0.35161543 -0.28334874 0.10416927 0.2127392 -0.3612682 -0.29212978 0.4253113 -0.093895555 -0.10649216 0.30762696 -0.28941274 -0.34353548 0.31644633 0.18077092 -0.36742163 0.5530244 0.2400359 0.46410123 -0.027310815 -0.38795102 -0.011781621 -0.13739759 0.2345536 -0.02449846 0.24960104 0.12012415 0.09527637 0.3549726 0.06773713 0.22912374 0.046661567 0.02904995 -0.46509063 -0.078190714 -0.046417587 -0.42693093 0.5792453 0.7017785 -0.4050031 0.013318359 0.10021456 -0.086913474 -0.9163479 -0.119654186 0.31596217 0.19732592 -0.4305242 0.09192955 -0.3022336 0.42034742 0.41980484 0.2940326 -0.43537953 0.22807316 0.4598045 -0.1901167 0.09224309 -0.46423998 0.08061836 0.00055137585 -0.24039882 -0.18284018 0.41867465 -0.02164882 0.2637136 -0.11220824 0.06622177 0.105542675 -0.39018497 -0.19706814 0.02830833 0.11113436 0.17123002 0.02088056 -0.38981837 0.0609174 0.16262804 0.31402075 -0.36498797 -0.008419641 0.5074037 -0.21641238 -0.6121354 0.017296199 -0.2683745 -0.3030987 0.08045451 0.59358823
690 -0.40460226 0.19129263 0.5083088 0.28728282 -0.3971159 -0.16830951 -0.24014187 -0.14620355 0.13665983 -0.036114067 -0.23202738 0.11184417 -0.20142968 -0.27657887 0.14229256 0.01812494 0.042467367 -0.027653687 0.659604 0.2911016 -0.2888392 -0.5296235 0.3005707 0.059506066 0.13425599 0.14564717 0.26726523 0.52074564 -0.09880939 0.06438833 -0.15905115 0.22890046 0.32687864 0.024731707 -0.0065494776 -0.55460584 0.018441688 -0.7251076 -0.155173 0.23983704 -0.0075819837 -0.44855165 0.0578555 0.123827 -0.5001898 0.07226048 0.36681014 -0.029996373 -0.4192658 0.36615527 -0.24155343 -0.39941594 -0.07353126 0.09555373 -0.07596747 0.4555866 0.14897291 0.005932956 -0.06658838 -0.043120556 -0.014539482 -0.21898417 -0.14192513 0.16793281 0.22907047 0.16349313 0.13607109 0.20272163 0.10070887 0.5185692 0.33466542 0.07127596 -0.7081433 -0.11281373 0.03852947 -0.011213312 0.28912666 0.7245516 -0.38946304 -0.085575946 0.08328358 -0.018378746 -0.63206685 -0.21798898 -0.011498823 -0.003224218 -0.1943636 0.06488469 -0.12590311 0.11499873 0.26914915 0.16010861 -0.49814945 0.32234684 0.4357742 -0.47659773 0.1153895 -0.30903116 -0.14708321 0.10779627 -0.14302488 0.037880793 0.2973078 -0.25701162 0.4167503 -0.08765455 -0.19372676 0.029820658 -0.4646872 -0.19326691 0.225565 -0.002251427 -0.18671647 -0.16216569 -0.29886755 0.13527586 0.13022622 0.22473338 -0.13527773 -0.20439115 0.6543564 -0.23420355 -0.3371323 0.1887036 -0.26767877 -0.34358245 0.039041325 0.8613143
